svm_type c_svc
kernel_type rbf
gamma 0.00502513
nr_class 2
total_sv 75
rho -0.000309135
label 1 -1
nr_sv 40 35
SV
1 0:5.512095 1:6.4962668 2:3.1518295 3:-1.426765 4:-0.57183951 5:-0.38775164 6:-1.932439 7:-1.1389914 8:-0.24611761 9:0.72344589 10:-0.70256096 11:-1.5328273 12:-1.559831 13:-1.9307139 14:-0.92820513 15:-0.98084295 16:-2.5872993 17:-0.52120197 18:-0.9111765 19:0.73392242 20:-2.1947126 21:-0.96170259 22:-0.36319762 23:-1.2892973 24:-0.4690567 25:-1.0946125 26:-1.1490873 27:-0.9311586 28:-0.65322912 29:-0.836743 30:-1.6366556 31:-0.7550239 32:-0.37654424 33:-0.83328277 34:-0.88834715 35:-1.9915735 36:-0.58945143 37:-1.8611618 38:-1.7666641 39:-0.56987572 40:-1.1117827 41:-1.6163213 42:-0.79810387 43:-0.61300921 44:-1.5306703 45:-0.23062228 46:-1.095503 47:0.27795684 48:-1.3470579 49:-0.030222325 50:-1.7241285 51:-0.86512023 52:-1.8705745 53:-0.56548232 54:-0.053590879 55:-1.6084901 56:-0.76179421 57:-1.3671962 58:-1.657666 59:-1.6774509 60:-0.34664586 61:-0.69373626 62:-0.23068061 63:-0.011007234 64:-0.25192934 65:-0.49977103 66:-1.272066 67:-0.45634943 68:-0.57399189 69:-1.4429678 70:-0.36279365 71:1.0264989 72:-0.51960164 73:1.6654021 74:-1.5389491 75:-0.38060653 76:0.21249855 77:-1.3215557 78:-0.30577344 79:-0.48240852 80:0.52905381 81:-1.7288423 82:-1.2678221 83:-0.61108011 84:-1.1688588 85:-0.93921119 86:-0.87469167 87:-0.52411228 88:0.079691581 89:-0.63008958 90:0.38383135 91:-0.91147166 92:-0.67496532 93:-0.3303428 94:0.65581799 95:0.076183729 96:-1.0113446 97:-1.3721185 98:-1.2422431 99:-1.2492979 100:0.35288644 101:0.28035405 102:-0.13831322 103:1.2701398 104:1.0172757 105:-1.7765347 106:0.4818556 107:-1.1080384 108:-0.82270938 109:-1.6276425 110:-0.77692026 111:-0.10531595 112:-1.8619851 113:-0.82501876 114:-2.0869312 115:0.37575287 116:-0.49430332 117:-2.2913535 118:-1.1069341 119:-0.21960647 120:-0.93902129 121:0.65810096 122:-0.1517994 123:-1.2210705 124:-1.4941479 125:-1.455435 126:0.18439899 127:-1.6016401 128:-1.5541246 129:-0.1365653 130:0.086029842 131:-0.36992857 132:-0.41914982 133:-0.74297792 134:-0.36006695 135:-0.58310765 136:-1.7638685 137:-0.47809687 138:-1.0056344 139:-0.72222775 140:-0.45900801 141:-0.29412627 142:-0.51956016 143:-0.57155234 144:-0.51874852 145:-0.97673088 146:-0.51042283 147:-0.73707724 148:-1.4107528 149:-0.019721707 150:-1.3862431 151:1.22666 152:-0.40480122 153:-0.31911725 154:-0.29738384 155:-0.48086202 156:-1.6989328 157:-1.1080223 158:0.21392916 159:0.47165474 160:-0.89308608 161:-1.2556751 162:-2.0177147 163:-0.44660562 164:-0.96686071 165:-1.1304269 166:-0.41087145 167:-0.67189741 168:-2.2360177 169:-2.1309612 170:-0.6251384 171:0.53384745 172:-0.71981114 173:-1.0438668 174:0.62702972 175:-0.71516585 176:-1.4661498 177:-1.0950974 178:-1.1593578 179:-1.0833167 180:-0.74160284 181:0.044013795 182:-0.15440783 183:-0.87347335 184:-0.4687455 185:0.058008906 186:0.7976597 187:-1.7896342 188:-1.9400878 189:-0.93034154 190:-1.1900425 191:-0.76957905 192:-0.91555202 193:-2.164258 194:-1.9298979 195:-0.35621104 196:0.76424593 197:-1.4740064 198:0.012173736 199:-0.78337896 
0.5958738968905507 0:0.35330355 1:0.73034763 2:1.0658348 3:3.4391336 4:4.2345295 5:7.7216859 6:0.014495516 7:-0.066472016 8:-0.0012953233 9:0.76099145 10:-0.79727596 11:0.04164682 12:-0.099418767 13:0.29719925 14:-1.1315844 15:0.93657404 16:0.064708032 17:-0.72208148 18:0.35805187 19:1.8997784 20:0.096545577 21:0.064826682 22:-0.76995909 23:1.2162347 24:1.972219 25:0.22414875 26:0.1149029 27:-0.33823377 28:0.28579521 29:0.6104207 30:-0.11834766 31:0.63327992 32:0.17580226 33:0.98271203 34:-0.086185776 35:-0.27901563 36:0.67586917 37:0.11704644 38:-0.01575619 39:-1.1227138 40:-0.18267988 41:0.14834693 42:-0.093966 43:-0.028908214 44:-0.57468748 45:0.64720029 46:-0.19977586 47:-0.21793294 48:0.54694504 49:0.59778637 50:0.50714827 51:0.057138946 52:0.02104428 53:-0.60152143 54:1.5281835 55:0.20457143 56:-0.56252766 57:0.69734025 58:-0.14358412 59:0.72237408 60:-0.52713943 61:-0.85366416 62:1.3787713 63:-1.1189348 64:-0.38824999 65:0.66118377 66:0.42417672 67:0.12154797 68:-0.047369406 69:0.48058555 70:0.41898176 71:-0.53874326 72:-0.9559564 73:2.0532105 74:-0.53222126 75:-0.70364243 76:0.075603254 77:0.36911076 78:-0.067903496 79:1.6785754 80:1.0943654 81:-1.0480988 82:0.22749795 83:-0.19659828 84:-1.4313664 85:0.51183021 86:0.73983973 87:-0.553397 88:-0.1002247 89:-0.21753256 90:0.49346769 91:-0.14544885 92:-0.75116068 93:0.31619212 94:0.83313608 95:-0.018759748 96:-0.65468949 97:-1.1219752 98:0.7282145 99:0.70736855 100:0.10249534 101:-0.11495195 102:-0.33568552 103:-1.1175637 104:-0.43801111 105:0.22294615 106:-0.90247279 107:0.16704364 108:-0.23030446 109:-0.15795989 110:0.68665034 111:-0.39229918 112:0.4737522 113:1.1935912 114:0.50873703 115:-0.08158268 116:-0.52774543 117:-0.54341364 118:-0.82207799 119:-1.7864982 120:-1.1331779 121:1.045077 122:-1.2121772 123:0.47423929 124:-0.45883998 125:-0.082637072 126:0.068617739 127:-0.31832394 128:-0.89441198 129:-0.096677773 130:-0.28789112 131:0.69904757 132:0.23280805 133:-0.89509052 134:-0.56470352 135:-0.80479437 136:0.13549823 137:0.24836329 138:-1.4816263 139:-1.0177838 140:-0.20224567 141:0.075150631 142:-0.84802115 143:-0.28178898 144:-0.61216903 145:-0.61988389 146:0.39382076 147:-0.043505538 148:1.1865387 149:0.37939501 150:0.57131052 151:1.6728046 152:1.380505 153:0.99425012 154:0.090572789 155:-0.92194426 156:0.19012292 157:-0.12591246 158:-0.058854591 159:-0.45367691 160:0.21769272 161:-0.78699982 162:-0.051415712 163:-0.54171187 164:-0.11168246 165:0.30191541 166:-0.15541734 167:1.4667829 168:0.14045191 169:-0.26450756 170:-0.12203998 171:-0.35682854 172:-1.2729764 173:-0.82760727 174:0.89788622 175:0.14087753 176:1.2136042 177:0.42081121 178:1.082363 179:0.001454315 180:0.1599153 181:-0.30782136 182:-0.76855469 183:0.61587435 184:0.019616794 185:0.11821711 186:-1.24493 187:0.3490864 188:0.00079188548 189:-1.5287586 190:-1.0058136 191:-0.14998217 192:-1.218798 193:0.40822345 194:0.042053305 195:-1.3795769 196:-0.27085495 197:-1.6832421 198:-0.81041193 199:-0.04726246 
0.6673522505740533 0:0.7006188 1:1.1560063 2:-0.25335118 3:0.70479959 4:-0.33047634 5:-0.66340595 6:0.77912301 7:5.8604717 8:6.3372631 9:0.091782682 10:-0.19951908 11:0.8280797 12:0.63918024 13:0.64601254 14:1.4027802 15:0.91908991 16:0.72215277 17:-0.66523218 18:1.0003954 19:-0.86505526 20:0.79368788 21:0.10371841 22:0.40485102 23:0.48554745 24:-0.55078071 25:0.73387021 26:-0.13315335 27:0.43664795 28:0.50371337 29:0.030028492 30:0.6758517 31:-0.58088684 32:0.35426697 33:-0.27720186 34:-0.082426406 35:0.45289242 36:-0.045151513 37:0.58987725 38:0.48784852 39:-0.4231635 40:0.80278015 41:0.78845197 42:-0.68071359 43:0.078790158 44:0.22879052 45:0.79059678 46:0.23096126 47:-0.42940888 48:0.83956409 49:1.0098701 50:0.88934326 51:1.939678 52:0.44406277 53:-0.17237221 54:-0.10509574 55:0.52862197 56:-0.2476389 57:-0.43205658 58:0.52973336 59:0.37321919 60:-0.33451197 61:0.19834965 62:0.55315614 63:-0.8177706 64:0.28162867 65:-0.032756504 66:0.9671371 67:0.19464335 68:-0.10671762 69:0.83766401 70:0.23268296 71:0.15717719 72:0.64021915 73:-0.48841432 74:0.71935982 75:-0.16763 76:0.94051313 77:-0.050840583 78:0.94068748 79:1.7487326 80:1.1535227 81:0.85441619 82:-0.18913619 83:0.39084083 84:0.05080726 85:-0.3494055 86:1.7655504 87:-1.0227984 88:0.71325928 89:-0.40590581 90:0.98039544 91:-0.4661575 92:-0.35662535 93:0.16215752 94:0.76726288 95:0.015430762 96:0.026313068 97:0.26194105 98:1.0885657 99:-0.10403777 100:0.19693433 101:-0.42918131 102:-0.68386817 103:-0.13559172 104:0.046404924 105:0.83110374 106:1.4997083 107:0.27663776 108:-0.84612823 109:0.50367504 110:0.067989446 111:0.32042274 112:0.51742363 113:0.70772511 114:0.58006215 115:-0.91151088 116:-0.87029654 117:0.55552971 118:-0.3696622 119:0.51044017 120:0.15520835 121:0.41990358 122:0.66509795 123:-0.16302875 124:-0.018794965 125:0.34085611 126:0.031610932 127:0.29856747 128:1.543238 129:-0.56301248 130:0.23312119 131:1.271511 132:0.49836472 133:1.1943146 134:0.7063455 135:-0.22782803 136:0.44070306 137:1.4087441 138:-0.57453859 139:0.52427852 140:-0.38525355 141:-0.65113336 142:-1.0727676 143:0.52379882 144:-0.055524871 145:-0.78247029 146:-0.60723716 147:-0.10973895 148:0.12436187 149:1.0586538 150:-0.10993429 151:0.16464734 152:0.31202787 153:-0.12784049 154:0.49440986 155:0.53638852 156:2.1924233 157:0.61092079 158:-0.53065985 159:-1.1860774 160:0.72546679 161:2.5322483 162:0.65036589 163:0.40384245 164:-0.24939848 165:0.24956989 166:0.027702639 167:-1.2248287 168:0.70576918 169:0.61036462 170:1.2585776 171:-0.8341924 172:-1.410013 173:0.14386353 174:-0.28381938 175:0.40007561 176:0.041456938 177:0.4268339 178:0.056359779 179:0.00088772533 180:-0.33530739 181:-0.59667957 182:-0.44971588 183:-0.069945619 184:-0.73819548 185:1.1379931 186:0.10536901 187:0.68482113 188:0.62701494 189:0.71953863 190:-0.071256235 191:0.18934795 192:0.96882898 193:0.72159404 194:0.42713848 195:-0.95968789 196:-0.73592263 197:0.63332218 198:0.80002046 199:1.8637228 
1 0:-0.19484319 1:0.58911276 2:-0.78674734 3:-0.82859075 4:-0.95138007 5:-0.55382591 6:0.47970277 7:-0.98738337 8:0.31118855 9:4.3370128 10:7.0512881 11:1.5243413 12:0.062661283 13:0.45709419 14:0.15502077 15:-0.10363118 16:0.30262253 17:-0.60959023 18:0.24256909 19:0.06016586 20:0.41712639 21:1.0259738 22:1.517489 23:0.38442686 24:-0.42598891 25:-1.3937587 26:-0.7901991 27:0.80011463 28:0.90035403 29:0.50258344 30:0.66001791 31:-0.65485477 32:0.52792406 33:-0.24283317 34:0.82169992 35:0.59442192 36:1.3659787 37:0.3936874 38:0.58867967 39:-0.6894266 40:0.85073513 41:0.51880741 42:-0.093154497 43:-0.42614973 44:0.39983812 45:0.67386073 46:-0.30952924 47:0.58547813 48:0.33205959 49:0.15398215 50:0.26886001 51:-0.61012691 52:0.97685277 53:-0.55796582 54:-0.52991784 55:0.9905591 56:0.74472702 57:-0.066206947 58:0.58896744 59:0.64077461 60:-0.38133472 61:0.43910947 62:-0.28412816 63:0.064897522 64:0.22376427 65:-0.18309107 66:1.0042077 67:0.44106096 68:0.71402764 69:-0.91317272 70:-0.12844495 71:0.26498988 72:0.37670261 73:0.47576839 74:1.3170592 75:0.19293404 76:0.28341413 77:-0.16589652 78:-0.24602465 79:0.1188176 80:0.21445739 81:0.10295463 82:-0.05160699 83:-0.049809918 84:-0.2850399 85:0.050997175 86:0.42136419 87:-0.34255022 88:-0.7523998 89:0.1655412 90:0.1118729 91:0.11238335 92:0.5288409 93:0.54710054 94:0.4571622 95:-0.5631144 96:0.54684728 97:-1.0226203 98:-0.74321264 99:-0.5183444 100:-0.42920366 101:1.1164887 102:1.2915363 103:1.3011694 104:-0.55192727 105:0.54209137 106:0.49513218 107:0.72832859 108:0.79491717 109:0.66231471 110:-0.45677936 111:0.85745233 112:-1.0052329 113:-0.96026748 114:0.38782623 115:0.35934341 116:0.31169909 117:0.48344409 118:0.21291378 119:0.17336407 120:0.60658282 121:-0.072580785 122:0.13129096 123:-0.083052538 124:1.3762842 125:0.77395898 126:-0.21728857 127:0.69125706 128:2.5857174 129:-0.54724866 130:1.1842723 131:-0.16486159 132:0.13588436 133:0.45138723 134:0.92435896 135:1.1821367 136:0.50104851 137:-0.32023194 138:0.36659652 139:0.73608381 140:0.15990236 141:-0.054194804 142:-0.78697819 143:0.30053586 144:0.84862638 145:0.045023631 146:0.62318879 147:0.59241855 148:0.29472044 149:1.0579833 150:-0.38768181 151:-0.17893431 152:-0.27138966 153:-0.11288945 154:1.0328811 155:-0.57379645 156:-1.3114147 157:-0.30883598 158:0.029520752 159:-0.31226096 160:-0.25430954 161:-0.69321787 162:0.62499148 163:0.66313952 164:-1.2796161 165:0.3013646 166:-1.149358 167:-0.63951635 168:-0.089931518 169:0.39207885 170:-0.24081358 171:0.24737397 172:0.54028594 173:0.17618853 174:0.37674242 175:0.14804795 176:0.82863814 177:1.5604671 178:1.1605085 179:-1.1629243 180:-0.010226444 181:-0.50317276 182:-0.99297875 183:1.0603784 184:-0.61864042 185:0.91965961 186:-0.19727579 187:0.67301631 188:0.48912126 189:1.1524243 190:0.20103157 191:0.61983216 192:1.2038295 193:0.50477684 194:0.69303846 195:0.55701387 196:0.28829554 197:-0.40314671 198:0.011930755 199:0.29651579 
0.4003504695657855 0:-0.51071149 1:0.46813166 2:-0.34921426 3:-0.68789989 4:0.0032838786 5:0.59516156 6:0.39492595 7:0.98197073 8:-0.68460822 9:1.1932904 10:0.2838552 11:0.23002039 12:1.7283925 13:2.1532955 14:4.1749973 15:-0.061350863 16:0.32837245 17:-0.86420995 18:-0.77296287 19:-0.92899162 20:0.083830364 21:-0.59016955 22:-1.1056968 23:0.38832 24:-0.75881362 25:0.49908701 26:-0.54969299 27:0.023288928 28:-0.64877194 29:0.39722311 30:0.71687502 31:-0.23516047 32:-0.58024305 33:0.33304876 34:-0.49877557 35:0.44607434 36:-0.13521491 37:0.29506415 38:0.064444616 39:-0.13441485 40:0.44807827 41:0.13324721 42:-0.27907065 43:1.0118493 44:-0.043346044 45:-0.21941064 46:2.6564307 47:0.83307493 48:0.21623658 49:-0.45563254 50:0.37104779 51:-0.6484462 52:0.14497396 53:-1.1677262 54:0.56716365 55:0.10878709 56:-0.3060151 57:0.89749521 58:0.24895641 59:0.22426313 60:-0.37029329 61:-0.17502359 62:0.56139249 63:-1.1057614 64:0.051138304 65:-0.056855999 66:-0.27787969 67:0.71767384 68:-0.64059669 69:0.98440844 70:-0.20196287 71:0.095564626 72:-0.2366626 73:-0.1391073 74:0.30075988 75:0.99031228 76:0.55661225 77:0.26027337 78:0.17869385 79:-0.063816838 80:0.83314979 81:-1.0579555 82:-0.20086798 83:0.19459508 84:-1.3698212 85:0.27963009 86:0.34832597 87:-0.8920483 88:0.22779317 89:-0.40926355 90:0.70230043 91:-0.85994172 92:-0.9129535 93:-0.60861677 94:-0.046671811 95:0.27978012 96:-0.29345277 97:0.037928361 98:-0.066016197 99:-1.3613582 100:-0.26476327 101:-0.41256002 102:0.51192284 103:-1.427579 104:-0.17755991 105:0.53612942 106:-1.0217721 107:0.27593043 108:-0.7372244 109:0.35528108 110:0.55976278 111:-0.87906832 112:0.22954807 113:-0.43453607 114:0.10247205 115:0.42350143 116:0.19332103 117:0.3910293 118:0.35929555 119:-0.99678123 120:-0.33474523 121:0.37615365 122:-0.97461575 123:0.47971743 124:-0.13193399 125:0.062935181 126:0.23108514 127:0.079944715 128:-1.1383603 129:-1.1450566 130:0.14792466 131:0.81534922 132:0.45703378 133:-1.0052493 134:-0.79050648 135:-1.2428145 136:-0.11766165 137:-1.2972614 138:1.0629247 139:-0.72299099 140:0.94335699 141:1.4955435 142:-0.53668171 143:-0.6425305 144:-0.32806343 145:-1.1735656 146:0.99608481 147:-0.1371001 148:0.62780374 149:-0.54824245 150:0.36327925 151:0.045787182 152:0.10240991 153:-0.20399554 154:-0.54753661 155:-0.79411513 156:0.14587025 157:-1.2361708 158:-0.89884233 159:0.10283973 160:-1.2430843 161:-0.91116512 162:0.10097889 163:1.0569164 164:-0.82467705 165:0.30746102 166:1.2602304 167:0.22572961 168:0.2739836 169:-0.27022871 170:-0.96927768 171:-0.0042345091 172:-1.0876776 173:1.075783 174:-1.4530559 175:-0.32065406 176:-0.45595312 177:-0.35600317 178:1.3484581 179:-0.11663429 180:-0.090286933 181:-1.0667052 182:-1.4744549 183:0.48981628 184:1.4141772 185:0.16167171 186:-0.93056041 187:0.087186575 188:0.17329621 189:-0.71032882 190:-1.5823743 191:0.081761211 192:-1.4683985 193:0.10414671 194:-0.30955335 195:-0.78053033 196:-1.3046054 197:-0.76808941 198:-0.30059263 199:-0.9292438 
1 0:-0.39113846 1:-1.3193749 2:0.12895867 3:1.039819 4:-1.2876709 5:-0.050602298 6:0.21052541 7:-0.71120828 8:0.9705081 9:-1.7082869 10:-0.11281689 11:-0.28093615 12:-0.040613391 13:-0.35256213 14:-0.55079406 15:2.4862432 16:1.4097242 17:5.8011074 18:-0.44568634 19:-1.0069405 20:0.36517408 21:-0.069254212 22:-0.89454848 23:1.0472059 24:-0.39835644 25:-0.57960516 26:-0.60334647 27:-0.53370136 28:-2.0702822 29:-0.066831335 30:-1.017572 31:-0.44527864 32:-0.95420092 33:-1.5791568 34:0.4635002 35:0.047850408 36:-0.0055369651 37:-0.073943891 38:-0.24361168 39:-1.6929708 40:-0.15551682 41:-0.26522738 42:-0.053661007 43:-0.26153931 44:-0.88545257 45:-1.0130222 46:-1.4973036 47:-1.015988 48:-0.029349839 49:-2.1782422 50:0.72445929 51:0.71363956 52:-0.20336372 53:1.9445764 54:0.20278496 55:0.37885532 56:-1.2925494 57:-2.2336395 58:0.042201135 59:-1.0003035 60:0.55757987 61:-1.506102 62:-1.5485108 63:0.85211968 64:0.25347912 65:-1.0560805 66:-0.64943272 67:-0.40409848 68:-1.1957655 69:1.0407217 70:-0.51057035 71:-1.5281332 72:-2.2159982 73:-0.7648828 74:-0.63461632 75:-0.38040578 76:-0.17458083 77:0.081153437 78:-0.59894782 79:-1.5439273 80:-1.2898901 81:0.81009108 82:-0.29844683 83:-0.46078813 84:-1.383395 85:-1.2563008 86:-1.4383844 87:1.2365856 88:-2.0885186 89:-0.36789969 90:-2.2282395 91:-0.99029315 92:-0.35084552 93:0.40099671 94:-1.3113495 95:0.27078217 96:-0.4277353 97:-1.1564827 98:-0.12930247 99:-1.8184148 100:-1.0216761 101:1.3480196 102:0.11963446 103:-0.43659607 104:0.84106487 105:-0.27174914 106:-1.6618422 107:-0.60721958 108:-0.20988403 109:-0.42442802 110:-0.071948543 111:-1.4808701 112:0.42216492 113:-1.2775939 114:0.07671158 115:-0.99702609 116:-1.1638069 117:0.54802924 118:-1.6423967 119:-1.7669547 120:0.92226917 121:-0.59538311 122:-2.267719 123:-0.68718016 124:-0.2115133 125:0.20802489 126:-1.257311 127:0.14245212 128:-1.3943644 129:1.2224025 130:-1.2039595 131:-0.30386245 132:-1.4965851 133:-0.88800913 134:-0.92225647 135:-1.793933 136:-0.48242471 137:0.71197855 138:0.044446204 139:-1.0512414 140:1.0456121 141:-2.1376007 142:0.18201032 143:-0.92741638 144:0.25901484 145:0.49554461 146:-0.96760195 147:-0.73831469 148:-1.0606645 149:-1.5516907 150:-0.092032291 151:-2.1898844 152:-1.1997352 153:-1.6690551 154:-0.70528311 155:-0.12130492 156:2.1934359 157:0.67663956 158:-0.41983244 159:1.0265986 160:0.34419042 161:-1.0850728 162:0.040935673 163:-0.87789589 164:0.95972311 165:-0.94483608 166:-1.6419246 167:-0.65065569 168:0.53043264 169:0.17231926 170:1.0104296 171:-2.1925161 172:1.093646 173:-0.52835906 174:0.4475601 175:-0.69237494 176:-0.86809742 177:-0.65847546 178:-0.95615578 179:-0.38505188 180:-0.84781504 181:0.38473684 182:0.63891768 183:-0.27737191 184:-1.4434931 185:-0.7171694 186:-0.44946349 187:0.16074717 188:0.023893824 189:-0.23992938 190:-0.11723594 191:0.024148922 192:-1.481647 193:-0.16177072 194:-0.23717038 195:0.90674603 196:0.87306261 197:-0.12732659 198:-1.6198859 199:-0.63508224 
0.379525724491714 0:-0.30555028 1:0.092774026 2:-0.4053421 3:-0.76646388 4:0.49440449 5:0.13120748 6:0.17606562 7:0.20271334 8:-0.76053393 9:0.46945587 10:-0.85237181 11:1.2768518 12:0.20886728 13:0.51749897 14:-1.2407935 15:0.65053815 16:0.38063875 17:-0.20650995 18:3.1649456 19:3.6730182 20:0.55240273 21:1.4797553 22:-1.1722146 23:-0.27206674 24:0.95094281 25:-0.70670664 26:0.75520027 27:0.56263757 28:-0.039131984 29:-0.23271514 30:0.89649105 31:-0.22421043 32:-0.44083735 33:-0.27162129 34:-0.91017014 35:-0.14954413 36:0.0034916257 37:0.54028839 38:0.24024215 39:1.0835015 40:0.77313703 41:0.58115917 42:-0.21644504 43:0.97132021 44:0.068754263 45:0.19700986 46:1.5305561 47:0.69049507 48:0.25618109 49:0.68464488 50:-0.0628675 51:-0.42984697 52:-0.1902009 53:-0.47879055 54:1.3496689 55:0.21142529 56:0.72518915 57:-0.23753884 58:0.14965163 59:0.44341367 60:-0.9139275 61:0.43299517 62:0.11685881 63:-1.1626796 64:0.62671828 65:0.33217537 66:0.51284903 67:0.1345208 68:1.2052745 69:-0.10048021 70:0.076930799 71:0.55401427 72:-0.052719221 73:1.0600309 74:0.098533764 75:-0.38091293 76:-0.064234346 77:-0.19742675 78:-0.4881978 79:0.088655889 80:0.30023798 81:-0.64315844 82:0.067385338 83:1.3976611 84:-0.45149317 85:0.35373014 86:0.30813137 87:-0.82350069 88:-0.17893502 89:-0.61082679 90:-0.6681633 91:-1.2163711 92:-0.053239979 93:1.4413344 94:-0.15988716 95:0.34648612 96:-0.3347455 97:0.0080773532 98:-0.92815959 99:-0.41201052 100:0.14218488 101:-0.88858622 102:-0.24802986 103:-0.71932095 104:-0.054139912 105:0.77850676 106:-1.1160021 107:0.90997642 108:0.63397372 109:0.45204791 110:0.93807197 111:0.45595896 112:-0.40446904 113:1.2869399 114:0.085828811 115:-0.53180307 116:0.16465716 117:-0.0022851992 118:1.2630204 119:-0.70653558 120:-0.0086323693 121:0.29604134 122:-1.5051244 123:0.74927419 124:1.2771076 125:0.20315845 126:0.70472485 127:-0.19109938 128:-0.63426757 129:-0.2848497 130:-0.36606693 131:-0.15401843 132:-0.24916872 133:-0.93623042 134:-1.2270027 135:-0.88627732 136:0.59154671 137:-1.2138001 138:-0.79209107 139:-1.0589752 140:0.14762495 141:-0.14018573 142:-0.83419001 143:0.10093366 144:-0.021042865 145:-0.34011403 146:-0.09695866 147:0.83308858 148:0.61711597 149:-1.2427882 150:0.68892306 151:0.22982556 152:0.53317523 153:0.82202631 154:1.7083138 155:-0.36606699 156:0.76914197 157:-1.2231858 158:-0.21286434 159:-0.55221528 160:-0.86182994 161:1.7810727 162:0.37529129 163:0.31659025 164:-0.99662894 165:-0.19960836 166:0.23718974 167:0.16080323 168:-0.7252655 169:-0.10100794 170:-0.53556001 171:-0.83363193 172:-0.44633135 173:0.4225944 174:-0.90669143 175:0.58889973 176:-0.47151393 177:1.1254765 178:-0.77630138 179:-0.26233307 180:-0.15432504 181:-1.162873 182:-1.2441936 183:-0.20766263 184:0.21639453 185:1.2717215 186:-0.35821649 187:0.38794571 188:-0.018413978 189:-0.18292585 190:-0.20259632 191:0.29710138 192:-1.4216384 193:0.80203021 194:0.11327724 195:-0.82435673 196:-0.079716571 197:-0.63220024 198:-0.31534418 199:1.9711313 
1 0:0.29715067 1:1.2717972 2:-0.91049927 3:-1.0408469 4:-0.54538459 5:-0.066986486 6:-0.19878624 7:-0.64627022 8:-0.78664428 9:-1.2246133 10:-0.068970479 11:0.063612975 12:0.71907777 13:0.33268797 14:1.5011481 15:1.7452011 16:-0.22008507 17:-0.11417931 18:0.029997122 19:0.4275969 20:-0.052661221 21:4.1822343 22:5.7121835 23:4.8183632 24:1.1200774 25:0.83351457 26:1.1671565 27:-0.2400723 28:0.86077231 29:-0.74831378 30:-0.34946504 31:-0.45995036 32:0.26776263 33:-0.42529431 34:-0.23913746 35:-0.0080042938 36:-0.27560735 37:-0.086267874 38:-0.071279012 39:-0.93795031 40:-0.47215194 41:-0.0013948935 42:0.6525026 43:-0.25332221 44:1.2056249 45:-0.40993351 46:-0.84609568 47:0.77078503 48:-0.18985711 49:0.10622823 50:-0.19852893 51:0.43077511 52:-0.53616196 53:-0.6838541 54:0.63295776 55:-0.60191256 56:0.81400734 57:-0.15258931 58:-0.33631411 59:-0.15451506 60:-0.11444718 61:-0.034247983 62:0.30641893 63:-0.22059843 64:0.49726382 65:0.41175914 66:0.2572515 67:0.25860837 68:0.94103277 69:-1.002288 70:0.023292704 71:-0.48337758 72:1.0423995 73:0.74847883 74:-0.35200846 75:0.33823943 76:0.23293857 77:-0.098111264 78:1.8217552 79:0.15536098 80:-1.0825452 81:2.1210747 82:-0.25253937 83:0.034607142 84:-0.38828593 85:-0.30134133 86:-0.50397944 87:0.51415557 88:0.23481847 89:0.6381492 90:-0.47961986 91:0.20710774 92:1.7507323 93:0.28387228 94:-0.25544131 95:-0.13244404 96:-0.26605788 97:-1.2601047 98:-0.023740454 99:-1.3577451 100:0.057857994 101:-0.80923992 102:-0.11473059 103:0.89854097 104:0.11559508 105:0.12083121 106:-0.15124413 107:0.038694959 108:-1.595264 109:0.19396096 110:0.75674999 111:0.54126006 112:-0.52831215 113:-0.12361595 114:0.096107192 115:1.4926952 116:0.56576645 117:-0.28971124 118:-0.13805817 119:-0.0022134418 120:0.20489061 121:-0.32156214 122:-0.92203295 123:-0.25561461 124:-0.41621584 125:-0.90572244 126:-0.67124993 127:0.053569961 128:-0.088746123 129:0.038477439 130:-0.59715688 131:-0.26002631 132:-0.81036037 133:0.33053729 134:1.6185718 135:-0.46793357 136:-0.65887731 137:-0.25037554 138:1.5747191 139:-0.019354591 140:-0.36032468 141:0.19141945 142:-0.050276153 143:0.19887139 144:0.80514908 145:-0.41300637 146:0.22667408 147:0.47783807 148:0.12155415 149:-0.90662706 150:0.029896934 151:-0.19361421 152:-0.069308452 153:0.83206826 154:0.62495792 155:0.78269756 156:-0.87911212 157:-0.33251852 158:-0.25936574 159:0.095357232 160:-0.62632126 161:-0.78334045 162:-0.13353053 163:0.041874446 164:-0.18202853 165:0.43951011 166:-0.23369637 167:0.24195579 168:-0.13947102 169:-0.07776358 170:-0.25916079 171:0.81587809 172:0.29911983 173:-1.0615481 174:0.76083946 175:-0.91505569 176:0.097912706 177:0.46937218 178:-0.12917297 179:0.79854029 180:-0.36607814 181:-0.25480613 182:-0.53026211 183:-0.54549545 184:0.12160303 185:0.12736657 186:-0.68407995 187:0.30697969 188:-0.10176256 189:-0.46956518 190:-0.25638133 191:-0.20856512 192:0.47090054 193:-0.13979274 194:0.19444011 195:0.48550439 196:0.29154733 197:-0.5354498 198:-0.60200298 199:-0.62120414 
0.7301860424418367 0:-0.82523423 1:-0.2177546 2:-0.6786781 3:-0.7741912 4:0.965716 5:-0.66587389 6:0.22802985 7:-0.19877592 8:-1.0590123 9:-0.23928516 10:-0.76578087 11:0.30323032 12:-0.037372667 13:-0.092807531 14:0.5315271 15:1.2389154 16:0.27369553 17:-0.98692572 18:0.93299168 19:1.0447208 20:0.20993599 21:-0.29368013 22:-0.66113275 23:0.73852801 24:4.1157818 25:1.7104014 26:3.3983335 27:0.48298281 28:-0.098022975 29:-0.51806891 30:0.99803823 31:-1.8477532 32:1.2348155 33:-0.62371343 34:-0.53871304 35:-0.098392986 36:0.14031543 37:0.53300697 38:0.21133639 39:-1.1853247 40:-0.11487377 41:0.46674299 42:-0.17861876 43:0.83258516 44:1.2804787 45:1.0454197 46:0.084987432 47:0.7995255 48:0.063653871 49:0.024707898 50:0.70984268 51:-0.68682522 52:0.31802052 53:-0.91814852 54:1.0103182 55:0.23248295 56:-0.3949075 57:1.0666056 58:0.27150336 59:0.48844913 60:-0.34964001 61:-0.16902629 62:-0.46342307 63:-1.5264386 64:0.95099592 65:0.75727969 66:-0.6635502 67:1.446792 68:1.0923126 69:0.41367933 70:-0.28860557 71:0.50622821 72:-0.31859207 73:0.51364237 74:-0.12492929 75:-0.780442 76:-0.29518336 77:-0.72429401 78:0.62355715 79:0.6999703 80:0.49527904 81:-0.27158588 82:-0.21289493 83:0.54085338 84:0.069032952 85:-0.46882167 86:-0.63750452 87:-0.95371377 88:-0.49761549 89:-0.75122511 90:1.0828995 91:-1.4034363 92:-1.0610027 93:1.0491793 94:0.25341755 95:0.59340566 96:-0.9114694 97:-0.69029915 98:0.75177646 99:0.41317582 100:0.90661699 101:-1.2249997 102:-1.1743506 103:-1.2570894 104:-1.7444144 105:0.64293778 106:-0.1826455 107:0.56311566 108:0.47912356 109:0.51367801 110:0.39340675 111:0.49001369 112:-0.86433774 113:0.33990473 114:0.3483254 115:-0.36032993 116:-0.50608915 117:-0.11074167 118:0.75789171 119:-0.2218897 120:-0.58379215 121:-0.226051 122:-1.3166215 123:0.032704454 124:-1.0770574 125:0.38278553 126:0.2215081 127:0.083839118 128:-0.64778125 129:-0.63432038 130:-0.42132643 131:-0.27388027 132:-0.50785226 133:-0.14963211 134:-0.31094441 135:0.079119369 136:0.40724203 137:0.12804002 138:-0.037865218 139:-0.72221649 140:-0.24732451 141:0.086578265 142:-1.3096027 143:-0.53873014 144:-0.49836302 145:-0.59384698 146:-1.1057221 147:-0.54727513 148:0.82139117 149:-0.052910972 150:-0.30194139 151:0.68419826 152:0.019028109 153:-0.084298991 154:0.97564495 155:-0.76258236 156:-0.15682909 157:0.13199157 158:-0.74062991 159:-1.6168151 160:-0.92081958 161:-0.51080626 162:0.070586771 163:0.52504271 164:-1.6579275 165:0.13535754 166:-0.12650284 167:-0.81369543 168:-1.0472767 169:0.57774359 170:-0.87436515 171:-0.90928376 172:-1.4868615 173:-0.68406796 174:-0.25543931 175:-0.18844928 176:-0.83013994 177:0.52017152 178:-0.83604813 179:0.27170396 180:-0.63254267 181:-0.19543982 182:-1.1986115 183:0.16789627 184:0.54460478 185:0.42805666 186:-0.59203994 187:0.36688137 188:0.12559304 189:0.73055148 190:-0.54202789 191:-0.19619162 192:0.038666327 193:-0.30040839 194:0.45805278 195:-1.3755844 196:-1.4928896 197:0.53255337 198:-0.29534078 199:1.229562 
1 0:-0.10477209 1:0.34575474 2:0.83500737 3:-0.025594447 4:0.40327591 5:0.53878993 6:0.62874305 7:0.34912604 8:0.8197934 9:1.2118741 10:1.1486969 11:0.65879428 12:0.53969556 13:0.8996495 14:-0.587277 15:0.020204505 16:0.57798439 17:-0.2528106 18:0.20224223 19:-0.71521586 20:0.64122915 21:1.3069268 22:-0.93601489 23:0.43644515 24:-0.23735762 25:1.1033369 26:1.3666657 27:2.583992 28:2.1676326 29:1.7360878 30:0.44767883 31:0.44571978 32:-0.0066354838 33:0.89722192 34:1.2592067 35:0.81518984 36:0.6522665 37:0.63489431 38:0.58624256 39:0.81625313 40:0.75123346 41:0.6151132 42:0.4131501 43:-0.22186868 44:2.4282277 45:-0.16518231 46:0.56993431 47:0.65164649 48:0.800767 49:0.3931798 50:0.55380362 51:1.4679968 52:0.59235793 53:2.5717165 54:0.07841827 55:0.4972378 56:1.8977215 57:1.7304552 58:0.75656056 59:1.3696219 60:1.7513471 61:0.86431307 62:0.47141916 63:0.032966245 64:1.2206866 65:0.30016622 66:0.8490712 67:-0.049095552 68:0.10134006 69:1.7982824 70:0.025166141 71:1.5872588 72:0.38832724 73:0.23360933 74:0.5387997 75:0.14692189 76:0.19612971 77:-0.029125085 78:0.63825738 79:0.83507907 80:-0.37420323 81:-0.79559439 82:-0.21687172 83:0.64001226 84:0.72950947 85:0.20774962 86:1.5422478 87:0.4370234 88:1.7381154 89:-0.29812893 90:1.3328627 91:0.72991818 92:0.95295221 93:0.11349241 94:0.36359343 95:-0.68921399 96:0.39174971 97:2.0533891 98:0.4809818 99:0.34942308 100:-0.36133438 101:1.8293581 102:-0.018196354 103:0.23018934 104:-0.00084944943 105:0.78137821 106:-0.0094434135 107:0.66271359 108:1.2173833 109:0.64430934 110:0.33542049 111:0.33378842 112:1.4315069 113:-0.036868315 114:0.44019654 115:0.86596602 116:0.80637991 117:0.61901754 118:0.26050961 119:0.032481994 120:0.72562134 121:-0.28081521 122:-0.79465812 123:1.1900769 124:1.3630631 125:0.92454141 126:1.4073058 127:0.51972818 128:0.028452011 129:0.24663763 130:0.77736229 131:1.3046565 132:0.29986122 133:-0.12606832 134:-0.87536502 135:0.71136224 136:0.45743358 137:0.74166483 138:-0.12721255 139:-0.17535388 140:-0.20256273 141:0.56264234 142:0.88129973 143:-0.34561241 144:-0.26631489 145:1.4313023 146:0.62447417 147:0.32203266 148:-0.033107042 149:0.31117088 150:0.70703369 151:0.1818869 152:0.78043097 153:-0.6512875 154:-1.138903 155:-0.36261839 156:1.3601971 157:0.57123196 158:0.25939974 159:-0.46363154 160:1.6936795 161:-0.90191853 162:0.47099841 163:0.7020067 164:1.1848139 165:1.0256413 166:0.52519703 167:-0.010762683 168:1.0496839 169:0.51721311 170:1.0620475 171:1.2347394 172:0.9169237 173:1.6453412 174:0.26218238 175:1.4173607 176:1.1559702 177:0.86136931 178:1.3891691 179:0.98427671 180:-0.10955721 181:-0.16589509 182:0.84134835 183:0.85881305 184:1.0276573 185:-0.15408525 186:-0.31379285 187:0.73916048 188:0.64640027 189:-1.2162285 190:0.73723286 191:0.67100281 192:-0.1429953 193:0.6296823 194:0.32133853 195:-0.27531487 196:-0.1119497 197:-1.3013049 198:0.57019711 199:0.099774063 
0.1185619398791629 0:-0.36720523 1:0.51764077 2:-0.16267501 3:0.82304317 4:1.9450903 5:0.61730939 6:0.65199077 7:1.3143256 8:0.44580743 9:-0.034731418 10:-0.29960275 11:0.54348254 12:0.53069848 13:0.44331595 14:2.349261 15:1.0564716 16:0.48688212 17:-0.4067235 18:1.0401329 19:1.2468743 20:0.68565363 21:0.048371665 22:0.57275599 23:1.0651125 24:1.0163594 25:1.0768368 26:0.95493448 27:0.70246834 28:0.32108283 29:-0.96031684 30:2.5815258 31:3.1430733 32:5.0000057 33:2.0299149 34:0.17176972 35:0.45704928 36:0.76282609 37:0.56429815 38:0.58867967 39:-0.14023806 40:0.56665075 41:0.58057797 42:-0.42954218 43:1.0543797 44:-0.72420639 45:0.24651356 46:1.4749477 47:0.030665467 48:0.52698886 49:-0.16421783 50:0.62789327 51:0.08746817 52:0.14834593 53:0.14562924 54:0.76965547 55:1.0467216 56:-0.18217711 57:0.95984513 58:0.53691834 59:0.92350835 60:0.60527933 61:0.21791159 62:1.1339012 63:0.63768208 64:-0.18492414 65:0.90493155 66:0.19139971 67:-0.15417938 68:1.2212392 69:-0.38276395 70:-0.39871868 71:0.54545176 72:-0.013084505 73:0.59766144 74:0.47090068 75:0.99452788 76:1.3259271 77:0.64160734 78:0.45107409 79:0.38379499 80:1.9002149 81:-0.14183456 82:0.28633401 83:1.5784341 84:0.68504655 85:0.88765907 86:0.53912455 87:-0.055457313 88:-0.36151606 89:0.098900586 90:1.2085584 91:0.37112403 92:-0.017318329 93:1.8018906 94:0.6808809 95:1.1540349 96:0.62026936 97:-0.00059728231 98:-0.97805893 99:-0.29753348 100:0.88585371 101:0.28587037 102:0.65256494 103:-0.83448654 104:1.4463526 105:0.70296133 106:-0.66289943 107:0.71553427 108:-0.7339409 109:0.48472759 110:1.905074 111:0.22564091 112:-0.17413722 113:2.0164111 114:0.46389273 115:-1.4020965 116:-0.91873926 117:0.45379308 118:0.62461013 119:0.35742632 120:0.10977051 121:0.72421521 122:-0.30008274 123:0.081144229 124:0.14037362 125:-0.0095172776 126:0.93324846 127:0.36591008 128:-0.42862445 129:0.58190763 130:0.059540693 131:-0.33895937 132:-0.31918958 133:0.059184738 134:0.75788563 135:-0.69086015 136:0.68841231 137:0.62849385 138:0.94634873 139:0.31391481 140:-0.53160924 141:-1.1380532 142:-0.25589499 143:-0.33287355 144:1.2133245 145:-0.44786969 146:0.17138934 147:-0.40116879 148:-0.89782554 149:-0.4235152 150:0.33618748 151:1.3515071 152:0.90010595 153:0.48110047 154:0.71576595 155:0.23227093 156:-0.64370406 157:0.18007697 158:-0.11134852 159:-0.34226263 160:0.62020063 161:-0.23155361 162:0.52367383 163:0.35599479 164:0.045662552 165:1.2368637 166:0.15102746 167:0.14865182 168:0.80895168 169:0.55511427 170:0.22662428 171:-0.48286608 172:0.80102962 173:0.24095398 174:0.091436319 175:-0.47338367 176:-0.48634511 177:1.2562118 178:1.6336664 179:0.021162227 180:-0.10167313 181:-0.35150376 182:-0.20306662 183:1.2261162 184:1.0344187 185:-0.20035146 186:0.82523537 187:0.53228027 188:0.57695723 189:-0.56009054 190:-0.30402252 191:-0.01146167 192:-1.1150991 193:0.83312023 194:0.34737054 195:-0.35326728 196:-0.67704153 197:-0.54125363 198:-0.81524444 199:0.5336237 
1 0:0.22838837 1:0.85304928 2:1.1678059 3:-0.13759811 4:-0.48765787 5:-0.14885807 6:-0.86595339 7:-0.54499978 8:-0.91424495 9:1.2421659 10:-0.68789917 11:-0.34721556 12:-0.51645029 13:-0.64991349 14:-1.2555906 15:-0.15273756 16:-0.37832814 17:0.83185542 18:-1.2509093 19:-1.0939807 20:-0.72388929 21:0.52170581 22:-0.54522377 23:-1.5344236 24:-0.27815288 25:-1.3455354 26:-0.91193342 27:-0.60929316 28:-0.59219313 29:-1.3161865 30:-0.34313154 31:1.2940938 32:-0.57196224 33:2.2339435 34:4.6099792 35:1.0213519 36:0.2628732 37:-0.53671044 38:-0.79927433 39:0.15889816 40:0.21052709 41:-0.64233685 42:0.45769307 43:-0.46783224 44:-0.12857845 45:-0.70875555 46:-1.098817 47:0.02452811 48:-0.59018165 49:-0.35417593 50:0.046302002 51:-0.65561843 52:-0.31990963 53:0.14390956 54:-1.3164682 55:-0.30098239 56:-1.18173 57:-0.35451722 58:-0.54258901 59:-0.46410853 60:-0.8274436 61:-0.10617656 62:0.091527916 63:-0.11008387 64:-0.97809815 65:-1.4327164 66:-0.18772893 67:-0.46780396 68:-1.3890791 69:-0.53153694 70:-0.46917275 71:-0.5612886 72:-1.8096139 73:-0.40795338 74:-0.31552052 75:0.3566654 76:-0.59434581 77:0.22071826 78:-0.91758245 79:0.93617511 80:-0.44211638 81:-1.024201 82:0.098072603 83:-1.2961324 84:-0.82239014 85:-0.84421903 86:0.71220285 87:0.00092370674 88:-1.3918705 89:0.033443477 90:-0.79937994 91:-0.3587707 92:-0.44744742 93:0.22850588 94:-0.63917255 95:-0.77418947 96:-0.17189084 97:-1.7570491 98:-0.46187347 99:0.35622171 100:-1.1307855 101:-0.58815801 102:0.23071197 103:-0.68930697 104:0.56873637 105:-0.77656943 106:1.2175217 107:-1.1319628 108:0.74529058 109:-0.32334921 110:-1.2594707 111:-0.21594109 112:-0.46800846 113:-1.0190308 114:-0.75972956 115:-0.16849987 116:-0.80905467 117:-0.25270686 118:0.17922214 119:-1.3559284 120:-0.37248364 121:-0.80641907 122:-1.1172087 123:0.3340362 124:-0.52274573 125:0.12629129 126:-0.46517795 127:-0.90215665 128:-1.0496341 129:0.045583606 130:0.062269814 131:-0.93072325 132:-0.91477281 133:-0.18773355 134:-0.9623614 135:-1.0895429 136:-0.86796391 137:0.65996701 138:-0.19137587 139:-0.81309813 140:-0.95460021 141:0.63216782 142:0.4118022 143:0.21564387 144:-0.82558841 145:-0.99752414 146:0.92969048 147:-1.038911 148:-1.3400095 149:-0.44010255 150:-1.3570509 151:-0.1581666 152:0.46540946 153:-0.36432347 154:-1.2420391 155:-0.59852755 156:-0.16295224 157:-1.1469941 158:-0.22789092 159:-0.84734839 160:-0.17044228 161:-0.575544 162:-0.65455788 163:0.037162021 164:-0.23719938 165:-2.0359669 166:-0.50052088 167:0.23533605 168:0.7422691 169:-0.41702908 170:0.60746545 171:-1.6336842 172:-0.20665623 173:-1.3228507 174:-0.97733778 175:-1.3479986 176:-0.82158029 177:-0.40237322 178:-1.5837096 179:-1.661142 180:-0.23687358 181:-0.91442132 182:-0.30294278 183:-0.69296497 184:-1.3920695 185:-0.14741535 186:-0.93643504 187:-0.72764093 188:-0.86223662 189:-1.3827677 190:-0.092738934 191:0.65018743 192:-0.22581017 193:-0.5975014 194:-0.30329663 195:0.51157677 196:-0.5941633 197:-1.6129421 198:-0.44924173 199:-1.7609807 
0.6677819054076646 0:0.022800868 1:-0.10092109 2:0.66771668 3:0.60979539 4:0.72130197 5:-0.70415771 6:0.612194 7:0.49010712 8:0.56176668 9:0.69637567 10:-0.88098139 11:0.71895784 12:0.5968641 13:0.60075516 14:-0.49648064 15:0.36385426 16:0.76416576 17:-0.19068347 18:-0.17164886 19:0.49206591 20:0.60094559 21:0.11474184 22:-0.10798582 23:0.15742719 24:1.4942577 25:0.32441533 26:0.26729006 27:0.21513098 28:0.59615684 29:1.1370751 30:0.59789401 31:-0.36144859 32:1.1849159 33:0.1761106 34:1.5350435 35:0.43804941 36:1.5046511 37:1.6794198 38:0.78892207 39:0.2591517 40:0.56253517 41:0.44054225 42:0.41520157 43:-0.22332592 44:0.37062255 45:0.40876359 46:1.7172561 47:-0.074841641 48:0.82883 49:0.98597425 50:0.48746669 51:1.6614404 52:0.28040081 53:0.47296199 54:0.42106479 55:0.51274711 56:1.7361161 57:0.41497114 58:0.54972172 59:1.0225396 60:1.0969477 61:1.0583915 62:-0.15364523 63:-1.1078779 64:0.41468075 65:1.4828429 66:0.64817274 67:-0.31618452 68:1.2012241 69:-0.76279867 70:-0.062437892 71:-0.0039238455 72:0.62608737 73:-0.30417854 74:0.79008842 75:-0.23956953 76:1.236305 77:-0.095087551 78:2.3155427 79:0.12130012 80:-0.4694576 81:-0.80477655 82:1.3142287 83:-0.68995529 84:-1.0173535 85:0.41903999 86:1.8067071 87:-0.85473752 88:0.011585147 89:-0.14511363 90:1.5023615 91:0.9434039 92:-0.33150187 93:0.58858746 94:0.14615835 95:1.9547532 96:0.0038435534 97:-0.30617926 98:-0.39455315 99:1.6138489 100:0.12141412 101:1.5207199 102:0.3134217 103:-0.73039281 104:0.080597766 105:0.56766909 106:0.82612324 107:0.60504562 108:1.07999 109:0.58148474 110:1.1964802 111:1.1486323 112:-0.56216437 113:0.74817067 114:0.53551888 115:0.57121861 116:-0.12676865 117:0.25227696 118:0.36219934 119:-1.0007091 120:-0.13020319 121:0.93474263 122:-0.44802862 123:-0.18900478 124:-0.14729516 125:0.3160927 126:1.5879669 127:0.58096659 128:-0.69436979 129:-0.77025175 130:-0.69149911 131:-0.35476089 132:0.9029488 133:-0.11756894 134:-0.068745844 135:0.28041014 136:0.73001438 137:0.15466367 138:-0.67606306 139:0.26810679 140:0.30221626 141:1.5528169 142:-0.60414916 143:-0.23202872 144:1.0194949 145:0.61108798 146:0.33800733 147:0.59267884 148:0.26403752 149:-0.51770645 150:2.3802929 151:-0.44944021 152:-0.87814569 153:0.24049348 154:-0.26640359 155:0.56927431 156:-0.58364338 157:1.6969509 158:1.0380634 159:-0.86223054 160:0.18453538 161:0.90568185 162:0.70454448 163:0.69304687 164:-0.91987365 165:1.7791674 166:0.39311096 167:-0.36167824 168:0.095020451 169:0.82406646 170:0.09523464 171:-0.179704 172:-0.81778425 173:-0.98014277 174:-0.59278715 175:0.55548847 176:1.7555975 177:0.64260781 178:0.85565782 179:0.067608945 180:-0.25758928 181:-0.18950443 182:-1.2471094 183:0.296294 184:0.51612878 185:1.0909542 186:1.5793768 187:0.56373411 188:0.63343447 189:0.31192008 190:-0.23868534 191:0.23874392 192:0.10478207 193:0.45148423 194:0.81217235 195:-0.76953292 196:-0.94853598 197:-0.060334619 198:-1.1098427 199:1.0942841 
1 0:-0.92191976 1:-0.66690874 2:-1.1296124 3:-0.11614546 4:-0.30968851 5:-0.12743369 6:0.22966608 7:-0.28297323 8:-1.2715585 9:-1.0025216 10:-0.54245025 11:0.2572453 12:0.40037748 13:0.39488566 14:-0.46865439 15:-0.59668922 16:-0.14920062 17:0.06307444 18:-1.5221679 19:0.38435459 20:-0.31901672 21:0.26229224 22:-0.82968974 23:-0.72637755 24:0.62558717 25:-0.40910363 26:-1.3723325 27:0.73773217 28:-0.77532506 29:0.30312818 30:0.29571915 31:-1.3005446 32:-0.6465199 33:-0.94104987 34:-0.97271472 35:0.25674596 36:-0.15583947 37:-0.095076695 38:0.20922779 39:3.213104 40:0.56675768 41:1.8505472 42:-1.0214289 43:-0.2065208 44:-0.27056035 45:0.11365376 46:-0.73895305 47:0.44573253 48:0.20097724 49:0.084252365 50:0.19947125 51:0.25544363 52:-0.10664331 53:-0.35478404 54:0.68234646 55:0.2138274 56:-1.408038 57:-0.49209076 58:-0.078982227 59:0.4655647 60:-0.30098298 61:0.47907197 62:-0.32009017 63:-1.0655439 64:-1.4580076 65:-0.58205777 66:-1.5754383 67:-0.80886537 68:-0.21222357 69:-0.1875689 70:-0.32606786 71:0.33768153 72:0.93805444 73:-0.88122708 74:-0.30809423 75:-0.013344049 76:-0.59382141 77:-0.28692749 78:-0.45146531 79:-0.28831732 80:-1.3191649 81:0.34536436 82:-0.90265542 83:-0.98175287 84:-0.61206824 85:0.13379931 86:-0.78100902 87:-0.73681188 88:-0.042280573 89:-0.28972119 90:-0.44131255 91:-1.4178782 92:-0.81779522 93:-0.11880145 94:-1.1538289 95:-0.34196192 96:-0.53944653 97:1.9355167 98:-0.23013344 99:-0.87965125 100:-0.35736725 101:-0.73842895 102:-0.76869422 103:-1.3376251 104:0.32114685 105:-0.019535033 106:-0.94247216 107:-0.54028356 108:-1.2740883 109:0.2495407 110:-0.70456266 111:1.0135428 112:-0.71124411 113:-1.2271801 114:-0.17998999 115:-0.59231716 116:-0.46067193 117:-0.43999138 118:0.751876 119:0.30860624 120:-1.0905286 121:0.1283332 122:-0.46938071 123:0.17452796 124:0.20856802 125:-0.025820877 126:0.027019177 127:-0.34280619 128:0.064618349 129:0.0036853554 130:0.20245503 131:-0.93043882 132:-0.49654254 133:0.026343348 134:-1.363784 135:-0.16084474 136:-0.54974538 137:-1.3449762 138:-1.0679651 139:-0.59014666 140:-1.2442911 141:-0.58451575 142:0.85303432 143:0.27420622 144:-0.50822324 145:-1.1365796 146:-1.131641 147:-0.47136071 148:-1.5982379 149:-0.37464538 150:-0.22261809 151:-1.1321497 152:-0.71612316 153:-0.67142189 154:-0.92996573 155:-1.0995406 156:0.26871544 157:-1.2271936 158:0.067973629 159:0.27879068 160:-1.0792565 161:-0.75300711 162:-0.053702265 163:0.84590101 164:-1.742296 165:-1.6470771 166:-1.3018601 167:-0.52429801 168:-1.1995758 169:-0.4469578 170:-0.90379262 171:-0.8285141 172:-0.63967615 173:-0.49348688 174:-1.8085119 175:-1.3659049 176:-0.15180649 177:0.43054238 178:-1.3973219 179:-1.3799915 180:-0.30231139 181:-1.4406191 182:-0.98403478 183:0.10003035 184:0.18394148 185:-1.9827418 186:0.23189905 187:0.16412623 188:0.30620629 189:1.3947141 190:-0.99112481 191:-0.27200139 192:0.33881444 193:0.40811652 194:0.20942545 195:0.22116083 196:-1.3665365 197:1.0314484 198:1.7150822 199:0.4791899 
0.5016420545310043 0:0.0083196862 1:0.5728699 2:0.3338154 3:0.5875507 4:0.89026868 5:-0.38356179 6:0.54160517 7:0.53054416 8:-0.28352341 9:0.068608098 10:1.072675 11:0.41786489 12:0.77923441 13:0.255582 14:-0.10901253 15:1.4882067 16:0.36457562 17:0.68671763 18:0.33372778 19:1.3355664 20:0.36662564 21:-0.20946634 22:-0.16832604 23:0.66185832 24:1.0426586 25:0.61865485 26:1.1016028 27:0.1431161 28:0.28673044 29:1.1163942 30:0.98779351 31:0.61762869 32:-0.12888156 33:0.64669454 34:-0.30590335 35:0.62930661 36:-0.040145136 37:0.2431737 38:0.39182794 39:-1.2598869 40:0.48474467 41:0.42958072 42:7.5191178 43:5.8442831 44:5.2599287 45:0.059230451 46:0.30407539 47:0.82710809 48:0.42938483 49:0.053627159 50:0.9463855 51:-0.92617381 52:0.34225395 53:-0.38769388 54:1.1382644 55:0.80737174 56:-0.62195003 57:0.2272051 58:0.57553744 59:0.54238111 60:-0.21546118 61:-0.18064056 62:1.1069325 63:0.88257307 64:0.041179243 65:1.9881569 66:1.2180574 67:0.0041732918 68:0.89858204 69:-0.79205579 70:-0.3126027 71:0.05054092 72:-0.94172615 73:0.95337009 74:0.2703805 75:0.34509635 76:1.894721 77:0.18144941 78:0.39853227 79:0.49148592 80:1.1541421 81:-1.0868852 82:-0.62892264 83:1.030362 84:-1.0545756 85:0.084246628 86:-0.10063113 87:0.10083172 88:-0.24651095 89:-0.3160181 90:-0.50284427 91:0.41203797 92:1.500809 93:1.149181 94:-0.60543895 95:-0.061007585 96:1.0592045 97:-0.83295226 98:-0.4804042 99:-0.43971875 100:0.63102525 101:-0.011430372 102:0.51024687 103:-0.93191504 104:1.9268662 105:0.4317888 106:-0.1265889 107:0.95167756 108:0.50932735 109:0.18974611 110:0.10822736 111:0.58466065 112:1.0828854 113:-0.065387145 114:0.30001915 115:-0.049016196 116:0.45035601 117:0.10188369 118:-0.60290259 119:-1.3100213 120:0.092823595 121:1.0791751 122:-0.1571306 123:-0.035295479 124:-0.74451637 125:0.34837136 126:0.39125666 127:0.27843907 128:-0.10517822 129:0.95885712 130:-0.0064686444 131:0.86066115 132:0.068063617 133:-0.13281338 134:0.15403518 135:-0.73590964 136:0.1926849 137:-0.52275074 138:-0.72080654 139:-0.76892251 140:1.4484941 141:-0.83069742 142:0.94766104 143:-0.31268522 144:1.0946172 145:0.071874164 146:-0.29717892 147:-0.34686697 148:-0.20305344 149:0.75127631 150:1.2989957 151:0.22468689 152:-0.36209789 153:0.25820646 154:1.2382718 155:-0.93152481 156:-0.81438237 157:-1.014046 158:0.18801638 159:0.10215858 160:-0.0034128511 161:-0.449397 162:0.39864379 163:-0.081279002 164:0.42587376 165:-0.14464715 166:0.028861938 167:0.16803208 168:0.28255963 169:0.36866042 170:0.24426726 171:1.2055644 172:-0.1248064 173:-0.91797775 174:-0.5566135 175:0.72207415 176:0.68422484 177:0.7798115 178:1.5376636 179:0.57954895 180:-0.098148152 181:-0.60897511 182:-0.56334281 183:-0.024231639 184:0.37941527 185:-0.82520372 186:-0.39703313 187:0.27970576 188:0.45479566 189:0.18201753 190:-0.68519473 191:0.37087178 192:-1.0882492 193:0.48482016 194:0.0050361394 195:0.18612652 196:-0.73216444 197:0.38381344 198:-1.0778358 199:0.30058396 
0.2063194551951092 0:0.59351534 1:-0.10063054 2:-0.10214937 3:1.2089794 4:0.35669446 5:-0.64125812 6:0.54358184 7:0.62413299 8:-0.081728928 9:0.029796189 10:-0.61981982 11:0.6318233 12:0.58168215 13:0.29203784 14:-0.62431496 15:0.51889324 16:0.86942047 17:0.0038070453 18:0.23843409 19:-0.13941315 20:0.60273468 21:1.14 22:-0.040467191 23:0.45780098 24:0.51902521 25:1.116141 26:0.38690349 27:0.45055717 28:0.27221662 29:0.15542671 30:0.79433268 31:-1.5946723 32:0.88303483 33:-1.1591396 34:-0.047778327 35:0.25461081 36:0.10685401 37:0.55037355 38:0.54354084 39:0.010186231 40:0.52849847 41:0.7056883 42:-0.12228385 43:1.5468985 44:-0.0059663248 45:6.5435548 46:2.2299178 47:3.031342 48:0.59820271 49:-0.15518449 50:0.81683844 51:0.41854876 52:0.18782426 53:-0.43157718 54:1.7218199 55:1.0565389 56:-0.38547492 57:-0.27257809 58:0.58293122 59:0.084288672 60:-0.19624203 61:0.043053772 62:-0.014374748 63:-1.2993387 64:0.8799684 65:0.86953276 66:0.70498604 67:1.1690221 68:0.46775264 69:0.040455543 70:-0.26893556 71:-0.10662883 72:-0.0078691347 73:0.14091721 74:0.20952982 75:0.22495764 76:1.1300737 77:-0.26537982 78:0.82547295 79:0.69453073 80:-0.11182611 81:-0.66260737 82:1.1451321 83:0.17270392 84:-0.55110979 85:-0.31164646 86:0.24273339 87:-0.57801217 88:0.62877172 89:-0.36952499 90:-0.24526048 91:1.284333 92:-0.62605095 93:0.73793459 94:1.5480678 95:0.56735873 96:-0.5420301 97:-0.18730699 98:-0.44966668 99:0.8575902 100:0.094666101 101:-1.2171823 102:-0.95018286 103:-0.88739759 104:0.313207 105:0.67414314 106:0.02223688 107:0.29741028 108:0.33020321 109:0.60168493 110:0.25404903 111:0.44721144 112:-0.72439986 113:0.39144477 114:0.46452707 115:-0.10519192 116:-0.41234055 117:0.54198819 118:0.53502744 119:0.029492768 120:0.48959476 121:0.48154688 122:0.20875546 123:-0.12509289 124:-0.32567903 125:0.15234831 126:0.20226733 127:0.62119055 128:0.040983632 129:-1.1919217 130:-0.44330525 131:0.73023117 132:0.14656807 133:-0.85904098 134:0.052572053 135:-0.054816905 136:0.26157993 137:-1.1045033 138:0.4101949 139:-0.16091411 140:-0.88253707 141:-0.66760099 142:-1.0917318 143:0.17124969 144:0.98109961 145:-1.5417532 146:-1.1125849 147:0.38646603 148:-0.16340245 149:0.42600811 150:1.1420183 151:1.0034564 152:0.18175764 153:0.35986212 154:0.64676744 155:-0.24206978 156:0.39265454 157:-0.35854682 158:-0.57969308 159:-1.2736406 160:-1.2491419 161:-0.61074883 162:0.58209741 163:0.42746657 164:-1.7161766 165:-0.065214112 166:-0.42398545 167:-1.2693983 168:0.18636031 169:0.72403336 170:-1.2238535 171:1.2414653 172:-0.85731328 173:-0.0768729 174:-1.5110471 175:1.5344185 176:-0.059820589 177:0.51748741 178:0.41337356 179:1.0259145 180:-0.50434363 181:-1.2036968 182:-1.6425948 183:0.096233323 184:2.3007545 185:1.0031449 186:0.20434046 187:0.81736183 188:0.59170741 189:-0.93914592 190:-1.4275372 191:0.02424697 192:-1.193228 193:0.61785376 194:0.50845522 195:-0.21981801 196:-0.97140718 197:-0.93472546 198:0.33139575 199:-0.27324742 
1 0:1.0525901 1:-0.033032659 2:-0.39416274 3:-0.025416078 4:-0.95093668 5:-0.59690034 6:0.41518673 7:-0.67654449 8:0.42931214 9:-0.15901521 10:-0.75858897 11:0.20689031 12:0.25076598 13:0.30923891 14:0.13740294 15:0.1752435 16:0.27215144 17:-1.0579027 18:-0.52396959 19:-1.3567201 20:0.47179055 21:0.024076346 22:-0.33614305 23:0.46252143 24:-1.2221646 25:-1.661083 26:-0.59454209 27:0.41381586 28:-0.24815559 29:0.10926405 30:0.66595143 31:-1.599207 32:-0.8341918 33:-0.8802647 34:-0.60142714 35:0.25055709 36:0.083345443 37:0.59808975 38:0.39214581 39:0.12832384 40:0.11011676 41:0.34339955 42:-0.52473342 43:0.80169332 44:0.1361099 45:0.52338481 46:-0.45803955 47:0.49717551 48:0.32092875 49:3.7223568 50:2.6816826 51:-0.60426873 52:0.35684884 53:-0.13105786 54:-1.1898659 55:0.21852718 56:-0.91529518 57:-0.20541592 58:0.62468332 59:0.11420956 60:0.10324837 61:0.60712159 62:-0.51284587 63:0.82751024 64:-0.79263592 65:-0.84251851 66:-0.088293917 67:-0.0288975 68:-1.505985 69:-0.56613052 70:0.16597363 71:1.1672734 72:0.78210443 73:0.92845255 74:0.29341528 75:-0.22303474 76:-1.0564801 77:-0.097064972 78:-1.2075667 79:0.32032889 80:-0.47678691 81:-0.0069482694 82:0.25908148 83:-0.89472508 84:-0.38182086 85:0.61091799 86:0.38973421 87:-0.74662626 88:-0.67992055 89:0.12380245 90:-1.1796066 91:1.1619284 92:-0.1916967 93:-0.82715774 94:0.64544082 95:-1.135111 96:-0.49787378 97:0.080601282 98:0.15279506 99:-0.56966168 100:-0.41042179 101:-0.7165392 102:-1.0463232 103:0.057677552 104:-1.4326215 105:0.40141377 106:-0.65289527 107:0.18952209 108:-0.064143769 109:0.3001481 110:-0.83011132 111:0.49284527 112:-0.13109276 113:-1.0214169 114:0.66790146 115:-1.0050329 116:-0.84987622 117:-0.21903975 118:0.707865 119:1.0663117 120:-0.17830661 121:-0.26409236 122:-0.29880369 123:0.052141234 124:1.6505119 125:0.64617902 126:-0.39681023 127:0.18084921 128:0.0065176706 129:-0.86290979 130:0.67515564 131:-0.83884495 132:-0.018504949 133:-0.80343336 134:-1.1428161 135:0.33770174 136:0.47603741 137:1.5349221 138:-0.29114267 139:-0.65102947 140:-0.19317289 141:0.78385431 142:-1.1360021 143:-0.60926819 144:0.080719419 145:1.1400189 146:-0.20311093 147:-0.52943283 148:0.90924078 149:-0.74930531 150:0.54270262 151:0.30378127 152:0.75656003 153:-0.8021189 154:-0.50520062 155:-0.49201447 156:-0.54906416 157:0.76011646 158:0.58182275 159:-0.78354514 160:-0.3586731 161:0.1336043 162:-0.091546856 163:0.36633939 164:-0.57211918 165:-0.34802255 166:-0.88389379 167:-0.36413798 168:-0.24014284 169:0.37142235 170:-0.070699282 171:-0.88739818 172:-1.164 173:-0.73601758 174:-0.82727325 175:-0.32266089 176:-0.4013108 177:0.31420469 178:-0.36402336 179:-0.76370627 180:-0.19702187 181:-0.28419796 182:0.041207343 183:0.54952097 184:-1.2827945 185:1.3716738 186:1.1561303 187:0.19606283 188:0.51018542 189:0.12868041 190:-0.67798972 191:0.13765769 192:1.0192397 193:0.0063420623 194:0.38456208 195:-0.91627645 196:-0.71194702 197:-0.51793504 198:-0.11991686 199:0.48645914 
1 0:0.46624878 1:0.74195862 2:-0.13533084 3:-0.75064045 4:-0.17652705 5:0.15178433 6:0.16589679 7:-0.64866334 8:0.40043819 9:-0.7984761 10:-0.25827312 11:-0.29711452 12:0.5082441 13:0.92879248 14:-0.80246335 15:1.3056512 16:0.0085647888 17:-0.40059447 18:-1.3392019 19:-0.99398214 20:0.26129192 21:0.76877141 22:-0.78932154 23:-1.8176948 24:0.0088023618 25:-0.95017529 26:-1.4792852 27:-0.11594892 28:-1.2831852 29:-0.56224382 30:-0.21172798 31:0.23716617 32:-0.61643416 33:0.18135078 34:0.24474473 35:0.44617748 36:0.85539693 37:0.17522442 38:0.1331806 39:0.083460242 40:0.13014966 41:-0.08277531 42:-0.58522403 43:0.35459459 44:-0.31464455 45:-0.62802422 46:-1.2117817 47:-1.5720011 48:0.037413806 49:-1.1222863 50:0.033955514 51:1.1725844 52:1.5350442 53:3.8342502 54:-0.94068879 55:0.23337069 56:-0.65564668 57:1.1280147 58:0.11434304 59:0.044876013 60:1.054225 61:-0.75285107 62:-0.94653642 63:0.32253942 64:-2.2059844 65:-1.0327189 66:-1.1556151 67:-0.63841522 68:-1.1355491 69:-0.10518002 70:0.50577646 71:0.45860597 72:0.19952665 73:-0.40100303 74:0.5554297 75:0.51756531 76:0.094209835 77:-0.082953192 78:-1.0122812 79:-0.87968898 80:-1.0408239 81:-1.3041936 82:0.66989267 83:-1.6542131 84:-0.036784187 85:-0.97763079 86:-0.11970345 87:0.097426899 88:-1.5944082 89:-0.5767889 90:0.61737061 91:-0.35977283 92:-0.74153644 93:-1.1413677 94:-1.3672421 95:-0.086322196 96:-0.51421529 97:-1.0845205 98:0.17601249 99:-1.1550341 100:-0.46439859 101:2.1101899 102:-0.44415677 103:-1.0800565 104:0.6176247 105:0.027353657 106:0.036652174 107:-1.3022934 108:-0.50904369 109:0.029843884 110:-0.68108922 111:-1.43452 112:-0.45641461 113:-0.81689453 114:0.18583877 115:-0.68073058 116:-1.3721653 117:0.81118917 118:-0.61356246 119:-0.40634745 120:1.1200447 121:-0.59304208 122:-0.809223 123:-0.54803818 124:0.51742178 125:0.37375078 126:-0.98864502 127:0.15770157 128:-0.52970362 129:0.4831917 130:-1.8065746 131:0.77049583 132:0.1128194 133:-0.32198283 134:-1.0741409 135:-0.96857089 136:0.032574181 137:0.044648848 138:-1.0813675 139:0.097467288 140:0.83100295 141:1.0650902 142:-0.30477124 143:-0.55876905 144:0.2762174 145:-0.040585615 146:-0.21887991 147:-1.0448757 148:0.59619504 149:-0.83253068 150:-1.9333411 151:-0.770818 152:-0.43497613 153:-1.09589 154:-1.7293177 155:-1.0086722 156:-0.71821034 157:-0.27947032 158:0.59133261 159:-0.79800391 160:-0.93326664 161:0.56657445 162:-0.54842365 163:-0.71418047 164:0.30638564 165:-0.81376368 166:0.90740126 167:0.16252986 168:-0.61789393 169:0.60668588 170:0.85385287 171:-1.064059 172:-0.46135986 173:-1.0462518 174:-0.12121344 175:-0.86257398 176:-1.0910918 177:-0.98146284 178:-1.5092894 179:-0.74568313 180:0.30603632 181:0.13287938 182:-0.26645806 183:-1.2736657 184:-0.94438851 185:-0.74313182 186:-0.24768156 187:-0.22841632 188:0.16342404 189:0.21490592 190:-0.11762712 191:0.61857718 192:1.1708438 193:0.32806537 194:-0.047838196 195:-0.0014441076 196:-0.72160798 197:0.61656731 198:-0.60932082 199:-1.2203101 
1 0:-0.48220873 1:-0.3464213 2:0.24556923 3:-0.7710622 4:0.32616711 5:-0.496941 6:0.37522522 7:0.12817669 8:0.12281065 9:0.46993262 10:-0.76784551 11:0.45067659 12:0.33070746 13:0.31225967 14:-0.96308219 15:0.56138021 16:0.47278523 17:-0.70847011 18:-1.0086964 19:0.16837142 20:0.46552297 21:0.59570795 22:-0.25885051 23:-0.23661964 24:1.22817 25:0.0019604156 26:-0.61479884 27:-0.081919484 28:0.31684053 29:-0.68318784 30:0.76616526 31:-0.36571419 32:-1.0147219 33:-0.63356388 34:0.41671365 35:0.0075091827 36:-0.10213861 37:0.51305634 38:0.38855377 39:-0.98288625 40:0.02609407 41:0.4587805 42:0.067218363 43:-0.28616059 44:-0.1030426 45:-0.37840593 46:-0.62311369 47:-0.51271778 48:0.49123716 49:-0.19075757 50:0.089038193 51:-0.2020539 52:-0.0086838128 53:0.32477441 54:3.4159064 55:0.38597026 56:4.3330564 57:-0.0074463817 58:0.36995178 59:0.34388289 60:-0.27051109 61:-0.8149792 62:-0.055258136 63:-0.43606955 64:-0.10158955 65:-0.2073167 66:0.27053031 67:-0.6779784 68:-0.65601254 69:0.01477274 70:-0.36268017 71:-0.30519626 72:-0.52006036 73:-1.0251962 74:0.10527566 75:-0.58659935 76:0.78203291 77:-0.12923352 78:1.5797071 79:0.36867288 80:1.1293526 81:0.77758473 82:0.40892744 83:-0.43160084 84:-0.72054046 85:-0.18907709 86:0.52920794 87:-0.51732141 88:0.083395883 89:-0.13702455 90:-0.28334391 91:-0.47944736 92:-1.0294173 93:0.49469942 94:-0.29842892 95:-0.39606112 96:-0.5319376 97:-0.1217838 98:-0.3374669 99:-0.16948327 100:-0.98614997 101:-0.5858776 102:-0.27233878 103:-0.89907968 104:-0.21018878 105:0.38973197 106:0.047191184 107:0.17606206 108:0.79150933 109:0.14474235 110:-0.074379504 111:-0.31132126 112:-0.95809054 113:-0.80341011 114:0.33197245 115:-0.80599016 116:-0.88457888 117:0.25104386 118:0.31366712 119:0.31860083 120:-0.24607378 121:-0.77921927 122:-0.62493831 123:-0.035698526 124:-0.3519153 125:0.13571617 126:-0.73246008 127:0.30592966 128:0.26419154 129:-0.55660599 130:-0.3273384 131:-0.32968092 132:0.054064114 133:-0.42336991 134:0.83619237 135:0.46202964 136:0.5697841 137:-0.32910261 138:-0.56577599 139:0.13975875 140:-0.22747561 141:0.91441435 142:-0.48047063 143:0.33102027 144:-0.89321852 145:-0.73890734 146:0.85309154 147:-0.23513173 148:1.5234808 149:-1.3649031 150:1.9351217 151:1.3384557 152:0.74704987 153:-0.4061498 154:-0.60302997 155:-0.14408062 156:-0.088671848 157:0.56255752 158:1.3311526 159:-0.8012687 160:-0.73707706 161:0.87156987 162:0.41647044 163:-0.64475483 164:0.13313237 165:0.47886205 166:0.37628722 167:-0.34377971 168:0.54798067 169:0.33022541 170:0.29261878 171:0.00083340303 172:0.16117887 173:1.2503238 174:-0.056524608 175:0.9291485 176:-0.031988218 177:0.66422313 178:-0.18450488 179:-0.17414416 180:-0.38147777 181:-0.63577199 182:-0.91440386 183:-0.86383116 184:-0.45601663 185:0.69391513 186:-0.57226568 187:0.25778571 188:0.50302678 189:0.37256661 190:-0.3339791 191:0.10758673 192:-0.43240216 193:0.32089978 194:0.47600237 195:0.046498958 196:-0.32833409 197:0.8552475 198:0.40145209 199:0.4192397 
1 0:0.12809919 1:-0.45082912 2:1.5209391 3:0.63646913 4:0.34550762 5:-0.59022284 6:0.62271422 7:0.72765678 8:-0.22265556 9:0.53833908 10:0.5100494 11:0.29966453 12:0.62084544 13:0.76243216 14:-0.66083932 15:1.3525288 16:0.58889312 17:-0.26775387 18:-0.8057515 19:0.28014293 20:0.48810652 21:-0.26470095 22:0.23528065 23:-0.15315251 24:0.12873414 25:1.6240215 26:-0.12487815 27:1.0078001 28:0.41331941 29:1.7012302 30:0.5715155 31:-0.0060133636 32:2.0118301 33:-0.098140404 34:-0.20705354 35:0.6791684 36:0.13931414 37:0.56044823 38:0.56710625 39:0.30321386 40:0.68647397 41:0.66466677 42:-0.21102481 43:-0.60038328 44:1.2080725 45:0.54681301 46:0.096367665 47:0.16826582 48:0.70959699 49:-0.40945238 50:0.51963395 51:0.93847829 52:0.15825868 53:0.39404398 54:-0.65624684 55:0.54641587 56:-0.62212312 57:4.3473988 58:1.1257604 59:1.9856412 60:-0.11847083 61:1.098978 62:0.075218529 63:-0.23613229 64:-0.97627711 65:-0.0086788079 66:-0.56033909 67:0.56560653 68:0.060176 69:-0.17164868 70:-0.099300697 71:0.38476023 72:0.055682976 73:-0.59229124 74:0.63011146 75:0.49871668 76:-0.13529804 77:0.020481661 78:-0.61997181 79:-0.2091583 80:0.84483689 81:-0.97680598 82:1.6919537 83:-0.68441707 84:0.092078574 85:0.19496951 86:1.1069299 87:0.30741176 88:0.5425179 89:-0.75622427 90:0.58475214 91:-1.8765618 92:2.3862171 93:0.28940508 94:1.4352107 95:0.49192205 96:0.27380228 97:0.55292797 98:0.60786813 99:0.25705191 100:-0.14533165 101:0.05656046 102:-0.11743937 103:0.50416785 104:-1.10315 105:0.53956586 106:1.4435741 107:-0.14928764 108:1.0104725 109:0.58186346 110:-0.14688848 111:0.33062819 112:-0.019576861 113:0.46140182 114:0.48970696 115:0.73754555 116:0.62403738 117:0.82396144 118:0.32648355 119:0.83223802 120:0.8621707 121:0.21225442 122:0.24139042 123:0.63628918 124:1.0374097 125:0.29680148 126:0.069571041 127:0.54010814 128:-0.46239212 129:0.19469492 130:1.2061573 131:-0.29638898 132:0.51765543 133:-0.6284861 134:0.17029577 135:0.083467752 136:0.63766277 137:0.68874484 138:0.81186247 139:0.080777757 140:0.93346107 141:0.72801054 142:-0.73038065 143:0.33769858 144:-0.29028314 145:0.5018627 146:0.15532273 147:-0.206387 148:0.27413884 149:0.47863042 150:1.8784993 151:0.60039276 152:-0.06446556 153:0.17601044 154:0.13184786 155:0.027870795 156:0.99773574 157:0.050481111 158:0.44191638 159:-0.17334105 160:0.86240333 161:-0.33568653 162:0.34497327 163:0.23571427 164:0.74732327 165:0.5077852 166:1.6965446 167:-0.4841828 168:0.57906324 169:0.29408813 170:1.2196207 171:1.3443465 172:0.82344818 173:1.0305157 174:-0.47675511 175:1.6925992 176:2.1774278 177:0.037321765 178:0.67537218 179:1.8177717 180:-0.074915841 181:0.53808594 182:0.71110159 183:0.47642428 184:-0.02019782 185:-0.93915474 186:-0.28382236 187:0.42101231 188:0.62279153 189:0.55583358 190:1.6593149 191:0.24595036 192:-0.3573316 193:0.8456974 194:0.61680913 195:-0.32202947 196:0.64316177 197:0.36704892 198:-0.74646962 199:-0.76431394 
1 0:0.37542498 1:-0.52531499 2:-0.28477618 3:0.23629969 4:-0.95929438 5:0.19889346 6:-1.1013408 7:0.17534119 8:-0.6092509 9:-0.57223886 10:-0.657462 11:-1.2443151 12:-0.22237945 13:-0.40474123 14:0.5168615 15:-0.24005209 16:-1.3760206 17:-0.17078283 18:-0.75252211 19:0.22850378 20:-0.38190639 21:-1.0301824 22:-0.11643214 23:-0.97554672 24:0.16889392 25:-0.40428963 26:-0.16404788 27:-1.0337427 28:0.29804459 29:-0.56630242 30:-0.93854773 31:-0.80638701 32:-0.75410742 33:-0.32432929 34:1.7330102 35:-1.1690291 36:0.077491835 37:-0.89354098 38:-1.0245444 39:1.0567114 40:-0.85671079 41:-1.7566941 42:-0.58194 43:-0.83963114 44:-0.2156091 45:-0.19180526 46:-0.3466979 47:-0.87377042 48:-0.79231697 49:0.12945051 50:-0.73412871 51:-0.56848568 52:-0.6495086 53:-0.6484282 54:0.99263227 55:0.39510876 56:1.1610025 57:1.0825765 58:-0.42845482 59:-1.3820153 60:4.4598026 61:2.6316631 62:6.7297435 63:-0.55682361 64:0.43306687 65:1.1806262 66:0.15666963 67:-0.07262376 68:0.4400475 69:-0.40930986 70:-0.11078969 71:-0.62545502 72:-0.3375203 73:0.38408437 74:-0.86740565 75:-0.48362935 76:-0.39509365 77:-0.51820081 78:0.81729001 79:0.56700706 80:-1.289665 81:0.47402897 82:-1.2129092 83:-0.3579886 84:1.9356071 85:0.95439583 86:-0.054607309 87:-0.1597959 88:-0.59154165 89:-0.32270682 90:0.38514742 91:-0.63041729 92:0.33368054 93:-0.72887599 94:-0.90120447 95:-0.13022611 96:0.14994949 97:-0.18827312 98:0.0097736083 99:-1.2012283 100:-0.56370151 101:-1.1128989 102:1.6358522 103:-0.88991135 104:0.40155473 105:-0.78271592 106:0.49941391 107:0.74590772 108:-1.5169691 109:-0.76680231 110:0.4707326 111:1.1344576 112:0.3681424 113:0.5517 114:-0.39656717 115:0.90698284 116:0.99435592 117:-1.0150584 118:0.10659877 119:3.0550101 120:-0.57838923 121:-0.94340628 122:-0.066864662 123:-0.58049583 124:-1.7527615 125:0.030502515 126:0.06686458 127:-0.43014589 128:-0.43462774 129:-0.63946491 130:-0.64277071 131:0.075123191 132:-0.75877047 133:-0.051749259 134:-0.074185327 135:0.32582068 136:0.29264948 137:-0.51825362 138:-0.020024702 139:-0.010815801 140:-1.2292451 141:0.58424091 142:-0.69643027 143:-0.65868527 144:-0.2284923 145:-0.34786668 146:0.084775515 147:0.21137868 148:-1.0205414 149:-0.29527453 150:-0.85855848 151:0.31030905 152:-1.2035041 153:0.099681973 154:-1.1404606 155:-0.71400368 156:-1.6028264 157:-0.20519525 158:-0.11785079 159:-0.74658471 160:0.39966023 161:-0.30100122 162:-0.78071004 163:0.45623717 164:-0.19743805 165:1.1510456 166:-0.78364986 167:-1.0665473 168:0.11429181 169:-0.66576576 170:0.18022062 171:0.4061842 172:-0.62752664 173:-0.54219645 174:0.11414117 175:-0.905388 176:-1.3581663 177:-1.5539987 178:0.26426497 179:-0.066057809 180:0.46123832 181:-0.48532525 182:-0.59280819 183:-0.24634974 184:-0.26215172 185:-0.19004175 186:1.9202236 187:-1.731071 188:-1.1417404 189:-1.2108974 190:-0.48243338 191:0.13640268 192:-0.65601784 193:-0.50349343 194:-0.089378655 195:-0.87491685 196:-0.59363538 197:1.8389546 198:0.50695783 199:-0.766491 
1 0:-0.2990824 1:-0.84967655 2:-0.49364439 3:-1.3498607 4:-1.0256081 5:-0.4305144 6:0.093518041 7:0.47478014 8:0.050781202 9:-0.9554038 10:-0.20948677 11:-0.87034023 12:-0.33423379 13:-0.44127312 14:-0.85422105 15:-0.16300461 16:-0.64788014 17:-0.19712588 18:0.093916327 19:-0.2685194 20:-0.042297766 21:-0.95853013 22:-0.5051384 23:-0.51869178 24:0.43139488 25:0.6375317 26:0.68265259 27:-0.75350761 28:-0.13453236 29:0.43853402 30:-1.0120164 31:1.8692664 32:-0.75321776 33:0.51356643 34:0.023768373 35:-0.21627064 36:-0.74461484 37:-0.4169544 38:0.14751692 39:0.59257823 40:-0.31548062 41:-1.0466467 42:0.20864677 43:-0.40405968 44:0.77724838 45:-0.99371117 46:0.85908949 47:-1.2988818 48:-0.4305644 49:-1.8275285 50:-0.48699555 51:0.13607487 52:-0.013538623 53:-0.170131 54:0.03701295 55:-0.31262743 56:0.33365008 57:-1.408893 58:-0.23666471 59:-0.40787002 60:0.034531515 61:0.053166289 62:-0.62366521 63:3.2127447 64:1.9427886 65:0.52103829 66:-0.097445533 67:0.12860355 68:-0.81537968 69:0.89307743 70:-0.10631698 71:-1.1372154 72:-1.0572853 73:-0.67629117 74:0.43040848 75:0.60151762 76:0.24719374 77:-0.40442148 78:-0.10959657 79:-0.70602876 80:-1.2345786 81:-0.5881204 82:-0.22839957 83:1.9273351 84:-0.99895781 85:-0.21924381 86:0.83129001 87:0.1162877 88:-0.89533746 89:0.088112451 90:-0.77036238 91:1.9871094 92:-0.68824887 93:-0.52922064 94:-0.47109312 95:-0.25588381 96:0.37405282 97:-1.1319866 98:-0.28266829 99:-0.69492966 100:-0.62748265 101:0.294478 102:0.28837997 103:-0.51248276 104:-0.067571208 105:-0.85389078 106:-0.37040666 107:-0.80647784 108:-1.2373567 109:-0.02757136 110:-0.40755644 111:-1.2562405 112:-1.0654414 113:-0.45168555 114:0.017137809 115:-0.041247424 116:0.95178491 117:-0.021596266 118:-0.23325929 119:-0.85265642 120:0.20597735 121:-1.1729976 122:-0.06439092 123:0.082509659 124:-0.9601593 125:-0.012145566 126:-0.05380962 127:0.067845799 128:-0.23566888 129:-0.59755003 130:0.70620722 131:0.57446259 132:-1.1049018 133:-0.48546663 134:-0.1045365 135:-0.26707458 136:-0.42036536 137:0.028569117 138:-0.48519126 139:-0.43659276 140:-0.86810929 141:-0.40377256 142:-0.35839921 143:0.83912063 144:-1.1644117 145:1.3778647 146:0.28946444 147:-0.056708571 148:-0.65362084 149:0.14009002 150:1.9308143 151:-0.95934194 152:-0.63889205 153:-0.17365523 154:-0.11376133 155:-0.51808918 156:0.25606841 157:0.067021437 158:-0.81253433 159:-0.15473355 160:-0.35127676 161:-0.62044948 162:-0.54801083 163:-0.084482625 164:0.44873169 165:1.8228918 166:-0.48402175 167:0.55870014 168:0.2503432 169:-0.26542434 170:0.32642138 171:-0.55115527 172:-0.40703061 173:-0.061756365 174:0.26058459 175:-0.5900948 176:-0.12787022 177:-1.5468663 178:0.4956632 179:0.76496285 180:-0.063712463 181:-0.4737677 182:-0.50260538 183:-1.7058254 184:-0.18595302 185:-0.3157317 186:-0.64780837 187:-0.96472436 188:-0.18360129 189:-0.8058129 190:2.0892861 191:0.18166108 192:-1.4462301 193:-0.036490921 194:-0.39846018 195:-0.13209991 196:-0.66936916 197:-0.37110719 198:-0.2275798 199:1.4318901 
0.5485932190535061 0:0.72657037 1:0.34708789 2:1.3420829 3:-0.095666274 4:1.4220127 5:-0.10724325 6:0.59925783 7:0.14589508 8:0.41297954 9:0.13444197 10:-0.099372514 11:0.74730438 12:0.37166139 13:0.38272646 14:-0.33734334 15:0.82262552 16:0.5606882 17:-0.53581405 18:0.93743742 19:2.1952951 20:0.51259172 21:0.79149652 22:-0.61171806 23:-0.20199399 24:1.1132078 25:0.52947086 26:1.4505949 27:0.84760618 28:2.1780832 29:1.1280882 30:0.6426397 31:-0.70652258 32:1.8010299 33:-0.62191546 34:2.3675086 35:0.29462194 36:1.161188 37:0.44251254 38:0.58000153 39:0.22349305 40:0.38322258 41:0.74440819 42:-0.55102801 43:-0.55925363 44:-0.9832781 45:0.76462626 46:1.197323 47:0.91511238 48:0.23773691 49:0.3782984 50:0.23146717 51:1.8628924 52:0.33410844 53:-0.62617821 54:1.2299398 55:0.18870963 56:0.83147025 57:-0.20861447 58:0.48832592 59:0.44310543 60:0.38809627 61:0.26621178 62:0.36156872 63:-1.4142538 64:1.7812223 65:0.83414334 66:2.4739461 67:7.3366451 68:3.9592757 69:0.2886425 70:-0.2990326 71:1.6357671 72:-0.28949702 73:0.38632601 74:0.35580844 75:-0.25966486 76:-0.73809451 77:0.14414811 78:0.60275495 79:0.43287483 80:0.75502771 81:-0.90323251 82:0.97129661 83:1.8046635 84:0.2385686 85:0.45237753 86:0.21893859 87:-1.0729069 88:0.2814841 89:-0.47163874 90:-0.72519487 91:1.0236208 92:-0.61409467 93:1.1085597 94:0.70181441 95:-0.28694314 96:0.36380759 97:0.33978623 98:0.055211335 99:0.07456781 100:1.8013114 101:1.7711241 102:0.062121861 103:-0.4930805 104:0.58708948 105:0.84649885 106:-1.0688252 107:1.1887569 108:0.50298393 109:0.34288904 110:0.99615556 111:0.71112072 112:0.59608936 113:0.66173607 114:0.27847326 115:1.2022862 116:0.60610032 117:0.34417138 118:-0.17638455 119:-0.69959599 120:-0.26662949 121:0.12806454 122:1.2138753 123:0.50784856 124:0.38368002 125:0.6372264 126:0.65869367 127:0.2851449 128:-1.1503788 129:-0.78673851 130:1.5132148 131:1.5831597 132:0.76562017 133:-0.69888288 134:-1.0241182 135:-0.99634802 136:0.68861163 137:0.39018521 138:-1.2023325 139:-1.0840175 140:0.89097774 141:-1.2783786 142:-0.65007359 143:-0.44488257 144:1.2662585 145:-0.93885314 146:-1.278875 147:-0.18394946 148:0.20163438 149:0.260712 150:0.37721232 151:-0.1091681 152:0.07204593 153:2.0311589 154:1.0824548 155:0.11150835 156:0.12306479 157:-0.41601539 158:0.74151915 159:-0.48114643 160:0.023075152 161:0.80588549 162:0.53525484 163:0.54646564 164:0.39553255 165:0.95195287 166:-0.14425096 167:-1.1637539 168:0.41178527 169:0.40883613 170:0.047527418 171:1.5735646 172:-0.46506718 173:0.79819143 174:-0.94473308 175:1.2648791 176:-0.21067548 177:0.58981669 178:-0.24463268 179:0.69201124 180:0.28722596 181:-0.95439887 182:0.015686546 183:0.94267064 184:0.99433178 185:0.25441754 186:0.26085299 187:0.74975848 188:0.63459593 189:-0.81955844 190:0.33623233 191:0.41349271 192:-1.6390624 193:0.50508696 194:0.21206148 195:-1.1544431 196:-1.0300695 197:-1.0811844 198:-0.68675047 199:0.85405588 
0.9177915683891946 0:-0.47342277 1:0.1234936 2:0.26855853 3:0.25404891 4:1.0560207 5:-0.32958338 6:-0.034448814 7:0.53044581 8:1.0972562 9:1.0126042 10:-0.17413601 11:-0.16929601 12:-0.25251266 13:-0.36059219 14:1.1291314 15:-0.89352286 16:0.052732881 17:-0.57394147 18:0.94736743 19:1.0088421 20:0.072679237 21:0.38138148 22:0.46403018 23:0.022480978 24:-0.20570046 25:0.39353257 26:-0.24745624 27:-0.11575452 28:0.36056504 29:0.61453402 30:0.5695377 31:-0.25390339 32:0.61333424 33:1.0117363 34:-0.38872817 35:-0.33840832 36:-0.29654855 37:-0.022147596 38:0.13929446 39:1.3846511 40:0.091665976 41:-0.30741128 42:-0.094546698 43:1.9212375 44:0.39702979 45:-0.19272768 46:-0.29235381 47:0.3636241 48:-0.22209153 49:1.2997236 50:-0.2430855 51:-0.15514262 52:-0.37073278 53:0.35932285 54:0.31586722 55:-0.20919289 56:1.0252687 57:0.93241143 58:0.37836903 59:-0.19407652 60:-0.27474156 61:1.5372976 62:0.82682908 63:-0.37161064 64:-0.11312729 65:-0.41530445 66:0.049108956 67:-0.46168312 68:0.015307929 69:2.8957081 70:8.1189537 71:3.2167196 72:0.75112426 73:0.3478927 74:-0.10134289 75:-0.61857015 76:-0.27478737 77:-0.0026716639 78:0.11754157 79:0.14377356 80:0.80194396 81:1.2264009 82:-0.33246151 83:1.4023075 84:0.74855828 85:0.052679464 86:1.8370229 87:0.29226995 88:0.44390616 89:0.10332669 90:1.0803831 91:1.0898409 92:0.65486544 93:0.65056473 94:1.2347587 95:0.58607012 96:0.031562954 97:1.7241349 98:0.58847672 99:0.74144107 100:-0.36132061 101:-0.57116485 102:-0.56452292 103:1.1580828 104:1.3024309 105:-0.26787442 106:0.91296583 107:0.10650475 108:0.67636132 109:-0.04817947 110:0.10593155 111:1.2144748 112:1.5786721 113:1.648667 114:0.23145717 115:1.9628024 116:1.4604564 117:0.03545453 118:2.2639422 119:0.64593989 120:-0.83039904 121:-0.37366873 122:0.79986143 123:0.88069248 124:0.46160349 125:-0.39616308 126:0.025783153 127:0.23342369 128:1.0760193 129:-0.028940439 130:0.24627723 131:0.77791125 132:-0.17143314 133:1.6110986 134:-0.61091661 135:-0.025895862 136:0.65155339 137:-0.031321157 138:1.0808582 139:0.53218395 140:0.91196984 141:0.93225169 142:-0.032288022 143:2.1065855 144:0.97731692 145:-0.56694078 146:0.35913691 147:0.46831325 148:0.53182882 149:0.484835 150:0.16687663 151:0.55862629 152:0.91748172 153:0.1066814 154:1.4167655 155:0.17808658 156:0.65187764 157:-0.6814459 158:-0.18752362 159:0.2193172 160:-0.53287113 161:0.69580364 162:0.18508385 163:1.0286624 164:0.44894046 165:0.30133548 166:1.430527 167:0.63218057 168:1.0325049 169:0.20636767 170:0.96789169 171:0.99464011 172:0.23961915 173:0.59768367 174:1.3971521 175:-0.23314044 176:0.94031239 177:-0.3865245 178:1.735651 179:0.68779075 180:0.31619138 181:0.066752903 182:-0.0071577933 183:0.48700395 184:0.81189173 185:1.0093855 186:1.977826 187:-0.31041363 188:-0.095469713 189:0.96480876 190:-0.13946545 191:-0.61561614 192:0.55658841 193:0.13942911 194:0.68694586 195:-0.51040709 196:-0.060831062 197:2.1860714 198:0.59952384 199:0.46023521 
0.3871182181037046 0:-1.2007991 1:0.15535262 2:-0.057953652 3:-0.82077879 4:1.2720791 5:-0.5724383 6:-0.43579891 7:-0.8260923 8:1.0645065 9:0.26571068 10:0.68151498 11:-0.14244144 12:-0.49640173 13:-0.43195 14:1.271644 15:1.7834315 16:-0.18629248 17:-1.0093656 18:0.47587413 19:1.9380333 20:-0.76509553 21:1.5169005 22:-0.71540689 23:0.21714027 24:1.1637191 25:1.2112557 26:0.83712733 27:-0.23071201 28:1.6069543 29:-0.89823717 30:0.33270904 31:-1.3073673 32:0.15232541 33:0.52623183 34:-0.87537795 35:-0.92312402 36:-0.53432995 37:-0.21246837 38:-0.34080839 39:-0.016765937 40:-0.026703395 41:0.35367525 42:-0.64052403 43:-0.038518965 44:0.62273443 45:0.40748119 46:0.3202062 47:0.97865242 48:-0.1835196 49:1.0360069 50:-0.13519028 51:-0.52855825 52:-0.45623025 53:-0.46370468 54:0.8896693 55:-0.31123054 56:-0.0090789301 57:-0.10777353 58:-0.23676915 59:0.40654138 60:-0.80988783 61:0.86996901 62:0.29752618 63:-1.2596773 64:-0.096915744 65:1.4618045 66:0.75840551 67:0.29813081 68:1.3571241 69:-0.37100607 70:-0.38669443 71:0.25393313 72:5.8009033 73:2.0569239 74:1.3868173 75:0.23457211 76:-0.054598793 77:0.10843929 78:1.3122874 79:1.0991349 80:1.2572891 81:-0.13096441 82:0.24367881 83:-0.044914298 84:1.7853354 85:0.76229763 86:0.92323709 87:-0.90222251 88:1.9348422 89:-0.48633352 90:-0.64085937 91:0.46806809 92:1.0288726 93:0.97592849 94:-0.21602023 95:0.13588455 96:-0.99843299 97:0.47302136 98:-0.55136973 99:0.63938564 100:0.42834613 101:-1.3031554 102:-0.38508582 103:1.2718323 104:0.024798928 105:-0.22183909 106:0.56447685 107:-0.098547325 108:0.57736659 109:-0.43245953 110:0.96550095 111:0.45085204 112:0.37167487 113:0.29884449 114:-0.78652221 115:0.23664975 116:-0.18753614 117:-0.099145979 118:1.8930031 119:-0.3145887 120:-0.13570863 121:0.67938107 122:-0.017313512 123:-0.099495247 124:-0.58682185 125:-0.83879352 126:-0.090349011 127:-0.1011561 128:-0.35085881 129:-1.0364801 130:0.88187099 131:-0.018466093 132:-0.18140383 133:-0.020950876 134:-0.80437523 135:0.2271235 136:-0.53467894 137:-0.92099333 138:-0.65716279 139:-0.25597289 140:0.0089047467 141:-0.61536324 142:-0.95661974 143:-0.21421453 144:0.15528436 145:-1.3623872 146:0.51826745 147:-0.0063732569 148:-0.88502896 149:0.36056843 150:0.5677821 151:-0.092221886 152:1.7880492 153:0.75747389 154:-0.14468278 155:-0.94191325 156:-1.11087 157:-1.2528026 158:-0.49029258 159:-0.73829341 160:-0.63863933 161:0.52467424 162:0.15801571 163:1.0635819 164:-1.479288 165:0.76436627 166:-0.058057755 167:-0.85569382 168:0.89465368 169:-1.2985044 170:-0.55180204 171:0.80040145 172:-0.60193807 173:-0.03498321 174:-0.17369141 175:-0.58566123 176:-0.43274412 177:0.16973579 178:0.334328 179:1.3661029 180:0.3135919 181:-0.52531767 182:-0.013851742 183:0.50740707 184:0.98075151 185:-0.24449666 186:-0.23051715 187:0.022797748 188:-0.30188787 189:-0.38509783 190:-1.1638726 191:-1.0386194 192:0.46758011 193:0.06634032 194:-0.46129397 195:-0.89610142 196:-0.10813282 197:-0.52288121 198:0.53152233 199:1.1297787 
1 0:-0.36098379 1:-0.99964523 2:-0.73232311 3:0.016878549 4:-0.0023252934 5:0.63260204 6:0.39186212 7:-0.95144618 8:1.3488743 9:0.65782207 10:-0.7962414 11:0.37237719 12:0.45815024 13:0.60344994 14:0.69170797 15:-0.73039538 16:0.67462987 17:-0.32109526 18:-0.70906401 19:-0.98256731 20:0.4509961 21:-0.62937641 22:1.6068305 23:1.1014024 24:-1.1244961 25:-0.94857746 26:-0.3821888 27:0.34152883 28:-0.024088874 29:-0.75712496 30:0.51129168 31:-0.81118536 32:-0.20381896 33:-0.85355866 34:-1.3814731 35:0.56065124 36:-0.23647206 37:0.57750094 38:0.45424873 39:-0.82125139 40:0.69260997 41:0.64548701 42:-0.559008 43:0.14009161 44:-0.5217343 45:-0.10603435 46:0.092845023 47:-0.30683225 48:0.68899739 49:-0.68584722 50:0.49889231 51:-1.5084755 52:0.25092664 53:-1.4806074 54:-0.53482163 55:0.6182313 56:0.56222099 57:-0.47640198 58:0.29676557 59:-0.055579502 60:-1.5107234 61:0.55489147 62:-0.092275389 63:-0.57762086 64:0.92833173 65:-0.15396087 66:0.20437814 67:-0.77266288 68:-0.36783418 69:0.70502901 70:-0.5941534 71:-0.44340944 72:-0.48747161 73:-0.85062033 74:0.8996135 75:2.7146742 76:6.028461 77:7.6633754 78:-1.5641478 79:0.022886038 80:-0.15618728 81:0.066420183 82:0.44780442 83:-1.2874681 84:0.9929536 85:-0.7021668 86:-0.60215813 87:0.47515583 88:0.28313693 89:-0.33174378 90:-0.035333566 91:-1.302006 92:-0.70554078 93:-0.43580046 94:-0.76919711 95:0.38342696 96:0.19476761 97:-0.69887835 98:-0.82384259 99:0.36263421 100:-0.73780507 101:-0.99736589 102:1.1706598 103:-0.17111604 104:0.93242568 105:0.79217207 106:-0.11136269 107:0.33734307 108:1.3815669 109:0.37890953 110:0.74434108 111:0.40393725 112:-0.52985722 113:-0.68991512 114:0.41416728 115:-0.85637087 116:-0.4227578 117:0.89651084 118:-0.13751903 119:0.29491001 120:0.40250215 121:0.19022594 122:1.0738841 123:0.11440802 124:-0.010537109 125:0.27396822 126:-0.7769441 127:0.46814916 128:0.093499452 129:-0.46036246 130:0.13042495 131:-1.1770722 132:0.097596459 133:0.48397568 134:0.8402977 135:-0.54980034 136:-0.025329938 137:-0.30620122 138:0.53182942 139:0.91950023 140:-0.58819836 141:-0.9408313 142:0.33924451 143:-0.50588769 144:0.2646696 145:-0.70244467 146:-0.81772864 147:0.63654679 148:0.81768996 149:1.1719224 150:1.244177 151:0.93265665 152:-0.52946335 153:-0.47690079 154:-1.3757306 155:0.33435515 156:-0.92327946 157:-0.45271623 158:-1.1043944 159:-0.19567944 160:-0.61857927 161:-0.64385265 162:0.82415456 163:0.705634 164:-0.27823883 165:-0.33233199 166:-0.30228058 167:-0.38566023 168:-0.76955855 169:0.31176221 170:-1.4056399 171:0.58284801 172:0.74782199 173:-0.24892198 174:0.17880993 175:0.39694136 176:-1.0967211 177:0.20757921 178:1.5939004 179:-1.0505718 180:-0.4543055 181:-0.51765257 182:0.24205385 183:0.22994848 184:0.44086397 185:-1.0421389 186:-0.5567801 187:0.69160122 188:0.49502346 189:-0.82904112 190:-1.0103428 191:0.19433853 192:-0.39753076 193:0.97074193 194:0.39277786 195:0.010448543 196:-0.34675893 197:-0.87598497 198:0.49112824 199:-0.73992825 
0.6107364146817043 0:-0.36696541 1:0.17107134 2:-0.97279793 3:-0.41730195 4:1.3329775 5:0.40009546 6:0.20942727 7:-0.82536244 8:-0.14965823 9:1.7726548 10:0.37240547 11:0.8322804 12:0.55531698 13:0.55174899 14:0.0043292125 15:-0.31391555 16:0.41806388 17:-0.16523787 18:0.22991824 19:0.9331007 20:0.25359529 21:0.40692654 22:0.082598194 23:-0.66984123 24:0.16186769 25:2.016865 26:-0.011273201 27:0.5124439 28:-0.59849292 29:-1.705879 30:0.94901466 31:0.83458644 32:0.77504653 33:1.7558149 34:-1.2242916 35:1.1391678 36:0.22937755 37:0.16785933 38:0.1305422 39:1.2972931 40:0.57838827 41:0.55517924 42:0.44527379 43:0.66458511 44:-0.37418568 45:0.1223381 46:-0.52812415 47:-0.097785689 48:0.21951793 49:0.14032827 50:0.15343696 51:-0.604186 52:-0.11268643 53:-1.130482 54:0.12893885 55:0.80901664 56:1.1310626 57:1.2822249 58:0.23908755 59:0.65322125 60:-1.1685462 61:0.24673761 62:-0.039944336 63:-0.54838973 64:0.80547667 65:-0.60183811 66:0.89379162 67:0.57464528 68:0.46309635 69:-1.0622767 70:-0.36318761 71:-0.012880935 72:0.479902 73:0.38831457 74:0.57447046 75:0.23671688 76:-0.075731352 77:-0.32535735 78:3.8439219 79:3.2024293 80:3.2514694 81:0.33395353 82:-0.06591484 83:-0.49363527 84:-0.38689381 85:0.2987166 86:0.31103027 87:-0.72751039 88:-0.41371363 89:1.0219887 90:1.2384385 91:-1.0397813 92:-0.23340876 93:0.012164017 94:0.7528075 95:0.12451507 96:0.33702999 97:0.015325253 98:-1.1797174 99:-0.84700608 100:-0.090875126 101:0.086148754 102:-0.5808652 103:-0.38721913 104:-1.0063277 105:0.76771295 106:-0.47527054 107:0.43214571 108:-1.5540221 109:0.46184698 110:0.098480083 111:0.06381993 112:0.29750445 113:-0.14569418 114:0.32761812 115:-0.71060622 116:-0.10412909 117:0.46834141 118:-0.0050792848 119:-0.098957449 120:0.43666255 121:1.1129086 122:-0.033007797 123:0.0052396222 124:-0.69698292 125:-0.16727616 126:-1.1101787 127:-0.090238638 128:-0.056181759 129:-0.12155434 130:-0.43705535 131:-1.0048543 132:-0.95053333 133:-0.31134817 134:0.34930694 135:1.1083454 136:0.059877105 137:-1.2816626 138:0.193193 139:-0.01135138 140:-0.30018789 141:-0.37489322 142:-0.3947317 143:0.3405613 144:0.10595625 145:-1.1585075 146:0.23512207 147:-0.0050056996 148:-1.1469264 149:0.74271297 150:-0.50894797 151:1.5590222 152:0.82633716 153:-0.13836171 154:0.53671825 155:-0.16502449 156:-0.82164419 157:-1.2655048 158:-0.62396854 159:-0.036143895 160:-0.82206637 161:-0.18331198 162:0.71216637 163:0.47020909 164:-1.0262511 165:0.057340331 166:-0.56283253 167:-0.01627267 168:-1.0880377 169:0.41020548 170:-0.74347746 171:0.41844755 172:0.0084332582 173:-0.68408793 174:0.037261546 175:-1.3207515 176:-0.19731301 177:0.66794103 178:0.78837508 179:-1.1897633 180:0.61221266 181:0.0058238236 182:0.14002866 183:0.19887905 184:-0.52293617 185:0.72643381 186:-0.86289859 187:0.49361843 188:0.10688342 189:-0.44353399 190:0.50322616 191:0.037395045 192:0.10447776 193:0.43449008 194:0.21287178 195:-0.43757114 196:0.68895423 197:-1.0986331 198:-0.69010776 199:-0.41206992 
0.3319494715925624 0:0.72245383 1:0.050944813 2:1.2085778 3:1.1425172 4:0.63290936 5:0.64947981 6:0.59070325 7:0.40028146 8:-0.31953093 9:-0.201937 10:0.37337416 11:0.5395993 12:0.53601545 13:0.34646621 14:-0.10452651 15:1.4891955 16:0.53964835 17:0.38331142 18:0.46350107 19:1.0307724 20:0.61169159 21:0.50396895 22:-0.3042337 23:1.4403651 24:1.992731 25:1.0444318 26:0.75877118 27:0.96314687 28:1.7518457 29:1.2887322 30:0.72831976 31:-0.92527479 32:0.7481873 33:-1.2790643 34:0.54338789 35:0.30497801 36:1.0519121 37:0.52105963 38:0.6217708 39:1.3151673 40:0.38259187 41:0.37881821 42:-0.52947599 43:-0.077933475 44:-0.30386075 45:0.70310849 46:0.060934238 47:2.0188417 48:0.54068261 49:0.24009153 50:0.26030421 51:1.7272218 52:0.54543483 53:-0.53453535 54:0.68357706 55:0.40755013 56:0.14687538 57:0.60010308 58:0.57834667 59:1.1246638 60:0.23708552 61:1.2793163 62:-0.64399624 63:-0.64075094 64:1.3252512 65:1.2521197 66:1.305146 67:0.27004421 68:0.52815509 69:1.74438 70:-0.17520164 71:0.91085339 72:-0.13201798 73:-0.49671733 74:0.3930625 75:0.032330003 76:0.89257157 77:0.81361049 78:0.56870842 79:1.5901395 80:-0.16820621 81:2.7851894 82:4.7762551 83:1.6259649 84:0.51478016 85:0.51132816 86:1.1949468 87:0.28301409 88:0.36850455 89:-0.23654099 90:-0.93383271 91:1.3955129 92:0.76111275 93:0.24081004 94:0.6987775 95:0.41798991 96:-0.079505555 97:0.38768864 98:0.41410944 99:-0.11374617 100:1.1979022 101:-0.39447442 102:0.45705643 103:-0.54511547 104:1.0283585 105:0.58774614 106:-0.40044498 107:0.82771844 108:1.4812295 109:0.5561859 110:0.97936046 111:0.0030506819 112:-0.025001505 113:0.12634948 114:0.37837571 115:1.5944669 116:1.2487484 117:0.20220621 118:1.2077063 119:-0.65281445 120:-0.17801954 121:1.0307719 122:0.97509199 123:1.0479985 124:0.20169476 125:0.56229967 126:-0.35988724 127:0.34609893 128:-0.22019358 129:-0.33544305 130:0.77004993 131:1.3700125 132:1.1792424 133:-0.47852963 134:0.98166001 135:-0.68736279 136:0.6485939 137:0.28591162 138:0.50408119 139:0.20725769 140:-0.34650096 141:-0.91859663 142:0.18290921 143:-0.7326473 144:0.75779688 145:-0.14373708 146:-1.1610421 147:0.0064873868 148:1.1226261 149:-0.14659199 150:1.6379142 151:-0.72116506 152:0.080943018 153:0.66842347 154:1.0947719 155:0.38758296 156:1.0000651 157:1.485818 158:-0.22744346 159:-0.2608577 160:0.61351484 161:1.1257416 162:0.30975398 163:0.40484488 164:-1.0067403 165:1.8234013 166:-0.41992328 167:-0.76431793 168:1.1380001 169:0.79715502 170:-0.10659207 171:-0.31171915 172:0.1524322 173:2.298703 174:0.0016017982 175:1.0523198 176:1.1921355 177:0.75204068 178:0.90648717 179:0.44564015 180:-0.099459305 181:-0.37226689 182:-0.1154954 183:1.1105511 184:0.60646194 185:1.3403192 186:0.32329389 187:0.52102399 188:0.60403967 189:0.4244594 190:1.1725144 191:0.080123834 192:-0.63863343 193:0.27419525 194:0.55187267 195:0.30471325 196:0.41083464 197:0.41888702 198:-0.25639716 199:1.6140079 
1 0:-1.4095839 1:-1.2945521 2:1.875469 3:-1.4564074 4:0.83227867 5:-0.51772797 6:-2.2709422 7:0.34647235 8:-0.16530713 9:0.49357131 10:-0.96049166 11:-1.3056638 12:-3.0360184 13:-2.3288376 14:0.73314369 15:-2.1816621 16:-2.3651593 17:-0.73029745 18:0.8216846 19:-0.52960116 20:-1.8495679 21:-2.6856928 22:0.68010712 23:-0.095306188 24:0.008879099 25:-1.007051 26:-0.5064919 27:-2.4062049 28:-1.6860381 29:-0.23433366 30:-0.96285951 31:0.59008163 32:-0.23912597 33:-0.097262003 34:-0.86431599 35:-1.6112766 36:-1.5849584 37:-2.1516228 38:-1.7445397 39:-1.2736522 40:-2.4540505 41:-1.8953813 42:-0.71140093 43:-0.74731773 44:-1.4313962 45:0.53659874 46:0.44276214 47:-1.6270882 48:-1.6594616 49:-0.60257685 50:-2.2129338 51:-2.2319844 52:-1.3584429 53:-0.3398321 54:0.2703065 55:-3.0461822 56:-0.45892003 57:-1.1005592 58:-2.2272193 59:-1.6745703 60:-1.0371772 61:-0.91385168 62:-0.41532561 63:-0.94378805 64:-0.25087541 65:-0.095571205 66:-0.54321396 67:0.31785554 68:-0.49286345 69:-1.6810201 70:-0.014679178 71:-1.7245637 72:-1.5638653 73:0.60347605 74:-2.5406206 75:-0.038267732 76:-0.16260745 77:-0.29613686 78:-1.6096238 79:-0.92671949 80:0.089267068 81:-0.096608669 82:-1.6408136 83:-0.050784983 84:2.4803317 85:3.2825358 86:0.5924679 87:-1.2456992 88:-2.0839097 89:-0.57530278 90:-0.15119138 91:-0.58237606 92:-0.41663402 93:-0.56269318 94:0.61741519 95:0.065655962 96:0.17668255 97:-1.9129492 98:-1.0553427 99:-0.42548713 100:-0.22361335 101:0.80368483 102:-0.3428579 103:-0.80202907 104:-2.1991947 105:-1.5250472 106:-0.87123537 107:0.299137 108:-0.79580581 109:-2.2385633 110:-1.0017112 111:-1.5391028 112:-1.1403843 113:-0.66797435 114:-1.1915184 115:-0.67209399 116:-1.3090627 117:-2.1635182 118:-1.024086 119:-0.71166122 120:-1.6068304 121:-2.3128662 122:0.54926997 123:-1.7059042 124:-1.1288297 125:-1.9185476 126:-0.50288945 127:-1.5692815 128:-0.47251445 129:-0.76664132 130:-3.1675837 131:-1.0917245 132:0.31717131 133:-0.60476464 134:-0.23776855 135:-1.3708014 136:-1.1118767 137:-1.7802695 138:-1.5047373 139:-0.26650006 140:-0.010029967 141:0.18440685 142:0.17155179 143:-0.20317151 144:-2.2979164 145:-1.0901529 146:-0.27772322 147:-0.62564439 148:0.40705293 149:-0.14241673 150:1.3019818 151:0.22695045 152:-0.36932921 153:-0.94817054 154:0.0022554605 155:-1.1307541 156:-0.38120547 157:-1.3476892 158:-0.69208378 159:0.27421272 160:-1.2785106 161:-0.24450962 162:-1.3108518 163:-1.4632701 164:-1.4420342 165:0.17253298 166:-0.51519918 167:-0.51989311 168:-1.6369363 169:-1.0159514 170:-0.97796804 171:-2.3111703 172:-0.89262909 173:-0.74566442 174:-1.2080743 175:0.35203597 176:-1.0471342 177:-0.69600588 178:-0.85768849 179:-0.30550501 180:-0.20037261 181:-1.1268649 182:-0.90022105 183:-2.7369227 184:-0.5952518 185:-0.50916082 186:-1.5830191 187:-1.7089535 188:-2.5004892 189:-1.1008064 190:0.14976725 191:-1.3074049 192:-0.96060336 193:-2.3384027 194:-0.63918972 195:-0.81940693 196:-1.316023 197:0.010568333 198:0.15834369 199:-1.0190774 
1 0:0.29462612 1:-0.32213393 2:0.2358294 3:-0.2950587 4:1.1796657 5:0.28293681 6:0.034931999 7:1.1540077 8:1.9773306 9:0.59224439 10:0.1427975 11:-0.0091737276 12:0.31185633 13:0.57780594 14:-0.58421481 15:0.82556933 16:0.22100709 17:1.0667597 18:1.1218861 19:0.75298566 20:-0.0042759115 21:0.067935027 22:-0.17702216 23:0.80078143 24:0.6189726 25:-0.069440745 26:0.39168069 27:-0.077419162 28:0.97192818 29:-0.69090366 30:0.036234319 31:0.26102334 32:0.70850825 33:0.84303576 34:-0.33019304 35:0.70572907 36:-0.15984456 37:0.12534264 38:-0.20267949 39:0.42046204 40:-0.15762272 41:0.21472061 42:0.092134289 43:1.3895584 44:-1.2285578 45:-0.1524033 46:0.028062589 47:0.49149987 48:0.43946478 49:-0.36584687 50:0.17771231 51:-0.85471797 52:0.46691489 53:-0.42140365 54:0.70278561 55:1.1490465 56:0.48859534 57:1.2146069 58:0.16948335 59:0.66609311 60:0.16836417 61:0.49981385 62:0.57729828 63:-0.19155887 64:0.36924574 65:0.14295432 66:-0.53804523 67:0.083564229 68:1.1056155 69:0.66910547 70:0.34001696 71:0.11406701 72:0.14514019 73:1.202873 74:-0.2863363 75:0.22464068 76:0.11273235 77:1.1084609 78:0.23143731 79:-0.16809684 80:1.2972865 81:-0.28482911 82:0.51516831 83:0.37608013 84:-0.35456735 85:0.48251781 86:0.97576296 87:2.0446277 88:3.459862 89:7.6994009 90:0.41971874 91:-0.2276607 92:-0.54464161 93:0.667292 94:0.45135188 95:-0.66133845 96:-0.55013722 97:0.44010904 98:-0.6425249 99:1.0489173 100:0.26931518 101:0.81759447 102:-0.00036692724 103:-0.71140414 104:-0.054924402 105:-0.16414501 106:-1.1476364 107:-0.083787069 108:0.52074128 109:0.069632493 110:0.92560899 111:-0.6383931 112:0.28560272 113:1.2940981 114:0.49736199 115:0.50176567 116:0.39883652 117:0.21103024 118:-0.86869955 119:1.1061023 120:-0.43191576 121:0.40446639 122:-0.082292251 123:0.13080136 124:-0.21025793 125:0.46951902 126:-0.0088681094 127:0.44843647 128:-0.17706048 129:0.54802233 130:-0.53279334 131:-0.36966872 132:0.33370212 133:-0.73114246 134:-1.1877015 135:-0.3247374 136:0.4945516 137:-0.2898877 138:1.2342035 139:-0.7429325 140:0.80896866 141:0.31860393 142:1.4435544 143:0.32993817 144:0.097733617 145:0.61994147 146:-0.64745617 147:-0.22951533 148:1.2857335 149:-0.18838546 150:0.77417666 151:1.1732244 152:0.89978486 153:1.6228935 154:0.57923287 155:-0.20432462 156:-0.44023678 157:0.12582596 158:0.014952952 159:1.1185689 160:0.025464697 161:-0.025096262 162:-0.39865437 163:-0.43750113 164:0.46206743 165:-0.0051464713 166:1.0450304 167:0.7748481 168:-1.1382116 169:0.20545089 170:0.58576196 171:0.028412001 172:0.85358804 173:-0.25028995 174:-0.080267891 175:0.23620141 176:0.30862361 177:0.43221167 178:-0.74028587 179:0.37837416 180:-0.17299259 181:1.9016458 182:0.38706884 183:0.66610223 184:0.21272045 185:1.1472195 186:0.43985617 187:-0.16869017 188:-0.11361973 189:-0.034806356 190:0.62537116 191:0.33633968 192:-0.58553684 193:0.41908947 194:-0.24202189 195:2.2513735 196:0.57861972 197:0.071998745 198:-0.57886302 199:-0.28009555 
0.8304118272611396 0:-0.044635881 1:-0.63208145 2:-0.46350375 3:0.97339922 4:1.1811445 5:-0.06738276 6:0.40216273 7:1.052846 8:0.36020285 9:1.2803289 10:-0.33140364 11:0.25221932 12:0.52028424 13:0.28804997 14:-0.26543733 15:0.20514527 16:0.5516457 17:0.4999516 18:0.96187574 19:0.34729338 20:0.13995732 21:0.25768313 22:0.21780829 23:0.74728954 24:0.0019903632 25:1.2884494 26:0.1671292 27:0.17595971 28:-0.0080030933 29:0.40171134 30:0.1760159 31:0.36131212 32:1.0753336 33:0.72430927 34:-0.57152593 35:0.05850561 36:-0.13721746 37:0.24171951 38:0.35665995 39:-1.2190559 40:0.04274895 41:0.18798515 42:-0.36697185 43:-0.2042422 44:-0.30880588 45:0.16055517 46:0.45246086 47:-0.81364709 48:0.44391498 49:0.84552008 50:-0.15405802 51:-1.0934876 52:-0.48943189 53:0.096678555 54:0.088944994 55:0.12172457 56:-0.34472483 57:0.23724939 58:0.27389488 59:0.58211267 60:-0.39345965 61:0.17248814 62:0.29807267 63:-0.16763651 64:2.6264884 65:0.8008855 66:0.26987496 67:0.0541052 68:0.19902408 69:-0.090831503 70:-0.10922242 71:-0.31612644 72:0.55313504 73:0.33922386 74:0.062158197 75:-0.58394742 76:0.26874262 77:0.062168829 78:0.21552312 79:1.2211159 80:1.6947964 81:3.4222143 82:-0.40648019 83:0.99892098 84:-0.46472359 85:0.64741749 86:1.9550788 87:0.44779369 88:0.18359606 89:0.13337494 90:4.2364616 91:0.6985572 92:4.952899 93:-0.19216752 94:0.30992159 95:0.35616165 96:0.20499375 97:-0.21819527 98:0.83797318 99:-0.71466023 100:0.46660292 101:0.73531437 102:0.42962968 103:0.7022239 104:1.3229126 105:0.037421003 106:-0.1560895 107:-0.22284968 108:-1.0591029 109:0.30888855 110:1.0212833 111:0.30682108 112:0.95598567 113:0.35575235 114:-0.10682639 115:-0.13426802 116:-0.3383452 117:0.16522443 118:-0.85292256 119:0.063641861 120:0.36657837 121:2.333302 122:2.1221924 123:-0.17858312 124:-0.073278353 125:-0.50224942 126:0.53845423 127:0.075514279 128:0.751463 129:-0.25313735 130:-0.2264338 131:0.88704789 132:0.39568356 133:0.58236295 134:0.30705768 135:0.69663274 136:-0.37786648 137:0.39057764 138:0.16414465 139:0.63039201 140:-0.71976215 141:1.124387 142:0.66137892 143:0.96958178 144:-1.0269411 145:0.62675738 146:0.41257021 147:-0.03695808 148:0.37963048 149:0.055470943 150:2.0108654 151:0.73319674 152:0.7604956 153:-0.0055774734 154:0.83788979 155:-0.17005263 156:0.31526622 157:-0.33535841 158:0.28189147 159:-0.17962025 160:-1.0734185 161:-0.05282836 162:0.49092105 163:-0.33052084 164:-0.10657688 165:-0.098516956 166:1.0236961 167:-0.037925132 168:0.86066449 169:0.44303539 170:-0.43660948 171:0.23678036 172:0.95144475 173:0.63317984 174:-0.19157347 175:0.35929379 176:0.56624836 177:0.060805552 178:0.75316429 179:1.0711395 180:0.78078616 181:-0.096480273 182:0.26357025 183:0.12712157 184:0.44032511 185:0.36527163 186:0.46977413 187:0.3641496 188:0.46974647 189:0.83090454 190:1.1883626 191:-0.55068958 192:0.091374077 193:0.19241153 194:0.12095966 195:1.359134 196:0.50072432 197:1.1074985 198:1.9634424 199:0.57440478 
0.3094287121763174 0:-0.37887543 1:0.95499021 2:0.76387686 3:1.7219718 4:0.95487177 5:-0.26055768 6:0.53240275 7:0.5716145 8:0.93862337 9:0.60666156 10:-0.33315223 11:0.84562302 12:0.40655133 13:0.53688413 14:0.09630245 15:1.0705148 16:0.47036353 17:-0.78581119 18:0.79477906 19:0.58619201 20:0.52579081 21:1.3677746 22:-0.75970131 23:0.035412066 24:0.36228448 25:0.59565628 26:0.24092482 27:0.44729125 28:0.77390033 29:0.43619218 30:0.88349068 31:-0.12047102 32:0.71497136 33:-0.95110893 34:-0.98311126 35:0.27928382 36:-0.036798995 37:0.65507507 38:0.50453717 39:0.26788557 40:0.36516732 41:0.79434538 42:-0.48867622 43:-0.29899317 44:-0.37775993 45:0.65598959 46:1.2505797 47:0.63246012 48:0.53654337 49:0.56102353 50:1.0403708 51:-1.0948017 52:1.1048756 53:0.084528103 54:1.2733085 55:0.83574021 56:0.20628043 57:0.65920377 58:0.53494453 59:0.75461215 60:-0.020783646 61:0.0016870449 62:0.27648225 63:-0.4611983 64:-0.04615099 65:1.169358 66:0.89934266 67:0.35730842 68:0.69062334 69:-0.69686282 70:0.020455785 71:0.33114427 72:0.970285 73:1.2546647 74:0.42024457 75:0.023233226 76:-0.21931589 77:0.58495295 78:-0.11976375 79:1.230826 80:0.38565561 81:0.50284714 82:0.10758255 83:0.75943142 84:-0.38319093 85:0.77242661 86:0.74371964 87:-1.1230125 88:1.9831975 89:0.046304088 90:1.8409482 91:1.0606809 92:-1.1355588 93:4.4352379 94:4.3265576 95:6.0926127 96:0.1564848 97:0.61574936 98:0.42589781 99:0.70237648 100:1.1636434 101:0.61910474 102:-0.96976924 103:-0.30176362 104:-0.73345965 105:0.79044229 106:0.85511488 107:1.1689935 108:0.9565928 109:0.50079066 110:0.38508129 111:0.37039661 112:-0.62912989 113:0.57160592 114:0.27359211 115:-0.078859828 116:0.44865116 117:0.15427358 118:0.092259482 119:0.62177896 120:-0.33651885 121:1.3106469 122:1.3857341 123:0.27191749 124:-0.67445171 125:0.4137603 126:1.6202285 127:0.27713731 128:-0.27530527 129:-0.56861126 130:0.3328383 131:0.15604289 132:0.17468266 133:-0.036544994 134:-0.043261915 135:1.5176717 136:0.37231621 137:-0.28803241 138:-0.075686492 139:-0.25252211 140:0.36557871 141:0.63674909 142:-1.0654422 143:-0.41013438 144:0.18434995 145:-0.49667859 146:-0.50635064 147:-0.097735286 148:0.58294028 149:0.39935583 150:0.17025673 151:0.48978019 152:0.80127591 153:1.4464827 154:1.3733438 155:-0.11941929 156:1.4926553 157:-0.32765391 158:-0.66728115 159:-1.0108815 160:-1.1414149 161:1.5417924 162:0.4602643 163:0.52402997 164:-0.81113023 165:0.014588948 166:-1.3528106 167:-0.41518632 168:0.91047841 169:0.52524358 170:0.074624941 171:1.4675171 172:-1.1111461 173:-0.22701666 174:-0.49797726 175:2.2234871 176:0.45989409 177:0.91991752 178:1.0191591 179:1.016708 180:-0.018127657 181:-1.1360176 182:-0.73570591 183:1.0216913 184:0.85680902 185:0.66754615 186:-0.26238519 187:0.57849014 188:0.5584271 189:0.054923758 190:-0.59902346 191:0.25623548 192:1.038255 193:0.17746009 194:0.64917994 195:-1.1564623 196:-0.98090786 197:-0.55035037 198:1.6652611 199:0.59079552 
1 0:0.93717366 1:0.16983503 2:-0.023596806 3:1.1371994 4:-0.87879086 5:-0.1816885 6:-0.12695657 7:-0.62191236 8:-0.24145114 9:-0.55932748 10:-0.14714482 11:-0.28866029 12:-0.33121279 13:-0.82102227 14:-0.704099 15:-1.1539917 16:0.27105168 17:-1.046649 18:-0.28728068 19:0.036245842 20:-0.026240593 21:0.64669126 22:-0.36559358 23:-0.69360501 24:-0.15328115 25:-0.93898964 26:-0.32325608 27:-0.51864523 28:-1.1855881 29:-0.58644325 30:-0.4932245 31:0.50089622 32:-0.61061496 33:-0.58001727 34:1.2650259 35:-0.28205851 36:0.60717487 37:-0.35656899 38:-0.045785137 39:-0.27364036 40:-0.21415097 41:-0.1068256 42:1.5361886 43:-0.57525861 44:-0.16675185 45:-0.32247522 46:-0.42016289 47:-0.15052858 48:-0.24122201 49:-0.39525715 50:-0.36218145 51:-0.47078523 52:-0.011060435 53:-0.24694879 54:-1.1001238 55:-0.94999731 56:-0.80555415 57:-1.486787 58:-0.34728995 59:-0.40079105 60:2.2388434 61:-0.795349 62:-0.47585061 63:-0.37433097 64:0.57346761 65:-1.0720476 66:-0.82400769 67:0.78228015 68:-0.33681494 69:-0.2846806 70:-0.43054998 71:-0.54694837 72:-0.96036536 73:0.89194185 74:-0.62901849 75:-1.0779625 76:0.18479283 77:-0.13381022 78:-0.71134728 79:-0.76392466 80:-0.50347036 81:0.98505872 82:-0.90275204 83:-0.25585014 84:-0.47942698 85:-0.61319917 86:-0.69421208 87:-0.83953398 88:-0.60435647 89:-0.042892799 90:-0.45546719 91:0.34800956 92:-0.83714944 93:-1.2799566 94:0.62057495 95:-0.59000301 96:5.4643745 97:0.12786335 98:6.850378 99:0.059098501 100:-0.33140564 101:-0.43542334 102:-0.27532169 103:-0.95125413 104:-0.95246267 105:-0.2800867 106:-1.0816935 107:0.67977262 108:-1.2176473 109:-0.20037065 110:-0.65965748 111:-0.38996479 112:-0.52471811 113:-0.13938721 114:0.65992391 115:0.73244435 116:-0.029640449 117:-0.031743906 118:-0.77236342 119:-0.69869184 120:-1.0298662 121:-1.0777456 122:-1.4197869 123:0.089896128 124:-0.026746081 125:0.38440767 126:-0.44133973 127:-0.23426603 128:0.92621148 129:-1.0436927 130:-0.0071769659 131:-0.72477204 132:-0.75911981 133:-0.41879284 134:-0.8776893 135:-0.31163669 136:0.22609611 137:-0.53154457 138:0.0060640182 139:-0.67177433 140:-1.2358934 141:-1.5588542 142:-0.78804266 143:-0.28279838 144:-0.68244392 145:-0.34523126 146:0.32472846 147:-0.091486171 148:-0.6289646 149:-1.1449786 150:-0.83033538 151:-0.54417056 152:0.063101858 153:0.19721997 154:-0.0014770144 155:-0.72217035 156:0.52409065 157:-0.62177795 158:-0.74905229 159:-1.0581335 160:-1.0342009 161:-0.53897321 162:-0.39086315 163:-0.71738404 164:-0.044177968 165:-0.28343204 166:-0.98731261 167:-0.06522397 168:0.26622644 169:0.75507611 170:0.11920812 171:-1.4415495 172:-0.86812854 173:0.29035863 174:-0.25464177 175:0.14787884 176:-0.65451288 177:-0.60141629 178:-1.3760275 179:-0.00037772645 180:-0.23074915 181:-0.41703272 182:-0.074611627 183:-1.4591212 184:0.56259161 185:1.5909404 186:-0.81325889 187:-0.043412268 188:-0.18538567 189:1.1610162 190:-0.42440647 191:0.47845849 192:-1.221746 193:-0.65339279 194:0.25752008 195:-1.249751 196:-0.9692412 197:-0.30850804 198:0.96688825 199:0.042364504 
