svm_type c_svc
kernel_type rbf
gamma 0.00502513
nr_class 2
total_sv 58
rho -0.935207
label 1 -1
nr_sv 52 6
SV
0.1044885481225238 0:4.4299746 1:5.912456 2:3.9946547 3:0.98894328 4:0.20836468 5:-1.1054127 6:-0.76130497 7:-0.83924896 8:-0.55373794 9:-0.87348598 10:-0.04139889 11:1.845829 12:-0.15232059 13:0.74561101 14:-0.31262812 15:-1.2713002 16:-0.30603632 17:-0.06199187 18:-0.81524795 19:0.48032472 20:-0.2486746 21:0.37679771 22:-0.58763164 23:-0.099905036 24:-0.069942296 25:-1.0669278 26:0.14560403 27:0.63396782 28:-0.45165712 29:1.9677173 30:1.2322996 31:-0.59007001 32:-1.7611716 33:0.54731512 34:0.12021841 35:-0.22907417 36:-1.4602474 37:-1.290086 38:-1.4295239 39:-0.77466851 40:0.45605585 41:-0.12186949 42:-0.87737727 43:0.25949359 44:1.0616436 45:-1.075458 46:-0.13724421 47:-0.81749642 48:-0.13442256 49:-0.79731548 50:-0.58742422 51:0.32793298 52:-0.59918767 53:-0.81128895 54:1.0250223 55:-0.35510075 56:0.4617238 57:-1.1632341 58:-0.13520612 59:-0.071836621 60:-0.85783362 61:0.83014303 62:-0.68660814 63:0.086489782 64:-0.22858381 65:0.4723061 66:0.14439508 67:0.29612088 68:-1.0237193 69:-0.87346554 70:-0.32964545 71:-0.31648344 72:0.24359743 73:-0.13661903 74:0.11118713 75:-0.32548952 76:0.48884386 77:0.96879691 78:1.3482354 79:-0.5106374 80:1.1568158 81:-0.84750843 82:-0.088955618 83:-0.80244517 84:-0.07223358 85:-0.11006358 86:-0.086858191 87:1.1499784 88:-0.55277115 89:-1.7816932 90:0.49756086 91:-0.53448284 92:-0.24533382 93:-0.36649492 94:-0.86226338 95:1.5149729 96:-1.6385568 97:-0.23521303 98:0.036335889 99:-0.35839477 100:-0.98839736 101:-0.058397982 102:-1.5704433 103:-1.3016057 104:0.3481051 105:-0.46878666 106:1.396444 107:-0.71658158 108:-1.1284972 109:0.49026585 110:0.39233416 111:0.48683265 112:0.36729243 113:-0.49514192 114:-0.85833025 115:-0.47348255 116:0.33294931 117:-1.3569409 118:0.12881888 119:-0.1106319 120:1.2092236 121:0.35561731 122:-0.063996859 123:-0.82356834 124:1.3823134 125:0.2964699 126:0.37877074 127:-2.0423865 128:1.4189036 129:-0.54100192 130:-0.29736879 131:-0.94050103 132:0.78063691 133:-0.90785325 134:-0.43521166 135:-0.32340071 136:0.014303821 137:0.088840418 138:-1.4920382 139:-1.2224568 140:-0.091574512 141:0.15799007 142:-0.86009043 143:-1.1504438 144:-0.74918163 145:-0.34947312 146:-0.17823021 147:0.70701587 148:-0.29537806 149:1.3580538 150:-1.1898762 151:-0.41669151 152:-1.1579745 153:-0.47771907 154:-0.50316703 155:-1.0320766 156:-0.50718194 157:-1.245829 158:-0.3106418 159:-0.72663635 160:-0.99560267 161:-0.3301897 162:0.71278375 163:1.9775207 164:1.0672618 165:-0.62339354 166:-1.0085508 167:-0.050673429 168:0.40555573 169:1.2890577 170:0.39648223 171:-1.5379304 172:-0.053311154 173:-0.3479906 174:-1.5958257 175:0.29351938 176:0.54339778 177:-1.1116964 178:-1.4247404 179:-0.75965822 180:0.33937934 181:0.3354044 182:0.4190954 183:-1.0203217 184:-1.2913179 185:-0.70373631 186:0.28550139 187:-0.4606337 188:0.37915441 189:-0.39745337 190:-1.6577368 191:-0.84054434 192:0.20175302 193:-0.56648922 194:0.46020561 195:-0.43688241 196:-0.52500921 197:-0.11043217 198:-0.16411951 199:0.53674942 
0.009465521257243351 0:0.81992346 1:1.3829432 2:0.70353621 3:-0.070136115 4:-0.12040062 5:0.21505602 6:4.6665258 7:4.7837644 8:3.3555734 9:-0.83556032 10:0.45065811 11:-1.3733826 12:-0.080868781 13:-1.2052699 14:0.9145838 15:2.4671421 16:-0.24619436 17:0.085359164 18:-0.79862767 19:0.73248339 20:0.68352234 21:0.31388485 22:0.78165168 23:0.19236408 24:0.66230446 25:-1.0783923 26:0.26499993 27:0.58564532 28:0.38515618 29:-0.55790806 30:0.85677886 31:-0.5546394 32:-0.066189058 33:0.38495213 34:0.72654712 35:-0.54231644 36:-0.30521616 37:0.28541738 38:0.62974578 39:0.63372093 40:-0.50285751 41:-0.67142689 42:-0.2608611 43:0.53127658 44:2.9234989 45:-0.50407439 46:-0.17711043 47:-0.40499252 48:0.022977278 49:-0.031988658 50:-0.12374731 51:0.41873586 52:-0.053469103 53:-1.2185892 54:-0.20088546 55:0.80678153 56:0.51574892 57:-0.27254391 58:0.023347102 59:-1.5114226 60:0.64180416 61:0.20507929 62:0.63902485 63:-0.15476839 64:0.3056258 65:-0.64151675 66:0.3366414 67:0.23450412 68:1.203784 69:-0.078867853 70:-0.090592183 71:0.74477392 72:0.86126184 73:1.0551459 74:0.76260543 75:0.24313815 76:0.40584603 77:0.081645973 78:1.5127106 79:-1.1115631 80:-0.74068391 81:0.98459727 82:0.27770799 83:0.49609098 84:-0.16798963 85:0.5613417 86:-0.3356674 87:-0.56010199 88:-0.37155235 89:-0.21487787 90:-0.14489733 91:0.6979624 92:-0.40053186 93:1.1374292 94:0.53723198 95:-1.3156495 96:-1.6241094 97:-0.28362405 98:0.27388221 99:-0.70162433 100:1.0648774 101:1.3311908 102:-1.1666687 103:0.10438021 104:1.3701454 105:-0.56296557 106:-0.53547156 107:0.079066575 108:0.8498956 109:0.51107824 110:0.39249513 111:0.7900148 112:1.0779997 113:0.8685388 114:0.78926438 115:0.73335314 116:0.60503447 117:-0.42708817 118:0.60252857 119:-0.21002561 120:0.97285372 121:1.0578489 122:0.49654073 123:-0.11162873 124:-0.62932706 125:0.72820389 126:0.49274963 127:-0.16252823 128:0.57368386 129:0.21680948 130:0.53174067 131:-1.4243764 132:0.53535116 133:-0.16004586 134:0.59954196 135:0.20151764 136:0.084980205 137:0.23985882 138:0.10559312 139:-0.63614517 140:-0.25747037 141:-0.01438277 142:1.0431359 143:0.17521296 144:0.084540032 145:-0.045538332 146:0.21919426 147:0.43109179 148:-0.23992261 149:0.066843197 150:-0.43813825 151:-0.27560458 152:-0.69847971 153:-0.077341117 154:1.2290498 155:-1.2060164 156:0.21573052 157:0.56308329 158:0.17730868 159:-0.18519974 160:1.8149792 161:-0.64205796 162:0.50786322 163:-0.42121276 164:-0.90418535 165:0.30796516 166:-1.1678267 167:0.64998168 168:0.99834412 169:0.4681901 170:0.31830817 171:0.16744065 172:0.019306609 173:0.28745261 174:0.049329061 175:1.0364275 176:-0.64560783 177:0.53083569 178:0.86692959 179:0.54196799 180:0.40716383 181:-0.74378854 182:-0.69562012 183:-0.47439429 184:-1.2045175 185:0.8499071 186:-0.49633971 187:0.36578357 188:0.42188776 189:0.76492774 190:0.70051259 191:-0.065786123 192:0.6266306 193:-0.49636167 194:-1.4785368 195:-1.2129772 196:-0.59317839 197:1.2627844 198:1.1710651 199:0.41252589 
0.1837679212806385 0:0.39308304 1:0.60295755 2:-0.1717328 3:1.9419791 4:-0.0085790427 5:0.040139228 6:-0.58955258 7:0.59459734 8:0.075563036 9:-0.8286382 10:0.32587025 11:-0.28106114 12:2.1143146 13:4.3301678 14:3.8609445 15:0.66484392 16:-0.31226599 17:1.4380555 18:0.57168883 19:0.733055 20:0.16106279 21:0.51930332 22:2.2057455 23:-0.97239131 24:0.51358831 25:-0.23160022 26:0.91817832 27:0.73599458 28:0.82599294 29:0.85153401 30:-0.59036535 31:0.73304564 32:-0.8221429 33:0.25296947 34:0.654971 35:1.2387633 36:-0.49433577 37:-0.4051168 38:-0.76053804 39:0.36422354 40:0.63435316 41:0.16205189 42:-0.33527201 43:1.5121638 44:-0.68982577 45:-0.61058044 46:0.38975635 47:0.63423419 48:0.17119169 49:-0.94173324 50:-0.31292245 51:0.41587928 52:-0.65234244 53:0.43785208 54:-0.33151495 55:0.42589816 56:0.44291615 57:-1.1975067 58:0.090384543 59:0.093233556 60:0.1319833 61:-0.51101941 62:0.36651367 63:0.33123186 64:0.20910794 65:-0.48384801 66:0.21334384 67:0.18327509 68:0.83428931 69:0.45791683 70:0.7164796 71:0.49643219 72:1.2825906 73:0.45066482 74:0.27612677 75:0.46349186 76:0.39765427 77:0.56846172 78:-0.52724975 79:-0.36824057 80:-0.027518263 81:0.59541273 82:0.010061783 83:0.12952965 84:0.90181601 85:0.46658644 86:1.6318604 87:0.33537823 88:-0.33394155 89:-1.2536613 90:-0.6056096 91:0.15617138 92:-0.10889745 93:-0.80310923 94:-0.49479416 95:-0.52061057 96:-0.042396318 97:-0.78245533 98:-0.83399415 99:-0.18297236 100:0.75671601 101:0.89514875 102:-1.1099783 103:-1.3901336 104:0.41210964 105:0.090282433 106:1.5164474 107:0.52620608 108:-0.1735549 109:-0.51431167 110:0.37580246 111:0.69915426 112:0.6839307 113:0.73996145 114:0.24826451 115:-0.011240267 116:0.31432277 117:0.88175863 118:0.19684495 119:0.49234626 120:0.058869708 121:-0.25723791 122:0.74043244 123:-0.59404117 124:0.65545166 125:0.85230649 126:0.43529037 127:1.5699992 128:-1.0709952 129:0.97939271 130:0.43423674 131:1.7487731 132:0.49006718 133:-0.54154772 134:0.017919362 135:0.16157153 136:1.0108263 137:-0.051719237 138:0.52774048 139:-0.82310897 140:-0.58284116 141:-0.44115505 142:-0.22021997 143:0.39932889 144:-1.1996262 145:0.06498681 146:0.21504664 147:0.18950748 148:1.3812948 149:-0.74397951 150:0.22170207 151:-0.038506504 152:-0.65949547 153:-0.72025824 154:0.19314408 155:-0.44019413 156:0.91187745 157:-0.62441063 158:-0.35334247 159:-0.20773922 160:-0.46985313 161:0.41024411 162:0.61656493 163:-0.14306255 164:1.3208309 165:-0.026158284 166:-0.45180032 167:0.24889362 168:0.59402436 169:0.48366553 170:0.40092453 171:0.3754788 172:-0.16356124 173:0.50441629 174:-0.73938125 175:0.21505596 176:1.236786 177:-0.35801238 178:-0.25497159 179:0.3941884 180:0.39610031 181:0.0060144807 182:-0.76079464 183:0.42782819 184:0.5976392 185:-0.23058775 186:1.8324634 187:0.15615039 188:0.45855066 189:0.14084889 190:-0.993801 191:1.994102 192:1.0457271 193:0.87552643 194:-0.17403585 195:0.88868791 196:-0.73836756 197:-0.24275753 198:0.20808804 199:0.69015038 
0.09315083831155138 0:-0.45811903 1:-0.13364597 2:0.043844685 3:0.88343215 4:-0.36774376 5:0.40522143 6:0.93675286 7:1.1847459 8:0.019282814 9:0.32542196 10:0.2409672 11:0.58064401 12:0.8966496 13:0.012342958 14:-0.099180527 15:1.3083512 16:2.8065591 17:3.1247475 18:-0.59730881 19:0.55990487 20:-0.60689723 21:-0.17038359 22:1.3498844 23:0.71015406 24:0.49072626 25:1.4322472 26:1.0868516 27:-0.084421188 28:-0.17737438 29:0.71433991 30:1.1403613 31:0.26111323 32:-0.38661468 33:-0.31307563 34:0.023158822 35:-1.0809277 36:1.2723414 37:0.90996343 38:1.1692218 39:-0.1516148 40:0.021047473 41:-0.66429579 42:-0.082039833 43:0.0059380489 44:-0.66057634 45:0.18044566 46:-0.81752151 47:-0.10789281 48:0.24588156 49:0.6323182 50:1.1149193 51:0.47429591 52:-0.1981138 53:0.81814051 54:0.92303222 55:0.58638328 56:0.45007956 57:2.8828108 58:0.49219373 59:-0.44754285 60:1.3372978 61:0.047428854 62:0.37536535 63:-0.82823598 64:0.49099267 65:1.5274491 66:0.25036582 67:0.41895705 68:1.4051769 69:0.70799333 70:0.10685287 71:-0.39693519 72:-0.010277092 73:0.30111784 74:0.80164874 75:1.9821018 76:0.5433802 77:0.74679112 78:-0.42804217 79:1.5608059 80:0.052264515 81:0.68642122 82:-0.0096303644 83:0.25400048 84:0.3549569 85:0.64355946 86:-0.62599277 87:-0.92293483 88:0.73243529 89:0.081449047 90:-0.3655782 91:0.15355018 92:-0.12387404 93:0.19992194 94:0.44509587 95:0.66275239 96:1.9605156 97:1.1211338 98:1.0985473 99:0.42010123 100:0.28447577 101:0.31219593 102:0.40582412 103:1.2113389 104:-0.42209229 105:-0.29347903 106:-1.0868162 107:-0.32002458 108:0.66795433 109:1.4341837 110:0.51129162 111:-0.13786142 112:-0.20338009 113:0.26695815 114:0.55790764 115:-0.49220333 116:0.59750843 117:0.68844932 118:0.34847376 119:1.4378245 120:0.30200955 121:1.8568919 122:-0.88266867 123:-0.15820356 124:0.74868613 125:0.44860166 126:0.46105227 127:1.4759003 128:1.1988679 129:1.0827551 130:0.70844382 131:-0.22018915 132:0.71590078 133:0.34454271 134:1.0894475 135:0.87217009 136:-0.41781065 137:1.3827493 138:-0.31947625 139:0.080009349 140:0.45747441 141:0.29320252 142:0.41033715 143:1.4444391 144:0.57654649 145:-0.67846292 146:-0.57230467 147:1.2473699 148:-0.24689031 149:-0.59529525 150:1.2519044 151:0.14113918 152:-0.43612429 153:0.4563016 154:-0.75223625 155:1.1010026 156:1.2367562 157:0.73819876 158:0.41705221 159:-0.71874845 160:-0.20331381 161:-1.3045563 162:0.23348346 163:0.52094924 164:0.70256877 165:-0.010158937 166:1.2352716 167:-0.022769364 168:0.84783638 169:0.64030945 170:0.35772377 171:0.082853921 172:0.16947778 173:-0.39727253 174:0.4577823 175:1.1225679 176:0.042023875 177:0.016792856 178:-0.38258502 179:1.2739908 180:0.48276457 181:-0.95009154 182:0.43072107 183:0.47665691 184:0.36235851 185:1.1941475 186:-0.99788713 187:0.14360592 188:0.47921258 189:0.70278841 190:0.15400851 191:1.412303 192:-0.17769268 193:-0.18246649 194:1.1114006 195:1.3949914 196:0.81707233 197:0.10851193 198:-0.50885624 199:0.54464436 
0.1241206188325618 0:-0.42423669 1:-1.2206979 2:-0.68895501 3:-1.4480364 4:-0.46526343 5:-0.36915097 6:-0.30076864 7:1.9268366 8:-0.50279379 9:0.13985102 10:0.21182503 11:-0.43884814 12:1.490137 13:-0.74964362 14:0.010638253 15:-0.92936701 16:-0.96485001 17:0.40855443 18:5.407753 19:1.1270976 20:5.2118402 21:-0.035327714 22:0.37407431 23:0.78116232 24:0.52637553 25:0.25191155 26:-1.0999029 27:0.33622417 28:0.32989916 29:0.33808947 30:-0.1366483 31:-1.5524621 32:-0.67008454 33:0.31218112 34:0.63998586 35:-0.39564234 36:0.014345052 37:-0.11841036 38:-0.15996206 39:-1.3551999 40:-0.89025366 41:-0.57517052 42:-1.0152862 43:-0.074735709 44:-1.5531714 45:0.15440738 46:0.5568465 47:0.46931708 48:0.13473788 49:-0.64084005 50:-0.068845339 51:-0.073538542 52:0.47437263 53:-0.85923648 54:0.31429404 55:0.84154063 56:0.15897326 57:-0.37747392 58:-0.16083488 59:-0.27360034 60:-0.70276046 61:-0.10455279 62:-0.010740196 63:-1.2680119 64:0.45041674 65:-0.83367771 66:0.15365058 67:0.73975587 68:0.24245971 69:-0.19998199 70:0.36914936 71:0.65122259 72:0.41361699 73:-0.068810157 74:0.64737922 75:-1.082783 76:0.024671981 77:0.29115561 78:0.2881529 79:-0.63880068 80:-1.3807384 81:0.17212197 82:0.021904904 83:-1.0108751 84:-0.20310405 85:-0.88751054 86:0.29916158 87:-1.2072544 88:-0.20702919 89:-1.6828662 90:-0.1165328 91:0.31402853 92:0.13951558 93:-1.4029219 94:-1.3074136 95:0.071920246 96:-0.53292376 97:-1.0159572 98:-1.2704638 99:1.1912302 100:0.32632503 101:0.34869048 102:-0.33881265 103:-1.8312299 104:1.0391741 105:-0.38323033 106:-0.71553093 107:-0.048399165 108:-0.54974115 109:-0.092379317 110:0.051011652 111:0.54601026 112:0.99090952 113:0.42898041 114:0.36950964 115:-0.63799065 116:0.26383767 117:-0.0036810406 118:0.13716234 119:-0.58976239 120:0.6637798 121:0.3328087 122:0.17547831 123:0.07881894 124:1.244387 125:0.27815843 126:0.092930853 127:-1.2811213 128:-0.53173876 129:1.167145 130:0.22401734 131:0.14807014 132:0.7070812 133:-0.15005592 134:-0.16160326 135:-0.046956331 136:-0.59990841 137:0.37769333 138:-1.3056692 139:-0.61387748 140:-0.2898027 141:-0.10682695 142:-0.73281318 143:-0.57105273 144:-0.34637702 145:-1.300307 146:0.81721586 147:0.10240316 148:-0.11477341 149:0.34467134 150:-1.7342322 151:-0.022217816 152:-1.386318 153:-0.078227073 154:-0.16884139 155:-0.6307677 156:0.61614317 157:-0.94257081 158:-0.050515372 159:1.5079606 160:-0.15670612 161:0.062792376 162:1.0889043 163:-0.35986501 164:-0.44997719 165:-0.32040155 166:-0.79348785 167:-0.77733797 168:0.67740756 169:0.59822017 170:0.24068615 171:-0.69505715 172:-0.1196854 173:0.31597024 174:-0.64745998 175:0.55194765 176:-0.38382837 177:-0.93538827 178:-0.34499159 179:0.74164855 180:-0.32893589 181:-1.1882641 182:-0.37648124 183:-0.034168415 184:-0.5145703 185:-0.53423941 186:-0.54304802 187:-0.21920638 188:0.071515903 189:-0.77982849 190:-0.34458151 191:-0.36752194 192:0.48678112 193:0.19113076 194:0.57039434 195:-1.7400228 196:-1.0547036 197:0.64561665 198:1.5621364 199:0.27199993 
0.05331243616002047 0:0.63361961 1:-0.86118883 2:1.6380128 3:-1.1968935 4:0.90067345 5:-1.2294372 6:-1.1160198 7:-0.79761863 8:-0.5351221 9:-0.020420052 10:0.33171022 11:-0.42808753 12:-1.9342767 13:-1.1655219 14:-0.22322679 15:-0.66543216 16:0.14049917 17:-1.1608255 18:-1.5519624 19:0.24499947 20:-0.22679695 21:0.096190706 22:-1.046031 23:-1.4288856 24:0.8677721 25:3.4031966 26:5.5477839 27:0.016987601 28:-0.26638889 29:-1.333836 30:-1.1497796 31:-0.036470212 32:-0.17276318 33:0.40123859 34:-0.007211355 35:0.8373301 36:0.98320842 37:-1.0157412 38:-0.92960995 39:-0.44501844 40:-0.63357663 41:-0.01202703 42:-0.90354156 43:-1.5884132 44:-1.5704943 45:-1.3679413 46:0.16513492 47:0.5792433 48:-0.25316134 49:-1.3291044 50:-0.84162456 51:0.41427249 52:0.7704193 53:-0.099067904 54:-1.1233898 55:-0.066794366 56:0.10978866 57:-0.56783706 58:0.10533359 59:-0.50214422 60:0.052070677 61:-0.20747761 62:-1.0908703 63:-1.2613347 64:0.70552391 65:-0.75982934 66:0.064040549 67:-0.27453658 68:-1.2869043 69:-0.34397066 70:0.73095483 71:-0.27784267 72:-0.47910747 73:0.13470531 74:-0.4706777 75:-0.97979951 76:0.17389715 77:-0.43814692 78:0.46394145 79:0.086385921 80:0.082347997 81:-0.63090932 82:-0.000821086 83:-0.42026561 84:0.10003278 85:0.19551089 86:-1.2228618 87:-0.6794703 88:-0.52858907 89:-0.22872427 90:-0.062248223 91:0.37732729 92:-0.86761957 93:0.16370668 94:-0.41283545 95:-0.90706939 96:0.25175625 97:0.23740223 98:-1.9801069 99:-1.2157433 100:-1.130821 101:0.35077947 102:2.3777361 103:-0.70955557 104:-0.16338699 105:-0.15633272 106:-0.59317696 107:0.2577247 108:-0.78028494 109:1.2132869 110:0.24776627 111:-0.50612712 112:-0.15799272 113:-0.83188003 114:0.015001791 115:1.062127 116:0.40438929 117:-0.73238128 118:0.75970846 119:-0.65089566 120:0.48452953 121:0.10878079 122:0.26121727 123:0.32963789 124:-0.84473205 125:-0.81876165 126:0.063613936 127:-1.3118682 128:-0.55437982 129:-0.75291049 130:-0.71168184 131:1.0854025 132:-0.14325376 133:-0.52208245 134:-0.75228423 135:-0.13648115 136:0.43193921 137:-0.14816067 138:0.22372994 139:-2.4437797e-05 140:0.31797022 141:-0.68530065 142:-0.1988447 143:-1.6365966 144:-0.47156423 145:-1.2195325 146:0.79029834 147:-0.42457214 148:0.27111736 149:0.091763474 150:2.3182995 151:-0.28267747 152:-0.067098729 153:0.30815256 154:-0.18830092 155:-1.850319 156:-1.8732057 157:-0.020237299 158:-0.7564463 159:-0.67529851 160:-0.15867339 161:1.2426382 162:-0.16077274 163:-0.5653832 164:-0.96750665 165:0.0041438867 166:-0.45493174 167:-0.69143432 168:-0.59462422 169:-0.57500267 170:-0.032804709 171:-1.2836409 172:0.071574584 173:-0.7917887 174:0.11585387 175:-1.5952553 176:-0.48673078 177:-1.7469134 178:-0.85761023 179:-0.30974033 180:0.11988749 181:0.80557019 182:-0.35213599 183:-1.2174416 184:1.0219036 185:-0.54403716 186:0.71430206 187:-0.52105212 188:0.11037314 189:-0.33772007 190:-0.44870326 191:-0.5119518 192:-1.9468663 193:-0.67720121 194:-1.0197736 195:-1.1490245 196:-0.46358329 197:0.38064793 198:0.60710436 199:-0.029953681 
0.06827663227409976 0:-1.2640715 1:-0.56908953 2:-1.1698201 3:-1.5788302 4:0.39009967 5:0.97998756 6:-0.13596714 7:1.4131497 8:-0.48513776 9:-0.54782641 10:0.090714179 11:-0.79718345 12:0.67897463 13:-0.23956154 14:0.28902155 15:0.80980653 16:-0.3952136 17:-0.63847691 18:-0.29554588 19:0.6483162 20:0.38578275 21:-0.083797894 22:0.045419578 23:0.92652637 24:0.12186622 25:-1.1705906 26:-0.77304256 27:0.87764776 28:2.0828366 29:3.9638598 30:-0.063642062 31:-0.33347484 32:-0.015339637 33:-0.85547096 34:0.17790926 35:-0.34695256 36:0.48149911 37:0.90192926 38:-0.23888214 39:-0.82066393 40:2.6739011 41:-0.45304021 42:0.0039345156 43:-1.2420096 44:-0.92685395 45:1.0489644 46:-0.4146263 47:-0.81137395 48:-0.12703308 49:0.98949713 50:-0.58507562 51:0.6399585 52:-0.32007605 53:-0.20921911 54:-1.1114432 55:0.89674491 56:0.00028473718 57:0.51407921 58:-0.2396705 59:-0.42764935 60:-0.64607644 61:-0.36486641 62:-0.049191024 63:-0.8673439 64:0.26021975 65:0.24266562 66:0.82422215 67:-0.19726728 68:-0.18436605 69:0.51320964 70:-0.062088169 71:1.0329168 72:-0.063972101 73:-0.16070139 74:-0.2992582 75:-1.0402658 76:0.50475967 77:-0.6724233 78:-0.73542988 79:-0.70477718 80:-0.025435561 81:0.81563169 82:0.047943071 83:-0.5246104 84:-0.97727281 85:2.0268385 86:0.5653199 87:1.5559037 88:-0.37955704 89:0.45599127 90:-0.27788261 91:-0.17829087 92:-0.62486368 93:-0.92619359 94:-1.0857233 95:-1.1558589 96:-1.7224766 97:-1.1213444 98:-0.20527294 99:-0.1310394 100:0.075328633 101:0.14162798 102:-0.50656015 103:0.30921155 104:0.14566471 105:-0.022897277 106:2.1230979 107:-0.34454948 108:0.60502023 109:0.4323276 110:0.50118262 111:0.22645131 112:0.55616671 113:-0.086149834 114:-0.093020946 115:0.87892163 116:0.5186736 117:-0.22167882 118:0.26905957 119:0.25540188 120:-0.10284697 121:0.57472229 122:0.58273363 123:-0.30030078 124:-0.88144648 125:-0.60238683 126:0.33427855 127:-1.2989357 128:-0.57261181 129:0.38848582 130:-0.30337369 131:-0.22093083 132:0.47488168 133:-0.19323231 134:-0.041438982 135:-0.12936245 136:-0.72255552 137:0.12241153 138:1.2588618 139:-0.62532902 140:0.63823456 141:-0.60561812 142:0.45312718 143:-1.118148 144:0.36750203 145:0.24242142 146:-0.78068489 147:0.26661798 148:2.1677945 149:0.36625454 150:0.36379278 151:-0.7102415 152:0.049914543 153:0.016826127 154:0.20235536 155:-0.32793769 156:-0.75232971 157:-0.93579674 158:-0.13755637 159:0.73221248 160:-1.1869926 161:2.4544101 162:0.15090606 163:-0.17253923 164:1.465482 165:-0.61921757 166:-1.0198431 167:-0.046612233 168:0.80325025 169:0.44751558 170:0.51896101 171:-0.91417462 172:-0.10115729 173:-0.9783079 174:0.41653514 175:-0.61860245 176:-0.030911352 177:-0.53813905 178:-0.5783385 179:-0.42696378 180:0.51350749 181:-0.65519458 182:-0.7790038 183:-0.23132469 184:-1.2409745 185:-0.1573626 186:-0.37192565 187:-0.27890182 188:0.43838528 189:1.9986945 190:-0.049248908 191:-1.048728 192:0.2764937 193:0.070540637 194:-0.96487623 195:-0.45775339 196:-0.27158844 197:0.19902009 198:-0.047007579 199:0.28383493 
0.2780941353773078 0:0.56380165 1:-0.29461175 2:0.21329013 3:0.36097118 4:-0.46783608 5:-0.6089592 6:-0.51012993 7:-1.3099333 8:-0.95671988 9:0.76481217 10:0.062019024 11:-0.02483586 12:-0.98495686 13:-0.020878393 14:-0.52538139 15:0.78516704 16:0.14284182 17:1.7804021 18:0.46331763 19:-0.46167648 20:-0.36212635 21:0.66704488 22:-0.85302275 23:1.0289494 24:-0.27755725 25:-1.5912892 26:0.040743284 27:-0.73606199 28:-0.84246093 29:-0.24468338 30:0.812617 31:0.83828664 32:1.8798088 33:-0.55907452 34:-0.5209173 35:-1.7508491 36:0.11475659 37:0.20210323 38:-0.77014416 39:0.090430953 40:0.65262151 41:0.022015445 42:0.24683546 43:-0.12458044 44:0.38069642 45:0.8315137 46:-1.3961684 47:-0.56809843 48:-0.4334425 49:-0.86144394 50:-1.2148947 51:-0.11956485 52:-0.90661919 53:-0.96992689 54:-0.23469555 55:-0.32425648 56:0.25139296 57:0.79354626 58:0.62330949 59:1.822953 60:-1.6300602 61:0.68941176 62:0.13274668 63:-0.014084168 64:-1.0021815 65:-1.0578322 66:-0.030290714 67:-0.056791861 68:-0.38181734 69:-0.33468074 70:-0.26669642 71:-1.1876594 72:-1.6850355 73:-0.94774085 74:-0.51756924 75:-0.38095194 76:-0.10520262 77:-0.34847847 78:0.91280901 79:0.82698971 80:-0.31334582 81:0.40993887 82:-0.42905223 83:0.30921847 84:0.10991903 85:1.4311978 86:-1.2942904 87:-0.29192072 88:-0.37905279 89:0.54772878 90:-0.40568289 91:-0.94773722 92:-0.011723483 93:0.49488717 94:1.7575568 95:0.050009757 96:-0.25983259 97:1.2997067 98:-0.52069098 99:-0.84380752 100:-0.31104633 101:0.50105149 102:0.781304 103:1.1666514 104:-0.90774494 105:0.56321943 106:-1.5356753 107:0.13492262 108:-0.43260759 109:-0.55557805 110:-0.35663083 111:-0.60448194 112:-0.90176129 113:-0.94969445 114:-0.57098234 115:-1.3493636 116:-0.054420307 117:-0.78379196 118:-0.42363212 119:-0.57420439 120:-1.9034406 121:-0.15744099 122:-1.1355542 123:-0.75837302 124:0.20205632 125:0.075995199 126:-0.2569145 127:-0.029310273 128:0.09094625 129:-0.72156197 130:-0.15415767 131:-0.14904165 132:-0.55898821 133:-0.52519798 134:0.1669257 135:1.3063325 136:-1.0728649 137:-0.13478525 138:1.2661918 139:0.78234184 140:0.29255813 141:0.24725388 142:0.076474413 143:-0.20286132 144:-1.0674516 145:0.3780967 146:-0.56221271 147:0.7266463 148:-0.56469458 149:-0.60273075 150:1.0397531 151:-1.0436186 152:-0.057815775 153:-0.22660874 154:-0.032013506 155:0.80509585 156:-0.25537631 157:-0.28421348 158:-0.64871967 159:-0.025171947 160:-0.80387688 161:-1.4514725 162:-1.4223534 163:-0.43857226 164:-0.83155364 165:0.75563556 166:0.63118452 167:-0.38868409 168:-0.89784807 169:-1.1776904 170:-0.069289431 171:-0.204541 172:-0.17844601 173:0.061891798 174:0.94656032 175:-0.18088955 176:-0.8572436 177:0.61715364 178:0.2169518 179:0.29268962 180:-0.064374052 181:-0.31604922 182:-0.40930215 183:-0.67853355 184:-1.0269655 185:-0.40811208 186:-0.88756013 187:0.70705813 188:0.0062946808 189:-0.076345086 190:-0.83151811 191:-0.39144662 192:-0.63933539 193:-1.568001 194:0.18480253 195:-0.45123017 196:-0.1226919 197:-0.18340132 198:-0.63732117 199:-0.33764902 
0.09249818993264208 0:-0.78382576 1:1.0106577 2:-1.2053815 3:-0.49750382 4:-0.44371608 5:0.32446304 6:-1.6588182 7:-0.27524161 8:-0.30511883 9:-0.64578485 10:0.1533965 11:-0.78429282 12:-2.6141841 13:-0.28841776 14:-0.7156108 15:-1.3737508 16:0.59642017 17:0.042342816 18:-0.82507956 19:0.2617186 20:-0.89488029 21:-0.81450528 22:-1.0044487 23:-1.2050889 24:-0.027350474 25:0.094569907 26:-0.82917953 27:0.12845188 28:-0.42700005 29:-0.88017446 30:-0.27347362 31:-0.23561779 32:0.70468563 33:2.6175849 34:1.3749192 35:4.4236016 36:-1.7439977 37:-0.30867672 38:-1.7423903 39:-0.94943964 40:0.11813831 41:0.079299338 42:0.20156179 43:-1.2505496 44:-1.0388367 45:-1.4685135 46:-0.55033571 47:2.6773975 48:-0.27183381 49:-1.0779841 50:-0.34427091 51:0.054131795 52:-0.20263618 53:0.71578258 54:-2.6149852 55:-0.63590837 56:0.070749693 57:0.040136598 58:-1.0913827 59:0.87674016 60:0.06811332 61:0.31005362 62:-0.37503305 63:-0.32458341 64:0.70998681 65:-0.18515544 66:0.10274535 67:0.27230859 68:-0.85200006 69:-1.450273 70:0.029258598 71:-0.47311613 72:0.51494944 73:-0.3720257 74:-1.7427919 75:0.10071781 76:0.074789964 77:0.25707316 78:-1.2689052 79:-0.41494444 80:-1.039789 81:-0.96658593 82:0.078671172 83:-0.74612677 84:0.092807792 85:-0.35188603 86:-0.089310706 87:-0.17350622 88:-0.40935925 89:-1.2739917 90:-0.48145214 91:0.067254938 92:-0.89254987 93:-1.3640566 94:-0.63665617 95:0.070983253 96:0.51391411 97:-0.32704371 98:-1.6006258 99:-0.26357421 100:-0.69815183 101:-0.41572791 102:0.88365591 103:-1.327006 104:0.015878985 105:0.75049156 106:1.117292 107:-0.99130005 108:0.42724803 109:-0.31724849 110:-0.057965592 111:-0.41873726 112:-0.33228374 113:-0.41486487 114:-1.0405461 115:0.048236221 116:0.19946462 117:1.2534782 118:0.43024296 119:0.32283732 120:0.95631456 121:0.21845368 122:-0.032617878 123:0.029179977 124:0.55060512 125:-0.024447726 126:0.48526379 127:-0.88932246 128:0.27831909 129:-0.13529906 130:-0.013097179 131:0.79743117 132:0.15992513 133:0.6004948 134:0.11714482 135:-0.23678303 136:-0.2884815 137:0.15107733 138:-0.054262578 139:0.22679742 140:-0.57902396 141:-0.57832122 142:-0.70542979 143:-1.1862879 144:-0.57676524 145:0.58420104 146:-0.045934495 147:-0.25875866 148:0.39145315 149:-0.35800698 150:-0.029010136 151:-0.48383114 152:0.20031291 153:-0.65896732 154:-0.00013903802 155:0.0044170907 156:-0.34606373 157:-0.87123096 158:-0.077733316 159:-0.1768927 160:0.10175423 161:0.3169384 162:0.29685074 163:-1.3975896 164:0.61444795 165:-0.47083366 166:-0.72832626 167:-0.26951417 168:-0.17157392 169:0.36218742 170:-0.006886886 171:-1.1435868 172:-0.32414863 173:0.76119661 174:0.15223753 175:1.3529112 176:-0.59271747 177:-1.6587642 178:-0.97213465 179:-0.60686296 180:0.14165555 181:-0.17408581 182:0.64700162 183:-0.88251674 184:-1.1415229 185:-0.56188744 186:1.2417928 187:-0.23375288 188:0.13548779 189:-0.40266958 190:0.083703205 191:0.48261544 192:-1.299045 193:1.4761989 194:1.1586622 195:-0.76672226 196:-1.2438344 197:0.3041563 198:0.25045022 199:0.18366221 
0.03006077064622603 0:-0.82623523 1:-0.31778362 2:0.93454051 3:-0.38951206 4:0.14758684 5:0.47135401 6:0.52088177 7:-1.0404238 8:-0.56399614 9:1.1215401 10:0.40924481 11:0.46144834 12:-0.39589623 13:0.15850177 14:-1.0747224 15:0.10910275 16:0.83878726 17:-1.1358718 18:-1.4142473 19:-0.53188252 20:-1.5652057 21:-0.88753849 22:-0.088810377 23:-1.2800949 24:0.27277818 25:0.14068028 26:0.47543755 27:-1.1016774 28:-0.56694597 29:0.67146134 30:-0.896272 31:-0.12782556 32:1.9179339 33:-0.032660224 34:-0.33454686 35:-0.14934406 36:1.3494532 37:0.1623008 38:-0.12467067 39:5.103776 40:4.3519025 41:7.6486473 42:-0.50901717 43:-1.2156067 44:-0.37539008 45:0.11425164 46:1.363243 47:-0.24576449 48:0.47479063 49:-0.43449765 50:-1.0393059 51:0.50848538 52:-1.7205772 53:0.36486989 54:-0.67607898 55:-1.2578226 56:0.10592223 57:-0.4076485 58:0.2601735 59:0.029151559 60:0.68149167 61:1.7586905 62:0.043771505 63:0.45996305 64:-0.37947595 65:-1.2148182 66:0.067125715 67:-0.34269533 68:1.0613403 69:-0.6413191 70:0.4324491 71:-0.63796747 72:-1.7310586 73:-1.5571883 74:-1.4698199 75:1.5814846 76:0.45023945 77:-1.6651824 78:-1.8219417 79:1.2985802 80:0.9307121 81:-1.0178143 82:0.58142632 83:3.0944459 84:-0.5980742 85:-1.1603316 86:-0.16282338 87:-0.56530088 88:0.13718958 89:2.3142672 90:0.12847827 91:-0.22075638 92:0.19192344 93:-0.56982833 94:0.87652481 95:0.58211225 96:0.2842533 97:-0.13070388 98:-0.28674459 99:0.8745954 100:-0.75109482 101:-1.8809099 102:0.74963164 103:-0.30075434 104:-0.84559482 105:0.041806389 106:-0.51114625 107:-1.7140838 108:-0.53634942 109:-1.3252057 110:0.38319102 111:-0.75939071 112:-0.88251978 113:-0.74585736 114:-0.68380171 115:-1.7602117 116:0.34521398 117:-1.9674469 118:0.11865871 119:0.6032775 120:-1.8490736 121:-0.066127189 122:-1.9816897 123:-1.0566703 124:-0.84453052 125:-0.33673853 126:0.11227187 127:0.98509216 128:-1.2465637 129:-0.21610525 130:-0.038904905 131:0.74895197 132:-0.069957018 133:-1.5101769 134:1.5158859 135:0.00073220959 136:-1.442154 137:0.25556168 138:1.015133 139:1.4392543 140:0.38849968 141:-0.33900183 142:0.40454096 143:0.84366113 144:0.058886521 145:-0.79556024 146:0.1841158 147:-1.1540942 148:0.32826424 149:0.80398357 150:1.2728701 151:0.13478415 152:-0.21535811 153:-0.87176162 154:-0.90543878 155:-0.36509335 156:-0.68465328 157:1.6072226 158:-0.14048406 159:-1.2002481 160:0.83210367 161:0.051769238 162:-1.5724092 163:-0.43865916 164:0.5152092 165:-0.92418772 166:2.083715 167:-0.63128954 168:-0.18579677 169:-1.9168875 170:-0.10314557 171:-0.0072267815 172:0.025845945 173:-0.36201015 174:0.2983627 175:-0.97951269 176:0.2167743 177:-0.74755961 178:-0.45046705 179:-0.86927229 180:0.32962126 181:0.69227487 182:-0.69136238 183:-0.29679552 184:-0.2596409 185:-1.3086493 186:-0.9238677 187:-0.86395532 188:0.27736637 189:-0.018672204 190:0.65464824 191:0.81010336 192:-0.56598592 193:0.65670758 194:-0.99635077 195:1.3991886 196:0.33463997 197:-0.042807907 198:-1.300051 199:-0.37202618 
0.2999211318511951 0:-0.64815462 1:-0.17225938 2:0.35606262 3:1.1713891 4:-0.78148043 5:-0.066126823 6:0.43515328 7:1.1399235 8:2.1459689 9:-1.0191318 10:0.51029789 11:-1.7252718 12:0.5860045 13:-0.8299123 14:0.5408563 15:-0.40285546 16:-0.92880011 17:-0.63956624 18:0.81781411 19:0.62135124 20:0.62472743 21:0.39738992 22:0.9751569 23:1.2192786 24:0.34833911 25:-0.17621471 26:-0.50148958 27:0.55202961 28:1.3892038 29:-0.48773846 30:0.47120205 31:-1.1172754 32:-0.39711592 33:-0.33331099 34:0.47128767 35:0.76017773 36:1.4993317 37:0.017161302 38:0.18319009 39:-1.0903656 40:0.60238004 41:-0.33603248 42:7.3433938 43:2.0364611 44:2.7465456 45:1.0417995 46:-1.2842339 47:-0.72145957 48:0.79309994 49:0.89053869 50:0.12760611 51:0.32936126 52:0.54515445 53:-0.76031315 54:1.4488666 55:1.0031506 56:0.42457309 57:0.37357512 58:-0.32639289 59:0.45490429 60:0.15274334 61:-0.38283211 62:0.14292116 63:0.2415376 64:0.27526096 65:0.035083123 66:0.29296604 67:0.28701034 68:1.6171622 69:0.20283496 70:0.16195852 71:0.63252425 72:1.5975763 73:-0.58392322 74:-0.14794078 75:0.10040744 76:0.37482059 77:0.69372386 78:0.91960335 79:-2.0286677 80:-1.1070476 81:0.49454692 82:0.05401076 83:-0.43009511 84:1.0528327 85:0.095787667 86:0.7742787 87:-0.13481189 88:0.70052862 89:-0.39658961 90:-0.29290277 91:-0.21748231 92:-0.85672468 93:-0.06913051 94:0.55382484 95:-1.8314387 96:0.17609252 97:0.38094315 98:-0.3309091 99:-0.41990519 100:1.1495293 101:-0.87965256 102:2.3741431 103:1.3109195 104:0.18686123 105:-0.23397383 106:1.0782608 107:-0.19590519 108:-0.089856073 109:-0.93459076 110:0.35799909 111:1.0739143 112:0.63340932 113:0.70466685 114:-0.6125766 115:2.1589599 116:0.33245742 117:1.5050354 118:0.26606533 119:-0.70879507 120:0.026960734 121:0.62306505 122:0.6787715 123:-0.11536069 124:0.72988194 125:1.9079694 126:0.49462891 127:0.35859755 128:0.092475094 129:-0.2977109 130:0.21953481 131:0.039155699 132:0.37621665 133:0.33380377 134:-0.49693146 135:-0.65102112 136:-0.66417682 137:0.048655268 138:0.54635334 139:-1.6397958 140:-0.54813254 141:-0.78282744 142:0.44949365 143:-0.50147265 144:-1.1377207 145:0.001227961 146:-0.80446237 147:0.56890649 148:-1.3305856 149:-1.2393526 150:-0.85107613 151:-0.43242306 152:-0.03512565 153:-0.42641881 154:-0.055079333 155:0.27079397 156:-0.5765999 157:0.47366652 158:0.017214525 159:0.23796333 160:-0.66282493 161:0.73693597 162:0.34743619 163:-0.56991589 164:1.6515284 165:0.17273995 166:-1.3275448 167:0.2362799 168:0.34342048 169:0.51887494 170:0.35772377 171:1.3506684 172:-0.16189526 173:0.52590406 174:0.54058224 175:0.33015734 176:-1.4311408 177:-0.10100927 178:-0.42496783 179:-0.20723696 180:0.34376886 181:-0.35782096 182:-0.16696188 183:-0.24595901 184:-1.2520294 185:0.98348486 186:0.04745435 187:1.5703541 188:0.40909016 189:0.081963554 190:-0.026614344 191:0.10328334 192:1.0907458 193:-0.30952123 194:0.0016678765 195:0.40768275 196:-0.55864251 197:-0.065239251 198:1.0817279 199:0.49888623 
0.05531320260810293 0:0.23165481 1:0.44644904 2:-0.094323702 3:0.37170506 4:-0.56335014 5:-1.324633 6:0.41013494 7:-0.69444376 8:-0.89672399 9:0.039122213 10:-0.54435718 11:0.94007701 12:-1.240464 13:-2.1272647 14:-0.1581028 15:-1.8997512 16:0.31339255 17:-2.1810107 18:-1.8145086 19:-0.12550776 20:-0.24098973 21:-0.60441315 22:-0.023720337 23:-1.4980727 24:-0.4479084 25:-0.11923753 26:0.51394635 27:-0.1406533 28:0.25877741 29:-1.7415713 30:-0.073097579 31:-0.24601939 32:0.38373062 33:-0.44244021 34:-0.075338036 35:-0.88957131 36:-1.5948582 37:-1.3649049 38:-0.84968925 39:-0.10449206 40:-0.78847653 41:-0.44269261 42:-0.25692332 43:-2.5215554 44:-0.6128816 45:5.2225699 46:2.4492993 47:3.3798339 48:0.3488543 49:-2.2531128 50:-0.87634301 51:-0.78069758 52:1.2579336 53:0.077626117 54:-2.1678681 55:-1.000912 56:-0.51351601 57:-0.45385987 58:0.35408601 59:0.21533677 60:0.040999804 61:-1.3246067 62:0.22306255 63:0.21415652 64:-0.8132838 65:-1.7376333 66:-0.53427893 67:-0.14779791 68:-0.52764016 69:-0.70216554 70:-0.0026782297 71:-0.21526378 72:-0.38514319 73:-2.2505267 74:-2.3007905 75:-0.97265345 76:-0.75286627 77:-1.7341819 78:-0.012271912 79:1.2043451 80:0.64946842 81:1.0854505 82:-0.52237767 83:0.70433247 84:-0.56026506 85:-1.6158835 86:-1.9588363 87:0.88938642 88:0.028201967 89:0.28724596 90:-0.7445724 91:-0.5056203 92:0.16951992 93:-0.21370053 94:-0.92719054 95:0.94407636 96:0.47285801 97:-0.46297091 98:-0.76069987 99:-0.73458159 100:0.47258687 101:-2.4861028 102:-1.3863708 103:-0.37602097 104:-0.35540056 105:-0.89250964 106:-2.0228925 107:-1.6380012 108:-1.9988817 109:-0.76014686 110:-0.72721785 111:0.22715721 112:0.28556862 113:0.83252746 114:-1.5629151 115:-0.66120595 116:-0.53951365 117:-0.55862159 118:-1.3405709 119:-0.56381327 120:-0.95716578 121:-2.2324252 122:0.16841379 123:0.7987017 124:-3.0159097 125:-1.5928721 126:-0.42614448 127:0.046675026 128:0.10151673 129:-1.5458537 130:0.21327621 131:0.80921131 132:-0.9437927 133:-1.0859582 134:0.10679238 135:-0.33438385 136:-1.716809 137:-0.17248093 138:-0.25313029 139:2.6821656 140:-0.098482102 141:0.74283272 142:-1.7484348 143:-1.2835373 144:-0.41206163 145:-0.32416442 146:0.91398811 147:-0.52324212 148:-0.35840708 149:0.79444176 150:-0.32000187 151:0.59830195 152:-1.0753925 153:-0.1186953 154:-1.2238097 155:-0.94305015 156:-2.4531074 157:-0.74949306 158:-0.45631185 159:-0.039245628 160:0.19996698 161:-1.2198857 162:-0.49428716 163:-1.6273406 164:-2.4727018 165:-1.693525 166:1.7859867 167:-0.25947049 168:-1.4685706 169:-0.52511036 170:-0.60983109 171:-1.077468 172:-0.49055913 173:-1.8591837 174:-0.28390056 175:-1.067191 176:-1.0999109 177:-1.4362146 178:-1.4110415 179:-1.8200428 180:-0.75370675 181:-0.061655201 182:0.067184635 183:-0.38518658 184:0.64429319 185:-0.070465729 186:-1.518605 187:0.030578623 188:-0.48683667 189:-1.2413324 190:-0.67129046 191:-0.24001263 192:0.70901483 193:-0.86603099 194:-2.7694967 195:-0.28793076 196:-0.10255697 197:-1.5372932 198:-1.5306388 199:-0.15098412 
0.0862000614951602 0:-1.5469061 1:-0.938977 2:0.83285582 3:0.024577903 4:-0.64754444 5:0.65900767 6:-0.13476746 7:-0.94464076 8:-0.54494542 9:-0.85616076 10:0.074376687 11:-1.5278068 12:0.29833052 13:0.17639562 14:0.76799005 15:1.2154113 16:-0.10733654 17:0.58942872 18:0.019680195 19:0.13352436 20:0.23109473 21:0.24042992 22:-0.3522214 23:0.63404179 24:0.044464704 25:-0.76315606 26:-0.78840888 27:0.67806596 28:0.48958617 29:0.061180532 30:-0.7764684 31:-1.3594229 32:1.6088129 33:-0.10789655 34:0.71788603 35:0.077854469 36:1.6075569 37:0.46540427 38:-0.29429787 39:-1.0900748 40:0.12133971 41:-0.416309 42:0.40788755 43:1.4448746 44:1.8785512 45:-1.0977262 46:0.33170691 47:0.62710059 48:4.4511347 49:2.8295045 50:5.3879099 51:0.20513664 52:0.6415922 53:-0.45796928 54:-0.090774857 55:0.86547059 56:0.3204492 57:-1.3451619 58:0.54169369 59:-1.017812 60:1.2177497 61:-1.0755725 62:1.3420482 63:-0.66918755 64:0.76525086 65:1.3850703 66:0.49582344 67:0.29429024 68:-1.6526123 69:1.0920376 70:-0.30014241 71:0.84713006 72:1.0243447 73:1.099726 74:0.6330511 75:-1.3282884 76:0.072209887 77:0.2572912 78:0.14140613 79:-0.64387256 80:-0.8917135 81:0.46250734 82:-0.54340583 83:-1.6707026 84:0.17420495 85:0.8252793 86:-0.69753045 87:1.5284196 88:-0.57122117 89:-0.60591137 90:0.0837854 91:-0.016477557 92:0.39120218 93:0.005857497 94:-0.37034002 95:-1.2464676 96:-0.081621818 97:-0.44583595 98:-0.090833567 99:1.1255453 100:0.6840865 101:1.2400924 102:-0.33822358 103:-0.39909014 104:1.1247319 105:-1.1865785 106:-0.19316387 107:0.73232645 108:0.15293835 109:0.27434346 110:0.20526998 111:0.72376651 112:0.55188465 113:1.0863527 114:1.4091133 115:0.02584167 116:0.3055014 117:0.088403285 118:0.087471694 119:0.42917487 120:1.559013 121:0.48923171 122:1.3435746 123:0.12556662 124:0.0072019468 125:-0.24821214 126:0.33084887 127:-0.75649321 128:-1.4959365 129:0.81857711 130:-0.058236536 131:-0.54876941 132:0.64466238 133:0.054411642 134:0.18213998 135:-0.94877279 136:0.89650762 137:-0.24025655 138:-1.670712 139:-0.04948654 140:-0.38137719 141:-1.055131 142:0.96589488 143:1.2783923 144:-0.44875368 145:0.60261756 146:0.062709697 147:0.28830251 148:-0.64996469 149:-1.5665771 150:-0.96165985 151:-0.62654001 152:0.42677608 153:0.31072962 154:-0.2948446 155:0.085260831 156:1.4345157 157:0.57980198 158:-0.022567857 159:-0.5797677 160:-1.0335685 161:-0.22004238 162:0.90660429 163:0.40115386 164:-1.0031991 165:0.19555153 166:-0.8957091 167:-0.50013685 168:0.72771919 169:0.80251831 170:0.40497255 171:0.35965279 172:-0.11831526 173:0.16362174 174:-1.3301491 175:1.0099475 176:-0.9647066 177:0.54984844 178:0.56971735 179:0.7494716 180:0.36847413 181:-1.202702 182:0.46043178 183:-0.28527689 184:-1.324192 185:0.98409051 186:-0.23237124 187:-0.23330003 188:0.19545543 189:0.74745661 190:-0.89470935 191:-0.28369474 192:-0.69335657 193:-0.012802532 194:0.87488478 195:-1.1075182 196:-1.0639888 197:0.30164897 198:-0.10588916 199:0.20293802 
0.02655574328084711 0:1.294803 1:0.5328446 2:0.64475596 3:0.11651429 4:0.66177285 5:0.23552099 6:0.35936883 7:-0.57921195 8:-0.08116053 9:0.66784251 10:0.17741969 11:0.50058925 12:0.08155413 13:0.93219984 14:-0.11566746 15:0.45340809 16:2.5801504 17:1.0300388 18:0.59195763 19:0.96260715 20:-0.4374679 21:0.048599031 22:0.24176045 23:1.5405164 24:0.091060609 25:1.4646525 26:0.41773474 27:-0.16126986 28:0.0799141 29:0.66300678 30:-0.27842614 31:0.72588646 32:1.8044671 33:0.99059528 34:0.31496248 35:-0.14673045 36:0.62505686 37:1.0516722 38:0.86592931 39:0.1661398 40:0.51530892 41:0.28883332 42:0.7090826 43:-0.086057238 44:-0.77383125 45:-0.022905895 46:1.0801909 47:0.46623918 48:0.15665951 49:0.081408747 50:-0.52386904 51:1.230677 52:5.2042866 53:6.733398 54:1.6637323 55:-0.29352248 56:0.27570051 57:0.46156511 58:0.11481815 59:1.1225662 60:-0.48344156 61:0.53386897 62:0.66211516 63:-0.60324413 64:0.72771144 65:-0.22817804 66:0.24604972 67:0.14688969 68:-0.58872217 69:0.22831878 70:0.98616248 71:-0.3105976 72:-0.047309782 73:0.87241352 74:0.59727186 75:0.47544158 76:0.46599406 77:1.4721764 78:-0.70742041 79:1.9226364 80:0.25150809 81:-0.52493316 82:0.81089896 83:1.5156635 84:0.32888317 85:0.67498964 86:0.26348582 87:-0.27733675 88:0.04069221 89:1.2949209 90:-0.0086225104 91:0.066689767 92:0.55671197 93:1.6658548 94:2.6667435 95:0.99717164 96:2.3436275 97:1.1299191 98:-0.30866635 99:1.2373663 100:-0.60743308 101:0.52200109 102:0.27645516 103:1.2111386 104:-0.56887853 105:-0.13509229 106:0.20918892 107:0.24902622 108:0.72061867 109:1.0706651 110:0.48882008 111:0.26252258 112:-0.41968375 113:-0.059294488 114:-0.78774518 115:-0.012045376 116:0.47925615 117:-0.49172142 118:0.75652921 119:2.0390019 120:-0.71568066 121:0.16279356 122:0.21053615 123:0.2152043 124:1.3669679 125:1.3619869 126:0.41609028 127:0.37672135 128:0.21263291 129:0.175843 130:-0.15499134 131:0.65447676 132:0.2438681 133:0.78308922 134:1.0318218 135:1.0788729 136:0.91957051 137:0.48892429 138:1.1281812 139:1.103303 140:-0.19642702 141:1.8017198 142:0.66854399 143:0.69486856 144:0.16950677 145:0.7354939 146:0.75613499 147:0.26617143 148:1.5375463 149:1.0836769 150:1.5623938 151:0.87946069 152:2.231524 153:0.34642541 154:0.36454901 155:0.79514021 156:0.14430201 157:1.3874645 158:0.14633569 159:0.49814859 160:0.85451645 161:-0.23860767 162:-0.015313914 163:-0.22731553 164:0.58217132 165:1.1414709 166:1.4296094 167:0.042446174 168:-0.00067251816 169:-0.5532831 170:0.079514615 171:0.37322789 172:0.78624606 173:0.45942506 174:1.4245342 175:0.79312646 176:-0.12584274 177:0.1597899 178:0.18588358 179:1.1059676 180:0.47414875 181:-0.098746754 182:0.5374403 183:0.16303727 184:0.87819922 185:0.10967468 186:1.7044142 187:1.9953882 188:0.46559814 189:0.91716462 190:-0.71034312 191:1.3447262 192:1.3399868 193:1.8950434 194:0.60160577 195:0.25556129 196:0.61491126 197:0.46996969 198:1.0524119 199:0.419249 
0.09159784644860949 0:1.8283054 1:-0.74226624 2:0.06687168 3:1.4865397 4:0.26905853 5:0.30412301 6:-0.014739719 7:-1.1480296 8:-0.66862351 9:0.0063436669 10:0.43528676 11:1.4506196 12:0.85766226 13:-0.31187257 14:1.0806535 15:-1.4071374 16:-0.14158843 17:-1.3317478 18:-0.87510097 19:0.51606363 20:0.50016648 21:0.41821641 22:-0.11240776 23:-0.62148267 24:1.0142925 25:-0.016929831 26:-0.056140199 27:0.48604536 28:0.61872458 29:-0.24747369 30:-0.32099459 31:-0.38242024 32:-0.60524666 33:0.11443078 34:0.69410229 35:-0.9924292 36:0.68491018 37:0.4383049 38:-0.26744574 39:-0.76408058 40:0.22765329 41:-0.1958596 42:0.33459315 43:-0.44038174 44:-0.43465337 45:1.1482072 46:-0.10031077 47:0.22356369 48:0.5370459 49:-0.035303194 50:0.39521241 51:0.34432247 52:0.7484563 53:-0.50378728 54:0.79771835 55:1.459143 56:0.96512413 57:-0.12576018 58:0.27484775 59:0.8654173 60:-0.43693814 61:0.26585159 62:-0.68713808 63:-0.14732158 64:0.26551595 65:-0.18032277 66:0.42015898 67:0.88585085 68:0.89219713 69:0.71517146 70:1.3510182 71:0.44994363 72:0.63519776 73:-0.97395343 74:1.1916333 75:-0.16652769 76:0.4468531 77:-0.44661301 78:0.46798646 79:-0.14147575 80:-0.39955068 81:0.90771729 82:0.18161309 83:-0.49324885 84:-0.59252489 85:-1.8642869 86:0.35218644 87:0.051311772 88:-0.32407752 89:-0.57164359 90:0.0025829335 91:0.28434747 92:0.2484744 93:1.0754962 94:0.53813136 95:0.45028621 96:0.20070176 97:0.24831039 98:1.5528054 99:-0.8368513 100:0.44999078 101:-1.032131 102:-0.94844878 103:0.32156596 104:0.34953755 105:0.52190655 106:-1.0119239 107:-0.27245072 108:0.58002973 109:0.090038374 110:0.41063654 111:0.75897896 112:0.479931 113:0.66856295 114:0.29051286 115:-0.036925606 116:0.42955807 117:-0.335361 118:0.80749828 119:-0.33983311 120:-0.45615274 121:0.75319862 122:0.83124042 123:0.61624438 124:-0.67556995 125:-0.84265894 126:0.47323635 127:0.22710933 128:-0.067931391 129:-0.79753244 130:0.34102204 131:-1.1526542 132:0.76951361 133:-0.62590617 134:0.21856359 135:-0.55497688 136:0.3305167 137:0.12802389 138:1.0317996 139:-0.48511961 140:0.4363535 141:0.28272006 142:1.2055206 143:1.1319096 144:-0.087753721 145:1.02644 146:-0.20388837 147:0.1444951 148:-0.65190017 149:0.39541277 150:-0.36713469 151:-0.9143979 152:-1.0951281 153:0.4415817 154:-0.19376975 155:-1.1677699 156:-0.80681586 157:-0.79163146 158:-0.037206315 159:-1.1550739 160:-1.2718428 161:-0.22418763 162:1.073254 163:0.55150539 164:0.6560424 165:1.0055745 166:-0.71439004 167:0.26380363 168:0.13374932 169:0.87602872 170:0.40627369 171:-0.79696941 172:0.83318919 173:-0.038409818 174:-0.57531327 175:-1.3635318 176:-0.55052763 177:1.0579246 178:0.97027045 179:-0.9283151 180:0.48878589 181:1.2667707 182:0.035414767 183:0.26934999 184:-0.17654313 185:0.21492353 186:-0.57767332 187:0.42174506 188:0.47584903 189:0.59899116 190:0.98741138 191:-1.2897642 192:-0.46645865 193:-1.3127309 194:-1.4335806 195:0.11179317 196:-0.16586526 197:0.44209561 198:0.84221822 199:0.44086838 
0.07585982747434969 0:1.484207 1:-0.61419183 2:-1.7827003 3:1.0899841 4:0.023321975 5:1.0321076 6:-1.5258865 7:-0.86067468 8:-0.51391351 9:0.094572105 10:-0.24966227 11:-0.085445173 12:-0.75660479 13:-2.0739913 14:-1.1239479 15:-1.1541183 16:0.68333691 17:-0.30348715 18:0.099573366 19:-0.20627399 20:-1.0172099 21:0.12823866 22:-0.95852703 23:1.3993495 24:0.32500887 25:0.75053459 26:-1.046064 27:0.54279429 28:-0.0024772601 29:-0.99646848 30:0.92990071 31:0.33414918 32:-0.83124292 33:0.024031555 34:0.22806379 35:0.4681825 36:-1.7036616 37:1.9592257 38:-1.9600643 39:-0.18109986 40:-0.39606032 41:0.31438625 42:0.2235918 43:0.16306701 44:-0.86014509 45:0.27809188 46:-0.096116893 47:1.3810613 48:0.37336707 49:-2.3756168 50:-0.80235189 51:0.47054669 52:0.7671327 53:0.18252775 54:0.31545568 55:-0.57463884 56:0.52559483 57:-0.022648262 58:0.16274586 59:1.0536277 60:2.672312 61:2.8022416 62:1.9004364 63:0.54750174 64:0.55946189 65:-1.4254375 66:-0.1839257 67:0.52098942 68:-0.24781202 69:1.9482939 70:0.88399649 71:-0.91535556 72:-0.40475437 73:-1.7414213 74:-2.866348 75:0.85252637 76:0.46615529 77:-1.6024536 78:-0.74325651 79:0.53403974 80:0.38894185 81:-0.44489682 82:0.30157515 83:-0.57294238 84:-0.046667702 85:-0.96933448 86:-0.38281995 87:1.6959027 88:0.65414631 89:-1.0835514 90:0.58080673 91:-0.330623 92:0.86370146 93:1.22414 94:0.37868711 95:0.92908973 96:-0.15918151 97:0.038272053 98:-1.2863487 99:1.1594323 100:-0.76602679 101:-3.2026339 102:-0.68100297 103:1.5408218 104:-1.0473801 105:0.13003246 106:0.73753279 107:-1.7299248 108:-0.99358481 109:-0.84559846 110:0.44563159 111:0.48124433 112:-0.90153998 113:-0.46358138 114:-0.097036898 115:-1.6812407 116:0.40176582 117:0.27483889 118:0.51569611 119:0.23040336 120:-2.0697634 121:-1.7332274 122:-0.38112509 123:-0.89503336 124:-2.0078104 125:-0.69325739 126:0.23674345 127:-1.1052474 128:1.0613334 129:-0.90322661 130:0.28575772 131:0.97369105 132:-0.14527123 133:-0.17260452 134:1.1717405 135:-1.4474591 136:0.067301787 137:0.81756461 138:1.63173 139:-0.80546004 140:0.45397323 141:-0.32322147 142:-0.91947961 143:0.35346279 144:0.24046662 145:-0.30638781 146:-0.086210087 147:1.0016148 148:0.70318168 149:-0.24219874 150:0.59290195 151:-0.2365436 152:-1.1161267 153:0.23724017 154:-0.76389807 155:-1.2548881 156:-0.98201245 157:-2.1357396 158:-1.1819036 159:1.5275056 160:0.35105941 161:1.7092509 162:0.68295014 163:-0.40036523 164:-1.1985373 165:-1.4193476 166:-0.47339281 167:0.63718492 168:-0.90514582 169:0.014064601 170:0.13844743 171:-0.48718089 172:0.83258194 173:-0.27294165 174:-1.360543 175:-0.86836612 176:0.085049137 177:-1.8899316 178:-1.7406162 179:-2.2624481 180:0.45495892 181:-0.82504046 182:-0.41166925 183:-0.91932231 184:0.31177127 185:-1.1945308 186:0.9040463 187:-0.14643419 188:0.35530508 189:-1.0390316 190:1.5288799 191:-0.3542372 192:0.15174407 193:0.021482 194:-0.083800748 195:-0.048645988 196:0.39032999 197:-0.060579307 198:0.38966039 199:0.13039005 
0.1660498682116019 0:0.17418689 1:-0.74252892 2:-0.19906583 3:0.41791093 4:-0.41979554 5:0.058025163 6:-0.37803611 7:0.084375106 8:-0.27569488 9:-0.59603852 10:0.017837139 11:0.094212323 12:0.091410145 13:0.029507881 14:0.82685351 15:0.79685175 16:-0.82641745 17:0.70288986 18:-0.86398506 19:0.37709484 20:-0.14908548 21:0.84854448 22:0.31210688 23:-0.081988655 24:-0.061966423 25:-0.67611301 26:0.1828825 27:0.27809331 28:-0.20580512 29:-0.090623535 30:-1.239903 31:0.059403174 32:-0.14053257 33:-0.41389254 34:-0.18007141 35:0.20345065 36:0.48637268 37:-0.17936189 38:1.0221546 39:-0.24981421 40:-0.84715062 41:-0.43375763 42:-0.32262808 43:-0.3586686 44:-0.165622 45:-0.56665945 46:-1.4543253 47:-0.94754559 48:0.26351207 49:1.2931418 50:1.7998778 51:-0.20326203 52:-0.44148731 53:-0.28629819 54:-0.64494354 55:0.67743844 56:0.0059495084 57:-0.41528162 58:-0.23512635 59:-0.86074376 60:0.6601246 61:0.23582156 62:-1.1151519 63:4.2966847 64:1.1376935 65:3.5912747 66:0.70115834 67:-0.39910403 68:0.30637991 69:-0.52696681 70:-0.94881606 71:-0.051584829 72:0.46658474 73:0.23625027 74:-0.53941596 75:-0.80868858 76:0.20571272 77:0.27389258 78:-0.54412496 79:-0.18723044 80:-0.4382965 81:0.38854575 82:-0.77976727 83:0.001016515 84:-0.008388482 85:0.65618569 86:0.72038245 87:2.671268 88:-0.54904896 89:-0.070307098 90:-0.024788523 91:-0.1405903 92:1.9505277 93:-0.6668461 94:0.36422464 95:0.62629634 96:-0.58856231 97:-0.40300325 98:1.2870021 99:0.26673871 100:-0.031411693 101:-0.015197555 102:0.74515224 103:-0.50803125 104:0.53601015 105:-0.2790328 106:0.18019508 107:-0.49320686 108:0.62023985 109:-0.69558084 110:-0.091286547 111:0.79339135 112:0.64393187 113:0.19186027 114:0.63305724 115:0.063736536 116:-0.0472386 117:-0.22267015 118:-0.43544081 119:-0.044914503 120:-0.063738391 121:-0.031081008 122:0.5163914 123:-0.2006693 124:0.78762209 125:1.411505 126:-0.10113708 127:0.33266336 128:-0.54200447 129:0.53221083 130:0.45278302 131:1.6007092 132:0.59271264 133:-0.053961311 134:-1.1035578 135:0.58849853 136:-0.72364247 137:0.24576581 138:-0.78609937 139:-0.43674743 140:-0.0020286695 141:-0.43511972 142:0.29260173 143:-1.014971 144:-0.2013503 145:0.4894405 146:-0.82485622 147:-0.15121123 148:-0.74227822 149:-1.3824284 150:2.02985 151:1.1245799 152:2.2451291 153:-0.068835422 154:-0.11021949 155:-1.0033284 156:1.6135015 157:-0.41026369 158:-0.061205111 159:-0.75495517 160:0.41727683 161:-0.80612701 162:0.77791691 163:-0.15728013 164:0.38018215 165:0.11389986 166:-0.94094115 167:0.3875626 168:0.23841678 169:0.64646655 170:0.23364154 171:-0.27887458 172:0.56490517 173:0.68582249 174:-0.18448971 175:-0.22949685 176:0.55258763 177:1.1241114 178:0.9483726 179:0.7320264 180:-0.05982136 181:-1.0706024 182:-0.77211845 183:1.3815633 184:-0.92693293 185:-0.3115429 186:1.9679072 187:-0.61913568 188:0.042108692 189:-0.53608698 190:0.81855601 191:0.17367484 192:-1.0217894 193:-0.33717135 194:-0.14297861 195:0.30717987 196:0.23819812 197:-0.044116609 198:-0.64672053 199:0.65914208 
0.149608767491689 0:-0.89644492 1:0.14972305 2:-1.7413298 3:0.15761687 4:-0.53042006 5:-1.2276995 6:-1.3620104 7:0.32016778 8:0.13237017 9:0.0042804354 10:-0.56405443 11:0.40293804 12:-1.2738875 13:-0.052173305 14:-0.70377219 15:-0.41535506 16:1.0902488 17:-0.59182519 18:-0.64295685 19:-0.59077096 20:0.72790074 21:-0.56841773 22:-0.66586518 23:-0.16182037 24:-0.73799455 25:1.3424523 26:-1.0552909 27:0.54813099 28:-0.96660632 29:-0.91460931 30:-1.0921524 31:-0.41119742 32:-1.1988727 33:-1.2822028 34:-0.52202958 35:-0.50510597 36:-0.2313087 37:-1.1177078 38:-1.2630862 39:1.0713987 40:0.24306086 41:0.072581537 42:-0.22423901 43:-0.30439782 44:-0.93927979 45:-0.84782296 46:-0.23038922 47:-0.014333854 48:-0.090743795 49:-0.85342377 50:0.040091515 51:-0.22299014 52:0.18709227 53:0.34828499 54:-1.5165598 55:-0.91833705 56:-0.83573359 57:0.30834305 58:1.2782427e-05 59:0.29397848 60:1.2260109 61:-1.6814932 62:-0.74819231 63:0.33355594 64:-0.49044186 65:-0.95432085 66:2.7974658 67:2.0394266 68:3.4382505 69:-0.079751156 70:-0.077222295 71:-1.1314687 72:-1.5166461 73:-0.20912521 74:-0.84663975 75:-0.29993588 76:-0.36814466 77:-1.2315918 78:-0.45760009 79:1.3174567 80:0.90001643 81:-0.9942292 82:-0.87131143 83:-0.50374174 84:-0.059515089 85:-0.31146246 86:-0.98859471 87:-0.81114995 88:0.73339474 89:-0.1371952 90:-0.65975094 91:-1.0004733 92:-0.39813805 93:-0.58515102 94:-0.48632863 95:0.53151441 96:0.34663448 97:-1.215336 98:1.1216332 99:-0.38850683 100:-1.5843281 101:-0.27742469 102:-0.12673719 103:-0.89629298 104:-0.82976025 105:-0.66164035 106:-0.5561977 107:0.092999287 108:-1.3622016 109:-0.28564581 110:-0.25977471 111:-0.087695763 112:-1.1806247 113:-1.063139 114:-0.69728434 115:-1.2755749 116:-0.21953405 117:0.31721094 118:-0.085823186 119:-0.26564807 120:-1.4114728 121:-0.88434744 122:-0.25926909 123:-0.84456944 124:-0.60934067 125:-0.68045652 126:-0.055626959 127:-0.29296029 128:-0.58699578 129:-0.44180366 130:-0.27111402 131:-1.0699608 132:-0.79030168 133:-0.32547268 134:0.30907428 135:-0.49272823 136:-0.52432865 137:0.44794369 138:-0.44083026 139:-0.50378031 140:-0.76607233 141:1.2613571 142:-1.3960866 143:-0.65689206 144:0.047093216 145:1.0366125 146:-0.48855463 147:0.71868873 148:-1.3219937 149:-0.26803258 150:-0.028208077 151:0.51606166 152:-0.73423678 153:0.64220667 154:0.013295511 155:0.025708029 156:-0.74684948 157:0.78638113 158:-0.429957 159:-0.86666185 160:-0.10056928 161:-1.2549983 162:-1.6250035 163:-1.0142409 164:-1.8039811 165:0.21743643 166:-0.075165898 167:-0.5587247 168:-1.1769068 169:-0.5078845 170:-0.7438888 171:-0.56541181 172:-0.19695856 173:-1.5760676 174:0.72774327 175:-0.98258579 176:1.0248871 177:-0.051840656 178:-0.28875944 179:-1.2459369 180:-0.071504965 181:0.80542117 182:-0.62260425 183:-0.13338633 184:0.46779439 185:0.0598724 186:0.18078439 187:0.99928302 188:-0.27216086 189:-0.43356645 190:0.11665358 191:-1.2474686 192:0.16934872 193:-0.23440646 194:0.012443628 195:0.38207483 196:0.21248332 197:-2.0213161 198:-0.90645069 199:-0.32716158 
0.2068112718457328 0:0.356006 1:-1.3398534 2:-0.55813736 3:-1.1998824 4:-0.20233729 5:1.0276313 6:1.6086851 7:0.42070481 8:0.5145157 9:0.2412705 10:0.35972765 11:-1.2596487 12:1.0254744 13:-0.28293571 14:0.45271415 15:0.52940315 16:-0.14832541 17:-0.77833396 18:-0.63031834 19:0.32932389 20:0.44588241 21:0.14607821 22:0.72647756 23:-0.64650744 24:0.64310747 25:-0.53288537 26:-1.2002512 27:0.42919534 28:0.64688575 29:-1.3975992 30:0.4820222 31:1.2635776 32:-1.3202939 33:0.28616422 34:1.1146355 35:-0.6396755 36:1.2486435 37:1.222453 38:1.2856034 39:0.0059945988 40:-0.15960661 41:-0.60437328 42:0.051303681 43:0.33682427 44:-0.89922762 45:0.81581217 46:0.51910162 47:0.39409211 48:0.21062048 49:1.1075454 50:1.2629604 51:0.37262028 52:-0.27584174 53:-1.082616 54:0.42367622 55:0.48359472 56:0.59935677 57:0.25243232 58:-0.26946634 59:0.75290847 60:-0.90321553 61:0.66978902 62:0.25805914 63:-1.0384495 64:0.2031197 65:1.6553352 66:0.50045121 67:0.44194627 68:-0.24781202 69:0.42375228 70:0.46072993 71:0.71410054 72:2.8991866 73:3.1694965 74:0.95837998 75:-0.053371351 76:0.48497373 77:-0.66801733 78:0.24928308 79:-1.3893912 80:-0.21414089 81:0.49083945 82:0.20394941 83:-0.68979412 84:0.063579574 85:1.0993586 86:-0.44027981 87:-1.3297138 88:-1.1006156 89:0.15551424 90:-0.043432433 91:0.70987964 92:-0.12482543 93:-0.21705627 94:-0.58761311 95:-0.7350198 96:-0.87753695 97:1.2016256 98:-1.4974052 99:-0.70205557 100:0.77286136 101:0.76725709 102:-0.19153553 103:-0.5164901 104:0.54030746 105:1.5683988 106:-0.59744924 107:0.44529676 108:0.21567844 109:-0.34939983 110:0.4881762 111:0.70114255 112:0.77812439 113:0.91473508 114:0.12827832 115:0.16793178 116:0.3667919 117:-0.29144365 118:0.29725236 119:-1.1208993 120:0.215487 121:-0.29172856 122:0.33583456 123:0.19312683 124:-0.58560854 125:-1.3472899 126:0.48650098 127:-0.90759891 128:0.94112051 129:-1.0437721 130:0.35059118 131:-0.033681117 132:0.80086613 133:-0.91111583 134:-0.76884371 135:-0.18883957 136:0.61150509 137:0.17442538 138:0.81697077 139:-0.66163868 140:-0.40084863 141:0.30124617 142:0.86201423 143:0.35137907 144:-0.72810197 145:-0.20397989 146:-0.5131129 147:-0.1537655 148:-0.8684625 149:0.22660452 150:1.4042453 151:0.10188667 152:0.99963993 153:0.03626414 154:0.11162146 155:-1.3848052 156:-0.51678967 157:0.34593555 158:-0.28387326 159:-0.59376836 160:-0.017354336 161:-0.23230994 162:-0.11015927 163:0.90714592 164:-0.47500542 165:-0.46969789 166:-0.29300857 167:-0.048961863 168:0.76976067 169:-0.32156989 170:0.41045314 171:0.80942363 172:0.69984901 173:-0.71648329 174:-0.62910962 175:-0.83515507 176:-0.68887341 177:-0.2995064 178:-0.34747943 179:0.22842114 180:0.38472673 181:0.1390081 182:0.2319939 183:1.5349988 184:-0.26911715 185:0.96200794 186:-0.31644034 187:-0.097980291 188:0.45262438 189:-0.11430328 190:-1.4031299 191:-0.49463609 192:0.99130249 193:-1.370986 194:-1.1129208 195:-1.5775892 196:-0.26008305 197:0.44712248 198:0.77481645 199:0.76725364 
0.1680111779030099 0:-1.4652447 1:-0.20827764 2:0.21026208 3:-0.38666689 4:0.22392666 5:0.87398612 6:0.40615913 7:-0.6992808 8:-0.67255241 9:-0.16687319 10:-0.23987131 11:0.24075741 12:-1.3693697 13:-1.3191698 14:-1.1819758 15:-0.068646334 16:-1.44989 17:-1.4867164 18:-0.46060556 19:-0.6353696 20:-1.8556385 21:-0.92233914 22:0.14216064 23:-0.4548797 24:-0.30258277 25:-0.63272572 26:-1.2173367 27:-0.72290558 28:-1.2879827 29:-0.3736259 30:-0.71524519 31:-0.78798693 32:1.1812021 33:-0.22696348 34:-0.015110101 35:-0.29340968 36:-0.99070829 37:0.92877811 38:-0.32692015 39:-0.17995334 40:-0.38704875 41:-0.32917422 42:-0.51393396 43:-0.57565767 44:-0.31491846 45:-0.63480026 46:-1.4717851 47:-0.43862706 48:-0.31654081 49:-0.56347972 50:-0.65275997 51:-0.12684907 52:-1.27827 53:0.67375475 54:0.37493017 55:-0.37866682 56:-0.11274093 57:-1.3244847 58:-0.97829664 59:-0.7124266 60:0.12976912 61:-0.14667624 62:0.40562379 63:0.33936611 64:-0.70956314 65:-0.85337913 66:-0.67744309 67:-0.68571705 68:-1.3836318 69:0.97272044 70:-0.95335418 71:-1.197158 72:-0.31050241 73:-0.42568752 74:-1.409192 75:-0.80491227 76:-0.18304029 77:0.86718112 78:1.7263156 79:2.7691846 80:5.3972378 81:-1.2707992 82:-0.057698686 83:0.025921132 84:-0.78930533 85:-1.7572247 86:0.03171828 87:-1.1460748 88:0.019314881 89:1.0469067 90:-0.59164935 91:-0.64515823 92:-0.97505409 93:-1.4618826 94:-0.60728514 95:0.45841098 96:0.54894996 97:-1.1587551 98:0.44138545 99:-0.43829092 100:-0.73882478 101:0.014563688 102:-0.23230176 103:-0.97668284 104:-1.4914254 105:-1.212491 106:-1.0170974 107:0.63905936 108:-0.44025174 109:-0.89963031 110:0.0034125813 111:-0.42533737 112:-1.1862677 113:-0.81170672 114:-1.3826755 115:-1.2705566 116:0.37594119 117:-0.80877197 118:-0.25669578 119:-1.1122087 120:-0.45777562 121:-1.1139605 122:-1.2156377 123:-0.7915678 124:-1.5964544 125:-0.54597747 126:-0.52836215 127:-0.66567266 128:-0.76944524 129:-1.1884022 130:-0.0020056565 131:-0.87770462 132:-0.79083329 133:-1.1338814 134:-0.53138113 135:0.066094123 136:-0.8103174 137:-0.33086464 138:-1.3826826 139:-0.81634462 140:-0.018327544 141:0.41912925 142:-0.67047811 143:-0.98949683 144:-0.66678852 145:-1.4126741 146:0.046656549 147:-1.1015351 148:-0.21652867 149:-0.26418796 150:0.029509034 151:0.25814399 152:-0.76999623 153:0.27960429 154:0.016968431 155:0.14741178 156:-1.1994609 157:-1.7397752 158:-0.72042835 159:0.52057058 160:0.14676674 161:0.97821748 162:0.025423527 163:-0.77039087 164:-0.042937174 165:-1.6147079 166:-0.6419521 167:0.035116468 168:-0.90024734 169:-0.24684899 170:-0.38285303 171:-1.5534272 172:-0.41973191 173:-2.0487659 174:0.64723736 175:-1.2889467 176:-0.36846998 177:-1.0565878 178:-0.77508545 179:-0.24994868 180:-0.13966477 181:-0.78975278 182:-1.0975482 183:-0.74854785 184:-0.70858705 185:-0.58909464 186:-1.394403 187:-0.42787826 188:-0.13910763 189:-0.76048774 190:1.0453004 191:0.52624112 192:-1.1037346 193:0.39820638 194:-0.457304 195:0.25729004 196:-0.18188195 197:-0.48786339 198:-0.83473998 199:-0.78896087 
0.2718776908182354 0:-1.5191599 1:-0.81052339 2:-1.2275181 3:-1.1794605 4:0.37546176 5:-2.2533758 6:-0.8822521 7:-0.17831162 8:0.012315742 9:-0.73132974 10:0.062437195 11:-1.3777002 12:-0.6008575 13:-0.069000646 14:0.0017534288 15:-1.8726909 16:-1.081393 17:-1.7913266 18:-0.8451246 19:-0.31344786 20:-0.48721987 21:-0.86719227 22:-0.54403335 23:-2.2391477 24:-0.045062084 25:-1.2011168 26:-0.54758859 27:-0.68464977 28:-0.1207568 29:-0.23033062 30:-2.3700058 31:-0.75613594 32:-0.74471515 33:-0.0021489861 34:-0.37015373 35:1.0100069 36:-0.31387603 37:-2.2783449 38:-1.1040416 39:-0.42855611 40:-0.050037134 41:0.35501811 42:0.1822723 43:-0.83322245 44:0.01059467 45:-1.1272992 46:-0.21707442 47:0.44784963 48:-0.38916051 49:-1.7609645 50:-0.011715613 51:0.47358179 52:-0.32461277 53:0.18151183 54:-0.99220318 55:-1.5982897 56:0.061218493 57:-1.0703988 58:-0.24559516 59:-0.5087564 60:-0.44574279 61:0.87472296 62:-1.8192394 63:-0.49623016 64:-0.31835079 65:-0.33849224 66:-0.24645483 67:-0.1725326 68:-1.0308636 69:-0.18315861 70:0.09253709 71:-0.4531019 72:-0.81558233 73:-1.3733808 74:-1.3948445 75:-1.0947552 76:0.38349611 77:0.077495627 78:-0.059231725 79:0.058239833 80:1.2987596 81:1.9837364 82:2.3994777 83:4.1682372 84:-0.80143952 85:-1.8562348 86:-0.23102398 87:-1.040054 88:-0.88071448 89:-2.0302119 90:-0.21819821 91:-0.55561817 92:-0.80875659 93:-1.1160473 94:-0.58370841 95:-1.3861032 96:-0.78460807 97:-1.230561 98:1.3800664 99:0.51885915 100:-0.18132608 101:-1.3839953 102:-1.1817774 103:-1.7973986 104:-1.2119775 105:-0.89582568 106:0.63068819 107:0.56519789 108:-2.2546966 109:0.20735601 110:0.40117148 111:-0.31564122 112:-0.99041158 113:-0.085687414 114:-0.25002983 115:-0.87343436 116:0.30778053 117:-0.097463749 118:0.12848246 119:-0.50896943 120:-1.1204735 121:-0.71183664 122:0.23220259 123:-0.60051513 124:-1.5803345 125:-0.64862621 126:0.29448462 127:-0.9245587 128:-1.7747978 129:-1.545396 130:-0.4835203 131:-0.045265879 132:-0.21272005 133:-1.1648713 134:-0.37738132 135:-0.58095139 136:-1.2581266 137:-0.15204954 138:-0.50338858 139:-0.60979146 140:0.042267106 141:-1.5675757 142:-0.9178924 143:0.46672785 144:-1.2850543 145:-0.59526998 146:1.690282 147:-0.89354038 148:-0.33211833 149:0.68685573 150:-0.8235293 151:0.50293642 152:-0.82391846 153:-0.83096188 154:0.020516798 155:-0.4564625 156:-1.6009122 157:-1.7318552 158:-0.37417853 159:-0.51574069 160:-0.34374177 161:-0.38224483 162:-0.73943126 163:0.95436454 164:-0.1185789 165:-1.2043966 166:-1.2398741 167:-0.18658578 168:-0.7248292 169:-1.0478084 170:0.01435206 171:-0.68859088 172:1.0787101 173:-2.2334929 174:-1.26346 175:-1.8282554 176:0.6589005 177:0.038246639 178:-0.3329995 179:-1.6826453 180:0.49903351 181:-1.2499554 182:-0.61684203 183:-1.1734788 184:-0.52573603 185:-1.7559811 186:0.26945409 187:-1.2072796 188:0.46223459 189:-0.76628935 190:-1.2522887 191:-0.28423598 192:0.052997932 193:-0.11674835 194:-0.80714726 195:-0.25060245 196:-0.53817374 197:0.087377056 198:0.90444279 199:-0.11045511 
0.02061692214158012 0:-0.17438275 1:-0.6550402 2:-0.29043186 3:-0.61791009 4:0.71053797 5:0.57640392 6:1.1138436 7:0.07571768 8:0.013101942 9:-0.37208223 10:-0.20666279 11:0.028285587 12:-0.26769626 13:-0.84642053 14:-0.20546891 15:0.89690262 16:-0.12549579 17:-0.38550857 18:0.8149001 19:0.41410556 20:0.81820732 21:-0.23152772 22:-0.39137018 23:-0.18048926 24:0.67765886 25:-0.63432378 26:0.49860013 27:0.091252178 28:0.75696337 29:0.71844864 30:-0.27116632 31:1.2732992 32:0.60103512 33:0.67283988 34:0.53055328 35:0.094970971 36:-1.4472232 37:0.22709578 38:0.88778389 39:-0.72708905 40:0.64509487 41:0.12897857 42:-0.43055385 43:1.0443083 44:-1.3343929 45:-0.70946437 46:0.54308194 47:0.55904257 48:0.71998668 49:0.43524906 50:-0.35501483 51:0.43262586 52:0.021713197 53:-0.049037714 54:-1.6074166 55:1.1674292 56:0.21293844 57:0.020960031 58:-0.0055603557 59:0.62102044 60:-0.8831203 61:1.1317952 62:1.3998133 63:-0.10331716 64:0.30535746 65:0.79251605 66:0.71353018 67:0.4593159 68:-0.55353659 69:0.82967603 70:0.79209709 71:0.24367611 72:0.11640444 73:0.061459411 74:-1.0603538 75:-0.036975719 76:0.50026071 77:-0.84262496 78:1.5415944 79:-0.27569291 80:0.21813069 81:0.32449162 82:0.23800361 83:-0.80425972 84:6.0894928 85:0.78320724 86:4.651648 87:-0.90030229 88:0.025323644 89:0.64643162 90:-0.014896031 91:0.078373149 92:1.3682716 93:-0.60256189 94:-0.49947739 95:-0.80335325 96:0.79269856 97:-0.53532356 98:-0.90374601 99:0.57494611 100:0.53181964 101:-0.9649213 102:-0.31358331 103:0.49505565 104:0.41551861 105:-0.74071032 106:-0.22714655 107:-0.86293334 108:-0.4126851 109:0.047864892 110:0.4600707 111:0.12621413 112:0.33337915 113:0.69837785 114:0.91043913 115:0.8912015 116:0.37725294 117:1.5640851 118:0.23102619 119:0.65618038 120:-0.80346811 121:-0.22066203 122:0.076688424 123:0.19522458 124:-1.3073127 125:-0.84585738 126:0.44044274 127:0.46629035 128:0.21901692 129:-0.96563286 130:0.31976932 131:-0.27225029 132:0.44072104 133:-0.1234268 134:0.36162603 135:0.23888202 136:0.34451663 137:0.26435587 138:-0.25188944 139:-0.43855092 140:0.095695049 141:-0.58922189 142:-0.039939709 143:-0.70112669 144:0.52894658 145:-1.0737338 146:0.46937817 147:0.4419519 148:0.48632485 149:-0.098082364 150:-0.99569476 151:0.15937388 152:1.5213426 153:-0.60559011 154:0.1639374 155:-0.8038134 156:-0.56734943 157:-0.97523999 158:-0.23880713 159:-1.0071096 160:1.1481606 161:0.18597239 162:0.22657865 163:-1.0640688 164:-1.2955813 165:-0.39618668 166:-0.33590189 167:-0.086534597 168:0.15078948 169:0.043796208 170:0.34036198 171:1.1126221 172:0.0062435083 173:-1.2359306 174:-1.2274197 175:0.52204913 176:0.68115413 177:0.13856712 178:-0.17972955 179:0.49036834 180:0.38570583 181:-0.023615416 182:-0.47286487 183:-0.7103821 184:-0.0075517222 185:-0.75130957 186:0.10563859 187:0.44764432 188:0.37178659 189:0.35136491 190:-0.41381043 191:0.78393459 192:-0.84811217 193:-0.16615416 194:-0.77415127 195:0.76213872 196:-0.58707511 197:0.59940857 198:0.66164446 199:0.60912162 
0.08351025787518737 0:-0.8149963 1:-0.34155077 2:-0.069104023 3:0.26761654 4:-1.7432573 5:-2.0079701 6:-1.7168517 7:0.82374501 8:-1.47396 9:-0.24243079 10:-3.5443275 11:-0.48406407 12:-1.2406406 13:-1.6957937 14:-3.7170572 15:-0.45278499 16:-1.3163741 17:-1.9729396 18:-1.0593835 19:-3.7891109 20:-2.2604072 21:-2.0439823 22:-1.1116078 23:-1.4007592 24:-3.4064417 25:-0.74407202 26:-1.4660119 27:-4.1203022 28:-3.6500437 29:-0.48734027 30:-2.6653769 31:-1.8030839 32:0.29170859 33:-1.5431793 34:-2.4379504 35:-1.6047029 36:-0.70574439 37:-2.4055655 38:-0.46997422 39:-1.0300903 40:0.39967722 41:0.37302053 42:0.3477577 43:-1.8508174 44:-1.4754156 45:-1.6873273 46:-0.72234309 47:-1.0112146 48:-3.1994078 49:-0.84242207 50:-1.0553448 51:-2.836688 52:-1.6085262 53:-0.28586838 54:-1.7558777 55:-2.2820361 56:-4.1293635 57:-0.93937474 58:-2.1062498 59:-1.4853052 60:-0.89642847 61:-1.2365079 62:-2.2815378 63:-0.76664132 64:-2.6023812 65:-0.9712308 66:-3.9632375 67:-4.8720522 68:-1.9871383 69:-3.629231 70:-1.086341 71:-2.4449916 72:-2.5866144 73:-2.4904816 74:-2.9590745 75:-0.791403 76:-2.9656687 77:-2.4553115 78:-0.80265677 79:-0.33320853 80:0.16608939 81:-3.5265088 82:-1.2047837 83:1.493943 84:-1.6354512 85:-2.2512467 86:-1.6369309 87:1.7683456 88:5.720542 89:2.420311 90:-1.8451027 91:-1.7819537 92:-3.3196893 93:-1.5453781 94:-1.4366604 95:-0.68062085 96:-0.56468093 97:-1.5303615 98:0.055743814 99:-1.0449135 100:-4.5915055 101:-2.4029841 102:-1.4743789 103:-1.1680532 104:-3.7639747 105:0.0055979998 106:-1.1320902 107:-2.1589046 108:-1.0603073 109:-1.1226707 110:-3.1686461 111:-2.7056389 112:-3.9407895 113:-4.2279429 114:-2.1308451 115:-1.8681277 116:-3.8015184 117:-1.3849168 118:-5.1285157 119:0.10375014 120:-3.2021859 121:-2.3122978 122:-3.7839196 123:-1.9294062 124:-2.4536874 125:-2.4855566 126:-4.1855998 127:-0.6293782 128:-2.6007249 129:-3.0229709 130:-3.6434202 131:-0.85124266 132:-4.9374228 133:-0.49683651 134:0.67810637 135:-0.015666574 136:-0.49469927 137:-3.3318324 138:-0.92393482 139:0.29570711 140:-2.3308654 141:0.6845395 142:-1.4487052 143:-0.19120783 144:-0.82136029 145:-0.33301383 146:-1.5450563 147:-3.5404291 148:-2.5486612 149:-0.99289048 150:-1.2816975 151:-0.27979928 152:-0.20227948 153:-0.14265501 154:-0.89972371 155:-1.5320177 156:-1.9675245 157:-1.9993032 158:-0.52251679 159:-0.072797641 160:-1.3025273 161:-2.0860641 162:-3.3544946 163:-1.8707861 164:-1.9269607 165:-1.955343 166:0.44664973 167:-0.83715224 168:-4.0883923 169:-2.3471162 170:-4.2506542 171:-0.12409905 172:-4.8131375 173:-1.9563192 174:-1.5803241 175:-2.5654964 176:-0.87523419 177:-1.2836069 178:-1.2918533 179:-2.9104447 180:-4.1440573 181:-1.1067616 182:-0.4439432 183:-1.4792416 184:-1.0811002 185:0.14522111 186:-1.9388188 187:-2.5962274 188:-3.6632478 189:-0.76486731 190:0.39252856 191:-0.16321655 192:-1.0425768 193:-0.26635957 194:-2.8667686 195:-1.263908 196:-0.8713758 197:-2.9953549 198:-0.99329156 199:-4.6412678 
0.1843038722301422 0:-0.044655249 1:-1.0113736 2:1.3741693 3:0.073685221 4:-0.69243479 5:-0.46439803 6:0.069526866 7:-0.4148097 8:-0.86258495 9:0.30307725 10:0.21793897 11:0.070264511 12:0.82743967 13:-0.31136534 14:0.58239728 15:-1.5788748 16:0.021524008 17:0.64501053 18:-1.148308 19:0.14031203 20:-1.0763456 21:-0.19318965 22:-0.14076714 23:-0.62989849 24:0.33316237 25:-1.7962081 26:0.90245789 27:-0.080320343 28:-0.28260016 29:-0.0032442459 30:-1.0318192 31:-0.77295494 32:-1.4684358 33:-0.94999361 34:0.17543465 35:-1.9539309 36:1.2469974 37:-0.69830936 38:0.46929285 39:0.55288035 40:-1.1031669 41:-0.36028117 42:-0.68341058 43:-0.65828109 44:0.11580056 45:0.0029066484 46:-1.2792287 47:-0.51727438 48:-0.11170577 49:-0.1730437 50:-0.33320433 51:0.23414858 52:-0.84076607 53:-0.35330403 54:-0.54081237 55:-0.6933623 56:0.037075777 57:0.91744798 58:-0.83243638 59:0.8359344 60:0.42261824 61:-0.80905223 62:-1.0605938 63:0.98318845 64:-0.29695415 65:-0.7564106 66:0.19637544 67:-0.069364972 68:0.7555967 69:-1.3366822 70:-0.62860817 71:0.62399459 72:0.12225424 73:0.22265394 74:0.56662667 75:-0.11032661 76:0.24862261 77:-0.58011574 78:-0.15291961 79:0.48142257 80:-0.66759568 81:0.73856384 82:-0.22123396 83:-1.5032372 84:-1.1104342 85:-1.2636249 86:-0.084570169 87:1.525046 88:0.74291211 89:0.45553476 90:6.977253 91:6.7303071 92:3.1601639 93:-0.02778242 94:-0.51974225 95:0.2881982 96:-1.5303034 97:-0.36968708 98:0.37369412 99:1.2522907 100:0.28276715 101:0.2068065 102:-0.045075204 103:-0.99191684 104:0.73876148 105:0.21176749 106:-1.4310184 107:-0.91310537 108:0.86706603 109:-0.75667936 110:0.25241834 111:-0.20866273 112:0.5588997 113:0.72133726 114:-0.35674441 115:0.27618384 116:0.28899005 117:-1.3027312 118:0.031472988 119:1.8411825 120:0.97543925 121:-0.65173244 122:-0.1717238 123:-0.50706691 124:-0.080473237 125:-0.49034518 126:0.22676757 127:-1.1532838 128:0.22088341 129:1.2120265 130:0.23759781 131:-0.86283314 132:-0.27178547 133:-0.9892754 134:-0.3152521 135:-0.25825846 136:0.33365452 137:0.053398527 138:-0.33319074 139:-0.9829762 140:-0.82102334 141:-1.0826255 142:-0.57430494 143:-1.1941532 144:-0.55233049 145:-0.031186176 146:-0.77617627 147:-0.56786156 148:-0.76599193 149:-1.4921969 150:-0.14224586 151:-0.81722295 152:-1.2606486 153:0.0049604964 154:-0.46836695 155:-1.0920994 156:0.016693128 157:0.76616508 158:-0.49966499 159:0.28168321 160:0.066171631 161:-1.9292344 162:0.74807394 163:0.38359207 164:-1.0588883 165:0.16382609 166:-1.2156841 167:-0.031778645 168:-1.3057122 169:-0.53224283 170:0.015272063 171:-0.84774035 172:-0.37921917 173:1.1201324 174:-0.79159105 175:-0.18982483 176:-1.1567495 177:-0.77248406 178:-0.29469132 179:0.44502091 180:0.36880049 181:-1.1028377 182:-0.11756507 183:-0.067384958 184:0.21718186 185:-0.61161089 186:-1.445807 187:-0.80830365 188:0.39051044 189:-1.5077989 190:-0.42379355 191:0.15792878 192:0.062510386 193:-0.19310486 194:-0.90710062 195:0.79180413 196:-1.1447794 197:-0.50822771 198:-1.3392656 199:0.12221687 
0.03511534468710046 0:-0.6107567 1:-0.25195631 2:0.73411351 3:1.1849552 4:0.14285104 5:-0.26938212 6:-0.54910129 7:-0.8010537 8:-0.4139553 9:0.24395733 10:0.26628816 11:1.1376631 12:0.16267151 13:0.75463188 14:-1.4413067 15:-0.68170249 16:1.1244932 17:-0.66682744 18:1.1874349 19:-0.27245027 20:0.98577267 21:-0.36882085 22:-0.25457096 23:0.41262284 24:-0.019681362 25:-0.21023738 26:-0.35984442 27:0.13622662 28:-0.14270557 29:0.89106452 30:1.1220921 31:0.95086104 32:1.9103301 33:0.89815617 34:0.010685803 35:-0.50567991 36:0.4099423 37:-0.81588751 38:0.93592197 39:0.99952364 40:1.7089595 41:0.34615535 42:0.37998688 43:1.6345643 44:-0.082161754 45:0.29588774 46:0.51995212 47:-0.11371525 48:-0.47584626 49:0.0046749623 50:0.12136338 51:-0.076198712 52:-0.27003098 53:-0.33040088 54:-0.057579197 55:-0.22735667 56:0.25602368 57:1.6186755 58:-0.10225302 59:0.59098858 60:1.2093843 61:0.59201038 62:-0.72206527 63:0.54276937 64:-0.56136853 65:0.35511458 66:-0.3760941 67:-0.23793831 68:1.0155646 69:-0.52589059 70:0.50523955 71:-1.2090135 72:-0.079411708 73:0.28463778 74:0.62811643 75:0.24406224 76:0.0010804069 77:1.0864726 78:1.9027784 79:1.322538 80:0.45730668 81:-0.69391131 82:0.47347435 83:-0.22268961 84:0.5095681 85:-0.41952869 86:0.94753915 87:0.25726539 88:0.6977098 89:0.78989249 90:-0.29381466 91:-0.14479007 92:1.0463157 93:0.25754035 94:1.8930569 95:0.47395203 96:1.3963369 97:4.4116783 98:2.6033103 99:-0.79532284 100:-1.1133755 101:-0.23369096 102:1.2585304 103:1.3341571 104:-1.2299662 105:-0.48145619 106:-0.45515081 107:0.73491156 108:0.16248149 109:1.9868064 110:0.0529433 111:-0.38928965 112:-0.69798285 113:-0.7661463 114:-1.1313094 115:0.40685388 116:-0.15183249 117:-0.13084094 118:-0.24670382 119:-0.16268133 120:-0.85263222 121:-0.57834262 122:0.1395977 123:-0.40253285 124:0.37556377 125:1.0572832 126:0.065649837 127:-0.051872447 128:0.43251735 129:-0.61896515 130:-0.299604 131:0.8134324 132:-0.013018113 133:1.112794 134:1.1595238 135:0.080008812 136:-0.62585557 137:-0.28182638 138:1.9351851 139:1.1828431 140:0.21813567 141:0.52658033 142:-0.20806043 143:0.8157171 144:0.9348982 145:0.15682735 146:1.2996162 147:0.68818927 148:0.081887238 149:1.2378299 150:1.8599094 151:0.22896311 152:0.04558529 153:-0.23897447 154:0.19103824 155:0.42216811 156:0.40263927 157:1.0348823 158:-0.057626825 159:0.27626586 160:1.4171919 161:0.39759818 162:-0.11227089 163:0.4974308 164:0.33285534 165:0.38030258 166:1.290496 167:-0.26075906 168:0.71556842 169:0.31353176 170:0.21811976 171:0.68443286 172:-0.40819466 173:-0.62628877 174:1.3433208 175:-0.50653124 176:0.49847847 177:0.52386332 178:0.97577184 179:-0.019111048 180:-0.17664109 181:-0.61009049 182:0.38856041 183:-1.5920848 184:0.28440681 185:-0.086223133 186:1.0608037 187:-0.80995613 188:0.07455913 189:0.11945527 190:-0.0090469522 191:-0.29494157 192:-0.12685095 193:-0.40965569 194:0.14749368 195:0.86806899 196:-0.1847657 197:0.044410147 198:0.67173845 199:0.071288295 
0.2052751758864871 0:-0.93677413 1:1.3082395 2:0.29104206 3:-0.61933529 4:-0.13314842 5:-0.26121512 6:0.70495647 7:0.74996275 8:0.090647206 9:-0.64344335 10:0.43799764 11:-0.2523393 12:0.49960387 13:-0.053275086 14:0.7110095 15:0.8459425 16:-0.51167452 17:1.5320402 18:-0.28407973 19:0.73702759 20:0.22222224 21:0.58911538 22:0.33269182 23:0.79407156 24:0.20984304 25:0.46004269 26:-0.12918924 27:0.61548597 28:1.4771658 29:0.51957667 30:0.72427869 31:0.704319 32:-0.33795139 33:-0.87426645 34:-0.17032295 35:1.4619646 36:0.20859091 37:-0.27837503 38:0.20799279 39:-0.3652595 40:0.29621083 41:-0.39560983 42:-0.33638743 43:-0.5191651 44:0.2987164 45:0.93219972 46:-0.10202155 47:-0.2327418 48:-0.0027007898 49:1.1817073 50:-0.36991736 51:0.26083955 52:0.23533386 53:0.41555849 54:1.5116322 55:0.57307291 56:0.3062723 57:-0.32851234 58:-0.29212958 59:0.70397961 60:0.22587469 61:-0.50873733 62:0.39372063 63:0.63053429 64:0.83952469 65:-0.067755975 66:0.62496412 67:0.00026962653 68:0.64750451 69:-0.36058083 70:-0.80220425 71:0.54293269 72:0.91116089 73:0.87658012 74:0.3163712 75:0.049519762 76:0.28205073 77:-0.14602141 78:1.5085392 79:-0.33594134 80:0.070908725 81:1.3249333 82:0.29880571 83:0.68376786 84:-1.1975263 85:0.71040505 86:-0.38843095 87:0.67461884 88:-0.72286189 89:0.44412485 90:0.24094808 91:0.51252902 92:0.88639146 93:0.83225846 94:0.12786825 95:0.10177307 96:-0.040151685 97:0.64637196 98:2.7498775 99:4.0591202 100:1.6469781 101:1.5701387 102:0.28663719 103:-0.13474105 104:1.020197 105:-0.14766781 106:-0.15284607 107:0.027858157 108:2.1000967 109:-0.30868942 110:0.24182646 111:0.58585805 112:0.84942526 113:0.84362566 114:-0.10131308 115:-0.29271594 116:0.25844318 117:0.77405357 118:0.39236099 119:0.32840544 120:0.23738016 121:1.4138602 122:0.49011931 123:-0.3333227 124:0.28866044 125:0.38006121 126:0.40749255 127:2.3635337 128:1.0458879 129:2.030288 130:0.30441275 131:0.40988046 132:0.60235012 133:1.349883 134:-0.96956837 135:0.17676082 136:-0.41001925 137:0.48647901 138:-0.19055696 139:-0.91301566 140:-0.40179029 141:-0.83238286 142:-0.43552667 143:0.19442211 144:-0.91214371 145:0.49149287 146:-0.40087524 147:0.37595162 148:1.1776834 149:-1.0631596 150:0.64896959 151:-0.50473511 152:-0.073494747 153:-0.66687405 154:0.0005040128 155:0.069835506 156:1.1642802 157:-0.070571631 158:0.13976389 159:-0.58262247 160:1.1276865 161:-0.29045257 162:0.88015294 163:0.3681781 164:-0.11120507 165:1.7274874 166:0.31305057 167:-0.85668331 168:-0.058972571 169:-0.38206074 170:0.4675065 171:0.28872007 172:0.48375511 173:1.146163 174:-0.61672831 175:-0.65861547 176:1.5332534 177:2.0653424 178:1.3144755 179:0.33651006 180:0.24171682 181:1.2297604 182:0.20074801 183:-0.77343684 184:-0.49961096 185:0.68103015 186:-0.054205328 187:0.19818507 188:0.33081511 189:-0.48276535 190:0.11342302 191:0.99765879 192:-0.40236983 193:-0.46929947 194:0.089451052 195:0.15003106 196:0.0088586565 197:-0.27242953 198:-0.92234057 199:0.61336935 
0.1459980057661146 0:0.086892501 1:0.025129322 2:1.7537912 3:1.145025 4:0.16797912 5:0.62605447 6:0.25690216 7:0.36812893 8:-0.53135836 9:-0.21477953 10:0.45606551 11:-0.97907507 12:0.19807014 13:-0.76187068 14:0.62835121 15:0.14414766 16:-0.76062936 17:0.062274173 18:1.6800528 19:0.40984717 20:0.093320876 21:0.7543568 22:0.139763 23:0.23087999 24:0.68934816 25:0.17508969 26:-0.81108868 27:0.32066345 28:0.6185962 29:-0.55810016 30:0.15008619 31:-1.3359505 32:-0.33234915 33:0.51024783 34:0.8685621 35:0.082302704 36:-0.15330102 37:0.44720015 38:-0.068358958 39:-0.15891215 40:-0.28734228 41:-0.29720247 42:-0.40730911 43:0.55769873 44:-0.2746124 45:-0.54480702 46:0.50141698 47:0.76416111 48:0.50794041 49:-0.064115331 50:-0.57504481 51:0.2820138 52:-0.50442308 53:-0.29810241 54:-0.48137149 55:0.92353106 56:0.64295155 57:-0.017520081 58:0.63012892 59:-0.08801847 60:-0.76625466 61:0.4798992 62:1.3953601 63:-0.45601124 64:0.32415542 65:-0.65906262 66:0.23447256 67:0.48776859 68:-0.090772264 69:0.26431087 70:0.12159376 71:0.82521367 72:0.29103509 73:1.1821136 74:1.2123144 75:0.91369015 76:0.40376583 77:0.70118243 78:0.43422553 79:-0.79386544 80:-1.5489826 81:0.62871736 82:0.6801793 83:-0.29945707 84:0.22639966 85:2.4987478 86:0.34798172 87:-0.09557002 88:-0.31345713 89:0.7428816 90:1.5343866 91:0.38528836 92:-0.27045849 93:-0.055034164 94:-0.22997989 95:-0.28304204 96:-0.18041071 97:-0.28240758 98:-0.86109227 99:0.95407522 100:0.77689773 101:0.47154015 102:3.4752498 103:1.5482851 104:1.7914493 105:-0.13704523 106:1.687517 107:-0.57015413 108:-0.26231328 109:-0.066365629 110:0.29573557 111:0.59459937 112:0.92591548 113:0.079340622 114:0.47269353 115:0.52719039 116:0.2038753 117:0.4976694 118:0.20335487 119:-1.396214 120:0.57740843 121:0.2579056 122:0.2148108 123:0.22576378 124:0.81411797 125:0.73708141 126:0.45762259 127:1.2155491 128:0.2401579 129:-0.56286693 130:0.65531808 131:-1.870574 132:0.52178776 133:0.39703816 134:0.19806342 135:-0.48521632 136:-0.12308893 137:0.51143271 138:0.49787977 139:1.3814344 140:0.24731439 141:0.44506872 142:2.0130196 143:0.32620057 144:-0.78176123 145:-0.81047159 146:-0.1646203 147:0.16282156 148:-0.30072165 149:0.78599125 150:-1.3687112 151:-0.91636938 152:-0.35570693 153:-0.17118379 154:-0.49588779 155:0.050138704 156:0.60651094 157:0.1760959 158:-0.11469518 159:-0.54021406 160:0.25265774 161:0.22665122 162:0.77311438 163:-0.28540915 164:-0.38162073 165:0.73629189 166:0.47765121 167:0.77527809 168:0.26048264 169:0.6877982 170:0.19178137 171:1.3702946 172:-0.23930854 173:0.29228768 174:-2.0272021 175:0.1830073 176:-0.63878125 177:0.071642198 178:-0.019737065 179:-0.30354291 180:0.11923478 181:0.63458419 182:-0.049637359 183:2.6013196 184:-0.65670496 185:0.83966136 186:1.1645552 187:0.31524026 188:0.27352229 189:-1.0365406 190:1.4606174 191:-0.72515261 192:-0.64942241 193:-0.090575635 194:0.81202775 195:-0.305347 196:-0.26209971 197:0.26484641 198:0.031475868 199:0.62360781 
0.009557985465270905 0:-0.35709339 1:0.36821598 2:0.69627243 3:-0.80175602 4:0.099493794 5:0.19372413 6:1.0079466 7:0.47619414 8:-0.17609838 9:0.04567704 10:0.44083834 11:-0.2108603 12:0.17017385 13:0.15406106 14:0.61016971 15:1.0206816 16:-0.81654698 17:0.13726722 18:-0.17786118 19:0.70679027 20:-0.25490025 21:0.55699718 22:-0.15010926 23:-0.5245266 24:0.65671813 25:0.82749707 26:1.0802864 27:0.49460658 28:0.768233 29:-0.18299623 30:-0.6519475 31:-0.73329288 32:-0.16370532 33:0.57865542 34:0.65000927 35:-0.17584388 36:0.89958447 37:0.33558419 38:0.13761656 39:0.68294197 40:-0.55222714 41:0.39966297 42:0.37667337 43:-0.92652917 44:0.66263503 45:0.44063073 46:0.56086439 47:-0.26746529 48:0.87042207 49:1.2162306 50:-0.065265015 51:0.45310381 52:0.46369171 53:-0.43174094 54:0.88089365 55:0.4530592 56:0.55068171 57:0.10577558 58:-0.12957546 59:-0.15412568 60:-0.58147806 61:0.41621983 62:1.0161494 63:-1.2816614 64:0.68193817 65:-1.1769696 66:0.2577827 67:0.89933217 68:-0.70244068 69:-0.22589223 70:0.0086192237 71:0.68141741 72:-0.61874324 73:0.12303397 74:1.2546604 75:-0.39189219 76:0.35166442 77:-0.11132243 78:0.27260497 79:0.98334122 80:-0.028466886 81:0.38198251 82:0.7219016 83:0.0069097686 84:-1.0645561 85:0.81847483 86:1.6218163 87:-0.95925635 88:-0.7184639 89:-0.2389912 90:0.36822319 91:0.35559756 92:0.044080704 93:-0.62055576 94:-0.023609202 95:0.98335224 96:-0.55340654 97:-0.041112106 98:-0.31333703 99:-0.84664345 100:0.61148179 101:0.2436195 102:0.6083653 103:0.58079267 104:1.0553973 105:4.6555853 106:3.4082243 107:5.7928128 108:-0.37319556 109:-0.42305163 110:0.34386584 111:0.57431668 112:0.58453655 113:0.94687366 114:0.0078279385 115:0.63642734 116:0.19538186 117:-0.11309906 118:0.49466923 119:0.20704012 120:0.093586922 121:0.46659002 122:0.28158808 123:0.19387321 124:0.45940042 125:0.50257558 126:0.43685642 127:0.043484129 128:-0.37595743 129:1.0252966 130:0.28256801 131:-0.42033726 132:0.7601487 133:-0.28687769 134:-0.78771353 135:-0.66177106 136:0.30964267 137:0.48921892 138:-0.50674093 139:0.44377574 140:0.23363824 141:-0.91339809 142:0.057804029 143:-0.44332692 144:1.5414374 145:-0.55183589 146:0.39446908 147:-0.063999742 148:1.8254265 149:0.3625114 150:-1.1477706 151:-0.35885742 152:-0.46714902 153:-0.24791618 154:-0.50331473 155:-0.47822094 156:0.31906244 157:1.3673503 158:-0.42463374 159:0.7652564 160:-0.53816378 161:1.926527 162:0.38613674 163:-0.012730403 164:-1.4834425 165:0.17109928 166:0.1594393 167:-0.7330327 168:0.47796956 169:0.19373444 170:0.5696401 171:1.2940747 172:0.49776798 173:0.72239858 174:-0.36226523 175:0.40386906 176:-0.35326606 177:0.096163824 178:0.12514216 179:0.63175684 180:0.3834213 181:1.8716888 182:0.29024172 183:0.085993201 184:-0.24324705 185:1.3287787 186:0.34303465 187:-0.25095284 188:0.41468009 189:-0.35362175 190:-0.012447979 191:-0.25066975 192:-0.58397144 193:1.6359745 194:-0.27464107 195:-1.3687615 196:0.86761701 197:0.91272575 198:1.5967708 199:0.68621027 
0.1746623026140166 0:-0.26933974 1:-1.4143602 2:-0.088372499 3:-0.14517552 4:-0.32050127 5:0.55353552 6:0.019025994 7:0.60740417 8:0.56755495 9:0.22381991 10:-0.58331913 11:1.4771988 12:0.41362634 13:-0.37018964 14:-0.056509834 15:-0.9542405 16:-0.71590269 17:0.36915967 18:0.52326548 19:-0.35683185 20:-0.58483851 21:-0.58030689 22:-0.42401767 23:1.5962788 24:-0.040105417 25:-0.9622038 26:0.40039217 27:-0.82965106 28:-0.9257251 29:0.94040841 30:1.5062033 31:-0.012570703 32:0.4824532 33:-0.26912504 34:-0.52695382 35:-1.4883876 36:-0.013556399 37:-0.047902871 38:1.2511436 39:0.29351902 40:-1.2765803 41:-0.68290615 42:0.13678253 43:0.16925445 44:0.58363211 45:-0.033848513 46:0.94493115 47:-0.69918096 48:0.32623348 49:0.29086196 50:0.30763522 51:-0.17964186 52:-0.41434702 53:-0.47385475 54:0.54717463 55:-1.3077338 56:-0.3474243 57:-0.2969006 58:-1.000749 59:-0.98030496 60:-0.6267848 61:-0.01957912 62:2.2477863 63:-0.046807513 64:0.16426681 65:0.50207835 66:-0.72141445 67:-0.41935441 68:-0.73642516 69:-1.2928826 70:0.034753222 71:-1.1869535 72:-0.47711757 73:0.88218862 74:-0.93076247 75:-0.78492182 76:0.05840648 77:-1.9264209 78:-1.1919556 79:0.72549129 80:-0.72708482 81:0.070103817 82:0.021765737 83:0.42461351 84:0.12029421 85:0.29925722 86:-0.43314222 87:0.1146169 88:-0.34169763 89:0.72362638 90:-1.0037729 91:-0.26049352 92:-0.3645021 93:-0.46932554 94:-0.62308735 95:1.0673188 96:-0.99636847 97:-0.75942254 98:1.7236645 99:-1.1600149 100:0.32157055 101:-0.89216685 102:-0.76016003 103:0.46306741 104:-0.78637618 105:-0.70353836 106:-0.41319361 107:0.75488782 108:1.4405758 109:5.6552048 110:0.72076291 111:-0.41560778 112:-0.25006202 113:-0.029028749 114:-1.5819328 115:-1.8107851 116:0.019839883 117:-1.3594192 118:-0.024845324 119:-0.51274312 120:0.31425285 121:-0.44434786 122:-0.82014716 123:-0.98284829 124:1.2628406 125:0.48368254 126:-0.44279185 127:-0.58262587 128:1.2004535 129:-0.32799396 130:0.073581018 131:-0.71813148 132:-1.0170622 133:0.3431412 134:-0.75249624 135:0.89696217 136:-0.67050093 137:0.031361509 138:-2.2466908 139:-0.36186025 140:-0.21398985 141:0.74742925 142:-0.93542641 143:-0.60326856 144:0.46675837 145:-0.38465738 146:-0.2843388 147:0.6596368 148:-1.3730649 149:0.20155735 150:-1.2769018 151:0.14307448 152:-0.3754006 153:-0.42917001 154:-0.50509036 155:0.70241451 156:-0.29884043 157:0.0047409944 158:-0.1785779 159:-0.5033564 160:0.75229472 161:-0.85117811 162:0.082633466 163:0.13177666 164:0.46728483 165:-0.41596875 166:-0.23562825 167:-0.31368259 168:0.083283193 169:0.73555684 170:-0.2962018 171:0.16343702 172:-0.035530388 173:-1.1015069 174:-0.99019015 175:1.5526546 176:-0.33040586 177:0.97154319 178:0.65572202 179:0.16957562 180:-0.045380034 181:-0.94142878 182:0.69368505 183:-0.55421597 184:-0.56268311 185:-0.13199021 186:-1.1838646 187:0.33404502 188:-0.2368754 189:0.81818324 190:-0.7657755 191:-0.33682758 192:1.0972532 193:0.95403194 194:0.9751246 195:0.21924941 196:0.60718238 197:-0.43299589 198:-0.49261904 199:-0.79360408 
0.1204691672404311 0:-0.611422 1:-1.1131854 2:-0.90732515 3:-0.38132116 4:-0.7666325 5:-1.0161093 6:-0.57896352 7:-0.055169251 8:-0.77778614 9:-0.21522275 10:0.23145021 11:-0.041107953 12:0.59481704 13:-0.66486871 14:0.67083365 15:0.22910467 16:-0.15045169 17:-0.37340799 18:0.44667059 19:0.25321615 20:1.8817607 21:0.42163673 22:-0.16899844 23:0.31582299 24:-0.28727686 25:-0.57899576 26:-0.73857069 27:0.4509916 28:0.39027756 29:-0.75879878 30:-0.78440326 31:-0.77992868 32:-1.9046777 33:0.5016737 34:0.24388628 35:0.18190128 36:-0.56157798 37:-1.3724643 38:-0.78367484 39:0.22445373 40:-0.75197381 41:-0.4117462 42:-0.052251019 43:0.81075555 44:-0.78702706 45:0.16375342 46:0.71101278 47:-0.92476696 48:-0.061048817 49:-1.0815659 50:-0.38621962 51:-0.37467343 52:0.50829053 53:-0.41116855 54:1.1047274 55:-0.41774872 56:0.069565788 57:-1.5570391 58:0.36522588 59:-0.50605369 60:0.12712136 61:-0.29896313 62:-0.18886299 63:-0.25301161 64:-0.43127981 65:0.31388539 66:0.023185484 67:0.34737831 68:-0.60806525 69:0.821706 70:1.4899672 71:0.72594398 72:0.6696412 73:0.33172238 74:0.23786327 75:-0.96735322 76:-0.5127418 77:0.13342752 78:-0.64778841 79:-0.89458579 80:-1.2151742 81:0.66474003 82:-0.1643842 83:-0.38423318 84:-0.53834176 85:0.58741844 86:-0.73248148 87:-0.58773911 88:0.16806328 89:-2.5523636 90:-0.29346612 91:-0.13629307 92:0.036305968 93:-0.77052736 94:-0.70089722 95:0.94986659 96:-1.1997714 97:-0.3285158 98:-0.15276088 99:0.58758539 100:0.45865777 101:0.75584441 102:0.96884006 103:-0.31694707 104:0.30665317 105:-0.2810539 106:1.0549723 107:1.251802 108:-0.23440804 109:-0.090287104 110:-0.34846961 111:1.4601568 112:1.4850254 113:1.7895167 114:-0.17300236 115:0.710388 116:-0.14187977 117:-0.31178778 118:-0.081500068 119:-0.32406175 120:0.16678424 121:-0.61764407 122:0.51303411 123:0.25077182 124:-0.4530192 125:0.50336969 126:-0.15739048 127:-1.2874297 128:-0.89703536 129:1.4092636 130:-0.014619545 131:1.2281802 132:0.36321217 133:-0.29458383 134:0.56851387 135:-0.76069796 136:0.3878718 137:-0.33977666 138:-0.18631402 139:-0.5990144 140:0.066674337 141:-1.6300802 142:-1.4249532 143:0.022722583 144:0.153457 145:0.89259225 146:-0.32259935 147:-0.26209888 148:-0.552661 149:0.86100584 150:-0.88920969 151:-1.0442789 152:-0.95824409 153:-0.55545998 154:0.89128006 155:-0.58075929 156:0.72747695 157:-0.21370552 158:-0.44535133 159:-0.19957826 160:-0.71770817 161:0.60755914 162:0.75962245 163:-1.3305839 164:-0.47642189 165:-0.58250594 166:-1.4636588 167:0.38649264 168:-0.29293618 169:0.65758759 170:-0.13258569 171:-0.0079308618 172:-0.49510553 173:-1.0734464 174:-1.697306 175:-0.67405468 176:-0.080694541 177:-0.13119471 178:-0.021388719 179:-1.6778853 180:-0.35502818 181:-0.83050179 182:-1.1180785 183:-1.2446842 184:-0.14246726 185:-0.044652548 186:0.83708507 187:-0.40275756 188:-0.27903214 189:-1.1954781 190:-1.1169584 191:2.1222913 192:-0.39065599 193:-0.072276525 194:0.29693645 195:0.49884054 196:-1.8434954 197:-0.18746194 198:-0.044424389 199:-0.023538174 
0.01724513491264274 0:0.14951387 1:-0.059531201 2:1.3499206 3:1.2819196 4:0.9058398 5:1.0751443 6:-0.37613413 7:0.0094754538 8:0.4573552 9:-0.26486018 10:0.27225789 11:0.93011129 12:0.42456225 13:-0.24329685 14:-0.29224598 15:-1.2354175 16:0.68562734 17:-0.72154856 18:0.27514571 19:0.43211076 20:0.56430292 21:0.67981249 22:-0.81513941 23:1.0192279 24:0.41657001 25:0.08016181 26:-0.82620317 27:0.42007235 28:0.41904202 29:0.12304585 30:1.3113545 31:-0.69740707 32:-0.0051228697 33:-0.013657515 34:0.34549513 35:0.48945513 36:0.19757658 37:1.3162708 38:-0.084193945 39:0.51751125 40:0.34732419 41:0.016445369 42:0.056282669 43:0.37531084 44:0.16376166 45:0.61912483 46:-0.23694888 47:1.1611422 48:1.0697048 49:0.063333251 50:1.1088482 51:0.4409813 52:0.75432324 53:-0.33118236 54:-0.10729995 55:0.86733425 56:0.28644559 57:0.28860083 58:-0.078107022 59:0.72650909 60:-0.79226398 61:0.1105995 62:1.227314 63:-0.03060551 64:0.37028176 65:-0.5310275 66:0.11694023 67:0.26264462 68:0.20732184 69:0.13500333 70:0.050525017 71:0.49169481 72:0.57884157 73:0.093562141 74:0.33835137 75:-0.17244007 76:0.21824221 77:1.4122521 78:0.63555861 79:0.40868664 80:0.12167809 81:-0.16942903 82:0.67935818 83:0.083824486 84:0.27280271 85:-0.2290425 86:0.75838852 87:-0.076393604 88:-0.26778564 89:1.2587196 90:0.67510056 91:0.87110829 92:0.81155962 93:0.60199553 94:1.9218798 95:-0.0087004295 96:-0.25206244 97:0.98314756 98:-0.044209622 99:0.25316224 100:-0.31275499 101:-0.074563093 102:0.84314603 103:0.92005366 104:1.1057436 105:-0.19947633 106:-0.44836512 107:-0.3302907 108:0.49904203 109:0.28372183 110:0.35429677 111:0.14807336 112:-0.051461879 113:-0.050427482 114:1.8715736 115:0.93771809 116:0.39130482 117:1.3153998 118:1.3101408 119:5.5141625 120:1.3319987 121:0.67067987 122:0.22029598 123:-0.28233239 124:0.50277454 125:0.089747608 126:0.20008166 127:-0.98738968 128:0.72273451 129:-0.078831755 130:0.12477358 131:-0.1093087 132:0.32107711 133:0.65967625 134:0.93204081 135:3.2542648e-05 136:0.55295867 137:0.48546261 138:1.1525182 139:-0.2995683 140:-0.036806762 141:-0.10476816 142:1.008608 143:0.28745878 144:-0.60274673 145:1.2170277 146:0.28563178 147:0.67652535 148:-0.073766679 149:0.2187757 150:-0.10057467 151:-1.3425699 152:-0.18267901 153:-0.35698858 154:-0.31517312 155:0.27238044 156:-0.47772917 157:0.057303641 158:-0.30401173 159:-0.24361885 160:-0.40430927 161:0.43482965 162:0.7379083 163:0.33718261 164:0.6488198 165:-0.43957633 166:-0.8283357 167:-0.38993889 168:0.84747285 169:1.0561775 170:0.4218086 171:0.41698879 172:0.40142176 173:0.095932148 174:-0.370832 175:1.8857093 176:-0.19097288 177:1.0815293 178:1.0811424 179:0.19735175 180:0.44487447 181:-0.055367541 182:0.18646261 183:-0.21898682 184:0.53163594 185:0.82881719 186:1.1568606 187:0.21879326 188:0.30025467 189:0.30447006 190:-0.89423919 191:0.7204693 192:-0.10035037 193:-0.75750089 194:0.58311009 195:0.63823062 196:0.25464737 197:-0.13309591 198:-0.32451618 199:0.0054927287 
0.08907211682516537 0:-1.0365468 1:-0.29404613 2:-0.91096723 3:-0.97630709 4:0.62768769 5:0.24912478 6:-0.12423564 7:-1.3611162 8:-0.39663589 9:-0.77271974 10:0.10180291 11:-0.99073148 12:-0.22522178 13:0.040745702 14:0.17535466 15:1.4134969 16:0.030894598 17:0.97031921 18:0.14352848 19:0.0049585779 20:-0.24480821 21:0.037354138 22:0.089112647 23:-0.88208562 24:0.52924943 25:-1.0805209 26:-0.45007026 27:0.25142097 28:-0.17288195 29:-1.3363644 30:-0.093240686 31:2.9317946 32:-0.19921774 33:1.0237137 34:0.080449723 35:0.90683132 36:0.33758536 37:0.54595089 38:0.21042852 39:-0.90730679 40:0.21623044 41:-0.16666485 42:-0.83055818 43:-0.96805364 44:-0.94974965 45:0.06239406 46:0.52635539 47:-0.62028921 48:0.1183275 49:-0.15340404 50:0.020125689 51:0.19251423 52:-0.11827645 53:-0.897861 54:1.2073493 55:0.65800774 56:0.35698548 57:-0.27405608 58:1.1654888 59:-0.29736617 60:0.11366288 61:-0.054711066 62:0.51662302 63:0.69328213 64:-0.52902639 65:-0.66805041 66:0.0068559228 67:0.13975169 68:1.044621 69:0.19371764 70:-0.12738596 71:-0.15878604 72:0.28078997 73:0.74306387 74:0.080233209 75:-0.12320041 76:0.31307614 77:1.0664653 78:1.1812848 79:-0.80292404 80:-0.19356334 81:0.95644051 82:-0.13783111 83:0.59126025 84:-0.56187624 85:0.86890054 86:-0.90831858 87:-1.0316228 88:-0.019339392 89:-0.63769472 90:-0.20337857 91:-0.37434554 92:0.58138651 93:-0.24133579 94:-0.24139807 95:-1.6951349 96:-0.23232929 97:-0.83324969 98:0.07934963 99:-1.687335 100:0.9025445 101:0.47226086 102:-1.4072188 103:1.3269488 104:0.017311426 105:-1.5005201 106:-1.3200481 107:-0.14852639 108:-0.00013615834 109:-0.35475472 110:0.2399109 111:-0.2425575 112:0.84734511 113:0.22958261 114:2.1839457 115:0.4717629 116:0.28736678 117:-1.3973011 118:-0.14345357 119:-1.6458789 120:0.91134286 121:3.2968719 122:2.8693802 123:0.390567 124:0.17075954 125:-0.49506369 126:0.43450731 127:0.43408832 128:-0.026977858 129:0.83464134 130:0.1024818 131:-0.76424867 132:0.15139179 133:0.46110889 134:0.44115555 135:0.32776684 136:-1.6089841 137:-0.12354578 138:0.040693179 139:-0.48435226 140:-0.25611162 141:-0.37646398 142:-0.59539354 143:0.82614613 144:-0.77343768 145:-0.95216852 146:1.2072351 147:0.10372496 148:-0.3591392 149:-0.73966539 150:-0.64865685 151:-0.14135079 152:-0.9600569 153:-0.63029093 154:0.34859148 155:-0.3771286 156:2.4928715 157:-0.94381016 158:-0.058294345 159:-0.69504994 160:-1.0116652 161:-0.91610616 162:0.77431035 163:-0.60884672 164:-0.91402698 165:0.078917995 166:-0.58248717 167:-0.49839509 168:0.53396124 169:0.58675945 170:0.50577867 171:-0.36956388 172:0.075529322 173:0.16929919 174:0.377682 175:-0.26173022 176:1.1907051 177:-0.41839594 178:-0.69132024 179:-0.014331003 180:0.25601128 181:1.4873265 182:-0.47102326 183:1.2041519 184:-0.90199625 185:-0.0028526024 186:-0.41440636 187:-0.49224511 188:0.28872243 189:0.59086657 190:1.0247347 191:0.37020478 192:-0.41783121 193:0.06933438 194:0.62034768 195:-0.57041228 196:-0.57043624 197:-0.1785212 198:-0.25225195 199:0.08369454 
0.1320264131063965 0:-0.50678962 1:-1.055976 2:-0.0016860879 3:-0.62514943 4:-1.3086452 5:-0.62631458 6:0.25692928 7:-0.83620507 8:-1.0051779 9:-0.40925118 10:0.11956795 11:-0.11740871 12:1.0896531 13:0.23703383 14:-0.27714768 15:-0.76096994 16:-2.1978512 17:0.030216157 18:0.20332308 19:-0.091840863 20:0.36311689 21:-0.65987623 22:-0.49001965 23:0.60529399 24:-0.012835671 25:-1.3330972 26:1.33567 27:-0.5965097 28:-0.5614652 29:-1.7143703 30:-0.22099695 31:-0.22736283 32:2.1380329 33:-1.1593398 34:-0.52510411 35:1.5625011 36:0.2043031 37:-0.81546634 38:0.95609188 39:0.36883128 40:-0.62038964 41:0.77287012 42:-0.37617025 43:0.056740191 44:0.25986698 45:-0.35973656 46:-0.98469961 47:-0.54634207 48:-0.072071329 49:-0.48797274 50:0.28982422 51:0.14482754 52:-0.6952824 53:-0.94904 54:0.29926512 55:-1.1451975 56:0.28108054 57:0.38332069 58:-0.93511122 59:-0.47304457 60:0.44919413 61:-0.38825381 62:-0.85288346 63:-0.054540388 64:-0.31446692 65:-0.48535377 66:0.12865762 67:-0.13969493 68:0.68933159 69:-0.47064859 70:-1.0595481 71:-0.68218303 72:0.84455156 73:0.84152484 74:-0.032045692 75:-1.0064068 76:0.24765508 77:1.2748772 78:-1.1049566 79:-0.17775699 80:-0.49318203 81:-0.45598167 82:-0.39701596 83:2.0094585 84:0.36467043 85:-0.36021957 86:-1.0730201 87:-1.0972948 88:-0.90302324 89:1.3233944 90:-0.39610553 91:-0.43901825 92:-0.88624823 93:-0.64451981 94:0.076425597 95:-0.48797509 96:-1.0667737 97:-0.26273784 98:0.23539662 99:-1.7946585 100:-0.51860869 101:-0.23230895 102:-0.68156886 103:-0.15366949 104:-0.26741099 105:0.37541851 106:-1.1812891 107:-0.42158553 108:0.48916635 109:0.38708895 110:0.23284428 111:-0.82002711 112:-0.42023697 113:-0.23352478 114:0.98469555 115:0.57217491 116:0.21056511 117:-1.7233174 118:0.20818262 119:-0.91979831 120:0.31347322 121:-0.15286832 122:-0.96233612 123:6.445601 124:1.1645904 125:4.5128589 126:0.25204399 127:0.087481081 128:-0.54055858 129:0.62800795 130:0.11073399 131:-0.4481146 132:0.037704818 133:0.22120324 134:-1.9763134 135:-0.28376648 136:-0.79273224 137:-0.19881929 138:-0.50665087 139:-0.72520143 140:-0.29497865 141:0.91981757 142:-0.77641547 143:-0.36950636 144:0.18077736 145:-1.4048855 146:-0.88439226 147:-1.0806633 148:1.4998214 149:-1.3413175 150:-1.2437334 151:-0.87668294 152:-0.73103297 153:-0.22240604 154:-0.35670203 155:-0.28213689 156:-0.47861731 157:-0.38851538 158:-0.0091290576 159:1.7065036 160:-0.59639382 161:-1.0659065 162:-0.8924396 163:-0.14790815 164:0.89958179 165:0.01793823 166:1.3174126 167:0.41081184 168:0.12307991 169:-0.38307968 170:0.018781221 171:-0.10613921 172:0.034658477 173:0.4448525 174:0.052013598 175:1.7759807 176:-0.58321291 177:0.45400858 178:0.49311066 179:0.98803914 180:0.3649005 181:0.05670635 182:-0.8415584 183:-0.4168531 184:-0.25617766 185:-0.84534866 186:-1.0765291 187:-1.3648601 188:0.34056944 189:-1.1134919 190:0.13711473 191:-0.49483368 192:-1.205812 193:1.0228696 194:1.1254227 195:0.37550232 196:-0.34778079 197:-0.73909688 198:-1.5640467 199:0.040792666 
