svm_type c_svc
kernel_type rbf
gamma 0.00502513
nr_class 2
total_sv 115
rho -1.61279
label 1 -1
nr_sv 58 57
SV
0.290092596923321 0:0.40726981 1:1.1660627 2:1.217611 3:0.01674255 4:0.062855341 5:0.33767655 6:0.29691696 7:-1.4117032 8:-0.52990001 9:-0.28085342 10:0.35629088 11:0.12068521 12:-0.046464674 13:0.24036138 14:0.17012838 15:0.030664155 16:0.24429479 17:-0.30060115 18:0.32136557 19:-0.03628023 20:-0.9239893 21:0.11944086 22:0.34273916 23:0.71926653 24:0.58619332 25:1.0773579 26:0.0032507705 27:-1.3815912 28:0.067451909 29:-0.026404798 30:0.032791339 31:-0.51256323 32:-0.50844657 33:0.13627711 34:0.38365647 35:0.25360656 36:-0.87077689 37:-0.16065033 38:-0.15132616 39:0.74943966 40:0.31580293 41:0.82141829 42:0.22367616 43:-0.030263675 44:0.055530995 45:0.16277885 46:-0.924218 47:0.1746102 48:0.38402373 49:0.33110061 50:0.15762609 51:0.099113785 52:-0.035198428 53:0.77117544 54:0.34252149 55:0.73099089 56:0.0106135 57:0.11438592 58:1.2072213 59:-0.71578884 60:0.34780419 61:0.13144678 62:-0.039138246 63:0.031449091 64:0.029924091 65:0.12490681 66:-1.311673 67:-0.29056454 68:1.0935479 69:0.0528346 70:0.47544858 71:0.21483132 72:-0.12737647 73:-0.35167336 74:0.12121859 75:-0.18085052 76:0.074726656 77:0.15036577 78:0.33057073 79:0.38662806 80:0.16157222 81:0.27081126 82:0.04516634 83:0.037293594 84:-0.64866924 85:0.0026579455 86:-0.72127968 87:-0.97219425 88:-0.8722471 89:-0.66097343 90:0.0071090553 91:-0.0045384099 92:-0.92157382 93:0.68975693 94:0.93374962 95:-0.029201901 96:-1.1292732 97:-0.27028516 98:-0.046282474 99:-0.36649624 100:0.32195073 101:-0.099315897 102:0.12571405 103:0.5757603 104:0.095185965 105:0.35915881 106:0.91954315 107:-0.002766896 108:0.18430375 109:0.19068755 110:-0.70876598 111:0.42930594 112:-0.51234627 113:-0.15310022 114:-0.46906567 115:-1.2418417 116:-0.95418417 117:-0.69520849 118:-0.043938123 119:0.29904619 120:-0.82686669 121:-0.90430999 122:0.030295735 123:0.27870241 124:0.18409844 125:0.036171421 126:-0.5766325 127:0.31110147 128:-0.32485881 129:-0.46269435 130:1.5038445 131:0.28420499 132:0.013054351 133:-0.11753254 134:0.19431616 135:-0.79182768 136:0.12124393 137:0.013500945 138:-0.79975194 139:0.097455271 140:0.15506205 141:0.11644454 142:0.21650103 143:0.12216879 144:0.072003044 145:-0.29093537 146:-0.15901344 147:-0.47672594 148:-0.53605783 149:-0.6783585 150:0.67112792 151:-0.28778517 152:0.42848778 153:-1.12915 154:0.54660946 155:0.24491473 156:-1.4233048 157:-0.58530164 158:0.11551768 159:0.075376622 160:-0.37391385 161:0.15835531 162:0.018730452 163:1.3005722 164:-0.17323297 165:-0.53601688 166:-0.96365798 167:-0.068294674 168:-0.065322317 169:-1.0865595 170:-0.92974854 171:-1.0881983 172:0.31579334 173:0.18228592 174:-1.2818998 175:0.13678429 176:-0.85324711 177:-0.53657818 178:-0.65440333 179:-0.74607712 180:-1.2625475 181:0.84803832 182:-0.079209432 183:0.55665827 184:-0.58584809 185:0.838763 186:-1.3677858 187:-1.201653 188:-1.0109044 189:-0.17920917 190:0.3340508 191:-0.33732644 192:1.4127352 193:0.65458 194:0.086096019 195:-1.2905067 196:-0.084870234 197:0.14694624 198:0.78431588 199:0.91864288 
0.5288370327128802 0:0.30387518 1:0.5597766 2:3.8455091 3:1.5013658 4:0.14231789 5:1.4802338 6:0.22187363 7:-0.43584996 8:1.0127779 9:-0.35974655 10:0.49919227 11:-0.13022551 12:0.21019349 13:-0.05619714 14:0.80677831 15:0.21417367 16:-0.37856367 17:0.16139716 18:0.67380339 19:0.14389633 20:0.32081568 21:0.046763916 22:0.2394466 23:0.56729829 24:-0.57163835 25:0.00031371694 26:0.15999886 27:0.092111036 28:0.23129901 29:0.22997484 30:0.3340036 31:-0.00036217086 32:-0.17214334 33:0.44677216 34:0.24161644 35:0.39311835 36:-0.27423501 37:0.24898589 38:0.083281718 39:0.11005742 40:0.15298742 41:0.99421132 42:0.16563886 43:0.23472269 44:0.16602124 45:0.15532292 46:-0.31888634 47:0.15150954 48:-0.10145161 49:0.17780043 50:0.181407 51:0.34557459 52:-0.47370502 53:0.18278684 54:0.19511759 55:0.27383697 56:1.1395522 57:0.18075176 58:0.57538939 59:-0.18096863 60:0.77580684 61:0.80301487 62:0.12789707 63:0.17219259 64:0.26269576 65:0.40053326 66:-0.46396169 67:-0.048368599 68:0.57216138 69:0.61238831 70:0.2735728 71:0.62418401 72:0.2304047 73:0.49728882 74:0.18644527 75:0.20117311 76:0.17069037 77:1.1021812 78:0.34365374 79:0.38888499 80:0.50934201 81:0.59778064 82:0.057494055 83:0.20773125 84:-0.54162782 85:1.6856216 86:0.67158818 87:0.50922424 88:-0.5348255 89:0.32068202 90:0.23545003 91:0.19572848 92:0.40033108 93:0.092777334 94:0.65338486 95:-0.52145791 96:-0.25412822 97:0.77728432 98:0.18884572 99:-0.058202237 100:-0.045094419 101:1.0919058 102:0.20343594 103:0.34122837 104:0.1581455 105:0.31817374 106:1.6883544 107:0.41658476 108:0.73096669 109:0.24090651 110:-0.93124563 111:0.48729813 112:0.55580556 113:0.37782729 114:0.2273951 115:0.080848172 116:0.15781972 117:0.056872088 118:0.27002695 119:1.9866089 120:1.6257474 121:0.89208251 122:0.21880607 123:0.80403715 124:0.32285187 125:0.29050174 126:-0.36708567 127:0.27911422 128:-0.50885087 129:-0.59463739 130:0.60355461 131:0.52362537 132:0.36018911 133:0.099316537 134:-0.1339619 135:-0.014604864 136:0.44277558 137:-0.029011883 138:0.32739437 139:0.26581419 140:-0.058081921 141:0.16685981 142:0.1344763 143:0.34842119 144:0.20581742 145:0.43118903 146:-0.422447 147:0.12016811 148:0.34003416 149:-0.37545389 150:0.97041726 151:1.8621304 152:0.20905606 153:-0.081814542 154:0.022546407 155:0.22396323 156:-0.39267156 157:1.0095766 158:0.34065577 159:0.31986105 160:0.033058576 161:0.098058186 162:0.28043017 163:0.40774632 164:-0.41060165 165:-0.19183318 166:1.2318356 167:0.25106168 168:0.22353867 169:-0.6182639 170:0.37607893 171:0.23465067 172:0.62944251 173:0.060103476 174:-0.68007392 175:0.55544025 176:0.98232776 177:-0.64379114 178:0.39480248 179:0.92189497 180:-0.22719699 181:0.11171071 182:0.46770439 183:0.68199563 184:0.58639979 185:0.1831314 186:-0.074155197 187:0.26592341 188:-0.16975528 189:0.29749829 190:0.02258374 191:0.31468862 192:1.107363 193:0.8343662 194:0.85617733 195:0.17926937 196:0.27848986 197:0.33929211 198:0.32780993 199:0.89043272 
0.04240784066078083 0:-1.0898097 1:-1.0374483 2:0.33108017 3:-1.2338899 4:0.83300006 5:0.50644606 6:0.26077431 7:-0.11889715 8:1.2273386 9:0.88204718 10:0.51298887 11:-1.2099491 12:-1.1877351 13:-1.3615059 14:1.0999426 15:-0.57629919 16:0.19994059 17:-1.6856993 18:0.3494719 19:-1.2620101 20:1.1079251 21:-2.1025846 22:0.42733985 23:-0.33108616 24:-0.79575425 25:0.49766779 26:-1.3592519 27:0.83174074 28:-1.7616236 29:-1.1366259 30:-0.58431363 31:1.0161018 32:-1.4420366 33:-1.3379636 34:-1.4434949 35:-0.43425101 36:1.7655529 37:-1.0559142 38:1.8442533 39:-1.4025637 40:0.93375868 41:1.0102818 42:-1.5812392 43:-1.3343291 44:-1.4660392 45:-1.2115233 46:0.25893965 47:0.74877334 48:1.1083938 49:0.12340482 50:-1.5832558 51:-0.9418965 52:-0.6185962 53:-0.2274539 54:0.068198711 55:-1.0105661 56:2.5166247 57:-1.6465297 58:0.59243995 59:-0.72492522 60:0.1531477 61:0.44126248 62:-1.4711572 63:-1.2313232 64:-1.4309812 65:-1.1713109 66:0.60958058 67:-0.056758318 68:0.44042379 69:0.98390526 70:0.66570258 71:-1.1816634 72:0.94457948 73:0.64764071 74:-1.470873 75:-2.2767661 76:-0.15703849 77:-0.52496982 78:-0.32241589 79:-0.54557413 80:0.62865865 81:0.77642041 82:-1.1302822 83:-1.3563503 84:-0.53796607 85:-0.14464965 86:-0.098515213 87:-0.67185903 88:-1.1405805 89:-0.35219204 90:-1.5600909 91:-1.3195066 92:0.098460302 93:-1.2289364 94:0.52952129 95:-0.096843064 96:0.42408273 97:1.6030431 98:-1.1801568 99:0.074444726 100:-0.41647759 101:0.13390882 102:-0.22937055 103:1.1180633 104:-1.5801166 105:-0.19126862 106:0.12729345 107:1.1157813 108:1.2995256 109:-1.0699686 110:-0.017707502 111:0.55069846 112:-0.9176147 113:-1.9287224 114:-0.57519323 115:0.94899279 116:-1.5834564 117:0.030920707 118:-1.4699777 119:-0.21299917 120:-0.92462468 121:-1.0184036 122:-1.3424379 123:0.51151913 124:-0.86948448 125:-0.24809775 126:-0.39215809 127:-0.9384585 128:1.6440997 129:-1.2782885 130:-0.51757139 131:1.2350221 132:-1.3452301 133:-1.9968913 134:0.37132365 135:-0.60315543 136:-0.82204348 137:-1.0018632 138:-0.79294211 139:-1.2405201 140:-0.37537149 141:-1.5846469 142:-1.4118316 143:-1.4025151 144:-1.642014 145:0.59705919 146:-0.87635255 147:-1.1594572 148:0.23790337 149:-1.4069929 150:-2.2825179 151:-0.065466128 152:1.0478064 153:-0.14479925 154:-0.20305859 155:-1.5457253 156:0.61251408 157:0.40900135 158:-1.2350459 159:-1.4876674 160:0.72977334 161:-2.7627144 162:-1.7147521 163:-0.16968977 164:-0.19728436 165:0.080242522 166:-0.92439759 167:-0.95954454 168:-1.6856955 169:-0.64008343 170:-0.2320808 171:0.83556193 172:-0.0093355421 173:-0.78082103 174:1.3824275 175:0.56971723 176:-0.40524781 177:-0.92318398 178:-0.060673345 179:0.043347538 180:-0.011961855 181:-0.21624087 182:0.5870176 183:0.23049833 184:-0.46732551 185:-0.17733473 186:0.39807388 187:-0.10665976 188:-0.95958388 189:-2.0722039 190:-0.16518132 191:-0.96455091 192:1.0922072 193:0.59933227 194:0.74531567 195:0.14021754 196:-1.5181758 197:-1.2566154 198:0.95499396 199:0.33250606 
1 0:0.54614943 1:0.49311775 2:0.25833669 3:-0.15294483 4:0.71476263 5:0.40553772 6:3.1340408 7:1.6767818 8:0.12687439 9:1.5396925 10:-0.64349371 11:0.56927133 12:0.44460827 13:-0.39751092 14:-0.33869869 15:0.379347 16:-0.71532655 17:0.73035711 18:-0.65179223 19:0.82625318 20:0.86453485 21:0.52116531 22:0.25711945 23:0.57922125 24:-0.6359207 25:-0.23573866 26:0.53940129 27:1.6896905 28:0.44480762 29:0.52072001 30:0.85866505 31:-0.24866533 32:0.62969941 33:0.56329185 34:0.45477912 35:-0.358098 36:0.98666054 37:0.58045119 38:0.84086734 39:0.29219657 40:-0.14153953 41:1.6420466 42:0.41677514 43:0.34033087 44:0.29914746 45:0.4762722 46:2.3346434 47:-0.31400847 48:-0.17529353 49:0.286212 50:0.39511284 51:0.44369668 52:0.57557952 53:0.33297461 54:1.0846815 55:0.37588739 56:0.50555885 57:0.42297933 58:0.14414531 59:-0.32361814 60:-0.25185016 61:0.31937805 62:0.39269078 63:0.39070925 64:0.38497788 65:0.33661839 66:1.3779768 67:0.27396998 68:0.78461814 69:0.33276349 70:0.18721905 71:0.42346826 72:-0.59936869 73:1.0087749 74:0.73857659 75:0.65959519 76:1.0314507 77:1.1235301 78:-0.19264816 79:0.26764381 80:0.21607153 81:-0.28585458 82:0.33396384 83:0.33459261 84:0.53618848 85:0.13928188 86:0.94620889 87:1.2138191 88:0.80254555 89:1.394825 90:0.47623578 91:0.3296752 92:0.56423551 93:1.0599115 94:0.27020231 95:-0.28710714 96:-0.047925241 97:-0.082129888 98:0.63299215 99:0.64468235 100:0.52857077 101:0.60142934 102:0.26478887 103:-0.22214234 104:0.63642806 105:0.11063504 106:0.2552948 107:0.1838413 108:-0.12285795 109:0.3545396 110:1.2041168 111:-0.25267777 112:0.51642728 113:0.80620337 114:0.75751787 115:0.99037164 116:-0.095278442 117:0.37052822 118:0.47156638 119:0.58008426 120:1.5020548 121:0.10276968 122:0.35104266 123:-0.32507139 124:0.3155303 125:-0.39310819 126:1.3832276 127:0.60171676 128:0.79927176 129:-0.46166611 130:1.2826167 131:-0.056738514 132:0.41877186 133:0.61790884 134:0.42717329 135:0.65249085 136:0.43522608 137:0.52454168 138:0.87501758 139:0.37842235 140:-0.023763543 141:0.38763648 142:0.36410841 143:0.33528799 144:0.44923791 145:1.7130487 146:-0.27096397 147:0.69283783 148:0.28219366 149:-0.33831549 150:1.2678881 151:-0.04444379 152:-0.84015566 153:0.40883425 154:0.79408646 155:0.10821416 156:1.4391435 157:0.096890822 158:0.59716892 159:0.55337679 160:0.45640686 161:0.31535003 162:0.44982168 163:1.0726577 164:0.20005164 165:0.94886166 166:-0.42013371 167:0.59808809 168:0.49673444 169:1.4304606 170:1.050072 171:0.7520923 172:0.3693735 173:0.2509445 174:1.1021515 175:-0.37398767 176:1.812247 177:1.7312492 178:1.1795768 179:-0.22561142 180:1.4329768 181:-0.63784677 182:-0.35942093 183:-0.30518663 184:2.0394895 185:-0.46002096 186:1.1480318 187:1.7470647 188:0.98170829 189:1.1826668 190:0.69916153 191:0.98553687 192:0.10465057 193:0.99563587 194:-0.39506054 195:0.4408102 196:0.52694744 197:0.60767263 198:-0.24234359 199:-0.057088733 
1 0:0.41480261 1:0.22783598 2:-0.47128987 3:0.61501932 4:0.46160641 5:-1.1669798 6:-1.8154712 7:0.13145122 8:-1.396901 9:-0.3409372 10:-0.67177534 11:-1.0663035 12:0.46896735 13:0.98108453 14:-1.0271528 15:0.39516675 16:3.6115119 17:0.69336081 18:-0.78305453 19:0.86947274 20:-0.55523598 21:0.41252726 22:-0.20704633 23:-1.655926 24:0.92776269 25:1.0373198 26:0.60415882 27:0.86513656 28:0.53613693 29:0.46675763 30:0.45064828 31:-1.2561855 32:0.18180218 33:0.48606569 34:0.40667209 35:0.59614199 36:0.4375515 37:0.3873865 38:-0.66475075 39:-0.524014 40:-1.5286397 41:-1.6237675 42:0.48375219 43:0.36331272 44:0.46197182 45:0.52014595 46:0.17582418 47:-0.042798866 48:-0.69841194 49:0.33212194 50:0.47728631 51:0.3693265 52:-0.2015285 53:0.42367274 54:0.079115786 55:0.25025314 56:-1.0320172 57:0.44509855 58:-1.439187 59:-0.64237785 60:-0.67125386 61:-1.6977171 62:0.49275655 63:0.48140991 64:0.5395112 65:0.28308916 66:0.92016971 67:1.3132999 68:-1.2530361 69:-0.73586237 70:-1.2190499 71:-0.032366093 72:-1.2758077 73:-1.1552621 74:0.45451102 75:0.53583503 76:-1.1638182 77:-1.28149 78:-0.17930508 79:0.303859 80:-1.0241073 81:-0.77607965 82:0.46412954 83:0.43255836 84:0.13957094 85:1.3596886 86:1.1681384 87:0.82521325 88:0.084613733 89:0.67345363 90:0.52176684 91:0.39357769 92:0.1923503 93:-0.48250026 94:-0.98773128 95:-0.75668555 96:-1.1284254 97:-1.1686721 98:0.60773516 99:0.53957045 100:0.8486855 101:0.53825164 102:0.26503477 103:-1.0111748 104:0.33782461 105:0.07025478 106:-1.0372872 107:-0.82498121 108:-1.3471134 109:0.34846696 110:0.40915602 111:0.0066464692 112:-1.5819355 113:0.32158005 114:0.63459247 115:0.82349962 116:-0.20872697 117:-1.2857935 118:0.46139073 119:0.19058362 120:0.46590635 121:1.6116431 122:0.32877576 123:-0.56565213 124:0.15119052 125:-1.3236886 126:1.0696093 127:0.7896409 128:-0.96535194 129:1.6424787 130:-1.2776015 131:-0.93034804 132:0.48529202 133:0.65665627 134:-0.97646886 135:-0.37884873 136:0.31937569 137:0.5693453 138:1.2357125 139:0.39469045 140:0.11852958 141:0.45810646 142:0.36307472 143:0.44672051 144:0.51695174 145:0.86055338 146:-0.14603938 147:0.38289613 148:0.48781529 149:-0.69148189 150:-0.034440331 151:-0.77730435 152:1.2420173 153:-0.34401709 154:0.791399 155:0.31292686 156:0.37314534 157:0.85082579 158:0.62017673 159:0.58231288 160:0.48332298 161:0.97220296 162:0.53880507 163:-1.1341344 164:-0.85984689 165:1.2455732 166:0.058607228 167:0.63043863 168:0.57549632 169:0.5941149 170:-0.069693603 171:-1.288174 172:0.57657242 173:0.32917416 174:1.6451857 175:-0.53368396 176:-1.4243848 177:1.53892 178:-0.070566431 179:-0.69537359 180:0.80692762 181:0.25784287 182:-1.2031004 183:-0.25267074 184:1.0064996 185:-0.66076088 186:0.54621434 187:1.3831725 188:1.0959959 189:0.61897987 190:1.0984331 191:0.63602507 192:-1.8463705 193:-1.393003 194:-0.43382809 195:1.227136 196:0.58243382 197:0.68032932 198:-0.97765517 199:-1.5017239 
1 0:0.32619613 1:0.31640887 2:0.74978244 3:-0.18795824 4:0.80106086 5:0.079001226 6:0.21693063 7:1.0309591 8:0.4960748 9:0.56521469 10:0.55645549 11:0.67542732 12:0.27077913 13:1.5401384 14:0.081047922 15:0.30387104 16:-0.14691378 17:0.41261831 18:1.4964342 19:3.3531308 20:1.3588357 21:0.13965134 22:0.3647038 23:0.44183838 24:0.63445878 25:0.5215103 26:0.063171223 27:-0.065763615 28:0.2899355 29:0.29300052 30:0.58244556 31:0.45969456 32:0.29093787 33:0.29778799 34:0.18638216 35:0.29179943 36:-0.24530426 37:-0.013222223 38:0.68768144 39:0.033594426 40:-0.64899611 41:0.89856851 42:0.25546375 43:0.21123381 44:0.20827344 45:0.33032349 46:-0.25136608 47:1.1360964 48:0.088689424 49:-0.32526886 50:0.20775861 51:0.38214499 52:-0.38829297 53:-0.024884414 54:-0.49677879 55:-0.0099073602 56:0.38151157 57:0.22345801 58:1.0569915 59:0.035063073 60:0.81724489 61:0.46903706 62:0.28392673 63:0.36664158 64:0.24716564 65:0.2122452 66:-0.71657926 67:-0.0048805564 68:1.2113513 69:0.16853367 70:-0.30007237 71:0.15634106 72:-0.085425876 73:-0.10297614 74:0.33319393 75:0.27234933 76:0.86033791 77:0.55542952 78:-0.57087839 79:-0.089703724 80:0.99248224 81:0.38703606 82:0.23544797 83:0.3298806 84:0.020840742 85:0.39515713 86:0.32161224 87:0.27850589 88:-0.48680589 89:-0.10150729 90:0.26532856 91:0.22890553 92:1.0515356 93:0.96055877 94:0.96261305 95:1.2288225 96:0.27934763 97:0.56483603 98:-0.033058912 99:-0.1655626 100:0.19424887 101:-0.35210478 102:0.50404471 103:0.25354964 104:0.00085232756 105:0.38391858 106:0.96841019 107:0.46601975 108:0.66529024 109:0.44452888 110:0.69738543 111:0.45526916 112:0.43869448 113:-0.30746141 114:0.0098169791 115:-0.0022688308 116:2.7247267 117:1.3745455 118:0.25455314 119:0.06756448 120:0.59041649 121:0.17952958 122:0.27576622 123:0.6112594 124:0.3472831 125:0.17881498 126:0.34478274 127:0.6955297 128:-0.46798038 129:0.17589554 130:0.79356885 131:0.62059546 132:0.14114729 133:-0.0064422465 134:0.73307717 135:0.60518819 136:0.27483439 137:0.35663334 138:0.043256927 139:0.37000313 140:0.27318218 141:0.3243528 142:0.37916148 143:0.33247492 144:0.27560109 145:0.83635378 146:1.0885119 147:-0.056276981 148:-0.60798717 149:0.96809155 150:-0.10960659 151:0.76259243 152:-0.23991171 153:-0.13342877 154:0.2222482 155:0.045790009 156:1.0834258 157:-0.62701356 158:0.16996038 159:0.06466601 160:-0.13347964 161:0.069072165 162:0.27188632 163:1.3958495 164:-0.26232544 165:-0.12336072 166:-0.12065387 167:0.13175818 168:0.26290792 169:0.5295406 170:-0.3448762 171:0.62603992 172:0.99233121 173:0.40207401 174:-0.60647327 175:0.1836098 176:0.064060412 177:-0.12975764 178:1.8778155 179:0.3810145 180:-0.29517812 181:-0.14934804 182:-0.20008104 183:0.46213832 184:-0.44306335 185:-0.099696428 186:-0.56023473 187:-0.2366797 188:-0.7259565 189:0.10816517 190:0.66079146 191:0.2012423 192:1.1162376 193:0.81903505 194:0.23228505 195:0.37153962 196:0.1925465 197:0.070825167 198:0.98874205 199:0.5200237 
1 0:-0.60435528 1:-0.42882338 2:-0.46661654 3:-0.23188163 4:0.34220499 5:-1.1083516 6:-0.87543297 7:-1.2333362 8:-1.0888586 9:-1.0620263 10:0.045146707 11:-1.1714079 12:-0.50870389 13:-1.4915624 14:-0.12941435 15:-0.32061705 16:-1.2808989 17:-0.57628042 18:0.6338501 19:-0.20953152 20:3.2321856 21:2.9256644 22:-0.57727665 23:1.2859967 24:-1.2021673 25:-0.48049179 26:-0.59527391 27:-1.1577125 28:-0.27571115 29:-0.31517854 30:0.72263861 31:1.0006698 32:0.12764204 33:-0.26484799 34:-0.42762765 35:0.087214001 36:-0.18577319 37:0.1634426 38:0.13483769 39:-0.71849704 40:-0.63701433 41:0.93873847 42:-0.36706844 43:-0.41251087 44:-0.028619077 45:0.10359608 46:-0.62714291 47:-0.80330271 48:-0.89131278 49:-0.66815829 50:-0.1965894 51:-0.50905949 52:-1.3626668 53:-0.50103849 54:-1.273281 55:-0.29401323 56:0.19116029 57:-0.23261051 58:0.5695411 59:0.21359448 60:0.57014048 61:0.41282138 62:-0.172665 63:-0.1458728 64:-0.1389484 65:0.46731538 66:0.18422231 67:-1.1821837 68:0.54845899 69:0.16816878 70:-0.68308419 71:0.79240686 72:-0.47641268 73:-0.95463079 74:0.15918037 75:-0.80452728 76:-0.13548462 77:0.38461745 78:-0.22407293 79:0.3321712 80:0.45011342 81:0.016182858 82:-0.47241044 83:-0.1406738 84:-1.7082232 85:0.094532587 86:1.0377709 87:-0.38520241 88:-0.4975284 89:-0.12537614 90:-0.35747829 91:0.13493922 92:-0.99614424 93:0.29945284 94:-0.1636849 95:-1.2692366 96:-0.3384248 97:-0.29381123 98:-0.32975602 99:-0.098847605 100:-1.0876755 101:-0.21546245 102:-0.30351865 103:-0.29245147 104:-0.31109956 105:0.34670424 106:-0.80387157 107:-0.85043854 108:0.048111945 109:-0.78862822 110:-0.65773767 111:0.33899093 112:-0.3107518 113:0.070448563 114:-0.5433147 115:-0.66499996 116:-0.78349203 117:-1.2738081 118:-0.3501218 119:0.37278476 120:0.11467198 121:-1.2322598 122:0.23612477 123:0.38104299 124:-0.2087381 125:-1.4699012 126:-0.58098876 127:-0.09269651 128:-1.3115143 129:-1.7013494 130:0.9462502 131:0.017555794 132:-0.21703821 133:-0.96884888 134:-0.48415625 135:-0.29280859 136:0.38701004 137:-0.39234766 138:-0.044788253 139:-0.13847877 140:-0.07359571 141:-0.26055184 142:0.10675248 143:-0.042745348 144:-0.16986705 145:-0.59627938 146:-1.5646629 147:-0.28185549 148:-0.43374255 149:-1.0130923 150:-0.49803281 151:0.15591514 152:-0.86961043 153:-0.34063214 154:-0.42095351 155:-0.078491308 156:-0.65118837 157:-0.096935399 158:-0.23030032 159:-0.2908718 160:-0.38738996 161:0.17025629 162:-0.26392409 163:0.46411818 164:-0.34741855 165:-0.37661302 166:-0.59828728 167:-0.48757431 168:-0.58900589 169:-1.0164837 170:-0.33221933 171:-0.54401612 172:-0.11727557 173:0.16037001 174:-0.6256234 175:-0.44379035 176:0.064195894 177:-0.89627129 178:1.3485469 179:0.83469975 180:-0.49995014 181:-0.066768944 182:-0.8319599 183:0.36656287 184:-0.63614631 185:-0.56451088 186:-0.69559515 187:-0.38887295 188:-1.1268469 189:-0.92968816 190:-0.97687286 191:-0.49955505 192:0.78599536 193:-0.665896 194:0.037999671 195:-0.37681478 196:-0.44636971 197:-0.42650607 198:-0.66591221 199:-0.039442364 
1 0:0.24978256 1:0.24134594 2:-1.7473305 3:-0.41519383 4:0.33791974 5:-1.6150564 6:-1.5558103 7:1.9109725 8:-1.6371509 9:-1.1443769 10:-0.61865979 11:-0.89189547 12:0.31143168 13:1.8226135 14:-0.99283391 15:0.32041213 16:-1.0970361 17:0.60421705 18:-0.81834221 19:0.41651532 20:-1.6452837 21:0.53830343 22:0.18262711 23:-2.2292099 24:0.21594733 25:-0.59842974 26:1.2551099 27:2.9796948 28:0.39915892 29:0.28925824 30:0.5346058 31:-1.8218929 32:1.1235502 33:0.23665471 34:0.24774131 35:-0.32780585 36:1.145758 37:0.46655557 38:-1.5272608 39:0.023088062 40:-1.5555789 41:-1.6354569 42:0.40425155 43:0.30485713 44:0.37459263 45:0.51783049 46:0.91086972 47:-1.3495052 48:-1.7611431 49:0.13507593 50:0.4208681 51:0.3514511 52:-0.79259247 53:-1.6087204 54:-1.8089857 55:0.20508543 56:-1.7526542 57:0.43342766 58:-1.5640491 59:-0.34274173 60:-0.88445246 61:-1.4812365 62:0.45375308 63:0.42181373 64:0.44240487 65:0.257348 66:1.0938073 67:0.92095631 68:-1.7879032 69:-0.98969674 70:-1.6728318 71:0.072962329 72:-1.4292381 73:-1.6782887 74:0.54401779 75:0.71637887 76:-1.4321511 77:-1.5584933 78:-1.3642913 79:-0.28032881 80:-1.2539898 81:-0.79773664 82:0.392492 83:0.40967706 84:-0.17011452 85:-2.0924931 86:0.22236693 87:-0.46403927 88:-0.78756553 89:0.074858814 90:0.40812442 91:0.3397021 92:0.90157551 93:-0.055483751 94:-1.1595279 95:-1.4893821 96:-1.4597143 97:-1.4981217 98:0.54731011 99:1.2572825 100:-0.19910234 101:0.75707799 102:0.14886996 103:-0.85923445 104:0.12303806 105:0.06662593 106:-1.229135 107:-1.3652803 108:-1.5971172 109:0.39532623 110:0.69407779 111:-0.28868064 112:-1.6263002 113:0.94711429 114:1.0357801 115:1.4549266 116:-0.10510866 117:-1.7991946 118:0.40109715 119:-1.6026467 120:-0.93268913 121:0.0043048915 122:0.3321996 123:-0.93882078 124:0.10443854 125:-1.501851 126:0.093178421 127:0.30502978 128:-1.2214091 129:1.6102113 130:-1.9254501 131:-1.436337 132:0.41208285 133:0.43626994 134:-0.96073997 135:0.059254766 136:0.16065098 137:0.53628385 138:0.56787765 139:0.35947272 140:-0.033908922 141:0.37580264 142:0.33737788 143:0.21675619 144:0.43029469 145:-0.26351461 146:-1.1597441 147:-0.021863913 148:1.2325096 149:0.2409296 150:-0.47807702 151:-1.8442386 152:-0.71721345 153:1.0594835 154:1.1309942 155:0.19174695 156:1.0091124 157:1.1166332 158:0.24015471 159:0.40449086 160:0.40407866 161:-0.011995701 162:0.46363962 163:-1.9778998 164:-0.18756539 165:0.56529689 166:0.88407242 167:0.47300944 168:0.55281168 169:1.3192661 170:1.0901926 171:-1.6909757 172:-1.623347 173:0.33638272 174:0.61039096 175:-0.74956959 176:-0.60453141 177:0.47590885 178:1.919583 179:-0.98459798 180:1.3716127 181:-0.82870519 182:-1.7254019 183:-0.28254032 184:-0.52626002 185:-0.92439449 186:1.2466766 187:1.11027 188:1.4880964 189:0.41307005 190:0.29609424 191:0.5862273 192:-1.6999906 193:-1.7097594 194:-1.253265 195:0.20693174 196:0.49798051 197:0.1845964 198:-1.539127 199:-1.7170277 
0.01543227023054255 0:0.62605602 1:0.62688088 2:1.1988108 3:0.45525828 4:0.96792626 5:1.3025932 6:0.91378158 7:1.4753987 8:1.601403 9:1.5263801 10:1.3671361 11:1.9616566 12:0.54075575 13:1.9544252 14:1.2670593 15:0.52104473 16:1.3056016 17:0.62412208 18:1.241997 19:0.9919247 20:0.91205633 21:0.62002212 22:0.7248109 23:1.3516227 24:2.1819594 25:0.89234823 26:0.57632411 27:1.1513528 28:0.53837073 29:0.58195806 30:1.260675 31:6.5700655 32:1.0787933 33:0.61779284 34:1.0189849 35:0.80937535 36:1.3431745 37:1.2004679 38:0.57570881 39:2.0882807 40:1.2329419 41:1.8947886 42:0.54485118 43:0.50973576 44:0.52488708 45:0.60129184 46:2.0648599 47:1.4202688 48:1.2983942 49:0.23884411 50:0.5388701 51:0.53600782 52:0.89959538 53:0.96006495 54:0.5679704 55:0.77620476 56:1.360356 57:0.56319273 58:1.1994607 59:0.3226746 60:1.2250074 61:1.0963874 62:0.53312379 63:0.51782805 64:0.53387743 65:0.57076591 66:1.2930539 67:1.1007738 68:1.3787737 69:1.2624307 70:1.3402989 71:0.60594141 72:0.93868095 73:1.5311009 74:0.63246393 75:0.73554534 76:0.7094062 77:-0.021325503 78:0.57112086 79:1.0565345 80:1.0213819 81:1.3267229 82:0.56927341 83:0.52304167 84:1.4325302 85:0.97439039 86:1.6759329 87:1.6760024 88:1.3112139 89:1.1727412 90:0.5342983 91:0.55075091 92:0.72181672 93:0.60359645 94:1.3918809 95:1.8290378 96:1.9224563 97:1.8497937 98:1.0384333 99:0.93637592 100:1.7309978 101:1.3118535 102:0.61184061 103:1.6108479 104:0.73148721 105:0.8713116 106:1.5521455 107:1.5104877 108:1.5356554 109:0.62051779 110:1.0313611 111:1.1018307 112:0.58497417 113:1.0770968 114:0.98660046 115:0.97609973 116:0.38587984 117:1.0922768 118:0.51598173 119:1.6840503 120:1.5617149 121:1.7097239 122:0.53300065 123:1.0934769 124:0.7212469 125:1.3231952 126:1.2779493 127:0.77219814 128:1.6735389 129:1.4318293 130:1.2320185 131:1.6962526 132:0.54241061 133:0.64588219 134:0.32878461 135:1.8498744 136:0.55111349 137:0.82616621 138:0.79197127 139:0.52325171 140:0.72558427 141:0.52057838 142:0.6040774 143:0.50850815 144:0.53559589 145:2.0266547 146:2.0861852 147:1.4172403 148:2.0094886 149:0.90880227 150:1.167532 151:2.5738964 152:2.1337531 153:1.7915922 154:0.84003484 155:0.83220595 156:1.2572365 157:0.91248119 158:0.69578969 159:0.59239346 160:0.71653181 161:0.78840089 162:0.5447787 163:1.2329886 164:1.497866 165:1.1527189 166:1.0025259 167:0.55166453 168:0.55817354 169:1.4713081 170:1.2374142 171:1.4557956 172:1.2458771 173:0.50700915 174:0.99049467 175:1.3680029 176:1.2849331 177:1.8005589 178:1.3838446 179:1.5467441 180:0.98733252 181:1.1164014 182:1.112765 183:0.91558141 184:1.5832531 185:0.89696443 186:1.102156 187:1.3396791 188:0.65385932 189:1.0092129 190:1.029458 191:0.94174385 192:1.1997144 193:1.5242877 194:1.6206859 195:0.76489836 196:0.58474225 197:0.82908982 198:1.4498309 199:1.357524 
0.6256572519908052 0:0.54695737 1:0.48077288 2:-0.52678007 3:0.13401681 4:0.58469999 5:-0.55344552 6:0.73427552 7:-0.92828816 8:0.17885427 9:0.61558801 10:0.20213638 11:-0.10469388 12:0.5101549 13:-0.59961337 14:0.56465793 15:0.4908478 16:3.1883869 17:0.35978293 18:0.12476194 19:-0.063868687 20:0.17175432 21:0.86221254 22:0.4001537 23:0.67605841 24:-0.52541882 25:0.057223931 26:0.3693141 27:-1.0369295 28:0.52577382 29:0.52813774 30:0.83197087 31:-0.13195013 32:5.6352634 33:0.51272595 34:0.91543841 35:-0.024651431 36:-0.59412962 37:0.51002532 38:-0.011231884 39:-0.46145138 40:-0.033148538 41:-0.60959423 42:0.52734345 43:0.50721818 44:0.50568157 45:0.59022415 46:-0.57662559 47:0.49123907 48:0.76967043 49:0.023384003 50:0.47864822 51:0.52301723 52:-0.54044062 53:-0.0062067104 54:0.85304362 55:0.50252932 56:-0.49868342 57:0.51057601 58:0.17418155 59:0.13536024 60:-0.049873687 61:-0.36608714 62:0.50905883 63:0.51950306 64:0.50635105 65:0.62583226 66:-1.2112952 67:-0.61424422 68:0.75979668 69:-0.23551488 70:1.1488968 71:0.62791491 72:0.034052983 73:0.71786529 74:0.61923677 75:0.50300747 76:-0.17190664 77:-0.059661075 78:-0.22639155 79:0.72046775 80:0.52327245 81:0.88043481 82:0.50541192 83:0.49061796 84:0.065401599 85:0.092704713 86:0.32364067 87:-0.10999313 88:-0.024712779 89:0.059289489 90:0.51152098 91:0.48070669 92:-0.65265495 93:0.71121818 94:0.52069694 95:-0.5316174 96:-0.7492311 97:-0.49488851 98:0.52497548 99:0.089328073 100:0.16153717 101:0.14708549 102:0.54337287 103:-0.14376701 104:0.85222894 105:0.39014587 106:0.59892076 107:0.56840456 108:-0.50816917 109:0.49300918 110:-0.63984603 111:0.50025523 112:0.52384019 113:0.77102041 114:0.59492195 115:-0.59916419 116:0.22045317 117:0.3554115 118:0.47277969 119:1.9450728 120:0.44022641 121:0.14389777 122:0.56818867 123:-0.14054628 124:0.41727647 125:0.59990108 126:0.084689513 127:0.530707 128:-0.25464815 129:0.75629854 130:1.3295156 131:-0.67959309 132:0.45328036 133:0.24995744 134:-0.07864169 135:-0.24574086 136:0.49645928 137:0.37516665 138:-0.053179517 139:0.58044964 140:0.84213477 141:0.52304548 142:0.40102234 143:0.47492611 144:0.51325285 145:0.22922844 146:0.18908276 147:-0.20822632 148:-0.19952956 149:-0.088069133 150:0.30371693 151:-0.55101705 152:0.13688464 153:-0.16923007 154:-0.15969197 155:0.36728328 156:-0.84769934 157:-0.79346007 158:0.4860101 159:0.52694559 160:-0.0063409898 161:0.49952236 162:0.52442908 163:1.4769397 164:-0.67358446 165:-0.48585984 166:-0.284509 167:0.40822905 168:0.42089081 169:-0.76739198 170:-0.11677206 171:0.088495627 172:0.90199018 173:0.51029092 174:-0.74857384 175:0.19421828 176:-0.26000273 177:-0.34088743 178:-0.35844481 179:1.6843302 180:-0.96645045 181:1.0022236 182:-0.56477427 183:0.38828292 184:-0.72890866 185:0.010598256 186:-0.29896879 187:-0.82974935 188:-0.5339849 189:0.35550863 190:0.16988662 191:0.34864533 192:-0.13653755 193:-0.58594126 194:0.39450327 195:0.63601738 196:0.45808926 197:0.43305466 198:0.30785537 199:0.049588889 
1 0:0.44920218 1:0.54818559 2:-0.87190074 3:0.056776423 4:0.54379731 5:-0.97180849 6:-0.61045486 7:-1.055167 8:-1.0572382 9:-0.488388 10:-0.10071817 11:0.73316038 12:0.32646054 13:1.1365538 14:-0.1291303 15:0.35292876 16:0.8443557 17:0.45923865 18:-0.31554618 19:0.17952907 20:-0.53278649 21:0.62556458 22:0.52121586 23:-1.3489529 24:0.68263757 25:0.74879819 26:0.38902971 27:-1.0444232 28:0.35425216 29:0.60263246 30:0.66725028 31:-0.51840782 32:-0.65990102 33:0.4834587 34:1.5094398 35:5.7910957 36:-0.73693991 37:-0.18763806 38:0.23719159 39:-0.36956033 40:-0.32909814 41:-1.3367395 42:0.37093708 43:0.38630334 44:0.34111783 45:0.47956178 46:-0.69098169 47:-0.1705731 48:-0.7284835 49:0.88424867 50:0.33046681 51:0.38271052 52:0.24803458 53:0.45147783 54:-0.03937706 55:0.088035509 56:-1.3470911 57:0.46794313 58:-0.93252248 59:-0.50800592 60:-0.26485193 61:-1.0132517 62:0.35853201 63:0.38502693 64:0.33522192 65:0.4475157 66:-0.98422664 67:-0.29027209 68:-0.82210988 69:0.095349282 70:-0.67467874 71:0.29413855 72:-0.77811259 73:-0.55256349 74:0.50759387 75:0.48472974 76:0.53642529 77:-0.27151677 78:-0.2623125 79:0.45768788 80:-0.54389471 81:0.14015026 82:0.35550886 83:0.35793957 84:-0.75553471 85:0.41840419 86:0.45059878 87:0.19674465 88:-0.46336332 89:-0.23512106 90:0.30708438 91:0.38421246 92:-0.75046033 93:0.24890892 94:-0.57957131 95:-0.61494023 96:-1.060344 97:-1.1618766 98:0.13919124 99:-0.34151167 100:-0.26954716 101:-0.052355204 102:0.37451917 103:-0.44014439 104:0.43540552 105:0.35137844 106:-0.80206347 107:-0.50551707 108:-1.2417089 109:0.35711816 110:-0.94121522 111:0.28196421 112:0.20236091 113:0.17864335 114:-0.050618429 115:-1.3100895 116:-0.0557901 117:-0.53341001 118:0.36519116 119:1.0174843 120:-0.34537712 121:-0.090800703 122:0.56620145 123:-0.056901414 124:0.61979604 125:-0.17555818 126:0.78461188 127:0.48988751 128:-0.70075876 129:0.4844456 130:-0.85864949 131:-1.0381752 132:0.46498612 133:0.33967042 134:0.19384681 135:1.2721796 136:0.47509989 137:0.27008542 138:-0.50631881 139:0.35188776 140:0.5047971 141:0.40288442 142:0.46637887 143:0.38504103 144:0.32751191 145:0.90772426 146:-0.54927236 147:-0.41321576 148:-0.75748259 149:0.84790194 150:0.15317883 151:-0.08080171 152:0.53156817 153:-0.24349454 154:0.4000276 155:0.21029384 156:-1.0134866 157:-0.89621389 158:0.60619426 159:0.30149132 160:-0.78045911 161:0.67987984 162:0.30928433 163:-0.68764669 164:-0.46459326 165:-0.42632741 166:-0.60042244 167:0.28341219 168:0.37813637 169:-0.58735424 170:-0.77111703 171:-1.1215287 172:0.47253436 173:0.47148249 174:-1.2547362 175:0.30350941 176:0.98687881 177:-0.53195345 178:0.30463523 179:1.1301618 180:-0.82863635 181:-0.12787101 182:-0.81347257 183:0.20965426 184:-0.047013495 185:0.45224217 186:-0.98881781 187:-1.2146841 188:-1.041495 189:0.30783066 190:0.68243247 191:0.034775849 192:-0.78733134 193:-0.79452848 194:-0.28726169 195:-0.19461127 196:0.33047897 197:0.42252332 198:-0.78499484 199:-0.91634727 
1 0:0.32255623 1:0.50757861 2:-1.6300766 3:-0.22058748 4:0.29993075 5:-1.6003758 6:-1.2919481 7:0.31868389 8:-1.4655029 9:-1.1743784 10:-0.23658998 11:-1.6194108 12:0.31482816 13:-1.1995199 14:-0.79215854 15:0.20082112 16:-1.1850325 17:0.59441525 18:-0.209216 19:0.051777624 20:-1.6088266 21:0.40452996 22:0.3980487 23:-2.1121778 24:-1.9060627 25:-0.2218518 26:0.56341475 27:1.503078 28:0.32152739 29:0.39041677 30:0.48075214 31:-0.85920823 32:0.1901264 33:0.30731419 34:0.018248308 35:-0.050650269 36:1.8376038 37:0.70792907 38:-1.4268638 39:-0.78263056 40:-0.42449725 41:-1.6505028 42:0.31897566 43:0.26912993 44:0.18951079 45:0.34234288 46:1.0056381 47:-1.257688 48:-1.7726994 49:-0.66336685 50:0.33912981 51:0.32599443 52:-0.91808021 53:-1.349128 54:-1.7300426 55:0.37808731 56:-1.7082703 57:0.36183766 58:-1.6060556 59:-0.88654798 60:-0.95851195 61:-1.260832 62:0.26410386 63:0.24174283 64:0.2527054 65:0.31762311 66:-0.06461487 67:1.0608958 68:-1.6140589 69:-0.82417113 70:-0.88756275 71:-0.064439103 72:-1.1552347 73:-1.5972748 74:0.457064 75:0.53155661 76:-0.55060154 77:-1.0567954 78:-1.3366971 79:-0.096064851 80:-0.96485573 81:-0.57609165 82:0.33396384 83:0.33278516 84:0.19548726 85:-1.9849354 86:-0.023342518 87:-0.201857 88:-0.287489 89:0.50707507 90:0.38168219 91:0.27093884 92:0.3787466 93:-0.38414383 94:-0.87719941 95:-1.6805124 96:-1.1228704 97:-1.4477915 98:0.63596088 99:0.82192904 100:-0.62167281 101:-0.084867314 102:0.21256715 103:-0.76789778 104:0.20098728 105:0.28134766 106:-1.7697445 107:-1.359557 108:-1.4802769 109:-0.098606877 110:0.18221734 111:-0.3250823 112:-1.1820121 113:0.38204429 114:1.1264836 115:1.8003068 116:-0.71270466 117:-1.6576289 118:0.34276912 119:-1.4372665 120:-0.75895971 121:-1.2870269 122:0.1075754 123:-0.80883843 124:0.16275041 125:-0.45138088 126:-0.93662846 127:0.49356571 128:-0.76587313 129:-1.5160514 130:-1.8408488 131:-1.1855078 132:0.43579492 133:0.73451006 134:-1.324139 135:-0.19677411 136:0.04868279 137:0.49272168 138:-0.034791652 139:0.19537024 140:-0.16694382 141:0.22023553 142:0.39277709 143:0.32801393 144:0.33254087 145:-0.089667946 146:-1.7227288 147:-0.7933979 148:0.58145523 149:-0.3822014 150:0.27591798 151:-1.8700562 152:-1.7296546 153:1.4052683 154:-0.12628001 155:0.11994345 156:0.88153464 157:0.330722 158:0.33955324 159:0.44995973 160:-0.4132292 161:0.34140816 162:0.32026482 163:-1.8872303 164:-0.23687664 165:1.0004264 166:0.31304073 167:0.50083023 168:0.50559038 169:-0.064493604 170:0.3440139 171:-1.3837023 172:-1.2549064 173:0.16188589 174:0.23405308 175:-0.79900873 176:0.4943229 177:1.0110477 178:-0.12989599 179:-0.99275625 180:0.94496846 181:-1.0962119 182:-1.4277904 183:-0.12165389 184:-0.072171107 185:-1.7033664 186:1.0805041 187:1.4486266 188:0.23609097 189:0.73491234 190:0.58005726 191:1.0477706 192:-1.7598385 193:-1.3521992 194:-0.66435796 195:-0.28197503 196:0.48196071 197:0.40851036 198:-1.1403089 199:-1.4263014 
0.003135435048319859 0:0.335908 1:0.39751145 2:0.16676645 3:0.56531894 4:0.21333598 5:0.68878406 6:0.49815536 7:-0.14289917 8:0.25147292 9:0.29643044 10:-0.2445996 11:1.3532571 12:0.23741406 13:0.79981059 14:-0.38193566 15:0.2566084 16:0.90375948 17:0.10919566 18:0.055824328 19:0.3874841 20:0.65312839 21:0.69221115 22:0.30231321 23:1.0051929 24:0.5349589 25:1.5733002 26:0.10832255 27:-0.31155396 28:0.27051765 29:0.30015096 30:0.4645648 31:0.68001086 32:0.55675298 33:0.42362893 34:0.4748112 35:0.6027137 36:-0.5670557 37:0.77505094 38:1.7069657 39:0.66293865 40:0.1861572 41:0.12494811 42:0.26396048 43:0.35055861 44:0.12378516 45:0.20445706 46:-0.1962578 47:1.4229138 48:2.3309014 49:10.481751 50:0.25391823 51:0.26139387 52:0.26605016 53:1.1520013 54:0.38594189 55:0.6821925 56:1.2035376 57:0.32653981 58:0.38964587 59:1.1770844 60:0.010139097 61:0.1752274 62:0.26220086 63:0.2439789 64:0.25637245 65:0.41302156 66:0.40313843 67:0.28512937 68:0.42261955 69:0.11658791 70:0.91496623 71:1.065681 72:0.035160843 73:-0.15053482 74:0.37759504 75:0.33315977 76:0.76394087 77:1.4802651 78:0.65354204 79:0.76154685 80:0.50105542 81:0.15589115 82:0.38215104 83:0.22123587 84:0.84731823 85:2.1598496 86:0.23599431 87:1.2954795 88:0.89574856 89:-0.25289047 90:0.20825119 91:0.297813 92:0.2134013 93:1.7910633 94:0.39507675 95:0.40321648 96:1.006784 97:-0.10283875 98:0.043492302 99:-0.18333201 100:0.91532516 101:0.03570307 102:0.27295285 103:-0.30769062 104:0.87062091 105:0.32017484 106:0.26679301 107:-0.14570822 108:-0.0096711908 109:0.18112925 110:0.2255455 111:0.28196421 112:0.88517499 113:0.69450819 114:-0.4587158 115:-0.4650993 116:0.72031778 117:1.1250752 118:0.17911741 119:1.1805977 120:2.0313873 121:1.2047105 122:0.22889401 123:0.29604807 124:0.49472165 125:0.93104255 126:1.924902 127:0.14131591 128:0.18988308 129:0.99580622 130:0.4278495 131:0.40329045 132:0.43458503 133:0.52702528 134:0.93133414 135:1.7847202 136:0.43704122 137:0.35083982 138:1.7051218 139:0.43825927 140:0.20334738 141:0.23800622 142:0.41991946 143:0.27406624 144:0.22834149 145:0.53089768 146:0.30654961 147:0.82408851 148:-0.18125333 149:0.78528613 150:0.69111532 151:1.4400129 152:1.4049722 153:0.29701379 154:-0.35772794 155:0.46792158 156:-0.10270602 157:0.0096020289 158:0.31777617 159:0.1578051 160:1.0165316 161:0.92541713 162:0.2369249 163:0.27833226 164:0.70882308 165:1.284664 166:0.13057634 167:0.051936954 168:0.18139122 169:0.14717329 170:0.62124658 171:0.52032429 172:1.146124 173:0.35119492 174:-0.20113371 175:-0.25644091 176:2.2229104 177:-0.50109547 178:1.2110516 179:1.1474299 180:-0.20480213 181:0.6950596 182:0.25929549 183:0.18050988 184:0.83055335 185:0.9801001 186:0.073214203 187:-0.0067824433 188:0.71480995 189:0.24210913 190:0.028992528 191:-0.19646968 192:0.8423456 193:0.51794255 194:-0.052870441 195:0.79058915 196:0.10420208 197:0.28801772 198:0.22171012 199:-0.0046776114 
1 0:0.50961161 1:0.66226208 2:-0.27336115 3:0.49670583 4:-0.052246001 5:0.76609874 6:-1.2808316 7:-1.0518254 8:-0.0075176619 9:-0.68473035 10:-0.059462514 11:-0.39448729 12:0.47171536 13:-0.88016284 14:-0.33536956 15:0.46016723 16:-0.72298419 17:0.38966757 18:-0.4308812 19:0.20311299 20:0.75963205 21:0.53089315 22:0.14369622 23:-0.82062912 24:-0.79609716 25:-0.66708964 26:0.44004178 27:-0.67691505 28:0.52505583 29:0.50823182 30:0.36037835 31:-0.54820675 32:0.22223061 33:0.52887619 34:0.40912676 35:0.38813293 36:-0.37869292 37:0.42726794 38:0.73633105 39:0.25535944 40:-0.83305115 41:-0.82936722 42:0.4605009 43:0.47162208 44:0.44622087 45:0.37280351 46:0.26548672 47:-0.56818533 48:0.17628495 49:-0.18283109 50:0.45400503 51:0.41300279 52:-0.058560509 53:1.093455 54:-1.5265884 55:0.76208985 56:3.790683 57:0.78092122 58:-1.0593163 59:-0.72109503 60:-0.22526427 61:-0.71104342 62:0.48049015 63:0.4750143 64:0.48383158 65:0.30019686 66:-0.45788759 67:-0.33566934 68:0.28481829 69:-0.55933851 70:-1.3855457 71:0.35759541 72:-0.42979208 73:-1.4785498 74:0.29435337 75:0.56151354 76:-0.75228089 77:-1.2161946 78:-0.84124434 79:0.33717668 80:0.19300883 81:-0.21518037 82:0.44102117 83:0.42886451 84:-0.17783143 85:1.1951987 86:0.14693251 87:-0.68961602 88:-1.0138513 89:-0.0059137563 90:0.5090068 91:0.45320478 92:-0.82672644 93:0.58538139 94:-0.34704429 95:-0.10649353 96:0.40271595 97:1.8961779 98:0.67705309 99:0.57587552 100:0.12771925 101:-0.2141961 102:0.47020021 103:-0.055512138 104:0.54587001 105:0.31172246 106:-0.98496175 107:-0.88475835 108:0.32718226 109:0.45643896 110:-1.2538118 111:0.20695706 112:-1.0663934 113:0.54694796 114:0.57925504 115:-0.24971133 116:-0.76232129 117:-0.9974283 118:0.45477411 119:-0.1250312 120:-0.96081388 121:-1.6048837 122:0.43279964 123:-0.55278212 124:0.56683421 125:-1.6105589 126:-0.32728085 127:0.4855364 128:-1.0027099 129:-1.3708394 130:0.14751104 131:0.48758268 132:0.2499361 133:0.42201841 134:-0.70656466 135:0.10580369 136:0.55867779 137:0.4674342 138:-1.2283498 139:0.47443044 140:0.20798029 141:0.4675608 142:0.37355694 143:0.422077 144:0.49288517 145:-0.489476 146:-1.2448951 147:-0.51505315 148:0.095660739 149:-0.43002251 150:-0.022272363 151:0.53700113 152:-0.44150957 153:-0.54653442 154:-0.36985669 155:0.56811583 156:-0.7494508 157:-0.25495458 158:0.50141984 159:0.44655907 160:-0.23444816 161:0.40554598 162:0.5199489 163:0.24640375 164:-0.71544021 165:0.0086860461 166:-0.81977594 167:0.49885496 168:0.45830679 169:-0.71985686 170:-0.66737008 171:-0.45369044 172:0.67344695 173:0.4800618 174:-1.1091201 175:-0.092163451 176:-1.1010678 177:-0.43370804 178:0.047820441 179:-0.3213504 180:-0.70048076 181:-0.50497681 182:0.98723918 183:0.39363936 184:-0.18437456 185:-0.53833479 186:-0.0077958577 187:-0.63198745 188:-1.2710819 189:0.25039747 190:0.55409133 191:0.52758831 192:-1.4169523 193:0.14088646 194:-0.60868365 195:0.17129396 196:0.48380589 197:0.26069155 198:-0.94835263 199:-0.4501026 
1 0:0.09602502 1:-0.089926459 2:1.0759305 3:0.48204941 4:0.026845858 5:1.001454 6:0.24369255 7:1.4599203 8:0.68689901 9:-1.5597484 10:-0.57910174 11:-0.96565437 12:0.19113584 13:-0.66745692 14:-0.06413909 15:0.15709949 16:0.085246235 17:0.26300958 18:-0.078038119 19:-0.20063566 20:0.14493014 21:-0.012914586 22:-0.93733907 23:0.053680178 24:-0.81304467 25:2.0890067 26:0.058060635 27:0.63700831 28:0.26645696 29:0.022729343 30:-0.3490243 31:0.11720087 32:0.97902036 33:0.20549372 34:-0.42443103 35:0.2230143 36:0.86155933 37:0.035415091 38:0.26003307 39:1.085982 40:0.58587492 41:0.2078348 42:0.25514731 43:0.091254339 44:0.29850325 45:0.28584275 46:0.98260313 47:-0.21659836 48:-0.38183117 49:0.51474422 50:0.28853795 51:0.069796823 52:-0.72027904 53:0.64879274 54:0.71887922 55:-0.19483963 56:0.34364492 57:0.29085076 58:3.1448503 59:9.2844629 60:0.64344347 61:0.3096092 62:0.23645495 63:0.20788138 64:0.39981845 65:-0.023614658 66:0.35048077 67:1.6841685 68:0.34995878 69:0.28838691 70:-0.62538087 71:0.411127 72:0.46936515 73:0.042234719 74:0.079453819 75:0.055666886 76:0.94488925 77:-0.10840604 78:0.41205299 79:0.079424635 80:-0.20402083 81:-0.62477338 82:0.17013714 83:0.16518103 84:-0.48920655 85:-0.35790265 86:0.31224149 87:-0.50406647 88:-1.0605738 89:-1.3491523 90:0.27711919 91:0.20633224 92:-0.098434106 93:0.87225634 94:0.19826961 95:-0.85045302 96:-0.35624111 97:1.3083558 98:0.34135309 99:1.2308325 100:1.0475562 101:-0.78811735 102:-0.02104114 103:0.27772593 104:0.72920495 105:0.04940011 106:0.57040334 107:0.064010955 108:0.42239898 109:0.19443361 110:0.4825106 111:-0.30442229 112:1.5515146 113:0.52557361 114:0.67317951 115:0.59823197 116:2.1411669 117:-0.59590018 118:0.30397543 119:-1.2660091 120:1.1606985 121:1.677253 122:0.097415633 123:0.24432622 124:-0.20915499 125:0.1991208 126:-0.79543757 127:0.34106994 128:0.49168283 129:1.5509032 130:-0.50448895 131:1.3301082 132:0.086487003 133:0.03711554 134:-0.098872349 135:1.2985505 136:-0.031138908 137:0.13721158 138:-1.0433915 139:0.068783946 140:0.14146663 141:0.37262732 142:0.068804838 143:-0.051317718 144:0.25761804 145:-0.43106669 146:-1.686469 147:-0.25565666 148:1.1120639 149:1.8903346 150:-0.48523232 151:0.15370695 152:-0.12898172 153:0.62846816 154:0.57139039 155:0.61001199 156:0.49217236 157:0.45483255 158:-0.066442318 159:0.15463215 160:1.0359457 161:0.57939327 162:0.23331715 163:0.11393872 164:1.1239122 165:-1.2698753 166:0.33987018 167:0.14003225 168:0.29058081 169:1.9907596 170:0.81631172 171:-0.39374244 172:-0.57855296 173:0.016303893 174:-0.021480082 175:-0.43382192 176:-0.11350778 177:-0.066245086 178:0.18252397 179:-0.25001678 180:0.56146079 181:-0.45620507 182:0.65017885 183:0.076160237 184:-0.56027883 185:1.1238925 186:0.64984882 187:0.84984386 188:-0.022886423 189:-0.28241256 190:-0.74336976 191:-0.34189597 192:-0.19325358 193:0.4396567 194:-0.074919902 195:-0.44058371 196:0.12593499 197:0.12108874 198:0.72497046 199:1.2748449 
1 0:0.5997932 1:0.7436474 2:0.57547086 3:0.92139041 4:0.69894874 5:0.04542727 6:0.38410139 7:-0.21216735 8:0.39174959 9:0.99988955 10:0.96155077 11:0.33784032 12:0.52052271 13:2.1715996 14:0.95101714 15:0.61673391 16:-0.12720908 17:0.56903726 18:1.3639787 19:1.5710289 20:0.53247064 21:0.71056145 22:0.75076234 23:-0.16526608 24:0.52716708 25:0.40587619 26:0.63401747 27:0.3497836 28:0.52123451 29:0.64647901 30:0.79235321 31:0.35669079 32:0.77663076 33:0.62423658 34:0.57001495 35:0.6412189 36:0.50777894 37:0.93145603 38:0.43644342 39:0.60357553 40:0.59171414 41:-0.42548087 42:0.55280995 43:0.5906924 44:0.55808008 45:0.52299345 46:-0.0067978348 47:0.83470273 48:0.76687968 49:0.35702464 50:0.54521221 51:0.61169755 52:0.4351427 53:1.0260381 54:0.976421 55:0.78304297 56:-0.4965741 57:0.59173417 58:-0.061177358 59:-0.11255206 60:1.327291 61:0.088771977 62:0.56771863 63:0.57465917 64:0.50932074 65:0.77973771 66:0.77552444 67:1.5510354 68:1.2849035 69:0.99326617 70:0.74470651 71:0.96996886 72:0.77580637 73:1.2179612 74:0.56768423 75:0.65671664 76:0.5648616 77:0.7039631 78:0.53452986 79:1.1980733 80:1.6123074 81:1.3171643 82:0.65807527 83:0.53736717 84:0.090797491 85:1.1114916 86:0.98320633 87:0.064377435 88:0.96433997 89:0.89780504 90:0.52247614 91:0.58148485 92:1.7838647 93:1.355562 94:0.81838304 95:0.30546728 96:-0.39785546 97:-0.67215979 98:0.60031015 99:0.6005469 100:0.71458954 101:1.7308737 102:0.61903739 103:0.85091364 104:1.0108887 105:0.70015848 106:0.87907124 107:0.85893184 108:0.14600435 109:0.57324696 110:2.4402544 111:0.91061527 112:1.2614079 113:0.97818357 114:0.39751068 115:0.092061199 116:1.0725431 117:0.61288279 118:0.48440322 119:0.87947863 120:-0.55443072 121:0.012076474 122:0.57456547 123:1.2449443 124:0.77878577 125:1.0218458 126:1.0791488 127:0.58376932 128:-0.1900956 129:0.29210335 130:0.62052983 131:0.89278769 132:0.66897768 133:0.65431517 134:0.45875704 135:0.45324999 136:0.71369076 137:0.70422173 138:0.78605056 139:0.63894153 140:0.69443536 141:0.52495545 142:0.65765953 143:0.55650514 144:0.51923406 145:0.60766053 146:0.46610072 147:-0.19643161 148:0.49676144 149:0.58082598 150:1.2343017 151:0.39378536 152:0.42637083 153:1.4815491 154:1.3696138 155:0.84455007 156:0.5828588 157:0.84715754 158:0.60833097 159:0.53361034 160:0.9695217 161:0.92201561 162:0.53165245 163:1.5764179 164:1.2009397 165:1.6322801 166:1.6018173 167:0.64056897 168:0.53634495 169:0.52360064 170:0.33557835 171:0.42004526 172:1.6545107 173:0.65713882 174:1.5761329 175:0.75732154 176:0.40887532 177:0.65350848 178:0.6250484 179:0.13404013 180:1.6361879 181:1.1298953 182:0.65903378 183:0.79226172 184:1.6107873 185:0.43198413 186:0.98483545 187:0.41798496 188:0.58440042 189:0.77830184 190:0.756791 191:0.74918026 192:-0.15025628 193:0.39474022 194:1.2600356 195:0.48723036 196:0.57102311 197:0.66841573 198:0.63545585 199:0.42872116 
0.8695927845132003 0:0.42969686 1:0.34732673 2:0.40013224 3:0.15793474 4:0.38521323 5:-0.10341568 6:0.057938155 7:-1.3485352 8:-0.70118266 9:-0.87821674 10:0.14468065 11:0.81276011 12:0.44104964 13:-0.73710006 14:-0.054348014 15:0.37478137 16:0.49523488 17:0.44814593 18:0.19978344 19:0.036012791 20:-0.31212711 21:0.41514218 22:0.11967867 23:0.5004285 24:-0.92060763 25:1.62898 26:0.43235245 27:-1.4720508 28:0.49293742 29:0.38176274 30:0.51697403 31:-0.74173069 32:-0.512061 33:0.43226972 34:-0.049803991 35:0.34235784 36:-0.55372959 37:0.07431104 38:-0.52690965 39:-0.3362253 40:-0.37177143 41:-0.50790465 42:0.48619679 43:0.33087236 44:0.41947806 45:0.53726834 46:-0.75659937 47:-0.62343937 48:0.055829488 49:-0.055986445 50:0.5006482 51:0.35708174 52:-0.11411402 53:0.51502186 54:-0.11329336 55:0.21080062 56:-0.71104836 57:0.45530239 58:0.11259498 59:0.13244165 60:0.61764675 61:-0.065003291 62:0.46039772 63:0.47005329 64:0.56712383 65:0.53915489 66:-1.4750667 67:-0.95015895 68:-0.2306367 69:0.27929264 70:0.66198146 71:0.65778577 72:-0.28349423 73:-0.40723512 74:0.51832861 75:0.58174175 76:0.30038506 77:0.051956374 78:0.085295208 79:0.29144958 80:0.093174614 81:-0.11867429 82:0.39749148 83:0.40558857 84:-0.68337446 85:-0.19927327 86:0.10952181 87:-0.94585675 88:-0.74569076 89:0.43489462 90:0.49734226 91:0.43008858 92:-0.91541499 93:0.85707992 94:-0.17421193 95:-0.64466983 96:-1.1921167 97:-0.69197631 98:0.14472529 99:-0.28787902 100:0.61248136 101:-0.42409667 102:0.26274785 103:0.13743821 104:0.40913132 105:0.31498542 106:-0.17177388 107:-0.2971043 108:-0.47121939 109:0.08367306 110:-0.70796734 111:0.13756092 112:0.29318413 113:0.41657263 114:-0.21708076 115:-1.2505732 116:-0.77462214 117:-0.9365921 118:0.41974172 119:0.23629807 120:0.20116027 121:-0.16662642 122:0.43359774 123:0.2609995 124:0.11276756 125:0.048096377 126:-0.66867858 127:0.67321587 128:-0.94282418 129:-0.15047635 130:0.38206634 131:-0.12592591 132:0.4750967 133:0.27052307 134:0.22194192 135:-0.85134023 136:0.59517324 137:0.47402579 138:-1.1852485 139:0.33183998 140:0.1204707 141:0.44753796 142:0.40534285 143:0.34561643 144:0.49319997 145:-0.31280062 146:-0.53531015 147:0.032617841 148:-0.73870933 149:-0.55690134 150:0.66785467 151:0.93843812 152:-0.44406235 153:-0.95828706 154:-0.35800976 155:0.59709406 156:-0.64213812 157:-1.0289222 158:0.37706485 159:0.48348829 160:-0.21393922 161:0.046036627 162:0.52285707 163:-0.3592279 164:-0.12936182 165:-0.57143587 166:-1.2784313 167:0.42599884 168:0.51863307 169:-0.9176321 170:-1.2464983 171:-1.1670761 172:1.0122172 173:0.45200166 174:-1.201455 175:0.40844452 176:-0.64905941 177:-0.54648173 178:-0.70554847 179:0.2775583 180:-1.1001054 181:-0.28446963 182:-0.43396038 183:0.16235119 184:-0.12261364 185:0.65102017 186:-1.3945051 187:-1.3133184 188:-1.3368846 189:0.69912982 190:0.086969316 191:0.17039287 192:1.0452464 193:-0.54693866 194:-0.20165713 195:-1.2664704 196:0.51261836 197:0.55196631 198:-0.35726774 199:-0.30657393 
1 0:-0.10262745 1:0.04226895 2:-0.20688915 3:0.51648968 4:0.28155902 5:-0.026309241 6:-0.6168763 7:1.0349379 8:0.42757612 9:0.39803389 10:0.3601236 11:2.5330117 12:0.12074169 13:1.0120972 14:0.49223986 15:0.16711596 16:-0.628425 17:0.14271346 18:0.18455403 19:1.0119897 20:-0.41029429 21:-0.13381921 22:0.50445044 23:0.071547128 24:-0.12623616 25:0.47413412 26:0.23084377 27:0.94172144 28:0.1417567 29:-0.10827554 30:0.71583313 31:0.42451411 32:0.47939697 33:0.099688962 34:0.29847667 35:0.77546358 36:1.3732562 37:0.21644519 38:-0.97049564 39:0.99274343 40:-0.1539945 41:-0.025380889 42:0.08350376 43:0.11195462 44:0.22999947 45:0.26203626 46:0.81807411 47:0.056404587 48:-0.24510542 49:0.22622761 50:0.052114923 51:0.071099982 52:0.36941826 53:0.097876921 54:0.84450382 55:0.07151299 56:0.72945291 57:0.22248 58:-0.20938581 59:-0.003678224 60:0.40029564 61:-0.012196858 62:0.19641279 63:0.17698528 64:0.24193147 65:-0.076769538 66:1.5408462 67:3.3186271 68:-0.3868933 69:0.41400358 70:-0.49616861 71:-0.25340766 72:0.20428224 73:-0.23529434 74:0.33994389 75:0.057294894 76:-0.098057568 77:-0.17933893 78:-0.36410254 79:-0.29911423 80:0.10854363 81:0.23834971 82:0.065872669 83:0.21942841 84:0.63273543 85:0.69199103 86:0.80030262 87:-0.32705402 88:-0.61550695 89:0.060099747 90:0.11969537 91:0.023048336 92:0.21628542 93:0.21318446 94:-0.30644828 95:-0.14743268 96:0.19629192 97:0.39379027 98:0.7563085 99:0.94849622 100:-0.080806233 101:0.99151886 102:0.10386962 103:0.054444682 104:0.36386639 105:0.10301894 106:-0.10109873 107:0.46470371 108:0.14317636 109:0.24881019 110:-0.030392481 111:0.55083841 112:-0.4357675 113:0.089659303 114:1.2149962 115:1.8019552 116:1.4714752 117:1.0387608 118:0.18129328 119:-0.48824403 120:-0.76548803 121:-0.076017678 122:0.21824741 123:0.36675462 124:-0.0189075 125:-0.7600714 126:-0.58500606 127:0.19900462 128:0.36077568 129:1.0885005 130:0.33958039 131:-0.10666492 132:0.15267579 133:0.36058637 134:0.09447363 135:0.44423127 136:0.1511604 137:0.20196734 138:-0.36269429 139:0.096697628 140:0.2175494 141:0.18867326 142:0.18100032 143:0.18761012 144:0.2486698 145:-0.23361678 146:0.58443075 147:-0.28174347 148:1.5924598 149:0.56604332 150:-0.23265409 151:1.3257067 152:0.52158391 153:0.62427974 154:1.238764 155:0.15707825 156:0.45488212 157:0.9584173 158:-0.099774584 159:0.34564698 160:1.6267165 161:-0.86676478 162:0.12402342 163:-0.34394076 164:0.058057923 165:0.69303328 166:0.51889741 167:0.32350528 168:0.14529818 169:-0.31745657 170:0.9245556 171:0.39416903 172:0.034595806 173:0.10934575 174:0.68137151 175:0.77843773 176:1.1403043 177:0.87634844 178:-0.34471148 179:-0.60834509 180:0.84569228 181:0.28139916 182:-0.49388576 183:0.042126153 184:-0.56990391 185:-0.051150747 186:1.5257144 187:1.3341767 188:0.17935981 189:-0.088526465 190:0.37714267 191:0.86351341 192:0.55919659 193:-0.30256361 194:0.75012928 195:0.46619281 196:0.16273035 197:0.002116634 198:-0.080675863 199:-0.23863244 
1 0:0.069141932 1:0.054493878 2:0.069612868 3:0.68721634 4:0.51906443 5:-0.022983834 6:-0.68151194 7:-0.10900262 8:0.61527246 9:-0.47695389 10:-0.62273175 11:-0.29655144 12:0.014404698 13:-0.28601643 14:-0.25021139 15:0.021877207 16:2.2782106 17:0.33906624 18:-0.84888548 19:0.040467765 20:0.10527796 21:0.62137151 22:-0.27015096 23:-0.81570905 24:-0.17736135 25:0.39446965 26:0.24215895 27:-0.4949874 28:0.17832673 29:-0.10378981 30:0.42466244 31:0.76151592 32:0.43490785 33:0.060747962 34:0.097579516 35:0.32490277 36:0.08374431 37:0.049092162 38:0.93922895 39:-0.66686594 40:-0.37608787 41:-0.15726312 42:0.27937961 43:0.12909704 44:0.13980991 45:0.33308855 46:0.26093253 47:-0.31027028 48:-0.37032971 49:-0.19190525 50:0.27466911 51:-0.20405491 52:0.35623372 53:0.46198252 54:0.56303096 55:-0.036275707 56:-0.064657114 57:0.19175431 58:0.42919037 59:0.92255461 60:-1.187907 61:-0.3278116 62:0.12419415 63:0.10419715 64:0.36536539 65:-0.046472691 66:-0.3411749 67:-0.013098849 68:-1.106215 69:-0.70916909 70:0.21176243 71:-0.37360421 72:0.45737889 73:1.3458405 74:0.51667708 75:0.4025507 76:0.64150363 77:0.091781877 78:-0.81050283 79:-0.10358796 80:-1.0570928 81:-1.1545423 82:0.0036966861 83:0.017845675 84:-0.31796712 85:0.62108076 86:-0.0066156653 87:0.81363076 88:0.029313453 89:-0.11215318 90:0.21272784 91:-0.0034441017 92:0.28579971 93:-0.55026299 94:-1.2655896 95:-0.31466731 96:1.1824057 97:1.4138013 98:0.29072666 99:0.63529706 100:0.81643134 101:0.64496481 102:-0.34284681 103:-0.812253 104:0.076371364 105:-0.44281644 106:0.24622302 107:-0.12826586 108:0.056170989 109:0.18254872 110:0.46637595 111:-0.56250119 112:0.0068517993 113:0.27906561 114:0.049185552 115:-0.38909844 116:-0.18142577 117:-0.051416755 118:0.1596235 119:-0.34987846 120:0.42533514 121:1.6027377 122:-0.037582353 123:-0.85161954 124:-0.031136146 125:0.43899068 126:0.36221012 127:0.45680675 128:-0.60609597 129:0.53247333 130:-0.89273119 131:0.11793848 132:0.38206711 133:0.018574858 134:-0.28964549 135:0.0823204 136:0.043252189 137:0.58203334 138:-0.18265209 139:-0.058193941 140:-0.20010208 141:0.16067629 142:0.15102339 143:-0.12249338 144:0.17858706 145:-0.58881766 146:0.058513992 147:0.38986039 148:-0.34070972 149:-0.47375977 150:1.2059097 151:0.083929189 152:-0.6537677 153:-0.19981658 154:0.5706355 155:-0.19426085 156:0.42616686 157:-0.59573483 158:0.14677308 159:0.31925377 160:-1.1080308 161:-0.24632953 162:0.21435089 163:-1.3226159 164:0.045784235 165:-0.5780248 166:-0.30997574 167:0.252561 168:0.29779476 169:1.1397551 170:0.83592176 171:1.2027348 172:-0.89828312 173:0.078963421 174:0.30805096 175:-0.73032022 176:0.56174368 177:-0.34884852 178:-0.27135321 179:-0.77707088 180:0.64572948 181:-0.37737516 182:-0.22463392 183:-0.61583018 184:0.08180467 185:0.072407939 186:-0.04859861 187:0.19106194 188:-0.42956844 189:0.25725898 190:-0.21617047 191:0.22958018 192:0.10611197 193:-0.087683082 194:-0.90551984 195:0.14489864 196:0.39641881 197:0.26714513 198:0.53014147 199:0.80664623 
0.1617751281198799 0:-0.39493001 1:-0.57443452 2:-0.13420525 3:-1.2355481 4:-0.81336796 5:0.60371596 6:0.60209173 7:-0.70847386 8:1.1221319 9:-0.16009791 10:-0.49999148 11:-0.27825755 12:-0.13632178 13:0.36089143 14:-0.21400025 15:-0.5742746 16:0.22370794 17:-0.39151508 18:-1.2372357 19:-0.13310023 20:0.046188772 21:-0.8960771 22:-0.39136931 23:-0.114015 24:0.34635067 25:-0.31011409 26:-0.35970244 27:0.18487227 28:-0.31374112 29:-0.43230024 30:-1.3402714 31:1.4794407 32:-1.2884159 33:-0.2869747 34:0.31180772 35:-0.039038066 36:-0.76665026 37:-1.6276032 38:0.55059314 39:-0.62899119 40:0.41506046 41:0.60186118 42:-0.071905799 43:0.082687497 44:-0.17069983 45:-0.48077571 46:-0.0051894933 47:-0.65895426 48:0.30588964 49:-0.23183915 50:-0.094317779 51:-0.19649003 52:-1.180403 53:0.74757975 54:0.1492102 55:-0.1003274 56:0.81877047 57:-0.11753184 58:0.1773214 59:0.12984931 60:-1.2167841 61:0.74668771 62:-0.24076048 63:-0.20590979 64:-0.32244992 65:-0.74377811 66:0.85537887 67:-0.1551459 68:-1.0667652 69:-1.2434469 70:0.16330577 71:-1.6112231 72:0.17701627 73:1.4920703 74:-0.6310094 75:-0.54654688 76:4.3027782 77:4.3432045 78:-0.406997 79:-1.1871461 80:-0.91478235 81:-1.1717423 82:0.15208526 83:-0.077460177 84:-0.92295045 85:0.49583048 86:0.2869463 87:-0.40275669 88:-0.60604954 89:-0.43707779 90:-0.21793747 91:-0.31077504 92:-0.98470539 93:-0.97085357 94:-0.73413777 95:0.33068213 96:0.45976385 97:0.97422659 98:-0.96704584 99:-1.0696213 100:-1.9129276 101:-1.8781823 102:-0.17878821 103:-0.62354571 104:-1.1536218 105:-0.97671247 106:0.6839996 107:0.17827541 108:0.799806 109:0.40714392 110:-0.26535964 111:-0.59860903 112:0.35293564 113:-1.1764925 114:-1.2832769 115:0.5320645 116:-0.48430189 117:0.38989806 118:-0.13608523 119:-1.1558967 120:0.51734418 121:0.025373777 122:-0.18938825 123:-1.7669591 124:-0.37399852 125:0.24403845 126:-1.1254063 127:-1.3753449 128:0.15838996 129:1.6101912 130:-0.89138281 131:-0.53643841 132:-0.76417273 133:-0.44469443 134:0.30321941 135:-1.0430894 136:-0.6021893 137:-0.84192842 138:-0.011835931 139:-0.32673225 140:0.2036431 141:-0.028450605 142:-0.64179081 143:-0.38925231 144:-0.29789695 145:-1.38929 146:-0.49015674 147:-0.38919806 148:-1.2363338 149:-0.62058985 150:-1.4003996 151:0.75894141 152:-1.1332932 153:-0.54471231 154:-0.96197164 155:-0.75060642 156:-1.1106528 157:-0.28713527 158:-0.44937879 159:-0.52727205 160:-0.45743564 161:-1.4647415 162:-0.35220796 163:-0.20112291 164:0.099075183 165:-1.0276456 166:-0.52811265 167:-0.40980771 168:-0.47460237 169:-0.70624894 170:-0.44122574 171:1.23185 172:-1.3454111 173:-0.28394738 174:1.6902517 175:-0.28057966 176:0.28388584 177:-1.3970195 178:-0.90259928 179:0.022290241 180:1.4132062 181:0.21870263 182:0.73618054 183:-0.74740714 184:-0.50997633 185:-0.39884233 186:0.79126835 187:0.75676304 188:0.83088499 189:-1.0390958 190:-1.1680781 191:-1.5005065 192:0.38194004 193:-0.042189375 194:-1.1486562 195:0.5705108 196:-0.50516045 197:-0.83556068 198:0.14570193 199:0.92534465 
0.01001896594825984 0:-2.488277 1:-2.4441373 2:-0.92640698 3:-1.462822 4:-1.7673264 5:-0.58034551 6:-0.71193725 7:-0.23226906 8:-0.21259996 9:-1.4680033 10:-1.6616836 11:-1.2923465 12:-2.0667133 13:-1.00859 14:-1.7313253 15:-2.2994509 16:-1.1169827 17:-2.3105173 18:-1.7223091 19:-2.5413544 20:-0.020624865 21:-2.1883209 22:-1.9424911 23:-0.9186973 24:-0.12300339 25:-0.89917648 26:-2.0462193 27:0.42780283 28:-2.5545404 29:-2.7549534 30:-1.9029115 31:-0.33282197 32:-1.1972511 33:-2.6358469 34:-0.58286458 35:-0.97001696 36:0.26221371 37:-1.5844747 38:0.52468532 39:-1.1093943 40:-1.2319863 41:-0.010315058 42:-2.4096789 43:-2.1068134 44:-2.1960914 45:-2.523458 46:0.13326499 47:-0.095117234 48:-0.9453572 49:-0.97636092 50:-2.2579856 51:-2.1255493 52:-0.60752642 53:-0.92013204 54:-1.1459761 55:-2.1230981 56:-0.083727062 57:-2.1705532 58:-1.0773966 59:-0.3138229 60:-2.0010321 61:-0.7491594 62:-2.469698 63:-2.3768828 64:-2.3988795 65:-2.8228316 66:1.0477985 67:1.1937935 68:-1.5691854 69:-2.0583742 70:-0.87527788 71:-2.7468009 72:-0.82426149 73:-0.9828825 74:-2.5016136 75:-2.296782 76:-0.95334113 77:-0.5162282 78:-1.2729836 79:-1.8444942 80:-1.8691684 81:-1.9044226 82:-2.0432742 83:-2.2885323 84:6.0165997 85:2.8119369 86:-0.51269168 87:-0.9844929 88:-0.44048157 89:-0.75379294 90:-2.3660781 91:-2.7407501 92:0.28674519 93:-0.54484165 94:-0.95195758 95:-0.87273359 96:-0.81303382 97:-0.090268619 98:-1.3854262 99:-0.36028785 100:-1.5314727 101:0.45396453 102:-2.2532463 103:-1.7420378 104:-2.8537757 105:-2.9107611 106:-0.729222 107:-1.0509294 108:0.14773513 109:-2.1177044 110:-0.19711854 111:-1.978283 112:-0.91053152 113:-1.5169181 114:-0.5789057 115:0.49260074 116:-0.94206619 117:-0.6473394 118:-2.3745351 119:-0.6717422 120:0.82635725 121:-0.71495366 122:-2.4548166 123:-2.5177195 124:-2.9428825 125:-1.2518797 126:-0.65825677 127:-2.9627171 128:-0.027092675 129:-0.92230147 130:-1.4557055 131:-1.5225415 132:-2.341738 133:-1.9452679 134:0.024889799 135:-1.4557225 136:-1.9823624 137:-1.6894581 138:-0.20161462 139:-3.0097828 140:-1.435503 141:-2.1101277 142:-2.662828 143:-2.8314631 144:-2.5371609 145:-1.2700607 146:-0.62705266 147:-0.10613995 148:0.12739487 149:-0.91498125 150:-1.3095391 151:0.43422085 152:0.63518673 153:0.31027889 154:-0.047236737 155:-1.9576647 156:0.22368254 157:-0.12060747 158:-2.9580421 159:-2.3846719 160:0.062495448 161:-2.469599 162:-2.3914299 163:-1.8762181 164:-0.23798276 165:-1.487636 166:-0.41024271 167:-2.1304226 168:-2.4077508 169:0.032362338 170:0.32692188 171:0.20244506 172:-2.4087405 173:-2.6092117 174:-0.13482678 175:-1.5200717 176:0.7801742 177:-0.2554844 178:1.4621552 179:-1.5570626 180:-0.21011895 181:-0.83368254 182:-0.029578337 183:-1.9009758 184:0.0019946147 185:-0.51449275 186:0.32071862 187:0.58552343 188:0.86024523 189:-2.3699265 190:-2.1623828 191:-1.3992795 192:-1.0770479 193:-0.40054587 194:-2.4302499 195:-0.72692424 196:-2.464958 197:-2.3126948 198:-1.056278 199:-0.82541877 
1 0:0.50929332 1:0.23805626 2:-1.5371259 3:0.075857274 4:0.56271768 5:-1.5403156 6:-0.87435919 7:1.1840107 8:-1.4252809 9:-0.49470484 10:-0.18698053 11:0.35505968 12:0.47041836 13:0.82428265 14:-0.74120647 15:0.39696187 16:-0.39233249 17:0.6994676 18:-0.10959443 19:1.1359336 20:-1.0869761 21:0.61755204 22:0.50561076 23:-1.3637666 24:-0.48183298 25:-0.84122705 26:0.65268594 27:0.50334179 28:0.53423029 29:0.4348647 30:0.62947291 31:-0.51702327 32:0.31333047 33:0.44367328 34:0.012660159 35:-0.12750149 36:0.6239537 37:0.7658276 38:-1.2022051 39:0.26252222 40:-1.4477217 41:-0.42174211 42:0.48966193 43:0.4341203 44:0.44213012 45:0.53068918 46:0.40734512 47:-1.3462828 48:-1.6104112 49:0.4626646 50:0.52031922 51:0.39185721 52:-0.060206097 53:-1.5922482 54:-0.84746218 55:0.28775188 56:-0.66517448 57:0.48423508 58:0.1665071 59:-0.93336058 60:-0.5141986 61:-0.89594024 62:0.51001036 63:0.50397891 64:0.51307398 65:0.30930024 66:0.36272067 67:0.76059037 68:-1.6627754 69:-0.87796003 70:-1.1404881 71:0.36971489 72:-1.3871256 73:-0.39096868 74:0.4675715 75:0.61225706 76:-1.1925204 77:-1.1660537 78:-0.93074042 79:-0.1537842 80:-1.000585 81:-0.53089786 82:0.4176034 83:0.46347454 84:0.42102742 85:-1.9120692 86:3.7367487 87:4.9759083 88:-0.08588779 89:1.0113255 90:0.5291754 91:0.37258226 92:1.0942473 93:-0.10693262 94:-0.9439494 95:-0.15368509 96:-0.11046223 97:-0.51324636 98:0.5473696 99:0.77405733 100:-0.13882779 101:0.6724171 102:0.34667471 103:-0.58926207 104:0.1765586 105:0.1276518 106:-1.0679283 107:-1.0335929 108:-1.4297998 109:0.3146013 110:0.77177161 111:-0.13549003 112:-1.3774228 113:0.87855369 114:0.58850956 115:0.89290667 116:0.44757763 117:-0.80643052 118:0.49684376 119:-1.0019532 120:0.47656006 121:-0.1369388 122:0.3828468 123:-0.92499989 124:0.16640685 125:-1.3576649 126:2.0439918 127:0.60171676 128:-0.73234648 129:-0.88352281 130:-1.853688 131:-1.4395009 132:0.47707719 133:0.5207625 134:-0.79920954 135:0.61124092 136:0.27679029 137:0.65704602 138:0.90882105 139:0.41187793 140:0.19975328 141:0.48202884 142:0.37676299 143:0.39404619 144:0.52025717 145:1.9761505 146:-1.1032211 147:-0.064257145 148:0.96338987 149:-0.41541263 150:0.2900072 151:-1.8679049 152:-1.1213031 153:0.68995738 154:0.8308804 155:0.15621068 156:2.0297275 157:0.64381844 158:0.44667801 159:0.54648435 160:0.7296229 161:0.71487665 162:0.54194909 163:-1.783445 164:-0.58999902 165:0.081222154 166:0.97312284 167:0.66390771 168:0.52896756 169:2.3416889 170:1.1554985 171:-0.14688873 172:-1.4300157 173:0.39021298 174:0.49637681 175:-0.59830683 176:-0.74707443 177:0.73904735 178:0.39792448 179:-0.27041766 180:0.84899276 181:-0.99516159 182:-1.4124619 183:-0.10901677 184:0.72741902 185:-0.84158653 186:0.90363854 187:1.4769152 188:0.87624526 189:0.85332972 190:0.57169694 191:0.79951286 192:-0.092127614 193:-1.4483496 194:-1.0650088 195:0.94671851 196:0.57148635 197:0.68730992 198:-1.2826071 199:-1.4853508 
1 0:0.10014644 1:0.19678107 2:0.800511 3:-0.046735477 4:0.045973811 5:0.26732031 6:0.67721224 7:-0.26672363 8:0.72743911 9:-0.36579457 10:0.64047188 11:-0.22875236 12:0.26924706 13:-0.95657158 14:0.36651805 15:0.23192789 16:-1.4624714 17:0.012383651 18:0.85477799 19:-0.87470895 20:0.15120842 21:-0.06191225 22:-0.17912377 23:-0.15139675 24:-1.4117659 25:0.53624028 26:0.015558375 27:-0.41500586 28:0.22318563 29:0.28268421 30:0.21542147 31:0.56226254 32:-1.0580841 33:0.14464737 34:0.096742876 35:0.51453197 36:0.64117432 37:-0.18081532 38:-0.06117731 39:-0.78732163 40:0.90153527 41:0.32916379 42:0.17318624 43:0.28733882 44:0.27596393 45:0.20504904 46:1.0183477 47:-1.2105941 48:-1.2407893 49:-0.22242709 50:0.15033306 51:0.25078827 52:-0.17854974 53:0.72399956 54:0.19714333 55:-0.16637903 56:0.64335746 57:0.2520076 58:0.47060528 59:-0.87360382 60:0.65753371 61:0.2768901 62:0.31363723 63:0.30222061 64:0.31101781 65:0.26190367 66:-0.62812114 67:-0.99690068 68:-0.26117483 69:0.55381364 70:0.095979743 71:-0.34020835 72:0.34013769 73:1.1725996 74:0.1832256 75:-0.10987879 76:0.2570661 77:0.86667788 78:0.019307133 79:0.20750365 80:0.45928702 81:0.48734421 82:0.19416559 83:0.25477248 84:-0.91384476 85:-0.14233756 86:0.43666491 87:-0.73218125 88:4.411972 89:4.0960727 90:0.23183244 91:0.17214571 92:0.17983973 93:0.37231314 94:0.38843161 95:-0.23541149 96:1.5223783 97:-0.0040501356 98:-0.35811394 99:-0.6569705 100:-1.0348607 101:-1.4408196 102:0.28356767 103:-0.12044825 104:-0.11377516 105:0.45963904 106:0.56994563 107:0.39507553 108:0.10357615 109:0.16193701 110:-0.32585621 111:0.54739624 112:0.2698724 113:-0.18112393 114:0.42751819 115:0.35401917 116:-1.2732068 117:0.24441746 118:0.28817001 119:-0.91341513 120:-1.0698396 121:-0.6065802 122:0.27148044 123:0.71322703 124:0.41378504 125:0.25737479 126:-0.19150884 127:0.24698932 128:-0.18709841 129:0.64249414 130:-0.82080621 131:-0.14459817 132:0.08617875 133:-0.20138428 134:0.7414825 135:-1.6279235 136:0.34789193 137:-0.042069446 138:0.01565608 139:0.49213719 140:0.17703612 141:0.25355655 142:0.32057238 143:0.37768376 144:0.25495011 145:-0.80880558 146:-1.9675703 147:-0.53522146 148:-0.57548225 149:-1.0807101 150:0.29159638 151:0.45151362 152:-0.86238796 153:-0.34280929 154:-0.65708184 155:0.046992313 156:0.93318939 157:-0.21566021 158:0.11032981 159:0.11379366 160:-0.4552578 161:-0.15460074 162:0.21552204 163:-0.38918942 164:0.1853925 165:-0.3674916 166:-0.8175351 167:0.040354863 168:0.075392261 169:-0.81466967 170:0.75889492 171:0.74798757 172:-0.18213357 173:0.35215443 174:-0.38801378 175:-0.021880746 176:0.32365862 177:0.21048567 178:-1.5297792 179:0.12822966 180:1.195413 181:-0.32579687 182:0.54819733 183:0.48020366 184:0.93630612 185:-0.0096516944 186:-0.34951466 187:0.48474893 188:-0.013968579 189:-0.38874212 190:-0.41413999 191:-0.24827804 192:0.59841233 193:0.16372818 194:0.2672351 195:-0.76223016 196:0.035336219 197:-0.27568942 198:-0.055650979 199:0.29249248 
1 0:0.52143723 1:0.48719805 2:0.64152789 3:0.33255854 4:0.59408599 5:0.35584038 6:0.78538048 7:0.47698 8:-0.56040233 9:0.24629234 10:0.61662388 11:0.3384313 12:0.52036059 13:0.31026015 14:0.0086173201 15:0.50194621 16:0.22337846 17:0.56841886 18:0.70190972 19:0.51842374 20:-0.43769923 21:0.65364271 22:0.32962584 23:-0.39129525 24:0.72455049 25:0.56966096 26:0.539792 27:0.31412575 28:0.52465695 29:0.51081294 30:0.77144367 31:-0.24425159 32:1.1658731 33:0.56932563 34:0.56940722 35:0.13917494 36:-0.13055815 37:0.8174783 38:-0.048153885 39:1.3577136 40:0.31926095 41:-0.81390548 42:0.51780242 43:0.53553247 44:0.48567075 45:0.49443617 46:-0.12110043 47:-0.54529345 48:-0.080629349 49:-0.078573138 50:0.50819105 51:0.48706973 52:0.85971135 53:-0.28028068 54:0.55972719 55:0.45433861 56:-1.0470792 57:0.51649296 58:-0.18575205 59:-0.4248125 60:0.2953454 61:-0.23091203 62:0.52924645 63:0.52022439 64:0.5049485 65:0.48814246 66:-0.02188094 67:0.47571307 68:0.55699342 69:0.5002352 70:2.0962081 71:0.41573715 72:0.54202324 73:0.50337595 74:0.57895684 75:0.54882765 76:0.48471275 77:0.95702016 78:1.026443 79:0.95381808 80:0.66971469 81:0.54906696 82:0.51374167 83:0.49471435 84:0.77210271 85:-0.55025178 86:0.93097323 87:2.0665481 88:0.74444234 89:0.013841904 90:0.5495016 91:0.86554688 92:0.93388909 93:0.63051224 94:0.48104137 95:0.39310497 96:-0.91245306 97:-0.90650666 98:0.58081198 99:0.20681763 100:0.60770315 101:0.98200178 102:0.44772464 103:0.15504006 104:0.54836357 105:0.54193771 106:0.086275712 107:0.4618277 108:-0.30932918 109:0.57266742 110:0.14641856 111:0.18214823 112:-0.0055791982 113:0.70725566 114:0.17649838 115:-0.54649734 116:0.58614254 117:-0.12674342 118:0.49377 119:1.4164377 120:-0.19465663 121:-0.56651676 122:0.46478733 123:0.60946286 124:0.4903791 125:1.9799795 126:0.78891528 127:0.38730347 128:0.17265685 129:0.78500861 130:0.23410235 131:-0.0049826098 132:0.44240686 133:0.3087579 134:2.0397501 135:0.72342366 136:0.55482525 137:0.51961273 138:-0.21587433 139:0.52359223 140:0.44479683 141:0.51748264 142:0.51982373 143:0.46466422 144:0.53071648 145:0.68362826 146:1.2630861 147:0.32978132 148:1.2501936 149:0.25333786 150:0.20563787 151:-0.35926294 152:-0.68471229 153:0.7612282 154:0.88685387 155:0.4213323 156:0.26675537 157:0.24930403 158:0.54383731 159:0.61330611 160:0.8131808 161:0.68468505 162:0.53904092 163:0.43885458 164:0.40831462 165:1.0464908 166:1.4424709 167:0.51829857 168:0.54247719 169:0.87502772 170:0.31740308 171:-0.42318842 172:1.6089852 173:0.48247269 174:0.59919202 175:0.18905628 176:0.037774865 177:-0.2197803 178:0.21797225 179:0.59779733 180:-0.22460279 181:1.1040119 182:0.50501525 183:0.27747828 184:1.1988314 185:-0.16572519 186:0.37485176 187:0.062997892 188:-0.28618118 189:0.58710104 190:0.63247705 191:0.33000162 192:0.090302169 193:-0.14917067 194:0.39352036 195:0.71685195 196:0.56863749 197:0.4215039 198:-0.18971531 199:0.39970079 
1 0:0.050656747 1:-0.44923824 2:-1.7300835 3:-0.66901422 4:-0.14988752 5:-1.1027108 6:-1.7808397 7:1.2312986 8:-0.46251181 9:-1.4269741 10:-1.0104661 11:-2.1691639 12:0.041025423 13:1.6180876 14:-1.5538368 15:-0.074771032 16:0.7541514 17:0.27147406 18:-1.3264285 19:0.14129935 20:-0.62412757 21:0.04273859 22:-0.59819996 23:-0.95193553 24:-1.9637326 25:0.41194955 26:0.11196403 27:0.36796582 28:0.051568199 29:-0.070952974 30:-0.42002359 31:-0.54682457 32:-0.16754311 33:-0.0023856487 34:-0.00071825093 35:-0.82446629 36:-0.078106709 37:-0.31966445 38:0.70028776 39:-0.85140473 40:-1.9029075 41:-1.0384125 42:-0.024730721 43:-0.047135107 44:-0.024939021 45:0.15748103 46:-0.10861823 47:-1.5882993 48:0.0068756114 49:-0.31593654 50:0.11318295 51:-0.18795803 52:-0.42283052 53:-0.92944986 54:-0.81840682 55:-0.3515113 56:-0.2785449 57:0.15003422 58:-1.5938467 59:-0.36574662 60:-1.1734902 61:-1.5819879 62:0.091129631 63:0.015900865 64:-0.027322678 65:-0.22357067 66:0.28310597 67:1.7337505 68:-1.3451743 69:-1.1685363 70:-0.6952107 71:-0.54660356 72:-1.4154748 73:-1.6589712 74:0.084090143 75:0.14003234 76:-0.64322972 77:-0.13081208 78:-1.4658169 79:-0.089197218 80:-1.3597988 81:-1.146017 82:0.15402317 83:-0.081059307 84:-0.30486643 85:0.028623495 86:-1.0527104 87:-0.43218598 88:-1.185892 89:-0.34827581 90:0.1245661 91:-0.050185483 92:3.4117248 93:-0.95923042 94:-1.3865947 95:-1.7901669 96:-1.0617348 97:-0.51594406 98:0.044199761 99:0.8698287 100:-0.39353654 101:0.59127629 102:-0.18984567 103:-1.499319 104:-0.33527467 105:-0.31857693 106:-1.7552156 107:-1.6877264 108:-0.78362226 109:-0.20185013 110:0.65029263 111:-0.7074852 112:-1.4526769 113:0.11815845 114:0.27774709 115:0.47419116 116:-0.43445325 117:-1.2090827 118:0.15616152 119:-1.0773604 120:-1.1255054 121:0.40454972 122:-0.014828629 123:-0.99363148 124:-0.40948591 125:-1.8649828 126:-1.2922682 127:-0.51365429 128:-1.2002512 129:0.71277595 130:-0.9154312 131:-1.7409784 132:0.13326381 133:0.23697042 134:-1.3657737 135:-0.44677308 136:-0.21085998 137:0.22250326 138:-0.30519724 139:-0.044088125 140:-0.247705 141:0.07111457 142:0.029274357 143:-0.12652989 144:0.036886901 145:-0.49732506 146:-1.4197075 147:-0.58475822 148:0.35045645 149:0.52299708 150:-0.60663527 151:-0.25952235 152:-1.2679852 153:-0.27530441 154:1.3924671 155:-0.21877828 156:-0.15610567 157:0.55307639 158:-0.032939117 159:-0.03993519 160:-1.1363606 161:-0.033197004 162:0.087529302 163:-1.6825063 164:-0.11286438 165:-0.27917984 166:0.038356394 167:0.089435957 168:0.10844252 169:0.55930674 170:0.31520569 171:-1.0415107 172:-1.8379844 173:0.015908794 174:0.82688791 175:-1.0705504 176:-1.0662354 177:2.0551527 178:-1.4826828 179:-1.3262242 180:0.45452037 181:-1.4802721 182:-1.4721876 183:-0.74007612 184:0.3030881 185:-0.9740324 186:-0.25555918 187:0.47820878 188:-0.72962636 189:-0.093640544 190:-0.042885125 191:-0.051645894 192:-0.92139202 193:-1.4085265 194:-1.4413108 195:-0.026942061 196:0.17064375 197:0.011948182 198:-1.5637727 199:-0.82075739 
1 0:-0.96464908 1:-1.5006933 2:-2.3930285 3:-1.0659754 4:-1.5456201 5:-2.036972 6:-2.146409 7:-0.96498609 8:-1.7488773 9:-1.5492853 10:-2.5986164 11:-0.19563761 12:-0.63284206 13:0.012092883 14:-2.588805 15:-0.95613801 16:-1.3076023 17:-0.15056726 18:-2.7390447 19:-0.36985424 20:-1.9094188 21:-0.34995174 22:-0.98622954 23:-1.9441493 24:0.28471711 25:-0.95942479 26:-0.19117813 27:-0.55910122 28:-0.58186543 29:-0.8095355 30:-1.1365095 31:-1.1682492 32:0.97996557 33:-0.79924154 34:-0.37746847 35:-1.5146512 36:0.51447046 37:0.80229139 38:-2.3178732 39:-0.6551922 40:-0.98005986 41:-1.8583908 42:-0.70477015 43:-0.90309364 44:-0.91296792 45:-1.049876 46:0.34296131 47:-1.5640112 48:-1.9324781 49:-0.3619186 50:-0.66635704 51:-0.98853153 52:-1.0363643 53:-1.9837049 54:-1.9641086 55:-0.29772848 56:-1.8551323 57:-0.58347005 58:-1.7013358 59:-0.21659942 60:-2.9045818 61:-1.9491109 62:-0.77049851 63:-0.8513695 64:-0.78773469 65:-1.0797832 66:1.4166795 67:0.10948984 68:-2.1989813 69:-2.5423434 70:-0.84775895 71:-0.45197672 72:-2.2102408 73:-1.8643894 74:-1.0518692 75:0.051946845 76:-1.9093878 77:-1.8277383 78:-1.2216786 79:-1.825098 80:-3.0280716 81:-2.7015042 82:-0.75452298 83:-0.96643686 84:0.76844102 85:-1.5613501 86:-0.17264785 87:-1.1948426 88:0.12528738 89:0.094361268 90:-0.53743511 91:-0.86828691 92:0.080333903 93:-1.1282055 94:-2.290271 95:-1.3944846 96:-1.0609457 97:-1.5442719 98:3.1873879 99:2.3139334 100:-1.3885328 101:0.58901697 102:-1.3906579 103:-2.3877678 104:-1.0325209 105:-1.6451297 106:-2.0630748 107:-2.0683832 108:-2.0683155 109:-0.8397879 110:-0.86946011 111:-2.1170263 112:-2.1003556 113:-0.010652727 114:0.91122645 115:0.2903806 116:-0.15770447 117:-1.4354235 118:-0.56037283 119:-0.75182307 120:-0.78837341 121:0.31322435 122:-1.2574725 123:-2.5171731 124:-1.1304028 125:-0.40190747 126:0.1512761 127:-0.95655119 128:-1.1818197 129:-1.0237093 130:-1.7566142 131:-2.5848033 132:-0.62970674 133:-0.1287424 134:-1.5818287 135:-0.0083661461 136:-1.5229986 137:-0.13135895 138:-0.41687945 139:-0.80672163 140:-1.5932038 141:-0.80479002 142:-1.3182747 143:-1.0394127 144:-0.7176615 145:-1.5510623 146:0.27710223 147:0.73686445 148:0.85840505 149:-0.32617238 150:-0.34660921 151:-2.4097521 152:-1.5529574 153:1.5203466 154:-0.090009488 155:-0.91362786 156:-0.062730879 157:0.63027281 158:-0.67116654 159:-0.37338376 160:0.93858677 161:-1.4764185 162:-0.61320031 163:-1.4747154 164:-0.34560385 165:0.42076164 166:-0.082118705 167:-0.22756431 168:-0.15977275 169:-0.58633226 170:0.57049555 171:-1.4818032 172:-2.4953918 173:-1.3215749 174:-0.71572047 175:-2.3940451 176:-0.26202542 177:0.051490407 178:0.020029444 179:-0.21226783 180:0.097167499 181:-1.3827339 182:-2.1102004 183:-1.9920781 184:0.24167092 185:-1.7772185 186:0.2434444 187:0.65418535 188:-0.029087653 189:-0.32663572 190:0.39536843 191:0.24720843 192:-1.4962703 193:-1.6403937 194:-2.7353091 195:-1.0962389 196:-0.24289115 197:-0.93606192 198:-1.7937384 199:-1.7103975 
0.7195968897021671 0:-1.0542675 1:-0.81115437 2:-0.68682724 3:-0.33095381 4:-1.5435442 5:-0.69490945 6:-0.12977426 7:-1.361861 8:-1.2636071 9:-1.3873092 10:-1.1939873 11:-1.1395366 12:-1.0505054 13:-1.2416337 14:-1.3520838 15:-1.0752536 16:0.85939997 17:-1.1013643 18:-1.0086368 19:0.78458899 20:-1.1308894 21:-0.74814641 22:-1.0723476 23:-1.8363519 24:-1.701351 25:-0.25800276 26:-1.0067073 27:-1.4179679 28:-0.77661037 29:-0.90809613 30:-1.1062043 31:-0.81175315 32:-1.3736255 33:-0.89515114 34:-1.1395564 35:-1.0257323 36:-1.0079329 37:-0.97900677 38:-0.2034356 39:-0.47246939 40:-1.0641142 41:-1.3722314 42:-1.0321002 43:-0.76500142 44:-0.81703681 45:-1.140426 46:-1.4077269 47:-0.50011986 48:-0.6322726 49:0.19969992 50:-0.72476572 51:-1.1281744 52:-0.78762925 53:-1.435588 54:-0.80252194 55:-0.31274337 56:-1.4158677 57:-1.0739155 58:-1.2276998 59:-0.47723839 60:-1.5002434 61:-0.79281437 62:-0.94376618 63:-0.99871701 64:-0.79082972 65:-1.0531421 66:-1.6540687 67:-1.1034528 68:-1.8001133 69:-1.3033361 70:-0.32685235 71:-0.8115049 72:-0.92868555 73:-0.99012542 74:-1.217595 75:-0.90928608 76:-0.49485791 77:-1.0603355 78:-1.9402698 79:-0.76146495 80:-1.8302954 81:-1.3794249 82:-1.063522 83:-1.1723449 84:-0.76356179 85:-0.32994148 86:-0.92938906 87:-0.73742074 88:-1.1028019 89:-0.81446099 90:-0.92802334 91:-1.0081123 92:-1.9594653 93:-0.63052887 94:-1.4774644 95:-1.3569409 96:-0.86216295 97:-1.1948891 98:-0.83389115 99:-1.3517842 100:3.9652796 101:2.5352247 102:-1.3039606 103:-1.1910969 104:-0.82768047 105:-1.1265106 106:-1.0193326 107:-1.2105138 108:-1.2922592 109:-1.2667792 110:-1.5331875 111:-1.3669618 112:-1.3143191 113:-0.63617313 114:-1.0281479 115:-1.3307679 116:-0.098578744 117:-1.3865792 118:-1.1184 119:-2.1654892 120:-0.43407828 121:-1.767149 122:-1.0714203 123:-1.3475107 124:-1.019737 125:-1.1051425 126:-1.3134388 127:-1.0073423 128:-0.84664464 129:-1.1846792 130:-1.8555918 131:-1.328706 132:-0.73277754 133:-1.260006 134:-1.2737327 135:0.22793832 136:-1.6424125 137:-1.1723062 138:-1.0573997 139:-1.2830759 140:-1.4468693 141:-0.91076952 142:-0.83836913 143:-0.93612808 144:-0.99898416 145:-1.0880795 146:-1.3376781 147:0.43661594 148:-1.5173222 149:-0.23273577 150:-0.0013361836 151:-1.1813715 152:-0.50312746 153:-1.3222899 154:-1.4052149 155:-1.1008662 156:-1.219686 157:-1.2084423 158:-0.96324271 159:-0.90705484 160:-1.6824318 161:-0.67422217 162:-0.9252671 163:-1.4442649 164:-1.2419924 165:-0.19992419 166:-1.0092912 167:-0.92936766 168:-1.0750556 169:-1.1234542 170:-1.6619328 171:-1.4246808 172:-1.6796701 173:-1.279646 174:-1.4656491 175:-1.4862194 176:-0.36065874 177:-1.1929047 178:-0.9243722 179:-1.7488741 180:-1.5811919 181:-1.4070659 182:-0.81197196 183:-1.2863806 184:-0.4130041 185:-1.4354085 186:-0.82081515 187:-1.3717233 188:-0.77094328 189:-0.9476676 190:-1.7909212 191:-0.83061278 192:-0.9040581 193:-0.95596111 194:-1.099226 195:-0.80641329 196:-0.98750722 197:-0.63974184 198:-0.78547513 199:-0.697276 
1 0:0.57531768 1:0.57576239 2:0.26803666 3:0.76051366 4:0.56737363 5:0.63723683 6:0.99002498 7:0.39752099 8:0.13172522 9:0.16415344 10:0.41381663 11:2.007021 12:0.4167797 13:0.91245365 14:0.062961154 15:0.48766744 16:1.7162677 17:0.53818637 18:0.58566296 19:0.37273273 20:0.34142902 21:0.64278656 22:0.49095774 23:0.28935045 24:1.1381902 25:0.89793628 26:0.48998332 27:0.36547107 28:0.44998518 29:0.42196721 30:0.65845871 31:0.95558012 32:0.84534204 33:0.48476219 34:0.6168828 35:0.71780676 36:1.0055039 37:0.66910261 38:1.4703827 39:0.34975821 40:0.49606934 41:0.094647601 42:0.5055874 43:0.45174351 44:0.38904712 45:0.46805194 46:1.079438 47:0.89194256 48:1.2680486 49:0.8893097 50:0.52923203 51:0.37740773 52:0.24724153 53:0.89480257 54:0.6274159 55:0.84851003 56:0.57948005 57:0.48715279 58:0.35897025 59:1.3735944 60:0.54447436 61:0.84210557 62:0.45817757 63:0.42109242 64:0.44490442 65:0.66517675 66:1.6187514 67:0.81789654 68:0.33121371 69:0.23092565 70:1.4502326 71:1.2062112 72:0.068229362 73:0.91577882 74:0.54169202 75:0.68786901 76:0.98821914 77:1.2996275 78:1.2049723 79:0.43283185 80:0.51296824 81:0.33363101 82:0.52529585 83:0.4186433 84:0.35191318 85:1.3581635 86:0.85247028 87:1.3166128 88:1.1701577 89:0.74712521 90:0.46371219 91:0.41263053 92:1.4809937 93:0.89862424 94:0.31801933 95:1.2994885 96:0.04378039 97:0.37959924 98:0.74635118 99:0.73175639 100:1.1857179 101:0.64997441 102:0.32985491 103:0.61445224 104:0.67910075 105:0.56176198 106:0.42577514 107:0.070597574 108:0.50040293 109:0.33539778 110:0.54548073 111:0.24469501 112:3.0613256 113:3.743593 114:0.6297906 115:0.1715948 116:1.054453 117:0.16286683 118:0.43685752 119:1.6393523 120:1.8653516 121:2.5386856 122:0.37171334 123:0.31677675 124:0.67141169 125:1.2716173 126:0.9760294 127:0.44181105 128:0.11754861 129:1.6892745 130:0.56189793 131:0.32437551 132:0.49730605 133:1.016055 134:0.38635999 135:1.4536929 136:0.36995512 137:0.70226347 138:0.62437451 139:0.53042805 140:0.49325657 141:0.44889084 142:0.60704923 143:0.3970257 144:0.45506173 145:0.44344172 146:1.2260996 147:0.68984497 148:0.95803887 149:0.71338165 150:1.6397662 151:1.0577613 152:1.1841129 153:0.87355411 154:0.79639649 155:0.67818129 156:0.42928883 157:0.89160424 158:0.46361765 159:0.50294352 160:0.6866678 161:0.84924918 162:0.44872129 163:0.688869 164:1.8513938 165:1.1392508 166:0.44170117 167:0.46305361 168:0.54162115 169:0.036389153 170:1.0306686 171:0.49644345 172:1.0184269 173:0.35776645 174:0.92168218 175:0.24928166 176:2.0865192 177:0.36032215 178:1.7314059 179:0.56427169 180:0.98918641 181:0.99262983 182:0.49265477 183:0.35704911 184:0.75732553 185:0.15589146 186:0.31818604 187:1.0332613 188:0.83823675 189:0.97668481 190:0.70528084 191:0.64056075 192:0.33630472 193:0.34215015 194:0.48311797 195:0.49776307 196:0.54528332 197:0.69530994 198:0.73375332 199:0.5590542 
0.9935430861506778 0:0.57791293 1:0.54809994 2:-0.45516643 3:-0.042196419 4:0.60740888 5:-0.38348767 6:-0.63620615 7:0.86092907 8:0.89694858 9:0.23460284 10:0.25248671 11:0.15283288 12:0.52092803 13:0.92152333 14:0.16766389 15:0.48783135 16:-0.23978046 17:0.60660565 18:-0.16773187 19:0.29129049 20:0.54533321 21:0.45543358 22:0.54088211 23:-0.68317902 24:0.727512 25:1.6687682 26:0.36589921 27:0.69384879 28:0.48648342 29:0.47308108 30:0.784513 31:0.86853677 32:-0.54876953 33:0.51533294 34:0.35573941 35:1.5062667 36:0.54875112 37:0.21730436 38:-0.37091187 39:-0.2460781 40:0.4947741 41:-0.8570748 42:0.46223345 43:0.47570443 44:0.43128321 45:0.69821131 46:0.080731392 47:-0.35608262 48:-0.37005565 49:-0.29515326 50:0.44975817 51:0.61169755 52:1.0957906 53:1.0903151 54:-0.092601106 55:0.11692685 56:-1.0739492 57:0.49777231 58:-0.87090778 59:-0.83264118 60:-0.2540924 61:-0.56501436 62:0.48389176 63:0.50670385 64:0.48993549 65:0.67839777 66:-0.21979803 67:-0.79178286 68:-0.46236068 69:-0.50011826 70:-0.15955499 71:0.17044082 72:0.20798151 73:-0.086822756 74:0.65524405 75:0.55979902 76:-0.18885769 77:0.046708055 78:0.65325987 79:0.21563008 80:-0.15942129 81:0.167569 82:0.47875345 83:0.45379794 84:0.63331872 85:0.30073693 86:1.0838326 87:0.4515903 88:-0.24457967 89:-0.16600156 90:0.5085339 91:0.52188319 92:-0.50744134 93:-0.20521432 94:-0.11653487 95:0.44054171 96:0.69548178 97:-0.33287922 98:0.22307491 99:0.33996797 100:-0.0087744724 101:-0.40068886 102:0.59588146 103:0.053077981 104:0.17573445 105:0.17649937 106:-0.40475312 107:0.58041906 108:-0.22264269 109:0.70584548 110:0.088879153 111:0.36128807 112:-0.42728156 113:0.33675987 114:0.24231596 115:-0.0028142759 116:-1.2720499 117:0.49379033 118:0.71901762 119:3.6731524 120:0.4356904 121:1.2761277 122:0.45793968 123:-0.18030162 124:0.35834795 125:1.0079849 126:0.61481214 127:0.64174092 128:0.23436065 129:1.2553053 130:-0.58610821 131:-0.59512204 132:0.55617392 133:0.29742843 134:0.017892495 135:-1.0541279 136:0.46681693 137:0.39514837 138:-0.85342669 139:0.48851073 140:0.53335279 141:0.5092141 142:0.4252817 143:0.4253062 144:0.48666784 145:0.72132421 146:2.1866555 147:-0.44543523 148:-0.43931085 149:-0.91224128 150:-0.16488032 151:-0.98416615 152:-0.94093239 153:-0.99339896 154:-0.4559105 155:0.16240664 156:1.0297521 157:-0.85884935 158:0.5789302 159:0.45919773 160:-0.44477773 161:0.20603672 162:0.47832215 163:0.14712334 164:-0.68871993 165:-0.55519581 166:-1.2864041 167:0.46590152 168:0.47491363 169:0.50939465 170:-0.10113864 171:0.67054516 172:0.90799111 173:0.45304182 174:-0.17192285 175:0.34950519 176:-0.98477787 177:0.31140324 178:0.38154411 179:0.6922096 180:-0.76571518 181:0.39183322 182:-0.21493673 183:0.18346812 184:0.04849036 185:-0.43047124 186:0.071557328 187:-0.95434582 188:-0.48223674 189:0.5810892 190:0.64373994 191:0.86371648 192:-0.65564656 193:-1.0336912 194:-0.12507421 195:3.0381513 196:0.48172909 197:0.8875435 198:-0.33447468 199:-0.1757075 
0.6644990857144956 0:0.51155394 1:0.55030161 2:0.55571353 3:1.0294949 4:0.4661141 5:0.3969295 6:0.52366573 7:-1.3196833 8:-0.059385836 9:-0.23190476 10:0.47852942 11:-0.78276151 12:0.46370643 13:-0.5832805 14:0.3839156 15:0.5745123 16:0.99920082 17:0.39490089 18:1.5288178 19:0.028228905 20:0.10241851 21:0.54428804 22:0.26841789 23:-0.73356146 24:-0.075438768 25:0.64089918 26:0.41674721 27:-1.1684673 28:0.49245876 29:0.54471904 30:0.47643274 31:0.14782271 32:-0.043775156 33:0.48247492 34:0.062614113 35:0.75157768 36:-0.68989855 37:0.046344113 38:0.44992062 39:0.20220789 40:0.68905461 41:-0.77949107 42:0.52151281 43:0.5031358 44:0.47450173 45:0.53540254 46:-0.78538233 47:-0.54188693 48:-0.555628 49:-0.24206752 50:0.47359547 51:0.44451627 52:-0.48745129 53:0.041418664 54:0.36771426 55:0.60639507 56:-1.1197058 57:0.49712029 58:-0.14735082 59:0.9943679 60:0.6369018 61:0.28319287 62:0.50438857 63:0.48797384 64:0.48844674 65:0.51219517 66:-0.28660735 67:0.31461102 68:0.030015979 69:0.67596853 70:0.62551612 71:0.40458408 72:0.71739417 73:0.77299416 74:0.46374577 75:0.39889356 76:0.76448709 77:0.58465099 78:0.074667469 79:0.26307034 80:0.69000602 81:0.54105276 82:0.50509435 83:0.4849509 84:-1.2568467 85:-0.23251057 86:-0.20268525 87:0.12733455 88:-1.0445733 89:0.24978447 90:0.49301535 91:0.46374914 92:0.78874457 93:0.41280308 94:-0.075325713 95:0.61868209 96:-0.76577652 97:-0.90883404 98:0.30766606 99:-0.1310641 100:-0.34800774 101:0.26609385 102:0.41062599 103:0.62503296 104:0.48962343 105:0.40482554 106:0.39803812 107:0.030763261 108:0.033384707 109:0.20299242 110:-0.58215356 111:0.57117659 112:0.9167673 113:0.53502047 114:4.7367812e-05 115:-0.33770648 116:0.9977318 117:-0.51940984 118:0.47213259 119:-0.2986536 120:4.336781 121:3.6525724 122:0.48038214 123:0.67631364 124:0.32531843 125:0.65976316 126:-0.43233556 127:0.65887016 128:0.011435635 129:-0.21840754 130:-0.040294878 131:0.62786114 132:0.45259449 133:0.41234648 134:0.93823123 135:0.60884267 136:0.58085215 137:0.49816048 138:0.4621172 139:0.47906145 140:0.55568326 141:0.52224964 142:0.49402195 143:0.44597977 144:0.48658913 145:1.1859074 146:-1.1306398 147:-0.34312725 148:0.31471351 149:1.3147254 150:0.51354522 151:0.087105945 152:0.79041219 153:0.33301985 154:0.58145571 155:0.50235802 156:-0.53700042 157:-0.76339543 158:0.51231694 159:0.5150584 160:1.4295864 161:0.60459024 162:0.5009433 163:0.10997097 164:0.19357233 165:-0.65028518 166:0.21748368 167:0.42292085 168:0.46606547 169:-1.0848961 170:-1.6013613 171:-0.54808056 172:0.35177451 173:0.46442714 174:-0.29561669 175:0.86621553 176:0.34357074 177:-0.56157357 178:0.96917486 179:0.25696987 180:-1.120195 181:-0.041591205 182:0.36050656 183:0.23282471 184:0.19314237 185:0.68555349 186:-0.79425454 187:-1.0736364 188:-1.6335136 189:0.35306379 190:0.33324867 191:0.14532474 192:-0.21236242 193:0.14199547 194:0.55563766 195:0.52676213 196:0.45154238 197:0.44138297 198:-0.057005238 199:0.20342882 
0.29452037722616 0:0.61689097 1:0.75034666 2:0.63917994 3:0.64317828 4:1.06215 5:0.31710339 6:1.088644 7:1.3582075 8:1.3497047 9:0.909401 10:0.72065556 11:1.622619 12:0.53687292 13:1.3228687 14:0.81020766 15:0.62661922 16:2.6480963 17:0.67035598 18:1.4327981 19:1.0874428 20:1.7589639 21:0.63485026 22:0.5645501 23:1.0187328 24:1.5017973 25:1.5258554 26:0.7084648 27:1.6417687 28:0.53231561 29:0.57779813 30:0.94609475 31:0.94366288 32:0.51543611 33:0.59021443 34:0.75496066 35:0.88160253 36:0.14560068 37:1.0180732 38:0.46013215 39:1.239816 40:0.79819179 41:1.4129325 42:0.51827711 43:0.63371021 44:0.57151186 45:0.61415803 46:-0.23721534 47:0.59402102 48:0.23945239 49:0.62047148 50:0.53099686 51:0.65733266 52:0.51296121 53:0.72399956 54:1.0535212 55:0.77473557 56:0.53264445 57:0.52273589 58:1.412416 59:0.2624301 60:0.74110097 61:0.52809274 62:0.54016489 63:0.57818556 64:0.54021645 65:0.84977722 66:1.2376887 67:0.8247031 68:1.433304 69:1.1263211 70:1.4976733 71:1.9109857 72:0.50010282 73:1.0548847 74:0.54123747 75:0.78075206 76:0.97635525 77:1.0226309 78:1.5173819 79:1.313795 80:1.315907 81:1.2624546 82:0.53062916 83:0.52548057 84:0.99922144 85:0.65099949 86:2.2629604 87:1.3398535 88:0.43407804 89:0.88753051 90:0.5330373 91:0.5900951 92:2.0512285 93:1.0329791 94:1.2177311 95:1.9703354 96:1.9716947 97:0.082063317 98:0.35178646 99:0.15172517 100:1.3954076 101:1.0522308 102:0.64015228 103:1.009634 104:0.9958778 105:0.83566529 106:0.90512097 107:0.93647552 108:0.59859151 109:0.70141912 110:1.0568708 111:0.64131433 112:1.7461387 113:0.83642513 114:0.76667172 115:0.47199506 116:0.94278371 117:1.0990458 118:0.51630527 119:1.403524 120:1.3948864 121:1.3143932 122:0.59375972 123:1.4269059 124:0.56479317 125:2.2198806 126:2.1539125 127:1.4890935 128:0.38496432 129:1.8980761 130:1.592105 131:1.054837 132:0.58303785 133:0.6652602 134:0.79571521 135:1.183304 136:0.70801568 137:0.69565707 138:1.3873812 139:0.56745905 140:0.84393942 141:0.53982139 142:0.609052 143:0.60004944 144:0.53229046 145:1.4237546 146:0.98912275 147:1.5523951 148:0.88989514 149:0.47590917 150:0.80090374 151:0.70671046 152:0.064584255 153:1.1676987 154:1.2223072 155:0.54730779 156:0.18124796 157:1.1320666 158:0.63355237 159:0.59898227 160:1.3401568 161:1.5465069 162:0.54289234 163:1.7322295 164:0.63672799 165:0.74063599 166:0.34009281 167:0.73206753 168:0.52896756 169:1.3668293 170:1.2585304 171:1.5107238 172:1.2206204 173:0.59934145 174:1.7795742 175:1.1786325 176:1.1057372 177:1.2947332 178:1.4134486 179:1.6119651 180:0.93120092 181:1.1857345 182:0.36312434 183:0.71579278 184:1.7397455 185:0.60998631 186:0.69874793 187:1.1198055 188:2.2977123 189:0.62973708 190:0.70327139 191:0.5964427 192:1.3585422 193:1.263077 194:1.0101944 195:3.0278106 196:0.57865083 197:0.76912433 198:1.0613791 199:0.41663012 
0.6964399917697807 0:0.34868848 1:0.44763622 2:0.64100617 3:-0.49047798 4:0.78727835 5:0.84983969 6:-0.35244092 7:0.71757764 8:1.0221682 9:1.0866585 10:0.43669626 11:-0.1620777 12:0.33026236 13:0.58718991 14:0.59923166 15:0.55010229 16:-0.30556113 17:-0.24235471 18:0.18042305 19:0.0043494049 20:1.1294696 21:-0.12875704 22:0.43546224 23:1.1680601 24:-0.42139381 25:0.99345332 26:0.025466973 27:0.62343723 28:0.10480375 29:0.42371306 30:0.29283735 31:1.2708956 32:-0.31765079 33:0.39657515 34:-0.17403772 35:0.74028397 36:0.84273612 37:0.13502714 38:0.62417746 39:0.056920286 40:0.20295593 41:0.84714079 42:0.15982406 43:0.40322721 44:0.35339808 45:0.11485115 46:0.70725238 47:0.054455649 48:-0.051711269 49:0.16535857 50:0.088128775 51:0.56926703 52:0.32091635 53:0.12561336 54:-0.0090315286 55:0.26804486 56:0.81842738 57:0.2558952 58:0.48158157 59:-0.060196538 60:0.011706493 61:0.14012182 62:0.30241749 63:0.40838134 64:0.10925937 65:0.14222953 66:0.48548311 67:-0.055000376 68:0.31076846 69:0.53722036 70:-0.18266006 71:0.18134834 72:0.98496425 73:0.54899931 74:0.31324714 75:-0.31803581 76:-0.71773058 77:-0.14587584 78:-0.29773536 79:0.30785146 80:0.21584633 81:0.36398917 82:0.40775099 83:0.37689024 84:2.1394627 85:-0.15800682 86:-0.64891028 87:-0.23822144 88:0.25955459 89:-0.47263911 90:0.13854776 91:0.1777869 92:0.033106685 93:-0.011556693 94:0.493325 95:0.74326926 96:0.50221592 97:2.0934741 98:-0.48675278 99:0.46984631 100:-0.44594011 101:-0.40184921 102:0.75960398 103:0.75584763 104:-0.21227182 105:0.71034312 106:0.57935858 107:1.1720308 108:0.6605708 109:0.5438329 110:0.087650143 111:0.47131863 112:-0.66744161 113:-0.38097626 114:-0.63566417 115:0.53311795 116:-0.12450022 117:0.71190208 118:0.16002795 119:0.41421568 120:0.18176532 121:-0.5654828 122:0.23309998 123:0.21610139 124:0.41378504 125:-0.059153266 126:-0.0443606 127:-0.10516871 128:5.9454098 129:3.2947519 130:1.1983937 131:0.93798441 132:0.027141336 133:-0.60832232 134:0.31184226 135:-0.14657396 136:0.40857685 137:-0.070128061 138:0.054445282 139:0.37842235 140:0.46809024 141:0.23142478 142:0.30384764 143:0.38792899 144:0.20251986 145:-0.35584307 146:-0.51689827 147:-0.069366448 148:0.60664791 149:-0.67459202 150:-0.32164866 151:0.42058837 152:-0.17675504 153:-0.44133094 154:0.96753782 155:-0.27212369 156:0.83161426 157:0.18787935 158:0.26072669 159:-0.022218267 160:0.18033317 161:0.2239743 162:0.093950942 163:0.48393115 164:0.43157873 165:-0.39545095 166:0.3111282 167:0.079821236 168:-0.12947734 169:0.079652779 170:0.67246085 171:1.6067911 172:0.097831748 173:0.35664567 174:-0.52551174 175:0.30179071 176:-0.97453082 177:0.3351959 178:-0.45999375 179:0.19120012 180:1.2754302 181:0.022166535 182:0.6104551 183:0.61952084 184:0.34710118 185:0.73956817 186:0.1818542 187:1.1453621 188:1.979251 189:-0.25302666 190:-0.18940242 191:0.27355602 192:0.17678623 193:1.2135347 194:1.1244874 195:-0.48398063 196:-0.12551036 197:0.00059611321 198:0.65628791 199:0.49928099 
1 0:-0.41415787 1:-0.022625111 2:-0.30467132 3:0.82098097 4:-0.4529247 5:-0.59890002 6:-0.44078568 7:-0.056188818 8:-0.51480502 9:-0.79067159 10:0.35360742 11:-0.7589184 12:-0.18134356 13:-0.20131174 14:0.11339524 15:-0.32029739 16:-0.29842162 17:-0.49880913 18:0.61975193 19:0.37560418 20:-0.15747847 21:0.21103989 22:-0.53498369 23:0.38857505 24:0.56603944 25:0.38978839 26:-0.25855348 27:1.3368552 28:-0.22910513 29:-0.2872785 30:-0.34616321 31:-0.60146248 32:-0.036302835 33:-0.51264393 34:0.36471361 35:0.13373017 36:0.45354086 37:-0.19189596 38:-0.52953011 39:-0.04504478 40:-0.43413121 41:0.51024562 42:-0.15185739 43:0.031784728 44:-0.01797349 45:-0.36205798 46:-0.26804468 47:-0.50324798 48:0.62586892 49:1.1984007 50:-0.19387364 51:-0.27945778 52:-0.73793775 53:-0.49786982 54:-0.59913069 55:-0.31223568 56:0.43759447 57:0.17161556 58:-0.80243361 59:0.054628026 60:0.15703353 61:0.10544895 62:-0.1295146 63:-0.22628278 64:-0.31483373 65:-0.022284592 66:-0.082473882 67:-0.1881804 68:0.96618176 69:0.28952837 70:0.60179085 71:0.57734585 72:-0.45166683 73:-1.0939227 74:-0.26948997 75:-0.28534195 76:-0.76864201 77:-0.34269127 78:1.1397203 79:-0.009079867 80:0.75139928 81:-0.1672495 82:-0.32687989 83:0.071879953 84:-0.21439762 85:-0.42869011 86:0.090673529 87:-0.59424675 88:0.11007302 89:0.22733358 90:-0.22397465 91:0.083608538 92:-0.19899498 93:0.11667113 94:0.53531301 95:-0.76633066 96:-0.21298663 97:0.78059077 98:-0.1430988 99:0.63866973 100:0.74933416 101:0.17285307 102:-0.29278907 103:0.23754674 104:-0.1303568 105:0.22098634 106:-1.195877 107:-0.73082006 108:0.14373507 109:-0.11942855 110:-0.94458503 111:0.52430147 112:-0.81350148 113:-0.24028583 114:-0.014607049 115:0.90681171 116:-0.059654277 117:-1.0518243 118:-0.021499913 119:-0.25672024 120:0.18100679 121:0.54378301 122:0.28387487 123:0.2726666 124:-0.32079348 125:-1.4970298 126:-0.9819411 127:-0.1491311 128:-0.59594274 129:-0.016803674 130:0.55816793 131:0.37233067 132:0.82144541 133:0.30351183 134:-0.2942932 135:-0.0077461898 136:0.1750758 137:-0.14808179 138:-0.16866447 139:-0.24681348 140:-0.12728737 141:-0.21786398 142:-0.10600951 143:0.16425665 144:-0.16078502 145:-0.2857672 146:-0.53234857 147:-0.26128137 148:0.1305555 149:-0.57551277 150:0.20873719 151:1.0498787 152:0.063530236 153:-0.30319536 154:0.52541178 155:-0.13595596 156:-0.2305162 157:0.18436578 158:-0.58304971 159:-0.21523708 160:-0.060576305 161:-0.015621107 162:-0.23409529 163:0.86233675 164:-0.32937017 165:0.65626454 166:-0.12478701 167:-0.25264031 168:-0.36704698 169:-0.51182771 170:-0.24699682 171:-0.68622619 172:-0.47458109 173:0.087518528 174:-0.54014516 175:-0.17668168 176:-0.039509423 177:-0.16524535 178:0.30418923 179:0.2243889 180:-0.025035227 181:0.20488019 182:-0.042352077 183:0.48507184 184:0.48252702 185:-0.080150329 186:0.13383415 187:-0.12061618 188:1.1967049 189:-0.33315256 190:-0.39945352 191:-0.076463543 192:-0.61703432 193:-0.26707777 194:-0.0096842116 195:0.12487379 196:-0.39237332 197:-0.4858582 198:-0.52006763 199:-0.70178753 
0.7181416398550055 0:0.58187926 1:0.36819562 2:-0.072055317 3:0.28990361 4:0.56767017 5:-0.64988643 6:1.9853414 7:-1.0775672 8:-0.55816436 9:-0.38196966 10:0.20909594 11:-0.11827903 12:0.45885083 13:-0.17615458 14:-0.28422955 15:0.43977365 16:0.23022303 17:0.45855069 18:0.36973837 19:1.197691 20:-0.71464926 21:0.53785366 22:0.16388316 23:0.10444652 24:1.691453 25:0.82383049 26:0.41868517 27:-0.90505338 28:0.50218362 29:0.55421674 30:0.78183246 31:0.96618402 32:0.50932276 33:0.5526917 34:0.62671733 35:0.33511245 36:-0.0492897 37:0.73570645 38:-0.3607423 39:-0.097360425 40:-0.42573789 41:0.45052183 42:0.43560404 43:0.41060519 44:0.40526515 45:0.48778203 46:-0.54325837 47:-0.013646668 48:-0.12003601 49:-0.14590038 50:0.49181595 51:0.43520567 52:1.0657735 53:-0.034492303 54:-0.37336278 55:0.39040229 56:-0.74646568 57:0.51632994 58:-0.49532431 59:0.23775721 60:0.011657512 61:0.19422421 62:0.44472972 63:0.42949167 64:0.4845368 65:0.6617918 66:-0.54095876 67:-0.67324454 68:-0.032551933 69:0.12926559 70:-0.26662543 71:0.7874878 72:-0.070900291 73:-0.43131271 74:0.43274605 75:0.47563019 76:0.64185685 77:0.94027519 78:0.2559782 79:0.39730936 80:-0.1892447 81:0.1822715 82:0.45620692 83:0.39717481 84:0.43474379 85:-0.49894497 86:-0.20342912 87:1.2179309 88:-0.11204748 89:-0.22057018 90:0.49497783 91:0.39003181 92:-0.68785506 93:-0.0045413156 94:-0.62549508 95:-0.60319501 96:0.097242042 97:0.1542746 98:0.47949305 99:0.31038025 100:0.65481311 101:0.19277427 102:0.42419168 103:-0.4386169 104:0.30238608 105:0.63224077 106:-0.0039474033 107:-0.33153319 108:-0.23185363 109:0.44886288 110:-0.30289546 111:0.33238643 112:-0.27961358 113:0.6293171 114:0.30622107 115:-0.15264085 116:0.076862536 117:-0.042767007 118:0.50806284 119:1.376881 120:1.6694231 121:1.220914 122:0.35112247 123:0.11324074 124:0.52813327 125:-0.076773718 126:0.64501256 127:0.41526842 128:-0.76967388 129:-0.070442691 130:0.30757296 131:-0.9066692 132:0.48681015 133:0.44611275 134:8.911767 135:4.2147789 136:0.26438808 137:0.56354439 138:-0.20464025 139:0.54518938 140:0.30182886 141:0.49823973 142:0.66038913 143:0.4531706 144:0.48053706 145:0.33681163 146:1.805604 147:0.94317853 148:-0.33262664 149:-0.28016117 150:0.19685385 151:-0.58850986 152:-0.2185289 153:-0.30509001 154:-0.76066446 155:0.64550048 156:-0.30406991 157:-0.43893492 158:0.49963358 159:0.49060845 160:0.13632526 161:0.055035554 162:0.52089208 163:-0.13099343 164:0.56001157 165:0.21575065 166:-1.1706345 167:0.39843982 168:0.48128712 169:-0.9082846 170:-0.68435997 171:-0.64183772 172:-0.49114281 173:0.51141977 174:-0.2533651 175:-0.17679429 176:-0.69037783 177:-0.44734052 178:0.39658648 179:-0.71591336 180:-0.83791971 181:0.59896511 182:-0.64400125 183:0.36142185 184:-0.19785306 185:0.67114067 186:-0.42319149 187:-0.80446661 188:0.1419898 189:0.4297429 190:0.32866743 191:0.38034776 192:0.15497839 193:-0.75201309 194:-0.2364185 195:-0.45235559 196:0.50791663 197:0.31034175 198:-0.22646987 199:0.30547205 
