svm_type c_svc
kernel_type rbf
gamma 0.00502513
nr_class 2
total_sv 64
rho 0.833989
label 1 -1
nr_sv 12 52
SV
1 0:4.7108622 1:1.8428339 2:3.2504575 3:0.4396956 4:-0.22767851 5:-0.1360198 6:-0.012047886 7:0.52500886 8:0.69590956 9:0.43208173 10:0.0153264 11:-0.44077814 12:-1.3427533 13:0.5211615 14:-0.43708643 15:-1.2278391 16:-0.53879416 17:-0.63196224 18:0.15648703 19:-0.20630707 20:-1.0422561 21:-0.47982267 22:0.42536995 23:-0.20323683 24:-0.41916469 25:-0.20612268 26:-0.016797325 27:0.28488931 28:0.13954744 29:0.3134965 30:-0.57468629 31:-0.41635895 32:-0.10931099 33:-0.20878939 34:-0.77489018 35:0.14293312 36:0.26527053 37:-0.72169197 38:0.70683122 39:1.0212749 40:-0.59810251 41:-0.36273864 42:0.12609446 43:-0.22550935 44:0.06202174 45:-0.82000917 46:0.36436179 47:-0.24163713 48:1.2808017 49:-0.0092899892 50:0.2841073 51:-0.42116645 52:-1.1261052 53:-0.98603714 54:0.10125156 55:-0.1970668 56:0.40160269 57:0.23505959 58:-0.82847905 59:-1.657649 60:-0.091209523 61:0.15332888 62:0.21921296 63:-0.87498206 64:0.20977499 65:0.1997799 66:-0.099494591 67:0.11257792 68:-0.11895146 69:0.34504172 70:-0.3549439 71:-0.79703587 72:0.11507081 73:2.8294818 74:0.05415611 75:0.28793129 76:-0.76690489 77:-0.95586365 78:-0.13331965 79:0.3010197 80:-0.21331765 81:0.23914857 82:-0.97927237 83:1.2955002 84:0.015955133 85:-0.30034083 86:1.1672897 87:0.74990922 88:-0.47120556 89:-0.88523054 90:-1.4075948 91:-0.49388516 92:-0.43718991 93:-0.41805461 94:-0.32544154 95:0.13544236 96:-1.1046208 97:-1.6180252 98:0.24983416 99:0.036203314 100:1.0148256 101:-1.5326254 102:0.67707729 103:-0.50211495 104:0.3956784 105:-0.069003969 106:-0.41303715 107:-0.52127606 108:-0.29086164 109:0.3868224 110:-0.016172793 111:-1.2228249 112:0.32980359 113:0.27610898 114:-0.28506103 115:1.1324433 116:-0.078603394 117:0.31948611 118:0.40650642 119:-0.44187099 120:-1.2990474 121:0.26838917 122:-0.39175388 123:0.41594481 124:-0.20913184 125:-0.1716065 126:-0.93114209 127:-1.0985067 128:0.25898507 129:-0.30172774 130:0.1871032 131:-0.33268625 132:-0.27103996 133:1.0790515 134:-0.79035819 135:0.17790709 136:0.27331126 137:-0.95115286 138:0.27842084 139:-0.12565669 140:-0.19085824 141:0.20009139 142:-0.42371455 143:0.32778659 144:-0.46014261 145:0.5144195 146:0.63524044 147:-0.14083019 148:0.4986034 149:0.077373795 150:-0.52040029 151:-0.75093192 152:-0.47808361 153:0.87309086 154:-0.52051443 155:0.056922186 156:0.31817904 157:-0.52148926 158:-0.45802766 159:-0.24760972 160:-0.17943352 161:-0.77950519 162:-0.11137548 163:-1.2297703 164:0.20477808 165:0.26587218 166:0.150391 167:-0.84100199 168:-0.41675988 169:0.63483775 170:0.78573811 171:-1.353572 172:-0.11316533 173:-0.045852549 174:-0.203714 175:0.4642897 176:-0.20266251 177:-0.22664937 178:-0.57633466 179:0.22291972 180:-1.1632434 181:-0.41179255 182:0.32116002 183:-0.65475559 184:0.66802907 185:0.61841041 186:-1.1511855 187:1.2107415 188:0.5878706 189:-0.3316454 190:-0.074396931 191:-0.21869206 192:-0.34098303 193:0.16338328 194:-0.73313993 195:0.35345343 196:-1.4001492 197:0.30543047 198:-0.074497066 199:-1.231537 
1 0:1.8556008 1:1.6571615 2:0.7354995 3:0.56141758 4:2.5045712 5:4.4977632 6:0.41624406 7:0.38958102 8:0.81591153 9:0.1403981 10:1.9485302 11:0.95278031 12:1.5273402 13:1.4892864 14:1.370003 15:0.61478627 16:1.7647215 17:1.7410591 18:0.077792764 19:0.78298837 20:1.1728648 21:0.52186435 22:0.41493663 23:1.6056768 24:0.27203628 25:0.9467628 26:1.3851957 27:0.34930316 28:0.74596298 29:0.26226842 30:0.58934277 31:0.2154562 32:0.68424338 33:1.0897796 34:1.5247056 35:1.902665 36:0.33878624 37:1.4375517 38:0.42479724 39:0.93644768 40:1.3616512 41:1.790683 42:0.4766413 43:-0.074312583 44:0.49473813 45:1.5824746 46:1.4712323 47:1.6962451 48:0.6010074 49:0.90161234 50:1.1663823 51:0.42256048 52:0.32161537 53:1.0656961 54:1.4396204 55:0.79630679 56:0.60497147 57:0.2919656 58:0.64864141 59:0.27451575 60:0.48928949 61:1.4392667 62:1.234334 63:1.3536576 64:0.49142694 65:0.42542142 66:1.3700309 67:1.2781078 68:0.33846331 69:1.2273242 70:1.4387295 71:0.52740335 72:0.40716192 73:2.2079051 74:1.4293519 75:1.1391358 76:0.88822263 77:1.8334124 78:1.2644829 79:0.28701198 80:0.81635183 81:0.72439384 82:2.0173812 83:0.28397384 84:1.0607057 85:0.99685037 86:1.5379438 87:0.91987312 88:0.33647236 89:0.92360824 90:1.2481472 91:2.6274164 92:1.2718573 93:0.81809402 94:1.4464965 95:0.81690234 96:0.89723188 97:0.86852121 98:2.563307 99:-0.081450358 100:2.3295457 101:1.4089404 102:1.3962289 103:1.1520698 104:0.9054119 105:0.93453723 106:1.4228246 107:0.16887151 108:0.46624717 109:0.91541237 110:1.3949535 111:1.0783364 112:0.31373361 113:0.93781143 114:0.92797965 115:0.52025402 116:0.574956 117:0.35196331 118:0.34012458 119:1.1960618 120:1.1727139 121:0.84276479 122:1.0776006 123:1.2080272 124:0.87516034 125:0.51322448 126:0.30921438 127:1.0074586 128:0.6595962 129:1.1663635 130:0.55194539 131:2.1082082 132:1.3951607 133:0.88982177 134:0.37529576 135:0.79317373 136:1.015857 137:1.0618634 138:0.56910795 139:0.77200717 140:0.46359959 141:0.93706495 142:1.699602 143:0.92897594 144:0.61077398 145:0.22712478 146:1.1872848 147:1.4217608 148:0.1722376 149:1.5985641 150:1.0726436 151:1.6851298 152:0.90804797 153:0.96263003 154:1.4556937 155:1.1090794 156:0.44787562 157:0.88003063 158:0.82780743 159:0.83979058 160:0.68199867 161:0.43342009 162:0.81541061 163:0.70119935 164:0.6003446 165:1.3224159 166:0.91906655 167:2.0668809 168:0.69112432 169:0.57244289 170:1.8677467 171:1.5136584 172:0.82960624 173:2.4936824 174:1.0267119 175:0.70529509 176:0.75415909 177:0.84463626 178:0.13353872 179:0.14276259 180:1.6090983 181:2.2596781 182:0.32324529 183:0.069282122 184:1.4368316 185:0.7440455 186:0.47305718 187:0.11079082 188:0.061694924 189:1.6725729 190:0.82631296 191:0.62031078 192:0.86241573 193:1.0885255 194:1.1783098 195:0.37025568 196:1.2093952 197:0.31501272 198:0.82887846 199:0.70646578 
1 0:1.0291733 1:0.1404116 2:-0.12075453 3:0.47225612 4:0.48593238 5:0.97957057 6:1.7768228 7:1.5393687 8:1.361299 9:0.39002782 10:0.24913767 11:0.83312285 12:1.2214236 13:0.91105133 14:-0.60095924 15:-0.11652319 16:0.66124398 17:-0.11774072 18:0.66911012 19:-0.05167494 20:-0.13292213 21:0.59795237 22:0.48876813 23:0.092502519 24:-0.36767206 25:0.49286017 26:0.26814458 27:0.38582206 28:0.39543098 29:0.36549059 30:1.0583647 31:-0.60219455 32:0.45883226 33:-0.012952524 34:0.16563249 35:0.29417399 36:0.28795719 37:0.81198978 38:0.51584005 39:0.14806853 40:1.9572246 41:1.4306154 42:0.27734751 43:0.28344724 44:0.27226329 45:1.6145139 46:0.78471607 47:1.2076533 48:0.39253527 49:0.61805558 50:0.13731408 51:-0.009632499 52:0.96341825 53:-0.1144448 54:-0.61528778 55:1.3911177 56:-0.6247611 57:0.66278785 58:0.029598724 59:1.7820106 60:0.18417034 61:0.58238614 62:0.21887025 63:0.92752677 64:0.50940025 65:0.95658344 66:1.0682065 67:0.032987583 68:0.79582024 69:0.49945906 70:1.2509794 71:1.5825516 72:-0.03577571 73:0.70653826 74:0.60467345 75:1.3513035 76:0.29570761 77:0.23514882 78:1.5559679 79:0.36381087 80:0.050353732 81:0.55823511 82:1.3579677 83:0.93119133 84:0.68388289 85:1.0328395 86:-0.02879888 87:0.49197683 88:0.83442593 89:1.1771115 90:3.3105977 91:0.83044642 92:1.793692 93:-0.098304071 94:-0.10087401 95:0.13480933 96:-0.18601172 97:0.69273418 98:0.87386471 99:0.6665318 100:1.2059976 101:1.777068 102:0.83435631 103:0.9811368 104:0.95511359 105:1.4900225 106:0.48753896 107:-0.86383241 108:0.63567883 109:-0.017696019 110:0.52532476 111:0.86919308 112:0.39524686 113:0.16069129 114:-0.61844712 115:0.82423526 116:0.34627792 117:0.39252439 118:0.36897194 119:0.53815246 120:-0.31325975 121:-0.57149291 122:1.33066 123:0.90760231 124:0.31939203 125:0.039030455 126:-0.17952803 127:0.0013954822 128:-0.03578018 129:0.9602561 130:0.44462323 131:0.81635481 132:0.43732291 133:0.79871655 134:0.24414523 135:0.96889263 136:0.93771654 137:1.3449619 138:0.46804169 139:0.3308447 140:0.02442725 141:0.86873704 142:0.75945264 143:0.422196 144:-0.040573917 145:0.75740856 146:0.17056467 147:1.2423288 148:0.62355399 149:0.17285837 150:0.5122 151:0.63845724 152:0.54424942 153:1.0087563 154:1.0589577 155:0.33042538 156:0.31929961 157:0.52802128 158:0.56699657 159:0.18795002 160:-0.44685799 161:-0.28965777 162:0.66231185 163:-0.017670073 164:0.19460382 165:1.1374239 166:-0.30245429 167:0.95850575 168:0.044285465 169:0.1835058 170:-0.096226424 171:1.861014 172:0.21420082 173:0.19297503 174:0.67254329 175:0.48831958 176:0.74569637 177:0.99546099 178:0.43392867 179:0.18677185 180:0.83596414 181:-0.55458099 182:0.36808833 183:1.8455813 184:0.9454509 185:0.58691722 186:0.64241749 187:0.28441539 188:1.472573 189:1.4598742 190:0.6601131 191:-0.64272231 192:0.20908572 193:0.39567301 194:1.664248 195:0.15766566 196:-1.029669 197:0.38241157 198:1.0413536 199:1.3666086 
1 0:-0.49578252 1:-1.4469939 2:-0.64000916 3:-0.42302999 4:0.28321511 5:-0.16467066 6:-0.077281557 7:0.097114526 8:-0.24387947 9:1.0769415 10:4.0681834 11:6.2471929 12:0.33366403 13:-1.1620612 14:-1.0732254 15:-0.018121174 16:-1.0696347 17:0.65495992 18:-0.52781665 19:0.090582378 20:0.5714817 21:-0.15772457 22:-0.29454553 23:-0.40795997 24:-0.58711636 25:0.21116045 26:0.19674975 27:-0.13698085 28:-0.3445895 29:-0.058430295 30:0.6411342 31:-1.4040211 32:0.31813285 33:0.17259996 34:-0.66293997 35:-0.9349587 36:0.023003055 37:-0.19094276 38:-0.34262028 39:-0.73902297 40:-1.3601246 41:0.199816 42:0.14196484 43:-0.82029068 44:0.042772014 45:-0.43461895 46:-0.094971031 47:0.51002097 48:-0.64526111 49:-0.23113565 50:-0.72651637 51:-0.94099206 52:0.24791504 53:-1.0237911 54:0.83650553 55:-0.34813118 56:-0.12934516 57:-0.20898932 58:1.6094626 59:-0.93611789 60:-0.57846266 61:-0.28997567 62:-0.47275001 63:-1.3278381 64:0.22513664 65:-1.5290954 66:-0.21229526 67:-0.70339465 68:-0.35184029 69:-0.76841611 70:-0.013911368 71:-0.71737772 72:-0.2610147 73:0.91025382 74:0.51014489 75:-0.51846123 76:0.76294047 77:-0.03733575 78:1.530562 79:-0.077626884 80:1.0711851 81:-0.2532436 82:0.16277328 83:-0.51276076 84:-0.3983537 85:1.5523061 86:-0.55432498 87:-1.776746 88:0.23347133 89:0.0069036703 90:-1.1123817 91:0.8623454 92:-0.95389068 93:-0.99025267 94:-0.1736782 95:-1.57227 96:-0.47078663 97:-1.2075911 98:0.60425854 99:-0.51678765 100:0.54119313 101:-0.23354129 102:-0.61840355 103:0.78407961 104:-0.95794684 105:-0.6610958 106:-0.41362411 107:-0.41277757 108:0.28445742 109:0.18344346 110:-0.81862009 111:-0.27794951 112:0.002960488 113:-0.70071435 114:-1.2250111 115:-0.89832193 116:-0.35299411 117:0.1416849 118:-0.13704494 119:-0.8070963 120:0.31789717 121:-0.93090379 122:-0.18925552 123:0.20978449 124:-0.14319895 125:-0.47759274 126:-0.62929934 127:-0.3263987 128:-0.062867366 129:-0.61887187 130:0.021814922 131:0.26873091 132:-0.5595836 133:-1.8692558 134:-0.12040741 135:-0.59488255 136:0.94913197 137:-0.25523409 138:0.0060197096 139:-0.10463044 140:-0.080155924 141:-0.32137021 142:-1.184599 143:-0.75631928 144:-0.25024655 145:-0.11238893 146:-0.54790586 147:-1.1936796 148:-0.34308216 149:1.1158134 150:-0.76322949 151:-0.29805541 152:-0.80187386 153:-1.3990777 154:-1.0727792 155:-1.0304148 156:-0.15874957 157:-0.68567896 158:-0.22287761 159:-1.740831 160:-0.44361782 161:1.6815004 162:-0.0062736101 163:0.35909888 164:-0.23626527 165:-0.96245003 166:-0.62087393 167:-0.95451391 168:-0.29886556 169:-1.2498404 170:-0.86748749 171:-0.81952912 172:0.28489238 173:-1.033523 174:-0.69642037 175:-0.025334867 176:-0.36962673 177:-1.8994921 178:-0.084517471 179:-0.57319295 180:-1.383382 181:0.00074233639 182:-0.11397442 183:-0.47134098 184:-1.7942581 185:-0.24954043 186:-1.3679664 187:-0.97320962 188:0.53793198 189:-1.0068673 190:-0.99351758 191:-0.85558921 192:0.15161237 193:1.3997556 194:0.10327441 195:0.12136157 196:-0.9239077 197:-0.027716838 198:-1.3688697 199:0.2597464 
1 0:0.14603718 1:-0.53767443 2:-0.45153818 3:0.18732473 4:-1.1160847 5:-0.0041335952 6:-0.046153665 7:-0.13742648 8:0.47337225 9:0.27397254 10:0.61474913 11:-0.72514558 12:5.4149537 13:0.97153622 14:5.3355646 15:-0.84268951 16:-2.4458604 17:-0.30333886 18:0.11872669 19:0.077726439 20:0.58655882 21:1.7478857 22:0.36448362 23:-0.57689458 24:-0.30172387 25:-0.16743852 26:-0.75025016 27:0.37301138 28:0.065050185 29:0.3640894 30:-0.29195616 31:-0.71134067 32:-0.53805822 33:-0.21785671 34:-0.10656579 35:-0.58623308 36:0.36113942 37:-0.92045265 38:-0.018199731 39:-0.4952282 40:0.96656156 41:-2.1141419 42:-0.070502467 43:-1.3522885 44:-1.333661 45:-1.1195203 46:-0.77683592 47:-0.98517901 48:-0.46048063 49:-0.99947947 50:-1.3490318 51:-0.46952534 52:0.35746774 53:0.094915889 54:-0.032497965 55:-0.4434101 56:1.2100374 57:-0.56416231 58:-0.43479481 59:-0.88074565 60:-0.81798995 61:-1.413577 62:-0.846789 63:0.64705652 64:0.56164932 65:0.27831364 66:0.060976185 67:-0.5166012 68:1.0465633 69:-0.695647 70:-0.66634172 71:0.016421437 72:-0.12011466 73:-0.31865132 74:-1.8235976 75:-0.06948521 76:0.91804534 77:-0.62478191 78:-0.52364904 79:0.36449274 80:-0.029807581 81:0.31902608 82:-0.29896373 83:-0.34548339 84:-1.1272182 85:-0.46105701 86:-0.79196167 87:1.061131 88:-0.95120889 89:-0.88655806 90:-0.088256553 91:-0.035459816 92:0.43638897 93:-1.9447289 94:-0.77424842 95:-1.0387995 96:-0.089928985 97:-0.91552693 98:-1.5252231 99:0.25381517 100:-1.1992304 101:-0.66843224 102:-1.6074423 103:-0.3030048 104:0.1297576 105:-1.1417273 106:-1.6582648 107:-0.57436281 108:-0.18388115 109:-0.7556625 110:-0.76103729 111:-0.37580448 112:0.37345558 113:-0.21026824 114:-0.14734522 115:0.47576436 116:0.13281965 117:0.27077913 118:0.37464172 119:-1.1156168 120:-0.065269329 121:-0.5758602 122:-0.92814839 123:-0.62381494 124:-0.15097101 125:0.12964019 126:1.5191941 127:-1.8224812 128:0.033129275 129:-1.0407424 130:-0.25164482 131:-0.71181017 132:-0.12732789 133:-0.81102961 134:-0.5494473 135:-0.16432194 136:0.57739013 137:0.88922065 138:0.14614929 139:-0.85904682 140:0.12720922 141:0.66072893 142:-2.4017048 143:-0.55909908 144:0.15224479 145:0.27361187 146:-1.3644814 147:-0.167178 148:0.05384694 149:-0.75021738 150:-0.64340729 151:-0.062546283 152:0.37927291 153:0.47009614 154:-1.1883457 155:-2.2882388 156:-0.49304467 157:-0.87908441 158:-0.66961128 159:-0.42596659 160:-0.96621394 161:-0.72513807 162:-0.27274331 163:1.5875447 164:0.16135733 165:-1.1319213 166:-1.0590374 167:-1.4767606 168:0.17290662 169:-0.84424847 170:-0.23258311 171:-0.66541994 172:-0.079968728 173:-0.24081168 174:-1.7751915 175:-0.24034044 176:-1.1487523 177:-1.3002239 178:-0.2875101 179:-1.3363084 180:-0.79205692 181:-0.76056075 182:0.3549909 183:-0.11634701 184:-0.91988754 185:-0.060705356 186:-0.88339549 187:-0.84032196 188:-0.27980167 189:-0.48287442 190:0.71557432 191:-0.78636342 192:-0.69721371 193:-0.79566407 194:-0.7013486 195:-1.3933837 196:-0.2806389 197:0.38533977 198:-0.8095293 199:-0.85526878 
1 0:0.60287631 1:-1.3548599 2:-0.36894622 3:-0.39630297 4:-1.4524852 5:-0.44733015 6:-0.59840465 7:-0.71288884 8:-0.44483283 9:-0.61911374 10:-0.97844344 11:-0.3787694 12:-0.12780546 13:0.57847077 14:-1.1617128 15:5.9116845 16:1.1871008 17:1.4028447 18:0.16460785 19:-0.32452229 20:0.0076458594 21:0.08560814 22:0.14762713 23:-0.9267841 24:-0.75561434 25:-1.7166466 26:-0.4708384 27:-0.07133501 28:-0.33840573 29:0.077281184 30:-1.4081483 31:-0.3041167 32:-0.85369152 33:0.3669259 34:-1.1455173 35:-1.2459415 36:-0.046194237 37:-0.50921375 38:-1.0018328 39:-0.65672648 40:-0.25666663 41:-1.5360118 42:-0.99965954 43:-1.2045324 44:-1.7276844 45:-0.88818383 46:-0.10495681 47:-0.096390344 48:-0.95479494 49:-0.14461453 50:-0.60447222 51:-0.83632559 52:-1.1144922 53:-0.41237381 54:0.40266427 55:0.23305464 56:-0.19451435 57:-0.26109424 58:-0.37080443 59:-1.270492 60:-0.32383147 61:-0.77994972 62:-0.3785063 63:-1.4809474 64:-0.220181 65:0.10892659 66:1.4251782 67:-1.1732411 68:-0.2463944 69:-1.6725163 70:-1.7520716 71:-0.27652204 72:-0.70677644 73:0.69834292 74:-0.13557848 75:-0.22220457 76:-0.36649176 77:-0.020874163 78:-0.84992528 79:0.018537328 80:-1.2340559 81:-0.34285191 82:-0.68210232 83:-0.18897088 84:-0.99478102 85:0.0080202315 86:-0.27656621 87:-1.3807803 88:-0.060525883 89:2.023577 90:-0.026256504 91:-0.6686846 92:-0.37369174 93:-1.0511976 94:-0.15920427 95:0.17550567 96:-1.1901283 97:0.038919263 98:0.40062642 99:-0.11721625 100:-0.34609804 101:-0.62097579 102:-0.21389982 103:-0.42790103 104:0.42567766 105:-0.5743224 106:1.3708028 107:-1.2316269 108:0.31424704 109:-1.0975367 110:-0.1960486 111:-0.06500899 112:0.12011247 113:-0.69140404 114:-0.66579795 115:0.23564641 116:-0.44474673 117:0.050105918 118:0.081076987 119:-0.90737706 120:0.2533358 121:-0.9677217 122:-0.0063806861 123:-1.0601017 124:-0.70248467 125:0.20901135 126:-0.63456184 127:-1.4867837 128:-0.31169298 129:-0.56737262 130:0.41193888 131:-1.7765317 132:0.73789483 133:-0.92111796 134:-0.4237133 135:-1.5268968 136:-0.089952759 137:-0.66064101 138:-0.50080276 139:-0.263574 140:0.088816494 141:-0.99786967 142:-0.23486054 143:0.36629319 144:-0.70210063 145:0.12677887 146:-0.30780745 147:-0.031935588 148:-0.6204133 149:-0.23561792 150:-0.76560032 151:-0.52374917 152:-0.92522967 153:-0.18216789 154:-0.20381199 155:0.18600415 156:0.064873472 157:-0.69992858 158:-0.96157706 159:-0.86982101 160:-0.96719986 161:-0.75393379 162:-0.15962936 163:0.21865892 164:0.044046044 165:-0.6073547 166:-0.14090623 167:-0.17587626 168:-0.77315778 169:-0.53141612 170:-0.072542027 171:0.71381027 172:-1.0731525 173:-1.387715 174:-2.0948145 175:-0.12237705 176:-1.0210181 177:-1.4144956 178:-0.34536555 179:-0.28299996 180:-0.67947024 181:-0.39989042 182:-0.079051264 183:-1.1273396 184:-0.043518651 185:-0.2386522 186:-1.3741529 187:-0.091171488 188:0.19338849 189:-0.25121307 190:-1.0594355 191:0.77899468 192:-0.33950546 193:1.3381445 194:-0.16641325 195:-1.5343319 196:-1.1263264 197:0.060694322 198:-0.78964752 199:-0.73698264 
1 0:0.020368842 1:0.11370064 2:-0.21096294 3:0.32429945 4:1.6189567 5:0.37834975 6:0.47656241 7:-0.20491441 8:0.84291095 9:0.3149344 10:0.4585512 11:-0.22321509 12:-0.16082284 13:1.0195869 14:0.24783903 15:0.42970943 16:0.27924904 17:1.6095846 18:1.0343418 19:6.8244915 20:2.8128738 21:0.69494593 22:0.38230902 23:-0.61936188 24:-0.30458817 25:-0.43623856 26:-0.17875202 27:0.42474481 28:0.26309583 29:0.39966133 30:1.0397462 31:-0.15909441 32:-0.1461027 33:1.2088635 34:0.385773 35:-0.1244498 36:0.29951859 37:-0.52150303 38:0.55764377 39:0.17812628 40:-0.014676953 41:0.77789021 42:0.05444926 43:1.8621141 44:0.47506657 45:0.21853133 46:0.1506258 47:-0.17922622 48:-0.061650295 49:0.4260588 50:1.4664949 51:0.071421571 52:-0.40087381 53:0.60903937 54:0.10881951 55:0.32424256 56:0.17151667 57:1.2333279 58:0.356233 59:-0.19931424 60:-0.19059104 61:0.85854483 62:1.7192907 63:0.35507399 64:0.25691435 65:-0.53615534 66:1.2220713 67:0.67817068 68:0.24650477 69:1.0063747 70:1.626726 71:-0.53168273 72:-0.011352886 73:-0.34773394 74:0.18306506 75:1.1533047 76:0.69555807 77:1.6830999 78:-0.2087401 79:0.40257072 80:1.8148677 81:0.40022579 82:1.0144199 83:0.39427441 84:1.4469665 85:0.36932042 86:0.9071421 87:1.8570651 88:1.9168323 89:0.63088334 90:-0.50971311 91:-0.22283201 92:0.070516385 93:0.94473004 94:0.7812016 95:2.2020481 96:0.99107003 97:0.57447439 98:-0.26726586 99:1.1183603 100:0.55405426 101:0.83483857 102:0.31362468 103:0.48043868 104:0.12814894 105:0.50512862 106:0.024462014 107:-0.1795826 108:0.42813206 109:0.27693427 110:-0.15864605 111:0.44398642 112:0.36835939 113:0.0061091767 114:0.11047074 115:-0.076421283 116:0.34963158 117:0.51163995 118:0.59182906 119:1.3522563 120:1.4203401 121:-0.12021309 122:0.59509182 123:-0.52746797 124:-0.43687642 125:-0.28637347 126:1.136098 127:0.074524716 128:-0.17958479 129:-0.13743681 130:-0.22558987 131:0.50757712 132:1.1698223 133:1.5123301 134:0.31379768 135:0.22882824 136:-0.2913956 137:-0.48878431 138:-0.20262343 139:-0.033710636 140:0.02194011 141:0.0048858644 142:1.0085237 143:0.34296378 144:0.54134774 145:0.25769493 146:0.51845241 147:-0.033300977 148:0.94225389 149:-0.6544624 150:0.63827932 151:-0.53650826 152:0.029800585 153:1.0595021 154:0.11347584 155:0.81514597 156:0.54933131 157:0.66368896 158:1.8305801 159:1.5024972 160:0.80958569 161:0.12295339 162:-0.019327255 163:0.22969684 164:0.33268753 165:-0.40937626 166:1.0536274 167:-0.57541984 168:-0.36920455 169:0.19345014 170:0.76135826 171:0.44297218 172:0.0043874858 173:1.9572998 174:0.9375267 175:0.7910496 176:1.1290212 177:0.97446734 178:0.32354024 179:1.1026195 180:1.0326639 181:-0.38727072 182:0.41054824 183:-0.3824532 184:0.37174743 185:0.47806934 186:0.85742211 187:0.29112822 188:-0.23842491 189:-0.52849978 190:0.46806848 191:-0.3124193 192:-0.49406606 193:0.04232803 194:-0.021525022 195:-0.27883637 196:0.57965773 197:0.40279785 198:0.47156563 199:-0.15065317 
1 0:-0.83402425 1:0.38444319 2:0.058159441 3:0.57262433 4:1.3011554 5:-0.4882217 6:0.050602555 7:0.23626423 8:0.61144143 9:0.62217814 10:-0.84432042 11:0.064596474 12:-0.20435615 13:-0.2467503 14:-1.6896604 15:-0.20811732 16:-0.23152974 17:-0.49018896 18:0.4566642 19:0.62152493 20:0.39189661 21:3.7939932 22:0.98695588 23:3.3214777 24:-0.59083164 25:-2.3000481 26:0.2510244 27:0.35279882 28:0.37305766 29:0.3313292 30:0.47491032 31:-0.45583487 32:0.068114169 33:0.82193297 34:-0.93081087 35:-2.1343167 36:0.2886413 37:-0.012513422 38:-0.11258931 39:-0.97165996 40:0.40155166 41:-0.62332392 42:0.38991192 43:-1.6047025 44:1.0184476 45:-1.194917 46:-1.9721379 47:-0.55144715 48:0.84276623 49:-0.89466757 50:-1.3413491 51:0.067554444 52:-0.097110823 53:-1.0415009 54:-0.038213398 55:-0.20938984 56:-0.83822584 57:0.41852793 58:-0.5244686 59:0.36089361 60:0.077889547 61:-0.75774509 62:0.48141998 63:0.097135305 64:0.12349343 65:-0.39335263 66:-1.6204852 67:0.42109591 68:-0.81368619 69:-0.51025665 70:-1.1179264 71:0.19889402 72:-0.48335052 73:-0.58905113 74:-1.1920837 75:-0.63350642 76:1.9610275 77:-1.1649405 78:0.36199379 79:0.33772418 80:0.36715558 81:0.33741614 82:-0.57656282 83:0.72062612 84:1.200702 85:0.18214872 86:-1.3559957 87:-2.1448336 88:0.12636708 89:0.072221681 90:0.68226951 91:1.0085305 92:0.68842697 93:-2.8733039 94:-0.063119426 95:-0.032363195 96:-0.26402149 97:-0.028385811 98:0.37804994 99:0.46901271 100:-1.0049427 101:0.31602642 102:-0.66517192 103:1.1404269 104:0.15359758 105:-0.96500295 106:-0.40273005 107:-1.1512834 108:0.37897968 109:0.15302634 110:-0.76813614 111:-0.26376235 112:0.36308086 113:0.37563816 114:-0.58435351 115:0.35144565 116:0.31763452 117:0.4650757 118:0.4567067 119:0.54744291 120:-0.20896465 121:-1.2706842 122:-0.78746355 123:-0.40212774 124:0.21133202 125:0.92363757 126:-0.54302585 127:1.7619821 128:0.55126154 129:-0.91625524 130:0.42285582 131:-1.5579157 132:1.1682651 133:-1.5800796 134:-0.74408191 135:-1.12069 136:-0.91443723 137:-0.8007502 138:-0.4285385 139:0.74007207 140:0.34407878 141:0.49073985 142:-0.58192438 143:0.45290634 144:-0.32037929 145:0.46598417 146:-1.7457553 147:-1.3695662 148:-0.34150341 149:0.66015649 150:1.08452 151:0.8582207 152:-1.7330629 153:-0.96995705 154:0.25821632 155:-0.26895598 156:-0.60104126 157:-0.86477703 158:-0.14365397 159:-1.4041278 160:-0.75446784 161:0.026375713 162:0.55507845 163:-0.25110102 164:0.35409588 165:0.1626927 166:0.032878865 167:-0.4966155 168:0.070508666 169:-2.33389 170:0.15606429 171:1.287356 172:-0.54448205 173:-1.607597 174:-1.7218193 175:0.50140262 176:-1.6124588 177:-0.04581904 178:-0.055940922 179:-0.73427451 180:0.10697084 181:1.0141737 182:0.35151547 183:0.066753723 184:0.34317207 185:0.54984897 186:-0.79908097 187:-1.2253233 188:-0.49086148 189:-1.0386891 190:-0.51012415 191:0.58982837 192:1.3824991 193:2.1204648 194:-0.41756913 195:-1.2868048 196:1.0576038 197:0.34628376 198:-0.96725893 199:-1.1746933 
1 0:-1.9728853 1:-1.0111368 2:0.37974352 3:0.15872455 4:-0.73940194 5:0.78593856 6:0.56340909 7:0.53765053 8:-0.40665162 9:0.3379072 10:-0.29297417 11:-0.38386294 12:-1.886631 13:-0.38180661 14:-0.15586884 15:-1.1490213 16:-1.2081412 17:-2.1418746 18:0.16670401 19:-0.8177284 20:-2.0355947 21:-1.3586906 22:0.29507482 23:-0.24493176 24:7.772646 25:5.3931851 26:2.5608594 27:0.35750639 28:0.12085646 29:0.36502352 30:-0.74326402 31:-1.0673512 32:0.37983733 33:-1.5370153 34:-1.0297903 35:-0.72884399 36:0.28643507 37:-0.50838852 38:-0.76074606 39:0.47683543 40:-2.1310043 41:0.21094093 42:0.2438058 43:0.4474479 44:-1.9143494 45:-0.076331124 46:-0.22921227 47:-0.052384984 48:0.28265876 49:-0.221909 50:-1.2196109 51:0.53617799 52:-1.3831607 53:-0.80397534 54:-1.0925369 55:-1.2196063 56:-0.86544961 57:-0.73670107 58:-1.5644953 59:-0.55078208 60:0.75526738 61:0.50978613 62:-0.43980333 63:0.69314748 64:0.57898998 65:-1.5103457 66:1.3243684 67:-0.45728955 68:-1.190702 69:-0.15312432 70:-0.42275125 71:-0.45169586 72:0.1804318 73:-1.6994588 74:0.049747396 75:-1.2373157 76:-1.3252939 77:-1.5335691 78:-0.035365682 79:0.36595392 80:-0.67104727 81:0.52507597 82:-0.45095116 83:0.29920676 84:-1.0639931 85:-0.96333432 86:-0.21094283 87:-0.99270827 88:-0.6678955 89:-0.69814932 90:-1.5756863 91:0.090017766 92:-1.8594059 93:-0.34914935 94:0.062108383 95:-1.0673844 96:-0.70117724 97:-1.5223941 98:-1.0518537 99:0.14383049 100:0.53534776 101:-0.63342863 102:-0.34559786 103:-0.28634042 104:0.12311283 105:-1.1003305 106:-0.89765978 107:-1.0453633 108:0.50614345 109:-0.86665505 110:0.056619089 111:-1.9842887 112:0.38547987 113:0.21036206 114:1.4980654 115:0.17153838 116:0.91847312 117:0.45611528 118:0.32286602 119:-0.65297359 120:-1.2951894 121:-0.51957846 122:-1.8788413 123:-0.12178914 124:-1.1667513 125:-1.4717906 126:0.68077874 127:-0.80674654 128:0.57634646 129:0.19704553 130:-0.19940183 131:-0.87565821 132:0.48678693 133:-1.4609323 134:-0.35465541 135:-0.27159211 136:-0.90623254 137:-1.8624985 138:0.31987348 139:-0.72367197 140:-0.40139645 141:-0.17460071 142:-1.2397677 143:-0.10934922 144:-0.44166189 145:0.74389118 146:-0.39070508 147:1.4854714 148:0.32176459 149:-1.6736381 150:-0.85779083 151:0.29070458 152:-0.10176355 153:0.80003566 154:0.80012381 155:-1.3313664 156:0.37754411 157:0.77274978 158:0.44640911 159:-0.70342582 160:0.31937546 161:-0.39434689 162:0.20025666 163:-1.3548793 164:0.25660318 165:-0.23471607 166:-1.2435468 167:-0.99217099 168:-0.16645402 169:-0.39408895 170:-0.50760812 171:-1.1998141 172:-0.4642489 173:-0.46885151 174:-0.3892121 175:0.38298205 176:2.1052673 177:0.13477595 178:-0.25609109 179:-0.89487034 180:-0.98473972 181:-0.23184402 182:0.36649957 183:-1.3984036 184:-1.1485296 185:0.60648161 186:-1.6211503 187:0.075439453 188:-0.43967173 189:-0.87252277 190:-0.99529916 191:-1.0839113 192:-0.56025231 193:-1.6436691 194:-0.13697454 195:0.53386444 196:-0.35532144 197:0.3725163 198:-0.20758979 199:-0.57324433 
1 0:0.5918293 1:2.2273133 2:0.5032776 3:0.56755078 4:2.0536246 5:1.7989112 6:0.71368116 7:0.6904729 8:2.0890582 9:0.75587833 10:0.89032942 11:0.52338445 12:1.3291861 13:1.0623338 14:0.5299986 15:0.57286137 16:1.548875 17:1.0398899 18:0.75044292 19:0.7805084 20:1.911606 21:0.94602787 22:0.4623754 23:1.0248555 24:0.41084501 25:1.521361 26:0.69940287 27:0.46538031 28:1.2976007 29:0.4163824 30:2.2991765 31:0.54777157 32:0.34631231 33:1.4676048 34:1.5755999 35:1.7694764 36:0.35723144 37:1.1253887 38:1.0981166 39:1.0072397 40:1.382566 41:1.0171263 42:0.59561419 43:0.23162979 44:0.61273658 45:0.75569361 46:0.97505212 47:1.3537177 48:0.77992332 49:0.83835751 50:0.82665217 51:1.8320119 52:1.4769531 53:0.77860928 54:0.85444653 55:1.071528 56:0.39169049 57:1.5333495 58:0.2868987 59:-0.2066091 60:0.35018224 61:1.4609326 62:1.9177518 63:0.97230959 64:0.49601758 65:1.8165448 66:-0.1401504 67:0.47805017 68:0.56847376 69:1.2143829 70:0.65270597 71:1.2452676 72:0.66003758 73:0.93427801 74:0.62290817 75:1.4371207 76:1.2814934 77:1.8164243 78:1.5748607 79:0.39750537 80:1.9544579 81:0.53818583 82:0.48126259 83:0.97524685 84:2.0365419 85:0.31395251 86:0.66151899 87:1.9876642 88:2.1617324 89:1.5362295 90:2.5109484 91:1.4188005 92:1.2180594 93:1.0954072 94:1.2631423 95:1.5572845 96:0.7453683 97:0.68618464 98:1.4484551 99:0.97151899 100:0.76956087 101:1.7465736 102:0.91451001 103:1.6231402 104:1.1808542 105:0.25747097 106:1.4109679 107:0.33389914 108:0.91940576 109:1.0007684 110:1.2774217 111:1.7120534 112:0.42144847 113:0.82559484 114:0.46366814 115:0.86148572 116:0.47055852 117:0.43230632 118:0.47831774 119:1.4019959 120:1.6618347 121:1.2298933 122:0.55743301 123:2.304904 124:1.7436415 125:0.12421205 126:-0.042978995 127:1.1054555 128:0.44172132 129:0.50459278 130:1.2826344 131:1.1155831 132:0.64991766 133:1.2232298 134:1.2327013 135:0.94685781 136:1.3002951 137:1.1807436 138:0.3955366 139:0.45299935 140:0.13802136 141:0.53513527 142:1.7020983 143:1.0810562 144:0.6050421 145:0.49966097 146:1.3449559 147:0.36269647 148:0.84808505 149:-0.25673544 150:0.75570619 151:0.63134605 152:-0.074214414 153:0.71431452 154:1.3936791 155:1.4412357 156:0.54007715 157:0.76383686 158:2.0358806 159:1.3745898 160:1.0621485 161:0.21643136 162:0.90163875 163:1.4224596 164:0.66111457 165:2.0685966 166:1.5469304 167:1.6230214 168:0.50433564 169:2.0370383 170:1.696647 171:0.89186311 172:0.16864407 173:0.76946992 174:0.94786972 175:0.54244709 176:1.0129987 177:1.4629548 178:0.74909192 179:1.9204081 180:1.4123849 181:2.1913524 182:0.42246401 183:0.59618348 184:1.2633026 185:1.1052799 186:1.2245591 187:0.79892439 188:0.83437794 189:-0.12059004 190:1.3412241 191:0.60029149 192:0.025299368 193:0.62307316 194:2.0323422 195:0.70757127 196:0.42996839 197:0.40723053 198:1.2367707 199:0.79440677 
1 0:-0.81214994 1:-0.82173121 2:0.27962056 3:0.5605613 4:-0.12256263 5:0.38714305 6:0.37751001 7:0.47060043 8:-0.017864428 9:0.37025177 10:-1.1227481 11:0.81469601 12:-0.40984702 13:-1.0834051 14:0.023386164 15:0.28212839 16:0.28424579 17:0.59274888 18:-0.05933769 19:-0.024799159 20:0.60492241 21:-0.088757083 22:0.3516461 23:0.090827972 24:-0.25283229 25:-0.92870939 26:0.79220623 27:0.40553382 28:0.1741613 29:0.38182867 30:2.9958904 31:3.1352127 32:2.8913009 33:-0.73348629 34:-1.1940989 35:-0.28084829 36:0.41207963 37:-1.2907056 38:-0.2716758 39:-0.13837533 40:0.65004432 41:-1.9992232 42:0.35018116 43:-1.3208714 44:-0.53021508 45:-0.36405176 46:-0.29882869 47:-0.01709399 48:0.24089797 49:-1.2630048 50:-0.24625814 51:-1.4241728 52:0.57171053 53:-0.3566246 54:0.8340373 55:-0.43054244 56:0.68473083 57:-0.63490707 58:-0.013535303 59:-0.025005404 60:-0.4099032 61:-1.1667224 62:0.35494319 63:-1.4311682 64:0.42873126 65:0.83538145 66:0.91419119 67:0.58486038 68:-1.2293808 69:0.47261855 70:-0.36176911 71:0.17842524 72:0.29116479 73:-0.5707286 74:-1.6074271 75:-0.66959542 76:0.28155079 77:1.2114949 78:-1.0995747 79:0.37062964 80:-0.022814948 81:0.47839218 82:-1.6057016 83:-0.48320064 84:-0.85123873 85:-0.54105997 86:-1.1895928 87:-0.77334177 88:0.31785992 89:0.18525459 90:-0.20793015 91:-0.16030152 92:0.085381322 93:-0.42572379 94:0.49721295 95:-1.7964368 96:-1.1545084 97:-1.1089844 98:-0.0068395203 99:-0.37036109 100:-0.95340455 101:0.16689339 102:-0.53122848 103:-1.0092129 104:-0.012028682 105:-1.1447966 106:-0.081519723 107:-0.63146102 108:0.42063713 109:0.010594092 110:-0.4707762 111:0.087297685 112:0.39273784 113:0.11946314 114:-0.60002804 115:0.70019895 116:0.433792 117:0.29974124 118:0.33295947 119:0.22061251 120:-0.97218847 121:0.54147589 122:0.019644059 123:0.18918672 124:0.88387662 125:-1.6241099 126:0.83621418 127:-1.1035095 128:0.16439143 129:0.18843043 130:-0.821688 131:-1.593174 132:1.0464463 133:-0.68834478 134:-0.1163006 135:-0.4914223 136:0.5001567 137:-0.26122078 138:0.091425493 139:-0.2166747 140:-0.53418201 141:-0.75227153 142:0.44528764 143:0.65076733 144:-0.56478322 145:0.26379541 146:0.73560458 147:-0.29667202 148:0.23310034 149:0.89242905 150:-0.49601933 151:-0.84168345 152:-1.4199858 153:-0.12793991 154:0.46391961 155:-0.37264526 156:0.19356909 157:0.25642213 158:-0.67612892 159:-0.8313821 160:-0.56592864 161:0.2437572 162:0.40191922 163:0.39037612 164:0.22302814 165:0.2765744 166:-1.8484594 167:0.46798071 168:-0.39327458 169:-0.21576604 170:0.59114015 171:0.61312288 172:-0.81951934 173:-0.690911 174:-0.68931156 175:0.17337094 176:-1.9381976 177:-0.93217927 178:0.085603327 179:-0.38139224 180:1.2772272 181:-0.6338439 182:0.38554496 183:0.26959038 184:-1.3670565 185:0.31287828 186:0.89288235 187:0.20356677 188:-1.0235962 189:-0.41232082 190:-1.5370206 191:-0.91606271 192:0.24672607 193:0.44517177 194:-0.35622624 195:-0.56670672 196:0.15696819 197:0.37817076 198:-1.6000886 199:0.6432488 
1 0:0.18789043 1:-0.44510171 2:-0.16317765 3:-0.13539058 4:-1.3848957 5:-0.73531264 6:0.01516211 7:0.32316658 8:0.73296791 9:-0.4470197 10:0.73233193 11:0.088485517 12:-0.51378548 13:0.034008555 14:0.74674338 15:0.80196381 16:-0.84907514 17:1.4259493 18:0.63780689 19:-0.80330169 20:0.094816297 21:-0.72122198 22:-0.17702515 23:-0.8722055 24:0.34502101 25:-0.19750552 26:0.17509288 27:-0.11204064 28:-0.79895037 29:0.015422609 30:-0.72455078 31:1.2706019 32:-0.36352855 33:2.5725861 34:3.6458328 35:-0.53913122 36:-0.11391215 37:1.4493986 38:0.73421031 39:0.33225501 40:0.15904668 41:-0.6819576 42:-0.017259941 43:-0.56582421 44:0.12950802 45:-0.10929636 46:-0.39431912 47:-1.1528263 48:-0.38664374 49:2.3352342 50:0.67572987 51:-0.32911336 52:-0.30976111 53:-0.92029732 54:0.16414762 55:-0.16407913 56:0.59157813 57:1.0163283 58:-0.95292485 59:0.10738963 60:-0.063669503 61:-0.7344901 62:-0.056949038 63:-1.0831653 64:-0.29921159 65:-0.48414022 66:0.063478604 67:-0.50353605 68:1.1664973 69:-0.96894509 70:0.11607631 71:-1.0963629 72:-0.28074953 73:-0.022297509 74:0.64924753 75:0.59533519 76:-1.7590722 77:0.95548087 78:-1.2036109 79:-0.063833475 80:-0.41799185 81:0.11326134 82:-0.8516137 83:0.28260669 84:-0.39952764 85:-0.26111081 86:0.76350307 87:0.80470532 88:2.2025285 89:-0.38043597 90:-0.24771057 91:-0.15881051 92:-0.29196528 93:0.68745244 94:-0.74542475 95:0.41544327 96:-0.98735124 97:-1.1952163 98:-0.50118148 99:0.60636151 100:-0.37551463 101:-1.0489625 102:1.1627249 103:-0.83840996 104:1.110827 105:-1.1758654 106:-0.11660642 107:-0.32332981 108:-0.48673066 109:-0.0095459316 110:0.51701415 111:0.50807178 112:0.053149875 113:-1.2795852 114:-0.24904445 115:-1.2493534 116:-0.28688514 117:-0.18606216 118:0.077009343 119:-1.2847929 120:0.11538238 121:0.47740945 122:-0.31219566 123:-1.3388767 124:-0.72528797 125:0.79988158 126:-0.88126665 127:-0.99942124 128:-0.18535897 129:-0.67964154 130:-0.42992255 131:0.055953242 132:0.93725342 133:0.98090672 134:-0.68484563 135:-1.1207516 136:0.23144256 137:0.58302206 138:-0.4690465 139:0.4138045 140:-0.63185644 141:-0.77626371 142:-1.503767 143:-1.1840925 144:-0.35694164 145:-0.5353387 146:-0.68368477 147:-0.40867987 148:-0.35902181 149:-0.90264177 150:-0.74946374 151:-0.57367748 152:-0.46007821 153:-0.00074031355 154:-1.9139683 155:-0.69184214 156:-0.11569574 157:-0.210825 158:-0.95675576 159:0.46567553 160:0.72707844 161:-0.41736653 162:-0.40462518 163:1.3650342 164:-0.42846331 165:-0.49066827 166:-0.15778418 167:-0.57424253 168:0.28491929 169:-0.40621233 170:-0.56098127 171:-0.53173524 172:0.1715339 173:-0.93697923 174:-1.0320665 175:-0.047727298 176:-0.67516476 177:0.91871363 178:-0.77615696 179:-0.12187333 180:-0.83632976 181:-0.2281076 182:-0.083102629 183:-0.58863121 184:-0.3043654 185:0.3062833 186:0.51393843 187:0.14536944 188:-0.4792527 189:0.63604599 190:-0.84752899 191:0.80835116 192:0.47211382 193:-0.029259652 194:-0.61214894 195:-0.29380509 196:-0.035035618 197:-0.15320495 198:1.3498683 199:-0.51519167 
-0.208682912247922 0:0.13118443 1:0.75957805 2:-0.3508243 3:0.36232954 4:-0.51853615 5:-1.2749707 6:0.24366294 7:0.2078806 8:-0.34821209 9:-0.014944559 10:-1.0219878 11:-0.48454615 12:0.00047629926 13:-1.5479914 14:-0.73583215 15:-1.4006132 16:0.26115382 17:-0.81527036 18:0.0095720133 19:-0.078724064 20:0.49438816 21:-0.19518174 22:0.020157885 23:-0.91086942 24:-0.24571958 25:-0.75578851 26:-0.28875837 27:0.075311422 28:0.56113565 29:-0.083661348 30:0.3077971 31:-1.74072 32:0.2261948 33:0.088404015 34:-0.33714169 35:0.3361156 36:0.32815695 37:5.0604177 38:1.9416003 39:0.35256779 40:-0.60290647 41:-0.49592853 42:-0.30470926 43:-0.0508774 44:0.13859107 45:0.4441874 46:-0.64860201 47:-1.1610029 48:0.6088897 49:1.0765067 50:0.51846391 51:-0.33804047 52:-0.92375356 53:0.28303015 54:0.11006679 55:-1.1662794 56:0.54805088 57:0.24668084 58:-1.1010989 59:-0.84788704 60:-0.56785917 61:-0.6079976 62:0.2935735 63:-1.1815218 64:-0.02151767 65:-0.97413003 66:1.3848131 67:-0.14031641 68:-0.81905174 69:-0.83360457 70:-1.3619064 71:-0.60706794 72:0.3547805 73:0.87030488 74:1.7138244 75:-1.68041 76:0.13489909 77:-1.1253486 78:-0.42873979 79:-0.028190764 80:0.46372333 81:-0.16366117 82:0.40958455 83:-0.63633192 84:0.78356898 85:1.1832144 86:2.7917235 87:-0.29116684 88:0.26172107 89:-1.0694504 90:-0.6610145 91:-1.3863227 92:-0.66327566 93:1.3696625 94:-0.093929723 95:0.13714185 96:0.20288225 97:-0.79229224 98:-0.18518153 99:0.33707768 100:-0.5158729 101:0.27548432 102:0.61758566 103:-0.41962665 104:-0.69156951 105:-0.83451331 106:0.30830729 107:0.89598846 108:0.086817198 109:-0.051538825 110:-0.83464974 111:-0.60518634 112:-0.2525878 113:0.14475583 114:-0.20137373 115:-0.16311303 116:0.20242389 117:-0.048680391 118:-0.40203825 119:-0.64343488 120:-0.78369486 121:-0.32817474 122:0.74584162 123:-0.14532422 124:0.60402393 125:0.014664497 126:-0.04359502 127:-1.19245 128:0.47265092 129:-0.67672569 130:-1.178779 131:-0.15001132 132:-1.4114355 133:-0.37206265 134:-0.45071408 135:0.7222299 136:1.2411615 137:-0.12690148 138:0.013460997 139:-0.4491576 140:-0.093011066 141:0.1795027 142:-1.2491504 143:0.40633056 144:-0.91887611 145:0.19240238 146:0.36185607 147:1.061906 148:0.11565526 149:-0.33972669 150:-0.68416435 151:-0.43798226 152:0.24419306 153:0.35760579 154:-1.620068 155:0.29589099 156:0.18446603 157:0.40407085 158:-0.60062736 159:-0.52965367 160:0.35519564 161:-1.0150522 162:-0.15525295 163:-0.41877884 164:0.2641491 165:-1.3766227 166:1.0641215 167:-0.74165493 168:-1.1094068 169:-0.47307339 170:1.1243721 171:-0.78557646 172:0.00026298172 173:-0.13777915 174:-0.47954625 175:-0.21577859 176:-1.1490638 177:-0.34430632 178:-0.84224051 179:-0.04113378 180:0.290479 181:0.37290031 182:0.049430624 183:-0.30849722 184:-0.34067756 185:-0.35989752 186:-0.81530833 187:0.63295639 188:-0.32373735 189:1.7271793 190:-1.7196733 191:-0.69669032 192:-0.096584342 193:-0.98346418 194:-0.57444733 195:-0.38331455 196:-1.4079363 197:0.043973342 198:0.83435965 199:-0.24756745 
-0.1398983995313248 0:-1.1679667 1:0.25870603 2:0.086655527 3:0.25194272 4:-0.33173919 5:-0.22610275 6:0.35575348 7:0.31903511 8:0.64078009 9:0.32494819 10:-0.57689685 11:0.71995896 12:-0.89902335 13:-0.23387191 14:-0.59796369 15:-1.1912605 16:-0.46924749 17:-1.6748782 18:0.15416366 19:-0.32583123 20:-1.0091711 21:-0.36798036 22:0.46548834 23:1.484311 24:0.13896106 25:-0.79161233 26:0.92894423 27:0.39762107 28:0.17920227 29:0.39555115 30:-0.11780043 31:-0.78653604 32:0.52806008 33:0.10738116 34:-0.79806226 35:-0.24988924 36:0.37066558 37:-0.15524141 38:0.44652918 39:0.56780046 40:1.1157416 41:-0.95169991 42:1.9008607 43:5.391726 44:2.0894971 45:0.36752036 46:-0.77436697 47:0.96182364 48:0.0050575659 49:-0.81089514 50:-0.06620235 51:0.34890175 52:-1.4347649 53:-0.57956576 54:-0.68975157 55:-0.4152787 56:0.29636264 57:0.72509003 58:-0.065813951 59:0.68818986 60:-0.25407931 61:-0.39228022 62:0.73749381 63:0.44575554 64:0.59939647 65:0.48123968 66:-0.98764092 67:-0.40474096 68:-0.97347581 69:0.27072048 70:0.98791671 71:0.64112246 72:-0.19730863 73:0.25208142 74:-0.42265055 75:-0.010092648 76:-0.58894068 77:-0.29625103 78:-0.18103279 79:0.39818725 80:0.3558116 81:0.26710525 82:-0.71855903 83:0.71364796 84:-0.61904842 85:0.85090345 86:-1.09399 87:0.2250125 88:-0.22264563 89:-1.6941507 90:-0.45653421 91:-0.10271331 92:-0.28243992 93:-0.54000121 94:1.3640963 95:-0.64425641 96:0.059242878 97:-0.33006686 98:-1.0016165 99:-0.060130563 100:-0.73090625 101:-0.050328624 102:-0.57927102 103:0.72365308 104:0.93828064 105:-0.51187962 106:-0.65055287 107:0.27682364 108:0.88356209 109:-0.19212529 110:0.0052382676 111:-1.2448155 112:0.36420947 113:-0.020438187 114:0.48009878 115:0.40525496 116:0.13608484 117:0.35757688 118:0.37092119 119:0.83848786 120:-1.4333998 121:0.40660381 122:-0.648866 123:1.8346845 124:0.26885173 125:-0.40194586 126:-1.5703373 127:-0.83952361 128:-0.18198892 129:0.077131025 130:-0.72013646 131:-1.2485892 132:0.41946569 133:0.60279638 134:-0.34924299 135:0.22586823 136:-0.11813321 137:-1.4076596 138:0.64920253 139:-0.54916185 140:-0.31861523 141:-0.55358022 142:-0.7885704 143:0.070011981 144:-0.48283535 145:0.37765118 146:-0.40422574 147:-1.0516139 148:-0.031068789 149:-0.27783275 150:0.93059629 151:-0.77068245 152:-1.0911771 153:-0.95181638 154:0.89074945 155:-0.32728067 156:0.081933841 157:-0.80024421 158:0.29179284 159:-0.94560033 160:-0.28796816 161:-0.14338839 162:0.60420913 163:0.20600992 164:0.25975084 165:2.1634188 166:0.6903649 167:0.31415343 168:-0.26593521 169:-1.1940255 170:-0.56570244 171:0.53772354 172:-0.5549835 173:-0.79044014 174:-0.8417601 175:0.10259458 176:0.61797416 177:0.081516668 178:-0.36343402 179:-0.22052133 180:-1.4128734 181:-0.70265853 182:0.40787712 183:-0.026165992 184:0.18968286 185:0.2816745 186:0.5858919 187:0.64094335 188:-0.71598399 189:-0.62599427 190:-0.37138751 191:0.24077535 192:-0.35489526 193:-0.96609336 194:-0.32990286 195:-0.1093966 196:-1.0465916 197:0.40279785 198:-0.35103062 199:0.206424 
-0.04161159694249115 0:-0.45353439 1:0.099277437 2:0.53858036 3:0.41981891 4:1.315621 5:0.25410992 6:0.46990344 7:0.62429863 8:0.78162134 9:0.3901602 10:0.047658183 11:-0.61147159 12:-0.23677617 13:-0.73604935 14:-0.97969699 15:-0.29298893 16:0.55225456 17:-0.9863137 18:0.48914748 19:-0.33161888 20:-0.55836529 21:0.75885731 22:0.40584001 23:0.1312962 24:-0.075147025 25:-0.59293461 26:-0.13885733 27:0.40912962 28:0.21899679 29:0.39601821 30:1.1301939 31:-0.34070331 32:0.27911383 33:0.61161721 34:0.28959152 35:-0.39872119 36:0.35647038 37:-0.018230556 38:-0.5807842 39:0.51555651 40:-0.27221251 41:1.8751787 42:0.38017577 43:-0.99041176 44:-0.33550411 45:4.3655772 46:5.51085 47:-0.13130268 48:0.90493667 49:0.95780671 50:0.43088928 51:0.9258936 52:-0.4022449 53:0.87364125 54:-0.042449974 55:-0.29462442 56:-0.56343561 57:0.20620225 58:-0.45965421 59:0.033499829 60:-0.034791574 61:-0.17301753 62:1.2799429 63:-0.00032675796 64:0.5372929 65:0.071376584 66:-0.081778228 67:-0.95932734 68:-0.4516409 69:1.0284348 70:1.5014943 71:-0.0073728901 72:0.57932478 73:-0.20022194 74:-0.094027422 75:0.96068496 76:0.55207151 77:-1.2335784 78:0.94714683 79:0.3987717 80:0.50699979 81:0.3944962 82:-0.28082821 83:0.13863154 84:-0.57932615 85:-0.71119606 86:-0.29139179 87:-0.37248343 88:-0.43291646 89:-0.241588 90:0.34743124 91:-0.70585907 92:-0.5206778 93:0.26576352 94:-0.18271554 95:-0.38008362 96:1.6122197 97:0.75296301 98:-1.3424021 99:0.31975713 100:-0.067529984 101:-0.87856919 102:0.35300583 103:-1.1537082 104:0.18038675 105:0.67027682 106:-0.27816147 107:0.3384383 108:0.11410517 109:0.039569344 110:0.2356648 111:0.98746741 112:0.3605805 113:0.55783468 114:-0.34972587 115:1.0568975 116:0.4747794 117:0.32641894 118:0.39198929 119:0.47862995 120:0.31283772 121:-0.17775327 122:-0.26503259 123:0.81147456 124:0.31533551 125:0.1574105 126:-0.49303767 127:1.2913629 128:0.5981248 129:-0.16531198 130:-0.1200708 131:-0.17707084 132:2.5390704 133:-0.45092064 134:-0.32995322 135:-0.28069729 136:-0.66280764 137:0.29720578 138:0.33031535 139:-0.38656914 140:-0.51821792 141:-0.14573716 142:1.3666366 143:0.12745741 144:0.35140258 145:0.52470231 146:-0.76622725 147:-0.18592247 148:0.49542898 149:-0.94409853 150:0.44145006 151:0.82751662 152:-1.2520401 153:-0.57699084 154:0.61745405 155:0.68546516 156:0.55640095 157:0.10080988 158:0.97615951 159:-1.2583232 160:-0.2638444 161:1.3192419 162:0.61293173 163:-1.1145673 164:0.36459866 165:1.8505887 166:-0.66625619 167:0.66393459 168:0.36320594 169:-0.27291599 170:0.19307972 171:0.2195248 172:-0.082290985 173:-0.19008312 174:0.97700435 175:0.044319391 176:-0.90008152 177:-0.062467352 178:0.31093565 179:0.27670312 180:0.3909815 181:-0.44228402 182:0.41094542 183:0.16089134 184:0.87459135 185:0.35428801 186:-0.25977778 187:-0.0075327372 188:-0.13452201 189:1.2057788 190:0.93212181 191:0.74399072 192:-0.27013162 193:-1.02335 194:0.27747008 195:-0.1137078 196:-0.18802725 197:0.39199382 198:1.0854402 199:0.24378628 
-0.222036996783031 0:-1.0998336 1:0.76188725 2:-0.10422301 3:0.26683152 4:0.23470639 5:0.17127462 6:-0.1728251 7:-0.27091217 8:-0.30787092 9:-0.032165878 10:0.12539768 11:0.78379959 12:-0.63336152 13:0.4015103 14:0.90071476 15:-0.32915625 16:-1.0321125 17:0.94760048 18:-0.42881301 19:-0.40067092 20:0.48749483 21:0.50502461 22:0.16827841 23:0.29808891 24:0.27424824 25:-0.37343886 26:-0.8038708 27:0.11746939 28:-0.23292615 29:0.17385231 30:-0.38337648 31:1.3626742 32:-0.60819346 33:-0.03785906 34:0.064045317 35:0.36784136 36:0.12897958 37:-0.13382895 38:-0.73409992 39:-0.73868144 40:0.63741571 41:1.5275826 42:-0.32693326 43:0.45625997 44:0.16236879 45:-0.5794726 46:-0.80815691 47:-0.56077063 48:1.2919481 49:5.4272609 50:4.4430966 51:0.28809351 52:2.2891896 53:-0.30260018 54:0.089389145 55:-0.30972379 56:-0.71151263 57:-0.83651674 58:-1.0932659 59:0.14448081 60:-0.16372302 61:0.59210104 62:0.14726667 63:0.2225493 64:-0.25313476 65:-0.64483637 66:0.83415246 67:1.549353 68:-0.5423553 69:-0.73286259 70:-0.50581151 71:-0.82817084 72:-0.16443045 73:-0.67288071 74:1.8559995 75:-0.40553358 76:-1.1746138 77:0.12341113 78:0.27819687 79:0.12194892 80:0.46029475 81:0.12838475 82:1.0257888 83:1.1658868 84:0.21374038 85:0.049376395 86:-1.1283541 87:0.051103834 88:-0.97717643 89:0.14774586 90:0.0095814383 91:-1.608453 92:-0.71836245 93:1.0864973 94:0.82365668 95:-1.3044611 96:0.38480315 97:0.97068715 98:-1.6226408 99:-0.91038865 100:-0.05921784 101:-0.87228251 102:-0.96901989 103:0.49691996 104:0.34923032 105:-0.6262241 106:-0.71015972 107:-0.79168153 108:-0.2621527 109:1.1551651 110:-0.41692412 111:0.089364916 112:0.16231462 113:0.12016669 114:-0.099707201 115:-0.23157965 116:-0.066931903 117:0.29350787 118:0.2437917 119:-0.15394343 120:0.57772368 121:2.3797989 122:-0.52874708 123:-1.1691406 124:-1.1838166 125:0.66391593 126:0.17671272 127:1.142419 128:-0.35969129 129:0.72947913 130:-0.43164328 131:-0.30145591 132:2.1725957 133:-1.0055783 134:-1.2700366 135:0.74919319 136:0.26188034 137:-0.4188281 138:-0.90687388 139:0.32393166 140:0.31854615 141:-0.42018759 142:0.13597502 143:-0.59834141 144:0.23822905 145:-0.2499546 146:-0.33947656 147:-1.434164 148:-0.6838004 149:-0.39829338 150:-0.56299788 151:0.1058854 152:-0.47845054 153:-0.62958443 154:-0.20366402 155:-0.023009969 156:-0.22066423 157:0.25284344 158:0.41611654 159:-0.94373804 160:0.48985308 161:-1.3721979 162:-0.63894832 163:0.31686357 164:-0.21586378 165:0.55223185 166:-0.17977126 167:-0.87179846 168:0.26951694 169:0.84145004 170:-0.90896946 171:-1.084564 172:1.0700473 173:0.16253352 174:-0.75222772 175:0.50483543 176:0.2137489 177:-0.36886647 178:-0.58487558 179:0.11805008 180:-0.50148839 181:-1.0404587 182:0.16838981 183:0.35282654 184:0.95408881 185:0.66988832 186:-0.87554348 187:0.061317779 188:-0.90450144 189:-0.7902531 190:0.6539349 191:-0.94626987 192:-0.36356309 193:0.72793192 194:-0.041331559 195:0.46499965 196:-0.92386025 197:0.090511374 198:-1.0423568 199:-0.33196956 
-0.3810543385194878 0:-1.3570862 1:-0.52036893 2:-0.44764969 3:-0.80784792 4:0.32734933 5:-0.32687098 6:-0.25382364 7:-0.5882594 8:-1.0354155 9:-0.61379248 10:-1.5835427 11:0.12034626 12:-0.89062309 13:-0.26249439 14:-0.14300442 15:-0.70806974 16:-0.25405008 17:-1.0571374 18:-0.17100629 19:-0.24739373 20:-0.62401795 21:0.57714105 22:-0.95208549 23:-0.92235756 24:-0.239842 25:-0.74057311 26:-0.21363814 27:-0.91957259 28:-1.3502961 29:-0.73132682 30:-1.1627272 31:-0.30960414 32:-1.3303175 33:-0.49514157 34:0.20095105 35:-0.89258742 36:-0.72059417 37:-0.1822143 38:-0.92098933 39:-0.90443373 40:-0.59285229 41:-0.52341658 42:-0.53615516 43:-1.3174764 44:-1.5128839 45:-0.38397142 46:-1.163871 47:-0.99852496 48:0.26796132 49:0.50791425 50:-0.88780475 51:0.57673556 52:4.2468653 53:5.5696516 54:0.41462141 55:-0.23327686 56:0.7602542 57:-0.85002995 58:-0.94734204 59:-2.0636797 60:-0.015311551 61:-0.27606842 62:-0.94444692 63:-1.1524448 64:-0.74480498 65:-1.5797222 66:-0.40396723 67:0.63279378 68:-1.4243324 69:-1.1880438 70:-1.845956 71:-0.61031288 72:-0.61294848 73:-0.82500374 74:-0.21361785 75:-0.55628121 76:0.10590765 77:-1.048358 78:-0.73100686 79:-0.86195159 80:-1.1464448 81:-0.87719208 82:-0.91740513 83:-0.63435662 84:-1.2485096 85:-1.2916795 86:-0.82188684 87:0.16753829 88:-0.56286055 89:-0.14974973 90:-0.42015317 91:-0.23968485 92:-0.62510061 93:-0.80798441 94:-0.88624394 95:-1.4601618 96:-0.39364737 97:0.081036523 98:-1.3198156 99:-0.78098154 100:-0.93247664 101:-0.61544234 102:-0.81120211 103:-0.93505675 104:0.38790324 105:-1.0276098 106:-0.22724125 107:0.411538 108:-0.73238254 109:-0.16116621 110:-0.74297529 111:-1.071079 112:-0.49478349 113:-1.0020809 114:0.11362601 115:-1.1491528 116:-0.58687526 117:-0.31999964 118:-0.42862481 119:-0.49624038 120:-1.2638592 121:-0.60348827 122:-0.62891811 123:-0.85277969 124:-1.1359953 125:-1.0625107 126:0.17630516 127:-0.21483716 128:-0.3564693 129:0.59494346 130:-0.16505378 131:-1.4852165 132:-1.7402515 133:-1.7258924 134:-0.45156816 135:-1.6408025 136:0.033813454 137:-1.5585231 138:-0.48451716 139:-0.17841841 140:-0.18694001 141:-0.54100186 142:-0.37949002 143:-1.1147331 144:0.22909465 145:-0.59474885 146:0.91614825 147:-0.99158275 148:-0.48542449 149:-1.1212105 150:-0.35821027 151:-1.0523033 152:-0.98817056 153:-1.7855452 154:-0.039183725 155:-0.69738221 156:-0.36993304 157:-0.82710594 158:-1.288036 159:-0.22481041 160:-0.53626859 161:-1.3397992 162:-0.49430758 163:0.24173053 164:-0.90502119 165:-0.70934492 166:-1.617348 167:0.17804927 168:-0.80660176 169:-0.76538807 170:-1.494213 171:-0.66318029 172:-0.69508439 173:0.029898683 174:-1.3117059 175:-0.91909546 176:-1.1290643 177:-1.4138774 178:-0.83426356 179:0.30056456 180:-0.48836657 181:-0.0063964655 182:-0.7160092 183:-1.3129797 184:-0.31838539 185:-0.85589802 186:-1.8935431 187:0.018280307 188:-0.67541856 189:-0.56159091 190:-1.0698241 191:-1.4773521 192:-0.02927082 193:0.12951982 194:0.63115335 195:-0.71459281 196:1.0096281 197:-0.9685747 198:-1.0149498 199:-0.7365005 
-0.1405915825310462 0:1.1306201 1:-0.42656362 2:-2.5120983 3:-3.2093742 4:-1.4159884 5:-2.7441876 6:-3.9876709 7:-3.4928319 8:-3.3283513 9:-4.3848381 10:-1.9803232 11:-1.7468861 12:-0.1145777 13:0.91318202 14:-0.18966681 15:-0.38787642 16:-0.5849877 17:0.028618891 18:-4.1396832 19:-0.44204059 20:0.31949168 21:-3.0987957 22:-3.9221303 23:-2.1987066 24:0.17369016 25:-1.1488402 26:-3.7783468 27:-3.6539612 28:-2.6203811 29:-3.7804635 30:0.1394805 31:1.1637515 32:-2.0556669 33:-0.98599613 34:-0.30493033 35:-1.0144403 36:-4.2970648 37:-0.42545038 38:-2.2673059 39:-3.1620712 40:0.22445582 41:-1.3579141 42:-3.8764198 43:-0.76153111 44:-2.3061321 45:-0.17360167 46:-0.36696887 47:-2.440407 48:-1.9546058 49:-0.39397898 50:-0.11848214 51:-1.4758562 52:-1.3434904 53:0.85591215 54:4.4485898 55:4.6136236 56:4.8316474 57:-3.8547575 58:-0.642905 59:-0.28343683 60:-0.52149284 61:-1.9913614 62:-0.35887471 63:-0.43145281 64:-3.9264922 65:0.3985635 66:-0.91697019 67:-1.8991671 68:-0.26556131 69:-2.0865722 70:-0.85127652 71:-0.1571444 72:-1.742973 73:-0.42009518 74:-1.3340588 75:-0.26993418 76:-3.0524206 77:0.13008346 78:-1.48049 79:-3.6621594 80:-2.3891356 81:-3.3419442 82:1.8758044 83:-3.4989154 84:-0.3423377 85:-0.45666447 86:-1.1269718 87:-2.9397328 88:-1.4907271 89:0.29186359 90:0.15030058 91:-0.41692254 92:0.48952714 93:-0.021907439 94:-2.6419787 95:0.61606747 96:0.51013654 97:-0.22349229 98:-1.1689326 99:-4.0845723 100:-1.2709149 101:-1.1406566 102:-1.2055718 103:-3.0987439 104:-2.9835262 105:0.068925954 106:-0.83938706 107:-0.16700181 108:-3.8401401 109:-1.270473 110:-3.9834497 111:0.32578659 112:-3.6132541 113:-2.4455702 114:-0.5460577 115:-3.2985225 116:-3.5189245 117:-4.0752606 118:-3.7606673 119:-0.99554974 120:-0.90810871 121:-0.2832827 122:1.1064142 123:-2.2871339 124:-1.8980249 125:0.49271441 126:0.24590658 127:0.18512693 128:-3.2195747 129:-2.1788895 130:-0.26484025 131:-1.4355277 132:-2.196871 133:-0.97959089 134:-0.48497233 135:-1.1186016 136:-2.7382302 137:0.12623259 138:-3.5721974 139:-0.45596907 140:-1.7968339 141:-0.49704519 142:0.23596334 143:-1.881839 144:-0.7485019 145:-4.3976183 146:-0.016901767 147:-2.5758018 148:-3.7853267 149:-0.36435881 150:-0.3920356 151:-2.9063995 152:-0.29847011 153:-1.3594112 154:-3.3274741 155:-0.2875374 156:-3.9315403 157:-0.79665816 158:-1.7138497 159:0.53291798 160:-0.4843283 161:-0.39266533 162:-3.9393888 163:-1.4328868 164:-2.6075132 165:-0.82133985 166:0.36098233 167:-1.5671068 168:-1.2665006 169:-0.21762419 170:-0.67797315 171:0.81093735 172:-0.17015362 173:-1.2580032 174:-1.5650253 175:-3.8657033 176:-0.45245951 177:-1.400846 178:0.18128011 179:-2.7325552 180:-0.41823995 181:-1.9440677 182:-3.7003756 183:-0.57292253 184:-1.3635883 185:-4.1220794 186:1.0420432 187:-2.0752485 188:0.19322678 189:-0.60998404 190:-0.54041392 191:-0.17438111 192:-1.0168931 193:2.3129416 194:-0.76769596 195:-0.4869923 196:0.31237224 197:-3.5949295 198:0.032197453 199:-1.9294661 
-0.3238681086109646 0:-1.3919129 1:-0.61257952 2:-0.24456584 3:-0.12981397 4:-0.90641636 5:-0.13141239 6:-0.25678718 7:-0.536125 8:0.080467902 9:-0.10338749 10:0.33343002 11:-0.09764497 12:-0.33114225 13:0.43258789 14:0.38682044 15:-0.88941729 16:-1.5019851 17:-0.74445289 18:0.4685083 19:-1.1584144 20:-0.82278973 21:0.55335379 22:0.14059384 23:-0.83562511 24:-0.14584364 25:0.27394417 26:-0.31155768 27:0.1256626 28:-0.048403535 29:0.11866347 30:1.4151983 31:-0.45647079 32:0.38948071 33:-0.48830977 34:-0.46585378 35:-1.6853153 36:0.077551931 37:0.75086683 38:0.56844795 39:-0.25061056 40:-0.046281885 41:-1.2124853 42:-0.090623826 43:0.63312703 44:0.20890251 45:-0.87632006 46:0.030202936 47:0.015727568 48:-0.20221296 49:0.70089978 50:-0.48420766 51:1.6233821 52:0.34589735 53:1.129941 54:-1.0892214 55:-0.90893406 56:-0.10064153 57:1.3146716 58:4.0598865 59:3.41344 60:0.058342326 61:-0.54298776 62:-0.90435082 63:0.96516049 64:0.09247002 65:-1.6105707 66:0.0059803999 67:-0.95970452 68:0.81412125 69:-0.4869656 70:0.16212533 71:-0.18226314 72:-0.38166028 73:-0.32906711 74:-0.42976236 75:-0.3317965 76:0.36082646 77:-1.2402976 78:-1.0106363 79:0.12495892 80:-0.11724089 81:0.056898572 82:-1.3150635 83:-0.032613605 84:-1.4556826 85:-1.0166957 86:1.2961814 87:-0.20836009 88:-1.3288674 89:-1.0270766 90:-0.061047081 91:-0.7698192 92:0.22680688 93:-0.18022837 94:-0.3567751 95:-0.049464017 96:-0.13971515 97:-0.88103652 98:-0.44584998 99:0.91684765 100:-0.84477222 101:-0.071372949 102:-1.1971205 103:1.9134514 104:-0.7797122 105:0.61993307 106:-0.92072386 107:-1.0576875 108:0.056867465 109:-1.0802702 110:0.85605127 111:0.022629566 112:0.11208182 113:-0.14132015 114:-1.0779167 115:-0.54804361 116:-0.32466042 117:0.055453856 118:0.030111257 119:-1.7614211 120:-1.4874525 121:-1.2710353 122:-0.6460346 123:0.35130188 124:-0.1751702 125:-0.48469412 126:-0.023284985 127:-0.32272297 128:-0.5350036 129:-0.8201955 130:0.11246853 131:-0.80151701 132:-0.4247812 133:0.55704641 134:0.25560957 135:-0.53302217 136:-0.97774535 137:0.71162456 138:-0.34398934 139:-0.01160576 140:-0.49166378 141:-0.11216358 142:-2.1275282 143:-0.16521642 144:0.15928651 145:-0.30357271 146:-0.37402618 147:0.46848547 148:-0.56338352 149:0.14089887 150:-0.98473054 151:0.38312486 152:-0.38606349 153:-0.13439079 154:-0.35292372 155:-1.3885542 156:-0.52307343 157:0.48512021 158:-0.85482335 159:-0.091703467 160:-0.9846195 161:-0.46166316 162:-0.24986354 163:-1.3859781 164:0.0069524073 165:-0.43154857 166:-0.22685921 167:-1.7075545 168:0.64841419 169:-0.77464247 170:-0.11062513 171:0.43769091 172:-0.22698887 173:0.30575022 174:-1.060106 175:-0.39555806 176:0.4583106 177:0.7103973 178:0.093834445 179:0.41986758 180:-0.41465232 181:-1.0854071 182:0.03606509 183:-0.65995991 184:0.38080907 185:-0.060705356 186:-0.92908067 187:-1.1643595 188:-0.26683685 189:0.37485602 190:1.299823 191:0.71442443 192:-0.39440861 193:-0.13014856 194:0.025002684 195:-0.41886353 196:-0.18956171 197:0.17021874 198:-1.7674363 199:-0.85852492 
-0.06662163652850654 0:0.36680207 1:0.04435109 2:0.2982021 3:0.25817224 4:-0.072020337 5:0.25730568 6:0.59693366 7:0.54635131 8:0.0080744717 9:0.53151137 10:0.48341972 11:0.29002324 12:-1.1872003 13:0.34590301 14:-0.26431793 15:-0.0087559586 16:0.10868169 17:-0.89996314 18:0.31533408 19:-0.3056629 20:-0.65918124 21:0.26209536 22:0.34131145 23:-0.11125355 24:-0.34985057 25:0.33396012 26:0.72485965 27:0.36691156 28:0.20965131 29:0.27477652 30:-1.017419 31:-0.85560477 32:0.17256634 33:0.64292568 34:0.3747701 35:1.1066984 36:0.27470264 37:0.27683666 38:0.27126959 39:0.80267316 40:-0.99479425 41:-0.28215143 42:0.21106859 43:0.85202563 44:-0.54799801 45:0.55181599 46:0.33221951 47:0.18132798 48:0.2367461 49:0.2368245 50:-0.44133401 51:0.44833815 52:-0.1329859 53:0.68082923 54:0.12133452 55:-0.95409763 56:-0.17347826 57:0.66273701 58:1.4938689 59:0.15088333 60:7.3932962 61:1.213702 62:0.90386385 63:0.10635576 64:0.57463455 65:-0.91132587 66:0.52888107 67:-0.23783331 68:0.59139884 69:1.2242509 70:0.30997175 71:-0.23047693 72:0.98951977 73:-1.0446213 74:0.43024933 75:0.88909793 76:-0.27827695 77:-1.2495719 78:0.606534 79:0.30530578 80:-0.73985618 81:0.31868041 82:0.21370538 83:0.13343458 84:0.72520322 85:-0.38790929 86:0.93511885 87:-0.049154222 88:-0.23959665 89:-1.1172482 90:-0.88416892 91:-0.42373735 92:-0.279764 93:-0.1151059 94:-0.16154565 95:0.61897242 96:0.14533657 97:0.95083547 98:-0.091486149 99:0.49753568 100:1.5983064 101:0.35614669 102:0.21285349 103:-0.58375508 104:0.06809973 105:-0.98909837 106:-0.37297696 107:0.14363752 108:0.037174493 109:0.079113118 110:0.3313562 111:-1.0900054 112:0.237959 113:0.33136129 114:-0.60207099 115:0.24120055 116:0.1645247 117:0.17026627 118:0.40429014 119:0.062742956 120:-0.79672897 121:-1.0487318 122:-1.1073037 123:0.9478991 124:-0.5158152 125:-0.28755665 126:-0.92878503 127:0.10515946 128:0.50676721 129:0.12000532 130:-0.19135907 131:0.73386699 132:0.8975029 133:-0.83730042 134:0.053349815 135:-0.51198435 136:0.16988671 137:-1.4563472 138:1.0545512 139:-0.48867461 140:0.1211937 141:-0.58569241 142:-0.10503676 143:0.3973358 144:-0.50424695 145:0.26007193 146:0.078182943 147:1.154611 148:0.69263983 149:0.034621291 150:-0.76137918 151:0.1340308 152:0.56506789 153:1.2910397 154:-0.68834311 155:-0.63548774 156:0.86853021 157:-0.24554031 158:-0.11738194 159:0.93570596 160:-0.25397089 161:-0.53877479 162:0.17009042 163:1.2436593 164:0.096242093 165:-0.18807961 166:0.65170622 167:-0.44195756 168:-0.61986583 169:0.99144077 170:0.03219628 171:-0.76156318 172:1.6264571 173:0.19367383 174:1.4061273 175:0.17973791 176:0.60709625 177:1.7344958 178:0.59060568 179:1.5738506 180:-1.2864246 181:-0.48614374 182:0.33485323 183:-0.22965555 184:0.49710378 185:0.204561 186:0.07485833 187:0.90678936 188:0.043339927 189:-0.59459555 190:-0.11365467 191:0.62586069 192:-0.076154776 193:-0.92111528 194:-1.1450062 195:0.30966973 196:-1.0800909 197:0.2842465 198:0.80300456 199:0.72261775 
-0.1180847161193518 0:-0.70825475 1:0.059803758 2:0.83800811 3:0.18838438 4:-1.0142318 5:0.61869299 6:0.52434498 7:0.6534732 8:-0.82485157 9:0.69971377 10:0.25076842 11:0.013389182 12:0.14975142 13:0.72478414 14:0.96549839 15:-1.5086948 16:-0.67783332 17:-0.52339417 18:0.32774985 19:0.022191886 20:-1.0731835 21:-1.0788125 22:0.23878166 23:-0.85941923 24:-0.153761 25:0.21146254 26:0.21193275 27:0.21629873 28:0.034258325 29:0.25629929 30:0.59573817 31:-1.2040445 32:0.11774173 33:-0.30859056 34:-0.089508794 35:0.94031906 36:0.27869612 37:1.3093427 38:0.26578581 39:1.2007881 40:-0.050719254 41:-0.52641517 42:0.29020104 43:1.1329858 44:-0.030399399 45:0.71922743 46:-0.11378358 47:-0.53309649 48:0.25671631 49:0.10615321 50:0.42611462 51:-0.84802878 52:-0.97603333 53:-0.72125864 54:-0.61071444 55:-1.60537 56:-0.50339139 57:-0.50278074 58:0.38151905 59:0.037332561 60:-0.424669 61:-0.95033991 62:-1.8025652 63:4.6387758 64:0.71899676 65:3.6123343 66:0.88543785 67:0.26918644 68:0.32752106 69:-1.7820559 70:0.24238493 71:0.23501731 72:0.47840834 73:-1.4523957 74:0.91017079 75:1.1282078 76:-1.2407174 77:-0.38021132 78:-0.84956986 79:0.24954769 80:-0.29080382 81:0.28916815 82:-0.95790333 83:0.13631125 84:-0.34801018 85:-0.94845438 86:-0.167216 87:-0.45496732 88:-0.051509377 89:-2.0297484 90:0.62275988 91:-1.0765909 92:-0.64403468 93:0.31465665 94:-0.78291327 95:0.76369303 96:-1.297286 97:-1.5457361 98:-0.029163796 99:0.016428681 100:-0.73225981 101:0.24218799 102:0.82033443 103:-0.80766422 104:0.44790173 105:0.041137137 106:0.76359367 107:0.56573039 108:0.57707018 109:0.27429086 110:0.33745322 111:-1.1500614 112:0.39533368 113:-0.43089044 114:-0.21948381 115:0.12261483 116:0.44352561 117:0.16614906 118:0.21178459 119:0.42696589 120:-1.2460362 121:0.96770012 122:-0.97553897 123:0.67952901 124:-0.63668001 125:-1.3115065 126:0.47652709 127:-0.067979738 128:0.80465573 129:-0.54813713 130:-1.1236333 131:-0.26726255 132:-1.6564451 133:-0.60066575 134:-0.46571726 135:0.6989131 136:-1.0118937 137:-0.95671207 138:0.47036159 139:-0.30658957 140:0.31414923 141:-0.2039917 142:-1.2276193 143:-0.56026196 144:0.29379526 145:0.29191333 146:-0.12044114 147:-0.085059576 148:0.5075441 149:-0.039217658 150:-1.7194288 151:-1.3389345 152:0.1235505 153:0.61465877 154:-0.37290478 155:-0.96812487 156:0.71438253 157:-0.1589434 158:-1.087237 159:0.75110269 160:0.083030716 161:-0.4607977 162:0.7050631 163:-0.82773626 164:0.046144485 165:-0.78020889 166:0.5128504 167:-0.0096487096 168:-0.74678558 169:0.37551716 170:-0.098978832 171:-1.0571595 172:-0.45082048 173:-0.83495438 174:0.24650656 175:0.32450739 176:0.5458827 177:-0.046044108 178:-0.76973963 179:0.88527888 180:1.1527247 181:-0.49229276 182:0.23281446 183:-0.64102286 184:-0.16628155 185:0.25619054 186:0.03814004 187:0.61609179 188:-1.2092427 189:0.92727417 190:-0.27452114 191:-1.5107409 192:-0.20863481 193:-0.75145501 194:1.4751571 195:0.44128445 196:-0.57712269 197:0.20640713 198:0.43092504 199:0.41040966 
-0.3221923898331638 0:0.7158218 1:-0.24030729 2:0.8980279 3:0.33232719 4:-0.33280465 5:-0.86162752 6:0.4032203 7:0.41648862 8:-1.1286365 9:0.57138777 10:0.69269711 11:-0.49843055 12:-0.24809535 13:-1.1342335 14:0.63796723 15:0.51080263 16:-1.5396972 17:0.39553395 18:0.024560351 19:-0.11475537 20:0.427104 21:-0.67535019 22:0.30950022 23:0.28397858 24:-0.45821008 25:-0.23222734 26:0.28503299 27:0.39412543 28:0.48953345 29:0.40059549 30:0.6883316 31:1.3136075 32:0.61404216 33:0.17805503 34:-0.39133617 35:-0.095329031 36:0.37916559 37:-0.54244334 38:0.078657977 39:0.095591687 40:1.0944172 41:-1.3511252 42:0.47422782 43:0.76408243 44:0.63780302 45:0.80748546 46:0.26155156 47:0.56674671 48:0.76222181 49:0.60031152 50:-0.44389957 51:0.29651523 52:-0.64866394 53:-0.020697309 54:-0.32437444 55:-0.30632925 56:-0.15767139 57:-1.1497159 58:-0.34767592 59:-0.71442407 60:0.20596571 61:0.21276802 62:0.20652473 63:-0.3799856 64:0.54817748 65:-0.39108646 66:1.5400456 67:5.9961181 68:4.9408922 69:0.71457171 70:0.26753932 71:-0.77879375 72:0.58147109 73:0.022551101 74:-0.02573709 75:-0.71385455 76:-0.81383216 77:0.38912094 78:1.056565 79:0.39497268 80:0.40649548 81:0.37386787 82:-0.87834591 83:-0.54666388 84:-0.45820406 85:0.070528425 86:0.24551775 87:-0.99012125 88:-0.45434913 89:-0.42544374 90:-1.1186439 91:0.53241473 92:0.28683129 93:-1.021539 94:0.13931151 95:-0.57639241 96:-0.17142333 97:-1.3641468 98:0.56473458 99:-0.24248211 100:-0.63582295 101:-0.79042 102:-2.3102691 103:-0.57304221 104:0.48148784 105:-0.2338343 106:-0.68579131 107:-0.33619097 108:0.48827168 109:0.76403242 110:-0.026744744 111:-0.10271028 112:0.38297081 113:0.62913966 114:1.3044271 115:0.61020297 116:0.64476377 117:0.41017082 118:0.4485625 119:-1.5302819 120:0.25307032 121:1.4142036 122:0.59336859 123:-0.48394156 124:0.89602286 125:0.068969764 126:3.0786834 127:-0.26308131 128:0.63207191 129:0.48465529 130:-0.66349179 131:1.8819033 132:0.14189816 133:0.12587315 134:-0.3080931 135:0.099548727 136:-0.62330449 137:-0.92243379 138:0.12906258 139:-0.20748185 140:0.04665358 141:-1.0868331 142:-1.6667942 143:0.87069988 144:-0.0082026143 145:0.52418327 146:-0.50035501 147:1.3720752 148:0.53218812 149:-1.1732057 150:-1.078566 151:-1.7407146 152:0.031611484 153:1.230637 154:0.44606468 155:-2.0596004 156:0.056406241 157:1.8421943 158:0.44446161 159:-0.28787741 160:-1.4103231 161:-0.6481111 162:0.14526808 163:-0.63820338 164:0.40649328 165:-0.1686928 166:-0.92855692 167:-1.5988309 168:-0.028431393 169:0.77014309 170:0.51104617 171:-0.27607983 172:-0.53167027 173:-0.51559317 174:-0.59662575 175:0.40675429 176:-0.27569318 177:-0.37677646 178:-0.2135293 179:-0.29204553 180:-1.0173591 181:-0.090732068 182:0.40122414 183:-0.30362719 184:-0.42509842 185:0.31430477 186:-0.94460231 187:-0.18960437 188:0.050128721 189:-0.73378128 190:-1.7577974 191:-0.37172842 192:0.23752756 193:0.61352777 194:-0.75019085 195:1.0061052 196:0.00080480281 197:0.39552784 198:-2.2967513 199:-0.2070096 
-0.2234145305964718 0:-0.68852758 1:-0.32556093 2:0.79281998 3:-0.45795602 4:-0.91981649 5:-0.46403447 6:0.2404052 7:0.35344294 8:-0.84482133 9:-0.056111589 10:-0.43734977 11:0.32428926 12:-0.30716097 13:-1.2732277 14:1.540593 15:-0.69391328 16:-0.66612422 17:0.18628387 18:-0.30077085 19:-0.80974382 20:-1.1235709 21:-0.92062676 22:-0.33437687 23:0.11273339 24:-0.57383633 25:0.53507483 26:0.16646655 27:-0.063051656 28:-0.42596889 29:0.054273382 30:0.39307556 31:-1.0353849 32:-0.20103455 33:-0.21488747 34:0.26054838 35:-0.80987513 36:-0.24553409 37:0.36623383 38:-0.15100212 39:0.36767945 40:-0.42225724 41:-0.076032735 42:-0.026072748 43:-1.2962831 44:0.87361026 45:0.49065867 46:0.46501264 47:0.3689009 48:0.1202517 49:-0.45565704 50:-1.1733099 51:0.4813543 52:1.7771167 53:-0.28952286 54:0.23795879 55:-0.019339055 56:-0.2978723 57:-0.83180213 58:-1.0137484 59:-0.58363819 60:0.035995077 61:-0.22700632 62:-0.094842397 63:-0.80523676 64:-0.22771583 65:0.6948244 66:0.90254277 67:0.23975588 68:-0.040743891 69:2.9809058 70:2.8684139 71:5.6776638 72:-0.16931614 73:-1.0058826 74:0.10214143 75:-1.2917752 76:-0.89260906 77:-1.4435313 78:0.15858905 79:-0.022657815 80:-0.68157011 81:-0.17261423 82:-0.45497128 83:0.31348652 84:-0.90440267 85:1.0255649 86:-0.13639039 87:-0.31527415 88:-0.67811221 89:-1.2513678 90:-0.085375659 91:0.12325861 92:-0.59042704 93:-0.21383202 94:0.43804014 95:-0.20340562 96:0.30508742 97:-1.4567188 98:-0.81280333 99:-0.63968468 100:0.60815531 101:0.3812131 102:0.24452491 103:-0.29418105 104:0.23663895 105:-1.1932622 106:0.84354389 107:0.1096925 108:0.61531538 109:0.67171758 110:-0.34433261 111:-1.2362387 112:0.060138714 113:-0.80567259 114:1.332741 115:0.79461002 116:0.39618483 117:-0.13348591 118:-0.10519803 119:-0.79720628 120:-1.0789171 121:-0.085762434 122:-1.1037574 123:0.29257011 124:-0.36501321 125:-1.2709141 126:0.32192177 127:-0.88189006 128:0.3535223 129:1.4749514 130:-1.15505 131:0.66343057 132:-0.72906935 133:-0.71308213 134:-1.4413644 135:-1.2613192 136:-0.26441595 137:-1.1890717 138:0.063206948 139:-0.43060729 140:-0.63181204 141:-0.35159191 142:-0.435954 143:-1.1366149 144:-0.29454374 145:0.050722077 146:0.34836376 147:0.17029507 148:0.044273023 149:0.057470042 150:-0.99171609 151:-0.21047008 152:0.19235094 153:1.5183145 154:-0.17483108 155:-0.690929 156:0.1268322 157:-1.1016918 158:-0.14744706 159:-0.81451768 160:-0.4623394 161:1.4631147 162:-0.021851815 163:0.5339067 164:-0.061130315 165:-0.14378601 166:0.4609859 167:-0.17695519 168:-0.61126924 169:-0.022697801 170:-0.055959035 171:-0.12814404 172:-0.53069413 173:0.13103759 174:-0.74736297 175:0.3180573 176:-1.4394974 177:-0.063387223 178:0.094272092 179:0.58848381 180:-0.35038731 181:-1.1444415 182:-0.075287864 183:0.025615113 184:-0.43093318 185:0.036372218 186:-1.0631444 187:-0.092687473 188:-1.3042687 189:-0.4024421 190:-0.98312074 191:-1.8306713 192:-0.17785865 193:0.14538373 194:0.87850732 195:0.17630501 196:1.7745585 197:-0.08297886 198:0.28156087 199:-0.99933648 
-0.2576204154828342 0:-0.36472395 1:-0.56244522 2:-0.10678371 3:0.220581 4:-0.26505122 5:-0.65100366 6:-0.24603806 7:-0.67311364 8:-0.61202234 9:-0.11297107 10:0.3423624 11:0.50904584 12:-0.52396315 13:0.049947485 14:-0.216472 15:-0.38534236 16:-0.86842197 17:1.0887792 18:-0.52709842 19:-0.20786719 20:0.75757796 21:-0.4876819 22:0.22310929 23:-0.7515862 24:-0.3984077 25:-0.5994435 26:-0.43533137 27:0.38861656 28:0.39328507 29:0.25723341 30:-1.6044836 31:0.19272605 32:-0.3811737 33:-0.55045599 34:-1.0567563 35:-0.55692703 36:0.13475172 37:-1.5557508 38:0.06271445 39:0.021575538 40:-1.5193028 41:-0.38993552 42:0.38000208 43:0.66709208 44:-2.1946123 45:-0.80442274 46:-0.40126795 47:-0.77951884 48:-0.2728754 49:-0.34392515 50:-0.69526923 51:-1.1295078 52:-0.14700893 53:-0.28388891 54:-0.053649273 55:-1.1984142 56:-0.93546063 57:-1.3120728 58:-0.25972569 59:0.9150427 60:-0.37677535 61:0.098410137 62:-0.036504041 63:0.13236637 64:-0.35265297 65:-0.75613034 66:-0.27765915 67:-0.47914505 68:-0.91538787 69:0.39901003 70:-0.29350966 71:-0.41562414 72:5.4673858 73:1.7051203 74:2.5268388 75:-0.43739763 76:-0.28958192 77:0.22405674 78:-0.73431361 79:0.2771832 80:-0.61596972 81:-0.049034402 82:0.55265266 83:-0.45850107 84:-1.0844896 85:-0.19008923 86:-0.52834487 87:0.99284488 88:0.22298263 89:-0.45100641 90:-0.41823819 91:0.26102829 92:-0.71441299 93:-1.0144598 94:-0.74867076 95:-1.0281801 96:-0.48720872 97:-1.0742917 98:-0.2849195 99:-0.76231468 100:-0.63042605 101:-0.99685627 102:-1.9495683 103:-0.6544221 104:0.39280891 105:0.80900204 106:-1.1799923 107:-0.17209353 108:0.026237287 109:0.1091212 110:0.3304784 111:0.37497979 112:0.15471806 113:0.53804141 114:0.45923695 115:-0.6786319 116:-0.10613184 117:0.0024614676 118:-0.066105917 119:-0.48583525 120:-0.30824113 121:-1.819816 122:1.0787411 123:0.2425407 124:-0.23870474 125:-0.29498589 126:0.90190721 127:-1.1331067 128:-0.57545108 129:-1.0572044 130:-0.67153454 131:-0.53703213 132:-0.97911662 133:1.2869254 134:-0.22247513 135:0.0047614286 136:-1.4318177 137:-0.39567745 138:-0.30293494 139:0.06402079 140:-0.31870899 141:-0.27881688 142:0.84037811 143:0.6806826 144:-0.21017289 145:0.036384799 146:-1.1532074 147:-0.07513468 148:-0.10986363 149:-0.40985191 150:-0.96312863 151:0.11763048 152:-0.10068274 153:-1.0151192 154:1.0722259 155:0.15082148 156:-0.17651501 157:-1.3088714 158:-1.0073286 159:-0.59966511 160:-1.2716314 161:-0.70515698 162:-0.28688538 163:0.62232286 164:0.34895575 165:0.37320054 166:-1.0780058 167:-0.5778411 168:0.90032285 169:-0.22247547 170:-0.57137376 171:-0.10936935 172:0.14091213 173:0.26432133 174:0.67283654 175:-0.2043912 176:0.39945239 177:-0.81628549 178:-0.264056 179:-0.94562131 180:-1.1095562 181:-0.83105177 182:0.25075763 183:-0.93815565 184:-1.5787331 185:-0.062538438 186:-0.74129725 187:-0.039527699 188:0.32769772 189:-0.85850418 190:1.4957246 191:-0.11416623 192:-0.63177317 193:-0.93160635 194:-1.0427505 195:-0.71124548 196:-0.12671591 197:0.34386045 198:-1.4499463 199:-0.35106465 
-0.1792600468049172 0:0.50051379 1:0.19642824 2:-0.36533496 3:0.33740073 4:-0.32115129 5:-0.1207598 6:0.090750217 7:-0.23586167 8:0.63027668 9:-0.011880196 10:0.0063982899 11:0.16375312 12:-0.26015669 13:0.076614179 14:-0.18148775 15:-1.0186495 16:-0.12681735 17:-0.95534813 18:0.016373567 19:-0.98122597 20:-1.522208 21:1.8348824 22:0.40887222 23:-0.79521531 24:-0.43846306 25:0.32288364 26:0.0088995192 27:0.3854214 28:0.30454102 29:0.38444424 30:-0.16337056 31:0.97157681 32:0.12971142 33:1.8210576 34:1.2459638 35:0.26582798 36:0.32926863 37:0.2075288 38:-0.28899246 39:-1.1291578 40:0.68110377 41:-0.24257921 42:0.61493111 43:-0.61935943 44:-0.46210182 45:-0.39100921 46:0.27873436 47:1.6591157 48:0.15947475 49:0.44457406 50:-1.4729903 51:0.90162128 52:0.35300252 53:1.5962861 54:-0.89781225 55:-1.1797606 56:-1.0293931 57:0.27111852 58:0.76565152 59:0.28680876 60:-0.33892921 61:-0.52007884 62:0.95101935 63:0.49651948 64:0.35567826 65:-0.67618781 66:0.25621644 67:-1.0561213 68:0.42429972 69:0.48147807 70:-0.85500705 71:-0.61509818 72:0.4655135 73:-0.042232286 74:-0.80261141 75:2.8328645 76:3.8332713 77:1.305974 78:0.51752383 79:0.39867431 80:-0.61345541 81:0.30200145 82:0.2010379 83:-0.19550049 84:1.0466371 85:-0.4159565 86:0.57444471 87:0.13302064 88:0.37253246 89:-1.462476 90:-0.89423138 91:-0.84348845 92:-0.6788249 93:0.047865372 94:0.56085563 95:0.0031089399 96:-0.48620796 97:-1.2300221 98:-0.94908935 99:0.16033302 100:-0.31913742 101:0.090674877 102:0.35767004 103:-0.58727783 104:0.06963592 105:-0.07270433 106:-0.20298906 107:-0.37218261 108:0.52066302 109:-0.85332549 110:0.22665764 111:-0.58339733 112:0.35867918 113:-0.017436365 114:-1.409896 115:-0.1257308 116:0.49698973 117:0.37724206 118:0.31419668 119:0.76969451 120:1.4714793 121:0.071850382 122:-0.0079468684 123:-0.30986524 124:-0.62887007 125:-0.46894401 126:-0.68846965 127:-0.87838209 128:-0.09565118 129:-0.60411084 130:-1.3771573 131:-0.15725166 132:0.47898835 133:-0.8421942 134:0.93403143 135:0.61485624 136:-0.22856164 137:-0.83714575 138:0.28938133 139:-0.61679673 140:-0.6642682 141:-0.5393517 142:0.15102579 143:0.28941056 144:0.72396088 145:0.098991923 146:0.10213782 147:-0.079831317 148:0.2298415 149:-0.56978464 150:0.12957457 151:1.2743217 152:0.53424144 153:-0.21806413 154:0.80872482 155:0.54169363 156:0.036865506 157:-0.59222758 158:0.90463579 159:0.22908942 160:1.6592942 161:-0.35800886 162:0.39551711 163:-0.71218091 164:0.23928575 165:0.89429653 166:0.72319931 167:1.331706 168:-0.18287447 169:0.016226927 170:-1.1161834 171:-0.28397089 172:-0.03812046 173:-0.37469125 174:-0.18214551 175:-0.083876029 176:-0.036819633 177:-0.3984696 178:0.018202307 179:0.11145664 180:0.4974153 181:-0.89836931 182:0.40559325 183:-0.95052767 184:1.3552403 185:0.04546183 186:-0.70460624 187:-0.35770768 188:1.6225989 189:-0.20577237 190:0.22143625 191:-0.15160602 192:-0.75572759 193:-1.3623691 194:-0.90167338 195:0.24624583 196:0.99274307 197:0.38573354 198:-0.13413183 199:0.55804145 
-0.4404623884825606 0:-0.088477239 1:1.0228446 2:0.29791757 3:0.51243764 4:1.024246 5:0.56958652 6:0.36164469 7:0.80395097 8:1.4316729 9:0.50895554 10:0.81431854 11:0.7737093 12:1.5359237 13:1.4339303 14:-0.074507259 15:0.37816453 16:1.6187555 17:0.14417654 18:0.67463642 19:0.17263186 20:0.49154556 21:0.41381022 22:0.49563995 23:0.72771418 24:-0.11638285 25:0.5705955 26:0.28317857 27:0.43625337 28:0.51406533 29:0.39854038 30:1.1037797 31:-0.35330459 32:0.65355611 33:1.2769482 34:1.1912755 35:1.8949012 36:0.39873102 37:0.44191939 38:0.93340069 39:0.83686072 40:0.42901894 41:0.85207069 42:0.44992861 43:-0.13563868 44:0.64863533 45:0.47253129 46:0.097263433 47:1.0087045 48:0.79831529 49:-0.33593655 50:0.7189039 51:0.85076416 52:-0.34974372 53:-0.006279829 54:-0.68623602 55:0.21708977 56:0.73941678 57:0.78620207 58:1.7238618 59:1.0012256 60:-0.12528428 61:1.5604924 62:1.0172023 63:-0.30688 64:0.36703321 65:0.96054602 66:1.3515338 67:0.76171094 68:0.68385893 69:0.97602707 70:0.72992969 71:0.82823533 72:0.51533628 73:0.32380974 74:0.99184728 75:0.72413957 76:0.82215744 77:0.066520222 78:2.829093 79:0.4086979 80:3.1626852 81:0.52181798 82:0.4626036 83:0.37556538 84:1.2875565 85:0.057122003 86:-0.10863649 87:1.8990583 88:0.77244556 89:0.59010488 90:0.38421568 91:0.18497342 92:0.61386603 93:1.5378449 94:1.7056081 95:0.55635136 96:0.35287076 97:0.59124202 98:0.62310249 99:1.0036379 100:2.446764 101:-0.1120004 102:1.2630887 103:-0.44078243 104:-0.19917613 105:0.41818643 106:-0.55494916 107:-0.37566847 108:0.88109046 109:0.22801329 110:-0.14808363 111:0.06085743 112:0.3726829 113:0.72965384 114:-0.39664412 115:0.42026058 116:0.52093446 117:0.45329964 118:0.52898973 119:0.2250074 120:0.26166102 121:-0.19262521 122:0.46482426 123:0.60501462 124:1.0883225 125:-0.48142704 126:0.90686548 127:0.43576697 128:0.45414391 129:0.0048892605 130:0.22859719 131:0.25006062 132:1.4418724 133:1.074345 134:0.64160556 135:1.0099494 136:-0.1824566 137:1.2647494 138:0.36466938 139:0.15267493 140:0.58672774 141:0.19937682 142:1.3516699 143:0.55635792 144:-0.29951763 145:0.43014848 146:0.12291747 147:0.38161686 148:1.1711583 149:-0.28194466 150:0.3178198 151:1.5162787 152:0.35863289 153:0.20350713 154:1.191871 155:1.6554078 156:0.31275246 157:0.059177406 158:1.0173196 159:1.5525339 160:1.197605 161:-0.46595055 162:1.0443293 163:0.3891784 164:0.57679546 165:2.0712936 166:1.3346168 167:0.5569883 168:-0.26905605 169:1.3813524 170:1.1131078 171:0.98794937 172:0.35531947 173:0.34207848 174:0.53788823 175:0.60445434 176:0.39079556 177:1.2283366 178:-0.23795496 179:0.51303107 180:1.2286416 181:1.8931062 182:0.41461945 183:0.068442464 184:1.6783309 185:0.23886584 186:1.4925894 187:0.2974458 188:1.8155107 189:2.5077899 190:0.5180971 191:-0.50836539 192:-0.2843352 193:-0.46596685 194:0.13243218 195:0.23220399 196:0.056508232 197:0.4044134 198:1.3459599 199:0.2296284 
-0.3871303706499631 0:0.52395779 1:1.3308635 2:0.22282536 3:0.38431486 4:0.38438678 5:0.65082723 6:0.49674031 7:0.86143148 8:1.079753 9:0.14745343 10:0.7744143 11:0.014193427 12:0.90640092 13:1.3231598 14:0.64990187 15:0.39205843 16:1.6420146 17:2.0886002 18:0.30089545 19:0.80545616 20:2.0227723 21:0.27936998 22:0.36635855 23:0.63810641 24:0.74975002 25:0.5039292 26:0.091429107 27:0.41133317 28:0.69987041 29:0.40152961 30:0.48379576 31:0.72906363 32:0.32323089 33:0.70247173 34:0.91676742 35:0.97021061 36:0.28626403 37:0.40512699 38:0.98674148 39:0.78693008 40:1.9423255 41:1.2699076 42:0.51202965 43:-0.19037771 44:1.062907 45:0.21466711 46:0.13097149 47:0.44364801 48:0.61522061 49:0.78317255 50:1.9811021 51:1.2982256 52:1.269702 53:0.34326425 54:0.86642474 55:1.1923387 56:0.77594191 57:0.65164977 58:1.3102428 59:0.11147349 60:0.17716721 61:1.6048415 62:1.0404476 63:0.18009 64:0.20920724 65:1.63696 66:2.0404792 67:-0.74883443 68:1.497035 69:0.027632071 70:0.20522301 71:0.66476852 72:-0.18764456 73:1.3292872 74:0.94153291 75:0.61607337 76:0.4547641 77:1.2181143 78:-0.050833233 79:0.40188885 80:0.76903731 81:0.48156381 82:1.1240346 83:0.22257642 84:2.4000494 85:5.6589613 86:3.630053 87:0.57154667 88:0.88878506 89:0.70623606 90:0.42153674 91:0.16280116 92:0.81399333 93:1.3552483 94:0.79846919 95:0.91113889 96:0.39813775 97:0.24261503 98:0.72388959 99:0.10261109 100:1.2256572 101:-0.045056246 102:0.61384505 103:-0.41864356 104:-0.19519797 105:1.4707289 106:0.29563677 107:0.75114244 108:0.53479236 109:0.58569175 110:1.2015383 111:1.128634 112:0.32574052 113:0.68413401 114:0.60922122 115:0.4007175 116:0.47185045 117:0.33299762 118:0.24423674 119:1.155215 120:1.4549004 121:1.3554552 122:0.6350801 123:-0.11634559 124:0.18893962 125:1.1810927 126:1.3959347 127:0.062205203 128:0.72545993 129:0.21432239 130:0.06015265 131:1.3075631 132:0.84605664 133:-0.39598525 134:1.1907382 135:0.84208101 136:1.0534791 137:1.2275859 138:-0.17984577 139:0.29720411 140:0.15543626 141:0.35296944 142:1.3354954 143:0.66677511 144:0.84621727 145:0.24616343 146:1.5495112 147:0.47849068 148:0.43169576 149:1.1891775 150:1.5681839 151:0.63934296 152:0.63713443 153:1.9855404 154:0.91229379 155:1.3912334 156:-0.19135943 157:0.4077554 158:0.55072016 159:1.0831015 160:0.90358698 161:0.86008811 162:0.31879011 163:0.10759392 164:0.57784468 165:1.1014897 166:1.2604142 167:0.55362672 168:-0.60513532 169:0.94144958 170:1.5563527 171:1.5274444 172:-0.19071373 173:0.71740615 174:0.96447116 175:-0.12929261 176:0.077944912 177:0.91160214 178:0.55786318 179:1.5960057 180:0.24971645 181:0.59679514 182:0.40042976 183:-0.075795367 184:1.2488257 185:0.021383667 186:0.016922906 187:1.0785794 188:-0.030814838 189:0.87984419 190:0.77248079 191:1.2047981 192:-0.50361145 193:0.27476326 194:1.2318506 195:0.32667598 196:0.95651704 197:0.39482105 198:1.1266459 199:0.28430879 
-0.3015812490802895 0:0.29828644 1:0.78393275 2:0.012555494 3:0.38695866 4:1.1639941 5:-0.81514168 6:0.25847343 7:0.51478964 8:0.1483465 9:0.22092532 10:0.46237713 11:0.15225913 12:0.41011178 13:-0.003577129 14:-0.81862432 15:0.67104739 16:0.035611946 17:0.76192999 18:-0.063962452 19:0.29414773 20:0.7254836 21:0.14665876 22:0.31200314 23:1.3989545 24:-0.18251647 25:0.60834467 26:-0.004718815 27:0.33589154 28:0.29405275 29:0.34150195 30:0.17708476 31:0.28233263 32:-0.1926533 33:-0.45900655 34:0.11143942 35:0.22297062 36:0.35043314 37:2.3205395 38:0.96623701 39:0.54346132 40:1.9386256 41:0.098760933 42:0.39920011 43:-0.40273994 44:0.38023823 45:0.31220368 46:-0.36540052 47:-0.85544032 48:0.23052278 49:1.2870753 50:0.9129777 51:-0.77848148 52:0.33985096 53:-0.53743821 54:0.59976774 55:1.5281907 56:-0.010135664 57:0.91228122 58:1.8720992 59:0.44648153 60:-0.026185827 61:-0.63019627 62:0.042541776 63:0.21246392 64:0.15227827 65:1.4723293 66:0.38645971 67:0.82097542 68:0.38362011 69:-0.13350947 70:0.68212014 71:-0.33910784 72:-0.31936628 73:0.34791538 74:1.2576827 75:0.22347474 76:1.1050957 77:-0.41643652 78:1.0823622 79:0.35806361 80:0.88284111 81:0.31508535 82:0.77582842 83:0.37323645 84:0.36562485 85:0.12912543 86:0.053432867 87:1.680913 88:2.2944908 89:2.0561647 90:1.428339 91:0.92886215 92:1.9533213 93:-1.3236533 94:-0.18464006 95:-1.5085384 96:0.81206757 97:0.22108299 98:1.9854885 99:0.2763336 100:-0.97032642 101:-0.080823064 102:-0.04412657 103:2.2052712 104:-0.73280758 105:-0.050735027 106:0.32398629 107:-0.0051424014 108:0.028408717 109:-0.013477813 110:-0.45567203 111:1.676473 112:0.29964307 113:1.0118016 114:0.99562162 115:0.43665943 116:0.60856354 117:0.3540706 118:0.42979079 119:-0.59296793 120:2.2301407 121:0.47905916 122:0.48584956 123:0.20412174 124:0.044854764 125:-0.24325006 126:0.20331447 127:-0.48828083 128:0.46933728 129:0.2349373 130:0.77916414 131:0.29918322 132:-0.25856557 133:-0.15783741 134:-0.19228899 135:0.026409404 136:-0.41375485 137:0.85232836 138:0.56801516 139:-0.15092741 140:-0.22147866 141:0.025068082 142:-0.29100245 143:0.51548994 144:0.36922458 145:0.31311837 146:0.99395341 147:-0.53551197 148:0.2225893 149:0.36743692 150:0.89570528 151:0.11278697 152:-0.28270742 153:0.65615064 154:-0.083356284 155:-0.76765788 156:-0.23978947 157:0.23992839 158:1.2238071 159:0.062061816 160:-0.099986143 161:1.2051525 162:0.0019652273 163:1.6162573 164:0.35829273 165:-0.70802677 166:0.26857215 167:-0.87649488 168:0.41658562 169:-0.075839415 170:-0.23476741 171:1.3272637 172:0.11342534 173:0.83794612 174:-0.11454759 175:0.52412754 176:0.9351688 177:0.55529076 178:-0.20277306 179:-0.6562385 180:0.48423129 181:1.7323657 182:0.35935009 183:0.47542784 184:0.11558027 185:0.038611889 186:-0.69184804 187:0.017773014 188:0.00033192194 189:1.6649616 190:0.65253961 191:0.42908368 192:-0.012268147 193:-0.62540621 194:0.093627803 195:-0.24847658 196:0.91467124 197:0.34870711 198:0.064834252 199:-0.42029166 
-0.2301942983236455 0:0.9727264 1:0.39402136 2:0.41295245 3:0.34363025 4:0.30259296 5:0.74583453 6:0.11141603 7:0.66764736 8:0.31481084 9:0.042232607 10:-0.26478881 11:-0.41949543 12:0.53452998 13:1.4942139 14:0.69726598 15:-0.024174931 16:1.084725 17:1.2921407 18:-0.14259075 19:0.63590914 20:1.1178799 21:0.98804337 22:0.32741535 23:0.26564294 24:-0.073969848 25:0.1934485 26:0.68099123 27:0.42224076 28:0.58315343 29:0.39126346 30:0.48464346 31:1.323275 32:0.7296226 33:0.15738015 34:0.3666715 35:1.2355337 36:0.23061204 37:0.38539475 38:1.4496778 39:-0.21371116 40:1.3289273 41:0.93621933 42:0.49567476 43:-0.3429541 44:0.72200412 45:-0.48342988 46:-0.25646272 47:0.17605437 48:0.73575926 49:-0.078686729 50:1.6426041 51:1.0001152 52:1.5864348 53:1.3802875 54:1.3737193 55:0.58848822 56:0.17029007 57:-0.040544704 58:1.2450749 59:0.26039413 60:-0.15817185 61:2.3281872 62:1.041069 63:0.99598879 64:0.11995716 65:0.95635402 66:-0.11452509 67:0.0074388389 68:-0.18294404 69:0.32656774 70:-0.71184677 71:0.19784996 72:0.22956552 73:1.2358067 74:1.0575968 75:1.2653283 76:0.50677478 77:1.8266717 78:-1.1895579 79:0.40558073 80:0.76928276 81:0.31328782 82:0.54148108 83:-0.86753827 84:0.40821588 85:0.45865771 86:-0.46785605 87:0.51357156 88:0.5997957 89:0.65914541 90:3.3209085 91:2.5032279 92:4.226512 93:0.0063424502 94:0.5467276 95:-0.14568897 96:-0.46143135 97:1.374364 98:1.0716157 99:0.4417963 100:0.13180822 101:0.73462319 102:1.0210595 103:-1.0183547 104:0.12059841 105:0.98871529 106:0.5882197 107:0.17381421 108:0.35056096 109:0.86769807 110:-0.49984905 111:1.5789639 112:0.33620206 113:0.67116517 114:0.44089058 115:0.65899473 116:-0.0053269444 117:0.31597099 118:0.22866932 119:1.1461821 120:1.4806163 121:-0.53007621 122:1.0346767 123:0.55183601 124:1.0823251 125:-0.2579951 126:-0.24341242 127:0.45758894 128:0.17251335 129:-0.33380982 130:1.706723 131:1.7347372 132:-0.69220597 133:0.69112319 134:-0.11075741 135:0.87811315 136:1.5018462 137:1.5418499 138:-0.32415673 139:0.63124263 140:0.04895813 141:-0.2858271 142:1.1566541 143:0.93400729 144:0.48962885 145:-0.1552428 146:0.34289545 147:0.55694896 148:0.35330617 149:1.9148597 150:0.015523138 151:0.8993606 152:-0.39151862 153:0.27765191 154:0.35665488 155:1.4180759 156:0.25703871 157:0.95052385 158:-0.18878484 159:0.17506336 160:1.5856589 161:1.258419 162:0.2385408 163:0.039036673 164:0.56439561 165:0.82887745 166:0.76517087 167:1.9690881 168:0.086520955 169:0.085253149 170:1.0395275 171:0.39027807 172:-0.14834991 173:1.2815971 174:0.81289446 175:0.029490849 176:0.12856083 177:0.62519741 178:0.0019009927 179:-0.35322183 180:0.52640468 181:0.26541001 182:0.4027136 183:1.6839052 184:1.7049786 185:-0.077582121 186:-0.69280946 187:-0.30116203 188:0.59927511 189:3.0136521 190:1.238429 191:0.79937553 192:0.12929593 193:1.8157976 194:0.6444155 195:0.9150306 196:1.7878823 197:0.40562505 198:0.68978804 199:-0.2626012 
-0.09382008111570392 0:0.36295438 1:0.4318797 2:-0.092448123 3:0.43134674 4:0.45308268 5:1.5103765 6:-0.050918285 7:-0.04860317 8:0.43930039 9:-0.29014814 10:0.68516719 11:0.68124723 12:0.89282125 13:0.074737251 14:1.327536 15:0.34310448 16:-0.25002044 17:1.5104094 18:0.7332558 19:1.0100652 20:1.7382205 21:-0.41499436 22:0.26701346 23:1.0791484 24:0.1623638 25:1.1897688 26:0.54498172 27:0.32808897 28:0.69885463 29:0.34635013 30:-0.24248067 31:0.74575496 32:-0.23135884 33:0.15241027 34:-0.081987657 35:0.65009689 36:0.34924451 37:-0.20393229 38:-0.84947968 39:-0.12586679 40:-0.51520693 41:0.82823902 42:0.36437854 43:-0.028801559 44:-0.13675666 45:0.29334474 46:0.58123702 47:0.73388916 48:0.51375544 49:-0.38257238 50:-1.0988299 51:0.38459575 52:0.070745274 53:0.55241692 54:0.72600192 55:0.93465996 56:0.14767478 57:1.4050834 58:0.63067639 59:2.4033518 60:-0.39979869 61:1.4741266 62:0.42694807 63:0.51066619 64:-0.080920391 65:-0.97669452 66:0.98794007 67:-0.02507727 68:0.92359322 69:0.12906703 70:0.28260845 71:-0.48556671 72:-0.25883448 73:-0.14955722 74:-0.4364225 75:0.70803982 76:-0.872998 77:0.26393527 78:0.11127803 79:0.33236659 80:1.2840202 81:0.337926 82:0.87727928 83:-0.54052675 84:-0.39373794 85:-0.37239003 86:-0.28402868 87:1.2669619 88:0.56765556 89:0.94432694 90:0.51472497 91:-0.78929448 92:2.5238538 93:3.182976 94:1.1344824 95:1.0642468 96:0.1751246 97:-0.54049599 98:0.88752359 99:1.2774322 100:1.7933526 101:0.48388892 102:0.91181511 103:-0.58299363 104:0.25301534 105:-0.36237124 106:-0.82500672 107:0.91061169 108:0.13687018 109:-0.35208994 110:0.47334284 111:2.0254672 112:0.24945368 113:0.92180562 114:0.14610565 115:0.11937648 116:-0.10956515 117:0.18552205 118:0.22937249 119:0.098172948 120:-0.45978346 121:-0.40748113 122:1.0888457 123:0.70686358 124:0.49413967 125:0.23712312 126:0.002280043 127:-0.31368527 128:-0.32040712 129:-0.41314495 130:-0.71353239 131:-0.052932568 132:0.63246864 133:1.3003721 134:-0.012772 135:1.2289389 136:-0.088813789 137:0.33671418 138:-0.019295484 139:0.50337267 140:0.28245795 141:0.81094223 142:0.76541835 143:1.0130141 144:-0.36819923 145:-0.020550603 146:-0.42591959 147:0.56715304 148:0.10940773 149:1.4110106 150:0.47107381 151:0.44174755 152:0.28305188 153:1.0114117 154:1.1734532 155:0.22949025 156:0.20609681 157:-0.82378864 158:-0.37883008 159:1.5536389 160:0.4909164 161:0.86466008 162:0.092607558 163:-0.24609403 164:0.49472314 165:0.9350118 166:1.2703733 167:1.5311413 168:0.16059071 169:0.054450974 170:0.49431625 171:1.0956849 172:-0.34259683 173:0.57412392 174:0.25149506 175:-0.012866921 176:0.057063602 177:0.85950744 178:-0.34542874 179:0.98500574 180:0.1350849 181:0.036782768 182:0.31531137 183:-0.11893975 184:0.53274494 185:-0.038542975 186:1.5290571 187:-0.25603047 188:-0.29457361 189:0.57036161 190:0.01797932 191:1.9366897 192:-0.11625084 193:0.24571145 194:-0.43732709 195:0.59853852 196:0.81390083 197:0.31894052 198:1.0817946 199:0.4360953 
-0.1919503687424449 0:0.25356036 1:-3.0287724 2:-2.1783454 3:-1.5396357 4:-1.7863349 5:-2.4439874 6:-2.2881513 7:-2.0366154 8:-1.2810339 9:-2.0441616 10:-2.5973442 11:-0.52094567 12:-0.13916877 13:-1.2683129 14:-1.7111152 15:-0.64381063 16:-1.0309918 17:-0.43374699 18:-2.0982351 19:-0.081755862 20:-0.22775607 21:0.59751225 22:-2.5335689 23:-2.1287715 24:-0.71510535 25:-1.6953478 26:-0.69821078 27:-2.4043365 28:-1.296877 29:-2.3969405 30:-0.45611766 31:-1.5180188 32:-1.4073986 33:-3.4473739 34:-1.4868672 35:-1.8829128 36:-2.7042871 37:-1.2641135 38:-0.58669627 39:-1.1808739 40:-0.83479667 41:-2.5801244 42:-2.5373392 43:-1.076671 44:0.37006381 45:-1.9030428 46:-1.3243316 47:-2.0494678 48:-2.3409178 49:-1.6920987 50:-0.86681426 51:-1.9681604 52:-1.3361977 53:-1.5690283 54:-0.85196245 55:2.0500448 56:-0.80856872 57:-2.4068408 58:0.14775471 59:-1.6094815 60:-0.88968486 61:-2.3757083 62:-2.9206161 63:-1.4418359 64:-2.1907227 65:0.27351421 66:-1.3911839 67:-1.5395621 68:-1.1788092 69:-2.5478859 70:-0.87895226 71:-0.84752792 72:-1.5216424 73:-0.18254578 74:-1.358902 75:-2.628659 76:0.29146823 77:-0.087395288 78:-0.49955371 79:-2.3135033 80:-0.66197211 81:-2.1143212 82:-1.3809268 83:-1.8610327 84:-2.1839297 85:-0.47381377 86:-0.14912899 87:0.072516449 88:-1.9717768 89:-0.18347232 90:0.40805677 91:-1.1209749 92:-0.30670744 93:-2.3318391 94:-1.6617695 95:-2.5060658 96:5.5279813 97:3.9133055 98:0.20574044 99:-1.8503284 100:-1.6638463 101:-0.50753427 102:-2.2207553 103:0.067346714 104:-1.3709002 105:0.2717042 106:-1.5717248 107:-1.2287546 108:-2.7947013 109:-0.77257621 110:-2.3388531 111:0.24847439 112:-2.4403017 113:-1.3179874 114:-1.499065 115:-1.8936437 116:-1.5601841 117:-2.4461854 118:-2.8567777 119:-2.905514 120:-0.98458439 121:-1.3041457 122:-0.63891411 123:-0.32290781 124:-0.6527487 125:-0.98395407 126:-1.1299603 127:-1.7396854 128:-1.5771058 129:-0.58435005 130:-0.33234799 131:-1.8010041 132:-1.7209802 133:-2.3726017 134:-1.1722862 135:-2.0175583 136:0.26920375 137:0.37998205 138:-0.72884792 139:-0.43343344 140:-0.17211588 141:-1.507961 142:-1.1072026 143:-0.78415793 144:-0.20412786 145:-2.1554136 146:-1.4827579 147:-2.1178801 148:-3.4994516 149:-1.7218302 150:0.35112208 151:-0.75638723 152:-2.0296247 153:-1.7988963 154:-1.4988145 155:-2.4317949 156:-1.6131808 157:-0.28625184 158:-2.1023223 159:-1.0655004 160:-3.0593233 161:-0.26298338 162:-1.1611243 163:-1.7410375 164:-2.3348112 165:-1.7182621 166:-1.8508962 167:-2.1028957 168:-0.39283431 169:-1.0372792 170:-1.1201308 171:-1.0280153 172:-0.46044827 173:-1.3260053 174:-2.0147562 175:-2.3581042 176:0.58889848 177:-1.9080484 178:-0.49943018 179:-1.3646421 180:-0.33076829 181:-1.4747626 182:-2.3048692 183:-0.31127045 184:-2.4904456 185:-1.7464454 186:-1.923509 187:-2.0841026 188:-1.6058609 189:-0.34067321 190:-1.7206388 191:-1.5566587 192:-0.12381221 193:0.68729264 194:-0.98798352 195:-1.385118 196:-1.2375633 197:-2.3546488 198:-2.4383969 199:-1.479054 
-0.01623620590476996 0:-1.5723572 1:1.4877925 2:-0.021536211 3:0.33749706 4:0.53223336 5:0.6131053 6:0.14003964 7:0.41766098 8:0.014920813 9:0.31061253 10:-0.22471157 11:-0.74111879 12:-0.97871917 13:-0.40517443 14:-0.62710482 15:-1.1449105 16:1.8332859 17:-0.46867287 18:0.6761682 19:-0.21746846 20:-0.37539083 21:-0.88383502 22:0.26879871 23:0.0099499272 24:-0.33964342 25:-0.48615769 26:-0.65404433 27:0.35059527 28:0.34461489 29:0.33832589 30:0.60180432 31:-0.024454426 32:0.51022518 33:0.37887084 34:1.2038419 35:0.67930496 36:0.27122226 37:-0.030355165 38:-0.20631659 39:0.13447838 40:-1.8710387 41:0.98587668 42:0.17887075 43:-0.31637755 44:1.0454065 45:0.47298831 46:0.64708227 47:1.1277478 48:-0.35788557 49:-0.53396094 50:0.90095824 51:-0.2706106 52:-0.20701836 53:-0.46954057 54:-0.78586662 55:-1.4385302 56:-1.471588 57:1.4377043 58:-0.33781943 59:0.09620595 60:-0.20530593 61:0.64211118 62:1.0946875 63:-0.52451211 64:0.020966142 65:-1.7568792 66:1.2579659 67:-0.52291894 68:0.42039904 69:0.16990526 70:2.0335333 71:0.8644166 72:-0.1702707 73:-1.3020055 74:0.084887698 75:1.0138651 76:-1.5751485 77:-0.72155315 78:-0.4980242 79:0.33022353 80:-0.96540666 81:0.26411515 82:0.61078334 83:-0.53589475 84:0.032667466 85:-0.67943853 86:0.44682682 87:0.6469937 88:-0.81572479 89:-0.0058458657 90:-1.0312809 91:-1.1695074 92:-1.0876168 93:0.26634774 94:-0.59928423 95:1.1845579 96:-0.6405378 97:0.6241284 98:0.58092546 99:1.3384262 100:2.1905065 101:4.488492 102:1.4946845 103:-0.73273224 104:-0.23333469 105:0.40270731 106:-0.024226665 107:-0.17929082 108:-0.13459867 109:-0.99454087 110:-0.014674783 111:-1.4580151 112:0.25204083 113:0.10630671 114:-0.11138678 115:-0.32638609 116:-0.14497782 117:0.31562567 118:0.16095237 119:0.53604877 120:-1.2659932 121:-1.2233647 122:-1.4319232 123:-1.2235906 124:-0.75553697 125:0.16077857 126:-0.037722126 127:-0.21735102 128:-0.36003676 129:-0.68262368 130:-0.22654055 131:1.4196062 132:-0.14541237 133:1.148056 134:-0.1072186 135:0.25621825 136:-0.48765382 137:-0.2425157 138:-0.093444414 139:-0.57716769 140:0.13888001 141:0.21317145 142:0.40543935 143:0.20369928 144:0.43145064 145:0.072920039 146:0.64331359 147:0.52581275 148:0.052014895 149:0.48412207 150:1.359686 151:-0.89399076 152:0.27836302 153:-0.19914435 154:-0.075903594 155:1.2255416 156:-0.089834489 157:2.3297141 158:0.17001842 159:1.3106256 160:1.3000939 161:0.13099898 162:-0.126349 163:-1.7360963 164:0.27296677 165:-0.10572057 166:0.79430419 167:-0.25328904 168:-0.35402232 169:0.63996077 170:0.25914726 171:-1.3868508 172:-0.30918476 173:0.56619692 174:0.28438056 175:-0.087782651 176:-1.2909514 177:0.83118463 178:-0.27847588 179:1.2630048 180:0.64102709 181:-0.2011113 182:0.36451361 183:0.13766338 184:1.5569609 185:-0.07940831 186:-0.41754079 187:0.51058626 188:-0.21752517 189:-1.2567081 190:-0.10585889 191:-1.0712171 192:-0.65775585 193:-1.0998688 194:0.12565278 195:0.24881656 196:-0.92440599 197:0.33266264 198:1.2824594 199:-0.044826165 
-0.2820204201563822 0:-0.43199322 1:-1.2413585 2:-0.1228848 3:0.37585896 4:0.52757198 5:0.23253025 6:-0.15744771 7:-0.61636758 8:-0.053367153 9:0.19725758 10:0.27435502 11:-0.035423994 12:0.63559026 13:0.98922974 14:-0.12324495 15:0.83258051 16:1.570644 17:0.69459164 18:-0.08733546 19:1.3153318 20:1.4370189 21:0.49189445 22:0.2190185 23:1.0143343 24:0.35296816 25:0.58267933 26:0.192122 27:0.16562703 28:0.3461259 29:0.16275476 30:-1.1339252 31:0.44670656 32:-0.12342548 33:0.05014047 34:-1.0742588 35:0.007307386 36:0.1174353 37:0.013979405 38:0.44459972 39:0.35222104 40:-0.88067967 41:0.81954205 42:0.080019206 43:0.31403419 44:0.6395058 45:-0.31617704 46:-0.52713269 47:1.3924824 48:-0.096586958 49:-0.60890883 50:0.77166927 51:-0.54116249 52:0.8620097 53:0.64751422 54:1.2672838 55:-0.014301229 56:-0.13044266 57:0.71488261 58:0.26476732 59:-1.3526933 60:0.017610626 61:0.79823595 62:0.44188133 63:0.34404108 64:-0.053871229 65:-0.98432344 66:0.73094845 67:0.47031274 68:-0.021927396 69:0.85345042 70:-0.61658418 71:-0.19987042 72:0.11960067 73:0.65746933 74:0.14155871 75:0.25704753 76:1.0217662 77:0.48626775 78:0.24210592 79:0.18797414 80:-0.16536815 81:0.045110956 82:0.98547012 83:0.33860013 84:-0.022887133 85:0.36949465 86:-0.1873749 87:-0.50759858 88:0.0033346291 89:1.2337474 90:0.48414195 91:1.1550752 92:-0.32553717 93:-0.18211195 94:0.66619068 95:-0.42022303 96:-0.077268258 97:0.2161357 98:1.6556985 99:0.091147371 100:0.24746379 101:-0.26395538 102:2.6490607 103:1.9427419 104:1.0580965 105:0.99895823 106:0.55099499 107:-0.12607576 108:0.74612159 109:0.70194554 110:0.25834489 111:0.084019683 112:0.10759334 113:0.23474014 114:0.18273656 115:0.32580245 116:0.063003063 117:0.066229418 118:-0.23562081 119:-0.1911186 120:1.3444668 121:-1.0013082 122:0.42202508 123:0.52063614 124:-0.36445367 125:1.3913236 126:0.099724643 127:0.27642602 128:-0.58640015 129:-0.77772373 130:0.35194466 131:0.27825901 132:0.4955872 133:0.7077632 134:0.43780929 135:1.8206254 136:-0.26437473 137:0.21220882 138:0.40975237 139:0.55286348 140:0.18091463 141:-0.14300147 142:0.29039326 143:0.65566814 144:-0.10645451 145:0.01285541 146:0.35178077 147:-0.1524341 148:0.39003149 149:2.9031193 150:0.16814165 151:0.29212081 152:0.46873084 153:1.0445063 154:0.63712633 155:1.4011619 156:0.64255899 157:-0.10581108 158:0.59440106 159:0.71635336 160:0.55654067 161:0.52499312 162:0.66216063 163:0.54399586 164:0.056308143 165:-0.10125706 166:0.32066137 167:0.76770961 168:0.62763238 169:0.30660859 170:1.1299063 171:-0.11755461 172:-0.087176204 173:0.087546609 174:1.2232769 175:1.2153587 176:1.5790535 177:-0.49984807 178:0.36900163 179:-0.77149045 180:1.8783822 181:1.7306707 182:0.14728895 183:-0.53344911 184:0.48931584 185:0.46077222 186:-0.34290749 187:-0.051160086 188:1.8432078 189:0.29600391 190:0.70459265 191:0.49119627 192:0.28040192 193:0.69036877 194:0.42313156 195:-0.23459102 196:-0.79281187 197:0.19229124 198:1.4477311 199:0.34275773 
