svm_type c_svc
kernel_type rbf
gamma 0.00502513
nr_class 2
total_sv 111
rho -0.416961
label 1 -1
nr_sv 53 58
SV
0.9905471267131488 0:-0.96323729 1:-0.99979609 2:3.6191099 3:6.0861816 4:-0.40961689 5:0.8359738 6:-0.032617081 7:-1.1385708 8:-0.86277366 9:0.14652304 10:-0.47456661 11:-0.84487259 12:-0.86631465 13:0.020265657 14:0.11448575 15:-0.73901957 16:-0.73699355 17:0.77731335 18:-0.8531583 19:-1.3051578 20:0.11181072 21:0.78918564 22:0.7823683 23:-1.3657198 24:-0.75508463 25:-0.91613364 26:-0.93817425 27:-0.17812431 28:-0.74237603 29:-1.0917016 30:-0.11686879 31:-0.22428362 32:-0.21623559 33:-0.17489815 34:0.20848387 35:1.0426339 36:-0.67670614 37:-1.2072225 38:-0.26072848 39:0.065553255 40:-1.1060114 41:1.9888017 42:1.201651 43:-0.6520257 44:0.21161899 45:-0.12904409 46:-1.0960481 47:-1.1540096 48:-1.2839009 49:-0.41829631 50:0.43995526 51:-0.51259923 52:0.55585068 53:-1.3918859 54:-0.57345498 55:-0.26625907 56:2.284493 57:1.2257588 58:0.093671009 59:1.4468518 60:0.22253871 61:-0.7456547 62:0.63010323 63:0.47418991 64:0.23568422 65:0.46082249 66:-1.0546082 67:-0.046315763 68:-0.79928434 69:-1.0245355 70:1.5455627 71:-0.62905586 72:1.0756073 73:-0.62310821 74:-0.94814104 75:-0.90503252 76:0.82089472 77:0.90778124 78:0.54582679 79:-0.96639282 80:-0.65677226 81:-0.22192065 82:0.37228969 83:-0.97762454 84:-1.0469416 85:-0.51954454 86:-0.89040822 87:0.38361493 88:-0.45186678 89:1.2111918 90:-0.79312831 91:-0.22305895 92:-0.021837246 93:-1.8379922 94:-0.65127414 95:-0.98348331 96:0.58646399 97:-1.0510292 98:-0.35182357 99:-0.75784016 100:0.71808308 101:-0.12238712 102:-0.76647592 103:0.11245837 104:2.0099225 105:-1.1617798 106:-0.23129651 107:0.30867818 108:0.57886916 109:-0.12685202 110:-0.63686973 111:-0.16827595 112:-0.44885254 113:1.6855358 114:-1.2753851 115:-0.79018825 116:0.45192194 117:-0.27862021 118:-0.055435047 119:0.75969404 120:-0.075365573 121:-0.30739748 122:-1.6732893 123:-1.0823987 124:-1.1152378 125:0.28408596 126:-0.047235649 127:0.6953004 128:-0.69426811 129:-1.2165103 130:0.0051792026 131:-0.64356625 132:0.18259959 133:0.045302935 134:-0.67632937 135:-1.3939015 136:0.39410621 137:-0.75916928 138:0.11454672 139:-0.43485332 140:-0.039047245 141:-1.2177931 142:-0.65698344 143:0.97201651 144:-0.26171651 145:0.10370528 146:-0.96579653 147:-0.016732814 148:0.24695919 149:-0.57474124 150:-0.7429226 151:-1.7278396 152:-0.51610094 153:-1.1625029 154:-0.25048959 155:-0.60220641 156:-1.2748622 157:-1.2980049 158:-0.82663846 159:-1.3099869 160:0.038446479 161:-0.028638992 162:-0.384891 163:0.16112147 164:-0.19197465 165:-1.2344223 166:-0.1451326 167:0.081049286 168:-0.96688992 169:-0.6539768 170:-0.79668969 171:-1.3704579 172:0.30058536 173:-1.4581556 174:-0.33029363 175:-0.52312201 176:-1.0178299 177:-0.47964627 178:-0.38781208 179:-1.117065 180:-0.53304309 181:0.070441172 182:-0.42281938 183:-0.81271225 184:-0.96282232 185:-0.5145489 186:0.52351654 187:-1.4146426 188:-1.2230172 189:-0.043574367 190:-0.61488318 191:-0.95026886 192:0.24681413 193:-0.8959257 194:-0.73805344 195:0.12972592 196:-0.81786799 197:-1.3074812 198:-1.3516194 199:0.081563845 
1 0:1.0493486 1:0.4556658 2:-0.65772903 3:-1.1502596 4:0.43187222 5:-0.14615154 6:0.58529681 7:2.603111 8:-1.1052727 9:1.2915213 10:-1.408654 11:0.057157375 12:2.0858855 13:0.10751762 14:-0.26039541 15:0.12762681 16:0.46207079 17:1.1281278 18:-1.0229595 19:0.15598683 20:-0.46961764 21:-0.7325561 22:0.38594684 23:0.30063632 24:0.050179735 25:-0.17588869 26:0.32694626 27:-1.1113942 28:-1.1670482 29:-0.021608081 30:0.07712768 31:-0.34215081 32:-0.72246212 33:-0.19948077 34:0.68745232 35:-0.64460641 36:-0.5175125 37:0.37922877 38:-1.6368567 39:0.0063579669 40:-0.52945834 41:-0.36895868 42:-0.3533887 43:-0.81072199 44:0.33753422 45:0.41848281 46:-0.18726291 47:0.88171071 48:1.2021749 49:0.4641982 50:-1.0268354 51:-0.67363316 52:0.1714704 53:-0.68038559 54:0.1981463 55:0.10177234 56:-0.39118251 57:-0.81342971 58:1.1391494 59:-0.89467174 60:0.24484253 61:-0.73027813 62:-0.58335537 63:0.4179 64:0.4005172 65:0.36363736 66:0.27194369 67:1.8742747 68:0.77416086 69:-1.0716575 70:-1.2764819 71:0.10795055 72:-0.59805548 73:-0.80844808 74:-1.106782 75:0.01542173 76:0.32163689 77:-0.11501394 78:0.18906906 79:-0.14614984 80:0.7296226 81:0.16151004 82:0.17112 83:-1.0162657 84:-0.56110829 85:-0.34639987 86:-0.84697878 87:-0.71507668 88:-0.1619906 89:-1.676226 90:-0.034471869 91:1.5459758 92:-0.36356366 93:1.0901922 94:-0.25205502 95:0.84891999 96:-0.023672629 97:0.84143811 98:1.2713776 99:0.70557266 100:0.2642172 101:-0.23075923 102:0.46988329 103:0.3967841 104:0.36147678 105:0.24493904 106:-0.14798145 107:-0.81394219 108:-0.75170445 109:-0.25728711 110:0.33958989 111:-0.13697869 112:-0.55774444 113:-0.74121362 114:0.39385542 115:0.27352318 116:-1.0558782 117:0.72999263 118:0.76964414 119:1.154844 120:-1.1828299 121:-0.99799907 122:-0.31733239 123:-0.57480246 124:-0.55009335 125:1.4267087 126:0.44710386 127:-0.66419065 128:0.21364494 129:0.19323458 130:-0.074793525 131:-0.0015289063 132:-0.73949099 133:0.13261795 134:0.13552575 135:-1.1098156 136:0.39019653 137:-0.36579305 138:0.38655534 139:-0.12874445 140:-1.9224648 141:0.35999253 142:0.30343118 143:-0.11426312 144:-0.78855711 145:-0.61259907 146:0.46578643 147:1.0689812 148:-0.56483811 149:-0.70361978 150:-0.061156899 151:-1.6786367 152:-0.50020432 153:-1.6685135 154:-1.1941491 155:-0.58854216 156:0.42145446 157:-0.11964204 158:-1.3154987 159:0.07025376 160:1.4599704 161:-1.1711797 162:-0.34434789 163:-0.60514992 164:1.1708281 165:0.29632258 166:-0.10214767 167:-0.31308967 168:0.18904668 169:0.33549514 170:1.0171024 171:0.41003057 172:-0.39040694 173:0.22604345 174:0.27599913 175:0.30165315 176:0.065034181 177:-0.96697658 178:-0.68441963 179:0.31965297 180:-1.1734958 181:-1.2178285 182:0.060149964 183:0.050678395 184:0.25347093 185:-0.78153646 186:-0.2372929 187:-1.2028103 188:0.30344203 189:0.25335807 190:-1.7577556 191:0.41786486 192:0.73063594 193:-0.80695462 194:0.32857463 195:0.5395118 196:0.32511717 197:-0.53359753 198:0.11876748 199:-0.099752225 
0.4514401107641057 0:-0.170638 1:0.45935017 2:-0.98230952 3:1.1894891 4:0.70705038 5:0.32822907 6:-0.88497013 7:-0.1362728 8:2.214061 9:0.76214081 10:4.6564894 11:1.6921715 12:0.49731508 13:-1.5904447 14:-0.93014759 15:0.23630424 16:0.51205105 17:0.48973009 18:0.83173138 19:1.3994738 20:0.35067597 21:0.25676379 22:0.44236708 23:0.43798986 24:-0.039828878 25:-1.0821497 26:0.68069762 27:0.38005441 28:-0.12891637 29:0.44681987 30:0.45477906 31:-0.57275784 32:0.97118384 33:0.31247044 34:0.30640474 35:0.0012145827 36:0.47053498 37:0.41488266 38:0.11476292 39:-0.50922984 40:-0.37478119 41:0.37409443 42:-0.10742541 43:0.99180913 44:0.6062932 45:0.86398119 46:-0.1053641 47:0.10599548 48:1.0041574 49:1.17792 50:-0.81476951 51:0.093740597 52:-0.059760727 53:1.159502 54:0.46572471 55:2.1894219 56:-0.95932478 57:-1.3437011 58:-0.19665062 59:0.91660792 60:0.39159104 61:0.44551468 62:0.58763963 63:1.4789286 64:0.063145801 65:-0.27391332 66:0.52973527 67:0.96621865 68:-0.647587 69:0.7030859 70:-0.59857881 71:1.5966388 72:0.35310328 73:1.0530307 74:-1.1939813 75:0.47108632 76:0.63244754 77:0.88166016 78:0.39448723 79:0.53099948 80:0.70183802 81:-0.04317911 82:0.31304267 83:-0.11068703 84:0.82769167 85:-1.211499 86:-0.21249154 87:-1.5625546 88:0.81617373 89:-0.47448477 90:0.67078805 91:0.76492083 92:0.6277355 93:-0.077133775 94:-1.1983112 95:0.65085185 96:-1.0545168 97:0.40383846 98:1.0686752 99:0.66585076 100:0.78156978 101:0.14187457 102:0.43456513 103:0.56896633 104:-0.26658708 105:1.153685 106:-0.1117502 107:-0.12009604 108:-0.40844613 109:0.03022342 110:-0.35944512 111:-0.55388921 112:1.5065856 113:-0.29804242 114:0.28610653 115:0.34063289 116:-0.56995434 117:0.47802526 118:-0.083761796 119:0.22689021 120:-1.4873698 121:-0.067770064 122:-0.71037173 123:0.12798101 124:-0.26834497 125:0.53603214 126:-0.14694841 127:1.2381891 128:-0.54081982 129:0.57350534 130:0.50004643 131:0.67129314 132:-0.24180578 133:0.58551824 134:0.69567335 135:0.59171206 136:0.50637215 137:2.2675447 138:0.11679273 139:0.89572269 140:-0.67179126 141:0.42311561 142:0.30552721 143:0.74434566 144:0.25025508 145:-0.5866558 146:0.44686732 147:1.0882626 148:-0.089398637 149:-0.53714567 150:0.98961902 151:0.14281601 152:-0.26873308 153:2.1147003 154:0.24718292 155:0.50201011 156:0.43403962 157:0.98561758 158:1.0592425 159:-0.52210528 160:0.90954715 161:-0.66007692 162:0.42520189 163:0.8218804 164:0.44954473 165:1.0937166 166:0.21953604 167:-0.23488142 168:0.58649927 169:0.36201951 170:-1.1316699 171:0.42426339 172:-0.2487786 173:0.4784511 174:0.13956359 175:0.34006023 176:0.38474351 177:-1.3839438 178:-0.27817827 179:0.51108181 180:-0.55811882 181:0.49402267 182:0.16331981 183:-1.1103616 184:0.2203182 185:-0.89734459 186:1.4270732 187:1.1688856 188:0.46028292 189:1.4091411 190:-0.60477686 191:0.45474485 192:0.18069974 193:-0.17475261 194:0.39155704 195:0.81125289 196:0.4551034 197:1.1861069 198:0.34422287 199:0.72134173 
0.5497891846344077 0:1.0281038 1:0.53032887 2:1.0482076 3:1.4566888 4:1.5523192 5:1.4591657 6:1.3004255 7:1.752018 8:1.998094 9:1.7941366 10:1.2464168 11:0.72256517 12:6.8035727 13:2.6838078 14:1.6200441 15:1.4723538 16:1.5423747 17:1.5784065 18:1.6805521 19:1.9201012 20:1.7433032 21:1.5885111 22:2.0397189 23:0.56322265 24:1.0868399 25:3.3773386 26:1.9424382 27:1.754305 28:1.0498139 29:1.3313202 30:1.0611912 31:2.1133301 32:1.262175 33:1.6797212 34:1.4639428 35:1.8229257 36:1.2805462 37:0.52392972 38:1.4439303 39:1.9501634 40:1.0074152 41:1.3174132 42:0.91094321 43:2.0445542 44:1.2932161 45:0.78887063 46:0.82732815 47:1.8505332 48:0.89026803 49:1.7435421 50:2.1291411 51:0.81122649 52:2.148751 53:1.0103151 54:0.73488778 55:2.104491 56:2.133925 57:1.2269199 58:1.1757097 59:0.77139407 60:0.79925758 61:1.258521 62:1.7223024 63:1.5238101 64:0.97051948 65:1.3962487 66:0.56981969 67:1.6517487 68:1.5407478 69:2.0711644 70:2.0870895 71:1.635736 72:1.0906248 73:1.6194966 74:2.0885541 75:0.80335099 76:1.523558 77:1.6003348 78:1.2331799 79:0.79397452 80:0.94721878 81:2.131243 82:0.89880878 83:0.15677729 84:1.0905135 85:2.2724636 86:1.2888466 87:2.2839384 88:2.4451656 89:2.2304997 90:0.86316425 91:2.0016601 92:1.8972505 93:2.0763273 94:0.45414019 95:1.5742719 96:2.1455662 97:1.9163277 98:1.6080562 99:1.9061506 100:0.86223477 101:1.151035 102:0.50180393 103:0.6495111 104:2.5601878 105:1.5417975 106:1.2130888 107:1.4273787 108:2.4773273 109:1.6433277 110:0.903364 111:2.5659995 112:2.1760035 113:2.3813281 114:1.7638491 115:0.77725309 116:0.8817504 117:1.5574702 118:1.2804588 119:1.3365706 120:2.868449 121:2.0752821 122:1.2400692 123:2.0235195 124:3.133779 125:1.8073837 126:1.5096371 127:1.3568327 128:1.2439351 129:0.91018742 130:0.95129842 131:0.88681728 132:1.3440173 133:1.7905391 134:1.9955764 135:1.1887223 136:2.1729631 137:2.0996709 138:0.93806452 139:1.0247741 140:1.6823772 141:0.58210379 142:0.68760282 143:1.8924791 144:1.6605974 145:2.1607988 146:0.48394457 147:1.7845581 148:2.0933225 149:0.81000692 150:1.5849091 151:1.9686576 152:2.5662048 153:1.9941368 154:1.6940292 155:2.1866977 156:0.50329149 157:1.3425016 158:2.4522643 159:1.7810146 160:1.0939175 161:3.137897 162:2.1402042 163:0.8594715 164:0.9377076 165:2.1692712 166:1.5888875 167:1.3087103 168:0.75564718 169:0.7042594 170:2.7248657 171:0.49080035 172:1.8054948 173:0.95123118 174:1.5528833 175:0.56681359 176:0.88228023 177:2.7300608 178:1.3773942 179:0.64423835 180:1.0980878 181:1.7389942 182:1.1021389 183:1.7376264 184:0.96246451 185:1.0076747 186:2.077987 187:1.2435763 188:0.55416828 189:1.7589554 190:3.2315617 191:0.55876189 192:0.63138783 193:1.7372416 194:0.52168775 195:1.4703777 196:0.58907926 197:1.3866343 198:1.144833 199:1.2444899 
1 0:0.31485909 1:0.42118219 2:0.98425794 3:-1.2616072 4:-0.95243508 5:0.22242557 6:-0.35260579 7:-0.54375184 8:-1.1322509 9:-0.89776707 10:-1.0102948 11:0.12211518 12:-0.40639889 13:1.122716 14:8.4578352 15:5.3446317 16:-0.56993502 17:-0.45145291 18:-0.92863017 19:0.67348939 20:0.036253288 21:-0.13409787 22:0.46788269 23:0.38655561 24:0.55623549 25:0.10166609 26:-1.050157 27:0.5486626 28:-0.1635053 29:-1.3294464 30:0.87880129 31:1.1261892 32:-0.12765269 33:-1.1298776 34:0.62781584 35:-0.00081386365 36:0.70154428 37:0.38466358 38:-0.31781861 39:-1.2531242 40:1.2992183 41:-0.35555193 42:0.088998884 43:0.58264464 44:-1.6720561 45:0.081642322 46:0.72230864 47:1.7400935 48:0.60913479 49:-0.7727744 50:0.0010124553 51:-0.28809294 52:0.67246002 53:0.22776248 54:0.36617616 55:0.9528175 56:-0.35783267 57:0.62077665 58:-0.29815367 59:0.43681645 60:0.46283484 61:-1.0302429 62:1.6508805 63:-0.63538325 64:-0.041240297 65:-0.50553316 66:0.58646226 67:0.41745272 68:-0.33054343 69:1.1611496 70:-0.080948643 71:-0.60552722 72:0.16459081 73:-0.48366308 74:0.69112843 75:1.5968671 76:0.2331277 77:-0.8363148 78:-0.0085291425 79:0.43766889 80:0.078782931 81:1.2605398 82:0.45776135 83:0.70373559 84:1.8135229 85:0.32222021 86:-1.0080019 87:0.06007506 88:0.005901617 89:0.57870668 90:0.43947962 91:-1.2578948 92:-0.45910013 93:0.52002263 94:-0.10002174 95:0.84230465 96:2.3056695 97:1.0394012 98:-1.1657305 99:-1.144449 100:0.36967015 101:0.42203519 102:0.43651211 103:0.54330742 104:0.49935538 105:0.91659641 106:0.74840099 107:-1.0122575 108:-0.53890312 109:0.058370166 110:0.86596334 111:1.6688545 112:-1.0789281 113:-0.48467594 114:-0.21584725 115:0.59617817 116:-0.3857199 117:-0.16297637 118:0.50782478 119:-0.23578188 120:0.27148923 121:1.5241635 122:0.33798328 123:0.58257151 124:0.72591609 125:0.086731032 126:-0.36018208 127:-1.2985352 128:1.1147326 129:0.44693467 130:-0.13013284 131:0.3499749 132:0.35354182 133:0.7139861 134:-0.73900175 135:-0.24017949 136:-1.8351119 137:-0.17495878 138:0.56934512 139:0.33481503 140:0.57245749 141:0.45192593 142:0.68768978 143:-0.48334295 144:-0.5734058 145:0.73767018 146:0.42014849 147:0.30125904 148:2.1498604 149:-0.25820073 150:0.11566717 151:0.43373552 152:1.0432401 153:-0.60128903 154:-0.10221185 155:-0.18869653 156:0.39580563 157:0.21096572 158:-0.87608778 159:0.34726891 160:-0.11734497 161:0.62354565 162:-1.4395181 163:-0.93835044 164:0.19093253 165:0.56844723 166:0.95509487 167:0.35686469 168:0.13257958 169:0.37259135 170:0.9581936 171:0.31721199 172:1.315599 173:0.42878953 174:0.90803915 175:0.5848605 176:0.65620905 177:0.49651366 178:0.44181871 179:0.48145154 180:0.61109418 181:-2.0110533 182:0.24451961 183:0.1989142 184:-0.41449839 185:0.76924831 186:-1.3208007 187:0.65453267 188:0.20674245 189:-0.59977233 190:-0.12731074 191:0.40080583 192:0.90076393 193:-0.19937851 194:0.38672945 195:-1.6322446 196:0.471062 197:-0.17625055 198:-0.95123923 199:0.34321538 
1 0:0.12678263 1:0.47276324 2:-1.3505827 3:0.26505625 4:-0.41100717 5:0.052265357 6:-0.73630399 7:-0.29254612 8:0.41731572 9:0.79096437 10:0.86471617 11:0.67799652 12:-0.55464774 13:-0.93140125 14:-0.16997497 15:0.47907355 16:-0.87635499 17:-0.21856582 18:-0.25939199 19:0.94549066 20:-0.022700313 21:-0.83159208 22:2.3271437 23:0.60759926 24:0.69285429 25:-1.0571581 26:1.447369 27:0.35114864 28:-0.2553876 29:0.25149298 30:0.37053233 31:-0.28228316 32:-0.93359554 33:0.11330793 34:0.06420444 35:-0.86878854 36:0.71427035 37:0.43598527 38:0.40346172 39:-0.35245448 40:0.041496377 41:-1.3634114 42:-1.6826754 43:-0.51292217 44:0.27307591 45:0.6097008 46:0.30143532 47:-0.28807485 48:0.16400079 49:-0.5434252 50:-1.5699184 51:0.57686776 52:0.28832987 53:-0.19121309 54:0.49541581 55:-0.13531238 56:-1.1355236 57:-0.52323264 58:0.29639396 59:0.75360936 60:0.15422052 61:0.89091569 62:0.37476301 63:0.091523908 64:0.59319985 65:-0.62604702 66:0.28423783 67:1.7949431 68:-1.4256965 69:-1.2997106 70:-1.580307 71:-0.055280313 72:-0.7264595 73:0.064318255 74:-0.47641513 75:0.42246503 76:0.16505767 77:0.54500866 78:0.74477625 79:0.48191744 80:0.2692911 81:0.4105154 82:0.15665126 83:-0.58214241 84:-0.51842988 85:-1.3804855 86:0.13363174 87:-1.6615504 88:0.34370643 89:0.012907299 90:0.60755295 91:-0.082761489 92:0.43802807 93:0.29730454 94:0.43296361 95:0.72663862 96:-0.53206015 97:-0.56027222 98:-0.0066838921 99:0.5939368 100:0.34730181 101:0.68416375 102:0.46268919 103:0.39950216 104:-0.43913299 105:0.017798709 106:0.2607412 107:-0.40681434 108:-1.3389293 109:1.1793416 110:-0.6801728 111:-0.44432464 112:1.4798423 113:-1.3617491 114:-0.67418873 115:0.52185738 116:-0.63507193 117:1.1304264 118:-0.22770281 119:0.18328297 120:-1.22578 121:-1.2309159 122:-0.50061941 123:0.46114624 124:1.1359453 125:-0.11097199 126:-1.085482 127:0.80916846 128:-0.063670129 129:0.43338895 130:0.56677485 131:0.46717384 132:-0.55254781 133:0.033474457 134:-0.054949407 135:0.50635672 136:0.95132148 137:-0.059217378 138:0.63349253 139:0.61155874 140:-1.3915907 141:0.31763771 142:0.44740015 143:-0.77335918 144:0.6571207 145:-0.96622634 146:0.45075768 147:0.48601454 148:-1.1815431 149:-0.55586201 150:0.87448806 151:0.43184757 152:-1.2406425 153:0.071610115 154:-1.6948422 155:-0.31660065 156:0.4306134 157:-0.50605547 158:0.73498964 159:-0.89922315 160:0.7653293 161:-0.75521666 162:0.95572114 163:1.9101554 164:0.66668582 165:-0.38285488 166:0.2333443 167:-0.56749547 168:0.53303254 169:0.77031451 170:-0.67224568 171:0.42020082 172:0.59843349 173:0.38507876 174:-0.82986867 175:0.63215148 176:0.48828569 177:-1.1352252 178:-0.15445225 179:0.51554704 180:-0.67546272 181:0.72653282 182:0.43338412 183:-0.89655197 184:0.28995681 185:-1.2350339 186:-0.1416754 187:0.70693445 188:0.35727116 189:0.26057851 190:-0.24880281 191:0.48705664 192:0.18752649 193:0.62246448 194:0.28251678 195:-0.21926455 196:0.45772406 197:-1.0970879 198:0.35128009 199:-0.084221907 
0.9635238761710937 0:-0.27189726 1:0.25728786 2:-0.16542049 3:0.20201883 4:-0.12330215 5:-0.70014584 6:-0.83041829 7:0.50721079 8:-0.92245966 9:-0.9949438 10:-0.92440677 11:0.05897015 12:0.60059214 13:0.91019607 14:0.74847698 15:-0.52587199 16:1.4349889 17:0.92815882 18:-0.01799096 19:-0.62376887 20:0.89338309 21:1.6306874 22:0.35758659 23:0.20444642 24:-0.27371171 25:-0.39942354 26:3.6261005 27:2.6601117 28:-0.35864943 29:0.23315822 30:-0.39188027 31:0.3731766 32:-0.7447632 33:-0.6634475 34:-0.26217586 35:2.9866154 36:-0.40368044 37:0.074786469 38:0.077539913 39:0.48637632 40:-0.13618071 41:0.74562711 42:0.28191149 43:1.5609401 44:-0.84348285 45:0.0049696178 46:0.2431785 47:-1.294582 48:1.3104964 49:-0.8746199 50:0.98440993 51:0.44022286 52:0.48272642 53:-0.85612071 54:0.73153502 55:-0.27427837 56:0.6990276 57:-0.29033026 58:-0.76214772 59:-1.3438288 60:0.34016383 61:-0.69988126 62:0.3601751 63:-1.1107962 64:-0.09025389 65:-0.17371954 66:0.50541383 67:-0.78431541 68:1.1602067 69:-0.15662223 70:0.64371109 71:-0.72184962 72:0.5660795 73:0.93924654 74:-0.55280823 75:0.34493762 76:0.16540068 77:-0.83055347 78:-0.14142086 79:0.51673162 80:-0.026454033 81:-0.16861051 82:0.21759255 83:-0.038813069 84:-0.44380257 85:0.29125166 86:-1.5432413 87:0.60783982 88:0.36455098 89:1.0602516 90:-0.20004882 91:0.53885299 92:0.23769048 93:-0.31832793 94:-0.77870739 95:0.092209876 96:0.32405704 97:-1.4761938 98:0.04689347 99:-1.019787 100:-0.50409234 101:0.75229502 102:0.35636482 103:0.49451879 104:-0.14828722 105:-0.47482893 106:2.3382864 107:-0.57445705 108:0.17419043 109:-0.96780181 110:-0.11984645 111:0.34070557 112:-1.4500482 113:1.6513269 114:-0.87213951 115:-0.39886996 116:-0.048629329 117:-0.16157493 118:0.61025214 119:0.065359123 120:-0.32941437 121:0.44358939 122:-0.13910645 123:0.99391633 124:-0.27822444 125:1.1768645 126:-0.8472833 127:0.3598839 128:1.8011874 129:0.43369466 130:-0.7325179 131:-0.065722309 132:-1.4198843 133:-1.4158666 134:-0.13244331 135:-1.6246011 136:-1.0239769 137:0.72401941 138:-0.39682949 139:-0.10329707 140:0.41516754 141:0.30063182 142:-0.00056022819 143:2.5873525 144:-1.1743692 145:0.10297004 146:0.30088878 147:-0.89329892 148:0.99478036 149:-1.0170863 150:-1.3750604 151:-0.96541691 152:0.52672625 153:0.3820098 154:-0.98428023 155:-1.497808 156:0.23639043 157:-0.20959596 158:-1.3178383 159:0.73285872 160:-0.71130508 161:3.0775442 162:-1.5914129 163:-1.3257076 164:-0.82736689 165:-0.95407265 166:-0.99511659 167:0.052554809 168:0.4188638 169:-0.26782015 170:0.98193169 171:0.12665159 172:-0.59412599 173:-0.037114341 174:-0.27479517 175:0.20696153 176:-0.016760673 177:0.64716524 178:-0.51425606 179:-0.062836304 180:-0.68165004 181:-1.0688974 182:0.060840122 183:-0.58747214 184:0.0087283636 185:0.40101865 186:0.32416332 187:-0.89144433 188:-0.057423588 189:-1.03397 190:-0.81002766 191:0.14907771 192:0.54013997 193:0.37723953 194:0.33024287 195:0.88613993 196:0.11129943 197:0.65553606 198:-1.137506 199:-1.1163919 
0.4037151112247089 0:-0.28596684 1:0.31488338 2:-0.46310085 3:-0.99532366 4:0.99102187 5:0.28714126 6:-1.1380125 7:0.96046358 8:0.83915704 9:-0.48637864 10:-0.39921308 11:0.25774378 12:0.36917704 13:0.016187385 14:0.74929744 15:-0.0035891829 16:-0.20411597 17:-1.3061693 18:0.40381104 19:1.7528139 20:1.7142911 21:0.77725083 22:-0.19779983 23:0.057354741 24:-0.39077389 25:0.28254658 26:0.11302304 27:1.0107534 28:8.5097857 29:7.2827177 30:-0.61280173 31:1.1746465 32:1.465003 33:1.0727684 34:-0.21062587 35:1.0294956 36:-0.88465488 37:0.14109313 38:1.3597571 39:1.029815 40:-0.44496858 41:0.5714342 42:0.021624044 43:0.079904541 44:-0.58131617 45:0.41279069 46:-0.65004861 47:-0.97021675 48:0.10693168 49:0.11462019 50:0.052584618 51:-0.48463592 52:0.23542957 53:-0.49822983 54:-0.21847135 55:0.22343959 56:0.27321768 57:-1.4664065 58:-0.76427537 59:-0.81290603 60:0.57628053 61:-0.058941018 62:-0.58913845 63:-0.8712852 64:-0.12817523 65:-0.23134506 66:0.095655158 67:-0.58573616 68:-0.42576176 69:0.83490431 70:1.1366299 71:-0.47188139 72:1.7295464 73:-0.27429551 74:-0.57526439 75:0.20035753 76:-0.76110166 77:-0.17121819 78:0.023220351 79:-0.44618142 80:0.043461315 81:-0.43085465 82:0.4847863 83:-0.19821687 84:-1.0896924 85:1.2299327 86:0.48072174 87:0.04883004 88:-0.20944522 89:-0.10478529 90:-0.082435124 91:0.12060279 92:0.64456958 93:-0.075221486 94:-1.21855 95:0.24866064 96:2.5181994 97:-1.1427007 98:-0.40480447 99:-0.052722301 100:-0.99944937 101:0.15003835 102:0.41735387 103:0.63872284 104:-0.15651399 105:1.481932 106:0.40092084 107:-0.22722352 108:0.7951436 109:0.096631289 110:0.91385454 111:-0.15070988 112:0.23244892 113:0.057426281 114:-0.76021129 115:-0.50176102 116:-0.0020415678 117:0.086504288 118:-0.53901184 119:0.00043729489 120:-0.93796641 121:0.51516747 122:-0.38466299 123:2.0514181 124:0.48749337 125:0.12966591 126:0.38615176 127:1.1279392 128:-0.61975956 129:-0.070279576 130:-0.68844748 131:0.043987047 132:-0.40394229 133:1.7394316 134:0.092186078 135:0.15760837 136:-0.25881764 137:0.036239896 138:-0.65254867 139:-0.60008532 140:-0.64969015 141:0.014626196 142:0.16540255 143:1.1232848 144:-0.50862646 145:-0.84053183 146:0.33385688 147:0.20242144 148:-0.48982596 149:-0.99242365 150:-1.396546 151:1.2571896 152:-1.3166802 153:-0.13459194 154:0.064754769 155:-0.83903593 156:0.19249071 157:-1.1007787 158:-1.168491 159:-0.49377042 160:-0.22970395 161:0.72787803 162:0.3668752 163:-0.69054025 164:-0.090643615 165:0.29368404 166:-1.2120363 167:0.27890426 168:-0.0366746 169:-0.32326552 170:0.58191586 171:0.1784005 172:-0.8035202 173:-0.11222541 174:-0.79373348 175:0.27889007 176:0.010141493 177:-0.10632765 178:-0.47984374 179:-0.15421578 180:-0.8652308 181:0.5050087 182:-0.45892882 183:0.021254789 184:0.33207327 185:-0.6770035 186:0.19067401 187:-0.66863769 188:0.026625257 189:-0.1306586 190:1.0535425 191:0.30926052 192:0.38174707 193:-0.21746711 194:0.21586242 195:0.44365317 196:0.33435789 197:-0.21938382 198:-1.0951627 199:-1.476846 
1 0:1.3654966 1:0.46849138 2:0.75908351 3:-0.04410978 4:-0.085035354 5:0.79292244 6:-0.16455139 7:-0.73176324 8:0.34375525 9:0.51925647 10:0.86736274 11:0.40802106 12:-0.49275631 13:1.2322785 14:-0.39004922 15:1.1651697 16:0.39635167 17:-0.86235476 18:0.74654078 19:-0.37714973 20:-0.050866973 21:-0.025518114 22:0.37696886 23:0.40929896 24:-0.25512132 25:-0.32748246 26:0.043314103 27:1.1011369 28:0.79337656 29:0.16601038 30:1.9228181 31:3.9093397 32:1.9796191 33:0.68710399 34:0.28808355 35:-1.0235438 36:0.15431324 37:0.49792749 38:-0.50223446 39:0.68459696 40:0.032318708 41:-0.25894582 42:-0.32339206 43:-0.64298403 44:0.24147765 45:0.44672859 46:-0.30564952 47:0.090183511 48:-0.051518351 49:-0.12048805 50:-0.70941234 51:0.45584387 52:0.58803123 53:0.42368785 54:0.043494105 55:0.015584438 56:-0.89746004 57:-0.16837777 58:1.0951171 59:-0.21225321 60:0.13858338 61:0.5988915 62:0.16184245 63:0.89759773 64:0.36294696 65:-0.68853015 66:0.43818146 67:-0.25152963 68:0.5769878 69:1.4029925 70:-0.62757057 71:0.40539742 72:-1.5420307 73:0.0013494652 74:0.13466288 75:-0.38686681 76:1.0262917 77:0.78962797 78:0.2662051 79:0.60709739 80:0.50322145 81:-0.14266805 82:0.18681528 83:-0.34961879 84:0.65793782 85:-1.0132319 86:-0.26792127 87:-0.76473182 88:2.5462956 89:-0.41742098 90:0.42239055 91:-0.015970355 92:1.6399831 93:0.49069142 94:0.3826758 95:-0.3380346 96:-0.27895987 97:0.45444265 98:0.25107902 99:0.64170355 100:-0.0025804031 101:-0.22979233 102:0.47835264 103:0.3983478 104:0.8388871 105:0.8698777 106:-0.38725778 107:0.11098997 108:0.43774116 109:-0.050902747 110:-0.37876397 111:-1.0470724 112:0.67606479 113:-0.18553112 114:-1.1970453 115:0.21457995 116:-0.34571835 117:-0.49393666 118:-1.0033009 119:0.36834335 120:-0.27070448 121:1.3790584 122:0.52874684 123:2.2555418 124:1.1537173 125:-0.0090457322 126:-0.75421828 127:0.20113814 128:-1.0217699 129:0.15899608 130:0.05924733 131:0.22274511 132:0.93444026 133:0.40738073 134:0.1621764 135:0.59273577 136:0.29140985 137:0.25954044 138:-0.070955396 139:0.64259392 140:0.68431914 141:0.43658489 142:0.20480204 143:-0.11462694 144:0.61614871 145:0.7327472 146:0.47263497 147:-0.13868064 148:0.086118169 149:-0.016495703 150:-0.77350438 151:0.51378393 152:-0.31995094 153:-0.6309725 154:0.79073143 155:1.4881452 156:0.46284673 157:-0.27682334 158:-0.069013156 159:1.0374478 160:-0.36870596 161:-0.036127966 162:0.74576795 163:0.72008878 164:-0.18640181 165:-1.1120714 166:0.46597067 167:-1.0648146 168:0.28579372 169:0.27473545 170:-0.085164793 171:0.45946598 172:-0.22703485 173:0.30384475 174:1.3458819 175:0.35223442 176:-0.057979658 177:-0.46071103 178:-0.21407846 179:0.23694336 180:-0.14310141 181:-0.41150814 182:-0.072130404 183:-0.33881897 184:0.18799408 185:1.4148009 186:1.6902323 187:0.97044116 188:0.45643425 189:1.0242047 190:-0.46022868 191:0.48048151 192:-0.009479899 193:-0.89168292 194:0.34529415 195:-0.13851179 196:0.41159865 197:-1.0985695 198:-0.73581481 199:0.42842308 
0.6909268206105657 0:1.1212608 1:0.50318408 2:-1.5669854 3:0.58297163 4:0.82926095 5:0.88823366 6:-0.71589202 7:-0.77072132 8:-0.022492535 9:0.80701858 10:1.5823241 11:0.51782221 12:-0.62998581 13:-1.4146292 14:-1.3059864 15:0.23679842 16:-0.19195305 17:0.27675289 18:1.4778726 19:1.263549 20:-0.04467598 21:0.93006355 22:0.61390781 23:0.54090351 24:0.12777984 25:-0.71661425 26:1.3073698 27:0.03615427 28:-0.29860437 29:0.70747906 30:0.14169776 31:-1.0023414 32:-0.48498371 33:0.32184011 34:0.48483273 35:-0.49432898 36:4.3279781 37:0.59328139 38:-1.3618438 39:0.019012609 40:-1.1641155 41:-1.3136322 42:-0.57555109 43:1.19295 44:0.64011508 45:0.28277028 46:-0.02562982 47:-0.20945621 48:0.13005275 49:0.77049851 50:-1.0195092 51:-1.0555284 52:-0.39083427 53:0.60797065 54:0.34547579 55:0.82544112 56:-0.11385022 57:-0.85479957 58:0.66222531 59:0.59897113 60:0.42149937 61:-0.50028801 62:-0.60626596 63:1.5363425 64:0.95452625 65:-1.0203438 66:0.36162966 67:0.51322353 68:-0.96107125 69:-1.252777 70:-0.95488495 71:1.0780389 72:1.2960993 73:0.94251293 74:-1.2600012 75:0.072651833 76:0.93830508 77:0.88218015 78:0.12028008 79:0.42561015 80:1.0734546 81:0.42430985 82:0.43854246 83:-0.58376372 84:-0.98738962 85:-1.1337222 86:0.49804625 87:-0.067786418 88:0.97046989 89:-0.39202991 90:0.35229039 91:-0.12274149 92:1.6570703 93:0.79164582 94:-1.1854633 95:0.30175561 96:-1.264685 97:-0.88496435 98:1.0059625 99:2.3961701 100:0.52320051 101:0.21425222 102:0.47718444 103:0.50865477 104:0.44926226 105:-1.0866027 106:0.8096875 107:1.3660951 108:-0.69599122 109:0.83102775 110:1.5877166 111:-0.73382437 112:1.6823385 113:-0.62175912 114:-0.72380519 115:0.52421677 116:-0.86718321 117:-0.048315246 118:-0.42265442 119:0.75111741 120:-0.71763468 121:-0.31513867 122:-0.59553933 123:1.7744017 124:-0.055531349 125:1.1174625 126:-0.41039142 127:0.2176796 128:-0.46749696 129:0.35721675 130:0.20226376 131:0.38134846 132:-1.0019345 133:0.86009419 134:0.53131449 135:1.3446678 136:0.86426818 137:0.21728124 138:-0.6392203 139:0.19011968 140:0.014575208 141:0.49758223 142:0.33734429 143:0.96548009 144:0.18458395 145:-1.1926242 146:0.48927122 147:1.4970728 148:-0.53127283 149:-0.96288681 150:-0.11836489 151:0.56319124 152:-1.132596 153:0.30612266 154:-1.5876912 155:-0.75397694 156:0.52875847 157:0.13840124 158:0.28118125 159:-1.3449012 160:0.35482037 161:-0.99448901 162:1.1954875 163:1.4827644 164:0.85914093 165:-1.0426668 166:1.8935149 167:0.014227325 168:0.65329182 169:0.32264978 170:-1.1781095 171:0.51983047 172:0.74920744 173:0.67532176 174:-0.83782637 175:0.50437713 176:0.35428935 177:-1.0918142 178:-0.79460579 179:0.42773432 180:-0.96776503 181:-0.32654762 182:-0.13758044 183:-1.0036781 184:0.54705274 185:-1.2271901 186:0.87346727 187:0.2325653 188:0.57745337 189:2.233835 190:0.69318557 191:0.49897406 192:0.23616073 193:-0.25722489 194:0.37306678 195:1.583956 196:0.48770508 197:0.27139685 198:0.30376765 199:0.14328769 
0.6132923033426344 0:-1.2657639 1:-6.2508068 2:1.012921 3:-1.5004442 4:-3.3530455 5:-3.0367756 6:-0.42113179 7:0.40667215 8:1.123019 9:-2.1877577 10:-0.56548637 11:-6.9446716 12:1.219757 13:-1.072403 14:1.1568321 15:-0.71510124 16:-1.0160015 17:-4.5110168 18:-0.0049156938 19:2.105201 20:-4.8088326 21:-0.037759904 22:-0.54206723 23:-6.2725148 24:-5.8367019 25:0.2888878 26:-2.1403654 27:-2.0244319 28:-0.3173902 29:-0.35115725 30:-4.0891614 31:-2.068085 32:0.17324586 33:-2.8629777 34:-3.9204834 35:-0.99711806 36:-4.3666086 37:-6.4794612 38:1.1802161 39:-2.38872 40:4.5430837 41:3.5702808 42:-0.019338567 43:-1.028723 44:-1.5708737 45:-5.1965213 46:-5.7911291 47:-0.61014605 48:-5.1450405 49:-1.2337428 50:0.5686751 51:-0.14026453 52:-2.4314532 53:-1.1654181 54:-5.6869607 55:-0.58041459 56:0.21109101 57:-1.302699 58:-0.74863213 59:-1.3238907 60:-4.2995811 61:0.089909896 62:0.16331725 63:-1.5679921 64:-1.3429348 65:-1.0505654 66:-6.5302653 67:-0.80054682 68:-0.64368546 69:-0.55893099 70:0.29743788 71:-3.0022733 72:-0.72904754 73:-0.28476998 74:-0.053684518 75:0.40077549 76:-1.6308066 77:-1.149358 78:-6.7226706 79:-6.217381 80:-5.5698733 81:-1.5957181 82:-4.8773723 83:1.0573038 84:-0.1728909 85:0.95649314 86:-2.6971769 87:-0.48968187 88:-1.2908515 89:0.46191737 90:-6.0706468 91:-2.1367874 92:-1.6828394 93:0.18256709 94:1.1915703 95:-1.0570505 96:-0.21242943 97:-1.4551499 98:-3.5537388 99:-4.0919809 100:-5.967566 101:-3.5346332 102:-5.9548759 103:-5.3679037 104:-1.7511511 105:-0.58406842 106:-1.213861 107:-0.55955416 108:-2.127208 109:-1.2228696 110:-0.33501631 111:-0.30992508 112:-0.98890197 113:-0.24366927 114:-0.65686429 115:-6.5736117 116:0.51944715 117:-4.4950953 118:-3.8912034 119:-4.2956181 120:-0.055345532 121:0.21985538 122:0.56928629 123:-0.5693779 124:-4.7964311 125:-2.8357232 126:0.76428849 127:-0.70860493 128:-4.0198216 129:-6.0747504 130:-5.7747335 131:-5.5910244 132:0.24497554 133:-0.87136304 134:-4.196157 135:0.3034924 136:-3.8980341 137:1.2135682 138:-4.4075346 139:-6.6042151 140:-0.8528651 141:-6.3013601 142:-5.8642178 143:-0.72035849 144:-0.28400046 145:-2.2014196 146:-6.02353 147:-1.7819078 148:-1.2693878 149:-0.81201994 150:-2.2693591 151:-0.068265386 152:-0.74156219 153:-0.29975984 154:0.21873531 155:-1.8622926 156:-6.4495063 157:-2.5101025 158:-1.434497 159:1.0392312 160:-3.7191412 161:-0.7686249 162:-1.6009395 163:-1.6677932 164:-4.731184 165:-0.73211741 166:-0.85683548 167:-1.2851146 168:-7.1705298 169:-5.8271441 170:-0.25419089 171:-6.4892974 172:-0.5189442 173:-5.6962495 174:-0.031080244 175:-5.7813725 176:-5.9970555 177:-0.27890855 178:-0.85280985 179:-6.5070524 180:0.092441149 181:-0.97454071 182:-4.1736007 183:-0.5085094 184:-5.8304901 185:-1.429525 186:-1.7251776 187:0.71342111 188:-6.750226 189:0.40332249 190:-0.80208176 191:-6.1900744 192:-5.2302513 193:-0.3315042 194:-6.0829458 195:-1.0517172 196:-5.8997989 197:-1.9901364 198:-2.3898396 199:-4.2359056 
0.07639123476875301 0:-0.13615784 1:-0.032850556 2:-0.88500065 3:-0.32115644 4:0.66516387 5:1.1641049 6:-0.20588291 7:2.3064225 8:0.4694041 9:-0.25572112 10:0.49015805 11:0.26608437 12:0.6106528 13:0.63366663 14:1.0369145 15:-0.92548478 16:1.2210226 17:0.095690273 18:0.93409455 19:0.57343554 20:0.4580023 21:1.315129 22:1.004977 23:0.11566615 24:-0.48996139 25:-0.67636198 26:0.75856823 27:0.65110779 28:0.4735249 29:1.0032778 30:0.019685887 31:-1.1803383 32:-0.96344972 33:1.1870439 34:0.36513382 35:0.89884251 36:-0.46658382 37:0.33814925 38:0.14723897 39:0.9087562 40:-0.2652829 41:1.1082168 42:5.7367959 43:4.672019 44:1.0338192 45:-0.25612569 46:-0.59207451 47:-0.52348745 48:-0.4944475 49:1.3368212 50:0.31423116 51:-0.47585523 52:0.98190713 53:-0.058986802 54:0.3132076 55:-0.79673493 56:2.2784584 57:-0.75910282 58:1.4781365 59:0.84533757 60:-0.62591368 61:-0.93274295 62:-0.27533048 63:0.38370335 64:1.5888231 65:-0.11254511 66:-0.33111173 67:0.60415256 68:0.23073708 69:-0.51800865 70:0.52392834 71:1.4424512 72:2.2418058 73:2.3606741 74:0.06732402 75:-0.24587442 76:0.82170027 77:-0.11610232 78:0.083556853 79:0.72822452 80:-0.41450652 81:0.62137884 82:-0.42546651 83:-0.6293025 84:-0.81604844 85:-0.53931594 86:0.88450253 87:0.037106752 88:0.48150158 89:0.56998122 90:0.68691349 91:0.8810854 92:0.93053746 93:-0.88774669 94:-0.83689195 95:0.95707148 96:0.46743295 97:-0.060902379 98:0.66380531 99:1.0034657 100:0.28513089 101:-0.59994411 102:-0.0033195948 103:-0.37068444 104:-1.1796626 105:-0.78202814 106:-0.012775006 107:-0.3820042 108:-0.62600219 109:0.45073125 110:-0.67783648 111:0.09548565 112:1.4655247 113:0.6606648 114:-0.59144342 115:0.040583182 116:1.2664018 117:-0.041940436 118:0.23986135 119:-0.51433873 120:-0.45749673 121:1.1276956 122:1.114735 123:-0.6221447 124:0.76771861 125:-0.49916196 126:-0.36701876 127:0.72059482 128:-1.0584123 129:-0.28815997 130:-0.067784853 131:0.15876865 132:-0.90763396 133:1.2457088 134:0.59919548 135:0.34393623 136:1.4312097 137:0.090944014 138:-0.9249925 139:0.143585 140:0.1300844 141:-0.20548159 142:-0.33223462 143:0.46169442 144:0.020587025 145:-1.4684319 146:0.059315979 147:0.2881166 148:-0.29387504 149:0.86709303 150:-0.42924026 151:-0.62303966 152:0.18105167 153:-0.0099719437 154:-0.37453309 155:0.26989633 156:0.099580668 157:-0.3467527 158:1.8766025 159:-0.7562142 160:0.012750498 161:0.5045408 162:0.56868595 163:0.90397012 164:-0.48091966 165:-0.86664706 166:0.19885384 167:-0.9417206 168:0.38430664 169:-0.19527607 170:0.97653979 171:0.18070477 172:0.2182997 173:0.31211987 174:0.60164934 175:-0.10680599 176:-0.37208891 177:0.35198101 178:-0.54539365 179:-0.21161658 180:0.14326538 181:-0.27766189 182:-1.0410155 183:0.16686423 184:-0.30292222 185:-0.67438012 186:0.52830452 187:1.0332365 188:0.14868765 189:1.00024 190:1.3868654 191:0.11350702 192:-0.63552064 193:-0.40253198 194:-0.20213453 195:-0.2062273 196:0.1003279 197:0.054280423 198:2.1718545 199:1.2713132 
1 0:-0.12414797 1:0.2604644 2:-0.45675027 3:0.055636346 4:0.081436954 5:0.67917228 6:-0.226757 7:1.1350029 8:0.3580682 9:0.62789881 10:1.2624222 11:0.22663361 12:0.48854554 13:-1.617015 14:0.047584441 15:0.5836072 16:0.43293655 17:0.010488726 18:-1.0615498 19:-0.51341474 20:-0.40217835 21:-0.99683017 22:0.09209016 23:0.26632276 24:-0.10150459 25:2.9362676 26:1.0098809 27:0.40029109 28:0.98065943 29:-0.48771593 30:0.36111414 31:0.21300761 32:-0.59609181 33:0.022771705 34:0.12456316 35:-1.1214125 36:0.41416031 37:0.30398095 38:-1.4974955 39:0.75219738 40:-0.95254493 41:-0.51983225 42:-1.1645052 43:-1.1179473 44:3.3639987 45:1.2605938 46:0.28564748 47:-0.095247567 48:0.30210087 49:-0.41792026 50:-0.6028713 51:-0.67078608 52:-0.1966119 53:-0.098522127 54:0.071300305 55:0.17501566 56:-0.91655368 57:0.32016763 58:0.69001788 59:1.1171321 60:-0.47932824 61:-1.2553527 62:-1.1003754 63:1.4848874 64:0.1118921 65:-0.75429672 66:0.037920121 67:1.1019924 68:-0.54901147 69:1.203297 70:-0.83809215 71:0.32868537 72:-0.36460596 73:-1.164048 74:-0.9807452 75:0.91748029 76:-0.10457248 77:0.56860447 78:0.23366018 79:0.32607576 80:0.44136754 81:0.28613877 82:-0.33313468 83:1.9227535 84:2.020962 85:-0.70794171 86:-0.56771499 87:-1.8825208 88:-0.66280204 89:-1.3295286 90:0.20396774 91:-0.66846442 92:0.47815916 93:-1.5269145 94:-0.84420276 95:-0.56426418 96:-0.083965153 97:0.19989096 98:0.70154309 99:0.57176751 100:0.7838943 101:0.18015169 102:0.073936425 103:-0.14856972 104:1.1646795 105:-0.73543078 106:-0.88531363 107:2.071744 108:1.4341284 109:0.53131676 110:-0.60870564 111:-0.19939935 112:0.63195294 113:-1.6726731 114:-0.88406688 115:0.6636036 116:-0.43981236 117:0.58115023 118:0.13107386 119:0.29205185 120:1.1431081 121:0.085740834 122:0.60580498 123:-0.83560818 124:0.30503124 125:-0.22770076 126:-0.88767534 127:-0.93843627 128:1.0235788 129:0.13829274 130:0.50398022 131:-0.0053305109 132:2.0081902 133:0.55425334 134:1.4171085 135:0.2879689 136:0.75412691 137:-0.18448894 138:0.23101304 139:0.12985478 140:-1.2082094 141:-0.033221688 142:-0.37368187 143:-1.3574221 144:-0.20053096 145:0.70083731 146:0.1432772 147:0.60583133 148:0.2396283 149:0.34039855 150:-0.069812737 151:-1.0597445 152:-0.51614225 153:-1.0755736 154:-0.82109642 155:-0.54325467 156:0.26505396 157:0.20756635 158:-0.25781965 159:-0.41573149 160:0.87019539 161:-1.3761256 162:0.15240151 163:1.514709 164:0.70661956 165:-0.48183072 166:0.83586854 167:-0.62587398 168:0.33528727 169:0.063648969 170:-0.60439062 171:0.30797639 172:0.65453345 173:0.080814354 174:0.68567002 175:0.090573713 176:0.54644346 177:-0.4700056 178:-0.24358231 179:0.52474695 180:0.47665778 181:0.82836121 182:0.66190618 183:0.17958114 184:0.5402264 185:-0.40147537 186:-0.94092119 187:-0.35013053 188:0.4403381 189:-0.50260448 190:-0.69772249 191:0.10427508 192:-0.10659529 193:0.16124223 194:-0.058238681 195:-0.65658927 196:0.095174611 197:0.8315177 198:0.69026554 199:0.25617024 
1 0:-0.96239507 1:0.4936446 2:0.6476984 3:1.2404525 4:-0.017782221 5:0.47719267 6:0.93066174 7:0.3707889 8:0.04238344 9:0.54589832 10:0.63046539 11:0.28831378 12:-0.65259349 13:-0.51041389 14:0.46605697 15:0.58716768 16:-0.28043604 17:0.95550424 18:0.42404279 19:0.53232843 20:-0.050016303 21:-0.50005937 22:0.94111049 23:0.47279081 24:0.53421867 25:-0.19558415 26:0.34825653 27:0.47403786 28:0.62242621 29:0.73048431 30:0.40864834 31:0.7907449 32:0.19606008 33:0.60269749 34:0.43464079 35:1.2857679 36:1.6763082 37:0.50364834 38:-0.64297587 39:0.032517161 40:0.65824676 41:0.44120038 42:-0.68568206 43:-0.39942041 44:0.44813022 45:0.7382372 46:1.9145237 47:4.4185629 48:0.20431466 49:0.70537418 50:0.36957711 51:-0.48570043 52:-1.0097107 53:-0.68610519 54:0.23299162 55:0.69008672 56:0.57124275 57:0.5235917 58:1.5588806 59:1.815412 60:0.21980679 61:-0.39569482 62:-0.099866584 63:0.39211631 64:0.62056518 65:0.51972413 66:0.45255098 67:-0.21843429 68:0.67804092 69:-0.664801 70:-0.40299344 71:0.2947481 72:-0.42803332 73:-0.43470716 74:-0.61120421 75:0.37889096 76:0.85440093 77:0.13363114 78:1.0166067 79:0.2236928 80:0.4895092 81:0.45961156 82:0.22898462 83:-0.24807912 84:-0.55312252 85:-0.19029583 86:0.41801983 87:-0.36099723 88:0.089535631 89:-0.21196233 90:0.18690619 91:0.69729859 92:1.4115219 93:-1.1059698 94:-0.17298788 95:0.11715672 96:-0.4115493 97:1.2022396 98:0.17245749 99:0.36411768 100:0.73558301 101:-0.20799232 102:0.48555645 103:0.39144245 104:2.0964324 105:2.3111513 106:0.48826072 107:-0.30190191 108:1.1474971 109:-0.021631582 110:0.17652006 111:0.69373202 112:0.6085152 113:-0.18328466 114:1.3880475 115:0.39132658 116:0.65586615 117:0.75331283 118:0.89269006 119:0.68720186 120:0.92187452 121:-0.3052623 122:-0.80316913 123:-0.35448521 124:-0.14519429 125:1.0554767 126:0.78795421 127:-0.31775096 128:0.68946457 129:0.17232041 130:0.44564334 131:0.19421242 132:0.30131632 133:0.59445751 134:-0.49858332 135:-0.13417235 136:0.79270113 137:0.14619313 138:0.40216863 139:0.36918119 140:-1.2125347 141:0.49065948 142:0.18290484 143:0.22342196 144:-0.15998319 145:1.6505531 146:0.48717859 147:0.18180886 148:0.36658669 149:0.16651393 150:0.77416968 151:-0.94073355 152:0.61100352 153:-0.72277844 154:2.0152156 155:0.015184762 156:0.48153782 157:1.1416671 158:1.2305341 159:-0.77844584 160:0.58482379 161:-0.1680368 162:-0.3044984 163:0.16524972 164:0.64236933 165:-0.20630786 166:1.0016885 167:0.14851291 168:0.41481704 169:0.32055625 170:1.3355165 171:0.49061525 172:-0.16726016 173:0.4651829 174:0.65727848 175:0.37490776 176:0.21672124 177:1.407352 178:0.42459124 179:0.41623437 180:0.97640163 181:0.78158706 182:1.247895 183:1.6041844 184:0.26923281 185:0.89735925 186:0.35928026 187:-0.11648057 188:0.46123853 189:1.085722 190:-0.50438118 191:0.44836083 192:0.16090319 193:-0.20290351 194:0.48366344 195:0.53836864 196:0.44526619 197:0.74531966 198:0.57206142 199:0.89784747 
0.1205109835200751 0:0.73877889 1:0.48956192 2:1.7657388 3:0.34002069 4:0.79286802 5:1.3746893 6:2.5456874 7:1.7664561 8:-0.02028155 9:1.1319051 10:-0.13340978 11:0.66535288 12:1.7690768 13:1.7316083 14:0.78878188 15:2.1376009 16:0.8416239 17:1.6425664 18:1.5550865 19:2.3082113 20:1.3753302 21:1.7540658 22:0.85633636 23:0.43888336 24:0.65429574 25:0.098525152 26:0.13013768 27:-0.20979184 28:-0.23193134 29:0.18138295 30:0.48834297 31:1.1570404 32:0.52738291 33:1.328464 34:0.90259063 35:-0.17641582 36:0.012750356 37:0.47755381 38:2.533237 39:1.1184996 40:2.0552571 41:1.3530538 42:0.98292309 43:2.2016077 44:1.0226866 45:0.80346709 46:0.56776989 47:0.11337098 48:5.5109453 49:2.6887565 50:1.2974311 51:0.92009848 52:2.3255095 53:0.19792372 54:0.51017791 55:0.60540873 56:2.1984828 57:1.1903245 58:0.64271134 59:0.94493616 60:0.65894127 61:1.6743224 62:2.2086425 63:1.2153999 64:0.85867095 65:1.0879687 66:0.54204917 67:0.54344887 68:1.2304076 69:1.2395816 70:3.158226 71:1.2428504 72:1.4508207 73:1.1746819 74:0.14474156 75:1.7246647 76:1.3707567 77:1.3595684 78:0.60506123 79:0.36003456 80:0.89063996 81:0.136149 82:0.71080858 83:0.48143059 84:1.4861326 85:0.2689496 86:1.7778072 87:1.9708852 88:0.75433695 89:1.6347806 90:0.35828352 91:0.84349209 92:1.198853 93:1.6210842 94:1.2345393 95:1.2888206 96:0.91007137 97:0.47735789 98:1.4570518 99:0.66077071 100:0.84253454 101:1.2928996 102:0.49645951 103:0.5981828 104:0.77474898 105:0.48405138 106:0.76015306 107:1.8199704 108:0.64730555 109:0.88309795 110:1.3931123 111:1.1548306 112:-0.2373233 113:2.0322974 114:1.1810935 115:0.77260077 116:1.3631682 117:0.99500865 118:1.3046291 119:1.0483228 120:1.732197 121:1.3688642 122:0.97213089 123:0.78850663 124:1.3524075 125:2.2239962 126:2.7397511 127:1.5744126 128:1.24997 129:0.63932592 130:0.35855886 131:0.81433886 132:1.0254426 133:1.3516886 134:1.1836481 135:0.33877477 136:0.8152231 137:0.53944528 138:1.574044 139:0.52923161 140:0.49843395 141:0.46426648 142:0.57870609 143:1.0578403 144:0.99389315 145:0.77133846 146:0.48527622 147:0.9496696 148:-0.71792364 149:2.7717988 150:0.85252571 151:2.1101091 152:0.9204393 153:0.34210837 154:1.8164909 155:0.62199432 156:0.46780422 157:0.95253843 158:-0.34034884 159:2.4209509 160:0.37468079 161:0.31606287 162:1.2373334 163:0.23349728 164:0.46533936 165:0.83733165 166:-0.52688682 167:0.51647621 168:0.3099682 169:0.22655585 170:1.1855916 171:0.4493975 172:2.0090454 173:0.30904225 174:0.90330124 175:0.55363232 176:0.96286798 177:1.4279768 178:0.61678493 179:0.39660364 180:0.84910673 181:2.0045521 182:0.38082591 183:0.89049554 184:0.80559874 185:1.006609 186:1.0478513 187:1.388715 188:0.41374791 189:-0.011964692 190:0.56108111 191:0.48839459 192:0.40578869 193:-0.26499271 194:0.53386855 195:0.71692193 196:0.54691416 197:1.9242131 198:0.8156054 199:1.6875039 
0.6179687360589663 0:-0.7614044 1:-4.0052986 2:-1.5975603 3:0.13368338 4:-0.17379712 5:-2.5619218 6:-0.97317702 7:-1.0273356 8:0.46238583 9:-0.18091173 10:0.52802813 11:-3.5132148 12:-0.58709335 13:-0.98442525 14:-0.41365203 15:-1.0518844 16:0.5930559 17:-1.4427896 18:2.1244462 19:-0.60326922 20:-1.5417992 21:0.61590558 22:-0.66099864 23:-4.97998 24:-3.5475254 25:-1.4799483 26:0.4283202 27:-2.2083576 28:0.90153682 29:0.81284511 30:-4.1682649 31:-3.1614342 32:-1.185865 33:-1.0173271 34:-2.455127 35:-0.618496 36:-3.4509265 37:-3.6854644 38:-1.0327345 39:-0.41081211 40:-1.371749 41:-0.41090143 42:0.268134 43:-0.46894285 44:0.45187211 45:-2.0106838 46:-2.7758837 47:-1.4883831 48:-1.6721973 49:-0.94846189 50:6.3051672 51:8.4350071 52:-0.22624214 53:0.099527732 54:-4.7940845 55:-1.4568644 56:-0.39759696 57:-1.5971957 58:0.12825674 59:1.1870334 60:-4.6629562 61:-0.39658269 62:-1.7208015 63:-0.58662903 64:-0.1716695 65:-2.2745988 66:-4.5170107 67:-1.926681 68:-1.1510066 69:-0.33555946 70:0.88384825 71:-0.14867592 72:0.44736999 73:-0.0025242385 74:-1.1507318 75:0.14937878 76:-1.2381401 77:-0.38287643 78:-2.8112917 79:-4.4095345 80:-2.2541263 81:-2.0576656 82:-5.3125262 83:-0.19245094 84:-0.63893622 85:-2.5392141 86:-0.14691132 87:-1.0124099 88:0.40670004 89:0.9725911 90:-4.6582088 91:0.90141279 92:-2.3255136 93:0.070563525 94:-0.94838184 95:-0.10575452 96:-2.8119226 97:-0.75430834 98:-1.5378958 99:0.18013024 100:-2.5788608 101:-4.474566 102:-4.2478838 103:-4.1657872 104:-1.4158038 105:-1.6431595 106:-1.3721514 107:-0.16520225 108:-1.5488963 109:0.15490462 110:-1.3223071 111:-2.4943731 112:0.58350259 113:-0.40253088 114:-0.51025081 115:-3.6291668 116:0.25203815 117:-3.4397566 118:-2.5373611 119:-1.2376809 120:0.37278923 121:-1.9673772 122:-0.36559948 123:-0.75743234 124:-1.9606699 125:-0.87147397 126:0.26358891 127:-1.0256864 128:-3.855824 129:-3.5605402 130:-3.8654976 131:-4.2239547 132:-1.0566137 133:-0.50814617 134:-2.6510093 135:-0.22786863 136:-0.65001988 137:3.0007195 138:-3.4250782 139:-3.824167 140:-1.4300381 141:-4.7506261 142:-5.3023958 143:-0.98015296 144:-1.2712234 145:-2.1993155 146:-4.3145146 147:-1.1411568 148:-2.4700913 149:-0.045997426 150:-0.91322917 151:-1.6927652 152:-1.0080014 153:-0.56798673 154:-1.7380593 155:-0.4338491 156:-3.7363181 157:-0.53352195 158:-0.051902067 159:-2.0474153 160:-2.2887805 161:-0.34037194 162:-1.1424564 163:1.4736376 164:-2.5150127 165:-0.97152114 166:-0.14469253 167:-1.4712825 168:-3.3726161 169:-3.741307 170:-1.0572745 171:-4.1401539 172:-0.17492335 173:-3.9121678 174:-1.0712118 175:-4.2442718 176:-2.0469391 177:-0.063481614 178:-0.11182138 179:-4.3494782 180:1.2187009 181:-0.65924466 182:-5.1785507 183:-0.19192369 184:-2.7848752 185:-0.94532031 186:-0.26484904 187:-0.90083539 188:-3.8673866 189:0.15435493 190:-0.11883152 191:-3.3998108 192:-5.5496697 193:-1.0693367 194:-4.8236985 195:-0.5817064 196:-3.802134 197:0.20827885 198:0.078732193 199:-1.4836589 
0.1416642171940748 0:0.24545474 1:0.46212837 2:1.125868 3:0.25406554 4:0.57158762 5:0.78207123 6:1.6293863 7:0.046540387 8:-0.15704381 9:0.40859023 10:-0.058566101 11:0.46840116 12:0.40011233 13:1.8431447 14:0.0067751985 15:1.1365258 16:0.39144027 17:0.59944266 18:0.024079695 19:1.150757 20:1.0367473 21:1.1857654 22:2.2397709 23:0.26380473 24:0.2058541 25:0.31450722 26:-0.065879636 27:0.7902984 28:0.17080756 29:-0.013876343 30:0.23329438 31:0.3731766 32:1.2737641 33:0.83169395 34:0.18810092 35:0.88076198 36:-0.16532637 37:0.39314339 38:-0.09995123 39:0.45367935 40:0.082449548 41:0.60870218 42:2.1985033 43:0.83535802 44:1.0842263 45:0.34965017 46:0.38292772 47:0.58827662 48:0.49009782 49:1.627313 50:0.15232277 51:-0.52870989 52:2.3616474 53:1.7128738 54:0.32176465 55:1.2280494 56:0.98486269 57:0.5543353 58:0.58860177 59:-1.0694276 60:0.39805385 61:-0.26582006 62:1.0169554 63:1.5385782 64:0.17601994 65:0.95378548 66:0.381998 67:0.72250199 68:0.29688239 69:0.45733246 70:-0.098685496 71:0.55174518 72:0.66774303 73:1.5649704 74:0.24615446 75:-0.55721158 76:1.1209214 77:1.8577727 78:0.42098507 79:0.089601696 80:0.1944841 81:0.44030136 82:0.46350935 83:0.11187927 84:-0.50999594 85:1.4150645 86:0.51099873 87:0.28706098 88:0.22727679 89:0.5412938 90:0.67347717 91:1.1072735 92:0.80233926 93:0.0093277292 94:-0.47979599 95:0.59287077 96:1.1026914 97:0.58390254 98:0.43603408 99:0.038258851 100:0.57156295 101:0.064672388 102:0.45139673 103:0.53639162 104:1.2353632 105:1.0575579 106:-0.15155368 107:-0.00093232724 108:-0.61548215 109:0.065672152 110:0.50441378 111:-0.15644288 112:0.013829687 113:0.39466822 114:1.369192 115:0.11390707 116:0.25541309 117:0.73498309 118:0.59959722 119:0.96828842 120:0.065004729 121:1.0453517 122:0.18470998 123:-0.13999569 124:-0.064794652 125:0.41798243 126:2.1116376 127:0.49365231 128:1.0261554 129:0.30733478 130:-0.13654886 131:0.31069854 132:1.1402236 133:0.60141921 134:0.32949394 135:1.2336309 136:-0.34412512 137:1.1618835 138:0.95736933 139:0.48420444 140:0.73692501 141:0.26109877 142:0.40441713 143:1.400962 144:1.4031157 145:0.67884469 146:0.46435964 147:1.4897238 148:0.38843939 149:1.6243206 150:1.1602499 151:0.029826226 152:-1.03623 153:-0.081488319 154:0.85284162 155:0.5757494 156:0.39761445 157:1.0557975 158:-0.00910863 159:-0.056509729 160:0.44958213 161:2.6620417 162:-0.46616718 163:-0.49827135 164:-0.16268399 165:0.075847767 166:-1.1157684 167:0.37608817 168:0.21942627 169:0.23593411 170:0.95722032 171:0.40532023 172:-0.32668683 173:0.24691959 174:-0.12874472 175:0.50387859 176:0.99733919 177:0.10505617 178:0.032024942 179:0.27223375 180:1.5827172 181:0.55381608 182:0.33193082 183:0.30320472 184:0.77795422 185:-1.1146729 186:0.5189572 187:0.82846487 188:0.3698605 189:2.3605652 190:-0.16663887 191:0.46789509 192:0.42158511 193:0.38967958 194:0.3269996 195:1.3212945 196:0.59785062 197:-0.1303384 198:1.0217465 199:1.3479737 
0.6461875769442539 0:-0.82873017 1:0.48897442 2:0.69608712 3:0.44588304 4:0.03466484 5:-0.59638751 6:0.79339379 7:0.28907883 8:0.56223631 9:0.47713742 10:-0.37066314 11:0.061689314 12:0.25539738 13:-0.090398468 14:0.036574453 15:1.2282169 16:0.26964971 17:0.67431033 18:-0.41106543 19:-0.4661119 20:-0.014162096 21:0.30130365 22:1.7762517 23:0.32939041 24:0.12951542 25:-0.6821596 26:-0.063906372 27:0.70997369 28:0.47010559 29:0.052314792 30:-0.28213051 31:-0.047140148 32:1.1688312 33:-0.59402168 34:0.36157206 35:0.014778459 36:-0.84862584 37:0.37508574 38:-0.34224814 39:-0.16075115 40:-0.87483895 41:0.76071763 42:0.78879327 43:0.012083513 44:0.5932638 45:0.00016597936 46:0.94117367 47:0.11830105 48:0.27945167 49:-0.24811846 50:1.2068812 51:0.23001011 52:0.42869613 53:0.56568879 54:2.1846886 55:2.3858325 56:1.2191461 57:0.80705976 58:1.3768182 59:-0.48279485 60:0.17661607 61:1.7624007 62:0.40830463 63:0.3816357 64:1.2761658 65:0.53184259 66:0.40049851 67:0.64967495 68:-0.36274549 69:0.13009639 70:1.3086381 71:0.25636038 72:1.3567988 73:-0.19743812 74:-0.52141905 75:0.72058553 76:0.61470807 77:0.37752026 78:0.51359814 79:-0.26771715 80:0.39702183 81:0.53489202 82:0.21072197 83:0.17570323 84:1.6749054 85:-0.24135178 86:-0.30737117 87:-0.11661551 88:0.093006201 89:0.045698445 90:-0.084573559 91:0.90087777 92:-0.54633141 93:-1.1613506 94:0.33505154 95:0.33052447 96:-0.86909503 97:0.37897858 98:-0.50710154 99:-1.1958884 100:0.11253628 101:-0.20421444 102:0.47465336 103:0.52237099 104:0.57733303 105:-1.1188062 106:1.0882621 107:-0.21174075 108:0.048894744 109:0.98743069 110:-0.78533685 111:-0.16306457 112:-0.0027994711 113:-0.31736779 114:-0.77670735 115:-0.0062474008 116:-0.2059278 117:-0.2032761 118:0.91070753 119:0.1115243 120:0.31047177 121:0.19235179 122:1.4602426 123:-0.13764167 124:-1.5355203 125:0.72231084 126:0.66029447 127:0.060434781 128:1.9481827 129:0.79308295 130:-0.23243712 131:0.037881751 132:0.64077699 133:-0.21821624 134:0.15296286 135:0.21181425 136:0.026327154 137:-0.60782057 138:0.77461839 139:-0.025673063 140:0.086950094 141:0.28904372 142:0.15683492 143:0.33845285 144:0.29128632 145:2.0374184 146:0.46883023 147:0.50319463 148:-0.26511145 149:0.59503585 150:0.67760825 151:0.90756994 152:0.72705108 153:0.61884642 154:0.74499983 155:0.53030479 156:0.42965636 157:0.37065691 158:-0.094464526 159:-0.53662199 160:1.0056598 161:1.2058266 162:-0.5541141 163:-0.3257376 164:0.84220803 165:-1.0774375 166:-0.37658197 167:-0.26561067 168:-0.18332395 169:0.30625206 170:-0.14806437 171:0.39959195 172:-0.20137973 173:0.33724657 174:0.47884929 175:0.40887791 176:0.70032698 177:0.10180227 178:0.95599544 179:0.13086554 180:0.61494315 181:-0.70227718 182:0.1526489 183:0.28729022 184:0.64399689 185:0.56597948 186:0.46856505 187:0.49148402 188:0.255741 189:-0.89328599 190:-0.90540761 191:0.43567887 192:0.039797209 193:-0.46476218 194:0.29310393 195:0.41173196 196:0.55402321 197:0.074982285 198:0.82138228 199:0.73171592 
0.7893745401992077 0:-0.12108678 1:0.28697187 2:1.920818 3:-0.7072863 4:-0.27881569 5:-0.88193506 6:1.3485017 7:0.93077391 8:-1.2622899 9:-0.95191067 10:0.14395928 11:-0.1487758 12:0.94003624 13:1.1442904 14:0.47698095 15:-0.30121782 16:-1.3619964 17:-1.6324887 18:-1.2241057 19:-1.1853518 20:-1.2011999 21:1.4276811 22:1.6976461 23:0.28456256 24:-0.061577305 25:-0.36883336 26:-2.1621444 27:-1.165844 28:-1.0206058 29:-0.94755912 30:-0.43215692 31:0.10480367 32:1.3918064 33:-0.63943774 34:-0.57343251 35:1.136034 36:-0.97031981 37:0.24607101 38:0.61510044 39:0.57601303 40:-0.26879689 41:1.94653 42:1.4116642 43:0.77536583 44:0.062149867 45:-0.51795328 46:0.095804818 47:0.88378471 48:0.16920841 49:1.3280897 50:0.7203185 51:0.6481325 52:1.0945504 53:2.9545183 54:-0.03291874 55:0.44148901 56:2.9943583 57:2.7099953 58:-0.051710226 59:0.056383509 60:0.20860392 61:0.14868335 62:2.3815794 63:0.04864366 64:0.96189904 65:2.1146138 66:0.47420409 67:0.31335929 68:1.6172239 69:0.42289647 70:0.48107857 71:-1.5885361 72:1.3747854 73:1.3192376 74:1.1607263 75:0.14067797 76:0.65251654 77:-0.57819515 78:-0.71222174 79:-0.095265649 80:-0.85735333 81:-0.3139438 82:0.48868415 83:-0.014839037 84:-0.17555958 85:1.4029877 86:-0.71355057 87:1.2407925 88:0.66013402 89:1.3726748 90:0.19253218 91:-0.44491705 92:-1.7478273 93:-0.33790413 94:1.6280433 95:-0.067500681 96:1.4018536 97:-0.69574374 98:-1.8667383 99:-1.9407282 100:-0.40117595 101:0.077690601 102:0.37513366 103:0.40159056 104:-0.20765586 105:1.9991554 106:0.47366756 107:-0.20029053 108:-0.59892577 109:0.38335231 110:-0.4111948 111:0.93540198 112:-1.6196153 113:1.9460469 114:-1.0899265 115:-0.087787613 116:0.89980054 117:-0.66133952 118:0.030409342 119:0.42472148 120:2.2027805 121:1.3530189 122:2.2356312 123:0.44392288 124:0.64855576 125:1.3917441 126:0.77240354 127:0.60049009 128:0.51394415 129:0.44130555 130:-0.43913284 131:0.10341811 132:-0.026967242 133:-0.62268972 134:-1.2131844 135:0.4080523 136:-1.5633374 137:0.14966749 138:0.096415401 139:0.017241756 140:0.23119397 141:0.36213708 142:0.40594327 143:0.026691977 144:0.20254205 145:1.3261794 146:0.33185938 147:0.027500397 148:-0.14225014 149:0.71643966 150:-1.1702199 151:0.2634401 152:-0.078042522 153:2.1659625 154:0.87823749 155:0.29405916 156:0.28868344 157:-0.69127953 158:-0.53909987 159:0.6320731 160:-0.38330182 161:-0.026867587 162:-1.0050459 163:-0.63898265 164:-0.29771075 165:-0.49285296 166:-1.6210204 167:-0.54107201 168:-0.042642601 169:0.084385328 170:-0.98514152 171:0.36144656 172:-0.64405054 173:0.40704176 174:-0.75484008 175:0.38362214 176:0.021173459 177:1.3513222 178:-0.80781949 179:0.090624794 180:-0.34013617 181:-0.34511626 182:0.82150978 183:1.7107216 184:-0.47208488 185:1.1884547 186:1.4693687 187:0.84511274 188:0.38533419 189:0.053541478 190:0.81492859 191:0.31507108 192:0.4361774 193:-0.47503167 194:0.62419492 195:0.64298362 196:0.32161644 197:0.19189559 198:-1.5775187 199:0.052660629 
1 0:-0.1016372 1:0.4265494 2:0.22695433 3:0.22776562 4:0.92222202 5:-0.22858275 6:0.98141605 7:0.06084777 8:0.065835312 9:0.023802618 10:-0.77223754 11:0.74167258 12:0.033308618 13:0.50511485 14:0.020432511 15:0.12419479 16:0.10276174 17:-0.21298786 18:1.3302706 19:-0.21997763 20:-0.3703517 21:-0.37701118 22:-0.40817857 23:0.30467957 24:0.45255697 25:0.97668427 26:0.11065903 27:-0.8012175 28:0.23986197 29:0.99999511 30:0.49450171 31:0.49983341 32:-0.082202889 33:0.74303865 34:0.35498556 35:1.0165359 36:1.0989304 37:0.37002 38:-0.75158656 39:-0.12281991 40:-1.2354105 41:-0.06079492 42:0.81807446 43:-0.048941042 44:-0.5560413 45:0.338471 46:0.3481892 47:0.42318782 48:0.60308641 49:0.56277233 50:0.8311556 51:-0.48540664 52:1.6504992 53:0.3806209 54:0.092200831 55:0.59840071 56:-0.20100199 57:-0.17827724 58:-0.29397896 59:0.44436574 60:1.0444263 61:2.1450706 62:-0.72388238 63:-0.18186896 64:-0.12479844 65:0.78823024 66:0.40629971 67:0.3238543 68:0.028970968 69:-0.61940527 70:0.14349142 71:1.1285331 72:0.93657142 73:0.9809193 74:0.15738879 75:-0.29285222 76:0.36194065 77:-0.75852281 78:0.69281554 79:0.20172632 80:0.73479599 81:0.99132377 82:0.46752152 83:-0.44934326 84:-0.24252202 85:0.33231658 86:-0.020664401 87:-0.0062937047 88:0.062388189 89:-0.7168451 90:0.043833241 91:0.82400781 92:-0.2808058 93:-0.043047786 94:-0.76412177 95:-0.81673265 96:0.77491522 97:0.60170323 98:1.2617481 99:0.59651542 100:0.47666553 101:1.0252986 102:0.42114073 103:0.5203771 104:0.06208279 105:-0.53541839 106:-0.52778572 107:0.48699448 108:0.10141749 109:0.87013084 110:0.044569138 111:2.9842236 112:-0.55717558 113:0.28782809 114:0.69830465 115:0.37016681 116:-0.65654933 117:0.23265491 118:0.34723166 119:0.12468547 120:-0.53869742 121:-0.18579215 122:1.2369841 123:0.68455315 124:0.38622016 125:0.021250999 126:0.0090516582 127:0.87494636 128:0.82616115 129:0.36523876 130:0.37377867 131:0.36591479 132:0.26698792 133:0.069998778 134:0.27724448 135:-0.22563872 136:0.19916685 137:-1.0084642 138:0.90956575 139:0.44132575 140:1.569931 141:0.22279787 142:0.085019454 143:1.0060856 144:0.59003514 145:-0.55937082 146:0.3883979 147:-0.31980196 148:-0.28359032 149:-0.42622998 150:0.23426045 151:0.22268161 152:0.73432732 153:-0.48939079 154:-0.82069707 155:0.089060426 156:0.362443 157:0.23528753 158:0.40874448 159:0.075049728 160:0.39372647 161:1.2408289 162:-0.095968679 163:-0.63722122 164:0.68510431 165:0.65426767 166:-0.72920096 167:0.29358739 168:0.40947852 169:0.31781855 170:1.5346487 171:0.31610149 172:0.13647653 173:0.35008433 174:-0.50234997 175:0.39580634 176:0.39939675 177:-0.32648194 178:0.37617037 179:0.57715249 180:0.099390216 181:0.97075319 182:0.61370128 183:-0.34551212 184:0.13367485 185:-0.14104618 186:-0.12744711 187:1.3449264 188:0.45774052 189:-0.16068685 190:0.47826988 191:0.41986224 192:0.32039815 193:-0.13382624 194:0.47027105 195:0.19568129 196:0.42415431 197:0.94647467 198:1.3303828 199:-0.20787606 
0.3204599926656944 0:0.9054811 1:0.4229646 2:0.58780742 3:0.71329588 4:0.80659312 5:1.5439413 6:1.7533164 7:0.5918923 8:1.6552476 9:0.88546789 10:0.97399038 11:0.25901639 12:-0.4671489 13:0.25891781 14:-0.043556508 15:1.3050042 16:0.95367634 17:0.64043677 18:-0.24492384 19:0.37674567 20:0.21172255 21:0.047472216 22:1.1470369 23:0.4542622 24:0.037637036 25:-0.037473053 26:0.57209492 27:-0.22423589 28:-0.23798706 29:0.24581566 30:0.15461546 31:-0.87046993 32:0.9709608 33:1.0508943 34:0.70048952 35:-0.66076255 36:-0.30936983 37:0.51894706 38:0.18394786 39:0.48220441 40:0.59120917 41:-1.3078561 42:-0.55715597 43:0.69143766 44:0.84207219 45:0.41789699 46:-0.17034422 47:0.65151578 48:-0.32318008 49:1.4420192 50:1.0984533 51:1.2289499 52:0.9692136 53:1.2007757 54:0.28844556 55:1.0556843 56:-0.36075857 57:0.8831979 58:1.0788743 59:1.4071027 60:0.30068362 61:1.5036989 62:1.969571 63:3.6169317 64:0.88897312 65:1.0761762 66:0.34254608 67:0.67818516 68:-0.70447427 69:-0.50819659 70:1.8958174 71:0.52481455 72:-0.18200396 73:0.55285984 74:-0.38249755 75:0.67667228 76:0.34699357 77:1.682945 78:0.42444465 79:0.3048318 80:0.97853315 81:1.3816234 82:0.33080637 83:0.91240758 84:0.12754959 85:-0.85365969 86:1.1755776 87:0.10806099 88:-0.30115613 89:0.30037397 90:0.13735516 91:0.50845426 92:1.1326703 93:1.5429187 94:0.4251529 95:0.43566269 96:-0.79891962 97:1.3965497 98:1.1013714 99:0.42806837 100:0.69746178 101:-0.074570619 102:0.47134352 103:0.54530138 104:0.40154073 105:1.7044404 106:1.5379595 107:1.5659184 108:1.5360841 109:0.68625093 110:0.44126031 111:0.023699954 112:1.5217955 113:0.54608047 114:-0.1198153 115:0.33387873 116:0.078471914 117:0.045802921 118:0.0033096841 119:1.0759335 120:0.83821911 121:-0.36948764 122:0.9578684 123:0.66825646 124:-0.2654303 125:1.2680091 126:0.90650398 127:0.78094757 128:-0.65821856 129:0.24319032 130:0.28665984 131:0.18730135 132:0.81539047 133:1.4879639 134:0.28668302 135:1.150484 136:1.3029002 137:0.070528507 138:0.49500906 139:0.57928687 140:1.3544664 141:0.36765835 142:0.25811064 143:-0.44701669 144:0.65364438 145:0.25164318 146:0.43469214 147:1.1880823 148:0.27430889 149:-0.45790473 150:1.7821827 151:1.0592247 152:-0.6707179 153:0.15994756 154:0.39676017 155:0.53882641 156:0.43595371 157:1.4637264 158:1.629037 159:-0.10519918 160:0.41923442 161:-0.95441937 162:0.59839666 163:0.7814371 164:0.24397795 165:1.4576458 166:1.0341356 167:0.34290731 168:0.45310217 169:0.2594271 170:-1.1116068 171:0.45299736 172:1.6331115 173:0.27215388 174:-0.22716828 175:0.37659281 176:0.079360895 177:0.21578106 178:0.097823136 179:0.37538269 180:0.28403234 181:1.4352365 182:0.39089513 183:1.1554226 184:1.0301257 185:0.13033611 186:0.44821596 187:0.22046855 188:0.50183833 189:0.51982528 190:-0.0073547792 191:0.40500128 192:0.11921816 193:1.3280207 194:0.29932016 195:0.16233593 196:0.45704934 197:-1.154358 198:0.72806454 199:1.0615222 
0.5334245181549325 0:-1.0754671 1:-3.6641266 2:0.1987104 3:0.26562667 4:-1.3668416 5:-3.0015187 6:-0.26573044 7:-0.15813412 8:1.3321539 9:-1.4154568 10:0.56014764 11:-3.7880516 12:0.19028699 13:-0.75098401 14:0.0024265205 15:-1.0048307 16:0.80988061 17:-3.3817627 18:0.26954111 19:-1.7565852 20:-4.2514591 21:0.56809902 22:-0.39497274 23:-3.9448512 24:-3.5079472 25:-0.19163549 26:-4.2204237 27:-1.7620122 28:0.09773095 29:1.7166893 30:-4.9260054 31:-2.1802268 32:-0.34053272 33:-1.6681937 34:-3.2715068 35:2.3128777 36:-4.1025438 37:-4.2829347 38:0.55801821 39:1.0199062 40:0.74393243 41:1.6238282 42:0.98308289 43:0.99355882 44:-0.7658028 45:-4.224966 46:-4.4946189 47:-1.2744989 48:-3.5274928 49:-0.76784658 50:0.32085195 51:-0.3936173 52:1.0577559 53:2.5556436 54:-4.0181546 55:-1.2100526 56:0.43241578 57:-1.2882942 58:0.14287934 59:1.6758243 60:-3.0267038 61:-0.2129977 62:0.29518583 63:-0.41639569 64:4.8102694 65:1.1563061 66:-3.4070492 67:-0.28484908 68:0.16011684 69:-0.46185717 70:0.57713139 71:-1.2165692 72:1.1898507 73:0.99310786 74:2.1738307 75:0.18849054 76:-0.17948087 77:-0.65353519 78:-4.4761133 79:-4.6506844 80:-4.851521 81:-3.3910418 82:-1.9403301 83:0.86641771 84:-0.74700135 85:0.68545264 86:-2.0585103 87:0.32411435 88:-1.5274676 89:0.95798558 90:-3.5800633 91:0.30789751 92:-3.8963592 93:-1.242198 94:2.0196297 95:0.9703235 96:-0.64310718 97:-0.79022336 98:-2.9809873 99:-1.5359446 100:-4.8549519 101:-4.2982621 102:-3.6260197 103:-2.802707 104:-3.4181478 105:-0.020026941 106:0.36345991 107:-0.024470005 108:0.13200575 109:-0.12973703 110:-0.87600207 111:0.15428396 112:-1.4783573 113:0.84516746 114:-1.0319186 115:-5.075407 116:0.54390615 117:-2.3789833 118:-2.5332909 119:-2.8472552 120:0.42576918 121:-0.10477117 122:-1.406756 123:1.3048769 124:-3.6119885 125:-2.9399209 126:1.4393263 127:-0.82604027 128:-2.1108506 129:-3.8339527 130:-5.0545154 131:-3.1553526 132:-0.1530676 133:-0.52449572 134:-4.5282555 135:-0.2430291 136:-2.004534 137:1.4011593 138:-3.4458287 139:-4.3620105 140:-0.85694647 141:-3.8930137 142:-2.093679 143:0.15906896 144:-0.1713177 145:0.51234972 146:-3.8173676 147:-2.2759538 148:-2.6213663 149:0.23600189 150:-1.6360563 151:-0.8523339 152:-0.54319632 153:-0.4423922 154:-0.94450253 155:-0.62222844 156:-3.8404832 157:-1.4108983 158:-0.079048835 159:-0.81501853 160:-4.8594508 161:-0.33930486 162:-2.5977767 163:0.21970104 164:-3.3721066 165:-0.84076869 166:0.69072556 167:-1.8984076 168:-5.0694828 169:-4.3766694 170:-0.32415909 171:-4.0434484 172:0.16762225 173:-2.567884 174:-1.3749741 175:-2.9269447 176:-4.0220866 177:-0.22400345 178:0.073806629 179:-4.2498598 180:1.0919753 181:0.79347885 182:-3.1278777 183:-0.10872812 184:-5.28759 185:-0.13530174 186:-1.2611934 187:0.62629092 188:-4.3036566 189:-0.66954625 190:-0.90261179 191:-3.8401725 192:-2.0446684 193:-1.7339922 194:-2.834357 195:-0.34967509 196:-3.3922858 197:-1.5141728 198:-2.6706808 199:-4.3651237 
1 0:0.22057791 1:0.46898925 2:-0.81129324 3:-1.2275633 4:-0.2477528 5:0.69844335 6:-0.18980828 7:-0.29661447 8:-0.68048155 9:-0.67223239 10:-0.86997318 11:0.0069855964 12:0.48242426 13:-0.48384485 14:-0.49104503 15:0.14218 16:-1.1800561 17:-0.13825369 18:0.40273777 19:0.28388762 20:0.66747743 21:1.6742941 22:0.75810492 23:0.40642896 24:-0.26893437 25:-0.995951 26:-0.12791532 27:-0.74056476 28:-0.89663994 29:0.57236654 30:-0.31788275 31:-0.5938651 32:0.13272984 33:-0.032068163 34:0.52874678 35:1.7790749 36:-0.054831374 37:0.40465894 38:0.45326334 39:-0.88416606 40:0.26270583 41:1.1303537 42:-0.68932664 43:1.4057721 44:-0.90513837 45:0.28807184 46:0.093331069 47:-0.74530154 48:0.03717386 49:-0.90525544 50:0.33643854 51:1.887789 52:-0.47574094 53:-1.500573 54:0.20994768 55:-0.78291672 56:1.9133275 57:-0.94929183 58:-0.66012734 59:0.88118756 60:0.17641221 61:-0.78498983 62:0.90157622 63:-0.4067066 64:-1.1731162 65:-0.048003413 66:1.126268 67:2.6045644 68:-1.3546169 69:0.067425117 70:-0.18952245 71:-0.15124165 72:-0.1306878 73:0.18557902 74:0.67181486 75:1.6784668 76:-0.29040483 77:-0.47571069 78:0.12738131 79:-0.10232482 80:0.19786522 81:0.5868901 82:0.31447706 83:0.28061196 84:-0.39774421 85:-0.16891016 86:-0.53097993 87:-0.32176399 88:-0.50554448 89:1.2204134 90:-0.031617571 91:-0.74942839 92:-0.39690223 93:0.96246767 94:-0.40399233 95:-0.93392479 96:0.34145248 97:-0.20058726 98:0.27404368 99:0.13847756 100:0.18857411 101:0.38925046 102:0.49743301 103:0.46762156 104:-0.14724372 105:1.4904143 106:0.31335032 107:1.8809733 108:-0.34322345 109:-0.64590508 110:-0.24125609 111:0.72280753 112:-0.78225309 113:0.51685548 114:-1.3282244 115:0.18735556 116:-0.29127124 117:0.58081692 118:0.47173801 119:-0.72471988 120:0.13967225 121:0.31352687 122:-0.53099787 123:1.2931527 124:0.1062372 125:-1.132323 126:-0.19741203 127:0.030351521 128:0.34103078 129:0.66239053 130:0.60387957 131:0.07640399 132:0.24931289 133:-0.34238774 134:-0.63507652 135:-0.28227067 136:-0.13715197 137:2.0132961 138:0.62258887 139:-0.31049603 140:-0.60542351 141:0.4728823 142:0.37601936 143:0.056773838 144:0.26327482 145:-0.77065068 146:0.48451528 147:-0.086831726 148:0.38483226 149:-1.682102 150:-1.213744 151:-0.55780697 152:-0.56744266 153:-0.39111269 154:0.43316099 155:1.3321924 156:0.44844317 157:-0.06745708 158:0.20056586 159:0.097152561 160:0.4035174 161:-1.2766739 162:-0.68885261 163:-0.79119796 164:0.6117335 165:-1.003446 166:-0.92015743 167:-0.54274923 168:0.063628711 169:0.50754344 170:-0.43199676 171:0.41751713 172:-0.1096204 173:0.20580219 174:-0.74886763 175:0.34293178 176:0.069486544 177:-0.14340441 178:0.19800575 179:0.20763654 180:-0.70221829 181:0.27875686 182:0.026526859 183:0.018691309 184:0.54770243 185:-0.3288911 186:-1.1845778 187:-0.26302865 188:0.2856977 189:-0.83676481 190:-1.3703402 191:0.45702893 192:0.44613692 193:-1.3864033 194:0.41227469 195:-0.87704343 196:0.45597368 197:1.3452307 198:-0.57153904 199:0.35279989 
0.115211876001528 0:0.85901535 1:0.4620288 2:1.3129585 3:0.64193833 4:0.5596475 5:1.2583447 6:0.93829274 7:1.2700937 8:0.43440568 9:0.83204764 10:-0.49194762 11:0.52917492 12:0.87474662 13:0.29605511 14:-0.13458821 15:0.8646304 16:1.8355676 17:1.9252123 18:0.64476871 19:0.69429547 20:1.2133456 21:1.2629651 22:0.23739015 23:0.4308871 24:0.92452735 25:1.5380317 26:-0.032461155 27:0.3480913 28:0.28883812 29:0.97742915 30:0.62801856 31:0.79198813 32:1.3929602 33:1.8135602 34:1.6505189 35:1.0558203 36:0.45982081 37:0.44446507 38:1.2221729 39:0.90507054 40:0.26923484 41:0.46253154 42:-0.0072576855 43:1.5029908 44:1.2555366 45:0.099734075 46:0.79239523 47:0.5442698 48:0.72776854 49:0.58864039 50:0.42707291 51:0.65408421 52:0.66631871 53:0.67096704 54:0.52363902 55:1.0985121 56:0.41610667 57:1.145014 58:0.55810851 59:-0.23172498 60:0.44787049 61:0.79756421 62:-0.31598461 63:0.82774609 64:0.84318382 65:0.82310921 66:0.42991948 67:0.18378286 68:3.0634959 69:3.5010436 70:0.44417804 71:1.313674 72:1.1904978 73:1.5310391 74:1.733202 75:1.6380479 76:0.36595893 77:1.2443151 78:1.0042922 79:0.62529343 80:0.48388183 81:0.79864883 82:0.45847854 83:0.026035354 84:1.279188 85:0.32723942 86:0.48450863 87:0.44739801 88:0.29506913 89:0.54622531 90:0.26953405 91:1.4501988 92:0.22436446 93:1.684407 94:0.33475757 95:1.1979188 96:1.7389321 97:1.5587547 98:1.1869506 99:0.96811581 100:0.6926738 101:0.25292805 102:0.46074224 103:0.54152334 104:0.68262082 105:0.63264245 106:1.1094524 107:0.47868344 108:-0.2819269 109:2.0723426 110:0.88149136 111:0.50218594 112:0.099331826 113:1.5864456 114:2.0446637 115:0.73155236 116:-0.12974414 117:1.1262478 118:3.0163407 119:1.7276345 120:0.81123704 121:0.29014912 122:1.2948592 123:1.3548484 124:-0.38464856 125:1.3227297 126:1.891955 127:1.1544176 128:1.5021271 129:0.81198364 130:0.22398548 131:0.61086005 132:1.4194764 133:0.63528091 134:0.86054969 135:0.16533157 136:1.0602785 137:0.89881027 138:1.2892665 139:0.47464475 140:0.019097926 141:0.42582452 142:0.34514886 143:2.9640834 144:0.36463156 145:1.5676614 146:0.44544056 147:1.4263723 148:0.55024636 149:0.55623668 150:0.097240001 151:-0.44065648 152:1.0007344 153:1.1066006 154:1.3572719 155:2.3077459 156:0.57179683 157:1.8483608 158:0.44189036 159:0.75106317 160:0.68878454 161:0.46072522 162:0.98640585 163:-0.20938012 164:0.87772936 165:1.4535818 166:1.2479264 167:0.40089196 168:0.72424567 169:0.33604458 170:1.9479862 171:0.46251982 172:1.2477183 173:0.47271553 174:0.39236513 175:0.46246037 176:0.66455966 177:-0.16310929 178:0.40693623 179:0.52055126 180:1.5867689 181:-0.077756263 182:0.61396676 183:1.6893834 184:0.27401599 185:0.23275518 186:1.742586 187:0.49756366 188:0.42056862 189:0.1692619 190:-1.1117632 191:0.52004695 192:0.31064272 193:-0.10710672 194:0.35885429 195:1.4096309 196:0.54204446 197:-0.05338401 198:1.4136595 199:0.90515584 
0.3848663010713844 0:0.78291905 1:0.47634801 2:0.58770949 3:-0.53643614 4:1.1008407 5:-0.27427211 6:0.88245678 7:2.1228709 8:0.04742194 9:0.74804795 10:-0.91532624 11:0.52944958 12:1.3895347 13:0.53514397 14:0.16916148 15:-0.52610469 16:1.4979135 17:1.8104715 18:1.7625673 19:-1.2562252 20:-0.56271887 21:1.9811541 22:-1.422417 23:0.43259284 24:0.61443108 25:-0.37691063 26:-0.30596325 27:0.76844263 28:0.35517299 29:0.65533441 30:0.32177931 31:2.3346303 32:-0.070593238 33:-0.36722121 34:1.0207216 35:0.19320874 36:-0.46731102 37:0.4675054 38:-1.3098065 39:-0.48148933 40:-0.176138 41:0.23015119 42:0.6862036 43:1.3533845 44:1.1539509 45:0.42677203 46:0.86029971 47:-0.30188146 48:0.98014414 49:0.094728835 50:1.0877553 51:0.87562555 52:-0.098350614 53:0.11732408 54:0.540286 55:-0.29912081 56:0.30959016 57:1.0281169 58:0.25666806 59:0.084270649 60:0.43129551 61:-1.1877335 62:0.12824748 63:0.089205101 64:0.74715841 65:2.2026613 66:0.43287441 67:-0.8735221 68:0.60712951 69:1.0700997 70:4.2638712 71:4.0293779 72:0.32284448 73:-0.40727234 74:-0.94742346 75:0.43306199 76:-0.99249083 77:-0.0087014856 78:0.60683411 79:-0.043384861 80:0.86939847 81:0.090891197 82:0.28491589 83:-0.69770569 84:-0.59724081 85:2.3895252 86:-0.29315394 87:0.87837768 88:0.53747892 89:1.3719403 90:0.19735971 91:1.2935191 92:-1.4368378 93:1.0548573 94:-0.60034442 95:0.84695315 96:0.12350103 97:0.81724322 98:1.262892 99:0.33098176 100:0.37104443 101:-0.00035884805 102:0.45986608 103:0.56718224 104:0.40682673 105:0.39451301 106:0.16448084 107:-0.02566871 108:0.32517639 109:0.10921911 110:-0.83239454 111:0.27930883 112:-0.25222188 113:1.1922816 114:-1.5968541 115:0.29150108 116:0.96408606 117:1.3982111 118:1.1560649 119:0.64192069 120:0.28914979 121:1.1157066 122:0.61840832 123:0.23464775 124:-0.77590883 125:1.0681996 126:0.7003724 127:-0.43576273 128:0.55128586 129:0.48632792 130:-0.10780128 131:0.61748183 132:-0.71551758 133:0.52044219 134:-0.45470929 135:-0.92077869 136:0.55705851 137:0.89045286 138:1.1418999 139:0.17362718 140:-0.17145137 141:0.49561641 142:0.25115609 143:0.45680794 144:-0.84468162 145:0.32279149 146:0.4502821 147:1.0057069 148:-0.27622211 149:2.5266945 150:0.72083449 151:-0.2221929 152:2.2780516 153:-0.80425113 154:-0.50157368 155:-0.35021284 156:0.44510308 157:0.4275609 158:0.1829001 159:1.9936645 160:0.82751501 161:-0.8641153 162:-0.39654365 163:-0.69479454 164:0.68049967 165:-0.4767974 166:0.45856518 167:0.52965921 168:0.29177809 169:0.17948461 170:0.78561884 171:0.44024521 172:-0.77197295 173:0.66383988 174:1.125409 175:0.40035295 176:0.41239762 177:-0.098433599 178:0.10521599 179:0.35567111 180:0.01364506 181:-1.7071885 182:0.75758165 183:1.8523866 184:0.5000872 185:0.71623081 186:1.0996405 187:-0.69386441 188:0.40404287 189:-0.44142222 190:-0.63567251 191:0.43310806 192:0.13719833 193:-0.20669343 194:0.41980499 195:0.89881796 196:0.53434873 197:0.49968153 198:0.98593122 199:0.073192231 
0.7535629348194899 0:-0.55562353 1:-1.72447 2:-0.71434742 3:-0.53396142 4:0.21319818 5:-0.88141835 6:-0.22639334 7:0.21142977 8:-0.71844035 9:-0.026502155 10:0.20546465 11:-0.76155818 12:1.0090791 13:-0.80970621 14:-0.36518902 15:-1.3358893 16:-1.177304 17:-1.1705364 18:0.48886123 19:-0.98072535 20:-0.51878852 21:-0.024974126 22:-0.14036137 23:-0.99633896 24:-0.15177378 25:-1.0656852 26:-0.9668501 27:0.45853058 28:-0.046049539 29:0.5745095 30:-2.9896972 31:-0.89841127 32:-0.81674123 33:0.5453943 34:-1.9643127 35:1.3991838 36:-1.1877626 37:-1.7504002 38:-1.3340145 39:0.76281714 40:-0.67246068 41:1.8785954 42:0.925955 43:0.84877282 44:-0.047606312 45:-2.276866 46:0.024684494 47:-1.8302454 48:-0.96301138 49:0.032687839 50:0.58127904 51:-0.2358766 52:0.29287669 53:0.018958971 54:-1.6556534 55:-1.0609163 56:0.69466561 57:-1.2591257 58:-0.36816621 59:0.29080686 60:-2.3166513 61:0.34624094 62:-1.0380428 63:0.737845 64:0.83177483 65:-0.48813325 66:-1.5622259 67:-1.4689146 68:-0.35221162 69:-0.94204444 70:0.91215253 71:-0.46332896 72:5.5724492 73:2.5604842 74:0.083863653 75:-1.6307985 76:0.13595168 77:0.9229756 78:-0.22768979 79:-1.647761 80:-1.0837153 81:-1.8805552 82:-2.3531158 83:-0.13388412 84:-1.8632011 85:-0.41449904 86:-0.82303268 87:-0.30033052 88:-0.080717228 89:-0.059422646 90:-1.5819982 91:0.0075883986 92:0.21905524 93:-1.4359769 94:-0.31076947 95:-0.90666699 96:0.11361814 97:-1.0477965 98:0.094898194 99:-1.1237727 100:-1.3126065 101:-2.8587828 102:-1.674497 103:-1.8246045 104:-0.6992746 105:-1.4062916 106:-0.21715501 107:0.66751558 108:-0.65237391 109:-0.26861063 110:-0.044962954 111:-0.5847953 112:-0.96276057 113:-0.25331771 114:-0.97172922 115:-1.8459325 116:0.94209373 117:-0.82187194 118:-1.3578433 119:-0.44568342 120:0.80488002 121:-0.29561067 122:-0.47926602 123:-0.17339724 124:-1.0662351 125:0.12519883 126:0.11524259 127:0.63724673 128:-0.18281695 129:-1.5302436 130:-1.0709784 131:-0.37604895 132:-0.2431393 133:0.7259391 134:-0.099543415 135:0.46871856 136:-0.19227487 137:-0.19346437 138:-2.3781326 139:-1.598762 140:-1.6671244 141:-1.5861005 142:-2.2357354 143:-0.42173374 144:-0.64033157 145:-1.2349731 146:-1.6478162 147:-0.79528922 148:-1.3277878 149:0.36702788 150:-1.0163049 151:-0.63184255 152:-0.55605125 153:-0.59141088 154:-1.1421281 155:-1.162608 156:-1.410935 157:-0.68619716 158:-1.011842 159:-0.051432792 160:0.72104728 161:-0.97522026 162:0.10108331 163:-0.069464974 164:-0.0015299435 165:-1.0495604 166:0.7338779 167:-1.3704388 168:-1.4585797 169:-1.5056738 170:0.66303527 171:-1.4078075 172:-0.90229386 173:-2.3051353 174:-0.23784256 175:-2.160877 176:-2.5011494 177:0.066817366 178:-0.31352648 179:-1.2310939 180:-0.41484442 181:-0.50926435 182:-1.2078658 183:-1.0266629 184:-1.4108124 185:-1.7336816 186:1.0972537 187:0.57713538 188:-1.3396177 189:-0.75936049 190:-1.3928695 191:-1.8077691 192:-1.5150186 193:-0.72185886 194:-1.8931719 195:-0.095474079 196:-2.226018 197:-0.49748266 198:-0.53136718 199:-1.1246912 
1 0:-0.36916944 1:0.37070644 2:-0.79857385 3:-0.62969154 4:0.23777542 5:-0.65075785 6:-0.92492849 7:-1.2640419 8:-0.26695535 9:-1.1543053 10:-0.85985392 11:0.30709156 12:-0.79069996 13:-0.63364458 14:-0.20613571 15:-0.89041811 16:0.043762024 17:-0.22091979 18:-0.24383393 19:0.62878942 20:-1.0451963 21:-0.12635049 22:-0.57786012 23:0.28231528 24:-0.069494769 25:-0.11591802 26:-0.51784968 27:-0.31916788 28:-0.14060293 29:1.0777622 30:-0.26346955 31:-1.4985393 32:-1.0273716 33:-0.33080557 34:0.84938627 35:-0.36236191 36:0.20149279 37:0.47082719 38:0.5658986 39:-0.31033498 40:0.94940358 41:0.15540232 42:-0.97007114 43:1.2816467 44:-0.65830123 45:-0.011091327 46:-0.47978389 47:-0.91133147 48:-0.32877374 49:0.5130766 50:-0.52642202 51:2.2645304 52:-0.5773074 53:0.18998697 54:-0.026496792 55:0.39840332 56:0.19249831 57:0.11187641 58:-0.58948916 59:0.093999274 60:0.0020387403 61:-0.28787577 62:-1.2167733 63:-1.1324658 64:-0.14268701 65:-1.1724066 66:0.29013783 67:-1.6545229 68:-1.3281506 69:1.0194888 70:0.14004223 71:-0.26018047 72:0.73454183 73:1.4861211 74:3.6609178 75:4.5601621 76:-1.0558532 77:-1.4181623 78:-0.25202179 79:0.11398492 80:0.31652486 81:0.27543145 82:-0.13317072 83:-0.5373379 84:0.10310655 85:-0.2558617 86:-1.260474 87:-1.2969357 88:-0.66517681 89:-0.54513431 90:-0.094825178 91:-1.1008033 92:-0.73947036 93:-0.71944386 94:0.30657417 95:0.14361818 96:1.070834 97:-0.41740692 98:-0.97450823 99:-0.09569218 100:-0.35634416 101:-0.33983907 102:0.38631904 103:0.15402684 104:-0.00066404341 105:-1.2932184 106:0.81122243 107:-1.0559068 108:1.7600753 109:-1.7431843 110:0.22641422 111:0.72149867 112:-0.2232451 113:-0.8284725 114:-0.58881801 115:-0.016557274 116:-0.02859218 117:-0.46512184 118:-1.3218083 119:-1.3498963 120:-1.0297184 121:-0.10248509 122:0.25958586 123:-0.84367526 124:-0.12687539 125:0.72192705 126:-0.044217505 127:0.61252433 128:-0.48236373 129:0.092100292 130:-0.54269969 131:-0.15467779 132:-0.75665957 133:-0.81899101 134:-1.1848406 135:0.077395976 136:-0.22325619 137:-0.11444217 138:-0.55802959 139:-0.28071564 140:1.4458472 141:0.28389868 142:0.10070585 143:-0.091861434 144:-0.092846848 145:-0.6554358 146:0.40189523 147:-0.38694367 148:-0.43344203 149:-0.17340529 150:-0.12607405 151:-0.49535123 152:-0.014951536 153:-0.74648571 154:-1.5572741 155:-0.32677916 156:0.38827366 157:-0.64112002 158:-1.8946234 159:0.77485567 160:-1.2569791 161:-1.250592 162:-0.75006533 163:-0.49410385 164:-0.28900412 165:-0.36904913 166:-0.70813215 167:-0.064777479 168:0.2542614 169:0.26116064 170:-0.17810446 171:0.41012311 172:-0.9208594 173:0.11850978 174:-0.54466891 175:0.28403494 176:0.064648308 177:-0.86763984 178:-0.33601505 179:0.27178454 180:0.07643842 181:0.67272639 182:-0.30953607 183:-1.0857793 184:-0.26391295 185:-1.1028005 186:-0.26478472 187:-0.29641274 188:0.36855423 189:-0.85357988 190:-0.83888453 191:0.39298829 192:-0.17848538 193:-1.2801468 194:0.22774503 195:-0.25090471 196:0.3590585 197:1.4238936 198:-0.065078676 199:-0.088939324 
1 0:-0.35305774 1:0.46073428 2:-0.86949444 3:-0.80564666 4:0.18371761 5:0.57676828 6:-0.22275113 7:-0.82370043 8:-0.12805916 9:0.96553826 10:1.0309602 11:0.44506395 12:-0.94666213 13:0.079363674 14:1.4084883 15:0.58195084 16:0.70811331 17:2.0673785 18:-1.0825481 19:0.48581019 20:0.56596923 21:-1.4019274 22:-0.59839636 23:0.40112218 24:0.01135284 25:-0.13798498 26:-0.051080164 27:0.40204698 28:-0.37372932 29:-0.10411685 30:0.42528719 31:-0.13246281 32:-0.34362087 33:-0.47548467 34:0.64406294 35:-1.0079049 36:0.082489468 37:0.50254107 38:-0.3750498 39:1.1604352 40:1.5368018 41:-0.62094074 42:-0.19579951 43:0.063254796 44:-0.46510631 45:0.1527596 46:-0.35091916 47:1.3049279 48:-0.051844362 49:-0.3799009 50:-0.19631758 51:1.6494932 52:0.59084511 53:0.16484506 54:0.52013612 55:0.56408513 56:-0.042314384 57:0.18832147 58:0.80486315 59:0.82489961 60:0.27503628 61:-0.24670719 62:-1.2176152 63:-0.31619793 64:1.3149637 65:0.58023256 66:0.47834495 67:-1.4888185 68:-0.34683809 69:0.53650826 70:0.24833255 71:0.71663898 72:-0.40328631 73:-0.71616501 74:0.17765009 75:1.6868258 76:0.093336739 77:-0.1286719 78:1.5531857 79:3.0630677 80:0.42180878 81:0.64024657 82:0.59673202 83:-0.40396395 84:-0.82151008 85:-0.70026803 86:-0.77536207 87:-0.045737494 88:-0.16277669 89:-1.3039415 90:0.52743059 91:2.375737 92:-0.09571895 93:-0.044927027 94:-1.1158766 95:1.0065156 96:-0.72697628 97:0.15488015 98:1.254292 99:0.18051639 100:0.31733111 101:0.58761364 102:0.47737914 103:0.36425138 104:-0.99079496 105:-1.2696309 106:1.3363326 107:0.70592541 108:-0.48803368 109:-0.57396656 110:0.55653554 111:-0.028389715 112:-0.28782755 113:-0.66153491 114:0.25466949 115:0.5720526 116:-0.14863205 117:0.33734366 118:0.59201866 119:0.37170064 120:-0.59650683 121:-0.75614661 122:0.16326392 123:0.48734429 124:-0.021648986 125:0.61753744 126:0.91944921 127:-0.44560203 128:-0.0069621387 129:0.3473289 130:0.56661165 131:0.26331279 132:-0.63432026 133:0.13141209 134:-0.2050492 135:-0.081128761 136:0.88185734 137:-0.36633804 138:1.0833793 139:0.11640441 140:1.2665292 141:0.4186196 142:0.35601535 143:-0.39002386 144:-1.0452465 145:-0.512797 146:0.47795209 147:1.1060057 148:1.0121627 149:0.105906 150:0.64844322 151:0.39154553 152:0.88691646 153:-0.21209422 154:-0.67803496 155:2.2928457 156:0.47371876 157:0.11292683 158:-0.6751464 159:0.20157127 160:0.85360092 161:0.27655312 162:-0.26388294 163:0.52360648 164:0.94903064 165:0.33252347 166:-0.20367232 167:0.47419253 168:0.42129189 169:0.31882271 170:-0.89308906 171:0.47554958 172:-1.0913713 173:0.30670714 174:-0.052982111 175:0.33094701 176:0.59732902 177:0.058481988 178:-0.13955194 179:0.43585613 180:-0.41954687 181:-1.1847693 182:-0.043294173 183:-0.51380324 184:0.6066919 185:1.2022917 186:-0.15042605 187:0.11026127 188:0.44821084 189:-0.67821491 190:1.7634662 191:0.43920535 192:0.29687697 193:-0.93982804 194:0.38282451 195:-0.8191576 196:0.39787933 197:-0.071212076 198:0.51115149 199:0.78017008 
1 0:1.405979 1:0.46888968 2:1.1956865 3:1.8238938 4:0.23371121 5:0.81761646 6:1.4009587 7:0.058171824 8:0.053454317 9:0.5546447 10:0.86989218 11:0.29729524 12:0.16307703 13:1.4385624 14:0.5188036 15:1.3807428 16:0.48867956 17:1.2803078 18:0.49026889 19:0.64502281 20:2.0337234 21:0.46013314 22:0.76376384 23:0.42431679 24:1.018544 25:1.284188 26:1.6977633 27:0.52002591 28:1.3638469 29:1.0738015 30:0.46834314 31:1.3792542 32:-0.022582097 33:1.4976112 34:1.3543303 35:-0.31280321 36:0.80796689 37:0.43515483 38:0.98257828 39:0.43422955 40:0.62962735 41:0.60303336 42:-0.24265356 43:-0.54847491 44:0.18581872 45:0.3756699 46:1.1514513 47:1.6415955 48:0.79887331 49:2.0584908 50:1.374624 51:0.96383697 52:0.7486974 53:2.2607696 54:0.54567379 55:1.6002388 56:1.6776556 57:1.5742495 58:0.54229403 59:-0.028357249 60:0.49922636 61:0.60158008 62:1.7877885 63:0.82647526 64:-0.21663599 65:0.7897113 66:0.43621477 67:1.4742335 68:0.90267003 69:0.24432437 70:0.64735085 71:0.19578074 72:0.96714848 73:0.28453901 74:0.84344447 75:0.57295871 76:1.3066281 77:0.7242313 78:0.6435861 79:0.41982162 80:1.3152742 81:4.9667292 82:0.6208986 83:1.0833267 84:1.1054991 85:-0.053918425 86:0.61563635 87:1.0234129 88:0.30361298 89:0.78087717 90:0.29481894 91:0.25209898 92:0.46130151 93:1.7926025 94:0.35527223 95:0.24219158 96:0.092040829 97:0.71187997 98:0.42142838 99:0.98056275 100:0.58548838 101:0.40170047 102:0.46580437 103:0.49420395 104:2.2484405 105:0.54623914 106:0.35137197 107:0.65237707 108:0.81918442 109:0.95164704 110:0.40269268 111:0.91189522 112:0.61677289 113:0.99895221 114:0.53806841 115:0.30093032 116:0.37341139 117:0.38610324 118:1.7666973 119:0.81764269 120:2.1821229 121:1.0790232 122:0.54258782 123:0.88484013 124:2.5760911 125:1.1005045 126:1.2169881 127:1.1880525 128:1.4970878 129:0.58299261 130:0.66244835 131:0.50920844 132:1.6853678 133:0.65106273 134:0.85283232 135:0.41839284 136:0.73645061 137:-0.11217945 138:0.89675027 139:0.45320541 140:0.65915895 141:0.42956808 142:0.34191307 143:-0.7548511 144:1.4672107 145:1.3864617 146:0.4584623 147:0.77181065 148:0.92603517 149:0.59408671 150:0.83880216 151:0.43086535 152:0.96967065 153:0.71739012 154:1.0064813 155:1.6332111 156:0.45683646 157:0.80034345 158:1.1395781 159:2.0201068 160:0.88344723 161:1.2380145 162:1.9295546 163:0.10950746 164:1.3900683 165:1.438303 166:0.91256386 167:0.32156411 168:0.33342329 169:0.62791663 170:0.16933618 171:0.42481863 172:0.24371102 173:0.65821189 174:1.0024894 175:0.49366862 176:0.91449553 177:1.632852 178:0.80942237 179:0.39303687 180:1.5763595 181:1.6357193 182:0.95801073 183:1.6956663 184:0.75384063 185:0.19508548 186:0.91332936 187:0.92972487 188:0.41418627 189:0.12145099 190:2.9772701 191:0.43120626 192:0.32955152 193:0.75019991 194:0.32969299 195:0.8356961 196:0.50776088 197:0.45323679 198:2.0205529 199:1.1279171 
1 0:1.1938856 1:0.41491878 2:1.7395569 3:1.6632998 4:1.0107242 5:0.91941667 6:-0.85664302 7:1.3414357 8:1.3682259 9:-0.148514 10:0.17497879 11:0.12220673 12:0.0427063 13:-1.305887 14:-0.37349591 15:-0.38557044 16:-0.80107743 17:-0.11764988 18:-0.64373052 19:0.94833601 20:-0.11335453 21:0.78947479 22:0.11975004 23:0.44509265 24:-0.23583311 25:-0.42934379 26:0.43756133 27:-0.74620301 28:0.019608008 29:-0.34683049 30:-0.48335686 31:0.82162291 32:-0.20631908 33:1.2358304 34:0.49083281 35:-0.25736728 36:-0.017170155 37:0.44723323 38:-0.13261843 39:1.4737327 40:1.6770988 41:-0.56610847 42:-0.45681947 43:-0.17867987 44:0.45753151 45:-0.59136498 46:-0.46985355 47:-0.30346417 48:0.27680069 49:-0.14473528 50:-0.64878398 51:-0.11195847 52:-1.2482935 53:0.46294689 54:0.12702113 55:-0.37401167 56:-0.42674792 57:2.4332938 58:-0.37445763 59:-0.37762833 60:0.087737195 61:0.055726647 62:1.2410237 63:0.45128658 64:-0.11029588 65:-1.6822431 66:0.30428994 67:0.617814 68:-1.0376264 69:-0.54599392 70:-0.94309574 71:0.15462144 72:-0.61801815 73:-0.25938103 74:0.58868861 75:0.59726936 76:0.23633859 77:0.64820534 78:-0.16707537 79:0.4291065 80:-0.76896709 81:-0.33374795 82:0.14957279 83:0.65365887 84:3.4884861 85:4.9624281 86:-0.042975124 87:-1.1328669 88:0.19754814 89:0.13541767 90:0.29866442 91:0.41452587 92:0.7343083 93:0.15008177 94:2.0243609 95:-0.49867627 96:0.025466738 97:0.32916057 98:0.65985459 99:0.39431459 100:0.75113124 101:-0.11588798 102:0.45412251 103:0.36111352 104:-0.13583905 105:0.045822669 106:0.49697834 107:0.17802738 108:-1.2277429 109:-0.11744915 110:0.76955509 111:-2.0060537 112:0.33687669 113:-1.1606746 114:1.8692484 115:0.15890996 116:-0.062412184 117:-0.094195075 118:-0.92314261 119:0.71833444 120:-0.024879878 121:0.26888409 122:1.1795604 123:0.042892169 124:-0.3919872 125:0.20491907 126:0.40826952 127:0.50498593 128:-0.95184445 129:0.15754136 130:-0.045779686 131:0.3587971 132:0.78157228 133:0.9349823 134:0.9190259 135:0.92901909 136:0.82898098 137:1.1319208 138:-0.76589859 139:0.020717187 140:-0.70854914 141:0.34381437 142:0.12991498 143:-0.38225609 144:0.32989597 145:-1.4100808 146:0.44334793 147:0.94672996 148:-1.0098901 149:-0.010237113 150:-0.32995796 151:-1.396011 152:-1.4742838 153:0.67155749 154:0.15433696 155:-0.15222701 156:0.47133571 157:-0.66351658 158:0.53173065 159:0.059272584 160:0.16817984 161:-0.90775931 162:0.62983835 163:-0.69943255 164:0.03367354 165:0.6287359 166:-0.36873811 167:-1.0276952 168:0.56600368 169:0.089936495 170:1.3464983 171:0.46039137 172:-0.67763591 173:0.23071368 174:-0.39592138 175:0.30075577 176:-0.094538502 177:-1.0361394 178:0.083979152 179:0.54277849 180:0.65302223 181:1.3632666 182:-0.18197177 183:-1.0771754 184:-0.56437767 185:-0.082006112 186:0.19999993 187:-0.18954855 188:0.4231987 189:0.63929534 190:0.21713312 191:0.36221516 192:-0.15402541 193:0.61627966 194:0.38699973 195:-1.1013813 196:0.41140306 197:0.11006893 198:-0.20466615 199:0.48169792 
1 0:0.44414142 1:0.44831699 2:-0.75817984 3:0.35980687 4:0.89009953 5:0.10842519 6:0.11342207 7:-0.56727546 8:-0.30797553 9:0.67651683 10:2.1466534 11:0.72575128 12:-0.11422857 13:0.46944067 14:1.0554179 15:-1.4383843 16:0.32551289 17:-0.2948693 18:0.84806341 19:-0.22509246 20:0.24493548 21:-0.04534559 22:-0.7933827 23:0.48745665 24:0.66627485 25:-0.15863362 26:0.89321905 27:0.27283129 28:0.4613747 29:-0.2256339 30:0.19399647 31:0.36608037 32:-0.21224396 33:-0.21641554 34:-0.29931825 35:0.42708427 36:0.1965801 37:0.49626657 38:-0.74132013 39:1.0166945 40:-1.064734 41:0.062883347 42:1.2460741 43:0.42904001 44:0.55358183 45:0.6151098 46:0.66164869 47:-1.5201007 48:0.50640696 49:0.40990517 50:-0.96370637 51:-0.021197358 52:-0.54257202 53:0.39077392 54:0.48700887 55:1.2452914 56:0.25303668 57:0.15877365 58:0.60049814 59:1.2106956 60:0.60106146 61:0.84617645 62:-1.190479 63:0.98418158 64:0.36835065 65:-0.036061939 66:0.49390042 67:-0.86756343 68:0.25404933 69:0.53425688 70:0.06721732 71:1.1116753 72:-0.75632662 73:0.25760129 74:0.82790458 75:-0.15974918 76:-0.033943869 77:0.52147645 78:0.70894426 79:0.41346836 80:0.38123548 81:-0.8984465 82:0.75876749 83:-0.42148724 84:-0.065687381 85:1.017498 86:2.4825301 87:3.5316334 88:-0.50669199 89:-0.63199025 90:0.52832085 91:0.2832326 92:0.68474776 93:-0.16864279 94:-1.0774108 95:-0.71270376 96:0.64045745 97:-0.22105394 98:-0.0027740605 99:1.6854961 100:0.47318599 101:0.25137305 102:0.46249449 103:0.37031713 104:0.61089885 105:0.19111393 106:1.3533143 107:1.0658365 108:0.81769377 109:-0.50577927 110:-1.0123285 111:-0.51638561 112:1.6569216 113:0.59658062 114:-0.72533137 115:0.77447832 116:-0.22484756 117:0.56226504 118:0.42077923 119:0.28502691 120:-0.051203623 121:-0.38276106 122:0.70846748 123:0.24821205 124:0.72322989 125:-0.16206899 126:-0.43143088 127:1.593905 128:-0.49298176 129:0.72093749 130:0.80432242 131:0.56267881 132:-1.0637079 133:0.30289027 134:0.48762044 135:0.89258128 136:1.2330356 137:-0.45294154 138:0.050282735 139:0.62300509 140:0.22737837 141:0.4160988 142:0.44110242 143:0.21537434 144:-0.51344317 145:-0.83701825 146:0.47139841 147:0.031260893 148:0.41272324 149:0.24154209 150:0.19818066 151:1.1230725 152:0.80007464 153:-0.20172776 154:-0.22837307 155:-1.5189712 156:0.50519603 157:0.2442537 158:1.0092007 159:-1.0480387 160:0.31763434 161:0.73754925 162:1.3329462 163:0.96625167 164:0.16278008 165:-1.2680203 166:0.80151439 167:0.99825817 168:0.88803869 169:0.7059077 170:0.24861814 171:0.46177951 172:0.55238801 173:0.55923313 174:0.70390439 175:0.57692385 176:0.45781174 177:-0.99669671 178:-0.64775503 179:0.49376902 180:-0.74687207 181:-0.18785714 182:0.34044278 183:0.96459669 184:0.35317388 185:1.3780856 186:1.1418859 187:1.4384369 188:0.49929589 189:1.118682 190:1.0070323 191:0.41081187 192:0.34724596 193:-0.32324502 194:0.61480063 195:0.092141867 196:0.42065358 197:-1.0418952 198:1.7064298 199:-0.075473525 
0.4203747342932447 0:-1.0426958 1:-1.0413697 2:-0.21652544 3:-0.11419395 4:0.87746954 5:0.41593629 6:0.28238654 7:0.63863122 8:1.0107343 9:-0.62973362 10:-0.35891154 11:-1.6327527 12:0.55876976 13:0.26485446 14:-0.80588138 15:0.012896879 16:0.35457504 17:1.7628479 18:0.52171934 19:0.05810152 20:0.39849734 21:1.0333308 22:-0.67896497 23:-1.2690154 24:-1.7048048 25:1.6317698 26:0.18438776 27:1.170419 28:-0.3593227 29:-0.065849699 30:-0.037368096 31:-0.46214145 32:-0.08601588 33:0.65200597 34:0.49861684 35:-0.36525702 36:-1.426658 37:-0.95198888 38:-1.1692483 39:0.5524444 40:-1.075455 41:0.60828876 42:0.9176991 43:-0.50987917 44:-0.52975696 45:-0.5971157 46:-0.86531788 47:0.4564718 48:-0.64810175 49:0.30456075 50:-0.42839113 51:0.19987428 52:0.80977124 53:0.23328732 54:-0.483089 55:-0.78243619 56:0.19272605 57:0.54220349 58:0.35125718 59:0.18964967 60:-0.90608758 61:-0.0048860726 62:-1.6555748 63:0.47759116 64:-0.15844895 65:0.10763625 66:-1.4211892 67:-1.7933257 68:0.57872993 69:0.76343888 70:0.035953462 71:0.24835913 72:0.80990905 73:-0.082305647 74:-0.69622099 75:0.12752584 76:-0.24593748 77:0.94545817 78:-0.87405509 79:-0.28676862 80:-1.0329517 81:-0.72153157 82:-0.4635925 83:0.19014348 84:1.067013 85:0.26018569 86:-0.17473158 87:0.32784048 88:7.8145766 89:2.6677427 90:0.094338752 91:1.1717335 92:1.0256619 93:-1.0079023 94:-0.54498541 95:1.8200079 96:0.96902817 97:0.33612987 98:0.65239036 99:0.30104658 100:-0.45002085 101:-0.66528434 102:-0.94184983 103:-1.1831007 104:-1.1869091 105:-0.49160311 106:0.6979785 107:-0.90767282 108:-0.6913836 109:-1.26473 110:-0.083013549 111:-0.57688886 112:0.38812646 113:0.97642493 114:0.22090818 115:0.13323912 116:-0.22738701 117:-0.42192525 118:-1.305234 119:-0.22925536 120:-0.22455317 121:0.76040411 122:-0.68269575 123:-0.43486026 124:-0.62230283 125:-0.13056736 126:0.3931649 127:0.2527335 128:-1.0420635 129:-1.3080518 130:-0.52525532 131:-1.8736126 132:1.0060424 133:0.010971918 134:1.5327785 135:0.73074341 136:0.21203655 137:1.645048 138:0.058746092 139:-1.6829578 140:0.4110482 141:-1.0247931 142:0.035854604 143:0.72637659 144:0.47715774 145:0.97265375 146:-0.88850313 147:0.72033358 148:-0.84630525 149:0.2523858 150:0.74412417 151:-1.1335448 152:-0.051314183 153:-1.4058937 154:0.98195702 155:0.15884867 156:-1.1279938 157:0.078068636 158:0.3379668 159:0.77770829 160:-0.27177155 161:-0.83632213 162:-0.092268407 163:-0.39739248 164:-0.64540708 165:-1.2726616 166:-0.19126025 167:-0.75615466 168:-1.4656023 169:-0.83683378 170:0.20801535 171:-1.0490075 172:-0.43947288 173:-1.8137603 174:-1.1706558 175:-0.36852652 176:-1.118394 177:0.0027013451 178:-0.042287085 179:-0.97970372 180:-0.78301442 181:-0.59600204 182:-0.64551049 183:0.58531976 184:-1.3181994 185:0.07100033 186:0.6013183 187:0.53455389 188:-0.69806921 189:0.23648266 190:-0.17230104 191:-0.84536302 192:0.019021025 193:0.33099788 194:-0.68639445 195:0.66383898 196:-1.2033089 197:-0.18401243 198:0.18171909 199:0.67133397 
0.8348088364375732 0:-1.0302243 1:0.0084839873 2:-1.0355692 3:0.049462534 4:0.60206383 5:0.74412727 6:0.061018053 7:-0.06287051 8:0.4046185 9:0.090150073 10:1.5177351 11:0.17713018 12:-0.7279681 13:-0.40280426 14:-1.1155092 15:-1.1904073 16:0.78335202 17:0.12287556 18:0.089579791 19:-1.4116868 20:-0.1547066 21:-0.25209808 22:0.14987202 23:0.048022751 24:-0.85289443 25:0.38221443 26:0.41640249 27:0.34708542 28:0.72151184 29:0.73074073 30:-0.051938608 31:0.47838348 32:-1.1803396 33:-0.19662596 34:-0.073544055 35:0.39920321 36:-1.1239947 37:-0.23859698 38:-0.70162547 39:1.4465601 40:-1.244445 41:0.15435898 42:-0.81383026 43:-0.17429988 44:0.74289632 45:0.097517759 46:0.33445105 47:-1.0724705 48:-0.28151926 49:-0.31842789 50:-0.53333789 51:1.6298736 52:-0.86052769 53:0.34362707 54:-0.090115786 55:-0.86555815 56:0.36127201 57:-0.29015365 58:0.81010276 59:0.6461091 60:0.43645355 61:-0.76109099 62:-0.12503536 63:0.69204634 64:1.3415589 65:1.6210269 66:0.0070958161 67:-0.38550141 68:1.3177738 69:0.1266482 70:-0.53039134 71:1.137038 72:-0.44639775 73:-0.38279086 74:-1.2494153 75:0.78660977 76:-0.010142018 77:0.47890946 78:0.32252619 79:-0.73102331 80:0.24506766 81:-0.61948025 82:0.44706571 83:-0.95453608 84:0.09540125 85:-0.85418373 86:-0.22155175 87:-0.4960013 88:0.96448147 89:0.12252271 90:4.3483934 91:2.7019029 92:0.30638069 93:-1.0918212 94:0.90119749 95:1.4928089 96:-1.0509853 97:-0.21141025 98:0.42228225 99:0.17702816 100:0.49238917 101:0.071759641 102:0.11421937 103:0.54183817 104:-0.43775219 105:-0.31411201 106:-0.24903989 107:-0.9011609 108:0.44015723 109:-0.26724008 110:-0.91933179 111:-0.41600737 112:1.5807821 113:-0.010516713 114:-0.19675961 115:0.015660042 116:-0.61895198 117:0.36600465 118:-0.038696516 119:0.15468013 120:0.23992461 121:-0.59300977 122:-0.0033302084 123:2.2555418 124:0.23109099 125:0.36248976 126:0.4703972 127:-0.13528931 128:0.89718103 129:-0.018426383 130:-0.48411372 131:0.051383648 132:-0.45967808 133:0.31719366 134:1.35276 135:0.63065505 136:0.91026121 137:0.85817391 138:0.72070628 139:-0.42633173 140:0.48406187 141:-0.05830726 142:0.096523456 143:-1.5993558 144:0.45294628 145:-1.1247557 146:0.012755408 147:0.037306808 148:0.29446769 149:-0.4125008 150:0.47666699 151:-0.32539156 152:-0.10761986 153:-0.30385134 154:0.77557033 155:-0.29722771 156:-0.11485513 157:-0.15414526 158:-0.22980712 159:-0.45864937 160:0.22182105 161:1.450794 162:0.34670618 163:1.4360653 164:0.2601791 165:-1.4024616 166:-0.071050167 167:0.4755865 168:0.053376831 169:-0.24212943 170:-0.14995928 171:-0.085220985 172:0.3427338 173:-0.11942445 174:-0.7777763 175:-0.049434662 176:0.026308518 177:-0.49481064 178:0.40843919 179:-0.28399423 180:0.51872659 181:-0.25171894 182:0.097161926 183:0.12938052 184:0.068066172 185:-0.64855361 186:0.56417537 187:0.30198002 188:-0.096734636 189:0.79629081 190:-0.038907945 191:0.033343941 192:0.47391334 193:-0.12826529 194:0.055293661 195:0.088835016 196:-0.044903092 197:-0.66817021 198:0.52773106 199:-0.29194313 
0.3114601114400307 0:-0.094619967 1:-0.069514923 2:-0.071869999 3:-0.29421693 4:0.2878828 5:-0.21873234 6:0.64878088 7:-0.63322538 8:1.5486844 9:0.77985382 10:0.040657554 11:-0.022714632 12:-0.081716865 13:0.045296427 14:0.86335087 15:-0.049267769 16:1.5043309 17:0.58047223 18:1.066543 19:-0.45548493 20:0.12566826 21:-0.016327865 22:0.92891967 23:0.21154018 24:-0.28153077 25:-1.0012203 26:0.68312514 27:1.4639369 28:0.28915638 29:0.79744804 30:0.56322688 31:1.4529178 32:0.51537502 33:-0.15007684 34:1.0609875 35:-0.43880296 36:-0.59979188 37:0.0037277895 38:0.96434575 39:0.98376465 40:-0.59043437 41:0.29662901 42:-1.1812909 43:-0.32056084 44:1.2238721 45:-0.19965366 46:-0.53475416 47:0.21082324 48:-0.19775154 49:0.54377151 50:-0.21481065 51:0.7045089 52:0.092102088 53:0.20078954 54:0.022518521 55:0.0090923645 56:-0.60275984 57:-0.46028027 58:1.1826456 59:0.40765199 60:0.10690135 61:0.84086668 62:1.3591725 63:0.024549112 64:0.93020755 65:0.14416392 66:0.065799363 67:1.3372924 68:-0.7720235 69:-0.80776751 70:-0.10999491 71:0.61386108 72:-0.20767078 73:-0.45204854 74:0.71132046 75:0.36533105 76:-0.35991627 77:0.75578183 78:0.49299404 79:0.056847125 80:0.33206072 81:0.59656322 82:-0.084110007 83:0.20452046 84:0.68024129 85:1.8113905 86:-0.086382724 87:-0.67694676 88:0.33017144 89:0.36888668 90:0.054984283 91:0.16493683 92:1.9265395 93:1.8066448 94:-1.181204 95:-0.25755501 96:0.25318757 97:1.8081584 98:0.71214503 99:0.19429335 100:0.17722179 101:0.46727997 102:-0.047652248 103:-0.21874601 104:-0.10985702 105:-0.99924552 106:-0.48817268 107:0.37388372 108:0.29389507 109:1.7680372 110:0.6747874 111:-0.014513626 112:0.43362162 113:-0.89584392 114:0.070570074 115:0.10603136 116:-0.022001417 117:0.36500487 118:-0.070669964 119:0.97473496 120:-0.72210187 121:-0.023840088 122:-0.042814404 123:0.12939686 124:0.5226981 125:0.36265934 126:0.76541817 127:0.67209446 128:0.18495271 129:0.072240278 130:0.1387133 131:0.43238088 132:0.4119122 133:-0.99094123 134:1.2799178 135:0.17627913 136:0.20536225 137:1.0791144 138:0.59115243 139:0.22454001 140:-0.57856911 141:0.057451319 142:-0.040471658 143:0.99212343 144:0.75991088 145:-0.65567636 146:-0.0075333957 147:0.20880938 148:-0.37444022 149:0.018697271 150:-0.00014564319 151:0.2883648 152:-0.51113242 153:0.1767862 154:0.55599213 155:0.093559831 156:-0.073702134 157:0.080900058 158:0.24560149 159:1.4811708 160:0.70248908 161:-0.18865255 162:-0.38213465 163:0.016542885 164:0.49256793 165:-0.47163454 166:0.0061836033 167:-0.15896104 168:0.28700367 169:0.18959227 170:-0.27499759 171:0.10194314 172:0.37137711 173:0.51570535 174:-0.48185223 175:0.21972401 176:-0.089997098 177:-0.23456681 178:-0.057212371 179:0.069978841 180:-0.2964831 181:-0.1089696 182:0.14995904 183:0.74872136 184:0.45959023 185:-0.56925577 186:0.48331144 187:-0.5912798 188:0.20901309 189:0.96787912 190:-0.49434799 191:-0.12827238 192:-0.28572357 193:-0.10093262 194:0.12289862 195:-0.054543033 196:0.14403801 197:1.0283699 198:0.48529896 199:0.51713532 
