svm_type c_svc
kernel_type rbf
gamma 0.00502513
nr_class 2
total_sv 70
rho -1.06679
label 1 -1
nr_sv 58 12
SV
0.443612760417061 0:1.050608 1:1.5231428 2:1.5738463 3:-0.44541359 4:-0.68647689 5:-1.9783732 6:0.065873086 7:-0.30629784 8:0.056576412 9:-0.34773043 10:-1.1379391 11:-0.56331474 12:-0.72330648 13:-0.42489964 14:0.24639742 15:-1.1123792 16:0.28937674 17:0.053899474 18:-0.83561265 19:-0.15555276 20:-0.17720972 21:0.69292927 22:-1.0299085 23:-0.0052130874 24:0.40023199 25:1.0173968 26:-0.54357922 27:-0.5699721 28:-0.99992228 29:-0.62269449 30:-0.4139131 31:0.094268084 32:-0.053621382 33:-0.20761967 34:-0.45762759 35:-0.089290485 36:-0.63975585 37:-0.4874348 38:0.55798978 39:-0.12737378 40:-1.2220086 41:-0.40008327 42:-0.60685301 43:-0.20161943 44:-0.68719089 45:-0.41774839 46:0.30186948 47:-0.14571935 48:-0.052836906 49:-0.057804234 50:-0.044686429 51:0.35465005 52:0.12898245 53:-0.2853654 54:0.82611555 55:-0.44637641 56:-0.62232763 57:-0.48810855 58:0.53086656 59:-0.61861151 60:-0.45371881 61:0.41294998 62:-0.35552791 63:-0.64186943 64:0.038482431 65:-1.2435316 66:-0.33357626 67:0.040952604 68:0.60115218 69:0.084045805 70:-0.70220685 71:-0.53925067 72:-0.68530178 73:-0.26991063 74:-0.76445925 75:-0.52829832 76:0.78897214 77:-0.34058568 78:-0.5058285 79:0.14048687 80:-0.48234296 81:0.78920919 82:-0.89132971 83:1.5570339 84:0.52391386 85:-0.72629952 86:-0.51490712 87:-0.86821485 88:0.10802249 89:-0.63867629 90:-0.011972981 91:-0.36321151 92:-1.0875591 93:1.1920831 94:-0.40716326 95:-0.42151284 96:-0.023851231 97:0.31384805 98:-0.88514709 99:-0.62618273 100:-1.1610562 101:-0.47909516 102:0.80748016 103:-1.0268209 104:1.7846409 105:-1.0735548 106:-0.60401863 107:-0.59066367 108:-0.58865982 109:-0.42972341 110:0.26281834 111:-0.96945298 112:0.27203864 113:0.97302485 114:-0.31010491 115:-0.13677853 116:-0.33666307 117:0.050850321 118:-0.25519639 119:0.87668276 120:-0.36677831 121:-0.85286766 122:-0.3515031 123:-0.31711188 124:0.9941467 125:-0.18485528 126:-0.039930061 127:-1.0120207 128:-0.63754553 129:-0.27475828 130:-0.19432248 131:0.34671107 132:-0.67845023 133:0.21755628 134:-1.4835185 135:1.2581031 136:-1.2266699 137:-1.6078038 138:0.19998097 139:0.3736473 140:-0.33171517 141:-0.64528495 142:-0.51696372 143:0.043875422 144:0.098377675 145:0.043043453 146:-0.49416777 147:-0.715195 148:-0.34664002 149:-0.11575701 150:-0.94240475 151:-1.2659738 152:-1.1671757 153:-0.4074195 154:1.2459511 155:0.0028205493 156:-1.2569312 157:-0.86925548 158:-0.65398633 159:0.64577085 160:0.50112969 161:0.11523938 162:0.6511662 163:2.3256297 164:0.40263095 165:-0.65564603 166:0.17921814 167:-0.76931161 168:1.4357425 169:-0.66183984 170:0.62670553 171:-0.96140897 172:-0.34070155 173:-1.0112429 174:-0.12556848 175:0.02520304 176:-0.54576397 177:0.23240288 178:-0.15376194 179:-0.80386472 180:-0.71029997 181:0.58685368 182:-1.0322379 183:-1.1319882 184:-0.40163228 185:-0.21194611 186:-1.0060886 187:-0.23167102 188:-2.1690254 189:0.75284892 190:-0.18985435 191:-0.5015021 192:-1.065078 193:0.2557382 194:-0.86767966 195:-0.15926091 196:-0.92351979 197:0.086491294 198:-0.64513379 199:0.13820569 
0.2224151739012109 0:0.0078726886 1:0.093377136 2:-1.4973376 3:3.9896278 4:6.4562755 5:3.4952877 6:-0.24984542 7:-1.1240413 8:-0.72507614 9:-0.32704571 10:-0.55069786 11:0.043224748 12:-0.1001203 13:-0.64963913 14:-0.7598865 15:0.21791565 16:-0.9952901 17:-0.64322144 18:-1.2192004 19:-1.3335503 20:-1.2308534 21:0.73828351 22:1.2083638 23:-0.28939304 24:-0.96181995 25:-1.585474 26:-0.09032584 27:-0.80728346 28:-1.3310689 29:-0.77033633 30:-2.3144574 31:-1.3161523 32:1.5909323 33:-0.087427527 34:-1.3896554 35:0.15009037 36:-1.645103 37:-0.11783346 38:0.91895181 39:-2.0427232 40:-1.0443162 41:-1.8692126 42:-0.63398606 43:-0.90583289 44:0.20045915 45:-0.68179065 46:-0.62643284 47:-0.30124402 48:-0.70648837 49:-1.4116232 50:0.81461805 51:-1.2718071 52:0.0022352997 53:-1.5942762 54:-0.84591228 55:-0.45774189 56:-0.62730384 57:-1.0588303 58:0.317857 59:0.45258704 60:-0.24103463 61:-1.7930751 62:-1.3020409 63:-1.1809231 64:0.55273104 65:-1.0040427 66:0.65970218 67:-1.8703744 68:-2.1879406 69:0.1014597 70:-2.1280563 71:0.33076122 72:-1.8100405 73:-0.24654579 74:-0.096092038 75:-0.41594708 76:-1.1878592 77:0.077641726 78:-1.0200359 79:0.27801007 80:-0.40981111 81:-0.39270484 82:-1.0313163 83:-1.2470726 84:-1.0927249 85:-0.21792471 86:-0.1791365 87:-0.64776516 88:-0.1874025 89:-0.11854902 90:1.0176164 91:-0.22074614 92:-0.30370665 93:1.053988 94:-1.6907895 95:-0.61476034 96:-1.5372338 97:-0.4134438 98:1.5711724 99:-1.4500065 100:-1.0212023 101:-0.98093444 102:-1.089468 103:0.74812031 104:-1.0776674 105:-1.3260709 106:-0.027882375 107:-0.03137688 108:-0.27261159 109:-2.3510318 110:0.29485232 111:-1.0142431 112:-2.0053532 113:-0.9888168 114:0.066275984 115:-0.90332735 116:0.071111068 117:0.17132536 118:-0.65632164 119:0.59714299 120:0.4261384 121:0.92564684 122:-0.23162174 123:-0.69933742 124:-0.55909783 125:0.46628764 126:-1.2211097 127:-0.90585941 128:-1.9582287 129:-0.07449358 130:-0.60310298 131:-0.18241441 132:-2.4604278 133:0.84871918 134:-0.38345912 135:1.4631287 136:0.52599794 137:-0.46853328 138:1.4190855 139:0.35287541 140:0.046917923 141:0.5354203 142:1.50032 143:0.69939333 144:-0.30975682 145:-0.41055158 146:-1.05181 147:0.2989023 148:-1.014979 149:-0.60751516 150:0.55355257 151:-0.045612786 152:-0.7697832 153:0.68958735 154:-0.10341231 155:-1.2856268 156:1.5567431 157:-1.4580278 158:-1.8267281 159:0.7059285 160:0.68674636 161:0.028380239 162:0.3608627 163:-1.1988908 164:0.52437234 165:-1.1051419 166:-1.0137751 167:-1.4702795 168:0.5143863 169:-0.48904788 170:0.45426258 171:-2.0271313 172:-0.17007008 173:-0.42092052 174:-0.26762727 175:0.16797253 176:0.045977525 177:0.0019835441 178:0.048286669 179:-1.8117435 180:-1.3259612 181:-0.28393659 182:-1.4280765 183:-2.3600841 184:-0.13277815 185:-1.2922071 186:-0.26503551 187:-0.055315629 188:0.7409997 189:-1.7011501 190:1.0119972 191:2.6811011 192:-1.3801799 193:-1.8111643 194:-2.1708927 195:-0.021723833 196:0.83912045 197:-0.12686901 198:-0.1162004 199:0.18191238 
0.07220589494085962 0:-0.52588665 1:0.15384881 2:-0.61952615 3:0.63722765 4:0.23379497 5:-0.19722199 6:3.3423698 7:7.6362991 8:2.6595821 9:0.54380149 10:0.29758704 11:-0.59682882 12:-0.60594809 13:0.097676262 14:0.35763526 15:1.1544431 16:0.20610923 17:0.77542257 18:-0.11248235 19:-0.014515956 20:-0.41645443 21:0.068730943 22:2.020448 23:1.138153 24:-0.15792875 25:0.32963073 26:0.8917225 27:1.0794224 28:0.067329839 29:-0.20077285 30:0.5383957 31:-0.30465302 32:0.29487675 33:-0.066813298 34:0.17040055 35:0.64042449 36:0.37730852 37:0.40881628 38:-0.17749788 39:1.0239555 40:0.12966962 41:1.07837 42:-0.56187427 43:0.34657067 44:0.46593431 45:-0.42027935 46:-0.20230354 47:0.087413646 48:0.86315036 49:0.48458967 50:-0.53588313 51:1.1017984 52:-0.0010044702 53:0.81993157 54:-0.78838247 55:-0.18930222 56:-1.0965054 57:1.9788831 58:-0.39950925 59:-0.035592578 60:-0.084744081 61:0.24165173 62:0.51636595 63:1.2588124 64:-0.48534554 65:0.73716742 66:-0.17353147 67:-0.14716886 68:-0.27328351 69:-0.36917722 70:1.7349136 71:-0.1360136 72:-0.069100514 73:-0.21294047 74:-0.10706791 75:-0.80266595 76:-1.0277525 77:0.079144262 78:1.0668242 79:0.13090529 80:-0.1235301 81:0.18244071 82:0.83861643 83:0.44512603 84:0.94295347 85:0.35277861 86:-0.10743395 87:0.79644221 88:-0.13935818 89:-0.27746224 90:0.029978069 91:-0.27587241 92:0.38469878 93:0.4260821 94:0.80490482 95:0.6402685 96:1.4828982 97:-0.24034415 98:0.49013069 99:-0.7917251 100:-0.65129888 101:-0.032547735 102:0.095392704 103:1.1731153 104:-0.37430713 105:-0.37891865 106:0.14201047 107:-0.22992417 108:-0.24627778 109:0.58296394 110:-0.53356403 111:0.17433019 112:0.046224225 113:0.82236516 114:0.20612922 115:0.078610301 116:0.062181409 117:0.49665648 118:0.2321571 119:0.39805037 120:-0.31354254 121:-0.50117081 122:0.43335429 123:-0.17628129 124:0.72037691 125:0.40388229 126:0.75306022 127:0.84540874 128:1.9274645 129:0.92374057 130:0.10408645 131:1.0516489 132:0.4759931 133:1.1747465 134:-0.48677626 135:-0.66008145 136:-0.18026271 137:0.0044776755 138:-0.36007437 139:-0.57035649 140:-0.21664222 141:-0.44634601 142:1.5861336 143:0.37647095 144:0.46728316 145:0.47072536 146:-0.23382075 147:-0.27550742 148:0.10812452 149:-0.65087491 150:-0.51433951 151:0.48657861 152:0.4510811 153:0.033283107 154:-0.17691533 155:0.69360185 156:-0.3262119 157:-0.69975317 158:-0.65809619 159:1.8275436 160:0.8573609 161:0.63346702 162:0.77031243 163:0.81543726 164:0.46590486 165:-0.40990821 166:-0.57822978 167:0.82252741 168:-0.092908487 169:0.026240358 170:-0.43051955 171:0.53553021 172:-0.21774356 173:0.45404094 174:-0.12625615 175:0.55682546 176:0.16841459 177:0.015497331 178:0.016554225 179:0.34978655 180:0.5334872 181:-0.11408639 182:0.95727855 183:0.94216156 184:-0.45781273 185:0.2397006 186:-0.55988294 187:-0.22282052 188:-0.070975557 189:-0.14117372 190:-0.443257 191:-0.40433952 192:1.6273739 193:0.1876936 194:1.3316776 195:-0.12643442 196:0.69400352 197:-0.49674469 198:-0.065390825 199:-0.16480854 
0.2201001458120773 0:0.95615077 1:-0.82145476 2:-0.6467014 3:-1.2856288 4:-0.59967488 5:0.62580669 6:-1.2518837 7:-0.71460605 8:-0.26936263 9:7.10813 10:4.9695835 11:0.73836416 12:-0.18600549 13:2.3087904 14:-1.1211371 15:-1.1381363 16:-1.7253902 17:0.21239929 18:0.13260746 19:-0.66626382 20:-0.54713333 21:-0.88850754 22:0.38878503 23:-2.2260196 24:-0.73083872 25:-0.30552557 26:-0.35147628 27:0.50277394 28:1.4654438 29:0.6682086 30:-1.6529925 31:-0.08516138 32:0.16992135 33:0.32401481 34:-0.80215997 35:-0.025759511 36:-2.0486157 37:0.6479786 38:0.75930214 39:-0.62103319 40:0.68662226 41:-0.59629399 42:0.14646156 43:0.11118721 44:0.28972974 45:-0.49978876 46:0.10756347 47:0.15367655 48:0.81085777 49:-0.33829975 50:-0.78522468 51:0.52108884 52:0.43357742 53:-1.0499244 54:0.65278476 55:1.4638989 56:-0.67540878 57:-1.5276413 58:-1.4141467 59:-1.4135755 60:0.4803375 61:0.40898794 62:-0.46438757 63:-0.4465299 64:0.0020576871 65:1.1120617 66:0.18606436 67:-0.4807626 68:-0.0052861455 69:0.27645248 70:0.17918898 71:0.37751222 72:-0.079587951 73:0.27189997 74:0.43583438 75:-0.10606806 76:-0.48109397 77:1.1377757 78:-0.24918188 79:0.53625274 80:0.40999362 81:0.91754186 82:-0.50261468 83:1.2058371 84:-1.3269837 85:0.57845992 86:-0.64713186 87:-0.050909411 88:-0.80155635 89:0.62879235 90:-0.1613732 91:0.14740264 92:0.46506426 93:-0.13527346 94:-0.95189899 95:-0.43183237 96:-1.1849687 97:-0.79525632 98:1.0042412 99:-0.691158 100:0.65513897 101:0.15656573 102:0.14225659 103:-0.068014815 104:0.48105091 105:0.46595234 106:-0.93876135 107:-0.44083124 108:0.76771557 109:-1.3624779 110:-1.3269842 111:-0.37933329 112:-0.10207148 113:0.81730855 114:0.37817731 115:-0.77510846 116:0.46443737 117:-0.78039771 118:0.07921169 119:-0.63561267 120:-0.36501181 121:-0.87689191 122:0.5116998 123:-0.44874212 124:-0.029928531 125:0.28892842 126:0.7399345 127:1.4986717 128:-0.45294014 129:-0.26775208 130:-0.17682801 131:-0.50150061 132:-0.61377919 133:-0.25974789 134:0.9927206 135:0.13773707 136:0.68648863 137:0.44213963 138:-0.38061112 139:0.44172165 140:0.47680655 141:-1.0045286 142:-1.5287436 143:-0.033009611 144:-0.30959651 145:0.26706913 146:0.12615685 147:-0.84867835 148:0.1742676 149:-1.0488992 150:0.66664958 151:-0.5624733 152:1.2161436 153:0.50247592 154:-0.77392453 155:-1.6333346 156:-0.87695241 157:-1.4011728 158:-1.071414 159:0.11831533 160:-0.60866052 161:0.025600288 162:-0.49821529 163:-0.014664403 164:-0.83088911 165:0.082686685 166:0.058150958 167:-0.016531313 168:-0.79314464 169:-0.47855839 170:0.63670188 171:-0.46785462 172:-0.75460005 173:0.55896884 174:0.1947068 175:0.26699892 176:0.45626897 177:0.38356605 178:0.44532132 179:0.26310891 180:-0.12829652 181:0.10134365 182:-0.61871326 183:-0.99179393 184:0.33629119 185:-0.76169181 186:-0.76245457 187:0.36852646 188:0.4785381 189:-0.30059263 190:-0.051610641 191:-0.37761697 192:0.3871226 193:-0.64680803 194:-0.42735264 195:0.29803005 196:0.35063693 197:-1.3672225 198:0.24438697 199:0.40313971 
0.2256743151268147 0:-1.3195941 1:0.076677218 2:-1.0341229 3:0.69797361 4:-1.2387114 5:-0.13245364 6:-1.5040998 7:-0.20272738 8:3.0526357 9:0.18566667 10:-0.89190668 11:-0.51531583 12:2.994112 13:2.4506738 14:2.4789076 15:-0.0001577589 16:0.24987221 17:0.85843951 18:-0.85452169 19:-0.72077376 20:-1.4844805 21:0.43082961 22:-0.72664493 23:0.28554496 24:0.47904697 25:-1.2320938 26:-0.70942616 27:0.10500289 28:2.3654876 29:-0.081210926 30:-1.3645716 31:-0.26209989 32:-1.5347333 33:-0.63674909 34:-0.78893447 35:-0.37957358 36:0.011829577 37:-1.3910317 38:-0.62326711 39:0.23112538 40:-0.89012498 41:-0.99337578 42:-0.32402614 43:-0.29420391 44:-0.40175185 45:0.20503595 46:-0.37421644 47:-0.42787895 48:0.15480651 49:-0.368727 50:-0.19323154 51:-1.3677577 52:-0.5154205 53:-0.30900207 54:-0.74291676 55:0.33657658 56:-0.089055993 57:0.12535353 58:-0.28195667 59:0.40987372 60:-0.19325784 61:-0.13284041 62:-0.20398091 63:-0.55378079 64:0.19121082 65:-0.18804765 66:-0.97093809 67:-0.89156586 68:-0.46169499 69:-0.26969129 70:0.35462552 71:-0.3745591 72:-0.85359204 73:-0.49271774 74:-0.25878993 75:0.21403223 76:0.35938472 77:0.43321726 78:0.15280463 79:-0.92840749 80:-0.60854018 81:-0.46230501 82:-0.53075022 83:-0.83536857 84:0.14393786 85:-0.18894653 86:-1.6742109 87:0.30205765 88:-0.094730109 89:0.0082123829 90:0.9112556 91:0.17655174 92:-0.52600336 93:-1.4031216 94:-1.0409887 95:0.15401323 96:-0.42145216 97:-0.30807537 98:-1.1098765 99:0.21019952 100:-0.96356994 101:1.2803317 102:-0.067781672 103:-0.45699233 104:-0.95175964 105:0.1603037 106:-0.71349418 107:0.018090334 108:-0.19233593 109:-1.0927817 110:-1.7121288 111:-1.9037484 112:2.3127298 113:-1.2330035 114:-0.31201681 115:0.2896449 116:-0.72483814 117:-0.70168251 118:0.042338196 119:0.1258709 120:-0.097985581 121:-0.8242768 122:-0.68676323 123:1.202665 124:1.1196268 125:0.084900849 126:-1.2572367 127:0.19909781 128:-0.69162345 129:0.036308952 130:0.76513046 131:-0.10620455 132:-0.73513907 133:-1.6819394 134:-0.91667002 135:-0.055477753 136:-0.1339304 137:-1.3647872 138:-1.2916672 139:-1.1425986 140:-1.4945155 141:0.023724277 142:-1.0578434 143:-0.61354554 144:-0.0094018895 145:-0.77558875 146:-1.0637531 147:-0.56357795 148:-0.20012757 149:-0.56896764 150:1.9908849 151:-0.37991664 152:-0.52324867 153:-0.60346454 154:0.2895273 155:-0.54258156 156:0.33695993 157:-1.4624149 158:-1.1498454 159:-0.96653301 160:-0.99622315 161:1.2783552 162:-0.41004521 163:-0.66337222 164:1.1676488 165:0.41592059 166:1.1826097 167:-1.0855814 168:0.41148007 169:0.49776596 170:-0.9727143 171:-1.1860282 172:-0.75257504 173:-0.57799351 174:-0.044313435 175:-1.1727247 176:-1.3332351 177:-0.59051108 178:-0.83488619 179:0.13138045 180:-0.93480402 181:-1.1950428 182:-0.26744309 183:-0.83060002 184:-0.24553478 185:-0.19732963 186:-0.22509582 187:-0.026800258 188:-0.97206283 189:0.37057397 190:-1.0471694 191:-0.53405881 192:-0.75545758 193:-2.5017517 194:-0.09606605 195:-0.83544707 196:-0.24798971 197:-0.38316405 198:-0.78819716 199:-0.66860688 
0.1609030596637964 0:0.42461729 1:0.46066153 2:1.5017147 3:0.99118191 4:0.5278042 5:0.11473921 6:-1.3350732 7:-0.19967891 8:1.2466727 9:0.094139844 10:-0.18098734 11:0.54251385 12:0.47082978 13:-0.094272152 14:0.32597619 15:4.8821764 16:3.5234931 17:3.8017566 18:1.2700859 19:1.3628508 20:-0.036355246 21:0.033734854 22:0.055769771 23:-0.55432689 24:0.5170821 25:-0.020150406 26:0.22119109 27:0.49468201 28:1.2276033 29:-0.27179581 30:-0.60049337 31:-0.23343778 32:1.6386086 33:0.69440818 34:0.34861392 35:0.088409655 36:0.024954678 37:0.61928308 38:0.82625222 39:0.31087053 40:0.3799099 41:-0.064143211 42:-0.53338647 43:0.23567162 44:0.57126075 45:-0.00083127077 46:0.66047364 47:0.6126399 48:0.57359636 49:-0.078823954 50:-0.5967015 51:0.17492382 52:0.62377596 53:1.0238587 54:0.347054 55:-0.39275372 56:-0.44234866 57:0.3319613 58:1.8257514 59:1.7915117 60:0.63167024 61:1.7352723 62:-0.23394132 63:-0.45707312 64:0.9712038 65:0.77309006 66:-0.29592511 67:0.78775781 68:0.71338701 69:0.62194455 70:-0.58004731 71:0.63700509 72:1.8142464 73:0.70445657 74:0.74155861 75:0.97831827 76:0.3181158 77:1.0392333 78:0.53551823 79:0.5113492 80:0.73687112 81:-0.51613212 82:0.48959428 83:-1.305588 84:1.2955906 85:0.52147675 86:0.75636381 87:-0.50304681 88:0.066648245 89:0.72327107 90:0.042888857 91:0.080682032 92:0.69400358 93:1.3778468 94:0.39472765 95:-0.51065797 96:-0.56595564 97:2.2411213 98:0.27279142 99:0.0091325678 100:0.62040782 101:0.83567148 102:0.024683435 103:-0.29983804 104:1.5710595 105:1.2043393 106:-0.39613774 107:0.65968895 108:0.49030444 109:-0.50331444 110:-0.64635968 111:0.99880856 112:0.63127524 113:0.019789755 114:0.67477036 115:0.8373332 116:0.68524593 117:0.54521984 118:0.66359019 119:-0.95806557 120:0.83810347 121:0.25871199 122:0.64499366 123:0.13375415 124:1.1325636 125:0.88508499 126:-0.34934115 127:0.98038876 128:-0.72019452 129:0.71062201 130:0.048952006 131:0.69621593 132:0.15476336 133:0.47364458 134:0.54054922 135:0.3794786 136:0.31090483 137:0.60099441 138:-1.0669752 139:0.09754952 140:0.85488248 141:0.15769157 142:-0.81778979 143:0.39582595 144:0.0336526 145:-0.1682049 146:0.77728212 147:-0.60120279 148:1.4621054 149:0.4033584 150:-0.50099295 151:0.38918057 152:0.043426976 153:-0.51084119 154:0.0013840602 155:1.896481 156:0.26914924 157:-1.3064208 158:-0.76381904 159:-0.23190404 160:-0.21489169 161:1.3726603 162:0.14739308 163:-0.071151823 164:0.71637493 165:-0.39083776 166:-0.45481822 167:-0.027883124 168:1.2222968 169:1.309116 170:1.3628887 171:2.6552112 172:0.61373961 173:0.57123125 174:0.70094168 175:-0.042892341 176:0.70177931 177:0.66736984 178:0.66525805 179:0.47984231 180:0.41520995 181:1.0024186 182:0.8856582 183:0.012284554 184:0.60653776 185:1.3750325 186:0.97417074 187:0.69035214 188:1.0706244 189:2.0340707 190:0.31418908 191:-0.8087154 192:-0.051750872 193:-0.33858877 194:0.73714352 195:0.65764868 196:0.65912443 197:-0.90473294 198:0.51604795 199:0.79327267 
0.1213255126290249 0:0.80543435 1:0.24920344 2:-0.317222 3:-0.47455513 4:0.12247734 5:0.47752291 6:0.78239787 7:0.205816 8:1.2581362 9:0.031265508 10:0.28353873 11:0.74200231 12:-0.23094778 13:-0.19796713 14:-1.0515659 15:0.16674761 16:-0.23345903 17:1.0184424 18:5.1756325 19:1.5248466 20:3.366308 21:0.12066897 22:-0.19906734 23:0.67460245 24:0.92106962 25:-0.37161598 26:1.2953233 27:0.27795628 28:1.0481334 29:-0.19078408 30:0.81736916 31:0.066424042 32:0.15043814 33:0.56968725 34:1.916537 35:0.049279593 36:0.56980044 37:0.85113281 38:0.080898248 39:-0.68962449 40:1.4584504 41:0.67127746 42:0.51564962 43:-0.15808159 44:0.46444485 45:0.82535899 46:0.50041348 47:0.49672151 48:0.36665264 49:1.1593891 50:-0.22400491 51:0.37466389 52:0.42863995 53:0.94695461 54:0.34167603 55:0.21166727 56:-0.16782449 57:1.3644236 58:-0.13604134 59:-0.89133573 60:0.60908759 61:0.5502761 62:0.14317989 63:0.6446144 64:-0.415916 65:1.8090858 66:-0.40669435 67:-0.034312502 68:-0.16965462 69:0.6472255 70:0.31703988 71:0.58392787 72:-0.346416 73:0.5495677 74:0.81003392 75:0.29915437 76:0.84336895 77:2.1831541 78:-0.70406038 79:0.33364373 80:0.69699055 81:0.55705291 82:1.6198913 83:-0.12120137 84:-1.0737983 85:0.65426803 86:-0.1312331 87:2.6781559 88:-0.035451125 89:1.0695865 90:-0.36765093 91:-0.56654906 92:0.64225549 93:-0.65578634 94:-0.14872234 95:-0.15460171 96:-0.5432058 97:0.23819339 98:0.58272105 99:-1.2729647 100:1.1343304 101:0.38004103 102:0.06817276 103:-0.80248779 104:0.69707239 105:0.42043868 106:-0.15590245 107:-0.37438229 108:0.85313058 109:0.99465191 110:-0.75477391 111:0.15963373 112:0.64898515 113:0.055425644 114:0.62966681 115:1.758641 116:0.5141961 117:-0.6910997 118:0.55624592 119:0.55651569 120:-0.067284815 121:-0.66467232 122:0.53623956 123:0.65393275 124:0.62676215 125:0.53997564 126:0.92106462 127:0.75877523 128:-0.27928823 129:0.0067395447 130:-0.33647862 131:-0.50551754 132:1.2100143 133:0.13584219 134:1.1321075 135:0.76570064 136:1.0435282 137:0.39646941 138:0.23150238 139:1.0074073 140:0.49476722 141:-0.17577256 142:-1.2818408 143:-0.28700122 144:0.18293612 145:0.27359864 146:0.18734324 147:-0.23738478 148:-0.1202915 149:-0.36738497 150:-0.3419652 151:0.22223967 152:1.0228943 153:0.46524063 154:-0.44491279 155:0.23583758 156:-0.91312623 157:-0.45689893 158:-0.87704694 159:-0.41720435 160:-0.47461575 161:0.8577916 162:0.24227887 163:-0.59932041 164:-0.88712627 165:1.268402 166:0.60070598 167:0.8250342 168:-0.16395228 169:-0.64809167 170:-1.172769 171:-0.17191468 172:-0.19868702 173:0.74760789 174:0.59198731 175:0.8455317 176:0.55257857 177:0.53782588 178:0.57880819 179:0.33691007 180:0.18663895 181:0.33931851 182:1.178845 183:-0.2650817 184:0.53186011 185:-0.13343449 186:2.0149441 187:0.51508343 188:0.44566911 189:0.30100965 190:-0.21419346 191:-0.27299491 192:0.51475328 193:0.074679151 194:-0.25857472 195:0.45305663 196:-0.31868798 197:1.4437847 198:0.36798719 199:0.59210968 
0.08995842079921203 0:-1.2424059 1:0.52406979 2:-0.90577847 3:-1.3310072 4:-1.0249465 5:-1.0522835 6:-1.980793 7:-0.077705808 8:1.6262952 9:0.57468551 10:-0.37636733 11:0.081012592 12:0.38985232 13:1.3571165 14:1.0227486 15:-0.30506095 16:0.96080083 17:-0.60560638 18:-1.7764926 19:-1.4097927 20:-0.08355061 21:3.9670596 22:5.1517706 23:5.2315788 24:1.0296117 25:-1.3478069 26:0.21993542 27:-0.77928531 28:0.88910371 29:0.15037385 30:-0.81819624 31:-0.063563116 32:-0.17926458 33:-0.055546578 34:-0.55386466 35:0.26427343 36:1.5675155 37:-0.68264395 38:0.25432318 39:-0.38513482 40:-0.61909515 41:0.19754837 42:-0.61426878 43:-0.67743856 44:-0.7045449 45:-0.4788073 46:0.30459002 47:0.24730194 48:-0.28346786 49:0.43264988 50:-1.0452299 51:-0.67747188 52:-0.13104799 53:-0.5919041 54:0.23382576 55:-0.53520054 56:0.62661988 57:1.1380053 58:-0.0077322517 59:-0.95819098 60:0.21300539 61:-0.04239599 62:-0.030668171 63:0.11009724 64:-0.20970273 65:-1.5192144 66:-0.71651268 67:-1.9028442 68:-0.14303237 69:0.34997156 70:-0.13314861 71:0.090798229 72:0.68290389 73:-0.033858988 74:0.20599243 75:0.34876224 76:-2.294997 77:1.1363193 78:1.1295117 79:-0.41894293 80:-0.46605945 81:0.15008271 82:-0.6854775 83:-0.84188753 84:-1.0067312 85:0.38270095 86:-1.7096916 87:-0.21234745 88:-0.89881879 89:-0.21629818 90:-0.63979596 91:1.0977134 92:0.16131586 93:0.23445493 94:-0.97817564 95:0.072718121 96:-1.2540416 97:-0.39874303 98:-1.5000436 99:-0.36349618 100:-1.5229234 101:0.36657646 102:-0.37444177 103:0.32929951 104:-2.9795818 105:-2.5155909 106:-1.1349977 107:-0.59184319 108:-0.1369783 109:-1.6272277 110:-0.68059891 111:-1.6660917 112:-0.76708269 113:-0.13036497 114:0.17403702 115:-0.94913995 116:-0.253306 117:-0.50729769 118:0.50337625 119:-0.65198314 120:-0.98833418 121:0.79478556 122:-0.47530562 123:-1.0775272 124:-0.33852503 125:0.037048128 126:0.28260192 127:-0.3627989 128:-1.2436157 129:-1.4160951 130:-0.58890563 131:-2.2147284 132:0.75478756 133:1.0944821 134:-1.4310583 135:-0.53109473 136:0.33334416 137:-1.599136 138:1.018375 139:-1.7574869 140:-1.7087436 141:-0.77774525 142:-0.11050392 143:-2.4971194 144:-0.59620929 145:-1.8127158 146:-1.3740851 147:-0.84609127 148:-1.3954208 149:-0.051153604 150:-1.0003432 151:-0.58438814 152:-0.83712256 153:-1.1514782 154:-0.81676841 155:0.7914589 156:-1.5852655 157:-0.61571819 158:-1.2284003 159:-0.058528524 160:0.18975143 161:-1.4547079 162:-0.66094756 163:-1.7919775 164:-0.066372313 165:-0.18858908 166:0.22102307 167:0.38413611 168:1.4531875 169:-0.90532368 170:1.6524106 171:1.2004223 172:0.58563632 173:-1.0348111 174:0.59431165 175:-2.2179012 176:-0.71321714 177:-0.061546948 178:-0.46179131 179:-1.6945978 180:0.38039842 181:-0.88990438 182:0.33669323 183:-0.017818321 184:0.13505 185:0.52172148 186:0.32125467 187:0.26483423 188:-1.2933999 189:-0.95409948 190:0.40122777 191:-0.26524642 192:-0.3060306 193:-2.1474044 194:1.6742668 195:0.040162187 196:-0.69164199 197:-0.81907344 198:-0.25262186 199:-0.057513215 
0.1242777087200018 0:-1.5003971 1:-0.42699474 2:-2.163372 3:-0.39213231 4:-0.11244292 5:-2.73262 6:-0.20073012 7:-0.019366227 8:-0.74253875 9:-1.3200797 10:-0.17139162 11:-3.7527764 12:-1.9375142 13:-1.3535661 14:-0.5062024 15:-0.11449646 16:0.65225601 17:-0.8870663 18:-1.6213496 19:-0.83385891 20:0.74247497 21:-0.97738367 22:-1.1562353 23:-0.80783278 24:2.4545417 25:3.4548166 26:7.0441737 27:-1.709584 28:-1.6273578 29:-0.73294044 30:-0.024898078 31:0.88148004 32:-0.67915422 33:-3.1350472 34:-1.4625344 35:0.21572699 36:0.52724391 37:-3.319366 38:-1.8619686 39:-1.2280306 40:-1.5518937 41:-0.29422766 42:-1.3985612 43:-0.15181597 44:-2.9938376 45:-0.66893148 46:-2.6507671 47:-2.7218359 48:-0.12162515 49:0.026204621 50:-1.2870648 51:0.87329638 52:-2.3392978 53:0.3407307 54:-3.3405819 55:0.18774061 56:-0.73886812 57:0.56439316 58:-1.1008333 59:-0.88733989 60:-3.2957458 61:-0.64889616 62:-0.54523253 63:-0.036350302 64:-1.4132411 65:-1.3324628 66:-1.4954896 67:0.18113188 68:-1.2888746 69:-3.7777917 70:-0.21805614 71:-3.3137152 72:-0.10482041 73:-2.9733427 74:-3.2251093 75:-1.7555254 76:-0.079223074 77:-1.2766412 78:-1.1525726 79:-2.5493944 80:-2.4227762 81:-0.37612155 82:0.35189706 83:-0.10720795 84:0.39477134 85:-2.7342775 86:-1.1683265 87:1.5227077 88:-1.2133908 89:-2.9558764 90:-0.73486263 91:-0.6499778 92:-3.4329336 93:-1.5023924 94:0.78804463 95:-0.20532957 96:0.26755279 97:-0.45617047 98:-2.6542218 99:0.72688943 100:-2.1538758 101:-0.71384299 102:-2.4845793 103:-0.97231048 104:-1.0173131 105:-0.97590452 106:-0.12425998 107:1.5530535 108:-3.9748909 109:-0.0063095451 110:0.38941112 111:-0.55869001 112:-1.9291941 113:-0.72690922 114:-3.0735762 115:-3.1315939 116:-2.2567978 117:0.20149079 118:-2.836951 119:-1.4692657 120:-0.10615513 121:-0.17601466 122:-2.7569466 123:-1.122051 124:-0.18951103 125:-1.1943812 126:-0.26612267 127:-0.26151198 128:0.28378716 129:-1.470793 130:-1.0811067 131:-0.50413454 132:-0.14302884 133:-1.0505332 134:-2.1801765 135:-0.64626008 136:-4.0442185 137:-1.234606 138:-0.73800832 139:-1.9018893 140:-1.7278185 141:-1.9809595 142:-2.0160484 143:0.26838288 144:-0.79257005 145:-1.4457453 146:-0.83297467 147:-1.1632485 148:-1.0156928 149:-0.70325118 150:-0.49201447 151:-1.3686368 152:-1.792274 153:-0.43268827 154:-0.12623321 155:0.85628039 156:-1.7315595 157:-0.60277671 158:-0.61303872 159:-1.0592582 160:-0.72724253 161:-0.40670106 162:-0.60009247 163:-0.48877472 164:-0.24557193 165:-0.13930823 166:-1.5517708 167:-0.73989993 168:-1.2991819 169:-1.1859533 170:-2.0799475 171:0.081195556 172:-0.27881673 173:-3.09148 174:-3.0339711 175:-0.49751577 176:-1.856703 177:-2.8680477 178:-3.0180643 179:-3.0250957 180:0.4761436 181:-0.62572473 182:-2.5380545 183:-0.33377394 184:-2.9527931 185:-0.0079278247 186:-2.0217803 187:-3.3195662 188:-4.3321052 189:-3.6765234 190:-1.1504773 191:-1.8793397 192:0.26332438 193:-0.1624001 194:0.65102524 195:-3.0130985 196:-0.92087585 197:-1.0886616 198:-2.443176 199:-2.6094077 
0.125954186726741 0:-1.2876701 1:0.034353968 2:0.66507792 3:-1.3563493 4:-0.14280227 5:-0.12914282 6:-0.34161812 7:-0.023923157 8:0.4501971 9:0.40014797 10:0.7383604 11:-0.26749033 12:0.23416084 13:-0.72946632 14:1.2456223 15:-1.2934834 16:-0.58380854 17:1.4848547 18:0.36739314 19:0.96641368 20:2.0420759 21:0.57072061 22:-0.80482018 23:-0.38026026 24:0.27922055 25:0.67359483 26:0.00063739507 27:2.7695637 28:0.79372209 29:7.8057208 30:-0.4207162 31:0.18566376 32:-1.0672964 33:-0.60166484 34:0.017107258 35:-0.44262159 36:-0.84986115 37:-1.0049411 38:-1.1928407 39:0.95922697 40:1.4020666 41:0.048304446 42:0.80963552 43:-0.52277416 44:-1.0954061 45:0.16353743 46:-0.71306598 47:-0.59922814 48:0.62561059 49:0.27504608 50:-0.010519362 51:-1.1825302 52:-0.76800936 53:1.1546568 54:-1.3833758 55:-0.69891053 56:0.87352347 57:0.64403325 58:-0.90938461 59:-0.71003407 60:-0.12351296 61:1.1955615 62:-0.13290827 63:0.5243265 64:0.10710337 65:0.67184985 66:-1.0148128 67:0.26927689 68:0.37289032 69:-0.15277748 70:-0.18424544 71:-0.62363076 72:0.71802926 73:-0.53329247 74:-0.25050491 75:0.88046956 76:0.30946377 77:0.36113101 78:0.015916832 79:-1.3790013 80:-0.75234044 81:-0.50933182 82:-0.07948973 83:-0.18642746 84:0.085993797 85:-0.063040279 86:0.55827737 87:-0.161809 88:-0.74491006 89:-0.2728546 90:-1.26112 91:-0.75469702 92:-0.52380306 93:-1.4445589 94:-0.24305908 95:-0.48897907 96:-0.20680122 97:0.18908428 98:0.7122342 99:0.68731433 100:0.15501292 101:0.6480723 102:-0.73284882 103:-0.54347867 104:0.39156595 105:0.58604068 106:0.05164703 107:0.79341173 108:0.21476215 109:-0.51430506 110:-1.1793783 111:-0.11760911 112:-0.15457034 113:0.45090801 114:-0.66009086 115:1.2818488 116:-1.0109406 117:-1.0307491 118:0.038531471 119:-1.1426158 120:0.16459619 121:-0.10068666 122:-0.89145613 123:0.0055038966 124:-0.0046067555 125:0.62527561 126:-0.0018606783 127:0.20236757 128:-0.09078899 129:-0.85645545 130:0.69316953 131:-0.28068942 132:0.88878459 133:-0.96331501 134:-0.76531512 135:1.2243397 136:0.071086138 137:0.43186975 138:1.8830121 139:-0.89997953 140:-0.65768659 141:0.36251426 142:-0.42676407 143:-0.89492536 144:-0.49734762 145:-1.296348 146:-0.3194842 147:-0.60210574 148:0.77741522 149:-0.7921229 150:-0.84502435 151:-0.12362827 152:0.83568352 153:0.018613711 154:-0.095946014 155:2.0116682 156:-0.75019425 157:0.20233813 158:0.41249651 159:-0.31270015 160:-0.43663669 161:0.070463859 162:-0.26954979 163:-1.538896 164:0.15500519 165:-0.4814457 166:1.9463878 167:1.0956638 168:0.34026021 169:1.4974718 170:-0.61110348 171:0.34712321 172:-0.56782603 173:-0.75685447 174:-0.28171077 175:-0.78382128 176:-1.3089174 177:-0.82325643 178:-1.0492487 179:0.033779696 180:-0.27089137 181:1.5270352 182:-0.012885526 183:0.80160385 184:-0.45460284 185:0.1121983 186:0.66323984 187:-0.18912053 188:0.53608829 189:0.50192338 190:-0.79901934 191:1.1062638 192:0.65145946 193:-1.0199873 194:-0.19504336 195:-0.91367555 196:0.48676261 197:-0.9129594 198:-0.45824966 199:-1.1053649 
0.08341795089106577 0:0.36444426 1:-0.087894544 2:0.75855702 3:1.6960371 4:0.66446787 5:1.0468543 6:-0.54639918 7:-0.11891031 8:-0.029271986 9:0.28411224 10:0.26141021 11:-0.19633719 12:0.46280387 13:0.2659421 14:1.2922897 15:1.450507 16:1.0089949 17:0.97549528 18:-0.066960633 19:0.20327452 20:-0.14818284 21:0.72720301 22:0.56882775 23:0.24391119 24:0.27493379 25:0.20350237 26:0.094140656 27:1.4367511 28:1.5466775 29:0.036750842 30:1.1266886 31:5.9219332 32:3.9658098 33:-0.3167522 34:0.11860652 35:-0.21098232 36:0.25486997 37:0.22236224 38:-0.40845087 39:-0.056669001 40:0.20168789 41:0.66907436 42:1.2875571 43:0.77088153 44:-0.09140227 45:0.50051326 46:-0.019385487 47:-0.0039785979 48:0.20617805 49:0.57937551 50:0.41260251 51:0.038419358 52:0.049544431 53:0.41099855 54:-0.18170297 55:0.16134004 56:0.41241091 57:-0.11561196 58:-0.52083457 59:-0.023404682 60:0.10768978 61:-0.43500564 62:0.6910736 63:1.1470165 64:-0.17610338 65:2.4640872 66:0.34645012 67:1.2083402 68:-0.10222435 69:-0.068241723 70:0.38075739 71:-0.11881994 72:0.0059953323 73:-0.056983504 74:-0.17878641 75:1.4393688 76:1.7065514 77:-0.095260128 78:1.421141 79:0.1084763 80:-0.19558465 81:0.29380783 82:0.46590719 83:-0.24968073 84:1.2472962 85:0.080398142 86:1.1477965 87:0.13440432 88:0.33961827 89:-0.0063518784 90:0.42811415 91:0.87195778 92:0.21863423 93:0.39556196 94:0.10596551 95:0.17380676 96:0.23105948 97:0.025101893 98:0.25360975 99:0.40229625 100:-0.90135419 101:0.42821762 102:0.17968959 103:1.0798191 104:-0.46302253 105:0.27035314 106:0.015329072 107:1.000155 108:-0.72052711 109:0.51287025 110:-0.098566227 111:0.11388128 112:0.89828646 113:0.57951522 114:0.49325246 115:0.5227378 116:0.0046754982 117:0.57466882 118:0.216267 119:-0.89909494 120:-0.48721224 121:0.037936423 122:-0.31896517 123:0.48342612 124:0.75099671 125:1.0262328 126:0.11274412 127:0.57982677 128:0.61119151 129:0.1238219 130:0.65929723 131:1.4557292 132:0.23082253 133:-0.0038930171 134:-0.76448596 135:-0.56906796 136:-0.50303638 137:-0.1882883 138:0.61904716 139:0.16955484 140:-0.45379195 141:0.3761287 142:0.74968392 143:-0.55305135 144:0.77271819 145:0.72791064 146:0.93064409 147:0.28286391 148:-0.077309154 149:-0.015151591 150:0.12163157 151:1.2023395 152:-0.66504198 153:2.1948099 154:1.5115535 155:-0.171176 156:-0.17783169 157:0.72934097 158:1.4967144 159:0.74224943 160:-0.10721689 161:0.24648635 162:-0.00047969466 163:1.7457695 164:0.88013899 165:0.62551457 166:0.075929523 167:-3.2026142e-05 168:0.66779786 169:0.35489005 170:-0.92486852 171:0.10950686 172:0.45198524 173:-0.097355224 174:-0.0017466809 175:-0.62661397 176:-0.091135032 177:-0.10006195 178:-0.080285892 179:-0.060093954 180:0.57081819 181:0.032900721 182:0.7356081 183:0.82183987 184:0.010787584 185:0.24002308 186:0.47570536 187:0.24006328 188:-0.1071759 189:0.66884887 190:1.243417 191:0.73214608 192:1.8541172 193:0.66176552 194:-0.35785046 195:-0.030461516 196:-0.022775745 197:0.012667797 198:0.29131678 199:-0.22713441 
0.2208252497416102 0:0.80839217 1:-0.60057396 2:-0.96834493 3:-0.71480447 4:-0.38354295 5:-0.19031294 6:0.84601837 7:-0.62848043 8:-0.84010398 9:-0.57378906 10:0.32563946 11:0.38830593 12:-0.13383718 13:-0.665317 14:-1.1316322 15:-0.57175589 16:-0.90506238 17:-1.1946083 18:-0.084610142 19:-0.52267027 20:-0.11994244 21:-1.0972832 22:-0.016536051 23:0.95991188 24:-0.3688927 25:-0.40842238 26:-0.59355402 27:-0.29147932 28:-0.87173063 29:0.12619868 30:-0.68595141 31:-0.93213338 32:-0.82437938 33:0.74777323 34:3.6974616 35:7.3326488 36:-0.28942016 37:0.27023244 38:-1.011559 39:0.6978963 40:-0.74375457 41:-0.13479604 42:-0.61440843 43:-0.54085213 44:0.41821763 45:-0.59195769 46:0.38194057 47:0.56068712 48:-0.69392717 49:-0.089339003 50:-0.73427403 51:0.97151673 52:0.44203761 53:-0.91434991 54:0.11840272 55:0.22126524 56:-0.22038218 57:-0.47961113 58:-0.8897723 59:-1.3230773 60:0.41862291 61:-1.7593751 62:-0.064056739 63:1.1024555 64:-0.73679245 65:-1.1210254 66:0.045945603 67:0.054493334 68:-0.2465591 69:0.30533096 70:0.54469514 71:0.44699556 72:-0.95404464 73:0.427403 74:0.61326122 75:-0.18522158 76:-0.59229094 77:-0.52009088 78:-1.4153783 79:0.64163584 80:0.45847917 81:0.14484245 82:-0.95051861 83:-0.86441231 84:0.067954965 85:0.63531238 86:0.50374854 87:-0.40920287 88:1.1032883 89:0.40082243 90:0.31787276 91:0.66776413 92:0.44953707 93:-0.45731211 94:-0.71427947 95:-0.50966245 96:0.83856595 97:-0.62574553 98:0.58679336 99:1.2437328 100:0.74270248 101:-0.50457299 102:0.044964302 103:1.1384264 104:0.19484918 105:0.44171157 106:-0.58797753 107:0.57149875 108:0.78207177 109:0.25671491 110:-0.055513158 111:0.023394758 112:-0.13035949 113:0.023174249 114:0.4736712 115:-0.29611513 116:0.53019333 117:-0.76321787 118:0.48602712 119:0.34315199 120:-0.63985735 121:-1.7507225 122:0.39437631 123:0.11872038 124:-1.0689014 125:-1.091833 126:-0.36491412 127:-0.92916846 128:-0.26457703 129:0.17137568 130:-0.82480824 131:-0.40085581 132:0.11428033 133:-0.6274662 134:1.0075908 135:-0.37230456 136:0.44782716 137:0.24658024 138:1.8145033 139:1.0837063 140:0.66799343 141:-0.26984242 142:-0.069352672 143:-0.47454387 144:0.20016469 145:0.35485882 146:0.079591334 147:-0.59640783 148:-0.24010715 149:-0.71703708 150:-0.73679733 151:0.45520991 152:1.075749 153:0.23088126 154:-0.075883694 155:0.11532657 156:-0.4100104 157:1.4233593 158:1.1857655 159:0.98666561 160:-0.45395985 161:0.26683149 162:-0.20877193 163:-0.088674091 164:-1.3854833 165:1.1862541 166:0.033986352 167:-0.32778758 168:0.55428505 169:-0.23154892 170:-0.49016005 171:-0.85559452 172:-0.69535929 173:0.80078924 174:0.56399918 175:0.40401518 176:0.57920086 177:0.37487558 178:0.45106405 179:0.49445885 180:1.326171 181:-0.41763356 182:-0.76677638 183:0.15996465 184:0.27659306 185:0.49935767 186:-0.67830026 187:0.39201432 188:0.057060026 189:-0.38261181 190:0.44912186 191:0.37913108 192:-0.70143503 193:0.39395958 194:-0.31324595 195:0.50800347 196:-1.0706135 197:0.71442169 198:0.34183088 199:0.43838567 
0.2389865272233821 0:-0.55438966 1:0.43823677 2:0.34424523 3:0.4834432 4:-0.095571436 5:-0.8200053 6:-0.46458122 7:0.59235191 8:-0.26347202 9:-0.079339147 10:-0.37646309 11:0.22692992 12:-0.8751002 13:-1.2851355 14:-0.76133829 15:0.33905566 16:0.15036742 17:1.2398731 18:-1.6131139 19:-1.9119387 20:-1.4094532 21:-0.40305817 22:-0.33612269 23:-1.5543997 24:-0.10474967 25:-1.0159373 26:-1.0260382 27:-0.90328318 28:0.75751793 29:-0.35251865 30:0.69089061 31:-0.63625848 32:-0.54178435 33:0.27254137 34:-0.49606121 35:0.58409303 36:1.4081544 37:5.1381445 38:6.0123601 39:0.1210233 40:-1.1585172 41:0.59558827 42:-0.1894381 43:-0.25400743 44:0.30890113 45:-0.81380945 46:0.02731467 47:0.31835198 48:-1.1875287 49:-1.4580201 50:0.029314406 51:0.06857916 52:0.14277624 53:-0.72976857 54:-0.35529539 55:-0.43421584 56:-1.0309942 57:-1.0089707 58:-1.0558889 59:0.46007305 60:0.0540055 61:-1.2828246 62:-0.9205367 63:-0.30893117 64:-1.3117748 65:-2.3813782 66:-0.042912528 67:-1.5357386 68:-1.7880706 69:-0.017119924 70:-0.91088092 71:-0.067475237 72:-1.1743031 73:0.10945426 74:-0.1672582 75:-0.45196468 76:-0.93467116 77:-1.759254 78:-0.32298064 79:0.26900396 80:-0.01687309 81:-0.022735052 82:-1.2218637 83:0.02589838 84:-0.18335889 85:0.27663642 86:-0.29814312 87:0.091734372 88:-0.27598652 89:-0.15266311 90:-0.74336022 91:-1.0121776 92:-0.16124623 93:0.28018719 94:0.45659855 95:-0.092250258 96:-0.82329011 97:0.39144406 98:-0.96583825 99:-1.2386616 100:-0.63349199 101:-1.0463046 102:0.38263234 103:-0.34060085 104:-1.9200368 105:-1.0946285 106:0.18065469 107:-0.096773461 108:-0.25649983 109:1.0361284 110:1.2507479 111:-0.47822848 112:-0.87501949 113:-0.62317461 114:0.017348526 115:-2.0265253 116:0.13946304 117:-0.40269062 118:-0.10287439 119:-1.1791192 120:-1.1942226 121:-0.82733816 122:0.21314549 123:-0.099066876 124:0.41859311 125:-0.99110419 126:-0.98837835 127:-1.2846276 128:0.19224188 129:0.80960047 130:-0.43833876 131:-0.21965064 132:-2.3026361 133:0.16263735 134:-0.29405856 135:-1.7839731 136:-0.4460066 137:-0.9519887 138:-1.8689833 139:0.31635055 140:-0.40692708 141:0.10515764 142:-0.025499644 143:0.8654061 144:-0.74808526 145:0.1594861 146:-0.87635952 147:-0.57881689 148:-0.16021363 149:0.032820106 150:0.76994848 151:0.011690716 152:-0.77361614 153:-0.98036927 154:-0.58473265 155:-1.2443509 156:-0.43844441 157:-0.051280949 158:-0.30860865 159:0.24575806 160:0.50816673 161:-1.7587148 162:1.1010591 163:-0.065623648 164:0.49422815 165:-0.54120231 166:-0.1325656 167:0.092427447 168:0.53838021 169:-0.055861171 170:-0.55908632 171:-0.79058594 172:-1.0743139 173:0.35560963 174:-0.34471506 175:0.34264174 176:0.10937335 177:0.21817559 178:0.25553042 179:-0.2540718 180:-0.91997713 181:-1.3122798 182:-2.4648688 183:-0.47370267 184:-0.17736487 185:0.48950517 186:-0.63071078 187:-0.016378663 188:-0.9204129 189:-1.6584684 190:-0.58904105 191:-1.3836616 192:-1.1178792 193:0.78787589 194:-0.3477636 195:0.1210955 196:0.14484783 197:-1.0541741 198:0.13219482 199:0.16879335 
0.1438477200803552 0:0.19508433 1:0.52535516 2:-0.57874423 3:-0.20240805 4:0.20135579 5:-0.033895865 6:0.27177131 7:-0.38659614 8:-0.68425632 9:-0.078437947 10:0.68333465 11:0.11165942 12:-0.11479602 13:-1.1459739 14:-1.352349 15:-0.33661509 16:-1.3164544 17:0.84986687 18:0.070782609 19:-0.34596682 20:-0.028325755 21:-0.95933503 22:-0.90763474 23:-0.59934616 24:-0.97769439 25:-0.51782674 26:0.22676797 27:1.0316623 28:1.093498 29:-0.65377027 30:-0.63413996 31:-0.33090457 32:-1.1508678 33:0.11915659 34:-0.47301453 35:0.053579502 36:-1.2136674 37:0.56851673 38:-0.50497299 39:4.8889551 40:3.2657888 41:5.7770648 42:0.21700099 43:-0.78652513 44:0.11541091 45:-0.4214775 46:0.01576267 47:0.04693462 48:0.27648419 49:0.81529754 50:-0.31684363 51:-0.43661436 52:-0.041395489 53:0.1337042 54:-0.43028182 55:-0.82447016 56:-0.27840817 57:-0.70731175 58:-0.75109452 59:-0.119273 60:0.30499768 61:0.43755156 62:-0.14403179 63:0.34570545 64:-0.58933985 65:0.1208776 66:-0.69940513 67:-0.45441824 68:0.29938224 69:0.15624905 70:1.6566122 71:0.27855027 72:0.21719331 73:0.14430125 74:0.3983323 75:-0.74630296 76:-0.51637012 77:0.34594581 78:-1.5529834 79:0.21381627 80:0.1752443 81:-0.68387949 82:-0.47319588 83:-1.524596 84:-0.28674591 85:0.30538222 86:0.13440414 87:-0.24648817 88:0.16955031 89:0.54271495 90:0.27563104 91:-0.98302466 92:0.033045799 93:-1.2638017 94:0.29207274 95:-0.72797245 96:-0.81303227 97:-0.26371771 98:1.3689141 99:0.15186135 100:1.0616628 101:0.70078409 102:-0.23417416 103:-0.32382268 104:0.41388321 105:0.30666447 106:0.11875438 107:-0.26501402 108:0.31556687 109:-0.43474883 110:-0.58504057 111:0.61490655 112:0.122889 113:-1.019562 114:0.2952714 115:-0.074527204 116:0.15963292 117:0.14910644 118:0.18343899 119:-0.91589826 120:-0.41546038 121:-1.0163922 122:0.064270847 123:0.11611362 124:0.54289675 125:1.2272868 126:0.52765852 127:-0.12508684 128:-0.54348499 129:0.10934061 130:-0.40589517 131:-0.40205115 132:0.93714488 133:-1.2231982 134:0.65559942 135:-0.65977001 136:0.38383976 137:0.6663931 138:0.067830607 139:-0.098318316 140:-0.076405779 141:-0.23412934 142:-1.4084805 143:-0.46268708 144:-0.42785686 145:0.28754103 146:0.0013451702 147:-0.39093578 148:-0.27680498 149:-0.36384556 150:-0.17314953 151:0.72881275 152:1.1840273 153:-0.85327643 154:-0.29977483 155:-0.66363496 156:0.12030339 157:-1.3442132 158:-0.87814659 159:-1.5200632 160:-1.2292194 161:-0.1447895 162:-0.6443733 163:-0.45730254 164:-0.99369323 165:0.68449557 166:-0.093166843 167:1.116213 168:-0.99725568 169:-0.029047564 170:-0.86354369 171:0.32912853 172:-0.94472599 173:0.14334919 174:0.16362412 175:-0.95551699 176:-0.16612421 177:-0.065385602 178:0.10266709 179:2.033046 180:-0.59516156 181:0.22904478 182:-0.089399494 183:-0.17084433 184:0.20376222 185:-0.69093764 186:0.81259173 187:0.33656779 188:-0.087269343 189:0.49664629 190:-0.63219804 191:0.072687998 192:0.82424468 193:-0.57169598 194:0.17175877 195:0.058062397 196:-0.50287074 197:-1.498419 198:0.099949047 199:0.12451141 
0.07816476400650925 0:0.79051059 1:0.49312699 2:3.4548998 3:-0.1087864 4:-0.026642041 5:1.7859204 6:-1.4910115 7:-0.23277041 8:0.27828705 9:-0.34146494 10:-0.19584404 11:0.42305073 12:-0.063434377 13:-0.22804368 14:-0.3424789 15:-0.28772515 16:0.57852775 17:0.62743622 18:0.1023085 19:1.021403 20:-0.75189453 21:0.34209073 22:-0.22932275 23:-0.98415262 24:1.1474062 25:-0.16840133 26:-0.26626736 27:-0.16326201 28:1.9488165 29:0.89257091 30:0.8090167 31:-0.44005409 32:0.72806317 33:0.60054648 34:1.0040324 35:0.27335623 36:0.53305936 37:-0.060242757 38:0.84164947 39:0.19985834 40:-0.012679199 41:-0.33622855 42:5.020256 43:6.9459162 44:1.2497064 45:-0.79479235 46:0.59580976 47:0.5913865 48:0.23133625 49:-0.68140572 50:-0.58889711 51:0.40110353 52:0.57776839 53:-0.43899396 54:-0.29876846 55:-0.54160088 56:-0.26886395 57:0.84483606 58:-1.0384502 59:-0.84193152 60:0.51125765 61:1.3824878 62:-0.22481242 63:-0.59560108 64:0.49797666 65:1.0772723 66:-0.32474649 67:-1.1392004 68:0.25565025 69:0.60545456 70:-0.72417682 71:0.5080002 72:0.054186642 73:0.58394742 74:0.41384014 75:-1.4944792 76:-0.27122867 77:-0.79023141 78:-0.37328166 79:0.50963718 80:0.70245111 81:0.15023626 82:-0.64616889 83:-1.0849241 84:-0.16845591 85:0.49111861 86:-0.52216452 87:-0.40629399 88:0.12072399 89:0.24791221 90:0.54217041 91:1.302951 92:0.44385535 93:0.16123131 94:-0.63626677 95:0.83949631 96:-0.34467053 97:-0.09759929 98:-0.75911641 99:1.3581512 100:1.0064769 101:-0.46869946 102:0.34308743 103:1.6131759 104:-0.89234388 105:0.058898859 106:-0.39699739 107:-1.0709807 108:-0.012076743 109:0.2522957 110:-0.071741737 111:-0.42683288 112:0.3532252 113:0.14295241 114:0.47187477 115:0.88899928 116:0.63449502 117:0.7664966 118:0.54125774 119:-0.32483864 120:0.42947552 121:-0.80478686 122:0.42844635 123:-0.37362224 124:0.90977031 125:0.41148204 126:-0.21853113 127:-0.16612659 128:-0.56330878 129:-0.051415462 130:-0.17098057 131:-0.51216835 132:-0.58217049 133:0.36875346 134:-0.21051763 135:-0.25867319 136:0.44374856 137:-0.43114057 138:-1.1618301 139:0.55097711 140:-0.031557176 141:0.090090692 142:0.55462956 143:0.58687651 144:-0.23202631 145:0.077790603 146:0.14918818 147:-0.33152702 148:-0.36684722 149:-0.89875609 150:-0.047593921 151:0.15454325 152:-0.62447965 153:0.017712751 154:-0.28679612 155:0.3934468 156:-0.19054537 157:-0.14946981 158:-0.1654364 159:1.3725801 160:0.46693853 161:-1.1971846 162:1.7777649 163:-0.58347714 164:0.75162202 165:-0.88886213 166:0.16730498 167:0.30437064 168:0.78189147 169:0.57118016 170:0.97610927 171:0.22717002 172:-1.144116 173:0.012966526 174:0.44837439 175:0.25351295 176:0.49752432 177:0.67935675 178:0.55849099 179:0.40284166 180:1.5972229 181:-0.28589702 182:-0.16374581 183:0.079379946 184:0.58827507 185:0.90136474 186:-0.27955449 187:0.5428918 188:0.042400155 189:0.57235384 190:-0.48038509 191:-0.38066947 192:1.4948269 193:0.68342245 194:0.50535244 195:0.65750706 196:0.69720274 197:-0.383329 198:0.45246854 199:0.65369189 
0.215700941436382 0:0.10300226 1:0.34982315 2:-0.074646436 3:0.47898468 4:0.042846113 5:-0.18640597 6:0.59065062 7:0.17852031 8:1.0773902 9:0.42674774 10:1.819795 11:0.19154947 12:-0.48013005 13:0.37061909 14:0.98953909 15:0.91428226 16:1.383458 17:1.2907414 18:0.78849483 19:0.64832824 20:0.63826227 21:0.62338579 22:1.0078355 23:0.60411936 24:1.3451151 25:1.238209 26:0.95865309 27:2.0394671 28:1.7423832 29:0.74825865 30:2.0174239 31:0.31022319 32:0.032612752 33:0.24846151 34:-0.36595988 35:-0.050499201 36:1.1825777 37:0.61960489 38:-0.0059006941 39:1.0905749 40:0.22956024 41:0.88069803 42:0.97911328 43:0.56846577 44:0.4030773 45:5.5778642 46:1.6055093 47:0.96089554 48:1.1116965 49:0.50401944 50:0.44176358 51:1.4942214 52:0.26621288 53:0.56934923 54:0.99831259 55:0.10109988 56:0.39617705 57:1.7521101 58:0.29382077 59:0.72770566 60:0.033280347 61:1.4395229 62:0.43024746 63:2.3332112 64:0.39551911 65:0.075346626 66:0.94301569 67:0.26665896 68:1.341187 69:0.023279177 70:0.98241442 71:0.17362963 72:0.77965236 73:0.37187478 74:0.1361292 75:0.45141843 76:0.72907573 77:1.697721 78:0.96572721 79:0.30160439 80:0.25062573 81:1.0861371 82:1.3283097 83:1.9086158 84:-0.045139343 85:0.43154991 86:0.098236851 87:1.5636054 88:1.1014137 89:-0.00014535191 90:0.057883196 91:0.33501533 92:0.28053418 93:1.8878967 94:1.5069726 95:0.63101876 96:0.34969312 97:1.5429831 98:0.11214071 99:1.5358285 100:-0.10284645 101:1.0836672 102:1.4703349 103:0.78824967 104:0.21481085 105:1.4470655 106:1.1785471 107:0.4468382 108:0.78361499 109:2.1642637 110:1.0624329 111:1.2447618 112:0.90414858 113:1.5917771 114:0.36986235 115:1.4648758 116:0.18793057 117:0.30381089 118:0.45460504 119:0.15592974 120:-0.21593739 121:1.0401026 122:0.65081048 123:0.42812616 124:1.0554143 125:0.65923446 126:1.4437181 127:1.5019923 128:1.9211352 129:0.5122422 130:0.98937011 131:2.1400614 132:0.79106694 133:1.5973445 134:0.39600754 135:0.45734736 136:-0.15730119 137:0.18980825 138:0.8076942 139:0.38541126 140:0.24926059 141:0.44414642 142:0.63862562 143:0.39273897 144:-0.15115155 145:0.89497608 146:0.59770817 147:0.52549124 148:1.286361 149:0.31404337 150:1.0267664 151:1.2034791 152:0.13528398 153:-0.027822351 154:1.550678 155:0.55541283 156:-0.13683192 157:0.99936104 158:1.1058325 159:0.10689429 160:0.57608843 161:-0.087902054 162:0.51156956 163:1.5411555 164:0.54263812 165:1.4574927 166:0.21071303 167:0.79707825 168:1.6937468 169:0.26464123 170:0.49060747 171:1.9461317 172:1.0373697 173:0.40528363 174:0.13061598 175:0.085279271 176:0.44584909 177:0.40051895 178:0.4885954 179:0.60792226 180:0.48172221 181:0.6444506 182:0.25364342 183:1.7432958 184:0.09829013 185:0.36638153 186:0.5318647 187:0.09134607 188:0.294559 189:1.1433443 190:1.2315193 191:0.67053604 192:1.1232219 193:1.4796321 194:1.0449661 195:0.24877614 196:0.053676616 197:0.93456799 198:0.29921764 199:0.27231434 
0.4349371335485844 0:-0.215386 1:0.91950375 2:-0.15024939 3:-1.3030282 4:-1.1883219 5:-0.18050826 6:-0.15095177 7:0.34361359 8:-0.49498826 9:-0.63160187 10:-0.33604541 11:-1.4731308 12:-1.134464 13:-0.18023993 14:-1.4787657 15:-0.27402365 16:-0.75268686 17:-0.092569046 18:-0.5154134 19:-0.46666464 20:-0.36947855 21:-1.1012576 22:0.67145234 23:-1.5362347 24:-0.82605934 25:-0.31348217 26:-0.2695376 27:-0.6773501 28:-1.6476966 29:-0.33491692 30:0.3546229 31:-0.17278385 32:0.38187358 33:-1.2063673 34:-0.60275257 35:-0.069300674 36:-0.91146761 37:-0.35490963 38:-0.014791987 39:-0.1230862 40:0.051645406 41:0.46975735 42:-0.82563674 43:-0.82880253 44:-1.3027248 45:-0.16951422 46:-0.73809761 47:-0.97863239 48:2.3813963 49:3.6541841 50:-0.48830134 51:0.93538964 52:-0.61275512 53:-0.79905695 54:-0.22556983 55:0.80913949 56:-0.23072203 57:-0.70817131 58:-1.6412084 59:-0.37896073 60:-0.97140068 61:-0.46103418 62:0.89837718 63:-0.055579633 64:-0.9891271 65:0.54359633 66:-0.88784927 67:-0.14498937 68:-0.23533562 69:-1.1899676 70:0.44114828 71:-0.93046528 72:1.6296973 73:-1.0687878 74:-0.71214324 75:-1.0911844 76:-0.23073384 77:-0.67052573 78:-1.8065845 79:-0.78580576 80:-0.679205 81:0.23092952 82:-0.2175597 83:-0.61249101 84:-0.89853656 85:-0.78612971 86:-1.1402775 87:-0.77575117 88:-0.50489068 89:-0.47841126 90:-0.98108846 91:1.8342577 92:-0.44552645 93:-0.092360415 94:-0.70754379 95:-0.5930686 96:0.39789009 97:-1.2259998 98:-0.24498311 99:-0.58778751 100:-0.15564777 101:-0.95913267 102:0.034114316 103:-0.73494858 104:-0.37171689 105:0.026162885 106:0.22912239 107:-0.76690221 108:-0.67802489 109:0.16560493 110:-1.0081784 111:1.0256509 112:0.43093172 113:-0.57974935 114:-1.3105066 115:-0.37653303 116:-0.93160659 117:-0.85406351 118:-0.57233495 119:-1.0383013 120:-1.22446 121:-1.4252247 122:-0.73618037 123:-0.37908372 124:-0.52432185 125:-0.99454302 126:-0.85214978 127:0.63754392 128:-0.078178145 129:-1.2325091 130:-0.93102229 131:0.32939255 132:0.2896263 133:0.70441902 134:-0.95927662 135:-0.82314301 136:-1.2102426 137:-0.72237432 138:-1.3889879 139:-0.90069032 140:-0.71205938 141:-0.70162809 142:-0.16618629 143:0.82053971 144:2.8954089 145:1.6713458 146:-0.43846264 147:-0.16588254 148:0.050825659 149:-0.9145512 150:-0.098698646 151:-0.8742187 152:-0.084836595 153:-0.94131374 154:-0.58530134 155:-0.60216105 156:0.19043404 157:0.16604844 158:0.25263044 159:-0.75205636 160:-0.63102603 161:-1.6029122 162:0.34737059 163:0.86525333 164:-0.72708178 165:-0.77314347 166:-1.1230557 167:-0.41014716 168:-1.9390318 169:0.014378008 170:-0.38929275 171:0.44261697 172:-0.45807678 173:-1.1577008 174:-0.93699121 175:-0.52890164 176:-0.8827911 177:-0.85272419 178:-0.53334373 179:-0.47907892 180:-0.49373341 181:-0.31704736 182:0.59103185 183:1.0886614 184:-1.2835612 185:-0.82381439 186:-0.36501092 187:-1.2772608 188:-0.70648772 189:0.041214094 190:-0.2741363 191:0.28318745 192:-0.043544773 193:0.577627 194:-0.40135822 195:-0.58710998 196:-1.156332 197:-0.45773748 198:-1.2830606 199:-1.149675 
0.3648061878763968 0:0.40176108 1:-0.98466206 2:-0.32576099 3:0.89058816 4:0.28908128 5:-0.37118316 6:0.66973919 7:-0.63287389 8:-0.81103319 9:0.94054013 10:-0.028864503 11:0.61258501 12:0.042142715 13:0.39802253 14:-0.12077784 15:-0.4962883 16:-0.85044909 17:-0.7250607 18:0.42078683 19:-0.7244491 20:-0.36525348 21:0.21272096 22:-0.12746389 23:-0.5115211 24:-0.0020142749 25:-0.52229941 26:-0.40275997 27:0.25216994 28:-0.41358653 29:0.37916595 30:0.83010167 31:-0.15658572 32:0.52162695 33:0.76500463 34:-0.38276616 35:-0.10842205 36:0.37491325 37:0.33291641 38:-0.13483936 39:0.22141764 40:0.32424641 41:-0.6380837 42:1.2639024 43:0.69565302 44:0.61047804 45:-0.45923299 46:0.79310971 47:0.61429548 48:-0.028952939 49:-0.31244531 50:-1.0019732 51:2.5444558 52:1.1586492 53:2.5750554 54:0.49823332 55:-0.20354934 56:-0.64777416 57:-1.5488305 58:-0.004976091 59:-1.3175802 60:0.63250816 61:-1.0456749 62:-0.65307039 63:-0.62793595 64:-0.4550066 65:-1.2117209 66:-0.97381496 67:0.05552271 68:-0.036862563 69:0.56732321 70:0.026011072 71:0.58968973 72:-0.14178908 73:0.6991294 74:0.69694698 75:0.44400558 76:-0.35057661 77:0.1641708 78:-0.13935751 79:0.75006896 80:0.61503953 81:0.15540628 82:-0.34156024 83:0.6880089 84:0.2989319 85:0.67654997 86:-0.4972648 87:0.34922108 88:-1.196808 89:0.62633592 90:-1.5416905 91:0.25909021 92:0.63962352 93:-0.13309832 94:1.2821686 95:-0.2165218 96:-0.89553356 97:-1.2094587 98:-0.6522333 99:-0.86316723 100:0.82278705 101:0.6378454 102:0.29226795 103:0.34505185 104:0.72711343 105:-0.047097176 106:-0.73574299 107:0.97198266 108:0.81020367 109:-0.24913198 110:0.4630225 111:-0.46037409 112:0.61029881 113:0.51268852 114:0.6081351 115:0.59570724 116:0.64046168 117:-0.21190989 118:0.65346992 119:-0.028389003 120:-0.046275258 121:-0.6126529 122:0.66217148 123:-0.76806927 124:-0.55837309 125:-1.0664886 126:-0.57861322 127:-0.011226906 128:-0.45856059 129:-0.13385306 130:1.3891188 131:-0.61045027 132:-0.40521863 133:0.31591031 134:1.287028 135:0.39663324 136:0.87296093 137:0.34861168 138:0.42703608 139:0.94320595 140:0.49044284 141:-0.73348063 142:-1.0018617 143:-0.41855732 144:-0.66193616 145:0.28427628 146:0.7562874 147:-0.93108201 148:0.34512225 149:0.2086329 150:-1.2009985 151:0.13749254 152:0.74778056 153:0.73886245 154:-0.1603221 155:-1.8483846 156:-1.4933367 157:-0.7722339 158:-0.63690764 159:-0.59009969 160:0.10520025 161:-1.0303349 162:0.66012603 163:0.17547271 164:-0.63787013 165:-0.11267413 166:-1.1213055 167:-1.1789376 168:-0.30039105 169:0.14418112 170:-0.97394681 171:-1.1408936 172:0.051506203 173:0.80290163 174:0.66237718 175:0.58014166 176:0.45106611 177:0.64656401 178:0.56997645 179:0.020375589 180:-1.0518502 181:-0.26835507 182:0.93886441 183:-1.0019425 184:0.59542769 185:-0.31057441 186:0.37833411 187:0.54315364 188:0.50518912 189:0.10796344 190:-0.42005599 191:-1.1652317 192:-0.80756885 193:-0.82441455 194:-1.529894 195:0.68832266 196:-0.82841015 197:0.26037684 198:0.45425427 199:0.69904023 
0.1358677986444335 0:-3.7982512 1:-0.72732127 2:-1.8570074 3:-0.097536884 4:-1.078409 5:-2.0234256 6:-0.20367749 7:0.12161463 8:-1.5290397 9:-0.16675812 10:-0.10482924 11:-2.6203854 12:-1.5906452 13:-0.87763894 14:-1.3707508 15:-0.98688781 16:-1.7042339 17:-0.38350818 18:-0.97346991 19:-0.32690623 20:-0.016162628 21:-1.6961824 22:-0.12738329 23:-0.78310961 24:-1.5087916 25:-0.41805294 26:-1.0565526 27:-0.87210512 28:-0.10605074 29:0.2907919 30:-0.13344859 31:-0.82643306 32:-0.43188572 33:-3.3389943 34:-1.2402879 35:-0.57268047 36:-1.5425377 37:-1.1984081 38:-0.87897682 39:0.13239957 40:-0.83734971 41:-0.22568518 42:-0.80668658 43:-0.4466933 44:-3.3065784 45:-1.4247609 46:-2.4860723 47:-2.918802 48:-1.3029023 49:-1.1467031 50:-0.23176871 51:-0.70659453 52:-3.2527289 53:-1.059828 54:3.6615744 55:7.2978978 56:6.4393697 57:-1.5784395 58:-1.2962749 59:-1.3670156 60:-2.3664939 61:-0.96558553 62:-0.56713468 63:-0.85387027 64:0.7742672 65:0.33255249 66:-0.76994324 67:-1.4356731 68:-0.90935743 69:-3.0864716 70:-1.1860218 71:-3.0367401 72:0.40478754 73:-3.1300073 74:-2.3091264 75:-0.99828041 76:-0.97674537 77:-1.2288265 78:-1.2273738 79:-3.8799121 80:-3.5758595 81:-0.5193125 82:-1.2217053 83:0.66985911 84:0.84474289 85:-2.1534936 86:-3.062429 87:0.44711477 88:-0.26183727 89:-2.6830654 90:-1.0731466 91:0.065773398 92:-2.5611677 93:-1.0574936 94:-0.72941148 95:-0.10211702 96:-0.7491653 97:-0.61110538 98:-1.4497868 99:0.48658392 100:-2.2056398 101:-0.51685339 102:-2.5532103 103:-0.229972 104:-2.2059381 105:-1.6832883 106:-0.022084758 107:-0.93809599 108:-0.8643437 109:-0.77118492 110:-0.64982718 111:0.11344215 112:0.047794089 113:-1.5302883 114:-3.0132542 115:-0.28223363 116:-3.4588902 117:-0.46296412 118:-2.6861675 119:-0.57157755 120:-0.81860429 121:-1.2120817 122:-2.9032633 123:-0.023434788 124:-0.69975305 125:-1.5110707 126:-1.1713499 127:0.28419405 128:1.1460935 129:-1.0749804 130:-0.011340945 131:-2.2351463 132:-0.11412288 133:-0.37102449 134:-3.0832756 135:-0.65401083 136:-1.5175345 137:-1.1074852 138:-0.75635523 139:-2.7341571 140:-3.3322868 141:-0.05312391 142:0.25840467 143:-1.397673 144:-0.13035026 145:-1.9312965 146:-2.3207831 147:-0.2223549 148:-1.2078376 149:-1.4549818 150:-1.2216706 151:-0.98881519 152:-1.3450527 153:0.3980642 154:0.016040077 155:-1.6801162 156:-1.1495998 157:0.44078836 158:0.13943008 159:-0.15007687 160:-0.98170221 161:-1.2709126 162:0.67979348 163:-1.0053421 164:-1.4101012 165:-1.0030527 166:-0.63836038 167:-0.75352561 168:-1.0997587 169:-0.012406076 170:-0.070347451 171:-1.2926884 172:-1.1191852 173:-1.9485924 174:-2.4832852 175:-1.4587607 176:-2.7972772 177:-3.0525317 178:-3.0128269 179:-1.0080023 180:-1.6626017 181:-0.4270156 182:0.56473529 183:-0.53044522 184:-3.0325716 185:-1.745379 186:-0.24118264 187:-3.0151143 188:-0.94045562 189:-0.57114285 190:-0.81103581 191:-0.72657275 192:-1.1691561 193:1.9595052 194:-1.6015934 195:-3.3892579 196:-1.0462799 197:-1.2620939 198:-3.3568747 199:-3.5426118 
0.3769488597048471 0:0.56876069 1:1.6080365 2:-0.097653553 3:-0.21754745 4:0.19004864 5:0.400363 6:-1.0014662 7:0.13628054 8:0.55910498 9:-0.54407322 10:0.67305392 11:0.52958429 12:-0.40629047 13:0.013260677 14:0.43204272 15:-0.78890163 16:2.4928174 17:0.70767015 18:0.11758556 19:1.2548088 20:0.065650396 21:-0.062688321 22:-0.75702411 23:-1.1357181 24:0.94781965 25:0.10887602 26:0.21235901 27:-0.1136445 28:0.0078872014 29:0.27505681 30:-0.60723823 31:0.84151441 32:0.52906001 33:0.68325192 34:1.8102168 35:1.56805 36:0.41159675 37:0.5186159 38:0.34597328 39:0.41989058 40:-0.0047348388 41:-0.62087125 42:-0.67236698 43:-0.23772983 44:0.65512019 45:0.50329036 46:0.65067154 47:0.69826961 48:-0.016123466 49:0.7712661 50:0.26098615 51:0.43586281 52:0.60330456 53:-0.049265817 54:0.76336759 55:0.35558498 56:-0.65879798 57:0.74353731 58:2.3169353 59:1.7393434 60:0.68870628 61:0.68080592 62:0.1341102 63:-0.23040082 64:-1.4455382 65:0.51012325 66:-1.0533772 67:1.2152789 68:-0.10209666 69:0.58827865 70:-0.046054706 71:0.57203668 72:1.3077716 73:0.73792839 74:0.66590291 75:0.98864824 76:0.25014165 77:-0.13257135 78:0.23252262 79:0.51334894 80:0.68915761 81:0.45095545 82:0.28528917 83:0.87269175 84:-0.22564292 85:0.56052101 86:1.2479403 87:0.46240661 88:-0.68180549 89:0.62358874 90:0.51654828 91:-0.57931268 92:0.34783733 93:-0.69615304 94:0.27473369 95:-0.50487757 96:-0.42640474 97:1.1162803 98:1.225942 99:-1.3116469 100:0.29375187 101:0.82101518 102:0.58721769 103:3.0481346 104:0.68552899 105:1.6201668 106:-0.87520736 107:-0.92709452 108:0.54624254 109:-0.56045544 110:0.66412956 111:-0.32868513 112:-0.19390675 113:-0.38685775 114:0.47136149 115:-0.25096178 116:0.64032578 117:0.69390076 118:0.49523222 119:0.45552096 120:0.45074874 121:-0.51063645 122:0.58143693 123:1.0687478 124:1.0192149 125:1.3602743 126:0.43712717 127:0.48546985 128:1.0751694 129:0.17413402 130:0.42254317 131:0.77852064 132:-0.76854253 133:-0.74682772 134:0.7914899 135:1.3587781 136:0.67018831 137:1.0724443 138:1.3257337 139:-0.0661451 140:0.62614268 141:0.80515367 142:-0.71562278 143:-0.72906166 144:-0.1762284 145:0.10716053 146:0.61085814 147:-1.0649649 148:0.51216185 149:1.3423495 150:0.96956903 151:0.58071631 152:0.37248483 153:1.3804842 154:0.25230429 155:1.1577722 156:1.105969 157:0.72791147 158:1.063421 159:-0.60884756 160:-0.64879608 161:-0.14335552 162:-0.44283536 163:0.52618593 164:-0.23243015 165:0.61356652 166:-0.35431522 167:1.4629192 168:0.32766104 169:0.11975154 170:-0.22913145 171:0.7986058 172:0.37971029 173:0.88568276 174:0.55823648 175:-1.0556974 176:0.60920221 177:0.65013158 178:0.65642631 179:0.53552437 180:0.68064392 181:0.19630319 182:0.22272144 183:-0.60981703 184:0.61005545 185:0.44405758 186:0.42054251 187:0.567702 188:0.13704936 189:0.16346093 190:-0.21357855 191:-0.29996207 192:-0.32662296 193:-0.93670386 194:0.90041941 195:0.65878165 196:1.0463253 197:-0.75019556 198:0.69092023 199:0.61771631 
0.08899709373074628 0:0.76082742 1:0.09424229 2:1.3323287 3:0.62934285 4:-0.16099305 5:-0.016969224 6:-1.198436 7:-0.50115883 8:0.023477944 9:0.33774093 10:0.29904178 11:0.73674119 12:0.096669979 13:-0.47687507 14:0.076185398 15:-0.24867393 16:0.12658572 17:0.77275372 18:0.93593961 19:0.35115063 20:1.4617882 21:0.0070426706 22:-0.75104529 23:0.72292501 24:0.28721863 25:0.19457279 26:0.3061175 27:1.4028466 28:1.4725804 29:-0.35848922 30:-0.39240104 31:0.60630029 32:-0.79510009 33:0.65844029 34:-0.14463197 35:0.0044562719 36:0.60144866 37:0.35042664 38:0.94335669 39:-0.37668097 40:2.1410863 41:0.18623939 42:0.16947597 43:-0.066969872 44:0.7164194 45:1.2089696 46:0.63678175 47:0.65781623 48:1.0007347 49:1.2577543 50:-0.11057845 51:-1.0442294 52:0.73729527 53:-0.75923747 54:-0.1179376 55:-0.87329084 56:-0.64451832 57:0.46555221 58:0.61199695 59:0.73860168 60:1.0524997 61:2.2528102 62:7.0844455 63:0.60613722 64:-1.3647771 65:1.2834034 66:0.63561165 67:-0.25687355 68:0.084412336 69:0.59764349 70:0.87357569 71:0.70186847 72:0.39593464 73:0.71752757 74:0.85621756 75:0.59169948 76:-0.01443257 77:1.3216783 78:1.03793 79:0.45095351 80:0.68999988 81:-0.011470437 82:0.053767275 83:-0.33472675 84:0.19713204 85:0.6849457 86:0.21371283 87:-0.58618897 88:-0.99625164 89:0.83658743 90:-0.29634559 91:-0.15930639 92:0.72702152 93:-0.89910501 94:-0.62143147 95:-0.21824719 96:-0.099353723 97:-0.18189368 98:-0.58332229 99:-0.260198 100:0.69524324 101:0.56363159 102:0.22484384 103:0.460426 104:0.090348378 105:0.24881133 106:-0.97905594 107:-0.10608247 108:0.74323648 109:0.71697092 110:-0.87102979 111:-0.22540812 112:-0.13937414 113:-0.12058891 114:0.67950529 115:0.4464508 116:0.6633907 117:0.20751324 118:0.55453485 119:0.26521376 120:-0.33170086 121:-0.17164661 122:0.75948662 123:0.23598894 124:0.55380464 125:1.4220842 126:0.92668265 127:0.20834745 128:-0.32543147 129:0.10196665 130:-0.12883812 131:0.30284488 132:0.99027032 133:-1.2945651 134:1.0874695 135:0.56367397 136:0.80112684 137:0.51755148 138:0.6710701 139:-0.05282905 140:0.79619861 141:-0.17018056 142:-0.61294585 143:-0.81726855 144:0.84692222 145:0.28929502 146:0.35541409 147:-0.85351312 148:0.034162719 149:-0.078475088 150:-0.32736531 151:0.22606976 152:0.94264382 153:-0.3850055 154:0.35159302 155:0.80676538 156:0.80973077 157:-1.5695924 158:-1.2475855 159:1.3627131 160:-0.15474181 161:1.0079836 162:-0.8837133 163:-0.7173233 164:0.0071284603 165:-0.051120091 166:0.43640429 167:1.6040759 168:0.87521952 169:0.024524298 170:-0.89988416 171:0.1609644 172:1.1375537 173:0.68757129 174:0.61846262 175:-0.89219773 176:0.74532509 177:0.66979575 178:0.72062135 179:0.39223289 180:-0.22610435 181:0.049366996 182:0.8085531 183:1.5254002 184:0.6756897 185:0.49680835 186:1.797362 187:0.58768111 188:0.19583409 189:0.14280175 190:-0.3754302 191:-0.85661548 192:0.48018724 193:-0.32108787 194:0.60193664 195:0.67121547 196:-0.2463844 197:-1.1297749 198:0.80582309 199:0.62443721 
0.21284213576758 0:0.52758968 1:-0.51262999 2:0.46596378 3:1.2399571 4:0.84448987 5:-0.27846986 6:0.79358786 7:-0.11046464 8:0.37156713 9:-0.042432785 10:0.50356084 11:0.29946256 12:-0.1245098 13:0.031967439 14:0.57644522 15:0.58193606 16:0.74851799 17:-0.41578534 18:0.27703917 19:1.6591463 20:0.55652851 21:1.1785269 22:-0.42159373 23:0.75473702 24:0.23150511 25:0.27559814 26:0.24437617 27:1.0230149 28:1.0629429 29:0.48978254 30:0.80506766 31:0.42351356 32:-0.094634183 33:0.39628196 34:0.15065701 35:-0.24055356 36:1.1954063 37:0.20431937 38:-0.36138546 39:0.24400838 40:0.4181664 41:-0.038652487 42:0.64847845 43:0.41385752 44:0.22151624 45:0.9232353 46:0.36549434 47:0.32896587 48:0.48876065 49:1.0316601 50:0.012546565 51:-0.45405039 52:0.26692027 53:0.94231504 54:-0.05315477 55:-0.70854318 56:0.32415056 57:-0.20818762 58:-0.0074800956 59:0.31529945 60:0.10671218 61:0.7394045 62:0.97795331 63:4.1527848 64:5.0354209 65:2.4312723 66:0.057987291 67:0.24950272 68:0.22971749 69:0.27687243 70:0.73046774 71:0.44164059 72:0.34322193 73:0.41768321 74:0.15598492 75:0.071488984 76:1.1790948 77:0.73310655 78:0.087889805 79:0.28172186 80:0.55015814 81:-0.25773361 82:0.082580715 83:0.29473826 84:0.1118684 85:0.28125551 86:0.12669992 87:-0.44984305 88:-0.11623905 89:0.16429126 90:-0.21930096 91:-0.2262301 92:0.31335717 93:-0.78101176 94:0.026916917 95:-0.09583246 96:-0.23034486 97:1.9646938 98:0.47680786 99:0.023706466 100:1.120828 101:0.41747671 102:0.503703 103:0.61088568 104:0.10266136 105:0.62309897 106:-1.0598551 107:0.96291453 108:0.61301154 109:2.1952734 110:1.0813392 111:-0.12110338 112:0.19865486 113:-0.24931143 114:0.55280459 115:0.37549099 116:0.54430139 117:0.61520433 118:0.16138121 119:1.1742395 120:0.47750974 121:-0.1725747 122:0.38405401 123:0.051502377 124:1.6508763 125:1.3739673 126:-0.0085797943 127:-0.084003113 128:1.0555768 129:0.071128398 130:0.41042656 131:0.83948296 132:0.8753497 133:-0.85975683 134:0.63951313 135:0.072720841 136:0.20841773 137:0.61387289 138:-0.077482536 139:-0.27315316 140:0.179474 141:0.048311081 142:-0.60711187 143:-0.15249845 144:-0.10951198 145:0.011061732 146:0.38752216 147:-0.27189842 148:-0.021831652 149:1.1795145 150:0.28872597 151:0.62691998 152:0.73314798 153:0.63066876 154:1.0845633 155:-0.11882507 156:-1.0938345 157:-0.070484519 158:0.17668015 159:-0.51624024 160:-0.062913686 161:0.54788947 162:-0.45782718 163:-0.075063527 164:0.72746992 165:1.4311837 166:1.0131369 167:-0.39837027 168:-0.53155982 169:0.055467524 170:0.57514018 171:0.36936423 172:1.7465764 173:0.42648709 174:0.14075223 175:0.1573758 176:0.67542565 177:0.19952457 178:0.53116739 179:0.22946393 180:0.057265077 181:0.53870237 182:0.97985286 183:1.5486501 184:0.29629213 185:-0.41019651 186:0.55618596 187:0.25089076 188:-0.1495579 189:1.1450365 190:-0.55326551 191:-0.3291145 192:-0.135123 193:1.0104197 194:0.25958359 195:0.36168626 196:0.76229286 197:-0.0017050977 198:0.20944335 199:0.54635447 
0.1693525642574253 0:0.475364 1:0.6190635 2:0.81585944 3:0.12994535 4:0.31022108 5:0.24835323 6:0.13848107 7:-0.60189307 8:-0.54311103 9:0.48454624 10:-0.35125569 11:0.65464664 12:0.32716358 13:-0.55295461 14:-1.0125741 15:0.29029992 16:0.3584615 17:0.056700606 18:-0.14581609 19:1.4090641 20:-0.73881692 21:-0.87460339 22:0.52613252 23:-0.14055188 24:0.34443364 25:0.050391711 26:1.0604371 27:0.022403765 28:-0.71616536 29:-0.30956769 30:-0.59705299 31:0.27654928 32:0.28753564 33:0.6888991 34:0.11163959 35:-0.57680833 36:-0.059942476 37:0.60596734 38:-0.072761312 39:-0.36179575 40:0.33355722 41:1.0893219 42:1.0630043 43:0.66716117 44:0.68097353 45:-0.74932325 46:0.63296759 47:0.63733286 48:0.17133124 49:-0.2598078 50:0.72957468 51:0.63752687 52:0.56336629 53:0.28232035 54:0.35821694 55:0.23153599 56:-0.52412522 57:-0.38882321 58:-0.36431593 59:-0.3088291 60:0.74921978 61:0.80578297 62:0.7378943 63:0.37492415 64:-0.14378993 65:0.79074603 66:6.459074 67:2.2308781 68:3.1927423 69:0.67544609 70:0.16580471 71:0.8871268 72:0.59395534 73:0.62340063 74:0.79125452 75:-0.1781662 76:0.17777905 77:-0.13916405 78:-0.1658401 79:0.65639669 80:0.64510792 81:0.12046899 82:1.0215502 83:0.91998988 84:0.76121241 85:0.71460658 86:0.99515074 87:-0.41386715 88:0.94915497 89:0.78296709 90:-0.80029923 91:-0.20096667 92:0.69872439 93:-0.20836711 94:0.11132704 95:-0.22670136 96:1.4140869 97:-0.18850021 98:1.1692989 99:0.2908009 100:0.74209857 101:0.65000731 102:0.67827487 103:-0.54822826 104:-0.36097118 105:0.46164995 106:0.41626701 107:-0.31722456 108:0.56647432 109:-0.29490575 110:-0.77279741 111:-0.025104519 112:0.36487395 113:-0.084554642 114:0.61800271 115:0.076728247 116:0.50619066 117:0.25525796 118:0.66741019 119:-0.10408302 120:-0.2458472 121:0.88747495 122:0.69900715 123:0.18891382 124:0.6931076 125:-0.67556798 126:0.13563479 127:0.027273202 128:0.57496667 129:0.18559952 130:0.048569158 131:-0.73718411 132:0.82021952 133:-0.71886975 134:0.73109722 135:0.35295078 136:1.0410019 137:0.54460239 138:0.47431231 139:1.2356659 140:0.93839824 141:-0.054929122 142:0.7803883 143:0.40842819 144:0.65524077 145:0.28000009 146:0.72249472 147:0.54654878 148:0.14636478 149:-0.20788212 150:1.6007315 151:0.5151512 152:0.35418069 153:0.31693596 154:-0.373496 155:-0.2037639 156:0.81654626 157:0.30663684 158:-0.099499635 159:-0.49532956 160:0.043641049 161:-0.99218422 162:-0.33578074 163:-0.77691865 164:-0.33396482 165:-0.32573527 166:0.24464937 167:1.5359621 168:1.3420508 169:0.1705125 170:-0.051210031 171:1.8043928 172:-0.92233723 173:0.60498941 174:0.62216228 175:0.92190737 176:0.76858246 177:0.63016766 178:0.52249014 179:0.30498272 180:0.67181313 181:-0.13248762 182:0.33592141 183:0.3875066 184:0.73270559 185:0.34910622 186:0.56007558 187:0.60805297 188:0.15223572 189:-0.17273991 190:0.31344628 191:0.20006838 192:0.9456408 193:-0.19661181 194:2.1217346 195:0.60379231 196:0.67040712 197:0.9537465 198:0.55422902 199:0.61855817 
0.2517384252711899 0:0.7103197 1:-1.6983287 2:0.87586671 3:-0.47945914 4:0.56913704 5:-0.50081569 6:-1.5735106 7:-0.17256677 8:-0.88475031 9:-0.05691877 10:-0.11592206 11:0.81510299 12:-0.19847816 13:1.0744925 14:2.2385523 15:0.15263997 16:-0.30805358 17:-0.63037133 18:0.27015525 19:-0.0021924144 20:0.42945284 21:0.33204949 22:-0.29641399 23:-0.12061615 24:0.15761517 25:0.26481673 26:-0.58794028 27:0.36471218 28:-0.086387783 29:-0.20585695 30:-0.07558734 31:-1.0254823 32:-0.54090244 33:0.62109166 34:-0.64128995 35:-0.68918461 36:1.9600133 37:0.4468883 38:-0.084857881 39:0.80269957 40:0.49556565 41:-0.60816449 42:-0.80558574 43:0.29163912 44:0.71506661 45:-0.35393557 46:0.47782898 47:0.58294159 48:-0.55821842 49:-0.59383565 50:-0.49200171 51:-0.66586792 52:0.52117854 53:1.0113392 54:0.53630066 55:0.77944446 56:-0.78543061 57:1.540354 58:0.12226055 59:-0.52868122 60:0.59626704 61:-0.19045992 62:-0.21884659 63:0.97092205 64:-0.18910404 65:-0.12804991 66:-0.26487187 67:-0.40225688 68:0.49033466 69:0.84723324 70:2.9429319 71:1.0320784 72:-0.62841237 73:0.58608365 74:0.65545106 75:0.21635447 76:0.22212549 77:-1.2215447 78:1.3094304 79:0.62030023 80:0.63126689 81:0.0051438916 82:1.1149114 83:0.026657395 84:-0.1733672 85:0.44412893 86:-0.59231973 87:1.0975858 88:-0.094425909 89:0.80189192 90:-0.97461927 91:-0.82192445 92:0.45092964 93:-0.15464824 94:0.080547743 95:0.15716551 96:0.14397302 97:0.076888897 98:-0.31917453 99:0.89805233 100:0.62116653 101:-0.012655772 102:0.31549877 103:-0.35802522 104:-0.46356684 105:-0.41944274 106:1.1542017 107:-0.7160027 108:0.74351966 109:0.55739218 110:-0.15681182 111:-0.60333997 112:-0.35086718 113:-0.18367465 114:0.57252699 115:0.78441769 116:0.56789637 117:0.080136627 118:0.65267408 119:-0.10265791 120:-0.51796573 121:-0.57065779 122:0.8900798 123:-0.54649091 124:-0.74350619 125:-0.46343419 126:-0.75687534 127:0.2868588 128:0.27617443 129:0.3862136 130:0.72894812 131:0.61353594 132:0.45679593 133:-0.47861639 134:0.63580942 135:-0.16277704 136:0.78258258 137:-0.24828504 138:-0.60008383 139:0.64620572 140:0.60515761 141:-0.088949203 142:-0.23381731 143:-0.035342384 144:0.03453422 145:0.071773231 146:0.34276697 147:-0.43542284 148:0.11862603 149:-0.4823769 150:-1.1305264 151:-0.31088021 152:0.29406345 153:0.094983093 154:-0.80265838 155:0.44784567 156:-0.54192185 157:0.6950503 158:0.20775166 159:-0.69643241 160:-0.045351978 161:-0.80318975 162:-0.36864808 163:-0.35590202 164:0.80633473 165:-0.16559166 166:0.16754618 167:-0.50281918 168:-0.3322798 169:-0.060620628 170:-0.26563862 171:-0.85423404 172:-0.64265615 173:0.64891082 174:0.56948674 175:-0.38841489 176:0.60962635 177:0.60479546 178:0.59463227 179:-0.19256335 180:-0.13472353 181:-0.6883437 182:-1.0808953 183:-0.3453438 184:0.70595646 185:1.2213718 186:-0.73972774 187:0.52212715 188:0.55693889 189:0.42847741 190:-0.27032933 191:-0.51310164 192:2.7050078 193:1.4641876 194:1.0611905 195:0.59870827 196:-0.4845925 197:-0.90010887 198:0.48489419 199:0.6841954 
0.0328122949911486 0:0.38405874 1:0.018252244 2:-0.88328445 3:-1.3326371 4:-0.21623281 5:-0.42676428 6:2.0196357 7:0.37859499 8:-1.5233101 9:-0.37599909 10:-0.66890883 11:0.62148422 12:-0.066518649 13:-1.0062835 14:-0.81696731 15:0.41940439 16:-0.096524186 17:-1.3220178 18:-1.0037417 19:-0.83975857 20:-0.94725442 21:-0.51893163 22:0.38430592 23:-0.48827645 24:-0.28379878 25:-0.53489602 26:-0.4459213 27:-0.84805381 28:-0.82062799 29:-0.50944746 30:-1.045529 31:-0.27429271 32:1.0146998 33:0.64024234 34:-0.41323385 35:0.38301873 36:-0.32505572 37:0.37410653 38:-0.86151624 39:-0.096541569 40:-0.83408016 41:-0.23635368 42:-1.3229854 43:-0.3321996 44:0.7780056 45:-0.94996601 46:0.65855968 47:0.69968134 48:-1.3252338 49:-1.3116006 50:0.70634639 51:0.37015459 52:0.52004671 53:-1.1920004 54:1.2095072 55:-0.11183033 56:0.11730126 57:-0.51575404 58:0.58126265 59:-0.56644094 60:0.56603128 61:0.29277956 62:-0.62206769 63:-0.63166445 64:1.2213458 65:-0.04559204 66:0.23239507 67:-0.59149665 68:-0.13304743 69:0.65295082 70:-0.56403452 71:0.52224076 72:3.574481 73:0.53290528 74:0.83304781 75:-0.8063466 76:-0.44233453 77:-0.22418703 78:-0.32344782 79:0.64393771 80:0.4151594 81:0.79469121 82:0.029661234 83:0.13738945 84:-1.1219467 85:0.64847237 86:0.20464648 87:0.67900681 88:0.038317923 89:0.4854027 90:-0.48753986 91:-1.5981359 92:0.61521167 93:0.24988961 94:-0.12405934 95:-0.075011984 96:-0.53937763 97:-0.30932248 98:-1.2368715 99:1.6633844 100:-0.12131917 101:-1.3942337 102:0.61212456 103:-1.1392475 104:-0.60159051 105:-0.76061594 106:0.8894307 107:0.22776912 108:0.36148113 109:0.06320665 110:0.83295459 111:-0.3455959 112:-1.5638016 113:-0.3241564 114:0.45343554 115:-1.3021314 116:0.44410437 117:-1.0623411 118:0.57769352 119:-0.051856712 120:0.31228456 121:1.0687858 122:0.52074969 123:-0.85897976 124:-2.0570338 125:-0.78940982 126:-0.74058121 127:-0.12822324 128:0.0085354401 129:0.49771494 130:-0.72240573 131:0.045686997 132:1.5614042 133:2.3682404 134:0.32254127 135:-1.3709348 136:0.65249085 137:-0.45028368 138:-0.67967403 139:0.76660144 140:0.49096018 141:-1.0719435 142:-0.090384439 143:0.8660726 144:-0.88097864 145:0.65078574 146:0.5358932 147:0.43061316 148:0.072378367 149:0.4095363 150:-0.36962131 151:0.10402416 152:0.11726225 153:-0.67538935 154:-1.0171353 155:-0.63876295 156:-0.73626781 157:1.5493793 158:1.6004992 159:-0.038925413 160:0.6704939 161:-1.4206136 162:0.82827276 163:0.53438443 164:-0.67089397 165:0.13719033 166:-0.88908696 167:-1.0608194 168:-1.0866512 169:-0.043912712 170:-0.74604791 171:-0.47424644 172:-1.440962 173:0.48870251 174:0.56317395 175:0.017074386 176:0.50962663 177:0.57644075 178:0.35405543 179:-0.14594086 180:-0.46405607 181:-0.76364172 182:-0.027254475 183:0.34489864 184:0.70419765 185:-0.1268594 186:-0.46309301 187:0.44786677 188:-0.33618757 189:-0.57311571 190:-0.78047788 191:-0.97092265 192:-1.2810631 193:-0.14468274 194:0.34598756 195:0.50375503 196:-1.2447929 197:-0.79806167 198:0.26338756 199:0.62765032 
0.3718386455501428 0:0.47920325 1:-1.4054129 2:-0.75564313 3:-0.22772852 4:0.49846926 5:-0.62904298 6:-0.078162126 7:-0.073008358 8:-1.1696844 9:-0.6427334 10:0.14548261 11:0.47988126 12:-0.14619462 13:2.2601607 14:-0.099612743 15:-0.57941544 16:-0.59258103 17:-0.20481813 18:-0.11447478 19:-0.63308358 20:0.62260568 21:0.83795857 22:0.30900925 23:0.67763895 24:-1.1685414 25:0.046515428 26:0.12578112 27:0.56297803 28:0.33625671 29:0.38877478 30:0.96246296 31:2.2068746 32:-0.034934938 33:0.35457024 34:1.7582748 35:-0.70479286 36:-0.12775022 37:0.11036552 38:-0.92702615 39:0.98914909 40:-0.46985418 41:-0.46051577 42:0.89334697 43:0.68985301 44:0.32335824 45:-0.51109219 46:0.63228405 47:0.37357751 48:-1.0468472 49:-0.29880479 50:0.36648646 51:1.3738829 52:0.4158082 53:0.48162982 54:0.93608791 55:-0.16707681 56:0.74416894 57:-0.99320108 58:-0.075104184 59:-0.53808272 60:0.50388372 61:-1.0528941 62:0.38347054 63:0.012899968 64:-0.18377778 65:0.063159801 66:0.054161374 67:0.21725531 68:0.21637444 69:0.53549105 70:-0.41108796 71:0.34981862 72:-0.00069884962 73:0.36774921 74:0.73238134 75:3.9564004 76:3.2678285 77:2.6315992 78:-0.065477952 79:0.57233477 80:0.71462166 81:-0.13089399 82:0.039277259 83:1.2069193 84:-0.76512456 85:0.4178234 86:0.86126965 87:0.63942909 88:0.22804572 89:0.55355823 90:-0.37051526 91:-0.042396791 92:0.5525319 93:-0.53390563 94:0.49350977 95:-0.34428841 96:0.87211055 97:-0.82760757 98:0.48010314 99:1.1169212 100:0.18800987 101:0.037329867 102:0.91761142 103:-1.0529126 104:0.30770254 105:0.030923394 106:1.2377176 107:0.58855444 108:0.56535584 109:1.1744757 110:-0.80065244 111:0.7441383 112:0.97670889 113:0.87276387 114:0.3580828 115:-0.58345264 116:0.44112781 117:1.6796635 118:0.61451399 119:-1.0856696 120:0.21918789 121:2.4098954 122:0.95980394 123:0.054210279 124:0.90576363 125:-0.045628678 126:0.44217071 127:-0.27128413 128:0.20536053 129:0.5912962 130:-0.46374545 131:0.76189011 132:-0.02354775 133:0.1848785 134:0.66357344 135:-0.77913755 136:0.34064049 137:0.78367537 138:1.3819838 139:0.46925309 140:0.70971149 141:-0.034937117 142:-0.85179949 143:-0.57418662 144:-0.68390888 145:0.80369115 146:1.3677615 147:0.26887026 148:1.256366 149:-0.26202458 150:1.4553918 151:0.28087264 152:0.087028794 153:0.89790791 154:0.96274805 155:0.40668356 156:0.07939332 157:1.5684899 158:2.3210683 159:-0.61543906 160:0.82841355 161:0.14714281 162:-0.080037326 163:0.33506644 164:0.18646216 165:-0.65023047 166:-0.19506706 167:-1.2700404 168:0.12013239 169:0.030483149 170:0.0021448999 171:0.42618951 172:0.50291032 173:0.58627027 174:0.56097341 175:1.1469152 176:0.30258641 177:0.52456892 178:0.40360579 179:0.44636571 180:1.3337147 181:0.10283942 182:-0.085606091 183:0.22415635 184:0.53932053 185:-0.25608355 186:-1.1498735 187:0.44681937 188:0.43399569 189:0.4313004 190:-0.91801882 191:-0.15746877 192:1.5357438 193:0.18750961 194:-0.9228031 195:0.35985941 196:1.2946013 197:-0.94101226 198:0.52957577 199:0.52173001 
0.2287230928961342 0:-0.043800235 1:0.51444435 2:0.5230065 3:-1.3994967 4:-0.56113589 5:-0.18871608 6:-0.86139107 7:-0.058821369 8:-1.5524091 9:-0.39951855 10:0.64325947 11:0.15711574 12:-0.45197842 13:-1.1167965 14:-0.22190061 15:-1.3699188 16:0.041967325 17:0.2899349 18:-0.43363172 19:-0.48871663 20:-0.23223948 21:-0.91128266 22:-0.38134098 23:-0.00028945832 24:0.56469792 25:-0.50560677 26:0.88945681 27:-0.4796645 28:-0.20168798 29:-0.1844217 30:-1.1223434 31:-0.11341216 32:-1.0058947 33:0.082443111 34:0.67277217 35:-0.1651444 36:0.28865436 37:0.023480138 38:-1.2631212 39:0.069723904 40:0.029097544 41:0.95192438 42:-0.25458756 43:-0.6747297 44:0.59343833 45:-0.38224524 46:0.01182542 47:0.27042913 48:0.49821565 49:0.33028507 50:0.93622994 51:-0.64889032 52:0.00026880187 53:-0.024182836 54:0.24908759 55:-0.88181955 56:-0.072473153 57:-0.13635895 58:-1.229112 59:-1.2221907 60:0.18391477 61:0.81366146 62:0.61187583 63:1.6558495 64:-0.36004072 65:-0.35929433 66:-0.50417721 67:0.7524668 68:0.68244904 69:0.17269705 70:1.118124 71:0.033809807 72:1.4628974 73:0.090976007 74:0.15965298 75:0.10529875 76:0.62204248 77:-0.12056527 78:1.954283 79:0.58178687 80:0.72399873 81:-0.55296588 82:0.72660542 83:-1.2019818 84:-0.13406916 85:0.27721745 86:-0.20449392 87:0.080384456 88:-0.79215801 89:0.16429126 90:-1.0305589 91:-0.83221662 92:0.44885468 93:-1.4634812 94:-0.3982777 95:0.094549835 96:-0.17205209 97:-0.1469582 98:-0.29149097 99:0.18914096 100:0.43072563 101:0.022852449 102:0.47793564 103:-0.040617794 104:-0.18552059 105:-0.47513473 106:-1.1090709 107:0.43603042 108:0.1991884 109:-0.94307429 110:-1.3632407 111:0.29108909 112:-0.56527203 113:-0.95997262 114:-0.038225781 115:-0.65991503 116:0.052300341 117:-0.95598525 118:0.36614847 119:-1.3943642 120:-0.8356477 121:-0.87570524 122:0.22010493 123:0.11216269 124:-0.1491624 125:-0.51501018 126:-0.093430571 127:0.67266428 128:-0.29738337 129:0.0014986983 130:-0.40490416 131:-0.4914028 132:-0.7477867 133:-1.4148973 134:0.076506637 135:-0.49264476 136:0.081586055 137:0.23671088 138:-0.52947623 139:-0.715339 140:0.74133503 141:-0.77162415 142:-1.5876026 143:-0.56913519 144:-0.62269795 145:-0.2983723 146:1.3097055 147:-0.63695568 148:-0.32347107 149:-0.73272496 150:-0.74558461 151:-0.11392118 152:0.39226839 153:-0.82761741 154:-0.81214893 155:-0.56173444 156:-1.3533133 157:0.11989614 158:0.45062974 159:0.87223017 160:-0.74861819 161:-0.76330876 162:-0.39911145 163:0.091996357 164:-1.2073141 165:1.7921479 166:1.0770061 167:1.0881493 168:-1.2245955 169:-1.1644379 170:-1.5713388 171:0.95524544 172:-0.37113443 173:0.39473504 174:0.34419242 175:-0.87785256 176:0.26333869 177:0.0098035596 178:0.28729093 179:0.8463335 180:0.42874965 181:-0.24920276 182:-0.57723218 183:0.23787029 184:0.10281916 185:0.11624841 186:0.33256492 187:0.02947112 188:0.074143544 189:0.064984977 190:-1.1495523 191:-0.52079958 192:0.024558002 193:-0.2026619 194:2.5950468 195:0.080196917 196:-0.25397885 197:-1.4931304 198:0.43766889 199:0.19141139 
0.09584432335649533 0:-0.71152973 1:0.85148299 2:-0.34392852 3:-1.1005188 4:-0.64415067 5:-0.57042783 6:1.5000852 7:0.99988872 8:0.72160774 9:-0.47602057 10:-0.12864453 11:-1.4531008 12:-0.56917405 13:-0.70993352 14:-1.8037442 15:-0.92246807 16:-0.59925252 17:0.51590604 18:0.67318398 19:0.96524394 20:0.16690612 21:-1.2759728 22:0.21113582 23:-0.03456473 24:-1.0601838 25:-0.91271091 26:-0.80907273 27:0.81613505 28:-0.096538045 29:-0.17534052 30:-0.23019074 31:-0.42829096 32:0.16183797 33:-1.6569808 34:-1.0272087 35:0.53524429 36:-1.0505781 37:-0.49733287 38:-0.098394595 39:-0.63384539 40:0.82843083 41:-0.31965142 42:0.24585332 43:-0.13353173 44:-1.1070893 45:-0.16654208 46:-1.2221333 47:-1.3356794 48:1.2475326 49:-0.047911685 50:1.181242 51:-0.54347008 52:-1.4102336 53:-0.54155743 54:-0.11835912 55:0.83853078 56:-0.25782618 57:-0.62720186 58:0.22847089 59:-0.95510393 60:-2.1001952 61:-1.1338856 62:0.71241474 63:-0.61351287 64:-1.1627187 65:0.40445209 66:-0.42621619 67:1.7667189 68:1.4879861 69:-1.4120648 70:-0.54338491 71:-1.2644552 72:0.99521458 73:-1.1244763 74:-1.885939 75:0.054361027 76:-0.39602172 77:-0.51690108 78:-1.544857 79:-0.57544231 80:-1.3637865 81:7.6199574 82:4.2590451 83:3.7884066 84:0.59252596 85:-1.939302 86:0.86888671 87:-0.85179335 88:0.038152285 89:-1.4342309 90:0.50414246 91:-0.16320343 92:-1.1682171 93:0.5583877 94:0.93739164 95:-0.12472431 96:2.7107356 97:-0.89309072 98:-0.4876011 99:-0.68895847 100:0.57725316 101:0.71797758 102:0.51000512 103:-1.5044366 104:-0.15538569 105:0.74378484 106:0.014144613 107:-0.37524694 108:-1.2772466 109:-0.4451583 110:0.73679429 111:-0.6908741 112:0.2909123 113:-0.9965241 114:-0.9118498 115:1.3618733 116:-1.3516947 117:-1.3980746 118:-1.1577613 119:-1.0943168 120:-0.73731935 121:-1.251297 122:-1.5774143 123:0.57531542 124:-0.49776813 125:-0.16487192 126:-0.45537576 127:-0.72370988 128:0.22285926 129:-1.2133112 130:1.0836171 131:-0.79780591 132:-0.74987018 133:0.36601886 134:-1.5792623 135:-0.092839696 136:-1.6830635 137:-1.3578858 138:-0.71211427 139:-0.46285617 140:-0.90790224 141:-0.38508743 142:-0.17173955 143:-0.43232596 144:0.66177589 145:-0.70048672 146:-0.62341726 147:-0.23943469 148:-0.93681663 149:0.67524326 150:0.33885738 151:0.18947823 152:-1.1165534 153:-0.19884221 154:-0.12432223 155:-1.4076446 156:-0.98060864 157:0.70888555 158:0.94669837 159:-0.54903716 160:-0.64173305 161:0.59326607 162:-0.27056983 163:1.1221662 164:0.16403928 165:-1.18817 166:-0.57406163 167:0.19601455 168:-1.1182289 169:-0.85812527 170:-0.10914426 171:-0.8363542 172:-0.9204703 173:-1.5111848 174:-1.8655653 175:-0.70956832 176:-1.3059907 177:-1.4435207 178:-1.9510118 179:0.15430439 180:-1.1114832 181:-0.27049372 182:-0.19129588 183:-0.40202916 184:-1.0483596 185:-0.76582915 186:-0.19592831 187:-1.1158701 188:0.76743287 189:0.4278599 190:-0.2771695 191:-0.38121122 192:-0.35879532 193:-1.3547989 194:0.65290564 195:-1.5350565 196:-0.85540485 197:-0.0099944593 198:-0.8898291 199:-1.7415602 
0.4213207986018502 0:0.63414735 1:0.56067312 2:-0.41846725 3:-0.20743157 4:-0.032609921 5:-0.096205071 6:-0.36523798 7:0.13976778 8:0.56817025 9:0.70941758 10:-0.021391958 11:0.62310719 12:1.8178036 13:0.017532261 14:1.0957446 15:-0.12516637 16:0.16143347 17:-1.3089808 18:0.46850184 19:-0.27593741 20:1.3405044 21:1.1218263 22:-0.98562288 23:1.2633579 24:0.11495386 25:1.912531 26:-0.68427294 27:0.10452028 28:-0.31698242 29:-0.1872355 30:-0.05460725 31:-0.19858274 32:-1.3426116 33:0.72543305 34:0.10847398 35:-0.8910042 36:0.76110041 37:0.20508502 38:0.60689783 39:0.86107755 40:-0.23584864 41:-0.13701971 42:-0.4088439 43:-0.69298512 44:0.70884925 45:0.84537911 46:0.59771001 47:0.6498847 48:-0.35450947 49:0.41787592 50:0.0085643167 51:-1.2934216 52:0.75183886 53:-0.95531911 54:0.066570647 55:-0.29931408 56:-0.41397777 57:-0.38396609 58:1.4569606 59:0.85380536 60:0.70933366 61:-1.3034252 62:-0.2777971 63:-0.70364565 64:-0.2708661 65:-0.7890361 66:1.0005845 67:0.61015886 68:0.14217688 69:0.71220565 70:-0.43725255 71:0.67349237 72:-1.3433472 73:0.65539044 74:0.68975246 75:0.4384259 76:0.9518317 77:-0.69198751 78:0.67155248 79:0.50162375 80:0.74679565 81:-0.77279902 82:1.058416 83:-0.59228444 84:3.7377498 85:0.73603153 86:0.64349222 87:-0.68350309 88:0.027987899 89:0.76504523 90:0.33018947 91:0.42929432 92:0.64878666 93:-0.10936514 94:-0.66377711 95:-0.43491039 96:0.19372909 97:0.35461864 98:0.35947189 99:0.31457171 100:0.68652558 101:0.35841307 102:0.18272893 103:1.1230794 104:0.1251194 105:1.0950866 106:-0.04702403 107:-0.77347523 108:0.85031313 109:0.84642601 110:0.71643603 111:0.32016435 112:2.0722153 113:0.02195639 114:0.64709228 115:0.15196787 116:0.673163 117:1.1285516 118:0.56980157 119:0.12591586 120:0.76919526 121:1.1261522 122:0.61062497 123:0.65924084 124:0.42230409 125:-1.360757 126:1.6791852 127:-0.30593285 128:-0.62839204 129:0.82683086 130:0.55416095 131:0.93848765 132:-0.17318381 133:-0.13731584 134:0.85644317 135:0.9337371 136:0.65067035 137:0.088362202 138:0.53298122 139:-0.11748008 140:0.78582549 141:0.72978365 142:-0.51875085 143:-0.50829017 144:-0.48506042 145:0.51093936 146:0.47448051 147:-0.61082655 148:0.38374808 149:-0.029159127 150:-0.45963857 151:0.62257284 152:0.68954617 153:-0.29666698 154:2.1584973 155:-0.070030212 156:0.080172576 157:0.81433177 158:0.58409089 159:-0.44336471 160:-0.73119354 161:1.32715 162:-1.013308 163:-0.32568014 164:0.039008912 165:0.53311616 166:-0.57825333 167:-0.39216593 168:-0.24444588 169:0.71646225 170:-0.42302775 171:-1.0823039 172:0.63435692 173:0.8995527 174:0.7063055 175:-0.57948458 176:0.80706674 177:0.69218552 178:0.76086253 179:1.001289 180:-0.84849787 181:-0.57588041 182:-0.26283956 183:0.30364656 184:0.72115582 185:-0.02353402 186:-0.78165376 187:0.6651361 188:0.24566856 189:-0.35907349 190:0.5116393 191:-0.82963818 192:-0.16416407 193:0.79190207 194:-0.70956349 195:0.63898379 196:0.96720064 197:1.2543172 198:0.70548868 199:0.64402455 
0.2274514577814205 0:0.28455213 1:0.74963725 2:-0.51549369 3:-0.58709741 4:0.25108552 5:-0.24525534 6:-0.90225917 7:-0.35796118 8:-0.54498601 9:0.23585981 10:0.80646592 11:0.40688878 12:0.15271565 13:-0.11550824 14:-0.20082632 15:2.4280789 16:-1.283628 17:0.455138 18:0.35510743 19:-0.12057 20:-0.16111416 21:-0.017160773 22:0.38113949 23:-1.0642077 24:-0.99984401 25:-0.077578023 26:-0.81971323 27:1.0128306 28:0.78215593 29:0.41681513 30:0.069436595 31:0.49639249 32:-0.59774154 33:0.30515409 34:-0.70421809 35:-0.50305665 36:-1.1528008 37:0.21458361 38:-1.1891136 39:0.73797113 40:-0.65522963 41:0.9065665 42:0.37006217 43:-0.32693654 44:0.45160016 45:-0.53305352 46:0.073481657 47:-0.080791205 48:0.031755123 49:-0.26225629 50:0.090137288 51:-0.4361935 52:-0.055896644 53:1.115705 54:-0.047224458 55:-0.23950201 56:-0.34307495 57:-1.0154881 58:0.59425026 59:-0.62390137 60:0.24417691 61:-0.23332109 62:-0.310743 63:1.0596745 64:-0.018535547 65:0.19779848 66:-0.70285076 67:0.18690781 68:0.71525121 69:0.12571876 70:1.6875957 71:0.2038957 72:-0.47206822 73:-0.012590311 74:0.34772995 75:-0.68888474 76:-0.094105095 77:0.011437751 78:1.3889716 79:0.43764573 80:0.1639441 81:-0.14438507 82:0.73485738 83:0.72868985 84:-0.90524638 85:0.093529113 86:0.24589179 87:4.7077794 88:6.9924693 89:1.2845765 90:-0.69252753 91:0.23007591 92:0.12283902 93:-1.4153692 94:-0.57176715 95:-0.31482238 96:0.019677725 97:-0.83423066 98:0.30086628 99:-0.46243399 100:0.92143726 101:-0.25329432 102:1.4721898 103:-0.5671221 104:0.78782433 105:0.4266333 106:-0.22733749 107:-0.38551524 108:0.3887352 109:0.40829465 110:0.13808246 111:-0.12729776 112:-0.14567606 113:0.11824231 114:0.064877324 115:-0.85969985 116:0.11063533 117:0.11292586 118:0.39847246 119:1.2817222 120:0.73550767 121:-0.14368373 122:0.45167473 123:-0.60739595 124:-1.0003157 125:-0.38507611 126:1.4234837 127:0.61591649 128:0.93210679 129:0.91963065 130:0.43154815 131:0.68219846 132:-0.093802653 133:0.44457731 134:0.87308228 135:0.01635498 136:0.54452801 137:0.8129651 138:-0.19381349 139:0.48516563 140:0.49856097 141:-0.6198709 142:-0.70548469 143:0.58746409 144:-0.092292644 145:0.15170193 146:0.30023697 147:-0.23824266 148:0.82753527 149:-0.45780829 150:-1.3446922 151:0.19846785 152:0.94304729 153:-0.77593535 154:-0.41841179 155:0.26694548 156:-0.34550315 157:-0.66606027 158:-0.56419778 159:-1.2567513 160:-0.21316567 161:-0.69734329 162:0.084779136 163:0.39146453 164:-0.20428331 165:0.36128455 166:1.3801183 167:0.067129709 168:-1.6730899 169:0.012980557 170:-1.4196956 171:-0.35294491 172:-0.23423675 173:0.85122049 174:0.35021642 175:0.15228802 176:0.11921356 177:0.076059639 178:0.02033123 179:0.14142792 180:-0.4788796 181:0.60323083 182:-0.85588032 183:0.38220564 184:0.20304401 185:-1.4964323 186:-0.79735529 187:0.092000693 188:1.0443093 189:0.24065214 190:0.80306011 191:1.4180113 192:-0.048536863 193:0.44298807 194:1.3129411 195:0.10163752 196:0.72436613 197:-0.074033514 198:0.075488508 199:0.2041235 
0.1701752663844854 0:0.2807129 1:-0.86709034 2:0.15124391 3:-0.03612088 4:0.68597239 5:0.17340758 6:0.16294563 7:-0.39586774 8:-0.56737357 9:0.81363994 10:-0.51882815 11:0.63429207 12:-0.20973067 13:0.96795136 14:0.46355942 15:0.49360403 16:0.35584602 17:0.25245324 18:0.46473959 19:0.77750808 20:0.99311459 21:1.5267873 22:1.4891815 23:1.1128026 24:1.3257028 25:0.99171704 26:0.41687548 27:0.35913092 28:-0.2348527 29:0.35928205 30:1.0293368 31:0.65471548 32:-0.67016512 33:0.71716255 34:0.34523034 35:0.1662007 36:1.4260615 37:0.7038604 38:1.0245918 39:-0.38774377 40:0.58220154 41:-0.40879598 42:-0.25850308 43:0.63044256 44:0.76230502 45:0.1300126 46:0.68252498 47:0.6505264 48:-0.06251546 49:0.15293248 50:1.0332133 51:-0.1160472 52:0.61954588 53:-0.13596292 54:0.15795267 55:1.4291307 56:1.6810784 57:0.076671153 58:0.51571327 59:1.6465131 60:0.72440267 61:0.40650818 62:0.30143908 63:-0.43534857 64:-0.66483068 65:1.7858862 66:-0.032333724 67:0.44372419 68:1.7804222 69:0.65827018 70:0.17668736 71:0.67584175 72:-0.93887866 73:0.68592495 74:0.68551791 75:0.73543537 76:-0.031031273 77:1.1888974 78:1.4006611 79:0.6459375 80:0.64077032 81:-0.031944726 82:2.336762 83:0.80369598 84:1.3898314 85:0.58076942 86:0.37688515 87:-0.7659831 88:0.46621919 89:0.49983615 90:6.363307 91:5.3246665 92:1.2523843 93:1.308863 94:0.25175723 95:-0.40736544 96:0.21002711 97:0.23758546 98:1.5188112 99:-0.54637122 100:0.44218397 101:0.47798657 102:0.4178417 103:0.56881332 104:0.29367211 105:1.3080049 106:-0.01862653 107:-0.30835161 108:0.3767859 109:0.30190402 110:0.81964445 111:0.79254413 112:-0.30504426 113:0.8509962 114:0.62108237 115:0.8067897 116:0.65240872 117:0.45015481 118:0.65938556 119:0.77650881 120:1.4528043 121:0.7589224 122:0.67005277 123:-0.069097228 124:-0.30173305 125:0.87603468 126:0.16461234 127:0.062077299 128:1.0619557 129:0.030452076 130:-0.17657278 131:1.0622817 132:1.5022279 133:0.53269869 134:0.69107497 135:0.93395239 136:0.49245182 137:1.3785592 138:-0.14412133 139:0.18773025 140:0.34446272 141:0.48169997 142:0.91106081 143:-0.017864129 144:-0.099302448 145:0.7632851 146:0.32602149 147:0.018932331 148:0.61527354 149:0.5651136 150:0.72199941 151:0.5474695 152:0.74351722 153:-0.22125618 154:0.034398846 155:0.66485018 156:-0.043309551 157:0.44449314 158:-0.4626776 159:0.72578454 160:0.86289674 161:-0.025331095 162:-0.02949295 163:0.6055541 164:0.38586849 165:-0.1121911 166:0.087216146 167:0.1265382 168:0.54516274 169:0.062095579 170:0.90395468 171:-0.82585651 172:1.4430166 173:0.6770094 174:0.59623712 175:-0.42890656 176:0.51399535 177:0.71272022 178:0.61187452 179:-0.088821851 180:1.1122407 181:-0.036923405 182:2.1342571 183:0.34561333 184:0.69411361 185:0.37779158 186:1.0787268 187:0.63508886 188:0.47438976 189:1.3208721 190:-0.12389939 191:-0.55319858 192:0.68074447 193:0.26658294 194:-0.42956996 195:0.70486337 196:0.71265697 197:1.5345643 198:0.50200629 199:0.68615973 
0.1977718610635485 0:-0.09738531 1:-0.80098778 2:0.85717976 3:-0.37166876 4:-0.68764871 5:0.39744607 6:0.11718188 7:-0.31556368 8:-1.8829833 9:-1.4014906 10:-1.6319355 11:-0.15872517 12:-0.10514326 13:-0.82501531 14:-1.8702786 15:-0.049732901 16:0.25514966 17:-1.1919628 18:0.21983436 19:0.10556187 20:0.58224487 21:-2.1173003 22:-0.025846845 23:0.27285418 24:0.019854996 25:0.75705266 26:-0.86975217 27:-0.53524965 28:-0.79034853 29:-0.7340169 30:1.0950495 31:-1.3462461 32:0.63687479 33:-0.32966197 34:-0.39443997 35:0.049474172 36:-0.16514769 37:-0.2756364 38:0.64651209 39:-0.50168848 40:-1.0453789 41:-0.67860955 42:-0.72718084 43:-0.24483725 44:-0.17621821 45:-0.71642071 46:-0.31552681 47:-0.35437757 48:-1.1810861 49:-1.8264697 50:0.37241247 51:0.64303577 52:-0.45290285 53:-0.096292756 54:-1.0980086 55:-0.36114338 56:1.8985852 57:0.78805745 58:-0.5390026 59:-0.18321492 60:-0.52072638 61:-0.78640008 62:-0.35916969 63:-0.66399503 64:-0.88448912 65:-1.1285913 66:-0.3702724 67:-0.17141001 68:-0.30371076 69:-0.28723118 70:-0.027116533 71:-0.59789282 72:0.0404981 73:-0.2935425 74:-0.41071025 75:-0.7313571 76:-0.9622941 77:-1.353974 78:-0.44880772 79:-0.46683651 80:-0.13481626 81:0.76069152 82:-0.74376577 83:-0.28225178 84:-1.6772805 85:-0.59419096 86:0.18333186 87:0.15205491 88:-0.28546923 89:-0.88754779 90:-0.57497466 91:-1.2447344 92:0.29798314 93:3.094028 94:5.6054492 95:7.8396692 96:-0.81373399 97:0.1157622 98:-1.1377983 99:-1.7379298 100:-0.16602223 101:-1.9041204 102:-0.33246094 103:-0.56579983 104:1.1055311 105:-2.1181083 106:0.0098169064 107:-0.56576234 108:0.44688198 109:0.53822321 110:-0.98969889 111:0.15141192 112:-1.7051438 113:0.6715098 114:-0.14025103 115:-0.047907308 116:-0.22749561 117:-0.70000142 118:-0.33065441 119:-0.40261874 120:-0.60032785 121:-1.3177366 122:-0.16868825 123:-1.102205 124:-1.6845131 125:-1.2956935 126:-0.62046891 127:-1.7429755 128:0.18440872 129:-0.34882891 130:-1.4374416 131:-0.58996272 132:-0.6044535 133:0.5147683 134:-0.071172178 135:-0.92738193 136:-0.13463604 137:-0.38380662 138:1.7234969 139:-0.25415096 140:0.23537225 141:-1.0295932 142:1.4624529 143:0.3863107 144:0.1092253 145:0.024607232 146:-0.40436822 147:-0.049223196 148:0.17105973 149:-0.090287469 150:0.2415897 151:-0.36847916 152:-0.55787998 153:-0.60667551 154:-1.4349092 155:0.76832914 156:0.40662938 157:-0.054867346 158:-0.12059885 159:0.49459645 160:0.61054283 161:1.5423864 162:0.12053017 163:-0.3307707 164:0.45965865 165:-1.5347848 166:0.41589305 167:0.68827385 168:-1.2990931 169:-0.31500116 170:0.79371381 171:-0.59862572 172:-1.3785191 173:-0.23062082 174:-0.5923174 175:-0.27079791 176:-0.079767898 177:-0.35485461 178:-0.31613097 179:0.76754785 180:-0.34482041 181:0.27197039 182:-0.91144025 183:-0.73570919 184:-0.22136532 185:0.15233836 186:-0.65971553 187:-0.39255112 188:-0.39450029 189:0.058889881 190:0.65770626 191:1.0463316 192:-1.6285462 193:-0.44043383 194:0.020030925 195:-0.27783567 196:-0.49103841 197:-1.0107504 198:0.22295831 199:-0.35191241 
0.3525018817926325 0:0.73335516 1:1.0788648 2:1.0931231 3:0.76954538 4:0.2818329 5:1.0762895 6:1.0977849 7:0.8372646 8:0.24495925 9:0.75529069 10:0.19911075 11:0.54574627 12:1.6825565 13:-0.039192341 14:0.75917017 15:1.2073288 16:0.3584615 17:0.060567565 18:0.30401561 19:0.56386596 20:0.90582055 21:0.36633024 22:0.46176299 23:0.30435407 24:0.38503641 25:0.82196605 26:0.62547702 27:-0.23361239 28:-0.93446159 29:0.41239589 30:0.65726733 31:0.065178558 32:1.3804033 33:0.67083919 34:-0.19758585 35:0.20901912 36:0.4511275 37:0.37097731 38:0.038475268 39:0.34626335 40:0.50323111 41:0.74671417 42:0.066453412 43:0.77021569 44:0.56653279 45:0.35929471 46:0.64439654 47:0.57155764 48:0.081242152 49:0.5695945 50:0.91196668 51:0.8823601 52:0.39083794 53:0.35267591 54:2.1619906 55:0.079044707 56:0.23158747 57:1.0734076 58:0.81962186 59:0.80950844 60:0.42878997 61:1.0578797 62:0.92559659 63:0.92036283 64:0.85285473 65:0.29091644 66:0.62665665 67:1.2294677 68:0.69222969 69:0.5597921 70:0.7134375 71:0.55582744 72:0.10940045 73:0.54462773 74:0.36901608 75:1.149901 76:0.076538816 77:0.27923033 78:1.7201366 79:0.86831391 80:0.47692448 81:0.40604889 82:0.96224421 83:0.822478 84:0.9563961 85:0.44181937 86:0.80558574 87:-0.06849841 88:0.94700962 89:0.57565171 90:0.80747068 91:0.5112254 92:0.44054103 93:1.0777268 94:0.61151528 95:0.11085685 96:5.7840734 97:2.4019463 98:1.8557665 99:2.1196198 100:0.61213923 101:0.14978558 102:1.0691313 103:1.7808082 104:0.66686243 105:0.32325655 106:1.370236 107:1.9312315 108:0.67305547 109:1.0369427 110:0.65637368 111:-0.3266764 112:-0.31774762 113:-0.58548045 114:0.47136149 115:0.80453545 116:0.54687017 117:0.61410308 118:0.42462876 119:1.1099797 120:1.4008756 121:0.63258153 122:0.53185099 123:1.3129419 124:0.95057654 125:0.017760238 126:2.025305 127:-0.3822442 128:0.35557562 129:1.0040818 130:1.4319471 131:1.1619397 132:0.50644195 133:1.1315514 134:0.60033387 135:1.3285673 136:0.49427235 137:0.42139444 138:0.89632869 139:1.6862069 140:0.53579551 141:1.4292859 142:2.3063552 143:1.9330004 144:0.37127909 145:0.54237056 146:1.1471033 147:1.1979336 148:0.48547325 149:1.1716421 150:0.37118205 151:0.46007401 152:1.0951964 153:1.6096081 154:-0.31855083 155:0.041936003 156:1.6806337 157:1.1927783 158:1.5323734 159:-0.39206436 160:0.96853161 161:0.70624864 162:1.2811651 163:0.91372091 164:0.30113158 165:2.6043077 166:0.61782271 167:0.69090289 168:0.74952883 169:-0.099338412 170:0.23377216 171:0.93120486 172:1.4257283 173:0.42596897 174:0.42163777 175:2.0635831 176:0.52202588 177:0.5817064 178:0.51562411 179:0.027515465 180:0.35776982 181:0.37367046 182:0.90494817 183:0.29345298 184:0.45108515 185:0.40742612 186:1.3632704 187:0.60543448 188:1.5310441 189:0.32734689 190:0.3772465 191:0.42875955 192:1.2531662 193:1.5283467 194:1.4520133 195:0.67688012 196:1.1494919 197:2.4347978 198:0.17502645 199:0.76022953 
