svm_type c_svc
kernel_type rbf
gamma 0.00502513
nr_class 2
total_sv 70
rho 0.643998
label 1 -1
nr_sv 12 58
SV
1 0:2.8403201 1:3.5348752 2:2.944314 3:1.0782546 4:1.3088748 5:0.22568642 6:-0.92183876 7:-0.37405941 8:-0.86209744 9:0.14839208 10:-1.6847979 11:0.05239477 12:-0.19830129 13:0.88820118 14:-0.17725877 15:0.32975045 16:-0.72840649 17:0.44414911 18:-1.2605015 19:-0.75224262 20:0.6088956 21:-1.567432 22:-0.058616471 23:-0.85674238 24:-0.98361319 25:-1.6991407 26:-1.301033 27:-1.0415429 28:1.0013899 29:0.076685429 30:0.3321999 31:0.72177368 32:-0.20450428 33:0.037336197 34:-0.47997737 35:-0.2234903 36:0.19158813 37:-0.079402819 38:0.054402828 39:0.14226606 40:0.46243459 41:-0.36361447 42:-0.83254713 43:-1.256575 44:-0.80901909 45:-0.083225764 46:-0.25689209 47:-0.30945799 48:1.1433444 49:-0.48787344 50:0.07300476 51:-0.76531994 52:-1.5785131 53:-0.18345219 54:-0.59805328 55:-0.44061577 56:-1.0875083 57:-0.085020579 58:-0.2338511 59:-0.26356688 60:0.54136699 61:-0.026225418 62:0.26203287 63:-0.73491114 64:-0.095229857 65:-0.19609556 66:-1.5225778 67:0.09723293 68:0.080689244 69:-1.5469868 70:-0.085621491 71:0.056273442 72:-0.039705284 73:-0.062495172 74:0.098906241 75:0.047242869 76:-0.20172031 77:-0.1700929 78:-1.4525235 79:-0.53621989 80:-0.36674637 81:0.31020367 82:-0.96389127 83:0.78643346 84:-0.20939276 85:-0.83430433 86:-0.60548139 87:-1.2920593 88:-0.64553463 89:0.66426843 90:-1.2773584 91:-0.39370531 92:0.29077822 93:0.43850768 94:0.77868432 95:-0.11667874 96:0.33585316 97:0.61928904 98:-0.22118172 99:-0.3739033 100:-0.59839559 101:0.17474577 102:-0.77595448 103:1.3279757 104:-1.1180151 105:-1.0205958 106:1.0716943 107:-1.2686417 108:0.67183626 109:0.057482272 110:0.11283377 111:0.023437893 112:-0.98904073 113:0.64368051 114:-0.81760979 115:-0.076062649 116:0.28309774 117:-1.9688902 118:-0.3689332 119:0.21491513 120:-0.64068717 121:-0.7596609 122:0.83157992 123:0.34800324 124:1.6420832 125:0.25894868 126:-0.4235498 127:0.0852108 128:-0.0050924276 129:-0.96997303 130:-0.39823246 131:-0.54838187 132:0.13809283 133:0.24434064 134:-0.57079434 135:-1.8932017 136:0.056155413 137:-0.76701677 138:0.027226951 139:-0.48574856 140:0.76125902 141:-0.82720834 142:-0.71964037 143:-1.2240387 144:0.34384757 145:-0.85905856 146:-0.79660243 147:-1.5767393 148:0.43903416 149:-1.3905361 150:0.05700168 151:-0.76794136 152:-0.28774661 153:-0.30874997 154:-0.0056766164 155:-0.20604827 156:-0.27242249 157:0.79731417 158:0.079074211 159:-0.95537603 160:0.9900648 161:0.070233047 162:-1.5030133 163:0.095241383 164:-1.2409306 165:0.045283593 166:0.010524439 167:-0.84026003 168:-0.67040718 169:-0.40951467 170:-0.49022952 171:-0.7726903 172:-0.2235062 173:0.44662178 174:0.16206476 175:0.17911632 176:-0.25260988 177:-0.8962853 178:-2.0246022 179:0.091761254 180:-0.54523426 181:1.5913682 182:-0.67716289 183:-0.82956952 184:0.61979818 185:0.17011744 186:-0.093577132 187:-0.045679349 188:-0.59378344 189:-1.5995412 190:0.13500373 191:-0.23952579 192:-0.57487631 193:1.2503361 194:-0.20637794 195:-0.67208779 196:-0.020799918 197:0.8258568 198:0.071066983 199:0.12200877 
1 0:2.0889907 1:1.4365244 2:0.76574361 3:2.3543074 4:3.0976858 5:4.0950584 6:0.72162366 7:0.65862811 8:0.59169662 9:0.39027947 10:-1.032377 11:1.3418609 12:1.1943676 13:1.3123159 14:1.549222 15:0.26348361 16:1.6589018 17:0.83578998 18:0.77320045 19:-0.67111659 20:1.6365267 21:-0.57931703 22:0.74766868 23:0.656533 24:0.13169059 25:-0.17024411 26:-0.32406148 27:0.089515164 28:0.80096585 29:0.013986651 30:0.31517923 31:0.40256631 32:0.64277041 33:0.56213617 34:0.74244398 35:-0.95166856 36:0.57088035 37:1.0628648 38:0.32566655 39:0.83579594 40:0.3355386 41:0.36757007 42:-0.29874745 43:-1.4017756 44:0.91965282 45:-0.023614448 46:0.64029384 47:0.43512997 48:1.7140306 49:0.062238812 50:0.45221427 51:-0.92607772 52:-1.5184113 53:1.2485688 54:0.90605468 55:0.71623349 56:-0.82761091 57:0.66202182 58:0.24746469 59:0.416143 60:0.60289526 61:1.3129807 62:0.16903698 63:2.9813628 64:0.91295588 65:1.4226182 66:-0.5867582 67:0.658099 68:0.67639983 69:-0.36174241 70:0.88887799 71:1.0008683 72:0.63796818 73:0.70459491 74:0.70316577 75:0.17961755 76:0.4730607 77:0.68157423 78:0.21086819 79:0.71635991 80:0.43005469 81:1.3358338 82:0.16465524 83:-0.28440267 84:0.82046294 85:0.2547552 86:1.1681154 87:0.6591742 88:0.24391903 89:1.600529 90:-0.373319 91:-0.0095094815 92:1.3220325 93:0.5333575 94:2.3599236 95:0.71321219 96:0.71719825 97:0.78619325 98:0.66224653 99:0.96348763 100:0.18576254 101:0.75461054 102:-0.26222181 103:1.7231039 104:1.0988445 105:0.15130568 106:1.8362154 107:-0.17747419 108:2.4094346 109:-0.4869858 110:0.70112354 111:0.93048221 112:1.5423832 113:0.69809943 114:1.8050538 115:0.74268091 116:0.73782462 117:-0.44818637 118:0.8182897 119:0.59873748 120:1.3787994 121:0.29879019 122:0.97968328 123:1.5263718 124:1.1001197 125:1.5222158 126:0.56252909 127:0.60218841 128:0.64106226 129:-0.11667692 130:0.21273489 131:1.667331 132:1.3137355 133:1.4163618 134:1.0190518 135:0.12875277 136:0.24305619 137:2.2308977 138:0.77487165 139:0.62218887 140:2.3257961 141:-0.54722196 142:-0.77229881 143:-0.11221999 144:1.8736571 145:-0.36169839 146:0.37126467 147:-0.031298358 148:1.0150867 149:1.2778931 150:0.31480142 151:0.55255729 152:0.51288193 153:0.35542521 154:0.64920443 155:1.376578 156:0.49321914 157:0.031458762 158:-0.15567292 159:-0.25038835 160:0.76784354 161:-0.0063746199 162:0.14567013 163:-0.33375457 164:0.17625925 165:0.45822671 166:0.23026554 167:1.0216734 168:0.92303377 169:0.97964412 170:1.0747662 171:-0.00590197 172:0.29424325 173:1.0698919 174:0.50428754 175:-0.30646944 176:-0.84753168 177:0.20138487 178:0.71493125 179:0.5609147 180:0.32648051 181:0.6543926 182:0.29519701 183:0.23968211 184:1.2662748 185:0.59161305 186:0.61312538 187:-0.25424874 188:-0.75336492 189:-0.43009999 190:0.47635505 191:0.056969251 192:-0.46611771 193:1.6039901 194:0.061716981 195:1.6879783 196:0.79113704 197:0.95357454 198:0.64218986 199:0.32423252 
1 0:-0.14791748 1:0.31361631 2:1.0864345 3:-1.1189306 4:-0.77572209 5:-0.11635447 6:4.771235 7:1.1279851 8:4.7295184 9:-0.37912434 10:0.25432649 11:-1.1248889 12:-1.7162929 13:-0.93135393 14:0.10039441 15:0.89418471 16:-1.9946709 17:-0.28195533 18:-1.0652449 19:-0.82662022 20:-0.80942637 21:-0.75627816 22:-0.11760083 23:-2.2146859 24:-1.0024351 25:0.43363273 26:0.1866004 27:-1.147982 28:0.33373749 29:-0.046711307 30:0.089106403 31:0.19210009 32:-0.79810095 33:-0.70854402 34:-1.4900448 35:-0.38767543 36:-1.0824895 37:-0.57212234 38:-0.99590766 39:-0.54609531 40:-0.89308739 41:-0.5384475 42:-0.40826359 43:-0.23366231 44:-0.1516294 45:-0.9441666 46:-1.2266742 47:-1.9256306 48:-1.1680857 49:-0.072504409 50:-1.1726422 51:-1.1793584 52:0.20744279 53:-0.71805167 54:-0.94889498 55:-0.81861001 56:0.66956896 57:-1.5191627 58:-0.32371733 59:-0.10571644 60:-0.90169817 61:-0.77515632 62:-0.24767409 63:-0.13885556 64:-0.27332285 65:-1.358557 66:0.041314099 67:-1.3589286 68:-1.0501097 69:-0.80312461 70:-0.11624136 71:-0.81642663 72:-1.0876268 73:-0.84933853 74:-0.67111534 75:0.060483273 76:0.49432263 77:-0.32596478 78:0.66961336 79:-0.80479592 80:-1.6649206 81:-0.58816051 82:0.10218057 83:-0.26796597 84:0.74919486 85:-1.4019109 86:1.660952 87:-1.1297669 88:-0.62730694 89:-1.5339197 90:0.12240504 91:-0.30652988 92:-1.4581972 93:-1.4129817 94:-0.40201986 95:-0.71377379 96:-0.96682131 97:-2.0174429 98:-1.0974094 99:-1.9360992 100:-1.5280663 101:-1.5733593 102:-1.4685918 103:-0.82926452 104:-0.84105712 105:-0.71749043 106:-1.9393438 107:0.48242748 108:0.43962085 109:0.48216009 110:-1.0179002 111:0.84457588 112:-0.32063735 113:-1.3497564 114:-1.4873441 115:0.7107656 116:-0.75119263 117:-0.29615456 118:-0.63539195 119:-0.20316158 120:-0.35496888 121:-0.53262067 122:-0.57502389 123:-0.11196028 124:0.0064779273 125:-0.33424583 126:-1.263952 127:-0.94971657 128:-0.083125368 129:0.066491432 130:-0.031832226 131:0.92805576 132:-0.75583571 133:-0.61014116 134:-1.2720487 135:-0.13524891 136:-1.0732322 137:-1.4624914 138:0.066887014 139:0.75804549 140:-0.63032997 141:-1.0320463 142:-0.61678565 143:-0.29025301 144:-0.13648753 145:-0.38540816 146:-0.01288325 147:-0.35042986 148:-1.0924071 149:-0.74286282 150:-1.2429066 151:-0.29918176 152:-1.6998222 153:-1.7929324 154:-1.0945301 155:-0.8074432 156:-0.052339032 157:-0.8548795 158:-0.60537273 159:-2.0210509 160:0.36457074 161:1.0881493 162:0.53885889 163:-0.13742338 164:-1.3098947 165:-0.40901747 166:-0.15381622 167:1.1829942 168:-0.93850714 169:-1.0650183 170:-1.4131576 171:-1.6628215 172:-0.57011181 173:-1.6392401 174:-1.3683078 175:-2.2186096 176:0.15320982 177:-1.0377504 178:0.44430783 179:-1.5085303 180:0.2934106 181:-0.28596544 182:-1.1309721 183:1.6891172 184:-1.1703168 185:-0.36278105 186:-1.3627751 187:-1.2221671 188:-0.24100022 189:-0.38933748 190:-1.3720807 191:0.46300149 192:0.22800307 193:-0.14660113 194:-0.2355081 195:-1.3898196 196:-1.172456 197:-0.17978221 198:-1.2850703 199:-1.1245471 
1 0:0.22698608 1:1.5664474 2:-0.3595584 3:-0.43048504 4:-0.1669718 5:0.27775961 6:0.6467135 7:-0.49849987 8:-0.66793561 9:6.9724379 10:2.6718593 11:5.2901115 12:0.20624858 13:0.23337108 14:-0.6954121 15:-0.048379499 16:-1.8747622 17:1.6650978 18:-0.60176259 19:-0.81952554 20:0.48074269 21:0.34164068 22:-0.17722464 23:-0.43939412 24:-0.40184313 25:1.2233248 26:-1.4585205 27:2.0596285 28:-0.22747919 29:1.2923255 30:-0.65280592 31:-1.3045094 32:-1.2333201 33:0.34413165 34:-0.05692023 35:0.0050631142 36:0.19825502 37:-1.6647437 38:-0.86749262 39:-0.46949959 40:-0.10680203 41:0.62100458 42:0.59740448 43:0.45814997 44:0.07491041 45:-1.6030425 46:0.13112444 47:-0.26926503 48:-0.86077285 49:-0.18303318 50:-0.47752017 51:0.22269678 52:-1.1641983 53:-0.52537775 54:-1.3485396 55:-0.060125481 56:-1.1406928 57:-0.068982534 58:2.3587139 59:-0.25750339 60:-0.2947289 61:-1.3616453 62:-1.3852011 63:-0.62004721 64:-0.87072676 65:-0.58876193 66:-0.45997706 67:0.11806715 68:-0.1990184 69:-0.058116507 70:-0.87634891 71:-0.37767705 72:0.31491637 73:-0.16924842 74:0.17331983 75:-0.080060504 76:-0.56962281 77:-9.494734e-05 78:-0.39145625 79:-0.70636725 80:-0.74942595 81:-0.18447614 82:-0.47224215 83:-1.4387486 84:-0.7418974 85:-0.40506417 86:0.50769836 87:-1.4185066 88:-0.90371543 89:-0.20654421 90:0.39428431 91:-0.88113958 92:-0.91733569 93:-1.2800909 94:0.16172945 95:0.25524998 96:0.11465224 97:-1.7730439 98:0.096504733 99:-0.33007169 100:-1.0829406 101:0.10143893 102:-1.1135627 103:0.43037114 104:-0.092297889 105:-0.66420782 106:-1.1611972 107:-0.50261289 108:-1.0211591 109:0.045092788 110:-0.035993993 111:0.33076966 112:0.55415094 113:-0.8717373 114:-1.251078 115:-1.4680543 116:-0.11574032 117:-0.41106743 118:-0.39151856 119:-1.1790289 120:0.70956206 121:-0.63041168 122:-0.20249733 123:-0.32405618 124:0.36432606 125:0.16580488 126:-0.011440074 127:0.1329076 128:0.92979389 129:-0.31783161 130:-0.52967817 131:-0.64199245 132:-0.26247633 133:-0.27937421 134:0.066582017 135:1.0400746 136:-0.8214438 137:0.7072953 138:0.051935799 139:-0.77913487 140:0.13727684 141:-0.24472155 142:-0.2462516 143:-0.22433148 144:-0.36727238 145:0.036428474 146:-0.74566889 147:2.0232139 148:0.50608945 149:-0.59817338 150:-0.7185604 151:1.4224486 152:0.60777271 153:-0.93326944 154:0.16261709 155:0.83401334 156:-0.44185081 157:-0.75861311 158:-1.3372737 159:-0.34723589 160:-0.64972359 161:1.316129 162:1.4286455 163:0.32528982 164:0.4477517 165:0.77160025 166:-0.20329174 167:-0.96845913 168:-1.0284979 169:-1.8445318 170:-1.0855368 171:-0.18708833 172:-0.60776865 173:-0.074552588 174:0.15387449 175:0.07182584 176:1.0182503 177:-1.2236909 178:-0.034233876 179:0.24476159 180:-1.1926365 181:-0.31275213 182:-0.39398548 183:0.30954534 184:-0.37860206 185:-0.31802979 186:0.13342641 187:-0.26053253 188:-1.3582658 189:0.65610588 190:-0.72590041 191:-0.68252796 192:0.65757316 193:-0.34811896 194:-0.34711087 195:0.96126926 196:0.33162606 197:0.17044133 198:0.33161843 199:-0.66032493 
1 0:-0.32255492 1:0.66241568 2:1.5231318 3:0.28445134 4:0.48806101 5:0.17069769 6:1.2267967 7:-0.32914579 8:-0.71477425 9:-0.83712023 10:1.1483396 11:0.2162426 12:3.8082526 13:1.1903093 14:2.6507819 15:0.90658975 16:0.54568911 17:0.76061153 18:-0.67940027 19:0.28054819 20:0.77939999 21:0.36614275 22:-0.089749672 23:-1.5372106 24:-0.51517314 25:-0.051388957 26:0.41891113 27:0.61534351 28:-0.01859103 29:-0.63454223 30:0.20956329 31:0.23996158 32:0.15169263 33:-0.0074864626 34:-0.70852971 35:0.30269331 36:-0.036988251 37:0.19007136 38:1.0371534 39:0.28215873 40:0.46163183 41:0.23336481 42:-0.69406676 43:0.62300521 44:-0.20165224 45:-0.13264389 46:-0.29051688 47:0.62508249 48:0.44876093 49:0.10447966 50:0.11499614 51:0.8879388 52:-0.39214578 53:1.2574602 54:-1.5349536 55:-0.35658866 56:-0.45977971 57:-0.31975061 58:-0.29916731 59:0.74824625 60:0.28366393 61:0.29460976 62:-0.24934232 63:0.54094648 64:0.17178847 65:0.57272148 66:-0.73176962 67:-0.23750405 68:-0.10073581 69:-0.46631736 70:0.13298208 71:1.3627981 72:0.017908584 73:0.14875837 74:0.24083057 75:-1.177862 76:0.28233656 77:-0.0045891218 78:-0.69775641 79:-0.57936424 80:-0.64932108 81:-0.29395461 82:-0.77756274 83:0.061691407 84:1.1825485 85:0.054524094 86:-1.4103204 87:-0.6985504 88:0.30747044 89:0.11663768 90:0.044744868 91:0.090629816 92:0.74980164 93:0.15667027 94:0.043506388 95:0.18578951 96:0.3752422 97:-1.3121289 98:-0.21696605 99:-0.91786748 100:-1.0575917 101:0.23293069 102:-0.43098581 103:-0.058474991 104:-0.58008951 105:-0.85908347 106:-0.84827572 107:-0.53952128 108:0.40771028 109:1.2981341 110:-0.19132039 111:0.63811415 112:-0.027259884 113:-0.27848297 114:-0.68905997 115:-0.073353142 116:-0.066268474 117:-1.2168311 118:-0.46192661 119:0.28708762 120:-0.56429911 121:-1.521825 122:0.7945388 123:0.40743086 124:0.06175451 125:0.49624109 126:-0.36364695 127:0.1953875 128:-0.69448346 129:0.91772854 130:0.4664717 131:-0.13147691 132:0.028201889 133:0.85016954 134:-0.48675194 135:1.128826 136:-0.67028499 137:-0.99381423 138:0.046018269 139:0.70074725 140:1.2135895 141:-0.62205356 142:-0.3547188 143:-0.62575901 144:-0.22505945 145:-0.52764219 146:-0.091788068 147:0.57532918 148:1.0255502 149:-1.1886737 150:-0.42545262 151:1.2067298 152:-0.73389018 153:0.81635487 154:0.29507512 155:1.8968045 156:0.17826374 157:-0.4297733 158:-1.131704 159:0.041833527 160:-0.24980469 161:-0.11374432 162:-0.39595348 163:0.71868467 164:0.18598606 165:0.13977917 166:-0.16054288 167:0.12316641 168:-0.058987632 169:-0.77959698 170:-1.1726416 171:-0.64050132 172:-0.23878263 173:0.15446515 174:0.23920004 175:0.037143536 176:1.3036911 177:0.23784497 178:-0.61309445 179:-0.3866916 180:1.1314721 181:0.15836272 182:-0.43986934 183:1.7719414 184:0.24095036 185:0.71214718 186:-0.044134703 187:-0.026548084 188:-0.10345843 189:-0.30083534 190:-0.20851004 191:1.6233337 192:-0.23956606 193:1.2132956 194:1.8696725 195:-1.0233191 196:-0.13810223 197:0.25452697 198:-0.10125627 199:0.21790342 
1 0:-0.079320632 1:0.07242588 2:0.31971487 3:0.33469144 4:0.74943906 5:-0.10009319 6:0.94498861 7:0.46604657 8:1.3627366 9:0.77952039 10:0.88632613 11:0.044337805 12:0.21850523 13:0.19681382 14:0.97792101 15:1.9419912 16:2.1049085 17:2.0275738 18:0.6736083 19:-0.1389692 20:0.44454768 21:-0.39531121 22:0.33006701 23:2.108072 24:0.30362573 25:0.82640672 26:0.67779112 27:1.7565384 28:0.005750556 29:0.78114653 30:-0.45531827 31:-0.1531273 32:0.035465144 33:0.52451158 34:0.7627126 35:0.073669322 36:0.55632532 37:0.70920342 38:0.52812892 39:0.22997358 40:0.59355521 41:0.35123721 42:0.69780111 43:1.4843789 44:0.59864634 45:0.12346863 46:0.68029189 47:-0.37608716 48:1.3249266 49:0.13662069 50:0.29786539 51:1.4896959 52:0.37070712 53:-0.71516269 54:-0.0073416214 55:0.23642294 56:0.93162405 57:0.079790324 58:1.7171847 59:0.3638292 60:0.60541356 61:-0.078631654 62:-0.19390738 63:0.91354752 64:-0.3493751 65:0.34364021 66:1.2349038 67:0.62305111 68:0.60490757 69:0.92692536 70:0.17362855 71:0.96207714 72:0.58500314 73:0.63925952 74:0.48018491 75:0.032802965 76:-0.32590634 77:0.16035551 78:0.74867076 79:0.35947356 80:0.66991234 81:0.62216854 82:-0.091190651 83:-0.31234571 84:-0.30826494 85:0.38648999 86:1.3308913 87:0.77609104 88:-0.42282924 89:0.052765496 90:-0.037939541 91:0.84854275 92:0.91389376 93:-0.020881809 94:0.29389617 95:0.43242449 96:0.87781054 97:1.0786753 98:0.55193186 99:0.14874426 100:0.568609 101:0.56757623 102:0.096166708 103:-0.25265157 104:0.74445003 105:0.65695775 106:0.88824958 107:-0.15696609 108:0.44245371 109:0.26977873 110:0.48357189 111:-0.095727749 112:-0.33709618 113:0.68266398 114:1.461184 115:0.68745989 116:0.26347199 117:1.4330938 118:0.37413025 119:0.57802469 120:0.04428241 121:0.68092346 122:1.8378602 123:0.049323399 124:0.95894963 125:-0.72552776 126:0.73232496 127:0.55585462 128:0.43755415 129:0.007781358 130:0.21573441 131:-0.60166413 132:0.2004776 133:0.64975119 134:-0.70719677 135:1.2164782 136:2.6987803 137:0.38189909 138:0.07467214 139:0.069949917 140:-0.12828434 141:1.0790417 142:-0.20507166 143:-0.32678431 144:-0.13862288 145:-0.45064223 146:1.7584746 147:1.2504559 148:0.53000832 149:1.798792 150:1.1565284 151:-0.19051929 152:0.57446146 153:-0.78356194 154:0.51734567 155:0.032001037 156:-0.32581148 157:1.0137943 158:0.265073 159:3.5453508 160:0.36650765 161:0.88925385 162:1.0244318 163:-0.032895453 164:1.6846126 165:-0.04551572 166:0.15146896 167:1.0156507 168:-0.061780427 169:0.44248906 170:0.45691252 171:0.085124567 172:0.36939096 173:0.61471814 174:1.7951336 175:0.55389941 176:0.84276921 177:2.5756755 178:1.3133221 179:0.57899433 180:1.6901174 181:0.73008192 182:0.59557575 183:0.46374133 184:0.62873298 185:1.1066984 186:0.5676173 187:-0.48680505 188:1.5737822 189:2.6835153 190:0.0018291104 191:0.09101136 192:1.0038311 193:0.064039581 194:1.2708282 195:-0.44517958 196:0.36889097 197:-0.073881783 198:0.56869042 199:0.94937843 
1 0:-0.27896172 1:0.18350782 2:-0.93015856 3:0.42208734 4:0.70343524 5:1.2901224 6:-0.35872334 7:0.47108281 8:0.018300466 9:0.27452374 10:-0.11345495 11:0.22709626 12:-0.56052411 13:0.40996072 14:0.3125717 15:-0.39036417 16:0.3115367 17:0.086853869 18:5.2363052 19:7.1143823 20:2.7258413 21:-1.2015251 22:-0.60886556 23:1.3674611 24:-0.44007447 25:0.93402213 26:-0.20463091 27:-0.53313684 28:-0.53739345 29:-0.04262371 30:-0.81991249 31:0.6195907 32:1.0912895 33:0.60880637 34:0.56473231 35:-0.14059547 36:0.59680718 37:1.0053333 38:0.052923005 39:0.62441719 40:0.39574024 41:-0.41520298 42:-0.33270112 43:1.238157 44:1.0422643 45:-0.29801476 46:0.6437397 47:0.60557795 48:0.75280321 49:-0.26615718 50:1.3671567 51:-0.55106211 52:-1.4319823 53:0.61231464 54:0.44854766 55:0.18651319 56:-1.2408615 57:0.77303582 58:1.8052068 59:0.53849161 60:0.52934915 61:-0.59526545 62:0.58230096 63:1.6701988 64:-0.042768076 65:0.32092768 66:2.1150777 67:0.70138532 68:0.58627748 69:1.8465595 70:0.0082840649 71:-1.0516151 72:0.61063516 73:0.68827975 74:0.51922137 75:0.353432 76:-0.42270562 77:0.63459641 78:0.1976108 79:0.67002082 80:0.49771634 81:0.99215424 82:-0.19525564 83:0.25289032 84:-0.98846632 85:0.058211681 86:-0.54755878 87:0.37539309 88:0.97459745 89:-0.62139016 90:0.16697876 91:0.67560607 92:-0.32399881 93:0.24091935 94:0.83205736 95:0.48719811 96:0.39050409 97:0.33369178 98:0.57619858 99:0.62732416 100:1.9359084 101:0.59519893 102:-0.80920112 103:0.25460854 104:0.88962328 105:0.87495005 106:0.20063657 107:0.040470146 108:-0.97611809 109:-0.98460799 110:0.60713482 111:0.87579948 112:-0.70205659 113:0.61336309 114:0.3249568 115:-0.45149681 116:0.42310089 117:0.12612845 118:0.39395681 119:0.59157592 120:-0.87100124 121:1.1191894 122:0.48711935 123:-0.28826463 124:-0.12778148 125:0.47676826 126:0.6128611 127:0.61409503 128:1.2506474 129:-0.72124267 130:-0.89808649 131:0.38290298 132:0.35070235 133:0.50479513 134:0.38404396 135:1.0481156 136:1.1435409 137:0.63687831 138:0.56472576 139:-0.78879213 140:-0.62837571 141:1.0066146 142:-0.070568301 143:-0.070103586 144:0.42057356 145:-0.52551657 146:0.9670946 147:0.87344497 148:0.42417455 149:1.1564631 150:1.302317 151:-0.81561762 152:0.63124013 153:0.15465185 154:0.52439517 155:-1.2347198 156:0.50238144 157:0.36886209 158:0.037673328 159:-0.7840299 160:-0.003539294 161:-0.28209096 162:-0.17965092 163:-0.98471415 164:1.8231966 165:0.12274525 166:-0.2264353 167:-0.48763174 168:0.78604978 169:0.0069817146 170:0.53176105 171:0.30195662 172:-0.54353541 173:1.2784897 174:0.39475781 175:0.92774564 176:-1.3184836 177:0.63513207 178:1.3735071 179:0.68640608 180:0.30204394 181:0.17252895 182:0.39529616 183:0.16226549 184:1.2786373 185:-0.48074222 186:0.56658465 187:0.74167234 188:-0.67334729 189:0.86871022 190:0.41213104 191:-1.0783658 192:-0.33699384 193:-0.42060116 194:0.24019553 195:-0.24157989 196:0.44612172 197:-1.0436049 198:0.65197128 199:0.92281711 
1 0:-1.4104116 1:-1.7415113 2:-1.4244576 3:-0.33201849 4:0.30429915 5:-0.95311368 6:0.23699687 7:-0.11133974 8:-0.40176094 9:-1.1071193 10:-0.81775165 11:-1.375591 12:0.81743789 13:0.42324895 14:-0.27486113 15:-0.76923823 16:-0.10515921 17:-0.92209005 18:-1.3169914 19:-0.57220441 20:-1.5356351 21:5.2122812 22:4.4570651 23:1.016758 24:-0.24729528 25:-0.93570012 26:0.4756138 27:-1.1238464 28:-0.45115948 29:-0.040164463 30:-0.67758393 31:-1.2445456 32:-1.8033504 33:-0.16774589 34:-0.34534544 35:-0.0077895098 36:0.0094197411 37:-1.0022967 38:0.52735043 39:-0.18008338 40:-1.3098178 41:-0.89248013 42:0.12839687 43:-0.16640109 44:-1.0135965 45:0.84309226 46:0.05877221 47:-0.75060982 48:-1.1764171 49:0.023013573 50:-0.98437369 51:-0.082591109 52:-0.042103615 53:-1.7234957 54:-0.73959327 55:-0.34938043 56:1.6200546 57:0.14849924 58:-1.3319845 59:0.27112877 60:-0.028294442 61:0.40828794 62:-1.1584055 63:-1.0423284 64:-0.058502268 65:-0.30032644 66:-0.79656816 67:0.10938209 68:-0.035248294 69:-0.68674052 70:-0.38726336 71:0.70442539 72:0.185721 73:-0.27021447 74:-0.032674197 75:-0.26923373 76:-0.75102037 77:0.083300471 78:-1.1759862 79:-0.42525327 80:-0.013255893 81:0.78714556 82:0.18470794 83:-0.23612726 84:-0.99655002 85:-0.92164493 86:-0.91211182 87:0.01642317 88:-0.11861555 89:-0.0021446871 90:-0.51469696 91:-1.1095378 92:-1.4525031 93:0.045630619 94:-1.4337515 95:0.092772894 96:-0.20218551 97:0.91002655 98:0.20825368 99:-0.37823382 100:-0.95095462 101:0.21746919 102:1.200765 103:-0.58779985 104:0.26090333 105:-0.49287343 106:-0.77954602 107:-0.72717196 108:-1.013515 109:-0.64707822 110:-0.17529567 111:-0.63631648 112:0.08660575 113:-0.19832917 114:0.40125394 115:-1.076795 116:0.037190538 117:-0.81290346 118:0.015542618 119:-0.6770457 120:-0.85209304 121:-0.52147758 122:-1.0597513 123:-0.15984116 124:-0.37713769 125:-0.79787546 126:-0.15541838 127:0.066959932 128:-0.32799402 129:-0.7204079 130:-0.29801506 131:-0.38380942 132:-1.542487 133:-0.72335345 134:0.90239435 135:0.52748704 136:0.31265086 137:-0.47746494 138:-0.14956461 139:-0.57394528 140:-1.2534024 141:0.19458358 142:0.45243719 143:1.7160264 144:-0.92948347 145:-0.7421084 146:-0.7246269 147:-1.1796106 148:0.11238206 149:0.98274177 150:-0.50835323 151:-0.84773993 152:0.27640772 153:0.39916959 154:0.31566781 155:-0.25462645 156:0.67212671 157:0.78247482 158:-0.41168317 159:-1.3296094 160:0.08398845 161:-1.0481424 162:-0.75812095 163:-0.94936258 164:-1.1951588 165:-0.66119319 166:0.16916725 167:-1.1193361 168:-0.29280725 169:-0.1615144 170:-0.8741141 171:0.24789649 172:-0.93277454 173:-0.98276526 174:-0.80238509 175:-1.0755441 176:-0.0013848769 177:-1.4134854 178:-1.0687342 179:0.29926947 180:-1.2492784 181:-1.1626409 182:0.020970834 183:-0.089707367 184:-0.80362362 185:-1.1434416 186:0.083932348 187:-0.77481061 188:-0.9724806 189:-1.3243722 190:-0.83803171 191:-0.65532482 192:-1.3012451 193:-1.245968 194:-0.88303882 195:-0.28964898 196:0.33497098 197:-0.46073747 198:0.17526075 199:0.63041902 
1 0:0.40898022 1:0.92875475 2:-0.78041273 3:0.80217415 4:-0.16871162 5:-0.64261365 6:0.21577802 7:0.76939255 8:-0.80068046 9:0.21383306 10:0.43251613 11:0.52487409 12:0.52519226 13:-0.8661384 14:0.043492477 15:0.43673286 16:-1.0125304 17:0.49844053 18:-0.65574944 19:-0.9742052 20:-0.10163891 21:0.30720326 22:0.11563044 23:-0.51609993 24:7.4673963 25:2.1958921 26:3.1682901 27:-2.0987546 28:-0.20273058 29:0.71940762 30:-0.29103968 31:0.012053275 32:0.99225557 33:-0.62271136 34:-0.23097187 35:0.10680676 36:-1.2730365 37:0.2122225 38:0.7804004 39:-1.261682 40:-0.21414323 41:-0.77410829 42:-1.0544487 43:0.10857081 44:-0.76789957 45:-0.56441808 46:-0.79366881 47:-0.20735212 48:0.5725674 49:0.15187345 50:0.023558119 51:0.10912264 52:0.96123803 53:-0.18337291 54:-0.57244617 55:-0.29723027 56:0.6679706 57:-1.7310985 58:-0.65554065 59:-1.0566649 60:-1.6196089 61:-0.85903603 62:-1.4076883 63:-1.5594708 64:0.4164317 65:-0.10528197 66:-1.0972137 67:-1.4087162 68:-1.4451699 69:0.99357879 70:-0.54785621 71:-0.039399803 72:-1.3168567 73:-0.49314916 74:-1.0382557 75:0.19697002 76:-0.3965379 77:-1.4614295 78:0.28440359 79:-0.96161979 80:-0.73758489 81:-0.80685383 82:1.7021828 83:-0.59486651 84:-1.0082119 85:-1.0840881 86:-0.20273703 87:0.44462544 88:-0.10670855 89:1.1731787 90:1.3630219 91:1.0043093 92:0.29708654 93:-2.04651 94:-1.2766016 95:-0.81972879 96:-2.0559397 97:-2.0644581 98:-0.88649064 99:-1.7201822 100:-0.83842397 101:-1.9539436 102:-0.72655678 103:0.28259003 104:-0.3659918 105:0.39197662 106:-1.3852327 107:-2.3971519 108:-0.30550048 109:1.3458505 110:-1.521471 111:0.26586178 112:0.44588172 113:-0.83588451 114:-1.6638478 115:-1.2182884 116:-1.0522205 117:0.19875328 118:-1.2909893 119:-0.2578747 120:-1.595548 121:-0.39819089 122:-1.0385226 123:0.079252258 124:-0.6785683 125:1.3495961 126:-0.55598122 127:-1.1438313 128:0.13026193 129:-0.38842088 130:0.86575598 131:0.26753628 132:-1.2499543 133:-1.2908453 134:0.28987753 135:0.19935255 136:0.37653616 137:0.68854433 138:-1.1501839 139:0.33767208 140:-0.88134325 141:0.070105083 142:1.5506253 143:0.22558412 144:-0.8084178 145:0.60625815 146:-1.2689289 147:1.4083439 148:-0.79552001 149:0.41497788 150:-0.60872215 151:0.74228942 152:-1.1234236 153:0.56397307 154:-1.4126277 155:0.2694661 156:-1.9715096 157:-0.96574062 158:-0.36101383 159:2.0089099 160:-1.1674471 161:-0.34583434 162:0.66811538 163:0.18689588 164:-1.2403054 165:0.18824561 166:-0.57743067 167:-0.081165306 168:-1.9800085 169:-0.28560773 170:-0.86906743 171:0.40603215 172:-0.21242578 173:-0.3440015 174:-0.90790337 175:0.35090601 176:-0.17296904 177:-0.25173217 178:0.38495457 179:-1.3345112 180:-0.016667763 181:1.65098 182:-1.124815 183:0.055856183 184:0.62076855 185:-0.59497541 186:-1.1041213 187:-0.56761259 188:0.73078918 189:-0.66200358 190:-0.49177429 191:0.93734127 192:-0.52000093 193:-0.92904347 194:0.85429102 195:1.2597537 196:-1.0333735 197:-0.50648522 198:-1.1392156 199:-0.72803724 
1 0:-1.4334999 1:-1.5828058 2:-1.6217968 3:-1.459123 4:-3.6779909 5:-1.9040623 6:-1.027881 7:-5.0748477 8:-0.19918743 9:-1.0099684 10:-1.1284634 11:-1.2498682 12:-3.2385886 13:-4.0375533 14:-1.3027354 15:-0.91819853 16:-3.2080369 17:-1.330515 18:-1.4686265 19:-0.52129465 20:-2.3631167 21:-1.0667098 22:-1.3700265 23:-1.7704755 24:0.68369925 25:-1.6684585 26:-3.284817 27:0.91001773 28:6.3056393 29:5.8629422 30:-1.0307977 31:-4.7468724 32:-1.6251498 33:-5.7931547 34:-5.0165567 35:-0.98414397 36:-5.2072349 37:-3.6937129 38:-4.3647313 39:-5.0522304 40:-1.0131289 41:-1.4533817 42:0.90933931 43:-1.8630041 44:-0.89316702 45:-4.5498214 46:-4.9679594 47:-2.4958003 48:-2.9054205 49:-2.0292273 50:-1.4664124 51:-0.74017203 52:-1.3527724 53:-2.548456 54:-3.0831344 55:-4.4374504 56:-0.69731969 57:-4.6355104 58:-2.0413868 59:-4.5924273 60:-4.7559552 61:-1.8312646 62:-4.0953851 63:1.0843281 64:-1.2997783 65:-5.1758075 66:-0.56134838 67:-5.0004587 68:-4.588273 69:-2.0378859 70:-0.58408231 71:-3.0354428 72:-5.0960541 73:-4.9694715 74:-5.3970957 75:0.44883111 76:0.33179754 77:-4.7348022 78:-0.84948057 79:-3.937094 80:-5.3813591 81:-0.71319497 82:-2.2375352 83:-2.8112226 84:-1.5112276 85:-1.3708586 86:1.6525493 87:-1.8862238 88:-0.56717753 89:-1.6247244 90:-1.7117711 91:-0.15531637 92:-1.9596505 93:-4.2585793 94:-2.7748494 95:-5.0033255 96:-4.6198072 97:-3.1761339 98:-5.2173514 99:-3.7108712 100:-1.9348834 101:-4.0440269 102:-2.114732 103:-2.0800538 104:-2.2971716 105:-0.84684265 106:-1.8399246 107:-2.9140677 108:-1.496879 109:-0.77198535 110:-4.6594667 111:-2.537663 112:-0.96465462 113:-4.9192729 114:-3.6210458 115:-2.5100379 116:-5.1855412 117:-1.0131025 118:-4.9113507 119:-5.2008739 120:-0.77213424 121:-2.0549581 122:-1.1362306 123:-2.0993609 124:-0.80226916 125:-1.7444474 126:-5.0049949 127:-5.17169 128:-0.95140994 129:-0.90892774 130:-1.8235915 131:-1.7359602 132:-1.3024698 133:-1.2700148 134:-3.6332316 135:-1.8503687 136:-2.4317052 137:-1.3705764 138:-5.2328939 139:-1.8254461 140:-1.2931634 141:-1.7190444 142:-0.36280626 143:-1.4482617 144:-0.78365666 145:-0.54426312 146:-1.7458022 147:1.6581231 148:-4.6147699 149:-2.2879758 150:-2.81863 151:-1.6413577 152:-5.60919 153:-2.8168619 154:-4.8649473 155:-2.750057 156:-4.0388517 157:-4.0519781 158:-0.46818498 159:-1.5291786 160:-1.6109563 161:-1.0732424 162:2.2204094 163:-1.0909245 164:-2.7330482 165:-1.4833367 166:0.14018218 167:-0.95910019 168:-3.2501152 169:-1.9936475 170:-4.1861873 171:-3.5523944 172:-2.9477115 173:-2.77773 174:-1.181402 175:-2.2055981 176:-0.23441255 177:0.79504353 178:-0.32380885 179:-5.0905848 180:-1.3650986 181:-1.0234579 182:-4.3107867 183:-1.6281686 184:-2.6991229 185:-1.1906585 186:-5.0959573 187:-1.6304458 188:-1.8652774 189:-0.60383475 190:-5.3505325 191:-1.7553568 192:-0.61468577 193:-1.3611225 194:-2.1324883 195:-1.4575917 196:-5.7278304 197:-0.84403998 198:-4.9353981 199:-5.2557869 
1 0:-0.17431737 1:-0.28444898 2:1.1486787 3:-0.1923718 4:0.16412559 5:-0.72051233 6:0.37975633 7:0.14416206 8:-0.020966515 9:-0.19145294 10:0.61618811 11:-0.52170074 12:-0.39941871 13:1.4056547 14:0.55815458 15:0.94730961 16:-0.20537776 17:1.085389 18:0.40581533 19:-0.19475707 20:1.3202438 21:0.52091026 22:0.73687106 23:-0.49673805 24:0.33103737 25:0.73085618 26:-0.2975747 27:0.81211907 28:-0.88590568 29:-0.65366697 30:5.1428666 31:1.7963305 32:5.4679708 33:0.47732872 34:0.46872044 35:-0.21150738 36:0.56798738 37:0.95976496 38:1.1893649 39:0.24950011 40:1.4252141 41:-0.69274896 42:0.45192757 43:-0.058332339 44:0.30685434 45:-0.37868872 46:0.55696374 47:-0.4845385 48:-0.11844955 49:-0.50343537 50:0.47483411 51:-0.25208309 52:0.7540704 53:0.49305335 54:0.20334674 55:-0.040351529 56:0.49345481 57:0.12651533 58:2.0176449 59:0.0061533903 60:0.5411725 61:0.24325909 62:0.017882513 63:-0.086654715 64:-0.31084621 65:-0.49150476 66:1.3176327 67:0.53761989 68:0.50878054 69:1.1217663 70:0.54035991 71:0.20975219 72:0.57687825 73:0.47627878 74:0.51301503 75:-1.3111006 76:-0.068117619 77:0.19977976 78:0.28261665 79:0.64737505 80:0.50523669 81:-0.45413947 82:-0.044509903 83:0.39366117 84:0.60212642 85:-0.81922376 86:-0.27516612 87:-0.39749378 88:-0.60946935 89:-0.3442339 90:0.96252805 91:0.3402701 92:-0.9737249 93:-0.13001375 94:-0.18497196 95:0.42883226 96:1.2636067 97:-0.19905864 98:0.56541228 99:-0.0046573365 100:0.58131647 101:0.46754867 102:0.52897924 103:0.64606881 104:-0.46286434 105:-0.65855032 106:0.79694855 107:0.65247411 108:0.053433966 109:-0.2184642 110:0.39098349 111:-0.010514116 112:0.67748946 113:0.22017115 114:0.45405427 115:0.08850088 116:0.29677486 117:-0.77298301 118:0.21821836 119:0.030824987 120:0.70798737 121:0.28250921 122:1.5405697 123:-0.35368064 124:-0.12829065 125:-0.58317947 126:0.55826706 127:0.51224697 128:-1.4166675 129:0.013381142 130:0.16631772 131:-0.0027218657 132:-0.87503803 133:-1.2452413 134:-0.050871886 135:0.8640998 136:0.16806917 137:-0.37410077 138:0.22186555 139:-0.35333252 140:0.017334182 141:-0.64267641 142:0.14124528 143:-0.5474121 144:-1.1377413 145:-0.82760727 146:0.14528963 147:0.15786724 148:0.12618846 149:-0.5424996 150:0.038223594 151:-0.21625187 152:0.66016114 153:0.53766268 154:0.45594889 155:0.52769452 156:-0.15472901 157:-0.53322697 158:-0.10392455 159:-0.42140269 160:-1.2052116 161:0.95676816 162:0.020827118 163:1.6701967 164:0.26570663 165:1.4477642 166:-0.41849589 167:-0.33840805 168:0.95431143 169:0.64605761 170:0.18652418 171:1.4556198 172:-0.59749818 173:0.15797104 174:-1.1050388 175:-0.82888645 176:0.69696665 177:-0.27531943 178:0.63654208 179:0.58517849 180:-0.7002179 181:1.5209924 182:0.21330509 183:0.69240028 184:0.37380701 185:-0.79747599 186:0.55238599 187:-1.1140605 188:0.82678825 189:-0.1132767 190:0.11322536 191:0.19693163 192:-0.74079776 193:0.74432802 194:0.79605687 195:0.91248 196:0.48446319 197:-0.30906647 198:0.55283821 199:0.95112991 
1 0:1.151844 1:-0.93364644 2:-0.2310901 3:-1.1657221 4:-0.39172074 5:-1.0555118 6:-0.12264471 7:0.20355484 8:1.3284085 9:-0.23122972 10:-1.3085326 11:0.18012723 12:-0.37227967 13:-0.22360432 14:-1.2639976 15:-0.4520694 16:0.94740367 17:-0.71492076 18:-0.71004963 19:-0.70130938 20:0.50364745 21:-0.78663433 22:-0.55210197 23:0.62496513 24:0.087047756 25:-1.7238182 26:0.17424242 27:-0.41062734 28:-0.77121806 29:1.6374027 30:0.93297434 31:0.64185733 32:-0.58497846 33:0.79211259 34:1.0556693 35:6.6482816 36:0.31788874 37:-1.0886077 38:-0.0051899049 39:0.30441171 40:-0.055942267 41:0.25382563 42:-0.57638097 43:-0.19122437 44:-0.3854861 45:-0.082277559 46:0.4058454 47:1.5571374 48:-0.46055859 49:-0.51744694 50:-0.511599 51:0.27567655 52:-0.46862787 53:0.69687343 54:0.1872229 55:0.81930405 56:-0.67347193 57:0.39032221 58:-0.52191204 59:0.28505382 60:0.18096775 61:-1.150598 62:0.7498399 63:-0.29232967 64:-0.025257904 65:0.86307633 66:-0.06332875 67:0.37253433 68:0.2352213 69:-0.92362177 70:0.20324631 71:-0.83120155 72:0.44959524 73:0.47329977 74:0.45046315 75:-0.86766726 76:-0.55470389 77:0.22184974 78:-0.33337954 79:0.58510429 80:0.090581931 81:-0.34159163 82:-0.59454829 83:0.30781817 84:0.39448744 85:0.34588036 86:1.3195904 87:-0.45714438 88:-0.46016142 89:-0.75043917 90:-0.52367216 91:0.29921409 92:-1.167544 93:1.5502758 94:-0.4086566 95:0.24639125 96:0.22607407 97:-0.47075209 98:0.2429481 99:0.49644664 100:0.75989246 101:0.31482255 102:0.28198624 103:-0.88787115 104:-0.43614301 105:-0.34640035 106:0.49714109 107:0.47230685 108:-0.947837 109:-0.1642531 110:0.058418743 111:-0.609007 112:-0.34860942 113:0.61800009 114:-0.12743197 115:0.69440055 116:0.16069685 117:-1.0391558 118:0.41723189 119:0.48743537 120:-0.75392038 121:-1.0667853 122:-1.229676 123:0.050540932 124:-0.26537865 125:0.010673163 126:0.42861292 127:0.31532606 128:0.38400656 129:-0.6227119 130:-0.23776785 131:-1.2626569 132:-0.51251781 133:-0.75495958 134:0.38589901 135:-0.71714115 136:-1.0966845 137:-0.50161719 138:0.25232404 139:1.7566921 140:-0.78950197 141:0.23684938 142:0.46486661 143:-0.64451659 144:-1.3267311 145:-0.499046 146:-1.1207131 147:-0.71079695 148:0.49639672 149:-0.80482632 150:1.2753593 151:-0.73564059 152:0.43049866 153:-0.0012528758 154:0.46190879 155:-0.56105709 156:0.36203477 157:0.40900674 158:0.8940767 159:-0.79606599 160:-1.4099069 161:-0.90438795 162:-1.2047588 163:1.9538585 164:-0.69282794 165:-1.4386867 166:-0.29663298 167:0.37898269 168:0.29790047 169:-0.54694492 170:0.40802574 171:-0.19776414 172:-0.022629216 173:0.21564254 174:-1.0518923 175:0.12163484 176:-0.89923549 177:-1.0408627 178:-1.1234393 179:0.39405328 180:-0.028741952 181:-0.76532847 182:0.11864168 183:-1.084902 184:0.92819446 185:-0.71745765 186:0.43126851 187:-0.43256637 188:-0.87667435 189:-0.38439405 190:0.33278698 191:-0.38667026 192:0.56198502 193:-0.69772959 194:0.096257329 195:0.45519984 196:0.22160949 197:-0.20235367 198:0.48328638 199:0.50915557 
-0.1899344779344809 0:0.078471296 1:-1.3072289 2:0.087561369 3:-0.29644379 4:-0.57258576 5:0.035284769 6:-1.1110822 7:0.43282267 8:1.0641743 9:-0.1357096 10:0.52661544 11:-0.1969161 12:1.1337208 13:-0.29031789 14:-0.6055429 15:-0.74887395 16:0.10944787 17:0.23056473 18:-0.69767112 19:-0.57321328 20:-0.00044169783 21:1.3807278 22:-0.066110857 23:-1.0881797 24:0.58727336 25:0.76837283 26:0.4947398 27:1.5890522 28:-0.25579363 29:-0.32878417 30:-1.6486712 31:-0.35653654 32:0.02513751 33:0.02101763 34:-0.10506457 35:-0.73101926 36:0.47926563 37:2.4491804 38:0.45016113 39:-0.10864631 40:-0.63813913 41:-0.52493435 42:-0.26014361 43:0.59733897 44:-0.37581611 45:-0.078554466 46:0.05078277 47:0.29633313 48:0.60740662 49:-0.46243572 50:-0.47454619 51:0.64765239 52:0.85518533 53:-0.43841448 54:-0.12687215 55:0.16908921 56:0.037790455 57:0.44009909 58:0.33314532 59:0.12172925 60:0.43414953 61:-0.4369317 62:0.077360384 63:1.7253323 64:-0.16750227 65:-0.68551642 66:-0.10017169 67:0.063584544 68:0.49721244 69:0.045902606 70:0.10346174 71:0.61362118 72:0.068179406 73:0.046446949 74:0.018234344 75:0.79396564 76:0.27497375 77:-0.062665246 78:2.0809956 79:0.59734893 80:-0.11724608 81:0.052101199 82:-0.30381557 83:-0.025477912 84:-0.76795602 85:-0.82698458 86:-0.032409608 87:0.11888184 88:-0.20200814 89:-0.14345014 90:0.45599917 91:-1.1111642 92:-0.4872396 93:-0.49184135 94:-1.1599097 95:-0.043445904 96:0.35744739 97:0.79524267 98:0.3092939 99:0.22749227 100:-0.6260857 101:0.39464509 102:0.89705396 103:-0.34327379 104:0.42989165 105:-0.63842428 106:0.86014074 107:0.43913397 108:0.38154456 109:-0.10190581 110:0.5844537 111:2.9204636 112:-0.54641128 113:-0.33830115 114:0.32566202 115:0.1089891 116:-0.24468938 117:0.93482941 118:-0.16025411 119:0.053501625 120:-0.60292006 121:0.16464947 122:-0.47363248 123:-0.74775833 124:-0.7739082 125:0.29016724 126:0.056976058 127:0.22354054 128:-1.1974069 129:-0.17874314 130:-0.35560998 131:-0.85480517 132:-1.0285784 133:-1.176201 134:-0.16465765 135:1.5861089 136:-0.097741224 137:0.082994983 138:-0.13484423 139:0.83043462 140:-0.2157062 141:-0.65688747 142:0.38339427 143:2.1002548 144:-0.28575024 145:0.18410043 146:0.66629666 147:0.5681169 148:0.013875082 149:1.2226486 150:-0.63023514 151:0.69509232 152:0.20646879 153:0.97384804 154:0.0086075375 155:-0.22940765 156:0.28462568 157:0.50438005 158:-0.5265438 159:0.13592172 160:-0.93767428 161:-1.0323517 162:1.2783742 163:0.44069514 164:0.44618881 165:1.1834346 166:0.0063999337 167:-0.26231363 168:0.4864139 169:0.78913617 170:0.24390224 171:0.26972279 172:0.79180789 173:0.14099085 174:-0.11665227 175:-0.22548363 176:0.40874824 177:-0.3067835 178:1.2592305 179:0.18632254 180:-1.1438553 181:0.077268571 182:0.61257392 183:-0.51492757 184:0.29172385 185:0.16779007 186:0.3300809 187:0.43554559 188:0.78503621 189:-0.51729852 190:-0.65906096 191:-0.20099522 192:-0.88675869 193:-0.57818973 194:0.21876952 195:-0.45066378 196:-0.060929153 197:-0.20020764 198:0.083177738 199:0.1329277 
-0.2757466526794049 0:0.62548196 1:1.5552099 2:-0.96646887 3:-0.26724124 4:0.61711156 5:-0.7352916 6:1.1898968 7:-0.09691485 8:-1.1176689 9:-0.65178406 10:-1.2391784 11:0.12145431 12:-0.09593866 13:0.35578632 14:-0.70543826 15:1.5116816 16:0.53553975 17:-0.49369189 18:1.244976 19:-0.19038026 20:0.85981929 21:-0.25904328 22:0.38526466 23:-0.85581976 24:-0.95375884 25:-1.5784804 26:-0.50984401 27:-1.6297333 28:-0.26673812 29:0.028956998 30:-0.23735923 31:0.49231985 32:0.60032189 33:0.12628733 34:0.14256713 35:-0.63592845 36:0.055237122 37:-0.99703979 38:-0.54088628 39:0.57212412 40:4.2155123 41:5.2696719 42:-0.74197674 43:-1.5247109 44:-0.84515327 45:-0.31666508 46:0.163316 47:0.27850342 48:-0.8815704 49:0.081618428 50:-0.67313558 51:-0.61146063 52:-0.22412287 53:-0.99832743 54:-0.53462106 55:0.043371193 56:1.1157618 57:0.51181775 58:-0.76843184 59:0.25445667 60:0.31239593 61:0.28030273 62:0.70342708 63:-1.1854708 64:-0.16690545 65:0.91080469 66:-1.1234775 67:0.14916462 68:0.13174488 69:-0.87958616 70:-0.099862516 71:0.66815966 72:0.29638442 73:0.1739465 74:0.096733503 75:0.44091144 76:-0.42714062 77:0.088839062 78:-1.541394 79:-0.088959731 80:0.44422477 81:0.12234505 82:-1.5055151 83:0.10734888 84:-0.19694135 85:-0.81093651 86:-0.99225026 87:-1.0842459 88:-0.68274057 89:-0.20175931 90:-1.1784773 91:0.75591069 92:0.67142916 93:0.94396085 94:-0.12118772 95:0.14270389 96:0.63256502 97:-0.28133217 98:0.047147572 99:-0.059029244 100:-0.390297 101:0.2998704 102:-1.306609 103:0.36818817 104:0.53030765 105:0.28768408 106:0.10548335 107:0.45063215 108:0.64016831 109:-0.015265703 110:-0.056623973 111:-0.63858163 112:1.079689 113:1.0669631 114:-0.5986287 115:0.96617627 116:0.20524117 117:-0.044029333 118:0.31199864 119:0.53272027 120:-0.99092424 121:-0.96272963 122:1.6024582 123:0.76666981 124:2.1851039 125:-0.048145887 126:0.65448761 127:0.25209448 128:1.2290341 129:-0.54389906 130:-1.0348769 131:0.0042585647 132:0.94257814 133:-0.27557144 134:-0.30712828 135:-1.6226622 136:0.090434007 137:-0.51130164 138:0.13563113 139:0.26170477 140:2.0132372 141:0.84784073 142:-0.90233344 143:-0.95897913 144:0.083193921 145:-0.82232994 146:-0.7491259 147:-1.5954651 148:-0.20412703 149:-1.459566 150:-0.22139776 151:-0.47516644 152:0.41930717 153:-0.43201843 154:0.26929608 155:-0.23766319 156:0.73967022 157:-0.58491403 158:-1.2868483 159:-1.8183669 160:0.90326363 161:-0.088644251 162:-1.4709804 163:-0.43206096 164:-0.65626818 165:-0.3625268 166:-0.30478004 167:-0.49450144 168:-1.0661522 169:-1.2157372 170:-0.63849926 171:-1.3535185 172:-0.15401821 173:-0.57486922 174:2.9563429 175:1.5547065 176:-0.2349436 177:-0.58180445 178:-1.28538 179:-0.17551184 180:1.4683325 181:0.9969331 182:-0.31179893 183:0.85269213 184:-0.72212648 185:0.03291155 186:0.27221218 187:0.13978271 188:-0.47177637 189:-1.0121899 190:0.5201084 191:0.14499012 192:0.16796152 193:0.42123306 194:-0.73839885 195:-1.1532651 196:-0.12905754 197:0.42343974 198:0.081641994 199:-0.019108124 
-0.2941457928745717 0:0.14165711 1:0.14189164 2:0.65633619 3:-0.51595676 4:0.66923004 5:0.37126333 6:-0.26046959 7:0.65401512 8:1.334769 9:0.56690168 10:0.92279607 11:0.42691791 12:1.1170796 13:0.38626367 14:0.7753697 15:0.37495378 16:-0.45408407 17:0.47042555 18:-0.27981833 19:-0.075190581 20:-0.043888427 21:1.0815239 22:0.14838155 23:-0.29046759 24:-0.27475661 25:0.26581776 26:0.37635222 27:2.9315166 28:1.0346339 29:-1.0047706 30:1.0832464 31:0.20920691 32:0.69348228 33:-0.014908846 34:0.22234976 35:-0.57709658 36:0.26204097 37:1.5108875 38:-0.03230365 39:0.031020788 40:-0.11728334 41:0.68055069 42:7.1920905 43:3.5233314 44:7.288538 45:0.18376322 46:0.071620375 47:1.2047 48:-0.45111471 49:0.75041008 50:0.1593755 51:0.32427946 52:0.15131228 53:0.012101846 54:-0.017633758 55:0.57354206 56:0.72324377 57:0.27985546 58:0.48713422 59:-0.1335066 60:0.11079559 61:-0.063923217 62:-0.25209153 63:0.91946995 64:-0.2697058 65:-0.063156389 66:-0.2649748 67:-0.04364365 68:-0.061155897 69:-0.046059377 70:0.93109721 71:0.055706788 72:-0.13776402 73:0.13845462 74:-0.053528298 75:0.27303034 76:0.22051454 77:0.023620788 78:0.92230242 79:0.67826426 80:0.07139463 81:0.2772823 82:-0.50422949 83:0.43409666 84:0.15832381 85:-0.1357041 86:0.1201168 87:-0.59902376 88:-0.091487423 89:-0.014691494 90:0.0029917241 91:-0.40210587 92:0.71202064 93:-0.45677021 94:0.090056546 95:0.076242261 96:0.71131563 97:-0.55240715 98:0.2237208 99:-0.17356522 100:-0.77910703 101:-0.012617521 102:0.12802327 103:-0.37378445 104:-0.26444122 105:0.056074873 106:0.55630809 107:1.4902905 108:1.0559815 109:1.2386034 110:0.21349861 111:0.72428405 112:0.72213459 113:-0.45645836 114:-0.09921629 115:-0.11247416 116:-0.35861233 117:1.3996521 118:-0.36083159 119:0.39274257 120:0.95732349 121:-0.816733 122:0.12776594 123:-0.25185767 124:0.040410958 125:0.76496106 126:0.058567625 127:0.12721485 128:-0.61516804 129:0.82480067 130:2.0676906 131:0.32851335 132:0.39177129 133:0.61031812 134:0.23410082 135:-0.20571543 136:-0.41393042 137:-0.63632107 138:0.080180481 139:0.49464178 140:1.1619339 141:0.39505941 142:-0.3253563 143:1.521312 144:0.052084267 145:-0.48655415 146:1.0267686 147:0.38094479 148:0.18994667 149:0.70849955 150:0.022506606 151:0.75113589 152:-0.053704418 153:-0.31414184 154:-0.32440612 155:-0.29097116 156:0.20340312 157:-0.57955569 158:-0.63993567 159:0.40373281 160:-0.73850644 161:1.3229946 162:1.5838621 163:-0.010655371 164:1.3607168 165:0.070981257 166:-0.14531928 167:0.064899698 168:0.19079772 169:-0.36386847 170:0.29495189 171:-0.01505759 172:-0.037046924 173:0.6076197 174:-0.42475849 175:0.79720598 176:0.81012309 177:-0.7149061 178:0.26213229 179:0.20279822 180:1.17579 181:0.30055809 182:0.42333856 183:0.90742934 184:-0.53163451 185:0.19951293 186:0.0033663812 187:0.43951976 188:0.14366119 189:-0.53285885 190:0.10259258 191:0.62759596 192:-0.019349044 193:0.073231496 194:0.33144596 195:0.42426404 196:0.035073429 197:0.058047079 198:-0.1260653 199:0.024707334 
-0.2876411820302092 0:0.74494046 1:0.011908651 2:-0.14488678 3:0.067915581 4:-0.042819779 5:-0.54848057 6:1.5109344 7:0.50366634 8:-1.1774278 9:-0.39187041 10:-1.4644361 11:1.1028745 12:0.14541125 13:0.83721751 14:0.85658628 15:0.13332121 16:0.024290359 17:-0.57351965 18:1.5435274 19:0.20319895 20:1.6580549 21:-0.60515237 22:0.56686729 23:0.047777791 24:0.026431372 25:-1.164519 26:-0.31564274 27:-0.51919347 28:-0.62972242 29:-0.01252543 30:-0.63075793 31:-0.25635698 32:1.5030403 33:0.59945101 34:0.72116041 35:-0.08101926 36:0.53837675 37:0.6732772 38:-0.67238021 39:0.75341386 40:0.037248917 41:-0.39922148 42:-0.81152362 43:-0.83849001 44:0.028982423 45:2.7128379 46:0.77221113 47:4.043726 48:1.7375401 49:-0.19731361 50:0.4536843 51:-0.6595757 52:-0.98955762 53:1.541127 54:-0.36265144 55:0.81050074 56:0.30700541 57:0.17897573 58:-0.5011788 59:0.41348585 60:0.49157462 61:1.1693553 62:0.17965074 63:-0.86796254 64:0.26978901 65:0.70024073 66:-0.48754346 67:0.5847376 68:0.61228776 69:-0.88418669 70:-0.40343064 71:0.45670754 72:0.60926163 73:0.70288652 74:0.56708395 75:0.14846344 76:-0.026694214 77:0.67989683 78:-1.2622083 79:0.34539586 80:0.24725832 81:-0.82744455 82:0.53513896 83:-0.56338888 84:0.36017045 85:0.13844959 86:-0.66150415 87:-0.97821844 88:0.06798327 89:0.49345225 90:-0.61134696 91:-0.86681843 92:-0.90680093 93:0.5029577 94:0.28873014 95:0.7516883 96:0.0069288756 97:-0.48468506 98:0.65684855 99:0.40901944 100:1.2669326 101:0.60047305 102:-1.0943419 103:-0.13355003 104:-1.0031987 105:-0.63469154 106:-0.044006571 107:-0.18191089 108:0.55533022 109:-0.54656845 110:0.55137867 111:-0.21422617 112:-0.65937209 113:0.51619488 114:-0.62532896 115:0.42110318 116:0.70526183 117:-1.4852238 118:0.75405985 119:0.60038865 120:-0.72738892 121:1.683219 122:1.4331676 123:1.9646316 124:-0.25494128 125:0.29037967 126:0.57029462 127:0.52624834 128:1.4446974 129:-0.40043503 130:-0.023165807 131:1.210246 132:0.24294667 133:1.4753293 134:-0.23169032 135:-0.57618725 136:-1.2598416 137:0.45205167 138:0.71014601 139:-0.015987875 140:-0.27361456 141:-0.58295882 142:-0.31973222 143:-0.95940816 144:1.3839154 145:-0.51733875 146:-0.72259486 147:-1.07389 148:0.13730836 149:-1.6702884 150:0.63582039 151:-0.94065046 152:0.59613901 153:0.54845196 154:0.63335133 155:-0.077891715 156:-0.10830337 157:-0.10022396 158:0.0643057 159:-0.89975601 160:2.180186 161:-1.250242 162:-0.66686678 163:-0.14417368 164:-0.4322207 165:-0.356426 166:-0.17610477 167:-0.29099205 168:-0.20091149 169:-0.95572704 170:-0.15102248 171:-0.25086811 172:-0.78891945 173:1.3158774 174:-1.8533045 175:-0.71982306 176:-1.6200392 177:0.008590552 178:-1.1624436 179:0.64164269 180:-0.38383076 181:0.48515925 182:0.43034917 183:0.04616259 184:1.1178987 185:0.32493189 186:0.60098165 187:-1.1284269 188:-1.3788925 189:0.3187162 190:0.20733052 191:-0.25512651 192:-0.78408349 193:0.060389742 194:-1.2166531 195:-0.45208815 196:0.61159837 197:-0.65492958 198:0.65783596 199:0.80575538 
-0.190247131951626 0:0.18887448 1:-1.1081948 2:0.056996256 3:1.1904409 4:-0.64043862 5:-0.62380803 6:-0.32360953 7:0.54687589 8:0.38849163 9:-0.12514418 10:-0.8316347 11:-0.25164708 12:-0.24077867 13:-0.069612481 14:-0.41543895 15:-0.34100169 16:-1.0063076 17:-0.15377191 18:-0.31762019 19:-0.035923049 20:-0.86708915 21:0.44858587 22:-0.73948091 23:-0.53813255 24:0.067093492 25:-0.44120911 26:0.052058131 27:-0.68814695 28:0.39916441 29:-0.70732629 30:0.22535408 31:0.2019864 32:0.47560957 33:0.13169125 34:-0.16767478 35:-0.6655103 36:0.28005964 37:-0.55429226 38:0.72552764 39:-0.23076798 40:-0.3007111 41:-0.71471685 42:-0.11042074 43:-0.97593504 44:-0.065163761 45:0.2507998 46:0.4124321 47:-0.37710351 48:-0.86238182 49:6.521503 50:6.9600334 51:-0.79567337 52:-0.3364858 53:-0.93099219 54:-0.14111629 55:0.59147739 56:-0.85355091 57:-0.1651687 58:-0.041507959 59:0.13692293 60:0.22446924 61:-0.74725592 62:-0.095974877 63:0.34464878 64:0.037082061 65:-0.38873625 66:-1.10576 67:0.29761457 68:0.27384663 69:-0.91603118 70:-0.49967444 71:-0.581343 72:0.32661241 73:0.26559114 74:0.2349361 75:-0.34483737 76:-0.048008319 77:-0.27558994 78:1.1874686 79:0.56648064 80:-0.12473381 81:0.091980636 82:-1.0424086 83:0.26293844 84:-0.78520185 85:-0.066531263 86:-0.50559574 87:0.17315105 88:-0.36419854 89:0.5863474 90:0.0088188248 91:-0.95539767 92:-0.50534564 93:-0.13948017 94:-0.48532334 95:0.068135887 96:-0.39168796 97:0.10131179 98:0.2167044 99:-0.24273528 100:-0.073437661 101:0.2080989 102:-0.66729468 103:-0.010425818 104:-0.62771112 105:0.23822179 106:1.3544905 107:-0.12576647 108:-0.80840963 109:-0.17000413 110:0.11498354 111:-0.98989505 112:-1.0622839 113:-0.3862319 114:0.14007315 115:-0.037187058 116:-0.16492176 117:0.86520326 118:0.22291028 119:0.043467626 120:0.60521573 121:-0.58565873 122:0.36293057 123:-1.3906763 124:-0.42262453 125:-0.56642628 126:0.30978996 127:0.17512213 128:-1.0345033 129:-0.90571904 130:-0.65327275 131:-0.87092417 132:-0.83814543 133:0.43930703 134:-0.5279085 135:-0.24661617 136:-0.10912152 137:1.0448515 138:-0.45924887 139:-1.2535889 140:0.61518991 141:-0.42745411 142:0.66791606 143:0.98197794 144:-0.80333942 145:-0.42300937 146:0.087350562 147:0.60369772 148:0.80069453 149:0.038695123 150:-0.060353834 151:-1.0573405 152:0.046103049 153:-0.39564028 154:0.10350836 155:0.13150957 156:-0.41632512 157:-0.27814367 158:0.33172747 159:0.44523454 160:-0.04259938 161:-1.4903312 162:-0.83517712 163:1.289515 164:-0.53390777 165:-0.70045787 166:-0.047086552 167:-0.31862128 168:1.1046218 169:1.6600031 170:0.1272964 171:-0.41301408 172:-0.54920495 173:-0.66788858 174:-0.29597402 175:-0.50787121 176:0.0011427838 177:0.30350906 178:-0.84447527 179:0.15688515 180:-0.075332172 181:-0.2871792 182:0.77431554 183:-1.1680896 184:-0.56307024 185:-0.12792005 186:0.22524807 187:-0.13249074 188:-1.0819197 189:0.15401834 190:-0.59202492 191:-0.71466082 192:-0.50517106 193:-1.1369702 194:-0.78116709 195:0.54276407 196:0.098309413 197:-0.94337577 198:0.31476644 199:0.080736712 
-0.02036886542156122 0:-1.75732 1:2.0170145 2:-1.6335865 3:-0.79194176 4:0.24089715 5:-0.11703494 6:-0.013247607 7:0.40346274 8:0.96827966 9:0.82427937 10:0.77707767 11:-0.45775124 12:-0.6231904 13:-0.26528814 14:-0.49551347 15:0.14640376 16:-0.36868751 17:-0.19026341 18:-0.91481292 19:0.036955375 20:-0.23083854 21:-0.33912262 22:-1.1697774 23:2.9488692 24:0.46118596 25:-0.41437516 26:1.0111867 27:-0.64980966 28:-0.32321393 29:1.8869276 30:0.17514396 31:0.45859686 32:0.39974552 33:0.51792222 34:0.55272698 35:0.44441333 36:0.40862256 37:0.48382971 38:1.2702713 39:0.7178424 40:0.15607427 41:1.9669354 42:-0.2205475 43:0.14260836 44:-0.72843921 45:0.56142706 46:0.49487787 47:-0.23411569 48:-0.25489402 49:0.10075159 50:0.13248436 51:4.33389 52:2.5320556 53:2.8168764 54:0.57838571 55:0.7400012 56:-0.22979073 57:0.62335795 58:-0.55650342 59:0.55066848 60:0.56752235 61:-0.68148422 62:0.90177745 63:1.9422975 64:0.12304502 65:0.41798377 66:-0.37692991 67:0.57156605 68:0.34070957 69:0.69914538 70:-0.26500937 71:-0.53344339 72:0.3701213 73:0.47852105 74:0.4692069 75:-0.50615972 76:-0.10312331 77:0.62882572 78:-0.89658719 79:0.81268322 80:0.7128253 81:0.23671596 82:0.58857095 83:0.10464762 84:1.0806693 85:-0.37082064 86:0.88440734 87:0.86614889 88:0.33123854 89:-0.4034141 90:-0.17874494 91:-0.51072335 92:1.0179586 93:0.19339132 94:0.21177018 95:0.57060367 96:0.18925467 97:0.59896713 98:0.47066167 99:0.26866385 100:0.87128556 101:0.42108989 102:0.79127234 103:-0.50206435 104:-0.15139949 105:0.45145816 106:1.0498152 107:1.0579574 108:-0.76757318 109:-0.36549014 110:0.36019632 111:0.20838264 112:-1.0859611 113:0.54943424 114:0.35709614 115:0.31432292 116:0.45616958 117:0.50719553 118:0.66750687 119:0.64085686 120:-0.76971334 121:-0.74202317 122:-0.69382626 123:-0.22781798 124:-0.10940643 125:-0.65323234 126:0.41521809 127:0.36917663 128:1.8574244 129:-0.92631984 130:0.010432918 131:0.072069176 132:0.84765625 133:0.10725939 134:0.50147694 135:-0.42513525 136:0.19714434 137:-0.16773681 138:0.60763836 139:0.11006435 140:1.5717688 141:-0.6513437 142:1.1752654 143:1.8459535 144:-0.096344717 145:0.17828906 146:-1.2237207 147:-0.50828671 148:-0.35132656 149:-0.47547299 150:-0.61147213 151:-0.87630075 152:0.65345466 153:1.1814059 154:0.46582031 155:0.60394019 156:0.26052636 157:0.38311428 158:1.2738454 159:0.5522933 160:-0.21358074 161:-0.32706964 162:0.13572362 163:-0.46141759 164:1.4279709 165:-0.25616828 166:-0.31058449 167:0.42206749 168:0.31735313 169:0.11719835 170:0.50450301 171:0.53711367 172:-0.35437801 173:-0.13821588 174:0.17194769 175:1.1849165 176:-0.04832752 177:-0.25642106 178:-0.63531673 179:0.45293733 180:0.76787156 181:-1.3298229 182:0.49466377 183:-1.3066958 184:-0.22708185 185:0.77322185 186:0.41727635 187:0.64923167 188:-0.15786062 189:-0.20440701 190:-0.078190193 191:-0.46862024 192:1.0228161 193:-0.69544029 194:-0.18768582 195:-0.35784912 196:0.38714379 197:-0.51278925 198:0.493882 199:0.36227176 
-0.121805503607646 0:-0.65034449 1:0.60284787 2:-0.26706666 3:-0.18412623 4:-0.075031742 5:0.37568769 6:1.3473215 7:0.82586563 8:-0.49715343 9:-0.59635496 10:-0.051892843 11:0.19617802 12:-0.018294789 13:-0.6617077 14:-0.52870554 15:-0.60973889 16:-0.31383315 17:-0.10971538 18:-0.3616918 19:0.06852825 20:-0.24307297 21:-0.59870154 22:-0.99813646 23:-0.70299524 24:-0.1822339 25:0.65903318 26:1.3783174 27:-0.11312011 28:0.19789149 29:-0.93248314 30:-0.76411301 31:-0.86803204 32:-0.74516571 33:0.37397069 34:0.3586528 35:0.19284734 36:0.46760356 37:0.84261942 38:1.653083 39:0.55158746 40:-0.45555729 41:-0.62220007 42:-0.015383879 43:0.57033569 44:-0.3376984 45:1.7714671 46:0.52124506 47:0.44757345 48:0.33370125 49:-0.34405202 50:0.40406829 51:-0.01577764 52:0.60264266 53:-0.16927612 54:0.2251482 55:0.060429882 56:4.5963688 57:0.42309287 58:0.2007558 59:0.59989566 60:0.59815031 61:-0.54340929 62:0.18417031 63:-0.070531107 64:-0.070094936 65:-0.90257883 66:-0.94934744 67:0.4530324 68:0.54050809 69:-0.17362268 70:-0.083706364 71:-0.29740834 72:0.54248744 73:0.50535351 74:0.44787458 75:0.038923372 76:-0.41982049 77:0.13515227 78:-0.94979852 79:0.20292203 80:0.46463102 81:-0.45812222 82:0.87385392 83:0.12510495 84:1.6004571 85:-0.73171693 86:0.56063479 87:0.12960184 88:-0.32728639 89:0.65589488 90:-0.22470257 91:-0.88341433 92:0.12516451 93:0.22908117 94:1.4219952 95:0.42746529 96:-0.3275018 97:2.0481389 98:0.4880864 99:-0.057885334 100:-0.00065226154 101:0.67209262 102:-0.0073426026 103:-0.20818448 104:0.030667223 105:-0.93385363 106:-1.1270994 107:-0.30288696 108:0.30267817 109:0.64373267 110:0.52781987 111:2.3007045 112:-0.70398569 113:0.04764038 114:0.41340747 115:0.5990572 116:0.25444135 117:-0.71972483 118:0.26606047 119:0.085538119 120:0.019325649 121:-0.61350328 122:-0.6916219 123:1.4629145 124:-0.14299329 125:-0.12161485 126:0.57870114 127:0.59717715 128:-0.37416351 129:-1.0831836 130:-0.038878094 131:0.25193202 132:-0.33642408 133:0.43754843 134:1.372189 135:-0.63713443 136:0.17228635 137:0.42790657 138:0.0898332 139:0.13171846 140:-0.41648301 141:-0.76402187 142:0.15789631 143:-0.49890676 144:-0.81506485 145:-0.57745951 146:0.42234808 147:-0.61557114 148:-0.82278168 149:0.79935288 150:-0.38642612 151:-0.89902419 152:0.36227584 153:0.36332279 154:0.43968174 155:0.77269876 156:0.27460164 157:0.13324863 158:1.5174959 159:0.52164268 160:0.0084806681 161:-0.74362522 162:-0.60432559 163:0.34687981 164:0.31625906 165:-1.6901565 166:-0.17202428 167:-0.41904074 168:-0.1926219 169:0.85152501 170:0.042339891 171:0.035343032 172:-0.44988617 173:-0.54725993 174:1.133787 175:2.041857 176:-1.3219302 177:0.024610246 178:-0.12184005 179:0.41045478 180:0.21809232 181:-0.85222495 182:0.51610202 183:-1.3025131 184:0.59244549 185:-0.1355679 186:0.43939534 187:-0.42317098 188:-1.0229661 189:-0.76006407 190:-0.13037968 191:0.6076321 192:-0.56518596 193:0.32256666 194:0.75558782 195:-0.44819194 196:0.20318368 197:-0.18601283 198:0.48564669 199:0.48341408 
-0.1334884800697697 0:-2.0631051 1:-0.083947122 2:-1.7834382 3:-1.2121438 4:-1.7226642 5:-1.8491166 6:-0.076376528 7:-0.78056127 8:-1.5105103 9:-0.88712204 10:-0.6720112 11:-0.44118553 12:-0.38527796 13:-1.8827569 14:-2.1389523 15:-1.6480675 16:-0.062069725 17:-1.4379952 18:-0.071527205 19:0.59424359 20:-0.9029786 21:-0.7242074 22:1.0962954 23:0.65282041 24:-0.20260969 25:-0.67202026 26:-0.37419876 27:0.26237664 28:-0.70191568 29:-0.13405028 30:-0.46913692 31:-0.79409331 32:0.047986787 33:-0.1353437 34:-0.41211805 35:0.83648306 36:-0.031322394 37:-0.36213833 38:-0.78363359 39:-1.0165952 40:-1.8489212 41:-1.088165 42:-0.76376915 43:-0.23936209 44:-0.45787826 45:0.80246592 46:-0.16739205 47:-0.86894667 48:-0.55884564 49:0.40402803 50:-0.73748595 51:-1.4161452 52:-0.61721647 53:-0.8809554 54:-1.5006799 55:-1.2563766 56:-1.0671086 57:-0.24435918 58:1.5498391 59:3.3278954 60:-0.1776716 61:-0.11158688 62:-1.0864244 63:-1.5263834 64:-0.66976672 65:0.14667636 66:1.3174243 67:-0.0066601979 68:-0.35061482 69:0.31278989 70:-0.047143459 71:-2.2329516 72:-0.25004399 73:-0.3861717 74:-0.48739964 75:-1.194402 76:-0.54381913 77:-0.60625988 78:-0.8535803 79:-0.65028691 80:-0.1217409 81:-1.0454139 82:-1.1951141 83:0.086898498 84:-0.2075583 85:0.83846527 86:-0.51432055 87:-0.36474329 88:-0.62971908 89:-1.1252949 90:-0.33169472 91:-0.43350407 92:-0.32006121 93:-0.59606481 94:-1.7293929 95:-0.62662768 96:-1.7396066 97:1.4902413 98:-0.19654675 99:-0.77748466 100:1.0973641 101:-0.3889465 102:1.0447347 103:-0.76929033 104:-0.25215364 105:0.21965791 106:0.28381193 107:0.4794552 108:-1.0617211 109:-0.69060594 110:-0.63939136 111:-1.0302813 112:-1.5629809 113:-0.38968924 114:-0.32383898 115:0.49857947 116:-0.71560401 117:0.43030488 118:-0.55116069 119:-0.42248306 120:-0.51048094 121:0.01231586 122:-1.9951179 123:0.080158792 124:-1.726002 125:-0.66429901 126:0.13243142 127:-0.40102795 128:-0.52798259 129:-1.2792475 130:-0.051525425 131:-0.42255583 132:-1.3970537 133:-0.82645702 134:-0.84184903 135:0.85386837 136:0.17976008 137:-0.75530326 138:-0.77653992 139:-1.0282828 140:-0.55408961 141:0.27234858 142:-0.19005986 143:-0.88985938 144:-0.3867467 145:-0.80448043 146:-0.31205302 147:1.2545968 148:-0.40098071 149:-0.30500636 150:0.63615161 151:-1.0710977 152:0.1279915 153:-0.32574213 154:-0.20266938 155:0.14752787 156:-0.32859483 157:0.25809887 158:0.44194636 159:-0.071695268 160:0.91764241 161:-1.3883681 162:-0.097383328 163:-1.3452823 164:-0.59355569 165:-1.9686265 166:-0.44842866 167:-0.74390417 168:-0.72059673 169:-0.42755854 170:-0.55438018 171:-0.4707956 172:1.6352171 173:-0.32107082 174:0.19045711 175:0.4304547 176:-1.611057 177:-0.75405455 178:0.038695209 179:-0.3692795 180:-0.86380881 181:-1.6908349 182:-0.7650494 183:-0.24787411 184:-0.29181206 185:-1.2918677 186:-0.15662965 187:-0.71266711 188:0.83860618 189:-0.80955583 190:0.32688084 191:-1.030586 192:-0.63328379 193:-0.78534639 194:-0.72625864 195:-1.6655653 196:-0.6279192 197:-1.5579884 198:-0.085981257 199:0.08183606 
-0.2018620950398504 0:-1.2107983 1:-0.20995511 2:-1.1823097 3:-0.79475492 4:-1.4325708 5:-0.74742973 6:-0.75073659 7:-1.7194707 8:-1.0247725 9:-0.7733674 10:-0.70455819 11:0.1970413 12:-0.22453335 13:-1.934655 14:-0.28469175 15:0.69940287 16:-0.5471307 17:-0.80766821 18:-1.3201938 19:-0.36406472 20:-0.89741802 21:-1.0198423 22:-0.73508555 23:1.1822873 24:0.2946403 25:-0.50560129 26:-1.9279591 27:0.083064869 28:-0.34119967 29:-1.0142016 30:-0.65600991 31:-0.65739411 32:-0.45752886 33:-1.4594971 34:-0.76304066 35:-0.74022865 36:-2.1753898 37:-1.115566 38:-1.2630966 39:-1.2584162 40:-0.61941582 41:-0.42397821 42:-0.082380928 43:-0.15389432 44:0.13583386 45:-0.84882331 46:-2.0151081 47:-1.1151633 48:-1.737478 49:-1.2528552 50:-0.78622127 51:-0.15141883 52:-0.43687543 53:-0.77636337 54:-1.0339129 55:-0.63158542 56:0.12744853 57:-0.31658301 58:-1.359912 59:-1.1741388 60:-1.6868932 61:-0.47603694 62:-1.518737 63:2.1772258 64:7.6255865 65:0.3013958 66:-0.58633012 67:-1.8775902 68:-1.9290488 69:-0.97938389 70:-0.69373757 71:0.09700942 72:-1.8343673 73:-2.0192463 74:-1.7322938 75:-0.77881593 76:0.10185092 77:-1.8095064 78:0.070771977 79:-1.5491751 80:-1.736979 81:-0.53460628 82:-0.73905534 83:-1.0995361 84:-0.454732 85:-0.42946875 86:0.21516474 87:-0.54140317 88:-0.26337004 89:-0.99959457 90:-0.20936997 91:-1.6191833 92:-0.91420197 93:-0.94012481 94:-0.42149723 95:-1.5380273 96:-1.4387558 97:-0.81757748 98:-1.8448026 99:-1.1361086 100:-0.22174563 101:-1.580119 102:-0.50839502 103:-0.23430052 104:-0.93327391 105:-0.29415187 106:-1.0940022 107:-0.5744316 108:-0.3030158 109:-0.41495338 110:-2.1706743 111:-0.53894407 112:-0.35853556 113:-1.0244859 114:-1.1432267 115:0.85383958 116:-1.5241843 117:-1.2698946 118:-1.4768984 119:-1.2629939 120:-0.85353118 121:-0.055731811 122:-1.0338316 123:0.0039702225 124:-1.1653951 125:0.4097937 126:-1.4933836 127:-1.634099 128:-1.3840314 129:-0.84947604 130:-1.2546276 131:-1.3641807 132:-0.54620749 133:-1.072246 134:-0.8943873 135:-0.7993049 136:-0.63501692 137:-0.66324538 138:-1.0699509 139:-1.2282048 140:-0.29251799 141:0.1610136 142:0.91505909 143:-1.0542194 144:-0.54869342 145:-0.34657136 146:0.24168539 147:0.0792135 148:-1.5999695 149:-0.1434394 150:-0.57141685 151:-0.31662527 152:-1.7154355 153:0.12790519 154:-1.9615598 155:-0.91504979 156:-1.6230351 157:0.4131417 158:-0.48546579 159:-0.39290538 160:-0.48583791 161:0.16610767 162:-0.44492209 163:0.083242364 164:-0.47778407 165:-1.7245821 166:0.077406295 167:-0.10088303 168:-0.027790697 169:-0.64818782 170:-0.97297275 171:-0.14194995 172:-0.57847458 173:-1.0983808 174:-1.199886 175:-0.9510619 176:-0.87661147 177:-0.69471228 178:-0.81162876 179:-1.9622371 180:-0.47657892 181:-0.035002872 182:-1.4313509 183:-0.92808551 184:-1.0269248 185:-0.55812395 186:-1.6095536 187:0.41636324 188:-0.55971652 189:-0.0064869593 190:-0.58111006 191:-0.65425986 192:0.18228269 193:-0.44988269 194:-0.80541599 195:-0.26904461 196:-1.1656413 197:-0.96305716 198:-2.0222499 199:-1.6688817 
-0.1123001347897749 0:0.2115116 1:-0.80803406 2:-1.7891949 3:2.0348752 4:-0.61190057 5:0.75627315 6:-0.47079641 7:0.27590722 8:-0.76452631 9:-0.30486968 10:-0.025998972 11:0.74396241 12:0.89801311 13:-0.20256299 14:0.91655672 15:-0.27303675 16:-0.15117542 17:-0.78106892 18:-0.28612787 19:0.42622045 20:0.44865003 21:-0.18636957 22:2.3816993 23:0.60010725 24:0.010053187 25:-0.28803608 26:-0.22925685 27:-0.67680126 28:1.0209689 29:0.29389635 30:0.52018917 31:0.36965284 32:0.47198877 33:0.49931821 34:0.70100462 35:0.0089693302 36:0.48634294 37:-0.4171882 38:-0.50883514 39:0.71482176 40:-0.86442548 41:0.24721381 42:0.21160607 43:0.60467976 44:-0.1568664 45:-0.46759674 46:0.51617289 47:1.153335 48:-0.2285963 49:-0.31248903 50:0.27015454 51:-1.1395828 52:-1.0533479 53:0.8882702 54:1.5098087 55:0.6271168 56:-0.059312426 57:0.58726186 58:-1.5654751 59:0.56658143 60:0.65747142 61:0.29184946 62:0.19955046 63:0.19799858 64:0.33365536 65:-0.0026779771 66:4.3065267 67:0.65780121 68:1.0073171 69:-0.047102619 70:-0.1257892 71:-0.59960175 72:0.53837746 73:0.59599447 74:0.62905365 75:1.4896251 76:-0.26578712 77:0.50483501 78:1.1592674 79:0.57563531 80:0.390102 81:-0.76415378 82:-0.49937272 83:0.022054469 84:-0.27788228 85:-0.38406777 86:-0.19220915 87:1.4111328 88:0.10855382 89:1.4494755 90:-0.031218724 91:-0.39407265 92:0.58896607 93:-0.45807984 94:-0.32605124 95:0.56469077 96:0.038021632 97:1.5783378 98:0.60760766 99:0.31668073 100:-0.41195753 101:0.56020099 102:-0.041141745 103:0.35962778 104:1.1064513 105:0.65828389 106:-0.78336811 107:-0.50108641 108:0.65967655 109:-0.59154403 110:0.67077023 111:0.54656827 112:-0.12699753 113:0.36263856 114:0.25463888 115:-0.034968399 116:0.59520781 117:-0.49806088 118:0.62165618 119:0.51520228 120:-1.101505 121:0.30992997 122:-0.54039294 123:-0.33382955 124:-0.023706242 125:0.2577821 126:0.56316996 127:0.58807677 128:0.37972975 129:-1.1286041 130:-0.77402383 131:0.026072409 132:0.38910034 133:0.28840744 134:0.30997896 135:0.64973116 136:-0.27463222 137:0.12232945 138:0.61617893 139:-0.63326508 140:-0.77022046 141:1.112805 142:-0.36704469 143:-0.92467201 144:1.727446 145:0.25675493 146:-0.47993153 147:0.64573854 148:-0.42260998 149:-0.52960366 150:-0.36994636 151:-0.68045747 152:0.54482454 153:-0.097025163 154:0.54490072 155:-1.036165 156:-0.20959386 157:1.7020824 158:0.12163723 159:-0.015648637 160:-0.82535869 161:0.058620129 162:-0.53355938 163:-1.2045559 164:0.5719263 165:-0.67433423 166:0.043810118 167:-0.16183129 168:0.35775176 169:1.1834537 170:0.65212464 171:-0.125324 172:0.79751152 173:-0.27423078 174:-0.67833334 175:0.61364734 176:-0.90396804 177:0.66531146 178:0.68562335 179:0.52853817 180:0.093102328 181:0.27355361 182:0.33980069 183:0.9051019 184:1.4024332 185:0.40733218 186:0.6139515 187:-0.27843806 188:0.029153518 189:0.58671522 190:-0.1395936 191:-0.50788891 192:0.74039686 193:0.30911025 194:0.8173781 195:1.9446769 196:0.69392335 197:0.2928648 198:0.58083212 199:0.23772891 
-0.3811490679559449 0:0.13648048 1:-0.74570256 2:0.4262934 3:0.79296798 4:-1.7260087 5:-0.20789476 6:-0.59960425 7:-3.5975826 8:-0.38875011 9:0.66804987 10:0.16723228 11:-1.8423072 12:-0.29366872 13:-1.8924556 14:-1.4570441 15:-0.53352952 16:-1.2062159 17:-0.027749229 18:-0.83146119 19:0.3025732 20:-1.1411142 21:-1.4318511 22:-0.99111974 23:-2.2966139 24:-0.38392296 25:0.80581784 26:-2.8997684 27:-1.3598313 28:-1.3957292 29:0.37854686 30:-1.4559288 31:-3.3725374 32:-1.0664139 33:-3.3048835 34:-3.6877172 35:-0.34506032 36:-3.7145915 37:-0.56945723 38:-2.5368116 39:-4.3976259 40:-1.0326957 41:-1.1369184 42:-1.5164174 43:-0.50671047 44:-0.49042082 45:-2.1087904 46:-3.8192585 47:0.36024064 48:-3.6534061 49:-2.4302173 50:-0.60497111 51:0.30256939 52:-0.66059315 53:-1.6841515 54:-3.369396 55:-3.1254413 56:-0.31936032 57:-4.1280284 58:0.10463604 59:-4.1180568 60:-4.6712084 61:-1.4095023 62:-4.9034004 63:0.061133485 64:-1.7643278 65:-3.1884744 66:-0.24665062 67:-3.925199 68:-4.5776491 69:4.4480662 70:7.8860378 71:3.2801037 72:-3.2761085 73:-3.9457698 74:-3.7857263 75:0.036955375 76:-0.22125567 77:-4.0176544 78:0.62550884 79:-4.9569516 80:-3.1882055 81:-1.045607 82:-0.037746105 83:-3.322607 84:-1.884051 85:0.25270703 86:-0.23344967 87:-0.94058979 88:-0.89638031 89:0.13539402 90:0.6575222 91:-0.097335085 92:-0.75650656 93:-1.7647139 94:-0.22795244 95:-3.516151 96:-3.1272814 97:-3.0882185 98:-3.7772427 99:-4.8674068 100:-1.5508256 101:-4.474349 102:-0.89611387 103:0.11898708 104:-1.2480726 105:0.59085512 106:-3.6647639 107:-2.789834 108:-1.3035376 109:0.93913853 110:-4.053545 111:-0.83496273 112:1.7793666 113:-4.4516077 114:-2.5421653 115:-3.0148513 116:-4.0370374 117:0.66306001 118:-4.3088121 119:-4.5754051 120:-1.3520517 121:1.0534248 122:-0.75912267 123:-1.8719732 124:-0.53110635 125:-0.72075361 126:-3.7209723 127:-3.8616266 128:-0.90287977 129:0.53003693 130:-0.39666224 131:-2.0151284 132:-0.76325196 133:-0.82447785 134:-1.9713643 135:-0.010418818 136:-0.34875467 137:-0.45352703 138:-3.2293472 139:0.052191943 140:-0.51423532 141:-0.83482707 142:-0.32582465 143:-0.70399487 144:-1.6419159 145:0.20240018 146:-0.27549121 147:-0.14933568 148:-1.6062049 149:0.20540728 150:-1.4311943 151:0.28804249 152:-2.2122724 153:-2.4909463 154:-3.9287634 155:-1.7059971 156:-3.0862894 157:-2.8672066 158:-0.5026226 159:-0.65631169 160:-0.11260112 161:0.54885143 162:0.90437901 163:0.19392316 164:-2.8069952 165:-0.70755547 166:-0.44467258 167:-1.0984039 168:-3.250422 169:-0.79270256 170:-2.0050349 171:-0.71367753 172:-1.2174157 173:-2.3820736 174:-0.47693223 175:-0.97700733 176:0.17029041 177:-1.5628295 178:0.31519374 179:-3.5817115 180:-2.3676555 181:-0.44547033 182:-3.4036965 183:0.61149466 184:-2.1542058 185:-0.72474897 186:-3.79861 187:-0.52790117 188:0.97095722 189:0.24852771 190:-2.5948665 191:-0.53496951 192:-0.86257964 193:-2.2125216 194:0.51092482 195:-0.40708399 196:-2.7743285 197:-2.154871 198:-3.6387634 199:-3.5603995 
-0.3164877849715427 0:-0.55302656 1:-0.13901883 2:-0.53544301 3:1.1494547 4:0.42415228 5:0.72837937 6:-0.15326494 7:0.15508112 8:0.021466861 9:-0.022737959 10:0.20940942 11:1.4220974 12:-0.42279455 13:0.57575244 14:0.44663924 15:1.2719136 16:0.54521817 17:0.67439348 18:0.19569281 19:0.34039485 20:1.2678634 21:-0.10197316 22:-0.5219087 23:1.1113248 24:-0.34730321 25:-0.81517619 26:-0.21118133 27:-0.39113802 28:-0.014861691 29:0.62424678 30:0.68677872 31:0.0797446 32:0.26024657 33:0.38596398 34:0.53980923 35:0.23450916 36:0.4588345 37:-0.59994775 38:-0.71954525 39:0.59636801 40:1.7071515 41:0.086430915 42:-0.23738156 43:0.68772441 44:-0.2047504 45:-0.49099505 46:0.59339398 47:0.8541736 48:1.021505 49:-0.4331221 50:0.64788043 51:-0.71993208 52:0.32458043 53:1.135561 54:0.10443129 55:0.53281307 56:0.40032393 57:0.64324766 58:0.18666978 59:0.31035665 60:0.53399682 61:1.2646232 62:0.33725688 63:0.2608574 64:0.0080696531 65:0.57528979 66:-0.17507783 67:0.54058772 68:0.54297155 69:0.6744411 70:0.24003191 71:0.79657978 72:0.85010302 73:0.7054491 74:0.76891965 75:0.64631468 76:0.38022327 77:0.69720888 78:-0.03667926 79:0.54343677 80:0.49568114 81:0.39457279 82:-1.0254614 83:0.17924117 84:0.25110465 85:-0.73984021 86:-1.0411762 87:0.24206161 88:-0.10068849 89:0.30217636 90:-0.13948068 91:1.8610543 92:0.0080325119 93:0.019922793 94:0.77356946 95:0.63365316 96:0.58126384 97:0.12212376 98:0.60279119 99:0.64093304 100:-0.45493689 101:0.55967039 102:-0.68665808 103:1.6789973 104:0.30787668 105:-0.40445593 106:0.46425465 107:0.19700807 108:0.6635592 109:0.70369411 110:0.50672638 111:0.45223448 112:0.65779829 113:0.58884418 114:-0.095982857 115:-0.38738152 116:0.85199118 117:-0.50791955 118:0.53479236 119:0.51385397 120:-0.37795249 121:0.2647565 122:0.95438606 123:-0.21531178 124:0.52207679 125:1.6226968 126:0.54071707 127:0.46524173 128:0.56924725 129:1.2326679 130:0.20799403 131:1.0295118 132:0.31009516 133:0.044855062 134:0.091703549 135:0.67539507 136:1.2343432 137:-0.637407 138:0.6892038 139:2.3462694 140:0.7267167 141:1.3734071 142:-0.037835497 143:1.0136318 144:0.35418019 145:0.01395081 146:1.4248208 147:0.64466584 148:-0.0094332239 149:0.21856406 150:-0.84588206 151:-0.28666139 152:0.61363691 153:-0.58249778 154:0.66775972 155:0.48110783 156:0.65705097 157:-0.35826167 158:-0.57546377 159:0.44523454 160:0.52930665 161:0.32782435 162:0.38398036 163:1.3184962 164:0.45483688 165:0.69534838 166:0.31454214 167:-0.28131998 168:0.87722713 169:-0.85843283 170:0.22772074 171:-0.12678917 172:0.41946995 173:0.85806084 174:-0.42715231 175:0.69761151 176:0.22254609 177:-0.81005967 178:0.34231064 179:0.48290324 180:1.4658222 181:-0.20292346 182:0.16685225 183:0.80936068 184:-0.300854 185:0.22675383 186:0.53334421 187:0.39283222 188:1.6722826 189:0.60796469 190:0.52086055 191:0.15177728 192:0.099962659 193:0.96370482 194:0.59203571 195:0.067693211 196:0.70168006 197:1.4937942 198:0.50519913 199:0.23038751 
-0.07118245768935229 0:-0.1540342 1:-0.10948593 2:0.69649506 3:-1.3114724 4:-0.35249883 5:-1.2129499 6:-0.35509446 7:0.255784 8:-1.1911513 9:0.21820436 10:0.20461878 11:-0.19436435 12:0.341167 13:-0.36156467 14:-0.34809271 15:-0.45266441 16:1.4003649 17:-1.1594772 18:0.24393788 19:-0.19114941 20:0.1699024 21:-0.53007126 22:-1.1717073 23:-0.12899518 24:-0.046730619 25:0.29550153 26:0.42694718 27:0.20048055 28:-1.177942 29:-0.62633359 30:0.027974151 31:-0.28246695 32:-0.11887425 33:0.29253805 34:0.015255277 35:-0.0067701451 36:0.40822217 37:-0.54374647 38:-0.51063055 39:0.46243826 40:-0.44502324 41:0.33778375 42:-0.11876569 43:1.0715657 44:0.63297391 45:0.078380167 46:0.23652206 47:-1.5258098 48:0.34306395 49:-0.083787151 50:-0.73786533 51:1.0277665 52:0.70375669 53:-0.38937733 54:0.090526119 55:0.63958508 56:-0.24599904 57:0.52883452 58:-0.23981042 59:0.2450368 60:0.27389213 61:0.65141815 62:0.17798249 63:-1.7828969 64:-0.38273159 65:0.50281078 66:0.058914833 67:0.31708893 68:0.338359 69:-0.17031053 70:-0.22464125 71:-0.35119832 72:0.23551637 73:0.49385387 74:0.25355509 75:5.1470795 76:7.8091645 77:1.7128501 78:0.32335198 79:0.49385062 80:0.32365927 81:0.042407952 82:0.56903076 83:-0.25355697 84:0.47120512 85:-1.7077981 86:-0.48463672 87:0.060499571 88:-0.7826969 89:-1.1379926 90:-0.2236187 91:0.13286543 92:-1.5565313 93:-0.06307853 94:-1.5120285 95:0.35510138 96:0.17319436 97:-0.11545483 98:0.14924411 99:0.76695347 100:-0.28438216 101:0.078411154 102:-1.207417 103:-0.88553077 104:0.057972621 105:0.22386758 106:0.20333759 107:0.17750521 108:-0.48758426 109:1.5581778 110:0.4697364 111:-0.27920631 112:-0.32395932 113:0.18700437 114:0.67073214 115:-1.5828846 116:0.23965882 117:-1.1728314 118:0.44338232 119:0.30429295 120:0.79943603 121:-0.57148349 122:-0.27778316 123:0.33427289 124:0.080611318 125:-1.2192094 126:0.15769358 127:0.32172039 128:0.070221312 129:1.9372835 130:0.7120806 131:0.35305032 132:0.037954703 133:0.19830064 134:-0.54350334 135:-0.88728184 136:-0.94710422 137:-1.2825445 138:0.21573818 139:-0.47562623 140:-0.48933455 141:-0.4220117 142:-0.18642819 143:1.3836471 144:-0.082869329 145:0.50855362 146:-0.63231051 147:-0.31234372 148:-0.36102688 149:0.39903384 150:0.26324952 151:-0.22555049 152:0.042344477 153:-0.60607308 154:0.40747428 155:-0.89046097 156:-0.090414591 157:-0.38863164 158:-0.44405127 159:0.66353673 160:-0.5298841 161:-0.88475627 162:0.53238237 163:0.39451194 164:0.92694545 165:1.1687219 166:-0.53554839 167:-0.59647065 168:1.3331867 169:0.35219586 170:1.1523966 171:-0.10031285 172:-0.40085623 173:-0.18331744 174:0.20347244 175:-1.6000564 176:0.47251898 177:0.82793719 178:0.14625832 179:0.32174388 180:-0.44250384 181:-0.39640784 182:0.14170554 183:-0.83950812 184:-0.014032334 185:0.8417334 186:0.24158432 187:0.77439827 188:-0.074236736 189:0.50983638 190:0.16550885 191:-0.073291704 192:1.447834 193:-0.13790643 194:-1.3223324 195:-1.1865748 196:0.0926769 197:1.8765957 198:0.31722981 199:0.30494741 
-0.2537820972648509 0:-1.2001703 1:0.39102116 2:-0.83780259 3:-0.86588639 4:0.46294346 5:-0.89304972 6:-0.96302432 7:0.073893636 8:-1.2021387 9:0.5734337 10:0.35461453 11:-0.29689825 12:-0.96734393 13:0.62866217 14:-1.3097762 15:-0.015449475 16:0.71820641 17:-0.18506026 18:0.40255412 19:0.60911441 20:-0.47815606 21:0.57771885 22:0.22466598 23:-1.5402036 24:0.82750493 25:0.59368181 26:-0.2552484 27:-0.06377396 28:-1.204277 29:-0.77238876 30:-0.89808697 31:-0.21163556 32:-1.2675568 33:-0.1663682 34:0.12419518 35:0.38697293 36:-0.014635134 37:-1.1530427 38:-0.22208585 39:0.38890243 40:-1.2982473 41:-1.3530443 42:0.69253176 43:0.33397806 44:0.066864215 45:-0.016858499 46:-0.30030546 47:-0.90814996 48:-1.4361047 49:0.60969388 50:-0.57313126 51:-0.604864 52:-0.75149536 53:-1.9227049 54:1.3113075 55:-0.17671144 56:-0.65750784 57:-0.40967521 58:0.55948305 59:0.38816306 60:0.078038208 61:-1.5401932 62:0.75630009 63:-0.72564811 64:-0.43319315 65:-1.3358444 66:-0.42303339 67:-0.16587962 68:0.067725174 69:0.57044762 70:-0.5546065 71:0.047689714 72:-0.11443532 73:-0.22514492 74:-0.16891198 75:0.070706576 76:-0.6352905 77:0.39683768 78:4.4535923 79:0.84844309 80:1.8370839 81:0.031676322 82:-0.077193215 83:0.10728638 84:-1.3940142 85:-0.97010773 86:-0.30754393 87:-0.33608875 88:-0.14191774 89:-1.0473855 90:0.95701152 91:0.52930945 92:-0.38852614 93:-0.84611028 94:-0.99165523 95:-0.14665641 96:0.94798028 97:-0.031442594 98:-0.282711 99:-0.63070142 100:-0.48926994 101:0.12542178 102:-1.3034947 103:-1.2236603 104:-0.60501951 105:-0.25160268 106:-0.53642273 107:-1.147709 108:-1.6094654 109:-0.88297302 110:-0.25198752 111:-0.18197834 112:0.31720081 113:-0.33369136 114:0.16616572 115:0.65580964 116:0.085594438 117:1.3963624 118:0.26136854 119:0.31008667 120:-1.8411579 121:-0.09030097 122:-0.74946356 123:-0.98676574 124:-0.83719456 125:-1.6430054 126:-0.088422909 127:-0.036852516 128:1.3950167 129:0.10004979 130:1.0987679 131:-0.99885064 132:-0.38636476 133:-1.1715108 134:-0.67540973 135:0.60752285 136:-0.72724414 137:-1.615296 138:-0.21737494 139:-1.5045022 140:-1.5340673 141:-0.6141212 142:-0.30950871 143:-0.68411535 144:2.0371845 145:0.64858878 146:-0.22027512 147:1.0676057 148:-0.49783918 149:-0.0077141118 150:-1.2147996 151:1.894061 152:-0.17305225 153:-0.80976045 154:-0.23983432 155:-0.53798217 156:0.21052495 157:-0.043239743 158:0.76144892 159:-0.89563221 160:0.28453922 161:0.28721702 162:0.98474795 163:-1.535472 164:1.2585516 165:-0.0053894087 166:-0.33874002 167:-0.40930209 168:0.54977638 169:-0.026840886 170:-0.15741642 171:1.2492915 172:0.87075156 173:-1.0033793 174:1.1687331 175:-1.507127 176:0.90574205 177:-0.88346648 178:0.80059278 179:-0.13979754 180:-1.3556806 181:1.9857688 182:-0.078406945 183:-0.43552765 184:-0.64565748 185:-1.0417256 186:-0.031412672 187:-0.79729944 188:0.59138548 189:-0.54400241 190:-0.58995646 191:-1.5719995 192:1.7252494 193:-1.7706567 194:-1.2313752 195:-0.5146507 196:0.11710047 197:-0.88846171 198:-0.177518 199:-0.20787887 
-0.2155851884128022 0:1.3988889 1:-0.64815253 2:0.29578114 3:0.68032825 4:1.1756774 5:0.71182495 6:-0.13326831 7:0.025886653 8:0.52735323 9:-0.94920164 10:-0.55940932 11:0.10846476 12:0.56996465 13:0.19433323 14:-0.28291804 15:1.134274 16:-0.91602832 17:1.6070561 18:-0.38944167 19:-0.061905071 20:-0.93248159 21:0.11557347 22:0.16925065 23:0.36165091 24:0.55166763 25:0.62881786 26:0.49980456 27:0.044390772 28:-0.6672802 29:-0.7335757 30:-0.045357134 31:-0.19278698 32:0.42425039 33:0.38256785 34:0.073169969 35:-0.95018131 36:0.45694253 37:1.5930885 38:0.92686093 39:0.3623538 40:1.4287689 41:0.35869318 42:0.65622336 43:0.22709842 44:0.031327672 45:-0.70653009 46:0.32303369 47:-1.5955032 48:-0.20374048 49:0.53813946 50:0.35785306 51:0.4938342 52:1.0900203 53:0.22054601 54:0.31052056 55:0.419332 56:-0.95454085 57:0.0059984811 58:1.0040649 59:-0.23541713 60:-0.051843975 61:0.28478268 62:-0.80610049 63:-0.56879675 64:-0.27826378 65:0.090109818 66:0.12403616 67:0.27824938 68:-0.015458339 69:-0.84717733 70:0.051675197 71:-0.29180479 72:0.33029979 73:0.12251318 74:0.26357672 75:1.3633102 76:0.56055003 77:0.027598027 78:0.15177262 79:0.19788381 80:0.3892422 81:6.7564635 82:2.7260537 83:5.895925 84:0.26096904 85:0.22890052 86:-0.13567197 87:-0.20836629 88:-0.25214699 89:0.22115441 90:-0.56273991 91:-1.2683172 92:-0.36651272 93:0.29090163 94:0.88325691 95:0.21487707 96:0.49299636 97:-1.0544034 98:0.24016672 99:-0.11984698 100:-1.2836779 101:0.24913503 102:0.73760188 103:1.4555575 104:0.11051546 105:-0.9228574 106:-0.40870661 107:-0.45385265 108:0.57744449 109:-0.91666967 110:0.12018049 111:-0.45035177 112:0.26985294 113:0.14627865 114:-0.29412284 115:0.34399009 116:0.32087845 117:0.69200206 118:0.20205404 119:-0.051166546 120:0.22809426 121:-0.53468704 122:1.3358148 123:0.1937601 124:1.5709442 125:-0.39768934 126:0.23297802 127:0.37407762 128:-1.2141806 129:0.0050660288 130:-0.11752508 131:-0.10450307 132:0.30016133 133:-0.58707327 134:0.10582066 135:-0.59710819 136:-0.30139866 137:-1.2976481 138:0.30076599 139:-0.31604171 140:0.63323885 141:-0.34340721 142:0.30292851 143:-0.44675443 144:0.15997636 145:-0.27913138 146:-0.44227493 147:-1.0060505 148:-0.36782706 149:-0.44941881 150:-1.0399607 151:1.0393006 152:0.2285254 153:-0.27858028 154:0.1904445 155:0.13441046 156:-0.22852269 157:-0.4231427 158:-0.50196046 159:-0.12165105 160:1.8714598 161:-0.10779898 162:-0.43047875 163:-0.87570661 164:-0.5087235 165:0.71398395 166:-0.16276501 167:0.089626685 168:-0.017313695 169:0.8488422 170:0.2701917 171:-0.42430213 172:0.90406108 173:-0.57471645 174:-0.50109494 175:-0.25730512 176:1.2513938 177:-0.75998056 178:-0.34254047 179:0.035399057 180:-0.24617457 181:1.0876704 182:-0.59729284 183:-0.21701922 184:-0.11022975 185:-0.72655338 186:0.19586968 187:0.72722459 188:1.7528385 189:1.9132931 190:-0.39029285 191:-0.42061159 192:-0.030867631 193:-0.26711127 194:-1.223205 195:-0.51578581 196:0.235066 197:-0.095567502 198:0.26985869 199:-0.25025958 
-0.1990050558580863 0:1.9961413 1:1.4215083 2:-0.10526883 3:2.359194 4:1.0609255 5:1.0761033 6:0.54970402 7:0.61121804 8:0.79471326 9:-0.21260372 10:0.01579443 11:0.54666418 12:0.89204013 13:0.29237047 14:0.44732937 15:0.91499484 16:1.322075 17:0.83094949 18:0.45949927 19:0.32693547 20:-0.26569033 21:0.052363496 22:0.74378955 23:-0.42000577 24:0.14632198 25:1.9346853 26:0.077899612 27:1.4146081 28:1.7496232 29:0.02880419 30:1.4811141 31:1.2181576 32:0.43429658 33:0.57584888 34:0.64460725 35:0.3639752 36:0.61067152 37:1.4280535 38:0.868734 39:0.62344623 40:1.3367902 41:1.2146492 42:0.11699606 43:-0.55813807 44:0.095054403 45:-0.11591787 46:0.59034461 47:0.78798598 48:0.35737777 49:0.30107632 50:-0.067537792 51:-0.55141801 52:0.4433054 53:1.1625522 54:1.5822312 55:0.73703027 56:-0.19708385 57:0.48876044 58:0.019154333 59:0.36853415 60:0.55289865 61:0.70366085 62:0.82322544 63:0.25564468 64:0.38440627 65:0.68660408 66:-0.099395595 67:0.70693386 68:0.66595054 69:0.2359378 70:0.38483605 71:0.98647118 72:0.59840024 73:0.67506105 74:0.73230541 75:1.4309593 76:0.29480913 77:0.69479299 78:-0.13076648 79:0.72264463 80:0.50803375 81:1.0201919 82:0.79393458 83:0.80595332 84:5.704277 85:5.2853389 86:4.7690382 87:-0.69164395 88:0.46133879 89:0.90816659 90:0.20631276 91:1.1264149 92:1.4879758 93:0.80540878 94:1.4550066 95:0.65055472 96:0.69030875 97:-0.30380118 98:0.56782538 99:0.68764257 100:1.6618925 101:0.66323167 102:0.37339452 103:1.7770813 104:0.19642225 105:-0.041867875 106:0.56268823 107:-0.063845038 108:0.97876632 109:-0.47151107 110:0.71891344 111:0.0094559044 112:1.6323375 113:0.46353635 114:-0.035447787 115:0.98092151 116:0.86571515 117:-0.38444823 118:0.64822435 119:0.69927287 120:0.79059476 121:-0.58600366 122:1.2251561 123:0.34939942 124:1.0868046 125:1.8127139 126:0.55465668 127:0.61108834 128:-0.063533761 129:0.085973531 130:0.61333275 131:1.5657457 132:1.7853173 133:1.6761323 134:0.76048964 135:1.1601449 136:0.76649237 137:0.73815626 138:0.64408785 139:0.58377337 140:1.208735 141:-0.26852182 142:-0.36943948 143:1.1713167 144:1.2934991 145:0.32049868 146:-0.076410472 147:0.23423931 148:0.86882591 149:-0.073243029 150:1.4857973 151:1.0786755 152:0.46974784 153:0.85063553 154:0.6620068 155:0.19189954 156:0.057816606 157:1.0898936 158:1.157696 159:0.45026565 160:0.10290162 161:0.47955549 162:1.5468549 163:0.71764779 164:-0.51436222 165:-0.041983314 166:0.60743529 167:0.758964 168:0.39948219 169:-0.19431208 170:-0.0022793922 171:-0.38347673 172:0.92276263 173:0.87557787 174:0.60881567 175:0.035807148 176:0.31940806 177:0.67340243 178:-0.93941832 179:0.55168939 180:1.0196205 181:0.56565642 182:1.4613237 183:0.5179528 184:0.20376813 185:0.78953165 186:0.56452972 187:0.30925539 188:0.43467683 189:-0.85189837 190:0.40547276 191:0.76866955 192:0.045585897 193:1.7622694 194:0.28797066 195:0.51989967 196:0.66089725 197:1.6701448 198:0.6192258 199:0.89322793 
-0.3240920373805159 0:-0.35899308 1:0.17625622 2:-1.3168547 3:1.0278593 4:-0.69576651 5:0.69585413 6:1.0634106 7:-0.69187373 8:-0.55141968 9:-0.39238784 10:-1.5644991 11:-0.48574108 12:-0.75503212 13:-1.5363969 14:0.010127339 15:-0.87061673 16:-1.2932858 17:-0.76484603 18:-1.158872 19:-0.13166302 20:-1.1366216 21:0.59483278 22:-0.05615494 23:1.0314537 24:0.28302523 25:-1.6565392 26:-0.87303537 27:-0.72229934 28:1.1442354 29:-0.63885421 30:0.30971324 31:-0.76061565 32:-0.63069052 33:-1.0509242 34:-0.47644037 35:-0.23493928 36:-0.76891518 37:-0.81453258 38:-1.4306394 39:-1.1440032 40:0.024053821 41:0.90935218 42:-0.97594911 43:-1.5089724 44:-0.3734453 45:-1.0768871 46:-0.90587676 47:-0.86930448 48:-1.817412 49:-1.5569336 50:-0.64758915 51:0.177853 52:0.81661308 53:0.37567687 54:-1.5208635 55:-1.300734 56:0.99411726 57:-1.2732986 58:-0.35516742 59:-0.99098551 60:-1.2413578 61:1.3196658 62:-0.15846579 63:-0.33952171 64:-0.63137525 65:0.20238377 66:-0.74463594 67:-1.25843 68:-0.9391197 69:-1.5856352 70:-0.60408539 71:-1.9522351 72:-1.2808493 73:-0.6194315 74:-1.3924323 75:2.5733278 76:0.21009582 77:-0.6563288 78:0.86174822 79:-1.9616181 80:-1.0996623 81:0.51251554 82:-0.46435022 83:-1.868276 84:0.18056569 85:-0.11231322 86:0.01153414 87:5.1111732 88:7.2268295 89:4.7985168 90:-1.2583876 91:-0.19778308 92:-0.57539463 93:-1.5531013 94:0.36730504 95:-1.3276538 96:-1.2178577 97:-0.80852222 98:-1.0569875 99:-1.7428515 100:-2.0119162 101:-1.1302285 102:-0.67911053 103:-1.0368882 104:-0.6708504 105:0.36414784 106:-2.6511607 107:0.091669038 108:1.7041684 109:1.0252405 110:-0.67027718 111:-0.1833553 112:0.94452846 113:-1.8191274 114:0.14331409 115:-1.9829105 116:-1.0251848 117:0.14518729 118:-0.90369642 119:-0.46855932 120:-1.2462293 121:1.2256268 122:-0.33207092 123:-0.015702231 124:0.096951105 125:0.70258659 126:-0.81051487 127:-0.85490423 128:0.0054175649 129:0.20216635 130:-0.15309161 131:-0.55297691 132:-0.057151861 133:1.0416675 134:-2.05112 135:-1.8984944 136:-0.41975185 137:-0.51046574 138:-0.86537635 139:0.51244247 140:-0.59483123 141:-0.69474047 142:-0.64641333 143:0.9243046 144:-0.98512739 145:-1.254285 146:-0.12244675 147:-0.6814546 148:-1.2923441 149:-0.46242613 150:-2.0558341 151:1.1402752 152:-1.5826432 153:-0.39818519 154:-1.3789275 155:-0.45407027 156:-0.85224271 157:-0.88658291 158:-0.471403 159:-0.0048076729 160:-0.49201727 161:1.7089368 162:-1.3384123 163:0.040304996 164:-2.0694005 165:0.85959357 166:-0.29100698 167:0.29488307 168:-2.0479558 169:0.28771219 170:-1.018029 171:-1.585814 172:-0.097250007 173:-1.4465902 174:-1.3506173 175:-1.3539796 176:0.70617008 177:-0.71241677 178:-1.0359886 179:-1.0294468 180:0.44059592 181:-0.41639316 182:-0.45873702 183:-0.96012127 184:-2.0267303 185:0.81626594 186:-0.9790799 187:-0.86110181 188:0.58653086 189:-0.73195738 190:-1.2798815 191:0.38899347 192:0.8985424 193:-0.2431439 194:-0.53727919 195:0.47382033 196:-1.0788276 197:0.10384042 198:-1.3090032 199:-1.1838559 
-0.08515331770028838 0:0.40700433 1:-0.96572477 2:0.75196296 3:-0.29163191 4:-0.084524721 5:0.42705354 6:0.1976037 7:0.22976711 8:0.9304269 9:0.39480913 10:1.167336 11:-0.78612405 12:0.31507528 13:0.40833616 14:-1.1248068 15:-1.3061104 16:1.0191664 17:-1.0575802 18:0.15327086 19:0.32151067 20:-0.49882206 21:-0.73925161 22:1.2699279 23:-0.36150965 24:0.28622353 25:1.3374696 26:0.66298705 27:0.4584232 28:-0.40865824 29:-0.14111762 30:-0.05514339 31:-0.46849951 32:0.026640156 33:0.25761548 34:0.43680534 35:0.081542432 36:0.48135778 37:0.84049559 38:0.16710792 39:-0.084696658 40:-1.2558285 41:0.25594485 42:0.54785776 43:1.0090002 44:-0.10491114 45:0.2328188 46:0.43635979 47:0.71956396 48:0.25012434 49:0.42839929 50:-0.21774408 51:0.87333703 52:1.9044991 53:-0.72933441 54:0.91642386 55:0.13625033 56:0.49911365 57:0.40086693 58:1.2410201 59:0.090283021 60:0.27166554 61:-0.8286677 62:0.065580562 63:-0.97672039 64:-0.20698966 65:0.34116331 66:1.0271657 67:0.50209552 68:0.35870326 69:0.028087698 70:0.35291064 71:-0.66747409 72:0.28027198 73:0.2778275 74:0.28944162 75:-0.4654958 76:-0.2238645 77:-0.34253836 78:1.1694489 79:0.65385872 80:0.35167295 81:-0.46610752 82:0.39038312 83:-0.24165477 84:-0.043415323 85:1.714767 86:-0.40026781 87:1.2751654 88:0.45897484 89:0.42921615 90:6.3564334 91:2.567091 92:2.7706022 93:-0.54746431 94:-1.0068462 95:-0.067542486 96:-0.250862 97:0.53825825 98:0.27448317 99:0.63683856 100:0.24440783 101:0.14361052 102:-0.52092379 103:-0.29746771 104:-0.74427116 105:1.0445775 106:1.0197576 107:0.85077906 108:-1.4221169 109:0.18220912 110:0.47062391 111:-0.44880059 112:-1.2211349 113:0.17606977 114:1.1465203 115:-0.41780463 116:-0.017892675 117:1.5740014 118:0.047074705 119:0.29675034 120:1.1712413 121:0.39293143 122:-0.88008291 123:-0.14890319 124:-0.46410865 125:-0.37531227 126:0.31340036 127:0.304131 128:-0.8980124 129:0.11749928 130:0.3131687 131:0.13746551 132:-1.0870842 133:-0.58210695 134:-0.049027335 135:1.3133333 136:0.22265875 137:-0.47124201 138:-0.082667105 139:1.7006515 140:-0.68441272 141:0.3242574 142:0.21943399 143:1.5777129 144:0.61519212 145:0.13419932 146:0.90777379 147:0.86906159 148:1.4829013 149:0.58271879 150:0.87976491 151:-0.61744237 152:0.35547459 153:-0.28147757 154:0.15178685 155:0.67016238 156:0.33301255 157:-0.29160675 158:0.055628516 159:0.3227472 160:-0.45725933 161:0.081049137 162:0.39354312 163:-0.27100348 164:0.8442952 165:0.1659206 166:0.25227836 167:0.60512066 168:1.0157932 169:0.016395623 170:0.9347474 171:0.81864727 172:1.6837395 173:-0.079194054 174:0.37260351 175:0.15004149 176:1.1554949 177:1.4193552 178:1.0275966 179:0.5987336 180:-1.1512405 181:-0.37426302 182:0.44852591 183:-0.7346527 184:-0.55285001 185:0.77871788 186:0.25525635 187:1.7227825 188:-0.59922808 189:2.4902883 190:-0.30754697 191:0.35703218 192:-0.89805013 193:-0.90709615 194:0.17188472 195:-0.3288461 196:0.1977434 197:0.12161618 198:0.31559098 199:0.19348489 
-0.2569498961596179 0:0.98888296 1:0.40890461 2:-0.66274434 3:-0.1917692 4:0.48756272 5:0.97580308 6:1.2847549 7:0.18664439 8:0.28862375 9:0.020306692 10:1.5802227 11:0.2074323 12:-0.50905216 13:0.32054234 14:0.59907085 15:-0.20588684 16:-0.28122628 17:0.51425111 18:-1.0152152 19:-0.083541609 20:-0.48959783 21:0.5931735 22:-0.14338337 23:-0.14750063 24:0.70924282 25:-0.59836447 26:0.16990548 27:-0.37285757 28:-0.55534786 29:-0.23711407 30:0.72511101 31:0.7504431 32:0.24480286 33:0.20000923 34:0.2254972 35:-0.0055148168 36:0.21825571 37:0.36476216 38:-0.74321544 39:0.60912746 40:0.68446755 41:0.36764741 42:-0.037866052 43:-1.1788391 44:-0.63551968 45:-0.15920056 46:0.22821751 47:-0.69796199 48:-0.66081852 49:0.1351465 50:-0.34188232 51:-0.6684646 52:-0.42039236 53:1.6295303 54:0.51769602 55:1.0678666 56:-0.038790528 57:-0.28506467 58:-0.97879386 59:0.34047428 60:0.11968257 61:-0.19864812 62:0.50727266 63:0.77906442 64:0.17823045 65:0.44575065 66:-0.31491297 67:0.075227484 68:0.15788855 69:-1.2437457 70:0.21143295 71:0.046297569 72:0.38087702 73:0.28814194 74:0.41412961 75:0.53611249 76:-0.0091356328 77:0.73874307 78:-1.4488466 79:-0.097873509 80:0.01717389 81:0.39186853 82:-0.76760548 83:0.29822835 84:0.86430162 85:-0.010303074 86:-0.15149099 87:0.93509543 88:0.46097848 89:-0.32490849 90:-0.69513005 91:0.16253039 92:-0.44862881 93:1.1138202 94:1.6638913 95:1.1862533 96:0.32394099 97:-0.88320494 98:0.29958335 99:0.0038402597 100:0.033044036 101:0.35020253 102:-0.30531058 103:0.12129884 104:0.2681244 105:0.37609547 106:-0.52909458 107:0.61781198 108:1.4581844 109:-0.1395099 110:0.12389822 111:0.42173758 112:0.51735342 113:0.66928834 114:-0.67169243 115:-0.42189837 116:0.69210935 117:-0.61796796 118:0.63891816 119:0.4903371 120:-0.9371441 121:1.47812 122:0.374394 123:0.7216078 124:0.83628297 125:0.82215041 126:0.27908012 127:0.096185371 128:0.46986085 129:-0.89366138 130:0.76867902 131:0.45027542 132:0.81792867 133:0.79635644 134:0.50829965 135:-1.4483781 136:-0.054285381 137:-0.48574194 138:0.61679798 139:0.0030419198 140:0.96757048 141:0.31720889 142:0.11435004 143:-1.4624451 144:0.42661485 145:-0.4161509 146:-1.1132427 147:-1.564407 148:0.0065406743 149:-0.42101699 150:0.11218677 151:0.042687174 152:0.10176571 153:-0.12985723 154:0.38221824 155:0.73701453 156:0.89002109 157:0.76144522 158:-0.44628698 159:-0.49818325 160:1.0663418 161:0.74495512 162:-1.3748151 163:2.1339536 164:-1.4418042 165:-1.0833544 166:0.0011214946 167:0.059949618 168:-1.1953713 169:0.046558686 170:-0.00040053215 171:0.12505573 172:0.54012007 173:-0.050374821 174:-0.7632575 175:-0.53672111 176:-0.32219085 177:-0.45101696 178:-1.1372168 179:0.18273443 180:0.78520942 181:-0.25364137 182:0.34888399 183:-0.078369044 184:-0.1620051 185:-0.075009815 186:0.37181988 187:-0.62101519 188:-0.081209511 189:-0.9206059 190:0.6452657 191:1.2535605 192:0.051661734 193:0.9648478 194:-0.69406462 195:0.25198874 196:0.31433445 197:0.8418054 198:0.20319282 199:-0.13453946 
-0.1347315899243817 0:0.56374782 1:1.1418555 2:0.88584733 3:1.5226831 4:1.1262025 5:1.3348691 6:0.63399351 7:1.0602348 8:1.8901231 9:-0.0619836 10:0.70274949 11:1.2235483 12:1.2657729 13:1.1776339 14:1.8051301 15:0.75631201 16:1.1874747 17:0.51170295 18:0.67667222 19:1.1546915 20:1.3888371 21:1.1808306 22:0.44948605 23:2.397639 24:1.1177201 25:1.3096695 26:1.4891341 27:1.0605708 28:0.90725541 29:1.7745043 30:0.95235103 31:1.5223761 32:1.7153796 33:0.68325448 34:0.67870605 35:1.2735087 36:0.56798738 37:1.3186923 38:1.0595261 39:0.69845319 40:1.106066 41:1.4760656 42:0.16228551 43:1.0730058 44:0.77528524 45:1.1446558 46:0.64221501 47:1.0092167 48:1.5272396 49:1.4114275 50:0.8702752 51:1.8116431 52:1.2410073 53:1.5770053 54:0.74030197 55:0.89471048 56:1.6954585 57:0.84099758 58:1.2897016 59:0.72748858 60:0.72215974 61:3.0365536 62:1.0139326 63:1.4668651 64:0.41834512 65:0.89838362 66:1.6907394 67:0.60948253 68:0.65438247 69:1.458565 70:0.14637966 71:1.1809797 72:0.63627774 73:0.6629101 74:0.6199261 75:1.1679872 76:0.89002568 77:0.64990401 78:1.7532204 79:0.89070761 80:0.6865747 81:0.45719522 82:2.4822304 83:0.84793043 84:0.50544482 85:1.3893542 86:0.94670761 87:1.3661253 88:1.018248 89:1.5747695 90:0.53313112 91:1.0048077 92:1.0246851 93:1.0961558 94:1.6931654 95:0.68203712 96:1.4501815 97:2.7399867 98:0.6331439 99:0.82768947 100:1.8747588 101:0.57832605 102:1.1064073 103:1.7710673 104:0.7925691 105:1.1717591 106:0.50243783 107:0.39054745 108:0.66971552 109:2.0927081 110:0.6635024 111:0.307778 112:1.045146 113:0.66366225 114:1.3070593 115:0.36106199 116:0.87683481 117:0.82727778 118:0.66357267 119:0.80015022 120:0.43399799 121:2.5258977 122:1.3325514 123:0.46531007 124:1.6687522 125:1.2523502 126:0.64874089 127:0.66884762 128:1.2602305 129:1.5634152 130:0.67181849 131:1.1562681 132:0.66797727 133:1.1226469 134:1.1718456 135:1.6584992 136:0.70378226 137:2.4568701 138:0.55129594 139:1.2510406 140:0.84440649 141:1.292338 142:0.065153807 143:0.80628747 144:1.7969909 145:0.4209815 146:1.0843089 147:1.8777173 148:0.85208118 149:1.1933485 150:0.64274549 151:0.87004787 152:0.70784336 153:0.95505494 154:0.59818029 155:1.359503 156:0.90820706 157:1.5362312 158:1.9062784 159:1.0870284 160:0.9490912 161:1.5026623 162:1.4085096 163:2.1046841 164:0.86493784 165:1.5519994 166:0.34760076 167:0.30329144 168:1.1223148 169:0.90772569 170:0.62735718 171:2.005239 172:0.56957024 173:0.52914411 174:0.59143555 175:1.7138878 176:1.5678291 177:1.0376465 178:1.1266885 179:0.60094953 180:0.92938095 181:1.9060682 182:1.0374975 183:0.91952187 184:1.4394453 185:0.3876591 186:0.60077512 187:0.90470237 188:2.0028026 189:0.80855983 190:1.904027 191:0.19904512 192:1.2627183 193:0.77658606 194:0.59601611 195:2.5818172 196:0.7001518 197:1.1980622 198:0.64548814 199:1.1384752 
-0.2399179336582138 0:1.6517936 1:0.10930859 2:0.55387324 3:1.804202 4:0.66790408 5:1.0935588 6:0.63180262 7:0.84423047 8:0.33079866 9:0.40047708 10:1.4511493 11:0.74839419 12:1.2517775 13:0.9904117 14:1.3947469 15:-0.55703378 16:0.85905135 17:0.82131559 18:1.3720931 19:0.57342947 20:0.37358862 21:1.8034754 22:1.1078403 23:0.15360585 24:-0.12861359 25:2.1337256 26:0.78652197 27:0.90645117 28:0.74227744 29:0.55333465 30:0.40977117 31:1.5244367 32:0.66049993 33:0.5749945 34:0.6804387 35:-0.14581364 36:0.55532426 37:1.5799923 38:1.5410511 39:0.86252111 40:0.35468003 41:0.81322449 42:-0.027106948 43:2.0089023 44:0.087016076 45:0.058335427 46:0.63003767 47:0.38522661 48:1.1018353 49:0.1289943 50:-0.31775853 51:0.6015895 52:-0.66346294 53:-0.66906738 54:2.2185256 55:0.77114761 56:2.3543701 57:0.887007 58:0.26659831 59:0.35774574 60:0.5192759 61:-0.81628346 62:0.39653048 63:-0.41692156 64:0.28511447 65:0.40091968 66:1.905151 67:0.58424127 68:0.6685167 69:2.0071161 70:-0.27769154 71:0.69902474 72:0.63458723 73:0.6462853 74:0.58127427 75:-0.51125669 76:0.32384416 77:0.66888291 78:0.20294985 79:0.29175606 80:0.77348894 81:0.18051815 82:1.4189149 83:0.52228677 84:-0.67332053 85:0.79700124 86:0.56537038 87:-0.75380039 88:-0.10799152 89:1.0093154 90:0.35266215 91:-0.5069102 92:1.8007891 93:-0.11829931 94:0.64771366 95:0.59869516 96:0.7194559 97:0.16666502 98:0.65434819 99:0.78386694 100:3.3939807 101:0.82850105 102:-0.050796732 103:0.5420109 104:-0.48057052 105:-0.60016382 106:0.31895548 107:0.48649186 108:-0.54658371 109:-0.19914514 110:0.62383014 111:0.36747131 112:0.48222935 113:0.77378863 114:-0.46724311 115:-0.27383733 116:0.70889658 117:-0.14370528 118:0.63163257 119:0.60871291 120:0.49626279 121:0.51897436 122:0.71845454 123:-0.47348213 124:-0.0092170909 125:0.98144692 126:0.72178215 127:0.58396757 128:-0.20971353 129:-0.27081609 130:0.93832344 131:1.6395637 132:0.19431929 133:-0.25629181 134:0.70569807 135:-0.34822255 136:-0.38844481 137:1.0391109 138:0.59326422 139:0.37881631 140:-0.85789782 141:-0.41728839 142:0.17523435 143:-0.3798342 144:1.2644651 145:-0.024365926 146:0.61132187 147:0.11729237 148:0.91841137 149:1.2344161 150:1.3374193 151:1.2618004 152:0.6328088 153:1.3777887 154:0.70197195 155:0.036959443 156:0.39722791 157:-0.20050298 158:-0.44850361 159:0.36272538 160:0.38343915 161:1.1737549 162:-0.13603812 163:-0.72221893 164:0.55204362 165:0.99454182 166:-0.49638182 167:1.3057538 168:0.32093695 169:-0.050044727 170:0.8286646 171:0.8629877 172:0.81235373 173:0.18400705 174:-0.69295031 175:0.96320021 176:-0.034465734 177:-0.047968242 178:1.0028278 179:0.57263398 180:0.18373947 181:1.3597361 182:0.7323637 183:-0.096341349 184:1.0214115 185:-0.47145727 186:0.61776191 187:-0.48296896 188:0.35757431 189:1.607311 190:0.67363399 191:-0.096551128 192:0.33200783 193:-0.37530798 194:0.9331184 195:0.70053715 196:0.61667341 197:-0.68694568 198:0.62931639 199:0.49178031 
