svm_type c_svc
kernel_type rbf
gamma 0.00502513
nr_class 2
total_sv 57
rho -1.06838
label 1 -1
nr_sv 51 6
SV
0.03099459734269977 0:0.57538795 1:0.40996003 2:0.058234818 3:-1.4181095 4:0.2119993 5:-0.62982845 6:3.3798885 7:0.96099824 8:0.88787943 9:0.20608801 10:-0.47852248 11:-0.67752808 12:-0.23603553 13:1.2728333 14:-0.70966321 15:0.50344479 16:-0.49341273 17:-0.32010216 18:0.38258734 19:-1.4302757 20:0.66696346 21:1.1280668 22:0.13946433 23:0.87614787 24:0.35817873 25:0.55620939 26:0.13243699 27:-0.59783691 28:0.37537691 29:0.12601505 30:1.157725 31:0.1687343 32:0.74353796 33:-0.31725544 34:-1.0437644 35:-0.0065428615 36:-0.065511547 37:-0.26997849 38:0.77896106 39:0.11348688 40:0.081315652 41:0.86112976 42:0.41075662 43:0.39394444 44:0.37340572 45:-1.1273353 46:0.086427487 47:1.8210819 48:0.48204565 49:0.1935326 50:-0.7522971 51:-1.1051984 52:-0.24362841 53:0.8382417 54:0.25148666 55:0.42738253 56:0.39202297 57:-1.1173457 58:0.12410153 59:-0.23308067 60:0.33215305 61:0.094306633 62:0.25673306 63:-0.35362193 64:0.36093891 65:-1.2628031 66:0.2371033 67:0.1393657 68:0.4207575 69:0.038990859 70:-0.4257848 71:-0.64516914 72:0.33435538 73:0.30895048 74:0.31767729 75:0.39492616 76:-0.71585828 77:1.0512742 78:0.92022502 79:0.018442722 80:-0.53764242 81:-0.20754597 82:0.76714402 83:-0.98638177 84:0.031582706 85:-0.26690319 86:1.1517345 87:-0.8784793 88:0.97183466 89:-0.021571832 90:-1.3750498 91:-1.3027381 92:0.20830567 93:-0.88456225 94:-1.3583829 95:-0.090231575 96:-0.24440663 97:-0.68098134 98:-0.42418537 99:0.42930418 100:1.2308128 101:0.38132304 102:-0.14440557 103:0.77417916 104:1.3265791 105:0.18709473 106:0.71074337 107:-0.46692562 108:-0.76181948 109:0.03164871 110:0.53068954 111:-0.76401418 112:1.1963449 113:1.888502 114:0.31847858 115:0.3008858 116:0.076806806 117:-1.1360452 118:-0.81857371 119:-0.87412173 120:-0.17225903 121:1.142359 122:1.2419894 123:-0.79635048 124:0.99094975 125:1.3657855 126:-1.0732615 127:0.52883345 128:-0.28135872 129:0.73961627 130:-0.0098604569 131:-0.57976729 132:0.72632509 133:0.68449032 134:1.2040372 135:0.86626488 136:-0.90093333 137:-0.10630815 138:-0.36525014 139:-0.31795642 140:0.62923551 141:-1.4275025 142:-1.4462368 143:0.22718418 144:0.20741825 145:0.0299858 146:0.59707415 147:0.13962033 148:0.62282217 149:0.29109395 150:-1.0391716 151:0.070390105 152:0.8835541 153:-0.82151395 154:0.88754284 155:-0.67524028 156:-0.73932755 157:0.66523284 158:-0.39292049 159:-0.4181087 160:0.38363418 161:0.42988905 162:-0.59057558 163:-0.84742057 164:0.28702402 165:0.75063753 166:-1.6113251 167:0.57386178 168:1.2001806 169:0.44945019 170:0.46622878 171:-0.38650435 172:0.0067454358 173:-0.30919647 174:0.83912396 175:0.93435603 176:-0.57930034 177:1.4444646 178:-1.4739885 179:-0.27990156 180:0.44588104 181:0.57804471 182:0.58225036 183:-0.45814154 184:0.32043585 185:0.52368474 186:0.69626784 187:0.95277894 188:-0.70570219 189:0.5038864 190:0.26598704 191:-0.33451957 192:0.61368269 193:-0.30155084 194:-1.1923949 195:-0.08393164 196:-0.33851647 197:0.90935975 198:0.85215282 199:-0.26982349 
0.03862801078083355 0:0.82644945 1:0.14521645 2:1.3109758 3:0.11127658 4:1.3857797 5:0.55811334 6:0.19758053 7:0.4461363 8:0.85028249 9:3.4397035 10:3.9701838 11:3.5925887 12:1.024281 13:0.036774091 14:3.3938091 15:0.86769754 16:1.4618045 17:1.6061013 18:0.86162418 19:1.6039269 20:0.88792008 21:2.0390563 22:0.41910854 23:0.80517638 24:1.0781643 25:1.1100904 26:1.3603903 27:1.0055375 28:0.41488382 29:0.49163559 30:1.2696639 31:0.6256187 32:1.3957944 33:0.78600425 34:0.52633739 35:0.52458012 36:0.74429893 37:0.78218919 38:0.85765278 39:0.76811737 40:1.5145611 41:0.87317628 42:0.54916239 43:0.4642773 44:-0.41320029 45:1.2092632 46:1.294331 47:2.1241231 48:0.52584106 49:0.40859216 50:0.76677549 51:0.9224152 52:0.84163469 53:1.39926 54:1.3042009 55:0.98349833 56:1.1552931 57:1.305951 58:1.0326246 59:0.62834209 60:1.4840332 61:0.89190787 62:1.0153795 63:1.6837797 64:1.2299324 65:1.9874852 66:0.42302129 67:0.47375342 68:0.40801048 69:0.36115298 70:1.5743995 71:0.43260536 72:0.36928883 73:0.50536495 74:0.44575882 75:0.68436843 76:0.75755233 77:1.6599427 78:0.70568132 79:1.4444802 80:0.98799795 81:0.71144366 82:1.6034057 83:1.7261832 84:0.51088566 85:0.94601607 86:0.78700542 87:1.1511612 88:1.1482452 89:1.4536625 90:1.6366944 91:1.9965255 92:0.80704749 93:0.56902522 94:1.3020688 95:0.46207649 96:1.5568881 97:1.20359 98:1.9012769 99:0.46746421 100:0.99985546 101:1.2269981 102:0.5020954 103:0.66260326 104:0.74639869 105:0.83019483 106:0.87166601 107:1.1482199 108:2.5135691 109:1.2596231 110:1.8254499 111:0.91795218 112:0.36085522 113:1.3496689 114:0.46050116 115:0.39076328 116:1.7603871 117:1.2784164 118:0.8704288 119:1.6077787 120:1.4823877 121:0.97993994 122:0.4535355 123:0.94526923 124:1.2566471 125:1.2045746 126:0.57626665 127:1.0302356 128:1.0117356 129:1.8287493 130:0.84209496 131:1.3668628 132:0.53686917 133:1.429883 134:0.33931991 135:1.1747751 136:0.35146639 137:0.22446211 138:1.764852 139:0.9144423 140:0.59129643 141:1.4168706 142:0.27633488 143:0.39342311 144:0.56639439 145:0.86359012 146:0.5092687 147:0.46070999 148:1.2713077 149:0.44109419 150:1.4693979 151:0.468743 152:0.42443126 153:1.3384851 154:0.80959594 155:1.1986125 156:0.95497948 157:0.47496316 158:1.5729177 159:-0.13402492 160:0.38321358 161:0.95174706 162:1.4544808 163:0.47842029 164:0.42040882 165:1.2992811 166:1.3716462 167:1.0202368 168:0.87659252 169:1.2069169 170:0.55224818 171:0.96577471 172:1.0884967 173:0.65423155 174:1.0071927 175:0.72105604 176:0.82721442 177:0.11752218 178:1.4108772 179:0.62804627 180:0.086915627 181:0.66308552 182:0.69273651 183:0.019499922 184:1.3196877 185:1.1279938 186:0.33269989 187:0.11577731 188:0.55262154 189:0.981938 190:0.41518056 191:2.0453231 192:1.3426229 193:0.46618354 194:0.65779752 195:1.2947497 196:1.1460959 197:0.6141755 198:0.94211918 199:0.51669163 
0.2117070607185596 0:-0.31231624 1:0.067560747 2:-1.3443555 3:-0.81702834 4:-0.66869485 5:-0.936746 6:-0.20362726 7:0.24608766 8:0.090446986 9:-0.87071562 10:0.24867392 11:-1.184638 12:3.7415402 13:2.0868375 14:0.44162685 15:-0.70235711 16:-1.2057462 17:-0.93626469 18:0.60463548 19:-0.59714282 20:0.034981277 21:-0.79757088 22:0.062386639 23:-2.1084023 24:0.04505492 25:-0.50709087 26:0.27268046 27:0.69952798 28:0.068126306 29:0.54553771 30:0.37702057 31:0.61049062 32:-0.70844549 33:-0.74869335 34:-0.87688249 35:-0.50944138 36:-0.3688947 37:0.41881835 38:1.1826365 39:0.36665097 40:-1.2632186 41:-0.49887356 42:0.36663455 43:0.04884842 44:0.074090935 45:-0.61846226 46:-0.22601224 47:-1.2990304 48:-0.09341085 49:-0.34241721 50:-0.91413909 51:0.68538237 52:0.61650866 53:-0.74667358 54:1.0688467 55:-0.55758071 56:0.18774804 57:-0.77497762 58:-0.15947349 59:-0.76889461 60:0.125157 61:-0.10962877 62:0.20558433 63:-0.5392338 64:-0.015801283 65:-0.80696118 66:-0.38921356 67:-0.51036257 68:-0.20276809 69:0.17302664 70:-0.21241154 71:-0.83715242 72:-0.16241646 73:-0.38329616 74:-0.40137404 75:-0.67587584 76:-0.73848665 77:-0.17315027 78:0.23557177 79:-0.20273684 80:-0.67787689 81:-0.24348317 82:0.17223927 83:-1.3309617 84:-1.2337049 85:-1.1046857 86:-0.81982559 87:0.41133893 88:-0.033481915 89:-0.56610519 90:-0.89898592 91:-2.0583425 92:-0.94858789 93:0.38770148 94:-0.26835343 95:0.67244238 96:-0.081708357 97:-0.40026107 98:2.5575163 99:0.023973145 100:-0.24914068 101:-0.070551299 102:-0.071146011 103:0.053577237 104:-0.98758757 105:-0.73687643 106:-0.022804642 107:-0.58337837 108:-0.56401086 109:-0.20345762 110:-0.67293811 111:-0.48522121 112:0.28385454 113:-0.61741072 114:-0.28632739 115:-0.11513652 116:-0.2106691 117:-1.1375539 118:-0.71248597 119:-0.14703366 120:-0.67606121 121:-1.7300295 122:0.284767 123:-0.48110402 124:-0.59392953 125:-0.071926534 126:0.21697024 127:-0.50103903 128:0.4080815 129:-0.3162224 130:-0.2856555 131:-0.80788416 132:-1.0512824 133:-0.35081357 134:-0.087695993 135:-0.77861142 136:-0.40752983 137:0.61702687 138:-1.019426 139:-0.80499035 140:0.54583204 141:-0.61875272 142:-0.14681636 143:-0.35263452 144:-0.20779739 145:-0.60227132 146:-0.12913172 147:-0.3357448 148:0.080306932 149:-0.12564591 150:-0.39412996 151:-0.18515582 152:0.66845596 153:-0.7340337 154:0.04203774 155:-0.24855624 156:-0.29813561 157:-0.26975644 158:0.4751465 159:-0.82642877 160:-0.081999183 161:-0.68597871 162:-1.1925908 163:0.46396235 164:-0.1701844 165:-1.1471771 166:-0.072546959 167:-0.010365887 168:-0.16799898 169:-0.7867626 170:-0.21261266 171:-0.77597165 172:-0.14633533 173:-0.97541875 174:-0.0062222001 175:0.3525497 176:1.3844396 177:0.68812937 178:-0.99353504 179:-0.90179789 180:0.037934136 181:-0.036416635 182:0.048213329 183:-0.25786179 184:-0.014369599 185:0.33471489 186:-0.24622233 187:-0.66489315 188:-0.97636741 189:-0.48572847 190:-0.14420135 191:-0.31623387 192:-1.025457 193:0.50243884 194:0.57832676 195:0.24328718 196:-0.76143944 197:-0.98137939 198:-0.29537287 199:-0.84638143 
0.03693876331226173 0:1.9869201 1:0.83350635 2:-0.20791763 3:0.35558948 4:1.0491015 5:0.86480546 6:0.17543119 7:0.28617761 8:0.92814547 9:0.46720862 10:-0.32818332 11:1.4434811 12:0.37163875 13:1.3191874 14:0.68329364 15:3.1517117 16:1.9737577 17:2.8290606 18:0.030662626 19:0.50296003 20:-0.18895337 21:1.2027661 22:0.54667693 23:0.5115239 24:0.48488697 25:-0.11878765 26:1.2388657 27:1.0736905 28:1.9017299 29:0.12983912 30:1.5958309 31:1.2777258 32:-0.72387588 33:0.43253052 34:1.2159306 35:0.81319517 36:1.2604347 37:0.073669657 38:-0.19779445 39:0.42675304 40:1.0782534 41:0.55527502 42:0.27890402 43:0.24457011 44:1.5723085 45:0.12516214 46:0.0627212 47:0.17994858 48:0.87479532 49:0.1039323 50:0.64966214 51:1.2594326 52:0.89606369 53:0.55597043 54:0.505575 55:0.95586658 56:1.130365 57:2.0942357 58:-0.044945434 59:0.48602155 60:0.91285336 61:1.3995929 62:1.3263488 63:0.45136359 64:0.51099062 65:1.0794841 66:0.4549242 67:0.52806044 68:0.36642864 69:1.6781877 70:1.4790919 71:0.89931786 72:0.39151677 73:0.4134849 74:0.43485472 75:0.76098907 76:1.1009312 77:0.35929474 78:0.66500205 79:0.5876382 80:0.13728324 81:0.48724884 82:1.7067752 83:1.8311417 84:-0.024209555 85:1.4828299 86:0.22026958 87:1.4412345 88:0.87554532 89:0.8093462 90:-0.27742609 91:0.018199502 92:0.12581339 93:1.0457946 94:1.3401788 95:0.79835194 96:0.46631363 97:0.3304919 98:1.1966364 99:0.29456526 100:1.4740683 101:0.95947278 102:1.3887404 103:0.12503411 104:0.60141444 105:1.2288033 106:2.0233505 107:2.0550864 108:1.1089665 109:0.37876418 110:1.9758618 111:0.9731158 112:0.98453736 113:-0.0042698346 114:0.35082951 115:0.40328676 116:1.5388258 117:0.54844242 118:0.36263287 119:0.2234838 120:0.9765411 121:0.6508835 122:0.9807862 123:1.1334004 124:0.5192101 125:1.4613789 126:0.49206737 127:0.45509189 128:0.92181772 129:1.2787564 130:1.0767297 131:1.7778211 132:0.646146 133:0.48923546 134:1.3557829 135:0.93360025 136:0.012618818 137:0.38857597 138:1.1336212 139:1.3038604 140:0.20432024 141:0.54960179 142:0.68654507 143:0.45287454 144:0.29627311 145:1.2613274 146:0.50152344 147:0.27518478 148:1.117846 149:0.25718057 150:1.291173 151:0.91478086 152:0.97115046 153:-0.32920155 154:0.16156496 155:-0.13578062 156:0.38544279 157:1.5808583 158:1.0277478 159:3.3008466 160:0.16679579 161:1.672998 162:1.8007122 163:1.7363805 164:0.40681455 165:1.6118989 166:0.20013395 167:0.23939086 168:0.72453254 169:0.31968361 170:0.27961427 171:-0.19512635 172:2.0702705 173:-0.45271245 174:1.1994692 175:0.10513102 176:0.54097402 177:1.1883156 178:2.0973055 179:0.7712363 180:0.69182998 181:0.169598 182:0.035873394 183:0.82148194 184:0.7008509 185:-0.086600378 186:1.3270986 187:0.47806713 188:-0.01780428 189:0.95272499 190:0.41455543 191:1.0239472 192:0.93739474 193:0.43344221 194:1.222975 195:0.16919166 196:0.34501383 197:1.1137139 198:0.9733656 199:0.1687723 
0.1019963365125631 0:-1.6175309 1:-0.45611322 2:-0.77579623 3:-1.5463243 4:-0.27953127 5:-3.0223048 6:-0.8218419 7:-0.0058807712 8:-0.48866343 9:-1.0454227 10:-1.0283258 11:-0.67217171 12:-0.72943461 13:-0.21309675 14:-1.6749024 15:-1.5727617 16:-1.3582802 17:-0.98272276 18:1.1507714 19:2.7494931 20:-0.84123737 21:-1.659251 22:0.034659244 23:-1.5605575 24:-0.66591603 25:-2.0379934 26:0.50906163 27:-0.55492669 28:0.89050567 29:0.95204848 30:-1.1461192 31:-2.4087615 32:-2.3035753 33:-0.70424604 34:1.1912484 35:0.11144929 36:-1.8332443 37:-0.11667952 38:-1.6122998 39:-0.7134757 40:-1.3496158 41:-0.72835737 42:0.08160539 43:0.15910792 44:0.30454326 45:-0.57749707 46:-1.0853276 47:-0.95949137 48:-1.0272969 49:-0.84615266 50:-1.1742107 51:-0.80638856 52:-0.75017983 53:-1.5436472 54:-0.28172901 55:-1.3156995 56:-1.3919415 57:-1.425065 58:-1.0702941 59:-1.9430914 60:-0.72923726 61:-0.56242138 62:-0.3673583 63:-0.032292832 64:-2.1379673 65:0.061482474 66:0.35367689 67:0.14630051 68:0.33232746 69:-1.828518 70:1.3262391 71:0.80599344 72:0.18420751 73:0.32993245 74:0.32032698 75:-1.0630341 76:-0.016960334 77:-1.0632086 78:-1.6142687 79:-0.74388969 80:-1.3130304 81:-0.12189166 82:-0.45151377 83:-0.36591187 84:-1.0176874 85:-1.4335278 86:-0.7868734 87:0.97058696 88:-0.8820923 89:-1.0908759 90:0.64592016 91:-1.6642909 92:1.1316819 93:-0.56297928 94:-0.22543034 95:-0.7307474 96:0.1126287 97:-0.39334035 98:-1.3486439 99:-0.13965629 100:-0.72660118 101:-1.3390498 102:0.83005959 103:-0.56532222 104:-0.71330833 105:-0.25922957 106:-0.85658538 107:-0.0086004492 108:-1.0952401 109:-0.52240956 110:-1.217042 111:-0.59502965 112:-1.1181415 113:-1.7914139 114:0.23224755 115:0.32252058 116:-1.9398067 117:1.1568348 118:-0.036201593 119:-0.10931862 120:0.012281383 121:-1.5149766 122:-1.4325558 123:-0.54430491 124:-1.5667549 125:-1.3495905 126:-0.90878183 127:0.65183741 128:0.34034559 129:-0.81357026 130:-2.2609458 131:-0.69199866 132:-1.4797341 133:-1.650933 134:-1.3989809 135:-1.3747448 136:-1.8136121 137:-2.1230063 138:-1.7501441 139:-1.7318038 140:-0.67225802 141:-0.36490503 142:-0.6455723 143:0.37134588 144:0.079881802 145:-1.4411238 146:-0.033494595 147:-0.0068638087 148:-0.31941667 149:-0.15086479 150:-0.59950817 151:-0.94774723 152:-2.1045253 153:-0.19552781 154:-1.4205976 155:2.4077463 156:0.42783114 157:-0.23162025 158:-1.5234151 159:0.27451739 160:-0.84844321 161:-0.75441331 162:-0.31617212 163:0.15985121 164:0.32414335 165:-1.4854834 166:0.59344572 167:-1.3066376 168:-0.9419626 169:-0.71214879 170:0.32014909 171:-1.1959785 172:-1.2739041 173:0.33030322 174:-0.97691315 175:-0.93143797 176:-2.1322241 177:-1.9234496 178:0.31695431 179:-1.0956132 180:-0.36036471 181:-0.16252245 182:-1.4900727 183:0.28137231 184:-0.8528809 185:-0.69281507 186:0.53165674 187:-0.70927072 188:-0.36257014 189:-1.7054057 190:0.34654048 191:-1.9163499 192:-0.41545236 193:-0.24467619 194:-1.1651797 195:-0.24571072 196:0.071867093 197:-2.8196299 198:-2.4487412 199:-1.0067781 
0.4076700932302625 0:0.41501075 1:1.1431613 2:0.76440573 3:-0.32981712 4:0.16701654 5:0.83032715 6:0.85103321 7:0.19483362 8:0.52178228 9:1.1867973 10:-1.1245559 11:-0.80929792 12:0.15543281 13:0.27231857 14:-1.3904445 15:-0.12709947 16:-1.3734874 17:-0.074415013 18:0.82653493 19:-0.57668394 20:-0.80062497 21:1.5563488 22:-0.36223382 23:2.2831099 24:0.46314561 25:0.24688876 26:0.38524523 27:-0.020719256 28:0.57847494 29:0.31502688 30:-0.97241974 31:-1.1947206 32:0.18280973 33:0.26208338 34:-0.32554364 35:0.62241608 36:-1.2284286 37:-0.069317073 38:1.1636592 39:0.3449342 40:1.2000182 41:0.95074236 42:0.043798696 43:0.23299147 44:-0.8290565 45:0.29917684 46:-0.48269373 47:-0.648453 48:0.65196311 49:0.67172694 50:-0.52590787 51:-1.0887256 52:-1.1269814 53:-0.26509535 54:0.31375086 55:0.056554813 56:0.050289337 57:0.8232792 58:0.84239024 59:0.18909754 60:0.3045896 61:-0.39783686 62:-0.29800567 63:1.5900193 64:-0.17387459 65:-0.43286994 66:0.30971026 67:0.15685441 68:0.17360592 69:-0.71491319 70:-0.55529839 71:0.11639117 72:0.41926381 73:0.30520654 74:0.2701503 75:-0.41437989 76:0.12175258 77:-0.22187376 78:0.38540101 79:0.73999655 80:-1.361433 81:0.26680571 82:-0.57188636 83:-0.35406902 84:-0.66635752 85:-0.39423576 86:0.46638671 87:-1.0631484 88:1.4333938 89:-1.7493187 90:-0.54057598 91:0.28897387 92:0.56973392 93:0.086956851 94:-0.72084087 95:0.15979083 96:-0.29606792 97:-0.51148593 98:-0.88663751 99:0.36080027 100:-0.032627039 101:0.44800347 102:-0.43150932 103:0.59912616 104:0.77687585 105:0.24839124 106:-0.20464608 107:0.11100715 108:0.4843545 109:0.78865135 110:0.3708373 111:-0.43694952 112:0.0097429641 113:-1.2106954 114:0.37015256 115:0.27722219 116:0.56353378 117:0.28513089 118:-0.10160714 119:-0.28531682 120:-1.0850979 121:-0.73959202 122:-0.18835104 123:-0.32397839 124:0.56355959 125:-0.60811079 126:-0.49234399 127:-0.26584333 128:-0.52334207 129:-0.10400074 130:-0.63569319 131:-1.3011427 132:0.9117505 133:0.12305999 134:0.18091646 135:0.52087504 136:-0.27791828 137:-0.2905094 138:-0.82423127 139:0.34556121 140:0.35147896 141:-0.08910875 142:0.061087262 143:0.23492479 144:0.36442855 145:-0.01914401 146:0.36930463 147:0.16452904 148:0.43129742 149:0.10158518 150:-0.76196915 151:-0.24398078 152:-1.3246047 153:-0.92941451 154:0.048230797 155:-0.80390429 156:-0.2163163 157:-0.91200817 158:0.66100597 159:-0.47436044 160:-0.64599454 161:0.14520559 162:0.036390323 163:0.53436422 164:0.31283307 165:-0.96604794 166:-1.1803004 167:0.51883221 168:-1.4591688 169:-0.0013878777 170:0.29818296 171:0.60112882 172:1.5790557 173:-0.44697717 174:0.39334482 175:-0.4833805 176:-0.45364669 177:-0.62192285 178:-0.97519511 179:-0.9608174 180:-0.088436313 181:0.037580967 182:0.95152736 183:-0.70845336 184:-0.6882571 185:0.3550308 186:-0.62497348 187:0.26726404 188:-0.13168412 189:-0.48179272 190:0.23623945 191:0.36939931 192:-0.34450004 193:0.13654052 194:0.23774964 195:1.2965547 196:0.13260208 197:-0.20803376 198:0.65987015 199:-0.087448016 
0.3113692810786997 0:1.5892285 1:-0.91465753 2:0.47045633 3:0.22440691 4:-0.74353659 5:0.43809772 6:0.78444582 7:0.22498856 8:1.5517299 9:0.16420886 10:0.59926432 11:-0.085088447 12:-0.19840999 13:-0.58367139 14:1.3543301 15:0.24772161 16:0.73236895 17:-0.036265224 18:-0.089135945 19:-1.1052334 20:-0.74492025 21:1.281557 22:0.92185766 23:0.85384256 24:0.24036424 25:0.19045085 26:0.26457042 27:0.56426215 28:1.2655188 29:-0.82677102 30:0.25844702 31:0.61762148 32:-0.34934068 33:0.53609705 34:-0.54888844 35:0.37908301 36:0.3322067 37:-0.58842468 38:-1.0048411 39:0.60948646 40:-0.42101166 41:0.14070165 42:0.47918913 43:0.30576798 44:-1.1146476 45:0.0486877 46:-0.35578483 47:-1.1059186 48:-0.52192634 49:-0.042749621 50:-0.041895613 51:0.26104692 52:-0.52330881 53:0.80235159 54:-0.22991161 55:-0.11585715 56:0.20546938 57:0.82970971 58:-0.51694071 59:-0.25683832 60:-0.46684879 61:0.28107893 62:0.34965825 63:-0.41136667 64:0.62493688 65:-0.5288431 66:0.37962121 67:0.32045534 68:0.38185215 69:0.91288209 70:-0.92485535 71:-1.1164255 72:0.44319472 73:0.31535175 74:0.27477002 75:0.76954657 76:0.1416437 77:-0.6564911 78:-0.087071978 79:0.85584378 80:1.831728 81:0.76329708 82:-0.80130315 83:-0.40648243 84:-0.26398867 85:0.45712247 86:-0.17562504 87:-0.42954114 88:0.026183356 89:0.68799734 90:-0.84943604 91:-0.80668455 92:0.66226345 93:0.14518954 94:-0.6856671 95:0.24365486 96:0.7393328 97:-0.049222685 98:1.0739443 99:0.072718807 100:0.32541999 101:0.34279856 102:-0.23005331 103:-0.094638735 104:0.7662394 105:0.53050011 106:0.26369864 107:-0.9157936 108:0.29346079 109:-0.50808722 110:-0.032946743 111:-1.5076814 112:0.50713211 113:1.3052276 114:0.2998212 115:0.32998118 116:0.70367771 117:-1.7444749 118:-1.2033206 119:-0.83137053 120:-0.74840862 121:1.0820184 122:-0.077786557 123:0.11710035 124:-0.66845477 125:0.099054769 126:-0.62303442 127:0.84472853 128:-0.029303042 129:1.7161355 130:-0.18604276 131:1.3883213 132:1.1997186 133:-0.15042438 134:0.2503891 135:1.3618549 136:-0.40428811 137:-0.20702052 138:0.74309838 139:1.3554002 140:-0.64369392 141:-0.4202525 142:-0.3359561 143:0.24623501 144:0.11825648 145:0.64700305 146:0.39673501 147:0.44776654 148:-0.18692726 149:0.31195745 150:-0.20860112 151:-1.0211916 152:1.4631507 153:1.5531719 154:0.50821799 155:-0.68175626 156:-0.86943537 157:0.36693373 158:-1.1512442 159:-0.39936075 160:0.026241563 161:0.64212072 162:-1.064562 163:-0.94361955 164:0.29742071 165:-0.36648473 166:-0.70697093 167:-1.0333942 168:-1.1058421 169:0.12662846 170:0.24392173 171:-0.30342969 172:0.073654875 173:0.0045334152 174:0.13938282 175:-0.23217021 176:-0.48905277 177:-0.24063884 178:-0.58670509 179:-0.56906915 180:0.12711163 181:0.12934802 182:0.47059843 183:0.040822845 184:-0.71177 185:-0.23267707 186:0.086300164 187:-0.63984632 188:-0.33727014 189:0.5288074 190:0.21940538 191:-0.51192158 192:-0.64721555 193:-0.051398117 194:2.1613998 195:0.37054852 196:0.058864571 197:1.0376942 198:0.48873502 199:0.15222403 
0.2174201469781425 0:-0.59016287 1:-0.81086224 2:1.4218334 3:-1.1228205 4:0.23263283 5:-0.94855124 6:0.97513318 7:0.3209416 8:0.059824996 9:0.18803576 10:-1.6577358 11:-0.1783582 12:0.62798196 13:0.61623287 14:0.28131229 15:0.50675416 16:0.66060871 17:-0.59659135 18:0.90254849 19:-0.33335015 20:0.13448729 21:0.26753548 22:0.52172226 23:0.31740329 24:0.47949117 25:-0.031529695 26:-0.9463613 27:-0.58769512 28:-0.71792048 29:-0.3932125 30:2.7722294 31:2.6603019 32:3.8216405 33:-0.77787602 34:0.70375097 35:0.574256 36:1.306535 37:0.026297743 38:0.45294473 39:-0.49364853 40:0.6021769 41:0.61950368 42:0.61689109 43:0.5077464 44:-0.24127448 45:-0.89351428 46:-0.80480999 47:-0.20313422 48:0.88871169 49:0.25609195 50:0.056119535 51:-0.14719898 52:-1.0805684 53:0.47097382 54:0.34090558 55:-1.2341114 56:0.37966198 57:0.53122532 58:-0.40158239 59:-0.66939145 60:1.7957265 61:0.82899767 62:0.37476081 63:-0.19686638 64:0.13408549 65:-0.21362196 66:0.37835133 67:0.41822261 68:0.39210558 69:-0.64681745 70:-0.17797759 71:-0.1792282 72:0.34777418 73:0.40766647 74:0.44045943 75:1.3362157 76:-0.89900678 77:-1.1779519 78:0.62659121 79:-0.25074449 80:-0.70205098 81:0.14297199 82:0.16926408 83:-1.1244254 84:-1.4447668 85:-0.6551373 86:-0.35788453 87:-0.29710382 88:0.4177067 89:1.0669841 90:0.092855372 91:-1.0212481 92:0.071389802 93:-0.47531766 94:-0.24265116 95:0.28745764 96:-0.22086923 97:-1.2931509 98:-0.68636835 99:0.53562903 100:0.25223631 101:-0.041646093 102:-0.5494023 103:0.42996547 104:-0.11494213 105:-0.088618793 106:0.2292054 107:-0.30495837 108:-1.0826484 109:-0.55009091 110:-1.3516967 111:1.507621 112:0.32140127 113:-0.02274088 114:0.56385857 115:0.34112132 116:0.43860009 117:-1.1504647 118:-0.90955937 119:-0.6649453 120:0.52681547 121:1.5897214 122:1.7157683 123:-1.1294986 124:0.43792126 125:-0.089153342 126:0.22851378 127:0.84688872 128:0.88513654 129:-0.21828477 130:-0.27948314 131:-0.80765319 132:0.76745212 133:-0.40470889 134:-0.58925927 135:0.1037159 136:-0.5164851 137:-0.19666691 138:0.86671424 139:0.73513025 140:0.51127964 141:0.20694482 142:-0.45863602 143:0.36051095 144:0.42955989 145:0.30587062 146:0.63356161 147:0.42424074 148:0.17187057 149:0.27296275 150:-0.68250781 151:-0.075754583 152:0.72783077 153:-0.77878934 154:0.50488096 155:-1.1634734 156:0.31449246 157:0.34909949 158:-0.7961157 159:-1.1025928 160:0.27224392 161:-0.50583202 162:-0.47238678 163:-0.8074615 164:0.31402072 165:-0.64018941 166:-0.4955669 167:-0.054875385 168:-0.62727904 169:-0.97669333 170:0.54023999 171:0.71446872 172:-0.65169585 173:-0.07377518 174:-0.56173819 175:0.36014175 176:0.13888007 177:0.31993696 178:-0.73921031 179:-1.2405812 180:-0.51649719 181:0.50247079 182:0.32422593 183:-0.2092856 184:0.34936613 185:0.41901773 186:-1.1198406 187:0.10735206 188:0.4736526 189:-0.80572939 190:0.35518524 191:0.21339045 192:0.3604579 193:0.69719368 194:0.21775056 195:0.14519961 196:1.113079 197:-0.31036487 198:-0.06651473 199:-0.64244837 
0.1666541949219398 0:-0.84990746 1:0.3626186 2:-0.18322612 3:-0.35454935 4:0.72550672 5:0.63571328 6:-0.62169468 7:0.013408841 8:-0.78473908 9:-0.18356991 10:1.3879906 11:0.44162175 12:0.52436721 13:-1.4557238 14:-0.05254795 15:-1.3150144 16:-1.4873954 17:-1.4086722 18:0.64295286 19:0.75249636 20:2.6457162 21:-0.11434228 22:0.23995377 23:0.25462055 24:-0.29467574 25:-1.2017822 26:0.05554406 27:-0.024020379 28:-0.68438178 29:-0.93133122 30:0.38169453 31:-0.71281081 32:0.23606281 33:5.4453897 34:5.2907863 35:0.48541892 36:-0.17977515 37:-0.28314745 38:-1.2740993 39:-0.22302304 40:1.5660026 41:-0.010142097 42:0.028618952 43:-0.034383319 44:0.6975711 45:0.5051201 46:0.1042303 47:0.46550876 48:0.12182187 49:-0.33499762 50:-0.090463646 51:-1.2132375 52:0.5330171 53:0.47467655 54:0.79236293 55:1.6500428 56:0.23023447 57:-0.023445172 58:0.47949645 59:2.5654612 60:0.37035376 61:1.1541847 62:-0.091276146 63:-1.0228916 64:-1.1310507 65:-0.395336 66:0.074160106 67:0.08848948 68:0.14872804 69:0.55798221 70:-0.44016546 71:1.0723495 72:0.093039952 73:0.082268253 74:0.1641725 75:0.052459601 76:0.62501538 77:-0.64858508 78:-0.48059723 79:0.01167124 80:1.4456673 81:-0.17691416 82:0.29980427 83:0.98051298 84:-0.011052502 85:0.43845311 86:-0.59081078 87:0.15012617 88:-0.13419932 89:-0.31212243 90:0.037419137 91:1.3899097 92:-0.55173254 93:-0.52482659 94:-0.015713744 95:-0.28969863 96:-1.0161862 97:1.0268799 98:-1.6247678 99:-0.037707843 100:-0.7296893 101:-0.14322403 102:-0.14509167 103:-0.036455069 104:-1.5161344 105:0.18515752 106:-0.45094609 107:-0.98117369 108:0.20920287 109:0.8206858 110:0.25783581 111:0.43683368 112:-0.29409552 113:1.7381002 114:-0.23663138 115:0.13820992 116:-0.14120647 117:-0.13390423 118:0.70246911 119:-0.053459018 120:0.20132765 121:-0.86969447 122:0.41786146 123:0.97210342 124:-0.21890931 125:0.034336857 126:-0.052721091 127:-0.194552 128:-0.29323986 129:-1.100117 130:-0.65891933 131:0.40242568 132:0.10044996 133:0.39108586 134:0.088337585 135:1.0592608 136:-0.19480698 137:-1.1345983 138:-0.54943258 139:-0.28806621 140:0.26668489 141:-0.06148652 142:0.27353948 143:0.033387467 144:-0.047365781 145:-0.37692794 146:-0.10196057 147:0.12604448 148:0.58047843 149:-0.030365445 150:-1.0763334 151:-0.014130462 152:-1.1164372 153:-0.18997711 154:-0.60814553 155:0.95013785 156:0.795892 157:0.19102621 158:-0.50924289 159:0.47709426 160:-0.37407148 161:0.44396287 162:-0.34470835 163:-0.35712561 164:0.13890292 165:-0.036735296 166:0.22380649 167:-0.44471714 168:0.36814991 169:0.99929249 170:0.11050431 171:0.15097722 172:-0.2980921 173:0.37559521 174:-1.0696839 175:-0.57362157 176:0.80558473 177:-0.82094592 178:-0.26521093 179:0.18067542 180:-0.27489948 181:0.53646022 182:-0.46878222 183:0.45499405 184:0.60211819 185:-0.61164194 186:-0.97674108 187:-0.25546688 188:-0.37925723 189:-1.3734655 190:0.17069824 191:0.76847315 192:1.9503741 193:0.54366553 194:-0.45068291 195:-0.41984072 196:-0.5905965 197:-0.77107477 198:0.88239288 199:1.4079843 
0.1414540744065399 0:-0.14769909 1:-1.0670644 2:0.16288747 3:-0.1259495 4:-0.17818142 5:-0.66348219 6:-0.31496432 7:0.19440685 8:-1.0063063 9:-0.02186179 10:-0.201464 11:-0.19783057 12:-0.49312794 13:0.23509815 14:-0.20913428 15:0.41124269 16:1.1624624 17:0.084217966 18:-0.78817385 19:-0.28990945 20:-0.88946617 21:-0.79894841 22:0.070604235 23:-0.6279406 24:0.14012332 25:-0.40201533 26:-0.6494056 27:-0.63664627 28:-0.52140135 29:-0.37868249 30:-0.031604432 31:0.3637788 32:1.0811452 33:0.13678509 34:-0.097721256 35:0.27634475 36:2.5106099 37:6.9424882 38:2.1884232 39:-0.88707501 40:-0.2573173 41:-1.030131 42:0.2340591 43:0.17981336 44:0.19763629 45:-0.2377266 46:-0.5811764 47:0.43580455 48:-0.44849664 49:-0.059769765 50:0.43019119 51:0.5625751 52:-0.48202536 53:-0.57111156 54:-0.53828198 55:-0.87263912 56:-0.30150366 57:-0.12223001 58:0.64390963 59:-1.0262381 60:0.99322772 61:-1.2456174 62:0.56017148 63:-0.25916639 64:0.94463521 65:-0.63359171 66:0.42087227 67:0.33640647 68:0.37610441 69:1.0575091 70:0.6642403 71:-0.26869941 72:0.29596245 73:0.3585999 74:0.44429114 75:-0.042223033 76:0.18041767 77:0.60412812 78:0.24388067 79:-0.24878125 80:0.010564968 81:0.50342983 82:-0.42856953 83:-0.83301187 84:0.61948913 85:-0.16085768 86:-1.0567894 87:-0.1049056 88:-0.28397939 89:0.467682 90:0.080058649 91:-0.2297224 92:0.30826455 93:-0.067898348 94:0.66521084 95:0.69272971 96:-0.8947981 97:-0.26226178 98:-0.37022528 99:0.22252472 100:-0.67844719 101:0.28338611 102:0.91793865 103:-0.34123671 104:-1.1172348 105:-0.54295361 106:0.34236902 107:0.10078028 108:1.6263878 109:-0.54195398 110:-0.6324746 111:-0.99354625 112:-0.31318942 113:0.049333293 114:0.38272396 115:0.39085549 116:0.23103844 117:-0.13091072 118:-0.12856464 119:-0.95692712 120:0.10459177 121:0.95314056 122:0.48587349 123:-0.92199224 124:1.3215011 125:-0.19954769 126:-1.3582885 127:-0.11329935 128:0.18257757 129:1.0114996 130:1.7542298 131:0.23839346 132:-1.0854936 133:-0.42034349 134:-0.033586934 135:-0.24629898 136:-1.1665305 137:-0.71394563 138:0.54468894 139:-0.2025964 140:0.072318502 141:0.10348386 142:-0.32355052 143:0.4357346 144:0.28396901 145:-0.032043543 146:0.41471559 147:0.3581323 148:-0.56778294 149:0.13296199 150:0.5697518 151:-0.83751684 152:0.77486247 153:0.24096496 154:0.11146921 155:-0.41360644 156:-0.1545161 157:-0.20564443 158:-0.18200934 159:-1.3646156 160:-0.050197598 161:0.14464061 162:-0.97654486 163:0.54860914 164:0.38645965 165:0.71838152 166:-0.050904118 167:0.11627258 168:1.128852 169:0.59566963 170:0.44520962 171:0.08027795 172:-0.72032219 173:0.3862505 174:1.1915246 175:1.1659113 176:0.38171259 177:1.021439 178:1.0406208 179:-0.58010781 180:1.0740721 181:0.50395751 182:-0.31649739 183:0.031090248 184:-0.65053761 185:0.13759215 186:-0.43028653 187:-0.99011004 188:-0.56795746 189:-1.1733454 190:0.3829056 191:-0.11761564 192:1.3209795 193:-0.39988792 194:-0.61233938 195:-0.24123882 196:-1.1425983 197:1.1461622 198:-0.15106237 199:-0.21707281 
0.117337712870679 0:0.48524171 1:-0.72716552 2:-0.11162306 3:-0.42637452 4:0.42651626 5:-0.61737072 6:-0.20674759 7:0.54911381 8:0.83454555 9:0.087874144 10:-0.8597815 11:0.92858505 12:-0.19227345 13:0.52911043 14:0.16350807 15:0.25871795 16:-0.30147573 17:0.67349982 18:0.20328315 19:-1.1554675 20:0.043195114 21:0.27557027 22:1.0508683 23:-0.6401453 24:0.60836703 25:-0.27776745 26:0.79687202 27:-0.47462681 28:0.10792281 29:-0.4390941 30:0.51855904 31:0.22358187 32:1.2931086 33:-0.16037554 34:0.4736267 35:0.49468637 36:-0.28714475 37:-0.21934746 38:0.46745488 39:-0.20346685 40:-0.83506614 41:0.19107719 42:0.76920211 43:0.55508602 44:3.701997 45:-0.61431062 46:-1.0917593 47:-0.21296176 48:0.4524039 49:0.54849935 50:-0.98898375 51:-0.24639484 52:0.017765243 53:1.2307782 54:-0.9568789 55:0.065492809 56:-0.72364473 57:-0.23025745 58:0.57741731 59:-1.0014352 60:0.87361819 61:0.44957048 62:0.66681147 63:0.84828895 64:-0.18597022 65:-0.37143439 66:0.41883072 67:0.38507566 68:0.41826394 69:-0.2796286 70:0.18862158 71:-0.32086754 72:0.46347895 73:0.40668848 74:0.42679727 75:1.1232916 76:-0.81334758 77:1.3320312 78:-0.014169969 79:0.49690533 80:-0.19906235 81:0.38140577 82:-0.54871738 83:-0.61017781 84:0.2002935 85:-0.20053948 86:0.62075788 87:0.9430359 88:-0.46790582 89:-0.71235245 90:-0.24127874 91:0.33624458 92:0.36814883 93:-0.26184005 94:-0.15491463 95:0.45690346 96:-0.93968844 97:-0.19655418 98:0.60902601 99:0.68121195 100:0.69439465 101:-0.50312746 102:0.24364424 103:0.82046366 104:0.94734406 105:-0.27418387 106:0.32320336 107:-1.4398764 108:-1.1344852 109:-0.20462626 110:-0.62980008 111:-0.95835656 112:0.094838932 113:0.47311372 114:0.27891958 115:0.3146911 116:0.57150531 117:-1.1395177 118:-0.81379384 119:-0.88997251 120:0.47535846 121:0.39884305 122:-0.31830847 123:-0.9383899 124:0.84599411 125:-0.36152238 126:0.071157336 127:-0.59726894 128:0.46770626 129:0.37753183 130:-0.49395022 131:-0.15362169 132:0.44248897 133:-0.76703101 134:-0.15005226 135:-0.72009301 136:0.27354491 137:-0.78194422 138:0.15759084 139:1.2673725 140:0.52120692 141:0.010546705 142:-0.68153369 143:0.39031911 144:0.50794315 145:-0.35245967 146:0.65368664 147:0.54889393 148:-0.52045822 149:0.54323399 150:0.33720928 151:0.77186054 152:-0.20458153 153:-1.3781819 154:0.20119821 155:-0.80679011 156:-1.5759977 157:-0.69593769 158:-0.76663607 159:-0.81565619 160:-0.39572152 161:0.19393216 162:-0.67457569 163:-0.064738244 164:0.32697549 165:0.86928368 166:0.58103973 167:-0.43103155 168:-0.1846763 169:0.50010091 170:0.45963895 171:-1.3293775 172:-0.33297014 173:-0.75378042 174:0.88977861 175:-0.44671887 176:-1.0047069 177:0.28449669 178:0.20901331 179:-0.82575136 180:0.99530303 181:0.75053561 182:0.42854217 183:-0.35587731 184:0.43388095 185:0.38205233 186:0.31595373 187:-0.084046505 188:-0.5144276 189:-0.79573655 190:0.35197917 191:-0.27221909 192:-0.65520251 193:-0.26473516 194:-0.33436993 195:0.17994043 196:0.21611018 197:0.1522954 198:0.73943794 199:0.12132579 
0.09949546948142335 0:0.26425725 1:-0.46275362 2:-2.0096796 3:1.2863815 4:-0.40983567 5:1.0316267 6:-1.033205 7:0.20999217 8:-0.93213153 9:-1.0726719 10:-1.0778432 11:-0.54826641 12:-0.00085626118 13:-0.63954097 14:-0.17589076 15:-1.0964224 16:-1.2536787 17:1.459901 18:-0.029709067 19:0.43450525 20:0.83571166 21:-2.3967035 22:0.21932593 23:-1.5696257 24:0.11869828 25:-1.7564608 26:-0.85173267 27:0.6314984 28:-0.82942981 29:-1.2350148 30:-0.078639507 31:0.85593927 32:-0.54757565 33:-1.0813142 34:-0.057972878 35:0.38938659 36:-0.62783676 37:0.62409031 38:0.16485044 39:-0.029199257 40:-1.2775323 41:-3.1415672 42:0.21386698 43:0.17687769 44:0.45741296 45:0.040020186 46:-0.7398544 47:1.4892918 48:4.4804807 49:1.5507751 50:6.3541379 51:-0.57083106 52:0.0014027968 53:-0.37601602 54:-0.94396383 55:-1.3357632 56:-2.2252233 57:0.068443775 58:-1.3641592 59:-0.51693678 60:0.40103883 61:-1.341463 62:0.27493697 63:-2.0495048 64:0.36544728 65:0.52341831 66:0.42350969 67:0.38879934 68:0.35761932 69:-1.047237 70:-0.26389089 71:0.55351651 72:0.18171991 73:0.40273708 74:0.48281509 75:-0.73994124 76:0.21153691 77:0.13581347 78:-0.95437855 79:1.8027116 80:0.17563483 81:0.45437479 82:0.050661743 83:0.3094306 84:-0.56623489 85:0.27993852 86:-0.064279802 87:-0.93522561 88:-0.77023345 89:1.0836816 90:0.24524738 91:-0.058093477 92:0.059081782 93:0.19339442 94:-0.26732275 95:1.3640269 96:0.87944919 97:-1.1831971 98:0.023740666 99:0.22180609 100:-1.5319221 101:-0.92933571 102:-0.96695536 103:0.054678198 104:-1.8485658 105:1.6949426 106:-1.5091619 107:1.0651923 108:0.52654302 109:-1.799247 110:-0.20346694 111:0.39196977 112:-1.3393424 113:-1.1525843 114:0.56977344 115:0.3075164 116:-1.8718845 117:0.25798443 118:0.27338126 119:0.012211193 120:-0.15751883 121:-1.1820508 122:-0.28594324 123:0.058954544 124:-0.05860645 125:-1.0377612 126:0.85064918 127:0.36638844 128:0.72718763 129:-0.38325578 130:0.59078944 131:-1.5267534 132:-2.1379199 133:-1.9949608 134:0.44531423 135:0.15009829 136:1.5666728 137:1.0379665 138:-0.58494627 139:0.13370958 140:0.069304399 141:0.87664372 142:0.55117738 143:0.44405723 144:0.22814474 145:-0.52572668 146:0.0057028793 147:0.27628094 148:-1.0929471 149:0.21281096 150:0.65277356 151:0.95284241 152:0.38122705 153:-0.076728977 154:-0.94347984 155:0.32327101 156:-0.21703218 157:1.0493004 158:-0.059542771 159:0.69863331 160:-0.70779765 161:-2.1165166 162:-0.12743129 163:-1.2325418 164:0.30243635 165:-0.010435063 166:-0.82813954 167:-0.30260408 168:0.5542354 169:-0.83074397 170:0.52056813 171:-2.130075 172:-0.069513053 173:1.513623 174:-1.9977777 175:0.13910212 176:-0.06237587 177:-1.2247528 178:-1.4683535 179:0.99205744 180:-1.0164266 181:0.35987628 182:0.34345716 183:-0.47593999 184:0.59810013 185:-0.44444728 186:-0.49770251 187:0.45273668 188:0.012379539 189:-0.58259177 190:0.36026672 191:1.7590138 192:0.16289315 193:-0.19703734 194:0.70906681 195:0.39956003 196:0.22603142 197:-0.12685113 198:-0.88046867 199:0.041016389 
0.3058549431017181 0:-0.74404633 1:-0.41214341 2:-1.306585 3:1.8836026 4:-0.79703909 5:1.1324692 6:-1.6083544 7:0.62191075 8:-1.7285546 9:-0.19451199 10:-0.023580864 11:-0.68120456 12:0.41895431 13:-0.39733946 14:-0.39408872 15:-0.2424795 16:-0.091489032 17:0.94557893 18:0.49722445 19:0.68780774 20:0.13775524 21:-0.73606312 22:0.36804762 23:-0.68341142 24:0.80864424 25:0.2924473 26:0.59831566 27:-0.34798336 28:-0.20570065 29:0.13188004 30:-0.27778631 31:0.10343299 32:0.45078737 33:-0.59573239 34:-0.27805299 35:0.27653661 36:0.80632085 37:-0.47722438 38:0.65126091 39:-0.011675548 40:-1.6507996 41:-1.3786372 42:0.27399626 43:0.53954667 44:0.48030421 45:0.43246016 46:-0.41457713 47:0.022398526 48:0.84037143 49:0.37486345 50:1.3666931 51:3.703064 52:1.8624254 53:1.8377701 54:1.4613595 55:-0.63222021 56:0.34884468 57:-0.53623015 58:-0.60528815 59:0.47776428 60:0.45726427 61:-0.02936502 62:0.10831656 63:0.032414053 64:-0.19311212 65:0.63155216 66:0.39024898 67:0.34582022 68:0.3175779 69:-0.76941317 70:-0.49157971 71:-0.15696637 72:0.3276861 73:0.36805364 74:0.33868766 75:0.1213147 76:0.20324387 77:-0.79426539 78:-0.17852262 79:0.74347377 80:1.1051586 81:0.20335285 82:0.23393056 83:-0.36326051 84:-0.25810844 85:0.01672934 86:-0.37871423 87:-0.96118307 88:-0.66429341 89:1.1251384 90:1.0802268 91:0.42959535 92:-0.97199768 93:0.5436902 94:-0.62784874 95:0.048176158 96:-0.5977819 97:-0.99346894 98:1.5518472 99:0.42313528 100:-0.63037771 101:-0.7434988 102:-0.24682358 103:1.0287658 104:-0.75677872 105:-0.57150364 106:-0.90836608 107:-0.75475204 108:-1.0167028 109:-0.14979553 110:-0.059700873 111:0.45085165 112:-0.10634612 113:-0.9951911 114:0.43141198 115:0.40946549 116:-0.086847313 117:-0.087192215 118:0.18279529 119:-0.27180251 120:0.11500941 121:-0.22668847 122:-0.80355769 123:0.212525 124:0.30483398 125:-0.91175449 126:-0.32228562 127:-0.29934296 128:0.52660745 129:-0.51433736 130:1.0146061 131:-0.98179102 132:-0.37134522 133:-0.31876239 134:-0.87415582 135:0.39861637 136:0.71765947 137:-0.4682081 138:-0.68542081 139:-0.070151679 140:-0.002821147 141:1.1710314 142:0.20000653 143:0.40561604 144:0.49463707 145:0.35560545 146:0.46006367 147:0.38862312 148:0.014969905 149:0.3988452 150:-0.2113674 151:0.1275214 152:-0.39639783 153:-0.41672724 154:0.080210678 155:1.0785178 156:-1.3197738 157:-0.077597119 158:0.56411171 159:-0.2616815 160:-0.5127908 161:-0.32554707 162:-0.37435889 163:-0.54939622 164:0.42351505 165:-0.66525549 166:-0.036295734 167:0.68338895 168:1.0792968 169:-0.22703081 170:0.42933545 171:-1.0931274 172:-1.2371793 173:-0.064711869 174:-0.98601979 175:-0.70122683 176:1.6239779 177:-0.88574541 178:-0.58938038 179:1.638037 180:0.23038423 181:0.4275417 182:0.16303396 183:0.66682196 184:1.848761 185:0.64513391 186:-0.65763384 187:0.15211123 188:0.37999907 189:-0.63507962 190:0.42695102 191:0.65522987 192:-0.036580123 193:-0.50525045 194:0.29280251 195:0.36128023 196:-0.19535704 197:0.62333107 198:0.13369013 199:0.41619569 
0.01718771168739418 0:0.11958911 1:2.4979441 2:0.40474278 3:0.026350234 4:0.084162153 5:1.6381235 6:0.15397201 7:0.69492108 8:0.40469122 9:0.21784256 10:1.2631708 11:-0.19285785 12:-0.18525924 13:-0.89753509 14:0.90227431 15:0.060076337 16:0.96518588 17:0.99960732 18:0.17305794 19:0.082872786 20:0.54673398 21:0.22656961 22:0.46711716 23:-0.28488556 24:0.37379864 25:1.5961438 26:-0.72814077 27:0.29836684 28:0.71910489 29:0.88857192 30:-0.47942507 31:0.61803293 32:0.79137677 33:0.16027071 34:-0.17396814 35:0.21389017 36:0.74942732 37:-0.72872275 38:0.10251661 39:1.0159458 40:0.72105443 41:0.01886145 42:0.49100193 43:0.47652835 44:1.3804692 45:0.34186718 46:1.172549 47:0.92888921 48:-0.25043508 49:0.72921431 50:0.32275203 51:0.97679621 52:0.20257698 53:0.76765984 54:3.7044616 55:3.436641 56:3.2699203 57:-0.76492584 58:0.9093045 59:1.5744399 60:0.28527412 61:0.59804416 62:0.18341348 63:1.4029864 64:0.49822423 65:0.38091356 66:0.43765402 67:0.31548697 68:0.41874531 69:2.006232 70:-0.64117664 71:0.39267313 72:0.41526046 73:0.39367849 74:0.41334197 75:0.63319308 76:-0.55174226 77:-0.16750894 78:0.42768934 79:-0.084801577 80:0.8069967 81:0.69305575 82:0.63427973 83:-0.20236313 84:0.58705401 85:0.28649384 86:0.35063183 87:0.68579304 88:1.6868513 89:-0.82432163 90:-0.58806491 91:-0.067560203 92:-0.66534096 93:-0.53793824 94:-0.40994084 95:-0.13826951 96:-0.016166532 97:0.26497713 98:-0.28104514 99:0.49296343 100:0.73073494 101:0.26949415 102:-1.9337907 103:-0.18989401 104:-0.19996905 105:-0.58202499 106:0.70731115 107:-0.13230678 108:0.92670232 109:1.2125943 110:2.6683598 111:-0.39874825 112:0.16275889 113:1.6793419 114:0.34183362 115:0.44125366 116:1.3978636 117:-0.16462161 118:-0.9026314 119:-0.092089966 120:0.18384151 121:0.67653489 122:0.18737589 123:-0.37024248 124:-0.39300582 125:1.1191208 126:0.33691245 127:0.52621764 128:0.0050361627 129:0.77112526 130:0.60672438 131:0.43356022 132:0.034245458 133:1.0549822 134:0.27083626 135:1.8650663 136:0.34300205 137:0.67381102 138:-0.50619793 139:-0.68644404 140:0.029768422 141:-1.0220368 142:0.49565083 143:0.41655767 144:0.37736455 145:-0.060984775 146:0.3990837 147:0.49508804 148:0.82940787 149:0.61621547 150:-0.47653183 151:-0.87668389 152:1.2150933 153:0.57717103 154:0.48706421 155:0.013217986 156:-0.46850985 157:0.89576131 158:-0.42860726 159:0.23570418 160:-0.17910787 161:0.72535193 162:0.1013708 163:-1.2157965 164:0.37313944 165:0.80841875 166:0.74761981 167:-0.23734544 168:0.38641459 169:0.22125028 170:0.30427492 171:0.75555104 172:0.69982171 173:1.1713678 174:-0.40697703 175:0.46740055 176:1.6579926 177:0.66864198 178:-0.75498587 179:1.303358 180:-0.94887096 181:0.1715057 182:0.8284629 183:-0.43326932 184:-0.48049083 185:0.47471309 186:-0.19487962 187:-0.11237364 188:-0.085793495 189:0.70660621 190:0.40109712 191:-1.2537912 192:1.4218668 193:0.7141524 194:0.64945066 195:0.44623604 196:1.5504375 197:0.11138481 198:0.11110682 199:1.172027 
0.05049610213011008 0:-0.08409825 1:-0.046528969 2:-0.68906039 3:0.080285005 4:-1.1655543 5:0.30388021 6:1.3153512 7:0.38386327 8:0.073895708 9:4.3725371 10:-0.30470806 11:0.058963504 12:0.21078296 13:-0.21076633 14:0.16154537 15:1.3491582 16:0.32254279 17:-0.32060781 18:0.58198625 19:-0.52993703 20:0.71188045 21:0.86701268 22:0.91293567 23:0.44519973 24:-0.0057307105 25:0.11278786 26:1.1463065 27:-0.47691354 28:0.33026195 29:-0.75493735 30:0.44072908 31:0.94939977 32:-0.80910552 33:1.3823051 34:-0.49518028 35:0.43320075 36:1.0073795 37:-1.049744 38:0.027802957 39:0.22705686 40:0.3190248 41:0.75433576 42:0.26842275 43:0.38006154 44:-0.27642474 45:-0.66090155 46:1.1851642 47:0.96955967 48:-0.57198668 49:0.38986203 50:0.49545884 51:0.46426022 52:0.90295464 53:0.10860462 54:0.83969325 55:-0.65402967 56:-0.046245411 57:0.83978289 58:5.662631 59:4.0843458 60:0.077463321 61:0.069314145 62:1.0775404 63:0.881832 64:-0.72352171 65:-0.56326956 66:0.44370052 67:0.43655854 68:0.38463452 69:-0.060636107 70:-0.62153411 71:0.078888036 72:0.41205955 73:0.41111407 74:0.42571378 75:1.4122766 76:-0.70203084 77:-0.96881777 78:-0.55445939 79:-0.31334326 80:0.23767132 81:0.16923413 82:-0.37569261 83:-0.76102799 84:0.2152517 85:-0.24912854 86:1.30705 87:-0.32513994 88:0.67742586 89:1.4168706 90:-1.0035753 91:-0.22177015 92:0.62837327 93:-0.47741741 94:0.055830952 95:-0.19948681 96:0.29903853 97:0.69180351 98:0.69560832 99:0.41384155 100:0.43521243 101:-0.59579676 102:-0.043244414 103:0.43175343 104:0.24484833 105:-0.38295978 106:0.34006801 107:-0.30284184 108:0.055773851 109:-0.61875868 110:0.048242841 111:-1.0155913 112:-0.62551522 113:0.128562 114:0.48883912 115:0.43747264 116:-0.2870234 117:-0.83117849 118:-0.6074599 119:-0.20478916 120:0.52107525 121:0.92861742 122:1.1036401 123:-0.77018315 124:0.046665993 125:0.31491539 126:-0.2579115 127:-0.84606856 128:1.1033862 129:-0.83142364 130:0.31332687 131:0.050740637 132:1.8062627 133:-1.1042216 134:0.53178346 135:0.36844721 136:0.63103724 137:0.34759775 138:-0.23914373 139:0.12268073 140:0.37664974 141:-0.61036468 142:-1.153492 143:0.45790884 144:0.39254832 145:0.66708654 146:0.34976873 147:0.40256998 148:0.11077 149:0.62929797 150:-0.182778 151:-0.17173401 152:0.31497249 153:1.9407719 154:-0.74027002 155:-0.036653876 156:-0.4760865 157:0.35409611 158:-0.29418409 159:-0.12745421 160:0.079567045 161:0.35598779 162:-0.0085595222 163:-1.5650747 164:0.43529126 165:0.42116433 166:-1.1474462 167:-0.58449948 168:0.40240502 169:-0.72556609 170:0.33969408 171:-0.7622208 172:0.64044237 173:0.49089506 174:-0.46348363 175:1.1168127 176:0.41420391 177:1.2664394 178:1.2092992 179:-0.67834032 180:0.24193634 181:0.10413582 182:0.22787014 183:-0.24916099 184:0.72887075 185:-0.048609819 186:-0.073933989 187:-0.64196277 188:-0.378012 189:-0.68754435 190:0.45299247 191:-0.12924396 192:0.16725014 193:-0.79320014 194:-0.54265028 195:0.39976284 196:0.39382547 197:0.83845073 198:0.80594325 199:0.25899303 
0.1076827627029311 0:0.50755227 1:-0.21710929 2:-0.65575373 3:-0.0721303 4:0.0071763648 5:0.050175089 6:-0.75892758 7:0.16586505 8:-1.0041072 9:-0.9252491 10:-1.1245918 11:-0.63265443 12:-0.71513504 13:-0.42008919 14:-0.83471781 15:-0.07686352 16:-0.096721716 17:-1.3059825 18:0.16088037 19:-1.1689963 20:1.4575386 21:1.1736312 22:0.4865599 23:0.18372406 24:0.63669497 25:0.63031238 26:-1.1518074 27:0.26244029 28:0.09225519 29:0.6454646 30:1.2810547 31:1.6757989 32:-0.15297216 33:0.69574285 34:-0.012445036 35:0.21932016 36:-0.05983885 37:-0.26936075 38:0.19467504 39:0.52228338 40:-1.028618 41:-0.20032822 42:0.27758196 43:0.1532366 44:0.45971453 45:-0.78390545 46:-1.5642887 47:0.26077354 48:0.036544334 49:0.60413182 50:0.96023142 51:1.3204404 52:0.3948949 53:-0.79078603 54:0.41124874 55:-0.56418383 56:-0.034179885 57:0.20492467 58:-0.41002983 59:-0.96285325 60:2.0481644 61:3.7351036 62:1.123971 63:-0.097957797 64:1.1986818 65:-0.86090028 66:0.46136144 67:0.41003263 68:0.30924997 69:-0.38527307 70:-0.30614629 71:0.3542698 72:0.14274745 73:0.38451123 74:0.3806296 75:0.79998642 76:0.15810363 77:-1.1887718 78:0.77346087 79:-0.002495632 80:-0.20426771 81:0.02420531 82:-0.84259903 83:-0.64002192 84:-0.045876313 85:-0.38657311 86:0.26237115 87:0.032370556 88:-0.53127015 89:0.069526955 90:-0.67087054 91:-0.052734517 92:0.62296915 93:-0.73694819 94:-0.60907114 95:0.72083575 96:-1.1154133 97:0.42676109 98:-1.4492638 99:0.61232853 100:-0.023229402 101:-0.13003744 102:-0.5245803 103:0.20415367 104:-0.20243457 105:0.63770103 106:0.79692322 107:0.67674899 108:-0.50614935 109:-1.1439503 110:-0.84202707 111:-1.0408959 112:0.98453736 113:-0.67783689 114:0.37042832 115:0.32464164 116:0.011443402 117:-0.45375979 118:-0.50934136 119:-1.0276762 120:1.02652 121:1.5085094 122:0.40952399 123:2.1226008 124:-0.56986272 125:0.26986927 126:0.32226259 127:-0.91757935 128:0.19071729 129:-0.5795182 130:-0.053624213 131:-0.65172625 132:0.7371375 133:0.35803151 134:-0.39008319 135:-1.151104 136:0.94670254 137:1.1041745 138:1.3091544 139:0.81980067 140:0.21852577 141:0.22313589 142:-0.70120049 143:0.38480949 144:0.099154897 145:0.72076535 146:0.19576743 147:0.49685037 148:0.4334712 149:0.37836504 150:-0.38462663 151:0.13216305 152:-0.78366798 153:-0.95639032 154:-0.28540856 155:-1.1818492 156:0.059087537 157:-0.28530958 158:0.1614085 159:-0.027850106 160:0.37674752 161:0.62391472 162:-0.72322345 163:-0.29653299 164:0.32542238 165:0.34633574 166:-1.276445 167:-1.0475792 168:0.28308377 169:-0.70047146 170:0.46961644 171:-0.41773373 172:0.30315951 173:-0.26742932 174:-0.66458565 175:0.14548877 176:-0.35843852 177:0.084210441 178:-0.47363994 179:0.90715027 180:-0.4624297 181:0.044351988 182:0.1543522 183:0.7719509 184:-0.64083803 185:0.42767718 186:0.52405596 187:-0.095786408 188:0.26702005 189:0.21111587 190:0.30260223 191:0.83395398 192:-0.34564674 193:-0.040685564 194:0.33121648 195:0.10856254 196:-0.39561555 197:1.1371307 198:0.87115902 199:-0.80004936 
0.07189339556024513 0:2.0229506 1:2.1637146 2:0.84662801 3:-0.4702962 4:1.3481067 5:-0.98461938 6:0.81480658 7:-0.0028336952 8:0.25233033 9:0.95162755 10:0.10930355 11:-0.99375361 12:0.51025319 13:0.98827755 14:-0.40255496 15:-0.44797403 16:0.69796455 17:-0.79806101 18:0.37493262 19:1.920415 20:-0.64081097 21:0.2750189 22:0.28944942 23:0.011109709 24:-0.38170627 25:-0.84483278 26:1.855124 27:-0.89600217 28:-0.45006728 29:-0.74506927 30:0.28894621 31:1.568692 32:-2.072068 33:0.19748886 34:0.55845493 35:-0.012826694 36:0.6187703 37:-0.19524612 38:-1.1191288 39:-0.0026107244 40:1.5549504 41:0.17127575 42:-0.30783683 43:0.025633736 44:-0.43734816 45:0.86793256 46:1.27171 47:-0.36287752 48:-0.36296701 49:-0.091650836 50:-0.11522937 51:-0.073844895 52:0.77168119 53:0.26015022 54:-1.2313839 55:1.1479969 56:-0.70893788 57:-0.68329513 58:0.50237292 59:0.64728522 60:-0.052463047 61:-0.21219954 62:0.42088902 63:3.7456868 64:1.1254153 65:4.4919639 66:0.13160683 67:0.27781093 68:0.18010458 69:0.62693018 70:-0.23442833 71:-0.68352008 72:0.19833069 73:0.08138907 74:0.15936562 75:-0.066543944 76:0.30805215 77:-0.46542555 78:-1.1507165 79:-0.012494799 80:-0.045760792 81:-0.15410361 82:-0.81509238 83:0.49482724 84:0.77903527 85:0.034783032 86:-0.92494655 87:0.41339678 88:1.5328661 89:1.350148 90:-0.36889222 91:0.033565741 92:0.979931 93:-0.83558601 94:-0.29126224 95:0.32501134 96:-1.0090669 97:0.45853493 98:1.537272 99:-0.17508712 100:0.10845956 101:0.16240293 102:0.12537755 103:-0.61899632 104:0.79474574 105:-1.0328929 106:-0.50525934 107:-0.687132 108:-0.69889873 109:0.9266246 110:0.32200941 111:0.17708579 112:-0.77757221 113:-0.81823891 114:0.11815403 115:-0.0071193743 116:-0.022613164 117:0.78716201 118:0.41049924 119:0.15881762 120:-0.49086979 121:1.3524884 122:1.186427 123:-1.0291283 124:-1.2834798 125:-0.42698976 126:-0.031772122 127:-0.73893517 128:0.74871272 129:1.0830443 130:0.13466033 131:1.7765806 132:0.063949384 133:-0.75583112 134:0.81210983 135:-1.6229104 136:-1.3411342 137:0.76344091 138:-1.2139376 139:-1.0805457 140:-0.07176625 141:0.59929913 142:-0.079858646 143:0.030787863 144:-0.10155614 145:0.30180344 146:0.17656931 147:-0.11094242 148:-0.96531457 149:-0.13929933 150:-0.46432841 151:0.2976326 152:1.1111134 153:0.3555226 154:-1.2789431 155:-0.13701133 156:-1.1696615 157:-0.74465024 158:-0.066779666 159:-0.01217723 160:-0.3606815 161:0.63781905 162:-0.53201586 163:-1.5969082 164:-0.032834589 165:1.3422483 166:-0.6590597 167:-1.0977564 168:0.91911227 169:1.5733953 170:-0.032168183 171:1.3175383 172:1.313693 173:-0.8109085 174:0.14350259 175:-0.1029311 176:-1.2903368 177:0.32246113 178:-0.24348444 179:-0.66629744 180:-0.6331557 181:-0.085981235 182:0.33323616 183:1.2380269 184:-0.46787459 185:-0.72050595 186:1.5769761 187:-0.40951782 188:-0.41454124 189:0.61626512 190:-0.11061361 191:-0.24584979 192:-0.32102299 193:-0.2345553 194:-0.54812264 195:-0.051117484 196:-0.096488304 197:-0.54482675 198:-0.12997383 199:-1.2577593 
0.07792227421645313 0:0.037783507 1:-0.046202514 2:0.51527619 3:2.0397439 4:2.0493503 5:0.85069853 6:1.984898 7:0.35299137 8:1.1244655 9:0.38098124 10:0.66870296 11:1.2690523 12:1.7028894 13:0.67049563 14:1.0337517 15:1.248935 16:1.6051024 17:2.1787648 18:1.0350058 19:0.78215605 20:2.9863224 21:1.1145867 22:1.1512907 23:1.3615059 24:0.172126 25:0.12436517 26:1.1385434 27:0.84364372 28:0.40375683 29:1.157266 30:1.2576708 31:1.1097548 32:0.75375462 33:0.33397964 34:1.1906519 35:0.53575671 36:1.721158 37:0.39900571 38:0.28656176 39:0.081836171 40:1.2601255 41:1.2013057 42:0.57990235 43:0.35319778 44:0.030578535 45:1.7006315 46:-0.077123374 47:0.85822421 48:1.8899479 49:0.20542279 50:1.231042 51:1.6397614 52:0.66537571 53:0.67653435 54:2.4818015 55:1.6475713 56:2.3168497 57:1.8945789 58:-0.77156556 59:0.1348948 60:1.1515963 61:0.89871389 62:1.0546 63:-0.066802688 64:0.30383107 65:0.5011797 66:0.49024597 67:0.64865088 68:1.1629728 69:1.0782536 70:1.3364949 71:0.75324905 72:0.28644893 73:0.3950516 74:0.41903535 75:1.3827437 76:0.2573123 77:1.6298137 78:0.35916072 79:2.0991261 80:1.3931586 81:0.46084544 82:1.2822098 83:0.018730551 84:0.18614918 85:0.71910477 86:0.66862363 87:0.40203172 88:0.40608764 89:1.2623702 90:1.9521283 91:0.73202491 92:0.71489948 93:1.3323737 94:1.5171623 95:1.1798025 96:2.1686547 97:1.2422193 98:1.3497446 99:0.38772061 100:1.2167014 101:0.85295886 102:1.1022195 103:0.90550196 104:1.7596127 105:1.5190585 106:1.235159 107:1.3248323 108:1.2659 109:0.46962163 110:1.5107889 111:1.0637958 112:1.503023 113:1.040373 114:0.50995946 115:0.25918397 116:1.4474387 117:1.2257414 118:1.0976552 119:2.0693848 120:2.0209925 121:1.2289917 122:1.0817082 123:1.1730224 124:0.80986482 125:0.49454108 126:1.2762101 127:1.4143327 128:1.4101351 129:2.0196812 130:1.8002864 131:1.2714102 132:1.4710875 133:0.90850371 134:0.14591254 135:1.5257498 136:0.86841547 137:1.2101555 138:1.3241822 139:1.5134851 140:0.22380212 141:1.2598203 142:0.6192174 143:0.3789022 144:0.29384479 145:0.65277773 146:0.34437221 147:0.57976419 148:1.8186989 149:0.42561376 150:1.2598306 151:1.4668822 152:1.5659575 153:0.3491194 154:0.78718132 155:0.21612664 156:0.80336189 157:-0.0066913436 158:1.4655485 159:0.81788605 160:0.9587087 161:-0.23261572 162:1.2170203 163:0.89947039 164:0.29368412 165:0.43393323 166:0.6276744 167:1.623548 168:1.1634634 169:0.70092613 170:0.41984606 171:0.64510757 172:1.2791057 173:1.8679358 174:1.7015431 175:1.0789546 176:1.0407563 177:0.1624016 178:1.696002 179:1.309561 180:2.2411427 181:0.66308552 182:0.39709982 183:1.3542153 184:1.0696387 185:0.31596082 186:0.79761052 187:0.54982048 188:1.0155085 189:0.67326605 190:0.31106839 191:0.90811181 192:1.9734315 193:0.28737727 194:1.0168195 195:0.76509923 196:2.695261 197:0.52691567 198:0.49765298 199:1.688619 
0.1184774426369299 0:-0.79441333 1:-0.55255646 2:-0.76664937 3:0.79038686 4:-0.36983782 5:0.32731268 6:-0.63366479 7:0.14231637 8:-1.421362 9:-1.407905 10:-0.85306901 11:0.88478094 12:-0.45471749 13:-1.6116822 14:1.1467732 15:-1.4600265 16:-0.42834842 17:-1.2132728 18:-0.14652449 19:-0.21923 20:0.23167409 21:-1.1744915 22:-0.57866406 23:-1.6285739 24:-0.17567977 25:0.54440922 26:-1.3885384 27:-0.79935712 28:0.093610324 29:-0.69413906 30:-1.4738879 31:-1.559613 32:-0.12597284 33:-0.43403038 34:-1.017857 35:0.35847589 36:1.0012497 37:-0.8730467 38:-0.21620658 39:0.043991055 40:-0.92058951 41:0.13149635 42:-0.40385157 43:0.18005936 44:-0.49052528 45:0.77433473 46:0.6147151 47:-0.98605859 48:-0.16809356 49:0.51788628 50:-0.85965765 51:-0.16534276 52:-1.123414 53:-1.6253103 54:-0.77634746 55:0.7368719 56:0.84037381 57:0.44134617 58:-0.30711803 59:-0.93744022 60:-0.68417084 61:-0.42578414 62:0.13165092 63:-0.88438928 64:-0.36460057 65:1.7795707 66:-0.019262873 67:-0.15833968 68:-0.10355508 69:4.2967334 70:2.539737 71:5.6300564 72:0.15251063 73:-0.054588661 74:-0.062282518 75:-0.23062137 76:0.011544618 77:0.60172647 78:-0.36396667 79:-0.13701853 80:-0.47480741 81:-0.088708661 82:-0.18323869 83:-0.90224695 84:0.97551942 85:-0.43032986 86:-0.97286028 87:-0.27315956 88:-0.26619822 89:0.50990021 90:0.87658197 91:-0.41944128 92:-0.45210654 93:0.45375019 94:0.22668681 95:-1.0863131 96:0.061959211 97:0.051843278 98:-1.0615879 99:-0.021647694 100:0.03595357 101:0.036439896 102:0.10228583 103:-0.72939205 104:0.079456188 105:-1.9957895 106:-1.1902149 107:-0.53062487 108:-1.1997443 109:-0.31070092 110:1.4698095 111:-0.62006319 112:-0.097207129 113:-0.60892892 114:-0.055268507 115:0.12358386 116:-0.72004795 117:0.76963735 118:0.28582901 119:-0.18274333 120:-0.5510875 121:-1.1785599 122:-1.0344245 123:-0.14334472 124:-1.1437287 125:0.33993942 126:-1.5977926 127:-0.011817285 128:-0.45036054 129:-0.39364144 130:-1.1855477 131:-0.18457608 132:-1.4313383 133:0.62505931 134:0.27514687 135:-2.0261858 136:0.55980933 137:-0.47631192 138:0.90727186 139:0.48979992 140:-0.59840918 141:-0.22692615 142:-0.035359379 143:-0.048597101 144:0.015436533 145:-1.1188637 146:-0.025545128 147:0.17668827 148:0.15393637 149:0.092009827 150:0.3102501 151:-1.0134461 152:0.80693126 153:-0.82398599 154:-0.49817184 155:-0.66979182 156:-0.22494377 157:1.2442298 158:-0.078181349 159:-0.15160234 160:-0.72015655 161:-1.692858 162:-0.31264946 163:-0.49328956 164:0.14974728 165:-1.7362819 166:-0.26033902 167:0.49519134 168:-0.66807586 169:-0.9326846 170:-0.18068855 171:-0.39184847 172:-0.9905569 173:-0.67615008 174:-0.92701679 175:-0.59878188 176:-0.9093942 177:0.045660488 178:-0.027960371 179:-1.3974119 180:0.21759894 181:-0.61448818 182:0.3405976 183:-0.94371241 184:-1.1000582 185:-0.78150797 186:-0.65363008 187:-0.023098227 188:-0.40983406 189:0.37992805 190:-0.024219612 191:-0.078670681 192:0.34456953 193:-0.25221154 194:0.10725623 195:-0.24550791 196:-1.0546418 197:-1.0830545 198:0.163325 199:-0.7031036 
0.2153902034286128 0:-2.1403704 1:-0.58254528 2:-0.62781948 3:-0.93202168 4:1.0384644 5:0.20437244 6:-1.8962225 7:0.3833597 8:-1.3242738 9:-1.0135366 10:-0.75794286 11:-1.3636996 12:-0.17993616 13:-1.3474375 14:0.39559737 15:-1.4425991 16:-0.62375951 17:-0.88148403 18:-0.089722082 19:-0.6216296 20:-0.42137417 21:0.15499578 22:0.37683544 23:-1.04896 24:0.48488697 25:-0.0033253974 26:-1.5843379 27:-0.27585289 28:1.0856029 29:-0.60080761 30:0.27451015 31:-0.7225787 32:-0.72742885 33:-1.0145385 34:-0.29581219 35:0.34482414 36:-0.30645728 37:-1.1123322 38:-0.40107778 39:-0.27894932 40:-0.88890642 41:-1.1920675 42:0.40018028 43:0.40913114 44:0.62471503 45:-0.98895538 46:-2.0267143 47:2.6588831 48:0.10376842 49:0.2112266 50:0.10994489 51:-0.18041435 52:-2.1176183 53:-1.5191 54:0.86998308 55:-1.0526589 56:-0.96345693 57:0.27327731 58:-1.6845984 59:-1.0775148 60:1.0365914 61:0.22763517 62:0.2860682 63:-2.0121834 64:-1.2424184 65:-1.1677744 66:0.45257983 67:0.37979349 68:0.3491855 69:-0.70606494 70:-0.73768383 71:-0.6735608 72:0.67598629 73:0.52933025 74:0.56293625 75:-1.5288815 76:-0.77328837 77:-0.60744721 78:-0.29627159 79:-0.055303209 80:-1.4487634 81:0.38376275 82:0.21056925 83:-1.4366522 84:1.0056477 85:-0.20321476 86:-1.4732456 87:-1.4104887 88:-1.3538387 89:-1.3908038 90:-0.039891116 91:0.068795092 92:-2.3843458 93:-0.52101356 94:-1.0944339 95:0.2398442 96:0.75054026 97:-1.0894114 98:-0.74616486 99:0.37906477 100:-1.0046068 101:-0.48538214 102:-1.4443754 103:0.31392404 104:-0.2941899 105:-1.1172901 106:-0.3697108 107:-0.065728635 108:0.54084933 109:-1.510433 110:0.086080208 111:0.87949371 112:-0.90294868 113:-0.4192054 114:0.43497798 115:0.35180038 116:-0.89211947 117:-0.84989256 118:-0.46936628 119:0.51750308 120:1.7379625 121:-0.26668212 122:-1.6503655 123:-0.30087167 124:-0.27349859 125:-0.44628623 126:1.0776299 127:-1.6392603 128:0.18027368 129:-0.41626212 130:-0.093495682 131:-1.0965171 132:0.38252553 133:-0.15449893 134:-2.4367208 135:0.97952604 136:-0.34079784 137:-0.98375928 138:-0.26549587 139:-0.037564848 140:-0.08618471 141:-0.78246605 142:-0.43625283 143:0.4366076 144:0.40125957 145:-0.44790438 146:0.50895447 147:0.46625838 148:-1.4427348 149:0.42327294 150:-0.15567324 151:0.51915628 152:-1.5679902 153:-1.3577509 154:-0.3537668 155:-0.26794088 156:0.36804798 157:0.53781819 158:-0.95687199 159:-0.49408841 160:-0.60683525 161:-1.9315034 162:-1.1348623 163:-1.4088395 164:0.36172864 165:-1.2788236 166:-1.0220046 167:0.14261432 168:-0.38623556 169:-1.2903332 170:0.44443837 171:0.30052909 172:-1.2733924 173:-0.63783044 174:0.10247131 175:-0.21198468 176:-0.27127069 177:-1.5148923 178:-1.6854084 179:-0.66498846 180:-1.3946497 181:0.42327848 182:-0.33232805 183:-1.4745408 184:-0.13793017 185:-0.17120475 186:-0.49693173 187:-0.28281209 188:-0.44982082 189:-0.72327632 190:0.35563177 191:-0.68532085 192:-0.47546408 193:-0.54282618 194:-0.12563376 195:0.18502074 196:1.8038298 197:-1.2937344 198:-1.5289103 199:0.411286 
0.1142820814134814 0:0.26460552 1:-0.61475742 2:-0.50241625 3:0.29319951 4:-0.46428707 5:1.596135 6:0.446062 7:0.31500107 8:0.14332883 9:0.45482504 10:1.6545067 11:-1.5925901 12:0.38708714 13:-1.4171605 14:1.1516037 15:-0.29716498 16:1.1185355 17:0.46264288 18:0.068157636 19:-0.93568325 20:0.98906004 21:0.51844156 22:0.096587487 23:0.62627286 24:0.69551849 25:0.55263764 26:-0.20273712 27:0.35167465 28:-0.87211663 29:0.39779565 30:0.79522276 31:0.15782182 32:0.32969919 33:0.35895705 34:-0.094728805 35:0.21751656 36:-0.3516897 37:-0.60031563 38:0.65449989 39:0.61248153 40:0.00674291 41:0.47908062 42:0.40244392 43:0.43812695 44:-0.56073266 45:-0.44534084 46:-0.72630382 47:-0.58859366 48:-0.22008157 49:0.7337501 50:-0.26868224 51:1.0689737 52:-0.1688372 53:0.15263881 54:-0.073165901 55:0.028793043 56:-0.80449164 57:-1.6604717 58:-1.2891945 59:-0.26788169 60:-0.48457143 61:0.31904858 62:-0.16695939 63:-0.76026684 64:0.095846817 65:-1.4558741 66:0.4218491 67:0.31631327 68:0.47682896 69:-0.020946745 70:-1.4773688 71:-1.1086191 72:0.56306338 73:0.38302946 74:0.3998768 75:0.13636099 76:-0.58610028 77:-0.5467099 78:2.0673594 79:3.9032352 80:2.885231 81:0.66870922 82:-0.57839286 83:-0.92748612 84:-0.37047794 85:0.88017505 86:1.8145759 87:-1.1336792 88:-0.31335926 89:0.99962592 90:-0.2372786 91:-0.2549701 92:-0.039312925 93:-1.8003854 94:-1.3302151 95:-0.51002556 96:-0.48465487 97:0.86691594 98:0.51291037 99:0.46152946 100:-0.65983027 101:1.2691513 102:-1.7545673 103:0.10945328 104:0.27318633 105:1.3871769 106:-0.18347573 107:-0.18044969 108:1.1208466 109:-1.0906233 110:0.98927855 111:-0.19050837 112:0.3403362 113:0.20586364 114:0.41180363 115:0.44917536 116:0.37430319 117:-0.25251362 118:-0.35190275 119:-1.0460718 120:-1.0610435 121:0.64179373 122:-0.74660534 123:-0.45589745 124:0.18963797 125:-0.28865457 126:-0.72241956 127:-2.0524211 128:-0.54605716 129:0.41287383 130:0.52696443 131:0.56722242 132:0.22658066 133:0.98154229 134:-0.25018841 135:-0.012853798 136:0.67151815 137:0.43100625 138:-0.55783653 139:-1.3825455 140:0.52887857 141:-1.7746234 142:-0.66229826 143:0.45684186 144:0.4905026 145:0.073902421 146:0.51357335 147:0.45793578 148:-1.0102347 149:0.38997126 150:-1.1891843 151:-0.93520415 152:1.2737536 153:-0.75364953 154:0.63473582 155:-0.1667673 156:-1.0756924 157:-0.8252387 158:-1.0356941 159:-0.6192373 160:-0.14528272 161:0.36096933 162:-0.13937867 163:0.41740751 164:0.43693575 165:0.67160225 166:0.0057240645 167:0.6481638 168:-0.61494452 169:-0.029976109 170:0.40609038 171:0.76043802 172:0.61206007 173:-0.94902653 174:-0.44346887 175:1.1291931 176:1.1956182 177:0.83047384 178:-0.40958476 179:0.1539876 180:-0.018146025 181:0.47441044 182:0.65160769 183:-0.66975117 184:0.64559793 185:0.69952071 186:-0.019174756 187:-0.33106524 188:-0.08006186 189:0.11636396 190:0.42989808 191:-1.265357 192:-1.0862118 193:0.35154915 194:0.48145491 195:0.15365666 196:-1.0506566 197:1.0333934 198:0.29897001 199:-0.73286444 
0.2397144090455432 0:0.60951585 1:-0.1850116 2:-0.25202465 3:-0.11352328 4:0.39120972 5:0.032194398 6:2.4715781 7:0.12673958 8:-0.29108027 9:1.0263253 10:0.9311617 11:0.96357143 12:0.91936052 13:-0.24449775 14:1.7322333 15:-0.36635372 16:-0.48944336 17:1.2898644 18:-0.050748616 19:1.7051764 20:0.27739045 21:-0.14831465 22:0.43339708 23:0.35785481 24:0.43404552 25:-0.26920471 26:-0.74865192 27:-0.3668299 28:-0.2335311 29:0.69892991 30:0.73089123 31:0.36342156 32:-0.039478343 33:1.1289387 34:0.18754679 35:0.22542171 36:0.79062188 37:0.020454062 38:-0.11964619 39:-0.59357971 40:0.54252458 41:0.37960026 42:0.16375291 43:0.18258502 44:1.8316522 45:1.4814335 46:0.58734834 47:0.81618208 48:-0.040340379 49:0.33891755 50:0.17716369 51:0.62158477 52:0.22299078 53:0.982575 54:0.20835666 55:-0.34360385 56:-0.41676179 57:0.021954563 58:0.26026747 59:0.79221314 60:0.21475886 61:0.13674885 62:0.22368747 63:-0.33493063 64:1.4665724 65:0.290759 66:0.41902608 67:0.48701638 68:0.39545602 69:1.2593364 70:0.19848919 71:0.8526414 72:0.43625796 73:0.43714395 74:0.3932969 75:-0.27966544 76:0.23728429 77:0.13074997 78:0.54884624 79:1.0306379 80:0.60531467 81:1.0989317 82:4.5747409 83:4.7295904 84:0.85971135 85:0.47170806 86:0.12387187 87:-0.35257941 88:0.058694091 89:0.18715426 90:1.4422916 91:0.31021401 92:0.50875574 93:0.7566368 94:-0.13179755 95:0.73329443 96:1.1144772 97:-0.3178072 98:0.57543951 99:0.23932773 100:-0.9035024 101:0.16163787 102:0.16236781 103:-0.57644635 104:2.6114695 105:0.54552484 106:0.43687779 107:0.38688228 108:0.80077308 109:0.05899616 110:0.60201687 111:1.9589361 112:-0.28244001 113:0.11463308 114:0.52132314 115:0.3946273 116:-0.78419936 117:1.5033206 118:1.4087056 119:2.518518 120:1.4759233 121:0.04373201 122:-0.24926473 123:0.69764024 124:0.27993768 125:1.1491992 126:1.7634133 127:0.5047034 128:0.35542554 129:0.26279986 130:0.36023 131:0.83159947 132:0.57274413 133:-0.39663181 134:-0.7206586 135:-0.71929026 136:0.12992677 137:0.0044249627 138:0.77094412 139:0.29589468 140:0.33062643 141:1.9048307 142:1.0436654 143:0.44425121 144:0.39461556 145:-0.195907 146:0.32452995 147:0.30641761 148:0.31580243 149:0.20113131 150:1.0868448 151:1.8539463 152:0.48417291 153:1.1195947 154:-0.011312891 155:0.54752624 156:2.5928197 157:1.5777167 158:1.4013947 159:0.075511523 160:-0.021264343 161:0.094289243 162:0.86140692 163:-0.49771336 164:0.38627693 165:0.29386804 166:0.41768935 167:1.1997458 168:0.17236839 169:-0.053607631 170:0.31201676 171:0.80452067 172:-0.5227679 173:0.91356748 174:1.236846 175:0.36960518 176:0.062700339 177:0.6339165 178:-0.55287486 179:0.44404548 180:-1.5081838 181:0.14864007 182:0.25703901 183:0.1235301 184:0.34774202 185:-0.28968704 186:0.19215436 187:0.62276304 188:0.45172623 189:0.53855944 190:0.44202575 191:1.7293861 192:0.70679963 193:0.70623702 194:0.44669503 195:0.4195061 196:0.96262312 197:0.38001174 198:0.1440309 199:0.094801091 
0.1006262022142567 0:0.24047522 1:0.35578927 2:-0.76119512 3:-0.083761387 4:-0.91798753 5:0.47421926 6:-0.94369626 7:0.22973415 8:-2.3229384 9:-0.058984626 10:0.68402034 11:0.16437006 12:-1.0055574 13:-0.23284559 14:-1.2882792 15:-1.3204942 16:0.60072708 17:0.65051466 18:-0.52085346 19:-0.3417812 20:-1.0771194 21:-1.9215887 22:-0.15124847 23:-1.3456206 24:-0.53847283 25:-0.98001277 26:-1.882705 27:0.24993375 28:-1.2493851 29:-1.0152243 30:-1.4504865 31:-0.46153626 32:0.019682612 33:-0.51919955 34:0.057029851 35:-0.00025902822 36:1.1472666 37:0.08535938 38:0.13419981 39:-0.5622614 40:-0.037460301 41:-0.77480918 42:0.14441681 43:0.27974063 44:-1.4443511 45:-0.26145521 46:-0.31313834 47:-1.2536297 48:1.0061295 49:-0.42584419 50:0.099027164 51:-0.24767435 52:-1.8392881 53:-1.5381615 54:-1.6914666 55:-0.85372901 56:-1.1734456 57:-1.5814037 58:0.045402668 59:1.3171546 60:-0.78140736 61:-0.9219135 62:-0.42839229 63:0.37403664 64:0.48267585 65:-0.96700448 66:0.35738879 67:-0.00050206797 68:0.31777045 69:0.83687556 70:-0.64073086 71:-0.3610141 72:0.17018242 73:0.31475905 74:0.22951841 75:-0.94178426 76:-0.60656238 77:-0.56822908 78:-0.18445754 79:-1.048781 80:-1.6359791 81:-0.019888608 82:-0.80953127 83:1.0779229 84:-1.0108874 85:0.93052697 86:-1.333836 87:5.5314546 88:5.9778295 89:2.1547706 90:-0.29747835 91:1.7324802 92:-1.4788657 93:-0.93619853 94:0.022727609 95:-0.79082936 96:0.079282053 97:0.58005917 98:-1.882161 99:0.11453656 100:-1.3210928 101:-0.8504777 102:-0.97316629 103:-0.10208124 104:-0.44485104 105:-0.30587873 106:-1.4236997 107:0.80469203 108:-0.16206484 109:0.05173026 110:-0.91052061 111:-0.77937579 112:-1.4320091 113:-0.41279408 114:0.3935076 115:0.34333462 116:-1.0448787 117:-1.1317985 118:-1.0216056 119:0.18753915 120:-1.0646915 121:0.84676218 122:-0.43257979 123:-0.29066622 124:-0.5988844 125:-1.0733408 126:-1.599147 127:0.25047457 128:-0.90973663 129:-1.1812412 130:-1.0456934 131:-0.52854156 132:-1.5502671 133:-0.96228075 134:-0.76180762 135:-0.29072347 136:-0.51234591 137:-0.10541282 138:-0.9557212 139:-1.5153109 140:-0.38416171 141:-0.65621394 142:-0.42739761 143:0.32605648 144:0.2456485 145:-0.78010905 146:0.039684497 147:0.12813568 148:-1.6022736 149:0.069816872 150:-0.4485954 151:-1.008528 152:0.63360423 153:-0.083498314 154:-1.0178728 155:0.67715001 156:0.01625197 157:-1.2345074 158:-0.32726786 159:-0.55812502 160:-0.27023837 161:0.34627011 162:-0.67811185 163:0.078468263 164:0.34494591 165:-1.0361532 166:0.034930147 167:-1.6470212 168:0.46384534 169:0.31459361 170:0.20601307 171:-0.11820614 172:0.70676029 173:-0.88529164 174:-0.68072414 175:-0.80867761 176:-0.98429251 177:-0.12521374 178:1.6077011 179:-0.47539678 180:0.3836287 181:0.067898311 182:-0.98853427 183:0.94876224 184:-0.48688042 185:-0.10555948 186:-0.75333941 187:0.11020499 188:-0.57249904 189:-1.3665144 190:0.34101248 191:-1.3942367 192:-0.40342382 193:-0.093723997 194:1.0127469 195:0.0005982804 196:-1.6734921 197:-0.31837258 198:-0.48137322 199:0.93251199 
0.02572886617210148 0:0.12861452 1:0.45137489 2:-0.67717332 3:-1.3683861 4:-0.82808131 5:-0.62294114 6:-0.70257312 7:0.037350152 8:-0.71463037 9:-0.45035157 10:-1.7417209 11:1.2178631 12:0.41373113 13:0.93747908 14:-0.94799012 15:-0.17843409 16:-0.41844654 17:1.5177705 18:0.07318788 19:0.8749994 20:-0.81964421 21:-0.11615168 22:0.14966086 23:1.2766646 24:-0.34382403 25:-0.34632811 26:-1.0500398 27:-0.54145557 28:0.5692786 29:-1.3613737 30:-1.8760033 31:-0.643583 32:0.11404398 33:-0.34955877 34:1.6281117 35:0.67747396 36:0.79068094 37:-0.33199865 38:-0.42175063 39:0.47943842 40:-0.30235955 41:-0.055956982 42:0.17026803 43:0.14214997 44:-0.13875903 45:-0.62238991 46:-0.66047353 47:-0.21633185 48:-0.78171808 49:-0.36566865 50:-0.53132957 51:-0.45565608 52:-2.5403173 53:-0.43273342 54:0.027649831 55:-1.1971365 56:-0.62831914 57:1.4274402 58:0.92831272 59:-0.82722014 60:-0.50025266 61:-1.0992848 62:0.12947965 63:-1.0999353 64:-1.5648438 65:1.5038489 66:0.34042147 67:0.36405158 68:0.24615031 69:-0.98789263 70:1.0408022 71:0.78460324 72:0.26130542 73:0.31929329 74:0.30981687 75:0.33996052 76:-0.11174767 77:0.38654014 78:-1.6958647 79:-0.52879119 80:-0.9401049 81:0.38690537 82:0.0011377111 83:0.78261787 84:0.34021962 85:0.04228178 86:2.8129516 87:1.4596688 88:-1.0468102 89:-0.66098136 90:-0.30620331 91:-0.93036938 92:1.1256872 93:4.1434913 94:2.3105125 95:3.4151466 96:0.59145612 97:1.8657699 98:0.27173537 99:0.0051918938 100:-0.19718522 101:-0.45516616 102:1.5278314 103:-0.58057714 104:-0.80604517 105:-2.0389166 106:-1.5623672 107:-0.35221547 108:0.4972941 109:-0.89094323 110:0.58457911 111:-0.0076031913 112:-1.003732 113:-0.8639062 114:0.26691875 115:0.25302368 116:-0.45545352 117:0.22519688 118:0.76428568 119:-0.33680516 120:0.44352493 121:0.90886182 122:-1.049454 123:0.16987486 124:0.37042049 125:-1.1432716 126:1.6137795 127:0.98372763 128:1.3009865 129:-1.0444388 130:-1.0582423 131:-1.0324485 132:-0.30000487 133:-0.83428705 134:1.1904976 135:-0.65578151 136:0.2173764 137:-1.1929952 138:0.32435301 139:1.4825884 140:-1.0479763 141:0.56633013 142:0.075626053 143:0.37367389 144:0.086065441 145:-0.99278229 146:0.070013449 147:0.23650628 148:-0.26144964 149:0.17875892 150:1.6054204 151:0.23039597 152:0.055709369 153:-0.22025339 154:-0.91495419 155:-0.26911938 156:0.072457545 157:-0.55981159 158:0.19640876 159:-0.16763233 160:-0.47132075 161:1.1109407 162:-1.0646697 163:0.49271846 164:0.34531134 165:-1.7633517 166:1.3030891 167:-1.0512748 168:0.42882624 169:-0.55467594 170:0.34560052 171:-0.30039194 172:1.7013801 173:0.72453815 174:-0.68836182 175:-0.92464507 176:0.25488204 177:-0.84547144 178:2.1834855 179:0.37476629 180:-1.102141 181:0.14151078 182:-0.59694749 183:-0.044104252 184:-0.8166731 185:-0.5175218 186:-0.89467716 187:-0.5668363 188:0.985901 189:0.47017679 190:0.24834925 191:1.1012751 192:-0.26739708 193:-0.64558148 194:1.0368384 195:-0.01938834 196:1.2879106 197:-1.1999153 198:0.0086123832 199:0.30062601 
0.1875016782332139 0:-0.30712828 1:-0.3963486 2:0.04445174 3:-0.086678401 4:-0.6703229 5:-0.14154975 6:0.0040619057 7:0.34536088 8:-1.0105681 9:-0.32999352 10:-0.58888704 11:0.65353054 12:0.37943074 13:0.83892483 14:-1.0236216 15:-2.2573793 16:-1.966069 17:-0.98567826 18:-0.64860421 19:-0.46946681 20:-0.52764452 21:-0.29169101 22:0.014053765 23:0.073434263 24:0.030542083 25:-0.39859608 26:-0.99765545 27:-0.5275315 28:-0.30109307 29:0.23934051 30:-1.4543525 31:-1.976275 32:-1.8197213 33:1.0395441 34:-0.37058139 35:0.37784544 36:-2.0374837 37:-0.0097465664 38:0.078343906 39:-0.74034125 40:0.077742442 41:-1.0817688 42:0.10423233 43:0.3878189 44:1.5262744 45:-0.47439745 46:0.81246859 47:0.86338252 48:0.035862233 49:0.31546322 50:-1.0247058 51:-2.0970354 52:-0.96507728 53:0.28311256 54:-0.95778143 55:0.79962385 56:-1.6638696 57:-0.45985347 58:-0.93255973 59:0.90938878 60:0.17473646 61:-1.6452664 62:-0.18438458 63:-1.1166798 64:-0.90715528 65:-0.19411054 66:0.38469088 67:0.21964428 68:0.35206416 69:0.030368187 70:-0.46238261 71:1.0173951 72:0.32226509 73:0.36430967 74:0.37836409 75:0.19419748 76:0.013464979 77:0.8314926 78:-0.43226847 79:-0.60293639 80:0.10037103 81:0.25982308 82:-0.95456976 83:0.44320631 84:-1.0958929 85:-0.278375 86:-1.0842315 87:-0.8127383 88:-0.43855309 89:-1.4708856 90:-0.0089813378 91:-0.31050059 92:0.12415901 93:0.10209517 94:-0.4912968 95:-0.1854782 96:4.6236429 97:5.385767 98:2.7269871 99:0.50819999 100:-1.4847556 101:0.40799099 102:-1.3427564 103:-0.42924324 104:-1.1459094 105:-0.75854808 106:-0.73118222 107:1.2365443 108:-1.25712 109:1.074901 110:-0.60960293 111:0.93765283 112:-1.3403913 113:-0.85783815 114:0.41770896 115:0.39435065 116:0.0040044561 117:-0.091494881 118:-0.5516715 119:-0.41941297 120:-0.68804556 121:-0.052386377 122:-1.5139569 123:-0.74913174 124:-0.83121008 125:-1.5150695 126:0.29483584 127:-0.87318528 128:-0.14574407 129:-1.101016 130:-0.84475785 131:-1.8428042 132:-0.77712655 133:-0.56821609 134:0.32637763 135:-0.068358928 136:1.4076779 137:0.1698474 138:0.26302493 139:0.30581653 140:0.1585032 141:-0.1079748 142:-0.20164064 143:0.4284693 144:0.40782237 145:-0.88944471 146:0.22277363 147:0.4876087 148:0.13891439 149:0.23930222 150:-0.51462895 151:-0.63873374 152:-2.315325 153:-0.094629109 154:-1.2008144 155:-0.38801923 156:1.2427282 157:-0.26679316 158:0.015166015 159:0.94099951 160:-1.0303581 161:-0.32340014 162:0.45843992 163:-0.35660776 164:0.38490653 165:-0.43234384 166:-0.20811203 167:-0.44306692 168:-0.95052952 169:-0.16702732 170:0.53131688 171:0.89751893 172:0.56932783 173:-0.93565118 174:-0.8253215 175:-1.0256182 176:-0.52406287 177:-0.75270635 178:-1.535508 179:0.97553915 180:2.3381855 181:0.28415006 182:-0.056424923 183:-0.075975783 184:0.1444996 185:-0.14496714 186:-0.23773149 187:-0.031230938 188:-0.62906253 189:-1.7559701 190:0.40332082 191:-0.0013273141 192:-0.4795725 193:-0.34132966 194:0.29595345 195:0.087764688 196:0.12450996 197:0.085761659 198:-1.1775452 199:0.16120857 
0.09726200384110484 0:-0.047332395 1:-1.1511117 2:0.21850181 3:0.18140057 4:-0.17565191 5:1.1835756 6:-0.73323983 7:0.48390466 8:-0.47708634 9:0.039810855 10:-1.3088861 11:0.82569832 12:0.83507586 13:-0.68495494 14:0.16037731 15:1.4522773 16:1.0920404 17:0.29445443 18:-0.10932691 19:-1.0103829 20:1.9171884 21:1.2596649 22:-0.064399116 23:0.14413166 24:0.2282609 25:-0.16552503 26:-0.59573668 27:-0.66224676 28:0.037047241 29:0.20155104 30:-0.21356551 31:0.91266298 32:0.91822368 33:-0.37277827 34:0.80769724 35:0.44714028 36:0.46610051 37:-0.66128254 38:0.65053266 39:1.0125734 40:-0.6122064 41:0.29561162 42:0.43872884 43:0.50897646 44:0.94111085 45:-0.26274228 46:-0.52265549 47:0.15278149 48:0.72614908 49:0.46172488 50:-0.093170926 51:1.1846787 52:0.15699019 53:-0.2325778 54:0.65575081 55:-0.58785373 56:0.16420054 57:1.0484318 58:-0.15824054 59:-1.1742862 60:0.26082307 61:-0.29149374 62:-0.24214792 63:0.16476195 64:0.44076452 65:-0.15857169 66:0.28933382 67:0.28474575 68:0.33960599 69:0.3176586 70:0.0066568791 71:-0.33417988 72:0.4736166 73:0.28866002 74:0.30254745 75:0.14020626 76:0.49224424 77:-0.43205136 78:0.60692942 79:-0.0091922451 80:0.20047788 81:0.068581708 82:0.57876593 83:-0.78774416 84:1.1422604 85:0.33692989 86:0.30697969 87:-0.25646764 88:-0.15862481 89:0.69922197 90:-0.68461108 91:0.073196433 92:0.18859766 93:0.090878651 94:0.11734141 95:-0.14631534 96:-0.32567954 97:0.32924697 98:0.59030819 99:0.56370401 100:4.4686203 101:5.410953 102:-0.14183663 103:0.26889908 104:0.32345247 105:-0.60726416 106:0.79907298 107:-0.24787012 108:-0.96806955 109:-0.8040241 110:-0.92743343 111:-0.96633738 112:0.73432493 113:0.33055702 114:0.38149723 115:0.4709208 116:0.71187222 117:0.19078618 118:-0.027371535 119:-0.84726405 120:-0.075911433 121:-0.42323512 122:-0.36249697 123:-0.42077929 124:0.63412595 125:-0.44258064 126:-0.9591977 127:-0.050467648 128:-0.48395717 129:1.2569964 130:0.25261998 131:0.37051499 132:1.0071123 133:0.38184094 134:-0.2644687 135:0.023210311 136:-0.13803871 137:-0.12877731 138:1.9839398 139:1.4413084 140:0.21390149 141:-0.16167226 142:0.18276516 143:0.34666902 144:0.45742691 145:0.25468066 146:0.54056382 147:0.45113102 148:-0.59461093 149:0.37659514 150:-0.58818048 151:-0.58624411 152:-0.018098315 153:-0.89783943 154:1.0875623 155:-0.29791886 156:1.109111 157:0.7700364 158:-0.48869923 159:0.45641002 160:1.018308 161:-0.044908084 162:0.15810628 163:1.03356 164:0.42050019 165:0.23614959 166:-1.1001937 167:0.55960751 168:-0.99782813 169:1.0864074 170:0.23782003 171:-0.65239233 172:-0.0010942743 173:-0.88416004 174:0.80661529 175:-0.10154922 176:1.6925077 177:-0.024855966 178:-0.42097801 179:-0.82124949 180:-0.59658891 181:0.70235026 182:0.8028363 183:-0.89990085 184:0.60087061 185:0.42513844 186:-0.03218019 187:0.55152863 188:-0.53320771 189:0.53626984 190:0.42704031 191:0.99282569 192:0.87504679 193:-0.055650424 194:-0.30060887 195:0.14340477 196:-0.08863277 197:0.75825697 198:0.23537524 199:-0.3470155 
0.07083991423734319 0:0.19941661 1:-0.66178602 2:-0.68464619 3:-0.24569976 4:-1.1551486 5:-1.3817252 6:0.43886375 7:-1.8112689 8:0.52124214 9:-0.79885602 10:-1.1613731 11:1.5830864 12:0.62261605 13:-0.31252849 14:-0.8759436 15:0.39553466 16:-1.1931496 17:-1.9136631 18:-2.2695768 19:0.33019212 20:-1.9478211 21:-0.7327311 22:-2.4261472 23:-0.83243722 24:-0.32354328 25:0.30140299 26:0.31455809 27:-0.33685321 28:-0.97652906 29:-0.32743719 30:-1.3571407 31:-1.835586 32:-0.36284804 33:0.91042763 34:0.33822629 35:-1.5626118 36:-1.5553442 37:0.12742488 38:-1.3842895 39:0.30421519 40:-0.29033613 41:-0.58505052 42:-1.0665196 43:-1.5326202 44:-0.7128489 45:-0.52526802 46:-0.88280517 47:-1.2251902 48:-0.26304656 49:-0.80416381 50:-0.94683081 51:-1.5047184 52:-0.42355907 53:0.15760106 54:-1.1894087 55:-0.83259225 56:-0.59676373 57:-0.30835325 58:0.17261726 59:-0.55347091 60:-1.3240626 61:-1.5153023 62:-2.2499483 63:-0.81501323 64:-0.35284033 65:-0.11722041 66:-1.7352703 67:-2.303833 68:-1.577222 69:-1.3616505 70:1.1940858 71:-0.74161804 72:-1.0378658 73:-2.0573189 74:-2.0704331 75:-0.76229078 76:-0.34363657 77:-0.27130106 78:-1.033954 79:0.77482724 80:-1.2616807 81:-1.7200688 82:-0.10274852 83:-1.3489735 84:0.47569105 85:-1.4541194 86:-1.3418009 87:0.30893755 88:-0.38028347 89:-1.6063169 90:0.28079176 91:-1.4600679 92:-0.16200869 93:0.49714336 94:0.45237568 95:-1.5219914 96:0.24313661 97:-0.69023514 98:-0.66087359 99:-1.1154981 100:-0.72105008 101:-0.31425658 102:1.4196459 103:1.372539 104:0.58481097 105:-0.45558271 106:-1.4591405 107:-1.5099761 108:-1.6420388 109:-0.11014054 110:-1.1789107 111:-0.34789118 112:-0.40931574 113:-0.90819484 114:-1.8926326 115:-1.5055724 116:-0.6696412 117:-0.33462355 118:-0.13972314 119:0.1548923 120:-1.0504904 121:-0.32370496 122:-0.67928773 123:-0.70490265 124:0.23562428 125:-0.64345568 126:-0.63272804 127:0.27970526 128:-1.0711795 129:-1.3240266 130:-1.1981477 131:-0.38395143 132:-1.3189111 133:0.050057426 134:-0.18705674 135:-1.766345 136:-0.45872307 137:-0.60706353 138:-1.4457117 139:0.057280838 140:-1.1156106 141:-0.62935662 142:-0.68737149 143:-1.8410639 144:-1.1107804 145:-1.075156 146:-0.9715004 147:-0.95376587 148:-0.15166715 149:-0.89451236 150:0.32655883 151:-2.4564538 152:-1.1553447 153:1.1291568 154:0.12037174 155:0.08509589 156:-1.3532403 157:-0.34976515 158:0.76378709 159:-0.087863334 160:0.16819331 161:-0.16469544 162:-0.46669838 163:0.079276092 164:-1.4487234 165:-1.4736078 166:-0.0033756848 167:-0.69466859 168:-1.3183967 169:-1.419522 170:-2.2704489 171:-0.89622235 172:-1.3225703 173:-0.39805493 174:-0.66775119 175:-1.4420266 176:0.035829552 177:-0.61253881 178:0.88225871 179:-0.86744183 180:-0.56122971 181:-1.8087139 182:-0.48497355 183:-0.50926 184:0.18683849 185:-1.2333484 186:-0.62329733 187:-0.84495878 188:-0.30774206 189:-0.07246355 190:-1.8203734 191:-0.69398224 192:-0.92293108 193:-0.097105637 194:-1.4834512 195:-1.4765458 196:-0.1619741 197:-0.15529673 198:0.90040928 199:0.84959841 
0.08887709325178175 0:-0.25361153 1:0.9622016 2:-0.095882662 3:0.083548732 4:-1.1208711 5:0.19375367 6:-1.0668048 7:0.23982279 8:-1.6128963 9:-0.64337623 10:0.50650114 11:0.31378999 12:-0.27290469 13:-0.73945701 14:-1.1892567 15:0.30202052 16:-0.98512596 17:-0.86356509 18:0.38368088 19:1.5842224 20:0.41446927 21:-0.073798008 22:0.50501871 23:0.67269444 24:0.40324295 25:-0.41454861 26:-1.9187232 27:-0.34165856 28:0.047422402 29:0.081759043 30:0.26619318 31:-0.50956374 32:0.88864839 33:0.15358184 34:-1.0274729 35:0.4950701 36:-0.30833042 37:-0.16166094 38:0.95449573 39:-0.58004826 40:0.96868873 41:-0.7065441 42:0.13517199 43:0.25697696 44:0.30900612 45:-0.46826226 46:0.30665463 47:-0.36572415 48:0.32485831 49:0.3986221 50:0.40318558 51:-0.65292633 52:-1.3831166 53:1.5381126 54:-1.2937012 55:-0.62197769 56:-1.4689958 57:0.658795 58:1.3133436 59:1.1169943 60:0.60192901 61:-0.75626326 62:0.54865545 63:0.55476171 64:-0.083883151 65:0.93058783 66:0.32881683 67:0.53500569 68:0.22068515 69:-0.37862727 70:-0.52505946 71:1.0754931 72:0.29382259 73:0.32510185 74:0.35724536 75:-0.99278474 76:-0.31273758 77:-1.006946 78:0.11302739 79:-0.19236332 80:-0.089990996 81:0.31789109 82:0.89539951 83:1.1527398 84:-1.1772529 85:-0.07975781 86:0.49989712 87:-0.66375041 88:0.077124991 89:-1.0029355 90:0.21784076 91:0.95656538 92:0.055456597 93:-0.22585689 94:-0.65757555 95:0.17918964 96:-1.0421402 97:-0.41254714 98:-0.76833385 99:0.44558236 100:-1.1600959 101:0.38014388 102:0.16790342 103:0.49863911 104:-1.4022541 105:4.431478 106:4.1737261 107:4.1923108 108:0.024945108 109:-0.22646233 110:-0.73756099 111:-0.56675744 112:-0.082123809 113:-0.17739019 114:0.20282553 115:0.26719788 116:-0.074462868 117:-0.30122399 118:-0.30047813 119:-0.49293381 120:-0.71995944 121:-0.089685753 122:-0.31374696 123:0.29798132 124:-0.41438711 125:-0.68364996 126:-0.67845267 127:-0.70844281 128:0.92097998 129:0.3047457 130:0.33895642 131:-0.75879508 132:0.27644071 133:-0.16896568 134:-0.44465089 135:-0.9560864 136:-0.31445044 137:-0.20918995 138:0.61605775 139:0.28834271 140:0.39422202 141:-0.84903008 142:0.382487 143:0.32005218 144:0.47647431 145:-0.82814234 146:0.29570135 147:0.51004678 148:-1.3339564 149:0.30695769 150:-0.66447622 151:0.46029589 152:-1.0144825 153:2.0249064 154:-0.32186905 155:-0.4973965 156:0.12155392 157:0.42860606 158:-0.24323978 159:-0.51433223 160:-0.22897261 161:0.62232107 162:0.066970959 163:0.49806842 164:0.29249644 165:-0.41278148 166:-0.52418369 167:1.1525759 168:0.42760935 169:0.27202404 170:0.23714639 171:0.88047266 172:-0.54986286 173:0.096596889 174:-0.2134098 175:0.61187595 176:-0.26340082 177:-1.0619365 178:-0.94331819 179:-0.0021807069 180:-0.2642355 181:0.21481875 182:0.69707096 183:1.0034325 184:0.75297934 185:0.86714351 186:-1.1359109 187:-0.10413662 188:-0.062451869 189:-0.74561417 190:0.29529706 191:0.18261759 192:0.59582162 193:-0.085483938 194:-0.11485583 195:1.1962363 196:0.55641562 197:0.54224783 198:-0.96179789 199:-0.49086773 
0.1481883048022093 0:0.41032943 1:1.447719 2:0.9738571 3:0.17511812 4:-0.62380695 5:0.38711584 6:-0.071750917 7:0.37071902 8:0.93553007 9:-0.58615088 10:0.53114915 11:-0.37045461 12:-0.093232572 13:-0.28468296 14:-0.10153794 15:0.55878139 16:-0.44746146 17:-0.89269799 18:0.66460478 19:0.58622926 20:-0.86606336 21:0.030481601 22:0.10634798 23:1.4126266 24:0.40575477 25:1.121263 26:0.13717984 27:-0.79299545 28:0.12980364 29:0.052376773 30:-0.20977387 31:-0.081818037 32:0.93209612 33:0.66118973 34:-0.76478314 35:0.14613029 36:-1.2391871 37:-0.023682406 38:0.20134862 39:0.27615857 40:-0.50377023 41:-0.22522834 42:0.12432933 43:0.44303066 44:-1.4267222 45:-0.022618715 46:1.1107285 47:-0.96889096 48:-0.23713411 49:0.16773792 50:-0.88485503 51:-0.59177017 52:0.70482981 53:-0.57965672 54:0.13779606 55:-0.22157426 56:-0.06056843 57:-0.53303283 58:0.21734659 59:-0.29211342 60:-0.47733957 61:-0.46756077 62:0.17608427 63:1.0589598 64:0.29266462 65:-0.55276692 66:0.071053818 67:0.23051195 68:-0.12638226 69:0.39623523 70:-1.0769217 71:-0.6248458 72:0.14975554 73:0.022681065 74:0.17506677 75:0.12474772 76:-0.23511052 77:1.489123 78:0.58517331 79:-0.14512101 80:1.7901524 81:-0.097509794 82:-0.53512049 83:-0.42694545 84:-0.084865883 85:0.0056295982 86:0.25160319 87:0.28536978 88:0.66753185 89:-0.75556755 90:-0.074947119 91:2.246372 92:0.92856562 93:-0.41644514 94:-1.7360716 95:0.13016447 96:-0.439825 97:-0.075131252 98:-1.0756286 99:0.2508581 100:1.2740127 101:1.6900078 102:-1.0601814 103:0.14138119 104:0.30958647 105:-0.64764374 106:0.56886446 107:-0.55670577 108:-0.2096668 109:1.127493 110:-0.14174321 111:3.4310849 112:0.78648341 113:4.230926 114:0.21116526 115:0.11770023 116:0.64951479 117:0.061448053 118:-0.036390163 119:1.8699228 120:-0.65339655 121:0.13644852 122:0.06257385 123:0.14324945 124:0.26803052 125:0.52806056 126:0.40784502 127:-1.4728839 128:0.56162262 129:0.70548373 130:1.0242285 131:1.0229435 132:-0.19227563 133:1.2487193 134:0.41473699 135:0.20346928 136:-0.38084537 137:-0.52879739 138:-0.79860336 139:-0.71452242 140:0.74777025 141:-0.31269354 142:0.86208785 143:0.061983127 144:0.36218077 145:0.026005566 146:0.10011459 147:0.30079335 148:1.0191284 149:0.29777384 150:-0.84308273 151:-0.40845114 152:0.0053585558 153:-0.19910356 154:0.59979433 155:-0.14533909 156:0.52045321 157:-0.45860398 158:1.3983741 159:1.5583204 160:0.15245414 161:0.16085358 162:0.13772517 163:-1.1715261 164:0.15420564 165:1.3386463 166:-0.4036881 167:1.4450666 168:-1.3874954 169:0.68410748 170:-0.020091692 171:0.76243269 172:-0.2469098 173:-0.60971624 174:1.5911015 175:-0.54076594 176:-1.1114476 177:0.090418532 178:-0.29205087 179:-0.39608848 180:-0.67938334 181:-0.089026406 182:0.59668988 183:0.36917901 184:-0.72371185 185:0.36790538 186:-0.20210725 187:0.32001218 188:-0.81498963 189:0.95806944 190:0.10474624 191:0.061129317 192:-0.36964768 193:-0.13224491 194:-0.63824677 195:0.549191 196:0.59019583 197:0.6329537 198:0.83890039 199:-0.3696875 
0.1356903411641441 0:0.24875571 1:0.087677181 2:-0.28824687 3:0.70499361 4:0.30447358 5:0.67402977 6:-0.52746302 7:0.082800232 8:-0.57966608 9:0.28093758 10:-0.58886451 11:-0.27383095 12:0.23664205 13:-1.2637414 14:-1.1093862 15:0.23818973 16:-0.024634283 17:-1.1111332 18:-0.51801032 19:0.70321876 20:0.63196462 21:-0.12545815 22:0.44284451 23:-0.46682185 24:-1.1021291 25:-1.3907199 26:-0.73238736 27:0.075288564 28:0.054929495 29:-0.64925289 30:-0.94017017 31:0.09092804 32:-0.30564609 33:-0.80858266 34:0.38530108 35:0.19120121 36:-0.22423273 37:-0.66996878 38:-1.0557841 39:-0.5580129 40:-0.6380204 41:0.5793277 42:0.011365785 43:-0.14619265 44:1.8556453 45:-0.044405624 46:-0.47474352 47:0.90999073 48:-0.62427127 49:-0.16618009 50:-0.42065567 51:1.1198574 52:0.23912939 53:-0.86535925 54:0.14567775 55:1.2600715 56:-0.069998994 57:-0.5621056 58:-1.1056274 59:0.67053777 60:-0.59250927 61:-0.21456182 62:0.4438203 63:-0.29699886 64:1.7273924 65:0.91817284 66:0.31779832 67:0.21167395 68:0.3773464 69:0.48888218 70:0.031486187 71:0.54521954 72:-0.029111208 73:0.30254921 74:0.36028904 75:-0.60812509 76:0.20536204 77:-1.5800906 78:-0.72271061 79:-0.73974699 80:0.094893821 81:-0.16019467 82:0.085465044 83:0.096401513 84:-0.95617872 85:-0.048961114 86:0.54134244 87:-0.89354783 88:-0.45941648 89:0.21711658 90:1.5686735 91:0.58408493 92:-0.13752294 93:0.40537801 94:0.017398629 95:0.40187603 96:-0.21290813 97:0.8108052 98:-0.64401454 99:-0.099905595 100:-1.4495473 101:-1.063867 102:1.4690905 103:-0.38841075 104:1.1213371 105:0.28555557 106:-0.21471579 107:0.99012995 108:-0.3334018 109:1.7107196 110:-0.5929147 111:0.81384957 112:-0.68307239 113:-0.80012041 114:0.085004337 115:0.16828284 116:-0.08473029 117:2.0847049 118:5.5404692 119:3.9869239 120:0.8093884 121:-1.1912594 122:0.10229092 123:0.32396421 124:-0.089217737 125:-0.69848901 126:-0.020361131 127:0.29669765 128:0.5155831 129:-0.48647583 130:-0.21631324 131:-0.53879505 132:-0.31786266 133:-0.47283947 134:0.094789796 135:0.28982735 136:0.24834667 137:-0.25241226 138:-0.35320356 139:-0.70512539 140:0.16544297 141:0.48894185 142:0.35110438 143:0.21529195 144:-0.12921551 145:0.75753784 146:-0.33325708 147:-0.040196285 148:1.1138924 149:0.11486343 150:-0.11044639 151:0.51936179 152:0.12641139 153:-0.36546147 154:0.026109377 155:-0.025045292 156:0.85732043 157:-0.47352114 158:-0.015057319 159:-0.45744562 160:-0.21472348 161:0.66400099 162:-0.23851186 163:-1.1584145 164:0.15876447 165:-1.0467263 166:0.72695446 167:-0.21613558 168:-0.3190707 169:1.2308083 170:0.10857128 171:-0.75549704 172:-0.57826519 173:0.0039254455 174:0.32601321 175:0.25545362 176:-0.4022589 177:-0.68928242 178:-0.35018724 179:0.88175815 180:-0.97091454 181:-0.015664706 182:-0.10832864 183:0.060421981 184:0.48363224 185:-0.25206432 186:-0.33793938 187:-0.64937687 188:-0.15843028 189:-1.1425686 190:0.15877599 191:-0.47571453 192:-0.57961786 193:-0.18460509 194:-0.020933148 195:-0.42013478 196:0.82709378 197:-0.69713461 198:-0.13461745 199:0.258499 
0.1656586488181023 0:-0.056265414 1:-1.0698482 2:0.27304107 3:0.39857733 4:-0.39499065 5:0.35681975 6:-0.12957987 7:0.73046178 8:0.17916656 9:-0.66828531 10:0.48231134 11:-1.2732286 12:0.96615517 13:-1.5379364 14:0.52388424 15:0.36033854 16:0.1836347 17:-0.5728513 18:0.26005057 19:0.34888434 20:0.70447481 21:0.38685021 22:0.22250117 23:0.15332817 24:0.40073112 25:1.0591068 26:0.91081023 27:-0.8326956 28:-0.45426822 29:0.26041582 30:0.71813595 31:-1.061257 32:0.19664617 33:-0.16085532 34:0.41885418 35:0.42441297 36:-1.0474002 37:-0.58399403 38:1.2886856 39:1.638607 40:-0.63242263 41:-0.15690902 42:0.56514108 43:0.53880864 44:1.2613951 45:-0.8670097 46:-1.0841123 47:0.64698952 48:1.0600526 49:0.64058495 50:0.22858052 51:-0.43470576 52:0.8505308 53:0.12228566 54:-0.068708017 55:0.041652143 56:0.65572447 57:-1.569646 58:-0.64044398 59:-1.0756224 60:0.46036756 61:1.5279564 62:0.48498297 63:2.5306096 64:-0.76817107 65:0.33837336 66:0.42497492 67:0.3052364 68:0.4048526 69:0.19896483 70:0.18446167 71:-0.20271885 72:0.4281621 73:0.39485404 74:0.41344047 75:-0.91566944 76:-0.37791756 77:-0.98767781 78:0.88868815 79:0.013717658 80:-0.88973874 81:0.61943346 82:-0.20577046 83:-0.68872815 84:1.3451786 85:0.54341346 86:-0.61226672 87:-0.52308464 88:0.38463002 89:0.076956719 90:0.39375812 91:1.0662913 92:-0.10457699 93:-0.49203932 94:-1.1032913 95:0.52584076 96:0.036191456 97:-1.0061961 98:1.2456626 99:0.56354249 100:1.2734908 101:0.83589435 102:-1.7278323 103:0.97006243 104:1.602596 105:0.41508734 106:0.54083282 107:0.75178242 108:-0.85996675 109:-0.93848419 110:-0.35866362 111:-0.61756122 112:0.78556156 113:-0.87751937 114:0.49831995 115:0.43415275 116:0.88258481 117:0.81614447 118:0.37984002 119:-0.56194454 120:3.4980118 121:2.3025661 122:4.1521945 123:-0.54785407 124:-0.090488352 125:0.68586498 126:0.37079963 127:-1.1009969 128:-0.051913414 129:-0.84008473 130:0.11183835 131:-0.45101121 132:0.19357002 133:0.60405886 134:-0.99888688 135:1.5699939 136:0.47418961 137:-0.16003901 138:-1.0502 139:-1.7163489 140:0.76934808 141:-0.42788133 142:0.97493559 143:0.46818116 144:0.40988958 145:-0.60887682 146:0.4072924 147:0.49483508 148:-0.081887141 149:0.55453843 150:-0.79586613 151:1.0810795 152:-0.51761889 153:-0.96030545 154:0.66113847 155:-0.70689291 156:1.0219603 157:1.287138 158:-0.07736899 159:-1.0054369 160:0.32834399 161:-0.035624884 162:0.39183739 163:-0.081912607 164:0.42725164 165:1.5808986 166:-1.078006 167:-0.53057069 168:-0.89736801 169:-0.71900958 170:0.4581843 171:-0.60623193 172:0.093893401 173:-0.039170112 174:0.69370502 175:-0.27912661 176:-0.40658703 177:0.39036915 178:-0.45928231 179:0.48187533 180:0.024791047 181:0.41700006 182:0.83955985 183:-0.52554053 184:0.90108681 185:0.75346732 186:-0.87818182 187:-0.37925735 188:-0.68891573 189:0.669967 190:0.44148993 191:0.079654455 192:-1.530661 193:-0.75285131 194:0.084395155 195:0.44054732 196:0.65169531 197:0.30627531 198:0.066426247 199:-0.50030804 
0.08889232066997203 0:-1.5279976 1:-1.148497 2:-0.88733453 3:-1.7956853 4:0.81297237 5:-0.44247571 6:0.29699647 7:0.26745132 8:0.37883779 9:2.4494302 10:-1.5845042 11:0.93014288 12:0.17207995 13:-0.65492332 14:0.42119318 15:-0.59038645 16:0.69611734 17:-0.91559231 18:0.014644575 19:0.078575477 20:-0.43832016 21:0.096144125 22:0.37518072 23:-0.032442749 24:0.14720298 25:-1.0594469 26:0.077092744 27:-0.08807689 28:0.2267684 29:0.33527866 30:-1.0719972 31:-0.16073088 32:-1.2455577 33:-0.33934605 34:0.63601613 35:0.30285197 36:-0.51398963 37:0.15822195 38:0.04854105 39:0.29861632 40:-0.83636433 41:0.63133436 42:0.4682228 43:0.29956865 44:-0.43326625 45:-0.80644786 46:-0.41776702 47:1.8744915 48:-0.57035559 49:0.11359806 50:-0.3831912 51:0.72187275 52:-1.5889035 53:-1.0866086 54:-1.0753033 55:-0.78494412 56:-0.42896399 57:1.7787428 58:-1.1767205 59:-0.61054134 60:1.2875737 61:-0.89750582 62:0.45723274 63:0.36768788 64:-0.14352007 65:0.27288094 66:0.25892544 67:0.52567559 68:0.37103066 69:-0.85218579 70:1.3904186 71:-0.72259498 72:0.28458545 73:0.34953141 74:0.40410253 75:0.28179422 76:-0.05671693 77:0.19238554 78:0.56578058 79:0.1636802 80:-0.18895076 81:0.43069032 82:-1.1848879 83:-0.31784013 84:0.44249982 85:-0.96782583 86:0.43675974 87:0.43883345 88:-0.96988779 89:-0.98734438 90:0.27393293 91:0.3501243 92:0.017908299 93:0.83043492 94:1.0640975 95:1.2009684 96:0.39768508 97:0.57259601 98:0.39532831 99:0.26238039 100:0.31617817 101:-0.19295755 102:0.91618919 103:0.077534176 104:-0.45171154 105:-2.2034037 106:-1.0571464 107:0.25453192 108:0.68561745 109:0.59140813 110:0.89854151 111:0.19742815 112:0.74140298 113:-0.64604068 114:0.3059167 115:0.33550513 116:-0.45518923 117:0.22671892 118:-0.14169085 119:0.86894405 120:0.011398273 121:-0.98249072 122:-1.34646 123:-0.16489881 124:-1.1441782 125:-0.68877584 126:1.5613292 127:3.5778801 128:0.67257053 129:0.72464252 130:0.35062477 131:1.3016 132:0.17989627 133:-0.086419798 134:-0.96115458 135:-0.72907555 136:0.29062903 137:-0.63907135 138:0.25185564 139:1.9864255 140:0.23312388 141:0.89083189 142:0.31897181 143:0.30369791 144:0.41896194 145:-0.74698347 146:0.33804876 147:0.36586463 148:-0.027611582 149:0.48037434 150:0.36778405 151:-0.0071077496 152:0.98576701 153:-0.98759395 154:-0.53454435 155:-0.20838323 156:-0.12423345 157:-0.65031564 158:0.46954578 159:0.49060863 160:-0.03657693 161:-1.8571444 162:-0.037715815 163:0.65317923 164:0.38728186 165:-1.0291085 166:0.16284119 167:0.073365107 168:-1.3118745 169:-0.811782 170:0.25551984 171:-0.51002139 172:-0.29802218 173:-0.15961838 174:-0.41040191 175:-1.4930187 176:-1.5896223 177:0.21860595 178:0.16012569 179:0.58341467 180:-0.8150568 181:0.20811938 182:0.078792661 183:0.65881068 184:-0.673792 185:0.032539211 186:-0.016761471 187:-0.49540734 188:-0.0048948526 189:0.52422833 190:0.35518524 191:1.7104393 192:-0.74733043 193:-0.22421555 194:0.34946698 195:0.17217293 196:-0.35275999 197:-1.1395657 198:0.0048111365 199:-0.66237831 
0.1820309605353121 0:-0.065517366 1:-0.82522529 2:-0.70058817 3:-1.0708828 4:0.16128731 5:0.02431635 6:0.39564031 7:0.08297094 8:0.87359411 9:0.72236454 10:0.38396326 11:1.1466378 12:1.8002321 13:0.31474307 14:-0.54021627 15:0.64407569 16:1.3204563 17:1.1329371 18:0.43699273 19:-0.11399698 20:0.72381902 21:-0.096968599 22:0.98210883 23:0.11061572 24:-0.26848751 25:-0.7290538 26:-0.1566129 27:0.39084595 28:1.1563503 29:-0.092328921 30:1.1881815 31:0.56967926 32:0.061248507 33:0.0079185851 34:2.0582378 35:0.69859916 36:1.7610693 37:-0.25800711 38:-0.38860014 39:0.10535693 40:0.20726725 41:-0.27899379 42:0.21632086 43:0.15381062 44:0.3201645 45:-0.77805078 46:-0.88385308 47:0.64731812 48:0.72050691 49:0.19869155 50:0.6816749 51:-0.13307407 52:0.6394105 53:1.4685726 54:0.81429613 55:-0.7371015 56:0.16933799 57:1.4848856 58:-0.47293591 59:0.444094 60:0.66463566 61:0.12172873 62:0.98271877 63:-0.60991114 64:1.1721538 65:-0.26872656 66:0.46194753 67:0.45437151 68:0.40820304 69:-0.11406326 70:1.3708411 71:0.49091762 72:0.25534943 73:0.45754308 74:0.44281363 75:0.72041005 76:0.8470993 77:1.9902997 78:0.054564405 79:0.027177434 80:1.1492201 81:0.50220281 82:0.83207232 83:-0.24883671 84:0.44001001 85:1.5151635 86:-0.49276647 87:0.17750463 88:0.30261856 89:0.67883992 90:0.24041082 91:0.42480725 92:0.0028140999 93:1.507054 94:1.838923 95:0.73065853 96:0.4496657 97:0.97288322 98:-0.13366555 99:0.31138441 100:0.38652718 101:-0.66254383 102:1.2250605 103:0.50144875 104:1.5308421 105:0.21827635 106:0.092445448 107:1.6719543 108:0.020870134 109:-0.64855438 110:0.37063617 111:0.31041732 112:-0.44436711 113:1.1802698 114:0.33863848 115:0.39177769 116:-0.53339756 117:0.84219193 118:1.2279845 119:-0.46180367 120:1.3018591 121:0.72315663 122:0.76946527 123:-0.19135398 124:-0.90226185 125:-0.16524538 126:2.7398024 127:1.5490873 128:0.94280016 129:2.3192759 130:2.2458105 131:2.0743675 132:0.19209093 133:0.25095594 134:-0.32091925 135:1.8618131 136:0.46293882 137:-0.040851988 138:1.5523411 139:1.2941849 140:-0.27422348 141:-0.032663181 142:0.83660454 143:0.45394152 144:0.19700988 145:-0.11177623 146:0.082181163 147:0.15479828 148:-0.32912964 149:0.10762075 150:0.86662269 151:0.74758929 152:0.98802489 153:-0.43669319 154:0.38412803 155:-1.0126792 156:1.6347963 157:2.0819411 158:0.0051602209 159:1.1210471 160:0.32166645 161:-0.64430463 162:1.2264425 163:2.1952946 164:0.39485559 165:0.90234327 166:1.0017114 167:-0.11378377 168:1.7729386 169:-0.5529018 170:0.25184906 171:0.43049973 172:-0.36236796 173:0.34622288 174:0.84897298 175:1.4845777 176:-0.30137521 177:-0.069970272 178:0.53693718 179:1.3621576 180:0.40342319 181:0.15429154 182:0.45471624 183:0.72766805 184:0.75330526 185:0.11760791 186:1.6589788 187:-0.04842487 188:0.33798769 189:0.81345904 190:0.40439248 191:0.23412257 192:0.52179265 193:0.69628692 194:1.5484426 195:-0.26180345 196:0.19599873 197:0.40675294 198:-0.63916034 199:0.11260933 
