svm_type c_svc
kernel_type rbf
gamma 0.00502513
nr_class 2
total_sv 69
rho -0.536107
label 1 -1
nr_sv 45 24
SV
0.638476927216989 0:4.995007 1:0.45870045 2:2.890008 3:0.095480487 4:0.19965924 5:0.36629435 6:2.0613441 7:-0.77569145 8:1.3712319 9:0.39724767 10:0.71045244 11:0.17459822 12:-0.6606496 13:0.27414522 14:0.32996997 15:0.51368833 16:0.49816197 17:0.8162818 18:0.64061511 19:-0.27100819 20:0.0026675693 21:0.4201915 22:0.47016829 23:0.059700757 24:-0.061635729 25:0.26285669 26:-0.15597594 27:0.40855351 28:0.48102859 29:-0.27449605 30:0.9999612 31:-0.2251043 32:-0.30666912 33:-0.07362996 34:-0.49177811 35:-0.13878852 36:-0.96604091 37:0.29304707 38:-0.16172121 39:0.068182215 40:0.023166662 41:0.29651037 42:-0.050551005 43:-0.095797464 44:1.2437097 45:-0.41945598 46:0.19134574 47:-0.25096694 48:-0.32895362 49:0.094333678 50:0.23686373 51:0.46440622 52:0.53931564 53:0.29009098 54:0.28911293 55:-1.4157845 56:-0.82616115 57:0.29131934 58:0.57448077 59:1.1887189 60:0.57679969 61:-0.53464246 62:0.78225547 63:0.7078498 64:-0.040228724 65:-0.24678648 66:0.037914217 67:-0.13432778 68:1.0764053 69:0.46706074 70:0.1208433 71:-1.0002303 72:-0.092932522 73:1.3829917 74:0.89276165 75:-0.2056596 76:0.34119493 77:-0.11346347 78:0.89170069 79:0.35214296 80:0.816625 81:0.81797707 82:0.39511558 83:0.78302312 84:0.43572807 85:0.073303849 86:-0.221086 87:1.4954228 88:-0.1331366 89:1.2301865 90:-0.30132404 91:0.6232447 92:1.0906495 93:1.2386466 94:-0.21439578 95:-0.056545086 96:0.96933389 97:-1.1927525 98:1.3539571 99:1.5477793 100:-0.077772066 101:1.2452548 102:1.2080281 103:-0.33973095 104:0.87216723 105:-0.4947117 106:0.0032955254 107:0.94295323 108:-0.36021456 109:0.90944207 110:1.3861655 111:-1.0065564 112:0.09357392 113:-0.45054731 114:0.49112123 115:0.067538828 116:-0.1378777 117:-0.42836297 118:0.13529204 119:-0.97568071 120:1.1793755 121:0.28337574 122:0.26931015 123:-0.19274326 124:1.0902289 125:0.47074869 126:-1.1372138 127:-0.39823624 128:0.5510478 129:0.016914777 130:0.37873021 131:0.19041315 132:0.81271201 133:-0.38060445 134:0.14316283 135:0.026668875 136:0.81381613 137:0.030634793 138:0.67161095 139:1.1880215 140:0.37002382 141:-0.38529158 142:1.2375526 143:0.69681084 144:0.47564384 145:0.27038062 146:0.47792575 147:0.43171221 148:-0.51835263 149:-0.86701369 150:0.19530176 151:0.70050418 152:-0.063288368 153:-1.2439235 154:1.0027819 155:0.84399438 156:0.23605968 157:-0.56223112 158:0.35128313 159:1.0755899 160:1.2753071 161:0.077108487 162:-0.60891986 163:-1.5368377 164:0.87385368 165:-0.16435573 166:0.17627621 167:-0.11452828 168:-0.60938847 169:-0.5297634 170:-0.53574103 171:-0.46438351 172:0.52016932 173:0.013364593 174:0.11167502 175:1.2752593 176:0.12413029 177:0.31103057 178:1.0269527 179:1.0346044 180:-0.098559655 181:0.54787964 182:0.85541999 183:-1.1764071 184:0.70448893 185:0.44995865 186:0.45345604 187:0.10286219 188:-0.19124041 189:0.44893062 190:0.21545866 191:0.44507512 192:-0.093867458 193:0.03088191 194:0.87999701 195:0.13838929 196:-0.1443187 197:1.0023291 198:-0.38281369 199:1.2329944 
0.6502543239149132 0:0.65029711 1:-0.37387702 2:0.601116 3:5.3010316 4:6.8022685 5:2.8109479 6:1.5022954 7:-0.22431889 8:0.74089664 9:0.34913105 10:0.2788364 11:-0.7119264 12:0.14340134 13:-0.59371924 14:0.66277409 15:0.22041729 16:0.75661433 17:0.30732206 18:0.4745149 19:-1.8046548 20:0.013030358 21:1.7247685 22:-0.09570913 23:-0.13031521 24:1.3728584 25:0.16633584 26:-1.074705 27:0.83120227 28:0.01593801 29:0.10018374 30:0.30783331 31:0.53948897 32:0.56455517 33:-0.78490156 34:-0.15212946 35:-0.06761647 36:-1.4440863 37:0.57426679 38:-0.083672315 39:0.24275813 40:-0.77764773 41:-0.23653141 42:-0.35928389 43:-0.487194 44:-0.20959643 45:0.020451616 46:-0.77997315 47:-0.36476907 48:0.097248353 49:1.1844385 50:0.29453027 51:0.28636822 52:-0.14003725 53:-0.70137 54:0.3668603 55:-0.21204093 56:-0.116303 57:-1.0898334 58:0.018120026 59:0.70918781 60:0.072581187 61:-0.67834651 62:-1.0000598 63:0.27971864 64:0.3126713 65:-0.96526164 66:0.45468432 67:0.77871984 68:-0.4411597 69:0.46012074 70:-0.20334481 71:0.59971428 72:0.06467396 73:0.43257505 74:0.62270319 75:0.49799189 76:0.03689089 77:-0.095903374 78:0.47717741 79:0.34660867 80:0.20050028 81:0.61005479 82:-0.24139814 83:0.72949874 84:0.35653049 85:-0.62497431 86:-0.90708464 87:-0.31774598 88:0.10530376 89:0.45778432 90:-0.14627641 91:0.99861294 92:0.64983857 93:0.54925394 94:0.43651715 95:-0.09578456 96:-0.56197542 97:0.088785164 98:1.4933431 99:-0.080694593 100:-0.16969095 101:0.64557493 102:0.27040854 103:0.079289645 104:-1.0854673 105:-0.65093863 106:-0.032629076 107:-0.17993423 108:0.73595715 109:1.4561095 110:0.3674522 111:0.52848637 112:0.97027892 113:-0.045710806 114:0.26228032 115:-0.54138815 116:0.78217608 117:-0.25640294 118:-0.64472932 119:-0.53083295 120:-0.60135317 121:0.38466612 122:-0.77197009 123:-1.3819896 124:-0.81887865 125:-0.90224183 126:0.35678422 127:-0.28557688 128:0.45549771 129:0.2599476 130:0.24964505 131:-1.3326395 132:0.023873521 133:0.6017614 134:-0.18342666 135:0.88717753 136:-0.26902756 137:-0.3323884 138:0.26237547 139:-0.23989537 140:0.18160965 141:0.036020707 142:0.89925092 143:0.68408257 144:-0.4444226 145:0.2731505 146:-0.24580447 147:-1.6604034 148:-1.1567143 149:-0.24672401 150:-0.82002193 151:0.039916541 152:0.43580979 153:-0.27904215 154:-0.82722843 155:-0.69423687 156:-0.84614491 157:1.0144407 158:0.82261515 159:0.12046026 160:0.35015127 161:0.0044636056 162:-0.0030138753 163:1.3266283 164:-0.085561901 165:0.70118803 166:-1.2438439 167:-1.0339 168:-1.1794317 169:-0.05243554 170:1.2975664 171:0.88524842 172:-0.27312523 173:-0.07588923 174:1.1506341 175:-0.80687618 176:0.061859477 177:-0.58424664 178:0.84536427 179:0.17095424 180:-0.056701429 181:1.7197452 182:0.84548378 183:-0.17025146 184:0.18599685 185:-0.15745547 186:0.67801183 187:1.1120974 188:0.071064249 189:0.3558777 190:-0.2155655 191:1.2585739 192:0.44645122 193:0.57986552 194:0.79431444 195:-0.41217104 196:0.50929517 197:0.87627929 198:-0.030770758 199:-0.042474717 
1 0:-0.31904486 1:0.81381297 2:0.61902082 3:-1.0007031 4:-0.31734636 5:0.15770589 6:1.4648008 7:2.3432324 8:1.3914086 9:-0.29189414 10:0.50824881 11:-0.3692404 12:0.28186634 13:0.05484207 14:-0.37536526 15:-0.20901051 16:0.80878609 17:-0.48108932 18:-0.41908583 19:-1.1065483 20:0.31680316 21:0.24749009 22:0.15222339 23:-0.36816585 24:-0.49135923 25:-0.40248668 26:-0.2333772 27:0.61871696 28:0.090360284 29:0.035720855 30:-0.4285236 31:0.80258149 32:-0.32807097 33:1.6011001 34:-1.1337363 35:0.62387675 36:-0.75065011 37:0.13034081 38:1.7660307 39:0.12321158 40:1.6072919 41:-0.071236067 42:-0.54853839 43:0.17220175 44:-0.49394605 45:1.1379696 46:-1.325655 47:0.35250917 48:0.80828184 49:0.31655788 50:0.037948541 51:-0.52432621 52:1.1470289 53:-0.24974185 54:-0.39568454 55:0.093650512 56:-0.72280592 57:0.26138344 58:-0.033566467 59:0.2831589 60:-0.34091371 61:0.18017468 62:0.019783283 63:1.2933363 64:-0.011142327 65:0.10721114 66:0.44111148 67:0.82379752 68:0.51006263 69:0.083924755 70:-0.076829299 71:0.78294808 72:-0.025932575 73:0.4563584 74:0.65772831 75:-0.91937995 76:0.02452267 77:0.98125893 78:0.33801281 79:-0.012061073 80:0.86045158 81:0.56985986 82:-0.53277105 83:0.12210561 84:0.16621019 85:-0.56787902 86:-0.24423811 87:-1.2447331 88:-0.63734704 89:-0.23499994 90:-1.2114533 91:-0.79624629 92:-1.2878317 93:-0.80216825 94:0.18493436 95:0.86150879 96:0.070342727 97:-0.18987727 98:-0.43072882 99:0.10758889 100:0.20153689 101:-0.74753457 102:0.019782327 103:-0.074470051 104:-0.71014601 105:0.1859602 106:-0.074627347 107:-0.95000052 108:-0.3485716 109:1.2230436 110:0.86854875 111:0.02343058 112:1.0125129 113:-0.37615171 114:-0.02391967 115:0.53212011 116:-0.50124902 117:0.43343428 118:0.18284321 119:0.23846824 120:0.10118029 121:0.124597 122:-0.25512385 123:0.19195113 124:0.7774117 125:0.3062298 126:1.2155792 127:-0.076020852 128:0.44460541 129:0.12826155 130:0.19867049 131:0.71280074 132:0.64131731 133:0.31433254 134:-1.0837662 135:0.40884712 136:0.03192915 137:0.0036458916 138:0.49345359 139:-0.42540446 140:0.37639883 141:-0.64313406 142:-1.254087 143:-0.089748584 144:-0.065464221 145:-0.81785524 146:0.053581137 147:-0.31808606 148:-0.87388903 149:-0.075561009 150:0.0090595214 151:-0.057764888 152:-1.3190123 153:0.98894995 154:-0.73386979 155:-0.93312824 156:-0.041174591 157:-0.49922797 158:0.24598694 159:0.16878228 160:-0.82542372 161:0.0050531384 162:1.279951 163:0.46180597 164:1.1923902 165:0.56559879 166:-1.9332016 167:0.41045123 168:-0.88772136 169:-0.49724445 170:0.32302961 171:-0.395596 172:-0.25584847 173:-0.65433669 174:-0.015353952 175:-0.39704701 176:1.0219017 177:-0.23616849 178:0.62315649 179:-0.77277303 180:0.25407419 181:-0.18055478 182:0.4576965 183:0.84270495 184:0.070220314 185:0.37562811 186:0.18316384 187:-1.4575577 188:-0.24296638 189:0.075270407 190:0.35878369 191:-0.85900462 192:-0.79949635 193:-0.018313225 194:-0.90140289 195:-0.45997956 196:-0.67906046 197:1.0822496 198:-0.27890891 199:-0.78263921 
0.457759129665551 0:1.0647755 1:1.9282467 2:1.1134443 3:0.15793662 4:-0.0092528835 5:0.53786778 6:0.95092267 7:2.0574114 8:1.3064179 9:3.7918398 10:3.4684763 11:2.9582098 12:1.6667395 13:1.9333421 14:1.4097949 15:1.0672692 16:1.076493 17:1.0387448 18:1.6836238 19:0.81612819 20:0.39441824 21:0.65657932 22:1.5694437 23:0.76129532 24:2.2718096 25:0.814098 26:1.9909189 27:1.5420667 28:0.72791064 29:1.4451357 30:1.7967625 31:1.0746539 32:1.932392 33:1.7716522 34:1.1109593 35:0.68104142 36:1.9105717 37:0.62192792 38:1.1584854 39:1.3760077 40:1.8674084 41:0.95616138 42:1.0364772 43:1.2680166 44:0.82296902 45:0.97513914 46:1.6473793 47:2.2457914 48:0.95216465 49:1.3520687 50:0.89896089 51:0.93418968 52:1.9109726 53:1.0231668 54:0.74650919 55:2.0466886 56:1.1557975 57:1.6261318 58:1.6839173 59:2.3623762 60:1.0606512 61:1.2682856 62:1.7087412 63:2.9499326 64:1.0479307 65:1.3138177 66:1.3015242 67:0.87690598 68:1.3325708 69:1.2187312 70:0.28684896 71:1.4663427 72:0.25814974 73:2.17188 74:1.0701202 75:0.88039529 76:1.0694846 77:2.0613017 78:0.87513143 79:0.69580787 80:1.823961 81:1.4963372 82:1.2202928 83:2.1141965 84:0.52905917 85:0.99760634 86:1.5909216 87:1.2987601 88:1.3278131 89:0.82018691 90:2.0662787 91:0.72037095 92:1.0252947 93:1.8147695 94:1.1075114 95:1.5979834 96:2.1018941 97:1.8434979 98:1.228864 99:1.5476943 100:1.3814694 101:2.2877622 102:1.9487715 103:0.30161402 104:1.7081705 105:1.8903217 106:1.1864455 107:1.4062285 108:1.4777635 109:1.7343514 110:0.7584691 111:1.0967672 112:1.9560106 113:1.3184147 114:1.653222 115:1.3682191 116:1.383502 117:1.0326803 118:2.0309517 119:1.2891208 120:1.6714925 121:0.91870469 122:0.57996964 123:2.0290339 124:0.65947926 125:1.1157991 126:2.3344467 127:0.74671739 128:1.6853817 129:1.2531693 130:0.634359 131:1.8182937 132:1.0495763 133:1.1672175 134:0.26610488 135:1.2489409 136:1.1045269 137:1.7313266 138:1.5060391 139:1.6185971 140:1.2613895 141:1.4751742 142:1.3246871 143:1.5430809 144:1.2674302 145:1.2236668 146:0.96030945 147:1.8227091 148:1.5827026 149:1.3375597 150:1.8371109 151:0.54915154 152:0.93151253 153:1.0369991 154:1.8974539 155:1.122481 156:0.96501368 157:0.89341086 158:0.99795687 159:0.68261415 160:0.87162769 161:1.2594225 162:2.0473578 163:0.86714613 164:2.0813746 165:1.7252173 166:0.99253279 167:1.3012708 168:1.2058498 169:1.6194674 170:0.69826669 171:1.0156566 172:1.3558625 173:1.7298342 174:1.338522 175:2.1361034 176:0.78044736 177:2.3627369 178:1.4391407 179:1.3218172 180:1.3893973 181:0.37462828 182:1.210757 183:1.2128149 184:1.2975625 185:1.8091668 186:2.1382031 187:1.4568151 188:1.2785745 189:1.1248264 190:1.046415 191:0.85141629 192:1.1764491 193:0.69943464 194:1.5655472 195:2.6314654 196:1.2167774 197:1.1062967 198:1.0869517 199:1.2229986 
0.6590492976546797 0:-0.36355719 1:-0.22144668 2:-0.27677956 3:0.22626737 4:-0.2603699 5:0.33006042 6:-0.19975106 7:0.37998855 8:-0.62390101 9:-0.088650435 10:-1.08086 11:-0.10524479 12:6.2916665 13:3.4911325 14:5.6170607 15:-0.017508866 16:0.21706149 17:-0.59014577 18:0.94839412 19:-1.1875443 20:0.10706617 21:0.13310224 22:-0.54801899 23:-0.46964881 24:0.054746579 25:-0.51305491 26:-1.1809202 27:-0.64892894 28:-1.0333368 29:-0.16961139 30:-0.14242215 31:0.0047485321 32:-1.1017004 33:-0.77842128 34:-0.25249708 35:-0.48552078 36:-0.56698018 37:-2.1254585 38:0.44128421 39:0.21633129 40:0.36883941 41:-1.2651061 42:-0.82262886 43:-1.2981399 44:-0.64935166 45:-0.18619604 46:-0.95343101 47:-0.72607762 48:0.3781738 49:-1.0428085 50:-2.1760914 51:-1.3921765 52:1.3941535 53:-0.50733519 54:-2.1999464 55:-1.1337892 56:0.050918903 57:1.02979 58:0.39559034 59:-0.073774882 60:-1.5335988 61:-0.057701137 62:-0.84451175 63:1.346442 64:-0.64124316 65:-1.4480071 66:-1.000247 67:-0.471632 68:-0.66654825 69:-0.12212729 70:-0.34673339 71:1.4273758 72:-0.43594176 73:0.92489409 74:-1.2203196 75:1.6531177 76:-1.1895938 77:0.17903261 78:-2.4679434 79:-1.3036052 80:-2.2550652 81:-0.036922265 82:0.23625621 83:0.27641913 84:-1.6011781 85:-0.53812551 86:-0.34807917 87:-1.1955729 88:-0.50245452 89:-0.39393982 90:-0.79152143 91:-0.5167256 92:-0.52260274 93:-1.2413909 94:0.0648738 95:-0.20002964 96:-0.14378484 97:-0.7174682 98:0.63080209 99:0.12294003 100:-1.2417128 101:-0.33589405 102:-1.2950534 103:0.17888847 104:-0.3206082 105:-1.1399872 106:-0.78188312 107:0.55892825 108:-1.3966212 109:-0.61190897 110:0.69875538 111:-1.0847571 112:-1.2558483 113:0.54267406 114:0.32588771 115:0.60199475 116:-0.79591918 117:0.34292302 118:0.48239732 119:-0.39113611 120:0.13639618 121:-1.4004298 122:0.39130634 123:0.95386952 124:-0.45253572 125:0.68788326 126:2.2045314 127:-1.2002615 128:-0.81588614 129:-0.96148223 130:-1.1629889 131:-1.3230957 132:-1.8948758 133:2.1908128 134:-0.49754989 135:-1.954775 136:-1.079106 137:1.0594147 138:-0.03532093 139:-0.84689182 140:-0.86889672 141:-0.51744395 142:-0.80677891 143:0.25234988 144:0.028519932 145:-0.19598104 146:0.25611612 147:0.22879863 148:-0.34088355 149:-0.15347581 150:-0.31351179 151:-0.3249951 152:0.56889176 153:-0.88733673 154:-0.24860322 155:-0.6845333 156:-0.63946152 157:-0.67196417 158:0.10334114 159:-0.15276372 160:-1.5061773 161:-0.067567676 162:-2.1731114 163:-0.55182093 164:0.62323213 165:-0.074748173 166:1.5153565 167:-0.81622279 168:-1.5702157 169:0.94454229 170:0.35411632 171:-0.67884886 172:-0.22963718 173:0.77368855 174:0.48165813 175:-0.2275984 176:-0.38110024 177:-0.83105356 178:0.070936464 179:0.34074378 180:-0.45828974 181:0.75283307 182:-0.25492832 183:-0.38795635 184:-1.1609696 185:-1.0903782 186:-0.86417747 187:-0.50767726 188:0.30279133 189:0.31025478 190:0.95969599 191:0.53929734 192:-1.8835938 193:-0.43321308 194:0.60641992 195:-1.4933368 196:0.29535383 197:-0.3600516 198:-0.50691926 199:-0.0097599998 
0.8046594672004352 0:0.33034414 1:-0.013041365 2:-0.47831893 3:-0.15890485 4:-0.034560405 5:-1.1429185 6:-0.60888565 7:0.11204607 8:-1.4649272 9:0.26406306 10:-0.86273956 11:1.4146448 12:0.2531414 13:-0.81485522 14:-0.98452532 15:-0.6458497 16:1.0145441 17:2.8979697 18:0.055418383 19:-1.3685668 20:-0.89665741 21:-0.64902347 22:-0.82844388 23:-0.60400438 24:-0.2794528 25:0.35398009 26:-1.2288395 27:-0.67205679 28:0.14733306 29:-0.013715788 30:0.14094855 31:0.7660656 32:0.59048462 33:-1.0980546 34:0.89747208 35:1.5318121 36:-1.3015033 37:0.57330781 38:-0.19625963 39:-0.5368492 40:1.0642574 41:-0.2881816 42:-0.085242867 43:0.0061117895 44:-0.82579404 45:0.24314399 46:-0.87869161 47:-0.48148879 48:0.42807248 49:0.71878225 50:-0.0092296954 51:0.067517594 52:0.24485517 53:-1.044745 54:0.19656341 55:-0.25933233 56:0.26034513 57:-1.3047307 58:-0.80284333 59:-1.2388884 60:-0.41357559 61:0.5396024 62:0.59209806 63:0.81605244 64:0.29117721 65:-0.42131817 66:0.59831852 67:0.77353519 68:-0.53145188 69:-1.189082 70:-0.51587528 71:0.74118251 72:-5.2009622e-05 73:-0.85119766 74:-0.2288601 75:-1.4910191 76:0.13979143 77:0.41195428 78:0.0055288086 79:0.60779738 80:0.034667902 81:-1.500959 82:-1.9486175 83:0.20336145 84:0.37164503 85:-1.1560071 86:-0.83844495 87:-1.2585564 88:-0.23544195 89:-1.0075685 90:-0.35521057 91:-1.0785427 92:-0.85190159 93:-1.6244873 94:1.2290664 95:-1.1421191 96:0.63126135 97:0.6082707 98:-0.83783817 99:-0.30212238 100:-0.90869009 101:-1.5233575 102:-1.171827 103:-0.49318826 104:-1.4452816 105:-0.90971816 106:0.21236457 107:-0.51978582 108:-0.85653716 109:0.37133843 110:-0.88837278 111:-0.28610772 112:-0.17451265 113:-0.0060848072 114:-1.1961133 115:0.11719969 116:0.71314359 117:-0.42997852 118:0.39862743 119:0.085184343 120:-0.72595978 121:-0.52292025 122:0.057222582 123:-1.2931867 124:-1.540958 125:-1.1987011 126:0.077828005 127:-0.69702739 128:-1.3449385 129:-0.57892901 130:0.35900953 131:1.3934754 132:-0.6778388 133:-0.030094273 134:0.3568306 135:0.16353723 136:-1.3679986 137:-0.15465364 138:-0.27442193 139:-1.5727621 140:-2.1001749 141:-0.33347833 142:-0.87640285 143:-1.8177928 144:-0.49609959 145:0.24101514 146:-1.39019 147:-1.1927304 148:0.80323827 149:0.90084404 150:-0.91958356 151:-0.19068433 152:0.47600356 153:-0.44307205 154:-1.2278789 155:-0.79644579 156:-0.94098479 157:0.15790606 158:0.45547584 159:-1.4738781 160:0.49491662 161:1.3084019 162:0.25955418 163:1.2969197 164:0.40545592 165:-0.97089583 166:-0.72036928 167:-0.93460739 168:-1.8414185 169:-1.3779796 170:-0.81478781 171:0.910505 172:-0.25425923 173:0.13530916 174:-1.3462901 175:0.22342095 176:-1.1860522 177:1.1302068 178:-2.050252 179:-1.2138275 180:-0.43452144 181:-0.60950565 182:-0.1941324 183:0.027480092 184:-1.8207117 185:-0.57360739 186:0.25947484 187:0.60510254 188:0.056514941 189:-0.90033764 190:-0.94480574 191:0.18189339 192:-0.29679385 193:0.31197792 194:-1.2479734 195:-0.25244972 196:-0.31128585 197:-2.1125166 198:0.21023034 199:-0.16304757 
0.2762356325251459 0:-0.05298309 1:0.84686899 2:-1.4364635 3:-0.28528413 4:0.42536354 5:0.13141491 6:-1.1080695 7:1.1734005 8:-1.1714945 9:0.56173384 10:-1.0997665 11:0.65665317 12:0.053834297 13:-0.059887774 14:0.3903617 15:-0.76282912 16:0.47970796 17:0.56275749 18:-1.0793844 19:2.1917474 20:7.2359443 21:-1.0257753 22:0.69307786 23:-0.20203499 24:-0.062586986 25:0.63139403 26:0.030523682 27:-0.15153329 28:0.72999078 29:1.0459355 30:-0.056685347 31:1.5066642 32:0.62582862 33:0.22934617 34:1.0215914 35:0.020865047 36:0.82858253 37:0.48564142 38:-0.62896585 39:-0.67074633 40:0.12495898 41:0.19053183 42:0.38209593 43:-0.15768971 44:-0.38779137 45:0.10943503 46:0.35141161 47:-0.82464701 48:0.24288249 49:-1.365847 50:0.072845943 51:0.66703451 52:0.091945782 53:-0.13975954 54:0.17686354 55:0.86367482 56:-0.4484565 57:0.65695351 58:-0.74623537 59:-0.0023345656 60:0.4333432 61:0.3566294 62:0.32210016 63:0.23969607 64:1.312781 65:0.21312271 66:-0.20456891 67:0.19214079 68:-0.17393562 69:-1.008301 70:-0.31636924 71:-0.032847784 72:-0.23677091 73:-1.2150081 74:0.45056924 75:0.017162938 76:0.89005381 77:0.13793819 78:0.67001605 79:0.52064472 80:0.056663774 81:-0.97430634 82:0.12333461 83:-0.45291373 84:0.46146771 85:-0.36905143 86:2.001801 87:-0.86585307 88:-0.048031043 89:-0.34008217 90:-0.39160252 91:-0.54261035 92:-0.83609647 93:-1.3858392 94:0.81509888 95:-0.60408443 96:-0.20581864 97:0.97735977 98:0.77896553 99:-0.044945393 100:-0.17761183 101:-0.71490121 102:-0.95668352 103:-0.41092533 104:0.25663853 105:0.65788788 106:0.89258128 107:-0.49998298 108:-0.039499514 109:-0.15169895 110:-1.1135008 111:0.20011052 112:-0.040256444 113:0.72446328 114:1.3021859 115:-0.016298587 116:0.74280512 117:0.14577259 118:-0.50927114 119:0.4755196 120:-0.13225742 121:0.98766154 122:-0.33253682 123:1.6101621 124:-0.79714382 125:0.029852631 126:1.6067249 127:0.78283483 128:-1.5072914 129:-0.51951963 130:0.60112661 131:-0.40223593 132:0.48955452 133:-0.32159996 134:-0.70077467 135:0.37610242 136:-0.68644959 137:0.98020911 138:0.62176841 139:-0.27847034 140:-0.28186214 141:-0.022828411 142:-0.68203735 143:-0.63637859 144:-0.87826777 145:0.51758105 146:-0.26860899 147:1.1741769 148:0.1849352 149:-0.75954163 150:-0.99850172 151:-0.67834425 152:0.60823923 153:-0.058382578 154:0.51481915 155:-0.51774526 156:-0.33357176 157:1.3530653 158:0.70408952 159:-0.35343668 160:0.098125674 161:0.78871065 162:0.18141775 163:0.17134753 164:-0.17668048 165:-0.99611062 166:0.460742 167:0.61615074 168:-0.0078861779 169:0.50300646 170:0.031145066 171:0.54904413 172:1.1186103 173:1.0929712 174:-0.27506018 175:-0.64393377 176:-0.21392772 177:-0.06580665 178:-0.65593976 179:1.189278 180:-0.062509932 181:-1.0866758 182:0.44262958 183:0.47499004 184:-0.48287421 185:1.3840096 186:0.53797555 187:0.68367857 188:-1.0596354 189:-0.96696085 190:-0.93355936 191:-1.3095043 192:0.029246047 193:0.50887841 194:-1.6553224 195:0.75049967 196:-1.0431794 197:0.16778588 198:0.33882266 199:-0.69632864 
0.2011467012711798 0:-0.11001547 1:0.22697812 2:-0.88505262 3:-0.028844964 4:-0.35431021 5:1.7833859 6:0.42370063 7:-1.2472452 8:-1.4177433 9:-1.2110733 10:-0.96929222 11:-0.051353417 12:0.040260509 13:0.88477725 14:-0.2232241 15:-0.24465023 16:-0.66257042 17:0.80284202 18:-0.37644437 19:0.90315723 20:0.1161218 21:2.0456963 22:3.9845705 23:7.1714711 24:-0.94138104 25:-0.078377038 26:-0.59170902 27:-1.9448655 28:-0.06511388 29:-0.70191503 30:1.049307 31:-1.0299009 32:-0.7317456 33:1.0160691 34:0.8883056 35:-0.020724531 36:-0.05026776 37:0.15468283 38:-0.71474248 39:1.6413437 40:-0.29772738 41:-0.39029008 42:1.5836117 43:0.17590062 44:0.72977126 45:-0.046407361 46:-0.83479422 47:0.13323374 48:1.1703179 49:-1.1160287 50:0.43665612 51:0.0044256495 52:0.18296407 53:-0.16954657 54:0.39417893 55:0.19053791 56:0.96447396 57:0.99988741 58:-1.4006546 59:0.10570992 60:-0.11224322 61:0.60233891 62:0.74892962 63:0.37202114 64:-0.95917988 65:1.048198 66:-0.74682617 67:-0.56605303 68:0.12110955 69:0.94033188 70:-0.50442868 71:-1.2001324 72:-0.48947987 73:1.0352589 74:-0.95933855 75:0.34474766 76:-0.25454104 77:-0.56323409 78:-0.46160403 79:0.33384109 80:0.082353152 81:-0.14354056 82:1.0092224 83:-0.98343623 84:0.24450988 85:0.17635301 86:-0.70118439 87:0.3805773 88:-0.24717374 89:0.18483366 90:-0.13791215 91:0.43123987 92:0.58301216 93:-1.0187351 94:-1.2882694 95:0.36553079 96:0.59566009 97:-1.1218877 98:-1.0392933 99:1.0330349 100:-0.68673468 101:-0.65974283 102:-0.19056736 103:-0.02585721 104:0.30385745 105:0.14966013 106:1.2238884 107:2.0789933 108:-0.23069073 109:-1.467042 110:-0.063921317 111:-1.0067652 112:-1.2811886 113:-0.027772833 114:-0.11293517 115:-0.25203437 116:-0.75934291 117:-0.5487482 118:0.17053238 119:-1.0448549 120:0.071070015 121:-0.54304606 122:0.67624182 123:0.41487646 124:-0.3649765 125:-0.37852651 126:0.38421288 127:-0.73369032 128:-1.4539795 129:-0.16652748 130:0.29838374 131:0.28001469 132:-0.6659469 133:-1.8364632 134:-0.32437891 135:-2.2983434 136:0.39403343 137:-0.090731598 138:-0.4399682 139:0.6122421 140:-0.11075794 141:-0.34550819 142:-0.1297669 143:-0.68866223 144:-0.1102211 145:-1.0022756 146:-0.054922506 147:0.96202266 148:-0.46357283 149:-0.62193048 150:1.0938841 151:0.049999837 152:-0.68924874 153:-1.2991364 154:0.11731749 155:0.22502488 156:0.48722392 157:-0.92230475 158:-1.2561659 159:-0.43307033 160:0.61512327 161:-0.54303187 162:-0.41868484 163:0.65231168 164:-0.11248262 165:-0.87019688 166:-0.87446922 167:-0.39775681 168:-0.66280735 169:0.3053112 170:-0.23299359 171:-0.20665811 172:-0.98219109 173:-0.028914221 174:-0.17078038 175:0.95283723 176:-0.30703229 177:-1.1152422 178:-0.72206187 179:1.0099087 180:0.98489791 181:-0.21944287 182:-1.8488399 183:0.73332077 184:-0.88612688 185:-1.0341636 186:-0.25249976 187:-0.21167749 188:-1.2579687 189:0.51188457 190:0.26548263 191:-0.51229662 192:-0.36790705 193:-1.4485976 194:-0.72853714 195:-0.22866513 196:-1.1190364 197:-1.0338043 198:-0.46980447 199:-0.018185001 
0.2777603282986122 0:0.22905993 1:1.5693216 2:0.65305328 3:0.71166021 4:0.19625898 5:1.3691143 6:0.3744688 7:-0.15546262 8:0.32457542 9:1.0118375 10:0.8068276 11:0.19530596 12:0.59861022 13:0.79517424 14:1.1715291 15:1.3268607 16:0.28904861 17:-0.26680258 18:1.1852483 19:0.80524087 20:0.38231701 21:1.2711576 22:0.98968953 23:1.0013137 24:3.7047431 25:1.3951043 26:4.5189338 27:0.29748493 28:0.28028449 29:-0.28221366 30:-0.81345147 31:-1.1660299 32:0.05293693 33:0.10224902 34:0.14875293 35:0.6171968 36:0.023358155 37:0.39784718 38:0.78691912 39:0.49239773 40:1.6137793 41:0.035051499 42:-0.098326072 43:0.3757368 44:-0.27254531 45:0.65571982 46:0.46064821 47:-0.57850051 48:0.26470515 49:1.2565212 50:0.82767868 51:0.40181273 52:1.0248876 53:1.2861557 54:0.6525448 55:0.090886928 56:0.85828239 57:-0.16887714 58:-0.022843737 59:-0.18234521 60:-0.50798762 61:0.25335884 62:0.86594361 63:0.59055811 64:-0.32618529 65:1.1779883 66:0.68241686 67:1.281261 68:-0.48557234 69:0.19861747 70:0.076550908 71:0.66218883 72:0.27142376 73:-0.49288499 74:0.020256206 75:-0.39903143 76:-0.18686701 77:0.97279543 78:0.10602607 79:0.30482388 80:0.36095756 81:0.616606 82:0.43966624 83:0.93559706 84:0.29662099 85:0.57118863 86:0.075406551 87:1.0196602 88:0.10222834 89:1.4818885 90:0.095961578 91:1.0304015 92:0.459371 93:0.15356652 94:0.18610856 95:-0.15968341 96:-0.71174967 97:1.2165838 98:0.81539756 99:0.52935451 100:2.4913924 101:0.38595608 102:0.89294773 103:0.019461628 104:0.67160922 105:0.81877679 106:0.27632925 107:0.70585257 108:0.54813218 109:0.33736816 110:-0.0074471207 111:-0.28286192 112:0.48384151 113:1.2507268 114:0.98653996 115:0.34784153 116:0.40715048 117:-0.70437419 118:0.68304223 119:-0.048269987 120:1.6458688 121:0.26745215 122:0.018117882 123:-0.2858943 124:-0.1507117 125:0.48028263 126:-0.17866459 127:-0.41209373 128:0.17219269 129:0.94620675 130:0.4032765 131:0.93669569 132:0.16776818 133:1.6132785 134:1.2901213 135:-0.27680704 136:0.49776042 137:0.38554835 138:-0.20548388 139:0.14016007 140:1.5065055 141:0.71205521 142:0.36832842 143:-0.34809595 144:-0.97989762 145:0.65201432 146:0.27981973 147:-0.37721446 148:0.69423956 149:1.0629032 150:0.22955053 151:-0.075924754 152:1.8338434 153:-0.1368797 154:0.98985493 155:1.3242851 156:1.3956189 157:1.3822478 158:0.77772129 159:0.12081166 160:1.0839021 161:0.20263085 162:0.6935522 163:0.16299386 164:1.1670215 165:0.23073626 166:0.077960581 167:-0.45426273 168:0.56862414 169:0.24889454 170:0.12500249 171:0.80141282 172:-0.03528541 173:-0.21579675 174:-0.53966653 175:0.022968387 176:-0.57963848 177:-0.43242824 178:0.53622133 179:0.51477361 180:0.089230433 181:0.18409456 182:-0.051824857 183:0.52504402 184:0.86710566 185:0.19596522 186:0.084672339 187:0.75482351 188:0.3453576 189:0.23204392 190:0.4361583 191:1.30645 192:0.50965565 193:1.312168 194:0.44541261 195:-0.10312555 196:1.0510286 197:0.078000851 198:0.29504034 199:-0.052691083 
0.5997856333759257 0:-0.19115001 1:-0.87848908 2:0.14433864 3:0.29416126 4:-0.41428334 5:0.72665608 6:-0.27855229 7:-0.68281507 8:-1.9202546 9:-0.17383038 10:-1.9056354 11:-0.75354731 12:-0.39715561 13:-0.21580753 14:0.39386225 15:0.072231002 16:0.74936748 17:-1.0452455 18:-0.68690485 19:-1.2057073 20:0.59492522 21:-0.34191886 22:-0.82077879 23:-0.50900847 24:-0.47009724 25:0.69869494 26:-1.1040263 27:1.1252726 28:1.3285866 29:6.0835037 30:-0.48218387 31:0.89229959 32:0.68657029 33:-0.31641337 34:-0.75749117 35:-0.28130755 36:-0.71187115 37:0.42158183 38:0.062813304 39:-0.42968839 40:-1.2438363 41:0.63838756 42:-0.83317155 43:-0.34903574 44:-1.2407745 45:0.46178022 46:-0.5091725 47:-0.46811345 48:-0.043269377 49:-0.66051084 50:-0.06060325 51:0.65093303 52:-1.246981 53:-1.3617656 54:0.11721971 55:0.33639276 56:0.041232895 57:-0.91914862 58:-1.9567543 59:-0.30700353 60:0.78924114 61:0.27751341 62:-0.46032929 63:-1.2708888 64:0.42618284 65:-0.89072746 66:0.62070787 67:0.76747274 68:0.97180647 69:-1.40916 70:0.58975756 71:-0.94856983 72:-0.10956693 73:-1.4414207 74:1.0318698 75:-0.47979873 76:0.27234516 77:0.54931468 78:0.75966173 79:0.32763392 80:-0.071002387 81:-0.87270057 82:-0.58696461 83:-0.6754809 84:0.26857013 85:-0.37142754 86:0.25325209 87:-1.4308604 88:0.80331212 89:-1.2579434 90:-1.6152647 91:-0.13597062 92:-0.59539396 93:-0.16158341 94:1.051097 95:0.97591811 96:-0.88270754 97:-0.36055845 98:-0.5104692 99:0.81074142 100:-0.95653605 101:-0.30800942 102:-0.22812046 103:-0.073810332 104:-1.0971797 105:-1.2387693 106:0.42421174 107:-1.1804763 108:-0.77683401 109:0.55586886 110:-0.8880102 111:-0.71245116 112:-0.40798953 113:0.59331852 114:-1.0505906 115:-0.83836693 116:0.85593367 117:0.14370775 118:0.71961784 119:-1.2931798 120:-0.40220273 121:0.50918531 122:-0.31457272 123:0.46673819 124:-1.7922739 125:-0.68150884 126:-0.12043928 127:0.52025062 128:-1.1825391 129:-1.1506423 130:0.3920489 131:-0.27911779 132:0.36731648 133:-1.3563303 134:-0.88349646 135:0.41926515 136:-0.68712384 137:-1.1869249 138:-0.037633549 139:-0.26465577 140:0.0067373458 141:-0.041182913 142:0.34348479 143:-1.012358 144:-0.23333167 145:-0.27519268 146:-0.9001435 147:0.94371241 148:0.29223764 149:-0.098622732 150:-1.2209413 151:-0.44706106 152:0.41483602 153:0.40293103 154:-1.1988498 155:-1.3388295 156:-0.36342353 157:1.4712087 158:0.92378539 159:-0.69921547 160:-0.28991181 161:0.46219373 162:0.27656451 163:0.11942472 164:-0.98448408 165:-1.3208601 166:-0.27618629 167:-0.39730069 168:-0.52471513 169:1.5338812 170:-0.49628973 171:0.23700048 172:-0.52554154 173:-1.1979671 174:-0.30285087 175:-0.4749957 176:0.82899052 177:0.16104096 178:-0.67516363 179:-1.645408 180:-0.81050575 181:-0.86388212 182:0.84070867 183:0.029839359 184:-1.3267585 185:0.7659874 186:0.49660543 187:0.35812899 188:0.0027964695 189:0.73045468 190:-0.82455659 191:0.36952546 192:0.028438693 193:0.47249189 194:-1.100655 195:0.78264856 196:-0.22481334 197:-1.6403869 198:0.97610813 199:-1.0597616 
0.6001996673829278 0:-0.72602761 1:-1.4747622 2:-2.8488634 3:-1.7178924 4:-0.046495587 5:-1.3663099 6:-1.6959668 7:-1.4283644 8:-0.77307791 9:-0.61371654 10:-1.3144507 11:-1.1840723 12:-2.0380921 13:-0.79158813 14:-1.2265611 15:-1.850727 16:-4.2993441 17:-1.8870583 18:-2.473022 19:-0.87874174 20:-0.39622056 21:-2.2314577 22:-1.926006 23:-0.39681029 24:-2.0427659 25:-4.5676513 26:0.56342953 27:-2.2718885 28:-4.7158251 29:-0.13205239 30:3.9602008 31:-0.33648258 32:-0.31343895 33:-1.010141 34:-0.55610621 35:-0.50944823 36:-0.21247637 37:-4.9693975 38:-0.2243854 39:-0.88244361 40:0.18742962 41:-3.8192451 42:-1.1143661 43:-2.3168731 44:-1.0815797 45:-0.3664023 46:0.77937192 47:-0.26434472 48:-1.516317 49:-2.3600168 50:-3.1188934 51:-3.7297502 52:-0.84390527 53:-1.876322 54:-3.2042048 55:-1.8643895 56:-1.2938691 57:-0.45612034 58:-1.6825989 59:-1.6204956 60:-4.2715588 61:-2.3292258 62:-2.2492759 63:-1.1470203 64:-4.150629 65:-0.18196081 66:-1.8271178 67:-3.1713963 68:-1.3662521 69:-1.4267452 70:-0.47021705 71:0.22340137 72:-0.94414222 73:-0.21036972 74:-4.6842766 75:-1.9725064 76:-3.9712219 77:-2.4045236 78:-4.8083467 79:-4.2365489 80:-4.1866484 81:-0.6201331 82:-1.6747869 83:-1.474948 84:-4.9509883 85:-0.97903812 86:-0.53748333 87:-0.37176424 88:0.088042364 89:-0.85527813 90:-0.32269672 91:0.55682743 92:0.30411115 93:0.51601934 94:-3.0081723 95:-1.5198286 96:-1.5537724 97:-0.59477299 98:-0.49681804 99:-1.7711886 100:-0.8657791 101:-0.09641362 102:-0.7695449 103:-0.52102464 104:-0.92147416 105:-1.1639696 106:-2.8727984 107:0.022519756 108:-0.45875025 109:-1.7761338 110:-0.79371202 111:-0.60020071 112:-2.0455885 113:-1.6727164 114:-0.78134632 115:-0.67897516 116:-3.5539629 117:-0.84612787 118:-1.6746656 119:0.27979755 120:-0.26608169 121:-2.8190303 122:-0.56976312 123:-1.4007176 124:0.20587118 125:-1.7045017 126:-0.4116188 127:-2.5972881 128:-1.1037388 129:-1.1125443 130:-4.6355324 131:-0.859456 132:-2.9176824 133:-1.9201556 134:-1.113766 135:-0.56127775 136:-1.2176167 137:-0.55231619 138:-1.9072974 139:-1.4864652 140:-1.7653066 141:-1.337309 142:0.28084493 143:-0.3129907 144:-0.5153715 145:-3.6974902 146:-1.1191726 147:-0.81757772 148:-1.1965914 149:-1.3459585 150:0.64731222 151:-0.67067856 152:-0.76945275 153:-1.5330349 154:-0.91052842 155:-1.1974803 156:-1.6423316 157:-2.0071039 158:-3.3889081 159:-1.4620584 160:-2.0946863 161:-3.4259555 162:0.32642514 163:-2.3135204 164:-0.27126247 165:-1.0817065 166:-2.0723588 167:0.051387858 168:-0.29037446 169:-0.51089251 170:-1.5582165 171:-3.8404644 172:-0.24568971 173:-1.5713245 174:-1.5016872 175:-1.8496122 176:0.076541439 177:-2.0095561 178:-0.24453501 179:-1.2420375 180:-2.1063299 181:-1.1577816 182:-3.1950872 183:-1.2088292 184:-0.8887288 185:-3.3469203 186:-2.430774 187:-1.7986093 188:-1.204615 189:-0.99652469 190:-1.2718968 191:-2.4093595 192:-3.2194543 193:-4.0640702 194:-0.35136762 195:-1.6090366 196:-2.5881653 197:0.40906122 198:-2.201304 199:-1.848074 
0.356128727935417 0:-0.51303828 1:-0.060627751 2:0.19019724 3:0.22638798 4:0.081657767 5:-0.46421301 6:2.1227698 7:-1.1374813 8:0.70046079 9:-0.88859409 10:1.176101 11:-0.21917298 12:-0.31672013 13:-0.3189356 14:0.2506479 15:-0.49378115 16:-0.40950847 17:1.1657753 18:1.0143567 19:-0.31906503 20:-0.38714898 21:0.82219398 22:0.82579684 23:-0.41407961 24:1.0922884 25:0.31487951 26:0.18734771 27:1.7321889 28:0.089477338 29:-0.71520865 30:1.0940022 31:-0.72112697 32:-0.77033794 33:1.0717915 34:1.5696683 35:7.4428401 36:0.1892098 37:0.13940315 38:1.6933455 39:-0.23731665 40:-1.0762254 41:0.44430941 42:0.27796802 43:0.30163479 44:0.014003239 45:0.53680545 46:-0.68769789 47:-0.2842001 48:-0.40746015 49:1.6694887 50:0.90998316 51:0.76371914 52:-1.0276953 53:0.81252468 54:0.72114968 55:-0.78660297 56:0.76364887 57:0.26793033 58:1.0913397 59:0.98429376 60:1.9823757 61:-0.7186209 62:0.38730285 63:-0.72130191 64:-0.26763961 65:1.5333897 66:0.27095619 67:0.49824795 68:0.79006034 69:1.4892256 70:0.09984003 71:1.0306603 72:0.60198534 73:0.9306553 74:-0.50984931 75:1.3239952 76:-0.0041380096 77:1.4278069 78:-0.32929036 79:0.42647752 80:0.06020714 81:0.4669936 82:1.8614485 83:0.9118672 84:0.38310149 85:0.50354856 86:-0.4787786 87:0.67143917 88:-0.17982247 89:1.1033101 90:0.36764446 91:0.75852907 92:0.3759644 93:0.0035553775 94:-0.66466957 95:1.9217504 96:1.6053669 97:0.90788978 98:0.98615688 99:0.8810609 100:1.4737422 101:-0.1588041 102:0.49490431 103:0.50899857 104:0.44969481 105:0.051642891 106:-0.41609102 107:0.39385149 108:-1.0430095 109:-0.16798373 110:0.22018175 111:-0.31782532 112:0.33826846 113:-0.17178492 114:-0.32652742 115:-0.35158893 116:-0.37508324 117:0.53606993 118:-0.19786152 119:-0.36942419 120:0.012744986 121:-0.25383392 122:-0.32102665 123:-0.075911991 124:0.44829297 125:0.29815072 126:-0.95450759 127:-0.56163585 128:0.38145798 129:-0.29462111 130:0.31570768 131:-0.85982448 132:-0.15565842 133:-0.68478739 134:1.2334839 135:0.052730165 136:0.82720703 137:0.014048575 138:1.5357311 139:1.2539239 140:1.8467981 141:0.86132318 142:0.42302322 143:0.61524779 144:0.43465289 145:0.5915581 146:0.41139737 147:0.95097589 148:0.0045576035 149:-0.73439306 150:1.5810101 151:0.71069258 152:0.46061736 153:0.22053151 154:-0.41617367 155:1.0781003 156:1.1694242 157:0.046709932 158:-0.81514287 159:0.60793489 160:0.047755945 161:-0.40188089 162:-0.46812606 163:0.57627678 164:-0.53475237 165:-0.20180812 166:1.194591 167:-0.50837547 168:-0.67081487 169:2.5649736 170:0.28539559 171:-1.29556 172:-0.33165097 173:0.55871695 174:0.68323725 175:0.35878518 176:0.15126751 177:-0.78382969 178:1.2167803 179:0.17658111 180:0.95421147 181:1.0722432 182:1.1838948 183:1.056451 184:0.49414408 185:1.5771488 186:-0.55156547 187:1.011959 188:0.77649027 189:0.57507461 190:0.60531044 191:0.57741499 192:1.2169157 193:-0.64549458 194:0.52371621 195:0.82030255 196:0.25191489 197:-0.046209399 198:0.40027028 199:0.59968638 
0.553378810146847 0:-0.30799863 1:1.0338473 2:-0.41779685 3:0.011038546 4:-0.10692492 5:0.52049667 6:1.1762266 7:-0.043352477 8:-0.45623088 9:0.37100631 10:-0.58128023 11:-0.71462059 12:-0.51731479 13:-0.95872533 14:-1.031343 15:0.71441793 16:0.74389458 17:2.1936123 18:0.37328753 19:-1.2030057 20:-0.096008539 21:0.35858792 22:-0.47021323 23:-0.07304778 24:0.79400873 25:0.35032323 26:-0.9962582 27:1.3105508 28:0.22386543 29:0.27541953 30:-0.57945031 31:0.39646265 32:0.35270685 33:0.09276887 34:0.69250172 35:-0.062325131 36:4.6600647 37:1.2654327 38:5.7538342 39:-0.44592759 40:-0.57129163 41:0.95079035 42:-0.43698961 43:-0.30129603 44:-0.4837175 45:-0.0036154571 46:-1.4257083 47:-1.6987778 48:0.91769773 49:-0.35368133 50:0.31844357 51:0.22872905 52:-1.2264663 53:-0.72537243 54:0.28711754 55:1.9269954 56:-0.26825136 57:-0.4008598 58:-0.091489322 59:0.321969 60:0.85813391 61:0.85947633 62:1.1344898 63:-0.85823601 64:0.36256567 65:0.27824026 66:1.2756016 67:0.040462244 68:1.2439532 69:-1.2841749 70:-0.4234148 71:0.28639758 72:0.055956572 73:0.10605814 74:0.32964495 75:1.4188257 76:0.042479493 77:0.4679167 78:0.45380872 79:0.43503973 80:0.3074618 81:-1.2197427 82:0.41656581 83:-0.214707 84:0.37994224 85:-1.123037 86:-1.6529434 87:-0.46250552 88:-0.68016165 89:-0.47740003 90:-0.40573129 91:-1.3353866 92:-0.90258867 93:-1.3414166 94:0.65846509 95:-0.59487265 96:0.39269549 97:-0.09235733 98:0.89825678 99:0.012431456 100:-0.37809512 101:-1.1153594 102:1.313745 103:-0.16935924 104:0.77320659 105:-0.47456071 106:0.52196401 107:-1.0259635 108:-0.72056496 109:1.1925125 110:-0.57714123 111:0.85604382 112:0.79944128 113:-0.036047872 114:-0.48724493 115:-0.70593023 116:0.70601273 117:0.93935639 118:-0.93952686 119:-0.31781393 120:-0.93246293 121:0.2219381 122:0.39888948 123:0.91869754 124:-0.0056780833 125:-0.014029566 126:-0.92934954 127:-0.011496352 128:-0.1138565 129:-0.49150947 130:0.50836223 131:-0.10631349 132:0.45382756 133:-0.72351044 134:0.1348848 135:0.46796906 136:0.18906088 137:0.61441642 138:-0.02441939 139:0.25176612 140:0.6396184 141:0.29283077 142:-1.2013316 143:0.28062853 144:-0.40079391 145:-0.24972384 146:-0.58200169 147:0.15237641 148:1.359018 149:-0.097833402 150:-1.5303756 151:0.49315256 152:-0.11019129 153:0.3096742 154:-1.4103894 155:-1.4798965 156:0.96638489 157:1.5156592 158:0.50893354 159:-0.72768486 160:0.50607961 161:0.99858433 162:0.293926 163:-0.23618941 164:-0.70045477 165:-0.083715022 166:-0.41273251 167:-1.008209 168:-0.93719554 169:-0.64390928 170:0.024025694 171:-0.23814571 172:-0.10787364 173:0.37659907 174:0.28133351 175:0.90832335 176:-0.47838947 177:0.59922099 178:-0.59118986 179:-1.3485247 180:0.12392392 181:-0.43833709 182:0.45672116 183:0.57478523 184:-0.64276081 185:-0.2351182 186:0.33813268 187:0.37580326 188:0.27796581 189:0.41751954 190:0.42555293 191:-0.085257076 192:0.95520061 193:0.11486418 194:-0.076403916 195:0.74567652 196:0.1520876 197:-0.56955606 198:0.94680864 199:1.0151314 
0.8289021883538243 0:-0.71884459 1:-1.0107987 2:1.2405963 3:-0.63501954 4:-0.088715151 5:-1.1989355 6:-0.68555254 7:-0.23525682 8:0.81027353 9:-0.33560735 10:0.59321195 11:0.74577725 12:-0.44549295 13:-0.84480864 14:0.54613012 15:-0.91740078 16:0.31842104 17:-0.16251841 18:-0.87530065 19:-0.19373743 20:-0.16870247 21:-0.65418994 22:0.28736803 23:-0.33000007 24:-0.85725957 25:0.18117438 26:-0.36012483 27:-0.16622953 28:0.011059333 29:-0.028196741 30:0.029120779 31:0.42452937 32:0.62069738 33:-0.35470629 34:0.13261288 35:0.046781734 36:-0.7531392 37:0.057778303 38:-1.0147316 39:4.2830133 40:2.8975751 41:1.6775424 42:-0.85801542 43:-0.50082105 44:-1.3370804 45:0.047180817 46:-0.4338713 47:0.29498956 48:0.45858753 49:-0.46814224 50:0.33247879 51:0.14417347 52:0.72076023 53:-0.64337826 54:0.31496221 55:-0.071680866 56:0.14475831 57:-0.66448611 58:-0.22461833 59:-0.058922552 60:0.34727624 61:0.82800758 62:-0.24221972 63:0.061345655 64:0.35492861 65:-0.17141135 66:-0.50351018 67:0.17686115 68:0.14933136 69:-0.41053122 70:-0.085268013 71:-0.72087926 72:0.056638476 73:-1.2217109 74:1.2260842 75:-0.38107148 76:0.24773088 77:-1.1422356 78:0.65739596 79:0.37697163 80:-0.026725363 81:0.25992352 82:-0.15536286 83:-1.7523416 84:0.28715986 85:-0.040645886 86:-1.0087103 87:-1.0520467 88:-0.021096691 89:-0.52596247 90:-0.37016761 91:-0.44587371 92:-0.31823692 93:0.090804368 94:0.7873854 95:-0.31735677 96:-0.36532211 97:1.1031508 98:-0.59117663 99:-0.72164232 100:-0.43417844 101:0.82043552 102:0.17776664 103:-0.42079356 104:1.4205649 105:0.45409063 106:0.033866305 107:-0.40770081 108:1.1180308 109:0.13511808 110:0.22439757 111:0.097553819 112:-0.21865998 113:-1.3790087 114:-0.24278481 115:-0.27524057 116:0.37980834 117:-0.178133 118:-0.89740092 119:0.26292494 120:-0.60789573 121:0.23280349 122:-0.66241586 123:-0.50309837 124:-1.3709122 125:-0.10023971 126:-0.79805684 127:0.1062924 128:-0.28130543 129:-0.1526351 130:0.30608866 131:0.97298634 132:0.93205404 133:-0.19139589 134:0.73182148 135:0.92941678 136:-0.51053673 137:0.056643002 138:-1.0458163 139:1.9033791 140:-0.80489016 141:0.62015271 142:-0.46396926 143:-0.90974993 144:-0.70715082 145:0.2294544 146:-0.072034054 147:1.2307632 148:0.069220081 149:-1.2110283 150:0.38765153 151:0.31042632 152:0.85600907 153:0.59832937 154:-0.74258173 155:-0.026361614 156:-0.33906719 157:0.12438399 158:0.58506006 159:1.1785854 160:1.1535348 161:0.38466415 162:0.8390668 163:0.4164809 164:1.1728657 165:-0.61929673 166:0.22167458 167:-0.051109444 168:-0.37654325 169:-0.03438155 170:0.13076569 171:-0.45730281 172:-0.47400457 173:0.15918475 174:0.14197184 175:-0.13360897 176:0.12456905 177:0.076897323 178:0.11049139 179:0.071772948 180:-0.63662732 181:-0.11900765 182:0.30823648 183:0.47059324 184:-0.52563465 185:0.50173378 186:0.38734022 187:-0.033379093 188:0.35068682 189:-0.58579934 190:-0.78825492 191:-0.56167632 192:0.39993766 193:0.10522775 194:0.49710801 195:-0.37524492 196:0.41432929 197:0.69980663 198:0.61710554 199:0.48744205 
0.5146480926821329 0:0.042577028 1:0.33445513 2:-0.09692125 3:-0.068141662 4:-0.64880019 5:1.006855 6:-1.0311027 7:-0.14949335 8:-0.2667571 9:-0.69300783 10:-0.12870224 11:-0.51676816 12:0.36696261 13:0.30277249 14:-0.52965897 15:-0.76325136 16:0.04353606 17:-0.586052 18:0.8743552 19:1.4264661 20:0.81904632 21:-0.19252287 22:-0.58590162 23:0.82853478 24:-0.82298476 25:0.53547096 26:-0.80934227 27:0.37826872 28:0.39256892 29:0.89626235 30:-0.42284852 31:0.15756373 32:0.10564388 33:-0.45199198 34:1.2629031 35:0.29132956 36:-0.095258206 37:0.46444806 38:-0.95064777 39:1.2874098 40:-0.064930171 41:0.39571995 42:4.7450042 43:4.1591835 44:5.2819757 45:-0.32705498 46:-0.93485034 47:0.55538726 48:1.1673287 49:-0.42499471 50:0.36777666 51:0.3620272 52:-1.1892567 53:0.66648734 54:0.41369739 55:1.0808059 56:-0.77795094 57:-0.71094412 58:0.38251823 59:-0.24216887 60:-0.33516207 61:1.1791995 62:0.82347059 63:-0.32461956 64:0.17484653 65:0.96607476 66:-0.14576185 67:0.0075438078 68:-0.59537882 69:-0.25955343 70:-0.18601933 71:0.7018016 72:-0.13393055 73:-0.48066646 74:0.54058385 75:-0.48586413 76:0.36310652 77:-0.55265009 78:0.13363577 79:0.62727672 80:0.17494603 81:-0.48671821 82:-0.52419722 83:0.48182288 84:0.52407092 85:-0.2227941 86:-0.54021794 87:-1.5435175 88:-1.0040208 89:-0.96232021 90:0.82279044 91:-0.35497859 92:-1.0821965 93:-1.2332186 94:0.16777523 95:-0.10714276 96:-1.0259387 97:0.84320819 98:-0.46078891 99:0.94608253 100:-0.083531573 101:-0.36989266 102:-0.080794707 103:0.065105744 104:-0.90998489 105:-0.0090244748 106:-0.031684283 107:-1.2829916 108:1.422878 109:0.42564759 110:-0.41916996 111:-0.47014657 112:0.18041024 113:-0.16202231 114:-0.37166855 115:-0.50868684 116:1.0576577 117:-0.51258123 118:-0.35834134 119:1.4920915 120:-0.15648626 121:-0.18268844 122:-0.10117693 123:-0.28113571 124:1.0055531 125:0.94498497 126:-0.63501388 127:-0.2613059 128:-0.1380351 129:1.7504629 130:0.46486741 131:2.3402362 132:0.36279294 133:0.27969345 134:-1.6205131 135:-0.48444673 136:-0.28549957 137:-1.2518232 138:-0.37288082 139:-0.68508112 140:-0.66499656 141:0.018400388 142:-1.0951843 143:-0.23009227 144:-0.17824097 145:0.9506219 146:-0.73544246 147:-0.1422327 148:0.57292777 149:-0.080139115 150:-0.98911357 151:-0.69309843 152:1.1609699 153:0.21260735 154:1.4769653 155:0.86980182 156:0.40705797 157:0.69333351 158:-0.19395655 159:-0.8327415 160:-0.46899661 161:0.28363746 162:0.55933237 163:0.65739262 164:0.01686457 165:-1.1883378 166:0.73616761 167:0.32974714 168:0.49983883 169:0.63282096 170:1.2141303 171:0.76784414 172:0.85577965 173:-0.73582876 174:0.55200434 175:0.80130404 176:0.088925399 177:0.33789203 178:0.43335441 179:1.6294501 180:-0.22919624 181:0.072700493 182:0.98090303 183:0.22725813 184:-1.382146 185:0.82621944 186:0.61191785 187:-0.65251994 188:1.2373617 189:-0.4251079 190:-0.61099446 191:-0.79737979 192:0.020678192 193:1.3039176 194:0.028347066 195:-0.19947705 196:0.61843622 197:-0.2201077 198:0.25805074 199:0.45330018 
0.4101761517370904 0:0.27387002 1:-1.3309003 2:-0.0061017033 3:2.5021508 4:0.29412672 5:2.0228968 6:-0.38106295 7:-0.44477326 8:0.3267771 9:0.35089242 10:-0.31887749 11:-0.79818147 12:-0.40725163 13:-1.1257752 14:-0.83126044 15:0.38604712 16:0.76962292 17:-1.3341948 18:-0.30175376 19:-0.63913924 20:0.56656432 21:-0.80281037 22:0.55839205 23:-0.47595075 24:-0.077388376 25:0.15378286 26:-0.81653559 27:0.92497957 28:0.44146043 29:0.23775059 30:0.014366694 31:1.0981842 32:1.1642818 33:0.09890449 34:-0.32973951 35:0.52025682 36:-1.2937348 37:0.12158217 38:-0.5616883 39:-0.43408462 40:-1.8458338 41:0.16285263 42:-0.59821737 43:-0.65846241 44:0.44101894 45:6.709713 46:5.4948459 47:3.4766529 48:0.063065641 49:-0.31451494 50:0.16195828 51:0.66286564 52:-0.97338492 53:0.73746419 54:0.099696614 55:-1.3569511 56:-0.014280834 57:-0.053760167 58:-0.91996866 59:-0.50821084 60:0.49722204 61:-0.14040303 62:-0.26053408 63:-0.65943509 64:1.0059866 65:-1.1416489 66:0.81705236 67:0.71333563 68:-0.79779726 69:0.92331016 70:-0.079356566 71:0.59979707 72:0.088861324 73:-1.241066 74:0.98408967 75:0.10611243 76:-0.036554962 77:0.021104479 78:0.48708463 79:0.25232372 80:-0.21525928 81:-1.0485296 82:-0.039217394 83:0.36457935 84:-0.042550206 85:-0.75756073 86:-1.0271591 87:0.67169291 88:0.5734973 89:1.4140064 90:-0.13136247 91:0.68971473 92:0.50848264 93:1.3810897 94:1.0342715 95:0.68631512 96:-0.99278742 97:-0.37856382 98:0.7316699 99:-1.0084299 100:-0.92692232 101:0.4466337 102:0.43886852 103:-0.15132698 104:-0.2711339 105:-0.81164002 106:0.64738518 107:0.78239173 108:1.4220195 109:1.1677324 110:-0.4491412 111:0.71101534 112:-0.1446922 113:0.64461827 114:-1.0126543 115:0.29429874 116:0.32427406 117:-1.5672208 118:-0.50421715 119:-0.9480617 120:-0.57975358 121:0.23186968 122:-0.16716926 123:-1.1113743 124:0.18165725 125:-1.0639707 126:-0.16109784 127:0.4691847 128:0.39428657 129:-0.55856323 130:0.14529921 131:-1.1722711 132:-0.14575277 133:-0.64670604 134:1.8022772 135:-0.2657409 136:-0.18857653 137:-0.05214623 138:-0.6118378 139:0.62478882 140:0.14678824 141:0.40260598 142:0.33202904 143:-0.16248021 144:-0.77668023 145:-0.15953828 146:-0.34834445 147:-0.43420485 148:-1.4125226 149:-0.47499722 150:0.068965785 151:0.56160086 152:0.78359503 153:-0.14514802 154:-0.52003795 155:0.51030362 156:0.38805798 157:0.70100731 158:2.0172153 159:-0.26647103 160:-0.35292843 161:0.34905154 162:-1.0723251 163:-0.061046109 164:-0.99773723 165:-0.62976778 166:1.5618447 167:-0.25292304 168:0.21188796 169:-0.72250271 170:0.72240716 171:0.9332248 172:-1.1949372 173:0.067380637 174:-0.0087904362 175:-0.18631265 176:-0.37223729 177:0.22680828 178:0.0042252615 179:-0.97093898 180:0.23510064 181:0.42850128 182:0.76549613 183:0.32298714 184:0.49366957 185:1.3970747 186:0.99054742 187:-1.3146938 188:-0.69131935 189:-0.25270161 190:-0.36050427 191:-0.83385032 192:0.50576717 193:1.3005056 194:-0.25150132 195:-1.2265291 196:-0.46980727 197:0.5385049 198:0.60746425 199:-1.4941673 
0.8640941165748118 0:-0.99887788 1:1.4583684 2:-0.10353971 3:-0.44799346 4:-0.35074848 5:0.33138448 6:0.37868559 7:-0.10732388 8:0.18537295 9:-1.9222172 10:1.0612724 11:-0.37425351 12:-0.36546129 13:0.021327913 14:0.024026062 15:-0.23852232 16:0.46903709 17:0.53687561 18:0.31391108 19:0.78869832 20:0.089595191 21:-1.0308605 22:0.0060929144 23:-0.29582363 24:1.0002646 25:-0.080293395 26:0.3435289 27:-0.76015228 28:-0.88539016 29:-1.5811942 30:0.763273 31:-0.76955402 32:-1.7734087 33:-0.18290639 34:-1.5561969 35:-0.51976365 36:-0.43948621 37:-0.52091575 38:-0.11784564 39:-0.093734287 40:0.0442519 41:-1.4249862 42:-0.78959966 43:0.60622871 44:-0.091788165 45:-0.99770427 46:0.3801598 47:1.1279372 48:3.8454638 49:1.1064125 50:-0.55877799 51:-0.74899215 52:-0.51977348 53:-0.43914112 54:-0.47415751 55:-0.64981407 56:0.48795214 57:0.0042937468 58:0.24949671 59:0.71973407 60:0.43900263 61:-1.3786776 62:0.14012304 63:0.40629274 64:0.091555029 65:-0.75148571 66:-1.0764267 67:-0.12524092 68:0.074367896 69:-1.287811 70:0.44744992 71:-1.2727585 72:0.0055245776 73:0.70033181 74:-0.78319132 75:1.0099875 76:-0.3318195 77:0.25699481 78:-0.86534441 79:-0.47904497 80:-1.0458475 81:0.65823305 82:-0.40554532 83:0.53522909 84:-0.72955561 85:-0.96945423 86:1.4797345 87:0.42570379 88:-0.95058334 89:0.51530242 90:-2.0446715 91:0.07179299 92:-0.35584009 93:0.0027325479 94:-1.7883793 95:-0.72133553 96:1.038272 97:-0.79389536 98:-0.011753038 99:0.53985429 100:-1.2452152 101:-0.69702673 102:0.94684786 103:-1.3365254 104:2.6040761 105:0.64099103 106:-0.7064572 107:0.9034391 108:-0.82645702 109:-0.97830504 110:1.7689536 111:-0.73058534 112:-0.82675922 113:0.652233 114:-0.012316112 115:-0.34650946 116:-1.7186525 117:-0.084932208 118:0.39623174 119:0.13882071 120:1.5760179 121:-0.94691384 122:0.0099586388 123:0.96218693 124:-0.045828309 125:0.19984788 126:-0.53548664 127:-0.03829946 128:0.34920719 129:-1.1383626 130:-0.16876778 131:-0.40246072 132:-0.59888834 133:0.35974514 134:0.079984926 135:0.29044932 136:0.027377339 137:0.52681595 138:0.87154281 139:0.11682618 140:0.51957095 141:0.0030743789 142:-0.52144277 143:0.019889563 144:-1.095969 145:-0.96873182 146:1.0956151 147:-0.56882769 148:0.022288177 149:-0.23688488 150:0.49787813 151:-0.34646702 152:-0.45726278 153:1.4556024 154:0.63400954 155:0.41370103 156:1.7762151 157:-0.96368974 158:-1.4068476 159:0.87126231 160:-0.92307287 161:-1.1344777 162:-1.2818041 163:-0.76659566 164:-0.5100137 165:0.62477279 166:-0.76011384 167:-1.1610694 168:-0.50278342 169:-0.002494337 170:0.46449092 171:-1.1168059 172:0.75579649 173:-0.088807032 174:0.52890635 175:0.80700219 176:0.026336486 177:-1.3363283 178:0.37261292 179:-0.66633129 180:-0.94586861 181:0.32882944 182:-1.2256005 183:0.55490124 184:1.1704165 185:-1.254635 186:-0.19101216 187:0.4099502 188:-0.12471766 189:1.3677865 190:1.4628437 191:0.18356125 192:-0.32458994 193:-0.94856912 194:0.57160407 195:-0.21606462 196:0.12833758 197:0.59633362 198:-0.54766524 199:0.0034354443 
0.2192552044082617 0:0.98667794 1:1.5004469 2:1.2729487 3:1.2636625 4:0.63310391 5:1.1631855 6:0.90023267 7:2.1142404 8:0.50357437 9:0.60725325 10:0.51113158 11:0.72059286 12:1.1501849 13:1.5341707 14:1.807777 15:0.81543851 16:0.91300589 17:0.31695005 18:1.6692978 19:1.4419492 20:-0.046374977 21:2.0114887 22:0.65597492 23:0.32332522 24:1.2893314 25:0.67701727 26:1.4591032 27:1.0934399 28:0.70269412 29:0.89274871 30:0.86873823 31:0.85955065 32:1.3359711 33:1.9203913 34:1.0264648 35:0.89485097 36:0.76524264 37:0.59195989 38:0.57875806 39:0.27605298 40:1.7426087 41:0.58815002 42:2.1287346 43:0.98435766 44:0.44463715 45:0.24702026 46:1.1301978 47:1.8701099 48:1.0540434 49:0.92426318 50:0.75662524 51:0.58128566 52:3.6361928 53:4.3886371 54:0.53980565 55:1.6797917 56:1.1117921 57:2.5127432 58:1.3158892 59:1.8547213 60:0.70411932 61:0.2881203 62:1.2833036 63:0.85270756 64:0.84739864 65:0.98105109 66:0.48264989 67:0.59370452 68:1.6831846 69:1.3928721 70:0.30727369 71:2.6328902 72:-0.0095784385 73:1.1409118 74:1.0169986 75:0.70804816 76:0.78216016 77:1.1383613 78:0.72688383 79:0.54683596 80:0.94281977 81:1.3877126 82:1.1860547 83:0.71256751 84:0.40252262 85:0.96963221 86:0.7335974 87:1.6937513 88:1.345932 89:0.32923055 90:0.37406486 91:0.63598239 92:0.98710734 93:0.86245251 94:0.97815067 95:1.0746629 96:0.90808785 97:0.66831696 98:1.487568 99:0.41753453 100:0.90034026 101:0.61554152 102:0.91974431 103:1.0549183 104:0.41319326 105:1.4976803 106:0.66594362 107:1.2595377 108:0.87218261 109:0.9271276 110:1.5116034 111:1.6279453 112:0.76763749 113:0.57580167 114:1.6873201 115:0.79858583 116:1.4125297 117:0.59010959 118:1.2267743 119:0.64324617 120:0.69175273 121:0.59476608 122:0.75656736 123:0.80635601 124:1.6176543 125:1.4728705 126:0.93749332 127:0.99084389 128:1.5021722 129:1.8452926 130:0.42909351 131:1.1718957 132:0.77567798 133:1.8890015 134:0.8155672 135:0.77708334 136:1.1088548 137:1.2555876 138:0.47389042 139:1.8799081 140:1.205391 141:1.2305011 142:1.3297019 143:0.61853415 144:0.5401361 145:0.48517573 146:0.75341201 147:1.326442 148:1.0811813 149:1.0788351 150:0.93738854 151:0.82116735 152:0.68607771 153:1.1201627 154:1.643786 155:1.0698892 156:1.5291033 157:1.291585 158:1.1708878 159:0.66595513 160:1.3006961 161:0.78042114 162:0.59261179 163:1.0293629 164:0.96014297 165:1.1944728 166:0.78354812 167:0.28918776 168:0.070637867 169:0.77804255 170:0.7321552 171:0.78934485 172:1.0377487 173:0.75808352 174:1.0875278 175:1.4193802 176:1.7263231 177:1.9836088 178:-0.011837694 179:0.79333937 180:1.4695725 181:1.025492 182:1.2037164 183:1.2915196 184:1.1115814 185:1.3309375 186:0.89023304 187:1.2068555 188:0.3485851 189:0.31924346 190:0.63184869 191:0.51590025 192:0.49685329 193:0.91590118 194:0.90290153 195:1.0345572 196:0.55196649 197:1.0003294 198:-0.02490668 199:0.43889961 
0.1219017314733521 0:0.70363003 1:1.3023643 2:0.70978701 3:0.85015708 4:0.27880105 5:2.0598469 6:0.04831567 7:1.4225479 8:1.4918227 9:0.80534714 10:0.91694695 11:2.1257157 12:0.8440026 13:1.3050145 14:1.116701 15:1.7719891 16:0.80699849 17:1.108669 18:1.2454153 19:1.2125986 20:0.25917885 21:-0.33132324 22:0.42043677 23:0.74137539 24:0.75649369 25:0.68016434 26:1.144549 27:0.87874198 28:0.81635535 29:1.0894223 30:0.56021369 31:1.3303849 32:1.392027 33:1.2832037 34:1.5098654 35:0.066222347 36:1.8391621 37:0.60933334 38:0.20940739 39:1.4854114 40:1.3535529 41:0.67367452 42:0.18724597 43:1.4833881 44:1.2743324 45:0.77843851 46:0.89990389 47:1.507702 48:1.2810541 49:1.4245629 50:0.85409009 51:1.0524889 52:2.2959721 53:1.1330708 54:1.301262 55:2.3750935 56:4.5588837 57:1.2934983 58:1.1393473 59:0.83577293 60:1.0917492 61:1.0583094 62:1.6492287 63:1.192706 64:0.93673116 65:0.87613332 66:1.1717166 67:1.8708096 68:0.28834125 69:1.8670634 70:0.21733829 71:1.0339062 72:0.30874935 73:0.94772744 74:0.93791485 75:1.7769066 76:0.93728209 77:0.85168588 78:0.77520078 79:0.6363436 80:1.3700202 81:1.7881881 82:0.97979861 83:2.0131834 84:0.52673131 85:1.5025346 86:1.591678 87:1.4727386 88:0.82406479 89:1.5588483 90:1.4551803 91:1.22721 92:1.1521261 93:1.185973 94:1.0806918 95:0.34534538 96:1.3756098 97:0.87122411 98:0.82435709 99:1.0515691 100:0.31094253 101:0.38069472 102:0.14589548 103:0.4010708 104:1.0678949 105:0.75756872 106:0.58919048 107:1.5730588 108:0.85674721 109:0.59940499 110:1.162891 111:1.8547336 112:1.1496041 113:0.89347744 114:2.1369295 115:0.33207086 116:1.256832 117:1.608816 118:0.93746346 119:0.59946644 120:0.21783035 121:0.57233495 122:-0.17649902 123:1.0178214 124:1.9373364 125:1.2645143 126:0.45614493 127:0.84560877 128:1.1422963 129:2.5049999 130:0.65280896 131:1.6766883 132:0.6546573 133:1.9335774 134:0.48993829 135:0.74261314 136:0.072983623 137:1.114795 138:0.088760711 139:0.096521705 140:-0.71863902 141:2.2347445 142:1.3029281 143:0.90753657 144:1.2149957 145:1.6708622 146:0.72845644 147:1.1240252 148:1.4084157 149:1.3893831 150:1.2219331 151:0.36692411 152:1.2606386 153:2.1033576 154:1.4565855 155:1.8493651 156:2.0408182 157:0.43457258 158:0.7728157 159:0.80015558 160:1.8373652 161:1.2436135 162:1.0519205 163:0.68536025 164:1.5224588 165:2.3093104 166:0.84378672 167:0.86210757 168:1.230023 169:0.53315091 170:0.89449209 171:0.87256467 172:1.2176315 173:1.1906065 174:1.1204215 175:0.95134693 176:0.19522016 177:1.6884278 178:1.1375285 179:1.220241 180:2.053978 181:0.97352928 182:0.59668177 183:1.0497484 184:2.0050373 185:0.98616356 186:0.76232398 187:1.3865041 188:1.4348119 189:0.35696173 190:1.1445397 191:1.5962298 192:1.1057643 193:0.83789009 194:1.4355564 195:-0.50131565 196:1.7354622 197:1.7018068 198:0.79814065 199:1.076944 
1 0:-1.1760638 1:-1.3106409 2:-0.020659663 3:-0.83705169 4:-0.88431758 5:-0.047093246 6:0.046652138 7:-1.1795127 8:0.71554357 9:-1.0107403 10:0.5777126 11:-0.39454195 12:-0.13279222 13:-0.039101437 14:0.52002674 15:0.28456104 16:-0.81490535 17:-1.0388092 18:0.49552312 19:-0.40444133 20:-0.3164078 21:1.315648 22:-0.85989988 23:-0.052312274 24:0.20801222 25:-0.40631938 26:-0.2352709 27:-1.4526873 28:-0.1372764 29:-0.60953242 30:-0.99195415 31:0.20197178 32:-0.37280074 33:-0.89599806 34:0.15800066 35:-0.58413589 36:-0.38250631 37:-0.16456027 38:-0.5948177 39:-0.45740268 40:-0.0176311 41:-0.095854521 42:-0.17517139 43:-0.76295739 44:-0.64569962 45:-0.49183708 46:-0.79375231 47:-0.8391673 48:-1.0455711 49:-1.9524388 50:-0.19397616 51:0.021101136 52:0.41313443 53:0.19718471 54:-0.02530509 55:0.093616232 56:-0.98446286 57:2.4986484 58:1.6681784 59:3.6634612 60:-0.39445344 61:-0.36277068 62:-1.1460186 63:0.078551725 64:-1.2613801 65:1.520811 66:-0.86420602 67:-2.3335948 68:0.44611546 69:-0.1659929 70:0.117035 71:0.34903774 72:0.39574409 73:-0.14149408 74:-0.50138485 75:0.22325687 76:0.63392478 77:0.24497463 78:-0.49901792 79:-0.14877006 80:-0.61662018 81:1.2816151 82:-0.48303303 83:-1.3262637 84:0.17284462 85:0.68050653 86:1.3554885 87:-0.50052875 88:-0.13678707 89:0.6391955 90:-0.60616714 91:-0.58495915 92:-0.83808476 93:-0.32527304 94:0.016838901 95:-0.94613636 96:-0.62550378 97:-1.2562604 98:-0.48234013 99:0.14075892 100:-0.84834647 101:-0.9287371 102:-1.0100611 103:-0.83935601 104:-0.17504823 105:-0.73580039 106:-0.68375969 107:-0.85910994 108:0.36264196 109:-1.5625299 110:-0.039634459 111:0.27120611 112:-0.14269133 113:-0.20665669 114:0.42620906 115:0.058409654 116:-0.35775307 117:0.28321198 118:-0.14276017 119:-0.25112441 120:-0.94759637 121:-0.081514783 122:-0.069898672 123:-0.98113745 124:0.13911605 125:-0.67299432 126:-0.35106236 127:0.25404331 128:0.12171354 129:0.74945098 130:-0.26063135 131:0.041750867 132:-0.26436433 133:-0.44171473 134:-1.1198021 135:0.35013834 136:0.25192469 137:-0.34866774 138:0.77581573 139:0.084893949 140:-0.23509131 141:-1.0619149 142:-0.53480935 143:1.3208497 144:0.15009975 145:-0.10220403 146:-0.059324864 147:0.62423468 148:-0.39253247 149:-2.1218002 150:-1.5254605 151:-0.37946326 152:-0.91895074 153:-0.54851931 154:-1.0287873 155:-0.5519017 156:0.051981516 157:-0.79617894 158:-0.81084895 159:0.41482821 160:-0.6213038 161:0.050062165 162:0.10624642 163:-0.59212482 164:-0.38827416 165:2.0757773 166:-0.46876553 167:0.47187379 168:-1.3345547 169:-0.13926896 170:-0.50567198 171:-0.79858053 172:0.93093514 173:-0.33549106 174:1.2804754 175:-0.66094124 176:-2.0234833 177:-0.62288702 178:-0.17067058 179:0.69199002 180:0.39727989 181:-0.76623064 182:-0.90082389 183:-1.0871482 184:-0.74796456 185:0.35181788 186:-1.0477561 187:-0.12672824 188:-0.44491634 189:0.40244025 190:0.35351139 191:-1.4854811 192:-0.09970019 193:0.51696879 194:-1.0429652 195:0.25006601 196:-1.6091061 197:0.26769066 198:-0.54736263 199:-1.0125376 
0.3479844970615552 0:0.1872496 1:0.29539296 2:1.136222 3:0.79505563 4:1.5893346 5:0.29694712 6:1.4017544 7:0.73903286 8:1.1920463 9:1.0155169 10:0.42690581 11:2.3843215 12:0.42419869 13:0.19352193 14:0.5939784 15:1.8117936 16:0.86369437 17:0.77843386 18:0.73296487 19:1.3701773 20:0.16252738 21:-0.098438106 22:0.34504697 23:1.2632372 24:-0.12112124 25:0.72823137 26:1.0485302 27:0.77378321 28:0.61712277 29:0.29105702 30:0.41974083 31:0.54775244 32:1.2550493 33:1.5021403 34:0.67269504 35:0.47563931 36:2.0442262 37:0.62624329 38:0.34288082 39:1.502014 40:1.3120549 41:1.3716291 42:2.2542531 43:1.0276172 44:0.9915818 45:0.36146477 46:0.597332 47:0.72536755 48:0.72172475 49:0.73983443 50:0.78055763 51:0.63884932 52:1.150708 53:2.607347 54:0.72749865 55:0.78655344 56:0.98297381 57:0.65294141 58:1.1127731 59:0.20534898 60:1.2425133 61:3.9049435 62:3.3130155 63:0.36788067 64:0.40036306 65:0.75938737 66:0.60829967 67:1.3420297 68:1.9421791 69:1.4500178 70:0.24793516 71:1.438877 72:-0.049810771 73:0.24276529 74:0.86550039 75:0.35240561 76:0.56467801 77:1.3833832 78:0.80337709 79:0.5409652 80:0.7471841 81:1.8012136 82:0.81532621 83:1.7191136 84:0.57937449 85:1.2967155 86:0.57977116 87:0.73677379 88:-0.019207282 89:1.1433135 90:0.66243315 91:0.61724502 92:0.14693323 93:0.096217595 94:0.89351588 95:-0.35683772 96:1.0262021 97:0.72782743 98:1.2265509 99:0.27574703 100:0.95753139 101:0.10464103 102:1.0071353 103:-0.2450754 104:1.4379141 105:1.0278548 106:0.6854468 107:0.18564446 108:-0.42618707 109:0.53464174 110:1.2535894 111:0.18632877 112:0.29051608 113:0.69826525 114:1.2741935 115:0.47922817 116:0.57342196 117:0.67233384 118:0.56272954 119:0.98734438 120:1.140403 121:0.64808142 122:0.3709369 123:0.75891751 124:1.3215784 125:0.19174767 126:0.57869583 127:0.64533454 128:1.0576828 129:1.6437336 130:0.67224008 131:1.1484048 132:1.1310641 133:0.8440541 134:-0.5920316 135:0.92473429 136:0.56518286 137:0.80805308 138:0.44231361 139:0.27350888 140:0.73066974 141:0.42377484 142:0.56692463 143:0.29727548 144:0.79820061 145:1.1560628 146:-0.24220331 147:0.39239088 148:1.3579731 149:0.72150302 150:1.4557909 151:0.52629024 152:0.45658982 153:0.78541136 154:1.7457802 155:0.87014979 156:1.4218534 157:0.08274018 158:1.3321245 159:0.43647563 160:1.7138095 161:0.60145581 162:1.2419508 163:0.2335518 164:1.1998246 165:0.75066173 166:0.4035826 167:0.80394304 168:2.0859783 169:0.40597787 170:0.32078427 171:0.66149807 172:0.91483831 173:0.50932533 174:0.66243142 175:1.396351 176:1.6118619 177:1.047538 178:1.1150153 179:2.8382003 180:0.83989757 181:0.76536453 182:1.0120121 183:1.3355682 184:0.8414737 185:0.29947332 186:1.0126624 187:1.2699578 188:0.88558626 189:1.5932332 190:0.33883026 191:1.3506403 192:0.83083493 193:0.35525525 194:1.0004059 195:0.88463306 196:1.6098208 197:0.74802524 198:0.91263628 199:0.94535375 
0.4965955049739714 0:-0.93982089 1:0.26131085 2:-0.50062597 3:-0.90527809 4:-0.11118382 5:-0.25333077 6:0.66102558 7:-1.332141 8:1.0261919 9:0.12063117 10:0.2163934 11:0.29029876 12:0.63762116 13:0.47766328 14:0.61327386 15:0.34922573 16:-0.58148003 17:-0.59009647 18:-0.037908845 19:1.5353508 20:-0.30923572 21:0.26243281 22:-1.0572121 23:-0.49280423 24:1.1690798 25:-0.15770346 26:-0.099372357 27:-0.88686407 28:0.30886817 29:-0.90509248 30:0.92072171 31:-0.58311445 32:-1.1281186 33:-0.25919035 34:-0.3434777 35:-0.26150188 36:0.9730258 37:0.1763397 38:-0.5340293 39:1.0948317 40:0.59882504 41:0.050119821 42:-1.00968 43:1.1311789 44:-0.46887374 45:0.22825047 46:-0.5631755 47:0.25494954 48:-0.37286484 49:1.4707756 50:0.12250323 51:-0.38772014 52:-0.56638211 53:0.54732579 54:-0.108567 55:0.40069804 56:0.51206082 57:-0.90703803 58:0.41517916 59:-0.075013794 60:-0.98204172 61:-1.0176078 62:-0.37270212 63:3.4198782 64:2.5814998 65:3.8725204 66:-0.51498789 67:-0.45464474 68:0.80801213 69:-0.32190007 70:0.47075427 71:-1.0825444 72:-0.55095816 73:-0.41913465 74:-0.32288802 75:0.26651168 76:-0.76362312 77:-0.53772682 78:-0.27875841 79:-0.045250051 80:1.0262389 81:0.91439867 82:-0.51312649 83:0.19644259 84:0.15974203 85:-0.6014294 86:-0.11152258 87:1.5983108 88:1.5484685 89:0.62569338 90:-0.31218275 91:-0.054895353 92:1.305305 93:-0.94670331 94:-1.3046546 95:0.87003636 96:-0.22886932 97:-0.94420671 98:-1.0043236 99:-0.27482757 100:0.44323626 101:-0.14579189 102:-1.5352105 103:0.38912261 104:-0.20016605 105:0.40824971 106:0.89975721 107:0.60106009 108:0.054675478 109:-0.30738369 110:0.36297876 111:0.5570547 112:-1.1739587 113:0.26719826 114:-0.31884131 115:0.10462393 116:-0.45286003 117:-0.045254096 118:0.095438726 119:-0.551525 120:-0.58991134 121:0.11167914 122:-0.91474879 123:0.026328376 124:-0.17339391 125:-0.21761572 126:0.35910779 127:-0.21076103 128:0.29371217 129:-0.076076724 130:0.22849278 131:-0.66537184 132:1.0092232 133:-0.23623773 134:0.56672561 135:0.0645983 136:-0.30307457 137:-0.53153855 138:0.070122875 139:-0.28278521 140:0.77257669 141:-0.30018023 142:0.68848526 143:-0.37960711 144:-0.20612796 145:0.37838262 146:-0.18250142 147:-0.36100513 148:0.40351716 149:0.0081283199 150:1.0116127 151:-0.51181698 152:-0.75699288 153:0.13826442 154:0.068433464 155:0.40832534 156:-0.78911656 157:-0.56473935 158:-0.059790574 159:-0.1012688 160:-0.14059961 161:-0.98539805 162:1.138845 163:-0.55182093 164:-0.93017322 165:0.40663835 166:-0.82732278 167:-0.97619748 168:0.13160142 169:0.5886091 170:-0.16313851 171:-0.5520981 172:-0.92927426 173:-1.2120068 174:-1.4109668 175:0.92537856 176:-0.2969957 177:1.1631937 178:-0.51575506 179:-0.045761243 180:0.60566002 181:0.89154166 182:0.080140062 183:0.57232767 184:-0.4414694 185:-0.22669287 186:0.050844885 187:0.46896499 188:0.11640494 189:-0.68389094 190:0.27163455 191:0.16573539 192:-0.58450902 193:-1.1161871 194:0.64321089 195:0.2696701 196:0.26777104 197:1.1477085 198:-0.82736713 199:0.42429879 
0.2683915740478363 0:0.19874986 1:0.75478923 2:0.78351569 3:0.87139636 4:0.93751949 5:0.52562529 6:0.45635715 7:-1.1468518 8:0.19658922 9:-1.02916 10:1.2993003 11:-0.53625023 12:-0.36075774 13:-0.40615785 14:0.40689218 15:1.6506634 16:-0.12712914 17:1.1349156 18:0.1703521 19:1.4996297 20:-0.69327384 21:-0.35642377 22:0.33642256 23:0.2686601 24:0.72552097 25:-0.32463706 26:-0.088935755 27:-0.7347753 28:0.29613271 29:-0.49615622 30:0.064403728 31:-0.91382718 32:-0.024635866 33:1.0579102 34:0.67416865 35:-0.23500247 36:-0.16594934 37:-0.032908861 38:0.23219831 39:0.93057358 40:-0.68792862 41:0.609487 42:-0.33206525 43:-0.67333394 44:-0.90256256 45:-0.17443232 46:-0.42764771 47:-0.41535532 48:-1.2917179 49:0.3820163 50:0.55967426 51:0.62274784 52:-1.0561713 53:0.99152464 54:0.67173678 55:-0.52885717 56:-0.96796972 57:0.0091328537 58:-0.24178468 59:0.7704466 60:-0.054865241 61:-0.93471318 62:0.088748105 63:-0.32803383 64:-0.058083296 65:0.34229451 66:5.141427 67:2.8263152 68:4.2977924 69:-1.6903443 70:0.083793417 71:-0.15036121 72:0.20195913 73:0.51292557 74:-0.097428262 75:-0.25444186 76:-0.15672521 77:0.97394478 78:-0.021376915 79:0.15891348 80:0.1678593 81:0.37509921 82:-0.13187739 83:0.89783454 84:0.28599593 85:-1.2117912 86:-0.86317319 87:-0.2192065 88:0.98786324 89:-0.51277572 90:0.94194406 91:-0.67726487 92:-0.82682061 93:-0.76846057 94:-0.026472567 95:-0.54546666 96:0.24371125 97:-1.1969625 98:0.63915873 99:0.022081925 100:-0.26639485 101:-0.5938077 102:-0.85704041 103:-0.11056661 104:0.20317517 105:-0.34473005 106:-0.60441965 107:-0.79035181 108:-1.2535026 109:-0.21500459 110:-0.071420908 111:1.3945994 112:1.3734734 113:-0.14067815 114:-0.97941124 115:-0.70389527 116:0.63785899 117:0.22688593 118:0.31892288 119:-1.06784 120:-0.056739073 121:0.08566834 122:-0.41149902 123:-0.80965757 124:-0.27267528 125:-0.84020036 126:-1.1730587 127:-0.53247976 128:0.14329775 129:-0.58829665 130:0.13473111 131:-0.43273041 132:-0.21885982 133:0.53430897 134:0.128857 135:-1.150723 136:0.047646798 137:-0.88383496 138:0.55587155 139:-0.089902468 140:0.55056417 141:-0.46901104 142:-0.652318 143:0.45139185 144:1.8272778 145:-0.29271573 146:-0.51931733 147:-0.87137038 148:-0.56241339 149:1.3716215 150:-0.82232243 151:-0.1673414 152:-0.017252121 153:-1.6410115 154:-0.10293551 155:-0.5487982 156:0.89436412 157:0.31407031 158:0.15215711 159:-0.31800753 160:0.31169331 161:0.43354723 162:-0.72454929 163:-1.2386681 164:-1.4836001 165:0.4720082 166:0.23908205 167:-1.0967501 168:0.069847934 169:-0.43216839 170:0.069569051 171:-0.19319862 172:-0.27588394 173:-0.21873513 174:0.31123388 175:0.5312534 176:-0.10113934 177:-0.27064988 178:1.1447031 179:-0.23599611 180:0.4155342 181:0.076154031 182:-0.47470391 183:-1.3859707 184:-1.1218117 185:-0.0093216347 186:-0.57556891 187:0.69449335 188:1.3377429 189:-0.065343216 190:-0.35844105 191:0.33174264 192:0.50154912 193:0.57594699 194:0.7230314 195:0.58872908 196:0.68505472 197:-0.17546684 198:0.44428217 199:1.4710211 
0.2899570941473907 0:-0.3261832 1:0.70405972 2:0.91624534 3:0.17808375 4:0.65608996 5:0.27921215 6:0.97715175 7:-0.30127877 8:0.88995379 9:1.3332344 10:0.48844543 11:-0.054699454 12:-0.31541359 13:1.9370426 14:0.82733899 15:1.526224 16:0.64055485 17:0.52106446 18:-0.15454116 19:0.69712049 20:0.59753555 21:-0.56388313 22:-0.44833776 23:-0.14550534 24:-0.23216513 25:0.16895545 26:0.58330554 27:0.14005129 28:0.26724976 29:0.88526857 30:1.3376863 31:0.83519781 32:-0.37129155 33:1.0084593 34:1.3460283 35:-0.45546168 36:0.60572249 37:0.35467726 38:-0.44252276 39:0.5221442 40:-0.167366 41:0.093146935 42:1.3437423 43:-0.8240822 44:1.2066447 45:0.54302007 46:1.0046728 47:0.54744905 48:-0.63534188 49:0.60344577 50:0.84821665 51:0.81640399 52:-0.57128733 53:0.36128318 54:0.8216626 55:-0.51833802 56:0.97857046 57:1.261212 58:1.6023045 59:0.67337734 60:-0.042566668 61:0.95976424 62:0.24540855 63:-0.71242952 64:0.044733386 65:0.069752917 66:-0.37385878 67:-0.29210311 68:1.3124242 69:3.7596006 70:7.572011 71:1.1367139 72:-0.10086399 73:-0.3322919 74:-0.28471062 75:0.030363556 76:0.22039863 77:0.7166037 78:-0.036366511 79:0.44074222 80:0.3331812 81:1.6035177 82:-0.21973506 83:1.3964353 84:0.50895631 85:1.3263814 86:0.54732025 87:1.3325356 88:0.70503718 89:1.3845992 90:2.5637202 91:1.4625634 92:1.3057655 93:1.740057 94:-0.48077598 95:0.20618722 96:0.49333093 97:0.35844916 98:1.035282 99:-0.30539349 100:0.27528605 101:1.0938754 102:0.092896603 103:-0.34369841 104:-0.20167513 105:1.646035 106:0.045113832 107:1.1625419 108:2.4224041 109:-0.38582391 110:0.37720975 111:1.0606838 112:-0.63286209 113:0.54501134 114:0.39810592 115:0.329615 116:0.12558956 117:0.22504573 118:0.87448782 119:0.25501913 120:0.62173367 121:-0.29536951 122:-0.15458038 123:1.0008223 124:2.2630799 125:-0.47819006 126:0.032726664 127:0.030141285 128:0.74749082 129:1.7771297 130:0.49134395 131:0.63314384 132:-0.34932482 133:-0.24278197 134:1.6079597 135:-0.79211903 136:-0.25176597 137:1.7718838 138:-0.34861827 139:-0.8430512 140:0.75799912 141:1.5924442 142:1.8131224 143:0.49080601 144:1.1797649 145:-0.10381197 146:-0.27984631 147:0.43871179 148:0.77575099 149:0.59485465 150:0.91905427 151:0.18194459 152:0.36396673 153:0.51875168 154:0.48125148 155:1.0579972 156:-0.56765902 157:0.1191586 158:0.71904612 159:0.70233077 160:1.3714724 161:0.22580309 162:0.1418277 163:-0.62604016 164:0.1343203 165:0.97295326 166:0.67993712 167:0.39483052 168:1.3788527 169:0.056857813 170:0.93994981 171:0.33831 172:1.3462121 173:0.56175965 174:0.10848303 175:0.41670254 176:0.86742574 177:-0.70473975 178:0.27095762 179:0.093534246 180:-0.13260244 181:0.62040025 182:0.17026716 183:1.0618039 184:1.2670255 185:1.145728 186:0.083940998 187:0.70850867 188:1.1376032 189:-0.66381079 190:-0.66256124 191:1.2568055 192:1.279494 193:-0.059444677 194:1.3072941 195:0.45279893 196:1.1475996 197:1.14149 198:0.57010943 199:0.48773879 
0.4710330517811809 0:0.87629771 1:0.62710005 2:0.61642969 3:0.21006489 4:-0.12368408 5:-0.22837147 6:0.91079348 7:-0.60258222 8:0.18463154 9:0.51720715 10:-0.062179409 11:-0.42925516 12:-0.54468089 13:-1.324616 14:-0.43757725 15:1.158067 16:0.65205079 17:0.31862396 18:-0.69336277 19:0.013921238 20:-0.47079805 21:-0.10599391 22:1.2955834 23:-0.44489446 24:0.071710587 25:0.12848349 26:-1.5321498 27:2.2967739 28:0.70655519 29:0.98724651 30:-1.6785332 31:1.170102 32:0.46809584 33:-0.099022724 34:-1.0728544 35:-0.047945801 36:-1.1967833 37:0.14928059 38:-0.14670351 39:-0.63454008 40:-0.64092475 41:0.41515869 42:-1.2007426 43:-0.82749069 44:-1.4343523 45:-0.71707469 46:-1.2044261 47:-0.58328533 48:0.76018029 49:-0.46713048 50:0.037395522 51:-0.083332114 52:-1.376875 53:-0.064037032 54:-0.043372378 55:-0.87968975 56:0.08871986 57:-0.14464831 58:-0.19082657 59:-0.032679852 60:1.105235 61:0.1182844 62:-0.028151818 63:-1.1019496 64:0.56141222 65:-0.67958534 66:0.95192862 67:0.39193511 68:-0.12410396 69:-0.28010592 70:-0.093189098 71:-0.10926629 72:7.8075628 73:0.95622122 74:0.82481283 75:-0.26850045 76:0.051228866 77:0.51589912 78:0.49475971 79:0.060843658 80:0.20655102 81:-0.66386104 82:1.1234833 83:-0.071029924 84:0.2944594 85:-0.45734015 86:-1.4214255 87:-1.5811678 88:0.27474988 89:-0.82507974 90:-0.67532188 91:-1.6278486 92:-0.69199681 93:-1.1081017 94:0.51545453 95:0.73352772 96:-0.80410433 97:-0.072149113 98:3.3415992 99:1.1955065 100:-0.24359836 101:0.010716121 102:0.89044636 103:-0.09646517 104:-0.27422446 105:-1.8914739 106:1.3832659 107:-0.8842532 108:1.6693686 109:1.5513469 110:0.097136229 111:-0.36385489 112:0.87821001 113:-0.12044529 114:-0.55253077 115:-0.54259437 116:0.63970298 117:0.26314828 118:-0.60292745 119:-0.87722421 120:-0.37337267 121:-0.046554863 122:-0.067674674 123:-0.80585587 124:-1.9753062 125:-1.0591856 126:-0.22897314 127:0.52231866 128:1.0245314 129:-1.0266581 130:0.36895031 131:-0.35934481 132:0.53446954 133:-0.19705385 134:-0.0071493159 135:0.80352539 136:0.18686435 137:-0.54670966 138:0.55196631 139:0.14627375 140:0.72991329 141:0.023654364 142:-1.2161906 143:-0.279167 144:-0.74468035 145:-0.060432769 146:-0.051785391 147:-0.58019817 148:0.27645329 149:1.084263 150:-0.47683328 151:-0.54349834 152:1.2996597 153:-0.63784605 154:-1.2396743 155:-1.2758846 156:-0.27392504 157:0.67068022 158:1.3485323 159:-0.2571809 160:-0.99259675 161:1.4680089 162:-0.76619732 163:0.33772621 164:-0.90104932 165:-0.22271669 166:0.97409403 167:0.077203222 168:0.16246565 169:-0.59227979 170:0.77598435 171:-0.12132021 172:0.318692 173:1.2836466 174:0.98035192 175:0.43702716 176:-0.54447746 177:0.47043937 178:2.3190501 179:-1.4774235 180:-0.52956724 181:0.37881768 182:0.89704448 183:0.16465715 184:-1.5423235 185:0.26434848 186:1.0041264 187:-0.17725122 188:-0.28151166 189:0.29186603 190:0.55090487 191:0.71496415 192:-0.44933462 193:0.92335176 194:1.0005728 195:0.071176693 196:1.2198501 197:-0.080474511 198:0.48617589 199:0.67436212 
0.4700502773100078 0:0.045680981 1:0.70738864 2:0.61397082 3:0.6452235 4:1.1298865 5:0.018514186 6:0.63253504 7:1.1391917 8:0.87368542 9:0.5253796 10:0.053926907 11:0.47198629 12:-0.64299941 13:0.74830973 14:0.54445428 15:1.5766196 16:0.0085944524 17:1.0967606 18:0.60294133 19:0.2156734 20:-0.10104151 21:0.63837159 22:1.0772716 23:0.039217439 24:1.083192 25:0.6827839 26:0.14924538 27:1.2385539 28:0.42649516 29:0.35621032 30:0.16868404 31:0.63286793 32:-0.24852903 33:0.098740973 34:1.4275872 35:-0.13797435 36:0.21115145 37:0.389568 38:0.88805234 39:-0.016593594 40:-0.095345028 41:0.63039726 42:0.66881615 43:1.50489 44:1.6017439 45:0.20148529 46:0.67134482 47:0.28203437 48:-0.013735437 49:0.65505397 50:0.83072978 51:0.89864856 52:0.31234786 53:-0.67162091 54:0.79884267 55:1.9751096 56:1.1013969 57:1.6414582 58:1.4602002 59:0.14979561 60:0.76196986 61:0.037920047 62:0.49964198 63:0.25253329 64:0.07067249 65:0.63257843 66:-0.22553982 67:-0.29670483 68:-0.21506526 69:0.59455925 70:0.33653516 71:0.92152649 72:0.030697234 73:1.2181849 74:0.2707881 75:5.4831896 76:3.1221206 77:1.9279283 78:0.19550005 79:0.49144247 80:0.27819902 81:0.05287122 82:1.853475 83:1.8192518 84:0.4649429 85:1.4737091 86:0.52190197 87:1.1330049 88:-0.30051875 89:1.1962038 90:0.76965082 91:1.2476941 92:1.1762073 93:1.3198875 94:-0.38349196 95:1.4565939 96:0.96738243 97:0.94924176 98:1.9637153 99:0.59379095 100:1.3709207 101:1.6026402 102:0.62605286 103:0.51393723 104:0.62277567 105:0.95439482 106:-0.38631883 107:1.4087994 108:-0.28894866 109:0.66863239 110:0.76858979 111:0.026402701 112:1.108601 113:0.75323033 114:0.017994381 115:0.72030813 116:0.23700385 117:1.5314169 118:0.95135981 119:-0.33099714 120:0.91189134 121:-0.063937552 122:0.28550699 123:1.9268601 124:1.4937238 125:1.5875092 126:0.4131628 127:-0.068717569 128:1.1712672 129:-0.43357593 130:0.50305408 131:1.269896 132:0.27443656 133:1.2382681 134:1.3577589 135:0.64214307 136:0.29866114 137:1.4885089 138:0.31939113 139:1.6070694 140:0.17349195 141:1.1727302 142:0.97939098 143:0.48922002 144:0.028588789 145:0.057087783 146:-0.016054161 147:1.0089682 148:1.3873672 149:1.3575226 150:1.1431109 151:-0.028837532 152:1.0062513 153:0.4883838 154:0.77931488 155:0.95642889 156:1.1797167 157:-0.42934722 158:-0.51425892 159:0.083257146 160:1.0141604 161:0.7660678 162:1.4038709 163:-0.82975632 164:0.25775558 165:1.1757485 166:1.2445607 167:1.1748478 168:1.5153019 169:0.053067293 170:0.72867823 171:-0.26024982 172:0.50876087 173:0.70642537 174:0.87538701 175:0.9105261 176:2.7009265 177:-0.40927351 178:0.52289087 179:0.41155875 180:0.10184064 181:1.2760534 182:0.30833808 183:0.90552044 184:1.0605197 185:0.28402513 186:0.045190603 187:1.3987744 188:0.90630823 189:1.971366 190:1.6061594 191:1.148782 192:0.78020215 193:0.0031588315 194:1.3149887 195:1.072408 196:0.71259505 197:0.68728453 198:0.34987259 199:0.89641082 
0.2877406999420526 0:0.49268764 1:0.497969 2:1.0468946 3:1.6724113 4:0.32862964 5:1.7241588 6:0.67986441 7:0.78219801 8:1.0139616 9:0.78727823 10:0.67223126 11:0.31559518 12:1.1761875 13:1.6048598 14:0.4886921 15:1.497474 16:0.41586149 17:1.5629963 18:-0.026072012 19:1.5012914 20:0.4387739 21:0.92053831 22:0.21565837 23:0.19305293 24:-0.14235596 25:1.0711178 26:0.72078604 27:0.9797399 28:0.52920181 29:0.85776228 30:1.2995833 31:0.66508633 32:1.7318411 33:0.29501417 34:1.2228372 35:-0.12299853 36:0.0095858593 37:0.56756997 38:-0.20213675 39:0.94308943 40:0.70421404 41:0.80006301 42:0.44598013 43:0.46153 44:1.4879239 45:0.8396315 46:1.2133249 47:1.7780243 48:0.85044175 49:1.3131058 50:0.8940028 51:0.97450387 52:1.9696498 53:1.3619075 54:0.75628662 55:1.0318927 56:1.6923711 57:1.7286518 58:1.0375756 59:0.12006978 60:1.2656006 61:1.5125037 62:0.80867594 63:2.2052343 64:0.6932407 65:1.2922393 66:1.0836556 67:1.1094679 68:2.0702701 69:1.2825209 70:0.1141641 71:0.96580106 72:0.069846034 73:0.69799596 74:0.70615059 75:0.83680826 76:0.51932788 77:1.5653886 78:1.6949404 79:1.0688432 80:2.9027197 81:0.87456477 82:1.4264961 83:1.3535826 84:0.54350865 85:0.79716909 86:0.80451912 87:1.5546787 88:0.33706957 89:0.83994967 90:2.0800388 91:0.98280364 92:1.1582594 93:1.3921487 94:1.2973692 95:1.2156971 96:0.87436604 97:0.98843348 98:0.11575757 99:-0.076652072 100:-0.15119641 101:0.2657842 102:0.71203965 103:0.17509969 104:0.3155759 105:1.0988814 106:0.9217236 107:1.2311813 108:2.8846319 109:0.87895656 110:0.68592924 111:1.3307319 112:0.87017155 113:-0.093689084 114:0.81917506 115:0.93324262 116:1.382508 117:0.52228385 118:0.061189085 119:1.073179 120:0.029777789 121:0.59438676 122:1.0485834 123:0.21666342 124:1.2025608 125:1.8833572 126:2.2522969 127:0.78426778 128:1.1010727 129:1.7187145 130:0.57720768 131:1.00292 132:0.69483095 133:0.76279002 134:-0.37084946 135:1.6350158 136:0.94508058 137:0.044201653 138:0.62787646 139:1.4898747 140:0.3733536 141:1.7906575 142:1.0934386 143:1.9360251 144:2.0018613 145:1.0399742 146:1.2228291 147:0.55164933 148:0.69051433 149:1.2826401 150:1.1757863 151:0.30541334 152:1.2456704 153:1.6317506 154:0.98104167 155:2.1429954 156:0.5664134 157:1.6528827 158:1.2183365 159:-0.089474507 160:1.0789059 161:0.71414077 162:1.2466033 163:1.3965884 164:1.8993828 165:1.4597089 166:2.0755625 167:0.95949864 168:0.81697088 169:1.0388315 170:0.19913229 171:0.90240216 172:0.85948157 173:-0.081218109 174:1.2760546 175:1.0733902 176:0.23164809 177:0.8751213 178:1.1191481 179:1.2344291 180:0.55645895 181:0.34349871 182:0.8832069 183:1.4087323 184:1.7445518 185:1.8699789 186:1.3731502 187:1.2390071 188:0.56199396 189:0.69399691 190:0.25550365 191:1.1434994 192:1.2310526 193:0.71210992 194:1.6255929 195:0.63548839 196:1.0863653 197:1.0809363 198:0.70953256 199:0.9684993 
0.4808442502966402 0:-3.1883197 1:-0.97400975 2:-0.63580108 3:0.4959619 4:-0.27513048 5:0.19933327 6:0.47358936 7:-2.5710163 8:-0.7655713 9:-2.4363494 10:-0.63473618 11:-1.4406968 12:-0.22887297 13:0.31344679 14:-0.55395889 15:-1.2226094 16:-4.1401057 17:-0.49861455 18:0.23830706 19:-0.40047693 20:-0.27988181 21:-2.1415575 22:0.029428232 23:-0.40533361 24:-0.44649675 25:-3.1624906 26:-0.82867998 27:-2.6144092 28:-4.5182538 29:-1.9666039 30:-0.30970001 31:-4.463501 32:-4.4681902 33:-0.41088659 34:-1.1321583 35:-0.01991313 36:-0.12025063 37:-4.3133621 38:0.61296237 39:-1.3680631 40:0.92330271 41:-4.0644436 42:0.38378474 43:-0.98433691 44:-0.95985568 45:-1.3075813 46:0.38441914 47:-0.31941479 48:-2.3550129 49:0.7925936 50:-3.482017 51:-4.1591892 52:-0.1418443 53:-0.05303929 54:-3.5428576 55:-0.79978573 56:-1.6801962 57:-1.6424978 58:-0.71058005 59:0.040053107 60:-2.7297533 61:-2.8512003 62:0.49345544 63:-2.2727058 64:-4.0573287 65:-0.29957548 66:-2.6494665 67:-2.1543608 68:-2.0477154 69:-1.0172842 70:-1.5526413 71:-3.2342606 72:-0.57433647 73:-1.199308 74:-2.9747872 75:-0.43076658 76:-3.3236616 77:-1.5925902 78:-3.9416456 79:-4.0813527 80:-3.1054721 81:0.89726019 82:3.9175923 83:1.0911837 84:-3.8935184 85:-1.4377196 86:-1.4280339 87:-1.5456597 88:-3.9908893 89:-1.3461552 90:-1.3673867 91:-0.56129354 92:-1.4309765 93:-0.21030796 94:-3.4454901 95:-1.2068117 96:-1.531827 97:-2.2221467 98:0.085407995 99:-1.5278566 100:-0.11275388 101:-0.50395697 102:-3.4359465 103:-1.0609244 104:1.6456678 105:1.157454 106:-3.225847 107:-1.40856 108:-1.1016874 109:-3.4225247 110:0.40443784 111:-0.58034116 112:-1.6019859 113:0.16000152 114:0.39763722 115:-0.26293382 116:-3.8950629 117:-1.9119071 118:-0.10508925 119:1.2857873 120:-0.49373731 121:-2.4586728 122:-0.21774739 123:-1.293337 124:-1.1683617 125:-0.27542457 126:-1.2764763 127:-1.953126 128:-1.0107661 129:-0.3619886 130:-3.840416 131:-0.24468347 132:-3.20906 133:-0.0060904655 134:-0.54757708 135:-4.2671089 136:-0.51206571 137:-1.2221406 138:-0.27670461 139:-0.54986292 140:-0.14544502 141:-3.6568055 142:-1.0364448 143:1.1302607 144:-0.93718261 145:-2.6893816 146:0.32452485 147:-0.87453926 148:-1.6491539 149:-0.59098965 150:-0.90848237 151:-0.8608622 152:-3.3610945 153:-2.5930862 154:-0.63068026 155:-0.69906092 156:-0.22208709 157:-2.7226028 158:-3.9133382 159:0.2029759 160:-1.5027059 161:-4.698709 162:-2.6710935 163:-3.134445 164:-0.49861699 165:-0.71387064 166:-0.95613801 167:-0.01801981 168:-0.38752475 169:-0.14893045 170:-0.55207926 171:-2.386075 172:-1.0507388 173:1.0647745 174:-0.29940167 175:0.63761872 176:-1.2140012 177:-3.3415482 178:-0.8202818 179:0.49684426 180:-0.57228851 181:-0.5022496 182:-3.4450474 183:-3.8748002 184:-1.3665471 185:-1.7315885 186:-4.1994076 187:-1.5564739 188:0.17728131 189:-0.039613649 190:-0.068892352 191:-0.38914993 192:-3.0545561 193:-1.9839861 194:-0.49292785 195:0.043900166 196:-0.40052602 197:-0.79899174 198:-3.0421627 199:-0.15222247 
0.1523301573584722 0:1.0161097 1:1.4292397 2:-1.5707737 3:0.37122568 4:-0.21276739 5:-1.2486959 6:-0.082223885 7:0.24833404 8:-0.24892783 9:-0.45246202 10:-0.094682835 11:0.55424172 12:-0.28590947 13:-0.33409652 14:-0.27141005 15:-1.0443896 16:0.76304984 17:0.82084107 18:0.48331773 19:0.20443104 20:0.61769807 21:0.95530248 22:-0.37312123 23:-0.43328053 24:-1.6351119 25:0.81147838 26:1.2020994 27:0.67904985 28:0.26858166 29:-0.21202084 30:-0.066371068 31:0.73102194 32:0.21965304 33:1.70069 34:1.0236336 35:0.32942832 36:-0.66709238 37:0.25467205 38:0.053386081 39:-0.34169164 40:-0.39288521 41:0.25315952 42:-0.72317785 43:0.23166034 44:-0.27033478 45:-0.3713758 46:-0.56210679 47:0.39932898 48:-0.2732875 49:0.26214641 50:0.28827542 51:0.46366611 52:1.0167487 53:-0.057007875 54:0.47140026 55:0.86882967 56:0.61224645 57:-0.051507041 58:-0.5250293 59:-1.9810598 60:-0.47328186 61:0.6070056 62:-0.26383701 63:0.34351811 64:0.59504801 65:0.2866284 66:-0.30890945 67:0.53299749 68:-0.1761819 69:-0.48257446 70:-0.22324322 71:0.77812898 72:0.084004208 73:-2.2630715 74:0.35641 75:-0.91938758 76:0.651622 77:-0.026884086 78:0.09086477 79:0.54649949 80:0.27391997 81:-0.74886692 82:0.69269949 83:0.70979333 84:0.71214646 85:4.2183743 86:1.4283473 87:0.65722609 88:1.0794431 89:0.43009901 90:1.0572819 91:0.12000605 92:-0.10067767 93:-0.2002454 94:0.38774839 95:0.55233079 96:0.21399364 97:0.71097028 98:-0.35925257 99:-0.65450203 100:0.25143179 101:-0.54991716 102:-0.75825286 103:0.14570108 104:-0.66176319 105:-0.84679532 106:-0.48147291 107:0.19618326 108:1.3386844 109:0.096239612 110:-1.2778014 111:1.9813859 112:-0.97024971 113:1.2782456 114:0.61775959 115:0.10693515 116:1.0606542 117:0.40074462 118:1.0895685 119:0.75988269 120:0.68350577 121:-0.11225305 122:-0.099675894 123:-0.88447094 124:0.26040336 125:-1.0159156 126:1.1898762 127:0.037232872 128:-0.85494989 129:0.74937147 130:0.48717782 131:1.0444577 132:-0.10561758 133:-0.62113178 134:1.1744294 135:0.16858423 136:-1.1100067 137:-0.44906968 138:0.28138402 139:-0.740843 140:-0.47639859 141:1.269749 142:-0.25333112 143:-1.6059502 144:1.370694 145:0.6215573 146:-0.72937489 147:0.36106285 148:-0.10687738 149:0.091731615 150:0.97634882 151:-0.2090659 152:0.46590921 153:0.58788389 154:1.4631275 155:0.33531731 156:-0.099814922 157:0.3741174 158:0.57653224 159:-1.0208342 160:0.29045635 161:0.66057754 162:-0.017936947 163:0.58499658 164:0.31650671 165:-0.31602758 166:0.30402359 167:0.15127873 168:-0.67795736 169:-0.11116683 170:0.26032504 171:0.34782892 172:-0.80612618 173:-0.53682417 174:-0.5640505 175:-1.1705188 176:-0.085799247 177:-0.22175455 178:-0.69488281 179:0.022815075 180:1.4828266 181:0.014694975 182:-0.15152243 183:1.376909 184:-0.11025137 185:0.48821533 186:-0.4085165 187:1.0044206 188:1.0032146 189:-0.46150836 190:-1.3791301 191:0.39462548 192:0.22935492 193:0.81711107 194:0.40669754 195:-0.56782663 196:1.1856282 197:-1.3344777 198:-0.42117018 199:0.42175576 
0.8431409792497555 0:0.24111103 1:-0.023576476 2:-0.37321559 3:-1.1638591 4:-0.14556076 5:1.4439331 6:0.24744037 7:-1.0211911 8:-0.92182982 9:1.0944798 10:-0.47750619 11:0.40254289 12:-0.46663043 13:1.6969723 14:-1.169832 15:-0.64170009 16:-1.2529612 17:-0.86868995 18:-1.2786877 19:1.3528914 20:-0.053576346 21:-0.29089844 22:0.84708196 23:0.087698646 24:1.4723907 25:-0.26225892 26:0.3101027 27:-1.0730072 28:-0.47839472 29:-0.54068083 30:-1.5862497 31:-1.5444003 32:0.3552078 33:-0.70343167 34:-1.3136786 35:-0.10848006 36:-0.37086082 37:-0.19604667 38:-0.79571593 39:1.2764013 40:0.26723987 41:-0.35457638 42:-0.42240942 43:-0.05602935 44:-0.74381411 45:-0.13253978 46:0.68079281 47:-0.49132252 48:-0.62900597 49:0.6588645 50:0.29283306 51:0.65032881 52:0.78176045 53:0.45660266 54:0.41805097 55:0.038418796 56:-0.24083132 57:-0.89876288 58:-0.87298781 59:-0.38281018 60:-1.046958 61:-0.56904364 62:-0.016280707 63:0.22594528 64:-1.3448954 65:1.8455578 66:0.051376466 67:-1.646875 68:-0.38828215 69:-0.18936682 70:-0.24430521 71:-0.58661491 72:-0.32399103 73:0.91672826 74:-0.78119195 75:0.37296548 76:0.43395659 77:-0.37911439 78:-0.37453386 79:-0.013911447 80:-0.45800966 81:-1.6099386 82:-0.89218491 83:-0.9019419 84:0.25762913 85:-0.60089284 86:-0.16333392 87:1.3836615 88:2.4265354 89:3.4928913 90:-0.23129311 91:0.79051977 92:-0.17760833 93:-0.39822114 94:-0.37199026 95:-0.27622578 96:-0.79564238 97:0.061415624 98:-1.4815334 99:-0.67127913 100:0.59968823 101:0.11179636 102:-0.98418546 103:-0.1395987 104:-0.11447213 105:0.34802076 106:-0.29395413 107:-0.80588657 108:0.072260328 109:-0.30663207 110:-0.32862544 111:-0.95609772 112:-0.54320824 113:-1.3719072 114:-0.19113885 115:0.28754008 116:-0.50876886 117:-0.58206874 118:-0.53822476 119:-0.026975613 120:-0.75499231 121:-0.64112639 122:-0.60946685 123:-0.40680477 124:0.64399785 125:0.23925908 126:0.57156622 127:-0.59812784 128:-0.6539551 129:-0.073779002 130:-0.015216767 131:-0.16587481 132:-0.75939065 133:-0.18595417 134:0.30574554 135:-0.42951307 136:-0.14382634 137:-1.1319807 138:0.16064158 139:-0.44623801 140:2.0810692 141:-0.40218535 142:-0.22429356 143:-0.046323206 144:1.0460823 145:-0.10566639 146:1.0390153 147:-0.4504678 148:-0.74636662 149:0.3809118 150:0.17533299 151:-0.59593296 152:-0.66986561 153:-0.89075452 154:1.49283 155:0.7255128 156:-1.4440161 157:-0.6817978 158:-1.4123889 159:-0.57835376 160:0.18668111 161:-0.77316624 162:1.2630088 163:-1.108297 164:1.7344543 165:-0.32109717 166:-0.58669013 167:0.58562016 168:1.5462075 169:-0.37049076 170:-0.047786769 171:-0.21591845 172:-0.078407519 173:-0.50670332 174:0.62887961 175:-0.77094966 176:-0.91639668 177:-1.2537774 178:-0.50238842 179:1.2699552 180:-0.63787395 181:-0.93983245 182:-0.93138444 183:-1.3962389 184:0.22180028 185:-0.018474551 186:-1.5907856 187:0.25186831 188:-0.55848414 189:-0.16736077 190:0.075822577 191:-0.14978786 192:-0.18669689 193:-0.80388933 194:0.94446307 195:0.63118333 196:-0.68063509 197:-0.47752881 198:-0.62408608 199:-0.94413483 
0.7452765604640689 0:-1.3741214 1:-1.0568783 2:1.3165983 3:-0.28882456 4:-0.046691284 5:-0.15046825 6:-0.54591238 7:-0.1860435 8:-0.01730234 9:-1.3701037 10:-1.1496793 11:1.1847496 12:-0.42909229 13:0.5826813 14:-0.32744429 15:0.50637949 16:-0.49788696 17:-0.0086432174 18:-0.53369373 19:0.92749161 20:-0.65858215 21:-0.83678019 22:-1.6611711 23:-0.29441249 24:-0.59549165 25:-0.077146359 26:0.96580225 27:0.65614045 28:0.56462461 29:-1.0076817 30:0.29636064 31:-0.9461782 32:-0.076897249 33:-0.056487203 34:0.037165023 35:-0.37608191 36:0.89383966 37:0.2521148 38:-0.51981437 39:-1.1128114 40:0.66719449 41:-0.091940291 42:-0.40743685 43:-0.88232398 44:0.57298887 45:0.42445648 46:1.0675901 47:1.2092788 48:-1.4221036 49:-0.6430881 50:0.34025919 51:0.50479597 52:-0.37624899 53:-1.0450608 54:0.4569428 55:0.60019046 56:0.57358754 57:-1.7486994 58:0.95254445 59:0.32058603 60:0.61404121 61:-0.97539806 62:0.4510138 63:0.14291342 64:-0.50086778 65:0.65254456 66:0.37606454 67:0.18356141 68:-0.55502677 69:0.82745117 70:-0.56788218 71:0.25493258 72:-0.48018751 73:-0.34644425 74:0.76078981 75:0.79393899 76:-0.10019786 77:-0.24433951 78:0.11574441 79:0.28502485 80:0.19695692 81:-1.0501571 82:-1.1455625 83:-0.77364933 84:0.30225778 85:0.94801718 86:0.066845179 87:0.74751949 88:-0.65996343 89:0.95769823 90:3.5950091 91:4.5329785 92:2.9396083 93:0.66121769 94:-0.39668822 95:0.22290033 96:-0.03597378 97:0.08027152 98:-0.90002364 99:-0.2991879 100:-0.30953491 101:0.35966152 102:0.30741957 103:-0.18191674 104:-0.49337092 105:1.4797094 106:0.99809432 107:0.78440219 108:0.2505177 109:-0.078656606 110:0.70464373 111:-0.6271891 112:0.90296704 113:-0.38791767 114:-0.66209 115:-0.048473433 116:-0.13333988 117:-1.9640449 118:0.097573943 119:-0.31911445 120:-0.96722025 121:0.12908129 122:-0.60010266 123:-1.0824122 124:0.051905513 125:1.2144203 126:0.87769377 127:0.7146709 128:-0.48909003 129:1.1679901 130:0.32307479 131:-0.097685203 132:0.022873985 133:0.19146325 134:0.6558975 135:-0.0041072657 136:-0.11966715 137:-0.14377749 138:-0.94142902 139:0.24997903 140:-0.80089933 141:-0.23230681 142:0.91752058 143:0.050233509 144:-0.48143575 145:0.40741944 146:-0.86146128 147:-0.59343243 148:-1.1477723 149:1.1335526 150:-0.23393342 151:0.53206766 152:-0.54332966 153:-0.92041004 154:0.026603682 155:0.3787958 156:-0.26681462 157:0.26607642 158:-0.10518824 159:0.10011261 160:-0.27126139 161:-0.20093444 162:-0.12906019 163:-0.81198049 164:-0.70782566 165:-0.8326537 166:0.6941703 167:-0.92095333 168:1.7504519 169:-1.4792399 170:-0.8496725 171:-1.1237389 172:-0.401007 173:-0.95731962 174:0.054790005 175:-0.28095162 176:-1.1439698 177:-0.62373257 178:0.39078316 179:0.43992001 180:0.040008824 181:-0.57959825 182:0.22996582 183:0.11750755 184:0.77717686 185:0.13409866 186:-0.48872435 187:-1.2810931 188:-0.22848098 189:-0.26631182 190:-1.2949432 191:-0.87831497 192:0.28295344 193:0.037786022 194:-0.99419367 195:-0.080485277 196:-0.64594758 197:0.13183494 198:-0.010037799 199:-0.0053363661 
0.4361624956510733 0:-0.23685332 1:0.71645534 2:0.23484279 3:-0.75461137 4:-1.4184333 5:-0.9667213 6:0.61355793 7:-0.063207373 8:-1.4669079 9:-1.037922 10:-0.64464915 11:-0.74114609 12:0.26341796 13:-1.0093079 14:0.56692857 15:1.3865578 16:0.23099138 17:0.15984835 18:-1.8045614 19:-0.62110281 20:-0.16351375 21:-0.11119165 22:-0.26324022 23:1.2888823 24:-0.89855736 25:-0.91163856 26:-0.66711402 27:1.1459786 28:-0.57730019 29:0.21330051 30:-0.94562864 31:0.60976195 32:-0.84131342 33:-0.42071137 34:-0.61097771 35:-0.43539011 36:-1.0183316 37:0.2552954 38:-0.34667495 39:-0.24151103 40:-0.8784678 41:-0.19051711 42:-0.54272497 43:0.31235808 44:-0.76778597 45:0.93214941 46:1.252273 47:1.2235374 48:1.1350074 49:0.96656215 50:-0.58015501 51:-0.3446418 52:0.58801323 53:-0.7369135 54:-0.79750031 55:-0.015106396 56:-0.29226077 57:-0.08531934 58:-1.2152879 59:-0.53456914 60:-0.13495006 61:0.57714546 62:-0.26774746 63:-0.38917449 64:0.23653953 65:-0.35781989 66:0.01465947 67:-0.2710833 68:0.030920295 69:0.8707006 70:0.41977397 71:-0.21676061 72:0.15810925 73:-1.4325948 74:0.42465064 75:-1.0904043 76:-0.15838957 77:-1.2017794 78:0.50806659 79:-0.7631278 80:-0.93867582 81:-0.48055166 82:-0.79804927 83:-1.3105868 84:-0.1641816 85:0.093714394 86:0.11288353 87:-0.98473895 88:-0.50762981 89:-0.84722793 90:-0.67256892 91:-0.63682759 92:0.20099308 93:2.9469206 94:-0.047661297 95:5.0531964 96:0.5606643 97:-0.026119288 98:1.3455169 99:1.2686327 100:-0.761729 101:0.16444917 102:-0.020148061 103:0.48769981 104:0.35393175 105:-1.487913 106:0.24318279 107:-0.86072141 108:-1.6611413 109:0.24124244 110:-0.64372969 111:-1.0107713 112:0.15327899 113:-0.86558747 114:-0.24443795 115:-0.58554429 116:-0.31175542 117:-0.59934753 118:-0.44828716 119:-0.55455041 120:-0.92029881 121:0.14424615 122:1.1144104 123:1.5939957 124:-0.23068005 125:-0.72288066 126:1.059454 127:0.12723336 128:-1.0466977 129:-0.59978086 130:-0.69644856 131:-0.78981793 132:0.42440534 133:-0.36096466 134:1.0810717 135:0.54136521 136:1.1112046 137:-0.97522461 138:0.36111382 139:1.0878845 140:-0.19280085 141:0.26159751 142:-0.47915787 143:-0.039932176 144:-1.3266734 145:-0.39239636 146:-0.45236719 147:0.73354769 148:-0.87640202 149:0.55845326 150:-0.85026294 151:0.010792335 152:-0.8912372 153:-0.76640141 154:-1.0955671 155:-1.1785939 156:-0.76798123 157:0.045455843 158:1.2178566 159:-1.040617 160:-1.1718041 161:-0.17415281 162:0.5237413 163:-0.72926563 164:-1.24073 165:-0.92111754 166:-0.042399615 167:0.61931401 168:-0.011160359 169:0.62480962 170:-0.63006347 171:0.14321499 172:-0.21536626 173:-1.7956821 174:0.3503629 175:-0.85430539 176:-0.60983604 177:0.45463911 178:-0.52592057 179:-1.5661175 180:0.31987193 181:-1.0296483 182:0.58004016 183:-0.26808953 184:0.38397568 185:0.30215171 186:0.78231043 187:-0.78462201 188:-1.3072501 189:-0.060632296 190:0.1190766 191:-0.85890895 192:0.40479827 193:-0.3939876 194:-0.22407255 195:-0.63604909 196:-0.40193251 197:-0.62920302 198:-0.21577094 199:0.40180477 
0.8023976957104031 0:-0.51189941 1:-0.92792422 2:-0.15139259 3:-0.45344755 4:-0.19320729 5:-0.86367589 6:-1.2710633 7:1.1767918 8:-1.260711 9:-0.62250847 10:-1.4212379 11:-1.1509209 12:-0.66585678 13:-0.75004721 14:-0.40581191 15:-2.6264927 16:-0.071478345 17:0.53664136 18:1.0582054 19:1.6750455 20:0.38255793 21:0.91896206 22:-0.94305098 23:-0.7752111 24:-0.56328034 25:0.19094953 26:1.3210051 27:-0.61624938 28:-0.028000016 29:0.35267913 30:1.1442634 31:0.98047906 32:0.38843891 33:-1.0618585 34:-0.65300447 35:-0.34145886 36:0.4995454 37:0.18763964 38:-1.2750683 39:-0.41776916 40:-1.2790892 41:-0.18560225 42:-0.56146759 43:0.41114232 44:0.34209487 45:-0.41173941 46:-0.4808791 47:0.18192939 48:-0.51120031 49:0.21158288 50:0.37119013 51:0.34639394 52:-1.1387407 53:0.27891457 54:0.2383032 55:-0.24372217 56:-0.67014271 57:-0.49365801 58:-1.0458233 59:-1.5223209 60:-0.52533472 61:0.14567296 62:-0.13784978 63:-0.61927783 64:-0.002073338 65:0.98228121 66:-0.58714658 67:1.1368313 68:-1.2110274 69:0.56964493 70:-0.28431952 71:1.0168157 72:-0.10335468 73:-1.0537517 74:-0.59917796 75:-0.54247653 76:-0.11813942 77:-2.2115879 78:-0.15879013 79:0.19110999 80:0.061678536 81:-1.3242719 82:-0.6152572 83:-0.02882001 84:0.24783541 85:1.0356762 86:-0.73405313 87:0.5119459 88:1.0343027 89:0.19848476 90:1.1532912 91:-0.78581196 92:-0.98602617 93:-0.82282072 94:1.2180049 95:-0.76601934 96:2.4073374 97:4.1216936 98:-0.84390271 99:-2.607717 100:-0.16180338 101:-0.89423472 102:-1.6084096 103:-0.14241624 104:-0.94770306 105:-1.1655115 106:0.72963834 107:-1.4131862 108:0.37718174 109:0.63645005 110:-2.1805565 111:-0.63992244 112:-1.4911218 113:0.3999851 114:0.48239005 115:0.012390628 116:0.37908804 117:0.39188519 118:0.19373262 119:-0.17218941 120:-0.37362489 121:-0.24104252 122:-0.57735085 123:-0.86136025 124:0.1903024 125:-1.0250142 126:-0.7077558 127:-0.96425247 128:-0.75810468 129:0.053121589 130:0.23233719 131:-0.91537875 132:-0.66244853 133:-0.63713783 134:-0.087649368 135:0.08903937 136:-1.263189 137:1.7448447 138:-0.23219308 139:-1.1818334 140:-2.424536 141:0.068232857 142:-1.113718 143:-1.1697454 144:-0.29393089 145:0.80392367 146:-0.41470972 147:-0.64736319 148:-0.53859031 149:0.97401488 150:-0.28462893 151:-0.048935317 152:-0.44215187 153:0.1844486 154:0.41576827 155:-0.63285404 156:-1.5978059 157:0.097938582 158:0.044054318 159:-0.6204471 160:-0.27368459 161:0.26376179 162:0.4003675 163:0.5882917 164:-0.9272511 165:-1.2623898 166:0.36647838 167:0.29589927 168:1.9272189 169:-0.2666381 170:-1.5174946 171:0.61720365 172:0.30795226 173:-0.68771231 174:-1.2217687 175:0.097117625 176:-0.74262089 177:0.25563619 178:0.19177279 179:0.075040169 180:-1.0513395 181:1.02142 182:-0.63325685 183:-0.53257757 184:0.72071892 185:0.49626103 186:-0.55438173 187:-1.0253614 188:-0.83662772 189:-0.61155754 190:-1.0987463 191:0.12471492 192:-0.031420965 193:-0.39256147 194:0.75669891 195:-1.4659127 196:1.8512647 197:-1.5582416 198:-0.3347533 199:1.577942 
