svm_type c_svc
kernel_type rbf
gamma 0.00502513
nr_class 2
total_sv 111
rho -0.374913
label 1 -1
nr_sv 56 55
SV
0.6352297999493677 0:-1.0170592 1:0.20756848 2:1.1679946 3:-0.36334249 4:6.2264261 5:1.7235504 6:0.034185652 7:-0.13106421 8:0.34410051 9:0.65032107 10:0.65263784 11:0.11251591 12:0.54690993 13:0.97937101 14:-0.17772803 15:-0.27628627 16:-0.019485986 17:1.3132536 18:0.78534436 19:-1.2121148 20:0.49110788 21:-0.36092344 22:1.8745879 23:-0.67783403 24:0.19165303 25:1.5080197 26:-0.82462019 27:1.4715374 28:1.1809543 29:-1.1574759 30:-0.69946551 31:-0.93340594 32:1.1721743 33:-0.80564594 34:0.069161981 35:0.028121511 36:0.28776515 37:0.10830587 38:-0.54266363 39:0.81728637 40:0.52162188 41:0.53602594 42:-0.067160107 43:0.25109002 44:1.0413045 45:0.078833997 46:-0.35704648 47:-0.2259133 48:0.13059382 49:-0.35950658 50:0.25494695 51:0.74852568 52:-0.81973314 53:1.6070966 54:0.39098692 55:-0.61334258 56:0.37622827 57:1.6186161 58:1.7049594 59:-1.1878455 60:0.35455987 61:-0.10688061 62:-1.1969 63:-0.53023571 64:-0.013381866 65:0.055541724 66:0.62102187 67:0.56894797 68:-1.2234809 69:0.073125094 70:0.57765383 71:-0.7015512 72:-1.5450528 73:-0.43715382 74:0.57606584 75:-0.30360007 76:-0.58667314 77:0.60809171 78:0.11373226 79:0.29960552 80:0.23746109 81:1.0169635 82:-0.57600963 83:-0.97046155 84:-0.15275875 85:-0.51916075 86:-1.0532361 87:-1.0826145 88:-0.64950144 89:-1.0686178 90:-0.037471611 91:0.5466243 92:-0.061265569 93:-0.62011743 94:-0.95794636 95:-0.34565321 96:-0.55743945 97:1.2423295 98:0.19594336 99:1.2878511 100:-0.42853734 101:1.5884641 102:0.34466353 103:-0.36848241 104:-0.93231034 105:0.39242941 106:1.2561603 107:-0.27796409 108:0.10568634 109:0.072791182 110:0.51889974 111:-0.29298246 112:0.55842972 113:-0.36495104 114:0.83733588 115:-0.29210323 116:-0.30496815 117:-1.4922253 118:-0.1185863 119:-1.1144735 120:-0.21975833 121:-0.40707386 122:-1.1316497 123:-0.83391058 124:-0.89669853 125:-1.270117 126:-1.0596977 127:-1.1945764 128:-0.60103095 129:0.15280768 130:-0.19372557 131:0.73837268 132:0.20981543 133:-1.0610801 134:-1.6144767 135:-1.3922207 136:0.090832874 137:-0.18015109 138:-0.13773519 139:-0.37666634 140:-1.0878896 141:0.014462809 142:-0.87278444 143:0.89838737 144:-0.85485709 145:0.89296925 146:2.6232781 147:0.42485169 148:0.78686839 149:2.136641 150:-1.1344979 151:0.063404009 152:0.14663409 153:-0.49189121 154:-0.83987385 155:-1.5455719 156:0.22807816 157:-2.0816495 158:-0.44256991 159:0.57311285 160:0.91710746 161:-0.67980677 162:-1.2026206 163:1.2311441 164:0.82543182 165:0.58532935 166:-0.24426655 167:-0.10013028 168:1.1992232 169:-0.22239053 170:0.069673128 171:-1.3154129 172:0.99862123 173:-0.90237087 174:-0.39592919 175:-0.5412792 176:-1.1529061 177:-0.83026999 178:-0.54156786 179:-0.14233029 180:-0.33202133 181:-1.4741431 182:-1.0147694 183:0.59200329 184:-0.71289498 185:0.64935434 186:-0.4965471 187:-0.0018796924 188:-0.85530663 189:-0.61470175 190:1.4435362 191:-0.41102916 192:-0.82385367 193:-0.20277187 194:1.0012773 195:-0.6399492 196:0.43534049 197:-0.51526445 198:1.6337179 199:0.82826895 
0.8277967684744892 0:-0.42710498 1:0.12421791 2:-1.2071398 3:0.87386823 4:-2.1441143 5:-1.2917428 6:1.3588481 7:8.8904123 8:-1.0194365 9:0.38511178 10:-0.51777488 11:-2.5245805 12:1.5711222 13:-0.54464346 14:-1.638883 15:0.35027286 16:0.48534295 17:-0.49626252 18:1.2629888 19:-3.937629 20:-0.62998652 21:-0.27024257 22:0.96041244 23:-0.89217329 24:-0.091949649 25:-0.6855005 26:0.57744122 27:1.2112821 28:0.27083528 29:-1.2823428 30:-0.93839312 31:-3.0967572 32:-0.32507831 33:-0.75555736 34:-0.047066189 35:-0.11275054 36:-0.4600662 37:-1.5629222 38:-3.1222279 39:0.78622651 40:-0.20182084 41:-2.3729537 42:2.490679 43:0.76544684 44:-0.078637913 45:-0.39666423 46:-1.0308297 47:-0.017907053 48:-0.54878372 49:0.28762463 50:-2.9793847 51:-0.1570643 52:0.032987013 53:-0.39650992 54:-1.6618611 55:0.12946545 56:-1.8088944 57:-0.70072925 58:0.56837332 59:-0.22656985 60:-0.28728023 61:0.67334789 62:-2.5019805 63:-0.57363588 64:-1.3394355 65:-0.38843334 66:-0.287875 67:-0.86211038 68:-2.2088633 69:-0.45699054 70:-0.60396856 71:-2.451448 72:-2.5594671 73:-0.48283574 74:0.91445369 75:0.11384119 76:-2.7078216 77:-0.18977305 78:-0.59046155 79:0.77545202 80:-1.0551541 81:-1.2314272 82:-0.058783531 83:-0.64552891 84:-2.3089511 85:-1.1676328 86:-3.2055032 87:-1.1142422 88:-0.79217857 89:1.210552 90:-1.4720078 91:0.5856114 92:-4.2056851 93:-4.0342278 94:-2.9670792 95:-3.9729052 96:0.072617643 97:-2.2430773 98:0.011354629 99:-2.0801125 100:-3.0522435 101:-0.18358912 102:-3.821876 103:-1.5683718 104:-2.3368442 105:-2.961307 106:0.24539131 107:0.55192703 108:-1.23524 109:-1.3234093 110:0.46542549 111:-2.4772537 112:0.59891981 113:-4.9017591 114:-1.6027431 115:-0.39447948 116:-0.45464799 117:-4.9959326 118:-3.0764461 119:0.21607113 120:-0.10615319 121:-0.39988968 122:-3.2539709 123:-0.53083891 124:-2.8864305 125:-2.6386383 126:0.021829782 127:-4.0656514 128:0.71661729 129:-0.34491524 130:-0.5174005 131:1.085972 132:0.057211 133:-2.8979778 134:-2.1407599 135:-2.2136364 136:-1.071378 137:0.89620614 138:0.98326916 139:0.62302667 140:-3.8442159 141:-1.6575142 142:-2.3998048 143:0.038159516 144:0.007545046 145:-1.2178835 146:0.017289637 147:1.4108059 148:-2.8186352 149:-0.38641647 150:0.63670063 151:-4.0473499 152:0.18626915 153:-3.596597 154:-2.3361862 155:-2.8134248 156:-0.10786653 157:-2.0312133 158:-3.0707431 159:-0.3327716 160:-0.64653289 161:-3.365968 162:-4.5249362 163:-0.35720676 164:0.24323194 165:-0.044506595 166:-0.81779474 167:-0.74694401 168:0.062204674 169:0.3498109 170:0.35348696 171:-2.7884607 172:-3.2951725 173:-0.49483088 174:-1.1615355 175:-0.086743623 176:-2.9444239 177:-1.3543888 178:-4.1802063 179:0.89614844 180:0.4873116 181:-1.7267436 182:-0.41628468 183:-0.46666187 184:0.098132804 185:0.28883919 186:-2.1686423 187:0.52135384 188:-1.9532319 189:-0.074345976 190:0.27461308 191:-2.0457525 192:-2.3721128 193:-0.38456306 194:-1.1856641 195:-1.2974451 196:-0.062270742 197:-3.1404538 198:-2.0128505 199:1.062554 
1 0:-0.064932965 1:-0.6937179 2:0.17608994 3:-0.53279066 4:1.1752499 5:0.307955 6:-0.633178 7:-0.090589866 8:5.3002257 9:3.0060096 10:0.70807946 11:0.47582328 12:-0.50524372 13:0.84609979 14:0.27412289 15:-1.1490855 16:0.35746315 17:0.23155686 18:0.59216535 19:0.20205411 20:-0.48864254 21:-0.96364468 22:-1.0150604 23:0.21708764 24:-0.87619466 25:-0.2171279 26:-0.60499471 27:1.1450241 28:0.28157771 29:-0.91857135 30:-1.3717623 31:0.47725672 32:-0.4087579 33:-1.2117715 34:-0.92520249 35:1.784276 36:-1.3009188 37:0.93819529 38:0.91863793 39:0.73791927 40:0.40302053 41:0.78269625 42:-0.055403002 43:-0.956209 44:-0.63385898 45:-0.092965774 46:-0.98979974 47:-0.97796375 48:-1.3539349 49:-1.0420524 50:0.013016281 51:0.6166594 52:-0.3687903 53:2.2940485 54:0.75543362 55:-0.74505293 56:-0.19853315 57:0.3570582 58:-1.8275902 59:0.077602938 60:-1.0292343 61:-0.20959486 62:-0.073506586 63:-1.0192162 64:-0.51406223 65:-1.0313735 66:-0.14182176 67:-0.15503664 68:-0.12369528 69:0.70399362 70:-0.40697455 71:0.43417883 72:0.95237958 73:0.57196367 74:-0.075434096 75:0.68671942 76:0.34379897 77:0.78249192 78:0.1803264 79:-0.14207351 80:0.18423417 81:1.5771694 82:0.095818847 83:-0.011993332 84:2.1922247 85:-0.18590006 86:-0.11608429 87:-1.3826731 88:-0.95237803 89:-0.28186524 90:1.6972945 91:-0.34618461 92:0.091458648 93:0.79923868 94:-0.11604884 95:0.29730687 96:0.23739193 97:0.12331375 98:0.42010069 99:-0.27524054 100:0.16818717 101:0.1110204 102:0.77769589 103:-0.67680192 104:0.079837658 105:-0.40468761 106:-0.11431844 107:0.11309713 108:-0.60088032 109:0.31471226 110:1.2316421 111:0.091674566 112:1.589281 113:-0.12326971 114:-1.0316643 115:0.27662987 116:-0.23976189 117:0.48916164 118:0.50435543 119:-0.52894408 120:-0.1634163 121:-0.999704 122:0.15399967 123:0.92273843 124:0.52917784 125:-0.054872002 126:-0.033111487 127:0.84227145 128:0.45852846 129:-0.56632799 130:-1.4675925 131:-0.16598557 132:-0.46532142 133:0.37340257 134:0.33610848 135:0.089471944 136:-0.46855432 137:-0.10383938 138:-0.83448797 139:-0.51494253 140:0.40163922 141:0.33648682 142:1.0070491 143:-0.51486552 144:0.77471471 145:-0.098210216 146:0.092076674 147:0.44309556 148:-0.15160921 149:1.0492588 150:0.49071264 151:0.26388019 152:1.8366683 153:0.67579424 154:0.65772873 155:-0.054538611 156:-0.91698426 157:-0.27067053 158:0.071575753 159:1.0690713 160:-1.1759825 161:0.30687079 162:0.32029802 163:-0.075495422 164:-0.92870075 165:-0.62220222 166:-0.73393017 167:0.0024149648 168:1.8837556 169:-0.41867357 170:1.3958099 171:-0.173793 172:0.35010162 173:0.55380988 174:-0.78561801 175:-0.89023018 176:0.26010352 177:0.10057347 178:0.15869007 179:0.22038175 180:0.84371704 181:-0.39390475 182:0.82583487 183:-0.40574205 184:0.27926862 185:0.47574022 186:-0.43996865 187:-1.1377438 188:-0.00064342475 189:-0.26361418 190:0.052861027 191:0.531937 192:0.57086796 193:-0.078883499 194:-0.21083605 195:0.12346162 196:0.41840392 197:0.16052425 198:-0.015404136 199:0.5274334 
1 0:-1.117211 1:0.44359094 2:1.5692214 3:-1.4052982 4:0.070471264 5:-0.27670449 6:-0.14679709 7:-1.1460295 8:-0.19982991 9:-0.75000107 10:1.4259515 11:-1.7498735 12:9.0493422 13:4.6726155 14:-1.1301616 15:-0.27996308 16:-0.15674189 17:-0.048622347 18:0.22827351 19:0.65565068 20:1.0760761 21:-0.95988709 22:-0.65265882 23:-1.1747762 24:-1.2425262 25:-0.45991564 26:-0.97047222 27:-0.66233259 28:1.254728 29:-0.65616173 30:-0.97533959 31:-0.56855035 32:0.87754214 33:-1.4686089 34:-1.4635279 35:0.071656793 36:0.22310933 37:0.23015815 38:-1.5922446 39:-0.87683177 40:-0.020216033 41:-0.56374031 42:-1.812389 43:-0.34531391 44:0.43879506 45:-0.17946731 46:0.13661563 47:-1.2701927 48:0.10593454 49:0.20165788 50:0.38792077 51:-1.4853771 52:0.0078106239 53:-0.26509303 54:0.10516586 55:0.10215756 56:-0.82019728 57:-0.013791351 58:-0.78743476 59:-0.48879093 60:-0.87417406 61:0.40017095 62:-1.942585 63:-1.2581054 64:0.25447723 65:-1.3124847 66:-0.37319678 67:0.45301631 68:-0.5080083 69:0.21381268 70:0.81564057 71:-0.91143513 72:-0.92178774 73:-1.0994192 74:-0.073740192 75:-0.35645396 76:0.49243119 77:0.41951457 78:-0.41052744 79:-0.72560436 80:1.4606909 81:-0.53927445 82:-0.90128064 83:-0.3210257 84:-0.23881574 85:0.082028367 86:-2.1429586 87:-0.79929829 88:0.27502331 89:0.84812176 90:-0.23680651 91:0.42839944 92:-1.0854985 93:-0.81789494 94:-1.669116 95:0.49024126 96:-0.58692306 97:-0.13877356 98:-0.33556047 99:-0.05525665 100:-1.3420087 101:-0.72220188 102:0.035932939 103:1.1005083 104:0.9926396 105:1.5130481 106:0.1220055 107:-0.82258499 108:-1.0040392 109:-0.45748737 110:1.6690969 111:-2.2523448 112:-1.1210368 113:-0.7728498 114:-0.54536128 115:-0.33932304 116:1.7274458 117:-0.55901301 118:0.040504467 119:0.86049092 120:-1.1653326 121:-0.85543549 122:-1.7356465 123:-0.26007396 124:-0.93368804 125:-2.1666794 126:-1.1922691 127:-0.86431438 128:-0.19689938 129:-0.63673782 130:-1.4341812 131:2.1873493 132:-0.79548144 133:-1.15315 134:-0.35865992 135:-1.4412454 136:-0.91128981 137:-0.29298508 138:-0.47768497 139:-1.2453389 140:-1.8393359 141:-0.33913743 142:0.16103058 143:-0.49040642 144:-0.14899512 145:1.3947992 146:-0.61327577 147:0.3607069 148:-1.2742547 149:-0.022023709 150:0.49957502 151:-2.7433729 152:-0.45451447 153:-1.166167 154:-0.4382478 155:0.13820384 156:-1.0625218 157:0.88251972 158:0.4324539 159:-0.22436196 160:0.99062574 161:-0.3218596 162:-0.11007642 163:-0.47172514 164:1.1245955 165:0.64903575 166:-1.2845012 167:-0.82263547 168:-0.038350306 169:0.87182617 170:-0.86735576 171:-2.7825644 172:0.15377823 173:0.38356066 174:0.32223231 175:-0.89645976 176:-1.4344106 177:-1.5788869 178:-1.7652369 179:-0.5110094 180:0.047262788 181:-2.1442316 182:-0.88447547 183:-0.63103467 184:0.40151188 185:0.38472092 186:-1.3576329 187:-0.8810817 188:-1.1823721 189:-1.1151011 190:-1.7721015 191:-0.48076427 192:-0.59166902 193:-0.22643244 194:-1.601078 195:-2.0961385 196:-0.46128243 197:-2.0248504 198:-1.4112688 199:-0.068542071 
0.06853348172174697 0:-0.79266983 1:0.95742106 2:-0.1396185 3:-0.16009158 4:-1.0612074 5:0.31181452 6:0.13039187 7:-0.2277744 8:0.32139483 9:0.012976658 10:0.80596703 11:-0.025957596 12:-0.13817069 13:-0.84597367 14:-1.0798385 15:0.7872718 16:3.7490616 17:3.2449958 18:0.97018152 19:-1.8078024 20:1.2355416 21:-0.52659672 22:0.96659702 23:-0.4176091 24:0.029649036 25:0.53328961 26:0.69893527 27:2.0116987 28:0.88451123 29:0.67317963 30:0.077008516 31:-1.1234727 32:-0.38782075 33:0.5495019 34:-0.74428833 35:-0.22309789 36:2.0014267 37:0.71453547 38:-1.0275446 39:1.6136398 40:0.87908304 41:-0.99729884 42:-0.063792445 43:1.0543789 44:1.4471337 45:1.7950225 46:0.73431611 47:-0.57067466 48:0.72888631 49:0.83559173 50:0.30446258 51:0.55625808 52:0.53506655 53:0.60244387 54:1.4717969 55:0.85618728 56:-0.98040539 57:0.2488766 58:1.9507267 59:0.32662001 60:-0.52047229 61:1.0123161 62:0.54921991 63:1.3878082 64:0.27081388 65:-0.40963504 66:1.2213893 67:1.1627268 68:-0.50978762 69:0.2221591 70:0.21920183 71:0.9064095 72:-0.63937914 73:0.8435995 74:1.4079168 75:0.1361071 76:-0.53080082 77:1.0579386 78:-0.30417624 79:0.043731838 80:0.10667121 81:0.56202066 82:0.20054583 83:1.6329837 84:-0.93300647 85:-1.078758 86:0.40186039 87:-0.078616232 88:0.10293136 89:-0.48970154 90:-1.0131974 91:0.75003815 92:0.48887205 93:-0.33721048 94:0.22007219 95:-0.41374013 96:-1.7098615 97:0.23573329 98:0.80837661 99:0.65407258 100:0.13214609 101:1.0983571 102:0.59593463 103:0.84278178 104:0.35628775 105:-0.60553658 106:0.29977995 107:-1.0793457 108:-0.82548815 109:-0.45277172 110:-0.62369102 111:-0.085602261 112:0.67607087 113:-0.34662154 114:0.41304901 115:0.26316729 116:1.5173304 117:-0.26668802 118:-0.91815728 119:-0.058099888 120:1.3490232 121:-0.33115005 122:0.42517772 123:-0.20593145 124:0.43286148 125:0.44672599 126:0.85211587 127:-0.49012381 128:-1.2718451 129:-0.51452029 130:0.22208539 131:0.79758322 132:-0.04377516 133:0.28291491 134:-0.29742149 135:-0.59223247 136:0.59999329 137:2.271486 138:0.67559487 139:-1.1400533 140:-0.9438467 141:0.063427635 142:-1.2197193 143:-0.31849769 144:0.14602661 145:-0.7658484 146:-0.50659853 147:-0.3890653 148:-0.73366743 149:1.1358378 150:0.87344187 151:-0.15291491 152:-0.4979046 153:-1.2233719 154:-0.62227696 155:-0.44572252 156:-1.3509613 157:-0.11700381 158:-1.3197429 159:0.086732872 160:0.61095876 161:-0.19610552 162:-1.0245152 163:0.259314 164:1.4406697 165:-0.059405036 166:-0.12257754 167:-0.49224058 168:-0.28322989 169:-0.32742262 170:-0.059321307 171:0.34399962 172:-0.29708353 173:-1.5966313 174:-0.23058146 175:0.89418918 176:0.3798801 177:-1.2072328 178:0.006590961 179:-0.49548516 180:-0.088304967 181:0.19978771 182:-1.0741922 183:0.5523082 184:0.49631128 185:-0.82275236 186:-0.11006064 187:-0.85505581 188:0.39116535 189:-0.29135272 190:-0.37031069 191:-0.86563927 192:-1.9534529 193:-0.058069374 194:0.12698625 195:0.047300015 196:-0.29500943 197:-0.067271285 198:-0.026752116 199:1.2834922 
1 0:-1.2960174 1:0.20903088 2:-0.21809874 3:0.20779474 4:-0.48540816 5:-1.1613996 6:-0.28869516 7:-0.58147639 8:-0.4618699 9:0.45686525 10:-0.11423618 11:-0.36340636 12:-0.26204932 13:-0.43967864 14:-0.041239105 15:0.37856951 16:-0.049096216 17:0.80048501 18:1.867656 19:6.5619979 20:-0.18919757 21:0.46363813 22:1.0267212 23:-0.36680251 24:-0.12110872 25:-0.1450897 26:1.559236 27:-0.14983127 28:0.046489637 29:0.87852448 30:0.61615115 31:-1.2944337 32:-0.57100892 33:-0.34372166 34:0.86446357 35:-0.82798231 36:-0.52346212 37:-0.70469373 38:-1.0294029 39:0.42920139 40:-0.11873255 41:-0.93559456 42:1.2935115 43:0.66478503 44:0.0052053393 45:0.29205447 46:-0.023277557 47:0.96188468 48:-0.36384061 49:0.12647495 50:-0.34545442 51:0.45913503 52:-0.33395168 53:-0.7448855 54:-0.89257395 55:0.73260838 56:0.13642697 57:-0.70145947 58:0.91218054 59:-0.81146163 60:1.4706174 61:-0.39448872 62:0.44445536 63:0.95560437 64:0.62516379 65:1.2744253 66:-0.34672332 67:1.7230296 68:-1.0848074 69:0.87475741 70:-0.047208812 71:-0.42903507 72:-0.40564001 73:0.85341465 74:0.15014856 75:-0.1682492 76:-1.5596247 77:0.43497744 78:0.34333113 79:0.33001921 80:0.036338862 81:-0.77346343 82:0.1162029 83:-0.2564075 84:-0.09045282 85:0.53811842 86:0.29202139 87:-0.19602522 88:-0.8164978 89:-1.3928111 90:-0.56697547 91:-0.18978147 92:-0.75743854 93:-0.35516801 94:0.20481449 95:-0.33982897 96:0.66651475 97:-0.75772542 98:0.97964936 99:-0.46372581 100:-0.22728962 101:1.0582725 102:0.092956498 103:-0.73193824 104:-1.5779339 105:-0.056898084 106:-0.19171944 107:0.67395455 108:1.6382221 109:-1.2839172 110:-1.0374681 111:0.18843806 112:0.50138408 113:0.030161737 114:0.54319227 115:-0.18071818 116:-0.89193588 117:-0.66488248 118:-0.89441597 119:-0.45854685 120:-0.20944798 121:0.58018309 122:0.44081086 123:0.65478873 124:0.019572567 125:0.50914067 126:0.11748382 127:-0.36233771 128:-0.38561156 129:0.35734302 130:0.12298633 131:0.24110371 132:0.13896658 133:0.12189957 134:0.32535288 135:0.8439272 136:0.077294327 137:-0.12244117 138:-0.29432291 139:0.00031585409 140:-0.55887771 141:0.82885838 142:0.58206296 143:0.5717293 144:0.098228909 145:-0.53774208 146:0.69899368 147:-0.50036591 148:-0.57258725 149:0.61800748 150:0.2878418 151:-0.49943751 152:0.2365274 153:-1.2467953 154:-0.73791456 155:-0.13521703 156:1.145147 157:-1.0385765 158:-0.52673364 159:0.1883833 160:-0.43757373 161:-0.32843548 162:-1.6105887 163:2.0864611 164:0.27031684 165:0.071373932 166:0.64488542 167:0.92112601 168:-0.16192335 169:0.029714527 170:1.2250783 171:0.40681884 172:-0.23404653 173:-0.10011531 174:-0.74223036 175:0.83445078 176:0.46027073 177:-0.5300265 178:-0.54950553 179:-0.21276961 180:0.055866089 181:0.51036036 182:-1.3907197 183:0.3321532 184:-0.15354162 185:-0.17693006 186:0.20099583 187:0.29519176 188:-0.25791311 189:0.35525683 190:0.72435975 191:-1.0169984 192:-1.3101417 193:-0.4976247 194:1.2314459 195:0.040700529 196:-0.54972565 197:-0.34949493 198:1.8442298 199:-0.97219151 
0.8464680023832558 0:-1.0270877 1:0.76021475 2:-1.1076608 3:-0.1980816 4:-0.34304476 5:1.1567439 6:0.24507335 7:-0.30790851 8:-0.439006 9:0.48279482 10:-0.96435279 11:-0.56848127 12:-0.19841908 13:-0.26675594 14:-0.042436995 15:0.41981816 16:-0.53700298 17:-0.57182926 18:-0.46568683 19:-2.1002121 20:8.2057867 21:6.0094223 22:-0.17147478 23:-0.079800136 24:1.562234 25:-0.46014827 26:0.51254725 27:-1.1849425 28:-0.41533107 29:-0.40608391 30:0.10303507 31:-0.81708902 32:0.30824426 33:1.7381716 34:-0.93662751 35:1.0095729 36:-1.4065868 37:-0.67464763 38:-1.7394587 39:0.11684776 40:-0.35980296 41:-0.69983584 42:-0.56789052 43:0.25733855 44:-0.42635599 45:-0.49609315 46:-0.93910307 47:2.4409082 48:0.48342678 49:-0.35155907 50:-0.29510713 51:0.2036144 52:0.080105074 53:0.34603667 54:-0.6223942 55:-0.59552467 56:-0.026529796 57:-0.74921197 58:1.3820742 59:0.028090727 60:1.2448128 61:-1.0149295 62:-0.32034633 63:1.4553739 64:0.10669326 65:1.3825903 66:-0.075434089 67:-0.59085387 68:-0.64810342 69:0.80945301 70:0.014561787 71:0.084597863 72:-1.0878766 73:-0.2227402 74:-0.22914207 75:-0.76121539 76:-1.1450691 77:-0.9341588 78:-0.27986717 79:0.6199441 80:1.2520977 81:-0.27188313 82:-1.1175331 83:-0.27368048 84:-1.3686949 85:-0.037149116 86:-0.1863499 87:0.051949918 88:-1.449129 89:-0.4222897 90:1.0984436 91:0.12839156 92:-1.0735598 93:-0.78322595 94:-0.83145285 95:-1.1213725 96:0.080939814 97:0.76753753 98:-1.1204209 99:1.8796744 100:-1.4448439 101:-1.2461593 102:-1.277799 103:-0.51575196 104:-1.2034802 105:-0.066880994 106:0.29254335 107:-0.092709042 108:0.84751087 109:-0.76689917 110:1.0607963 111:-1.0417809 112:0.88678318 113:-0.38915196 114:0.28924334 115:0.30889416 116:-0.6428256 117:-0.3586655 118:-1.706074 119:0.91930372 120:2.8951352 121:2.5036006 122:-0.27752304 123:0.046695616 124:-0.46254054 125:-0.24569282 126:-0.32349849 127:-1.3030158 128:-1.4794556 129:-0.79855829 130:0.057271425 131:-0.95073277 132:0.66954923 133:-0.43425506 134:-1.7079601 135:-0.59767604 136:1.390498 137:0.23029974 138:-1.7356296 139:-0.56459361 140:-1.4960623 141:1.2711228 142:-2.0558093 143:-0.24634081 144:-0.075009376 145:0.34837526 146:-1.3738774 147:2.1230817 148:-1.5691068 149:-0.67827451 150:0.65519691 151:-1.0861038 152:-0.5933097 153:-1.1647075 154:-0.46657652 155:-1.1622773 156:0.93670499 157:0.18152887 158:0.57378685 159:-0.79996902 160:0.15426463 161:-0.99640828 162:-0.95456862 163:-1.2420326 164:0.62686253 165:1.0394797 166:0.34704801 167:-0.79324669 168:-0.1203922 169:0.73793596 170:0.15705642 171:-0.42240241 172:-1.9188831 173:-0.98239714 174:-0.72310221 175:0.042670932 176:-0.3166925 177:-0.73799115 178:-1.4997131 179:-0.43366724 180:-0.69688642 181:-0.39450103 182:-3.0105345 183:0.94728893 184:0.057334941 185:0.40431035 186:0.48448354 187:-0.17802151 188:0.69454539 189:0.82330567 190:0.24765836 191:-1.2055453 192:-0.3302108 193:-0.035312243 194:-1.5310564 195:-0.74217433 196:0.23235449 197:-0.79134661 198:-1.0097135 199:-0.19787408 
0.5620603071954169 0:0.42459565 1:0.24013221 2:0.9929027 3:0.37268513 4:0.32545626 5:1.9027967 6:0.51012951 7:-0.5191825 8:0.17013705 9:0.061696399 10:0.59336823 11:0.13863435 12:0.92924273 13:-0.14366958 14:-0.31779888 15:0.75106263 16:0.38965154 17:0.41146269 18:1.6671408 19:1.1242511 20:0.41430551 21:0.95059913 22:4.5135469 23:-0.21072188 24:0.80266726 25:0.71863043 26:-0.016435163 27:1.3003998 28:0.58990234 29:0.092236266 30:0.65408146 31:0.8643527 32:0.84273517 33:1.2390314 34:-0.56473064 35:-0.050276119 36:0.061967548 37:0.81880933 38:0.90301007 39:-0.011610505 40:0.5350883 41:0.61025882 42:-0.21770039 43:1.1680334 44:0.71864474 45:-0.24794506 46:0.68376529 47:0.087902218 48:1.2577389 49:1.0335038 50:-0.42663911 51:-0.063071966 52:-0.14964844 53:1.7067547 54:0.18426627 55:-0.64819807 56:0.99000853 57:0.64782965 58:1.2171648 59:0.65840524 60:-0.2503857 61:0.29349744 62:0.57033819 63:0.77497202 64:0.88633198 65:-0.38221347 66:0.084771283 67:-0.5735299 68:0.82541347 69:1.4421941 70:0.38765094 71:0.23691803 72:0.98606074 73:0.23326933 74:1.5683451 75:0.8497712 76:0.7925961 77:0.86959535 78:1.6894646 79:0.75625062 80:0.88601112 81:1.0339323 82:0.19050877 83:0.51448411 84:0.12092612 85:0.22885759 86:0.54058689 87:0.8252148 88:0.53863078 89:0.79913247 90:-0.50704187 91:0.48073405 92:1.144872 93:0.8875823 94:0.66632813 95:-0.04926122 96:-0.31676185 97:1.4808714 98:0.27728429 99:1.3958901 100:0.2443487 101:1.5815078 102:0.23389624 103:0.55914772 104:0.45898411 105:-0.64826483 106:0.99406111 107:0.5230915 108:0.83932281 109:-0.90408438 110:0.95077938 111:0.43126872 112:1.8399618 113:0.18022531 114:1.5374937 115:0.29084727 116:0.50047565 117:0.87956399 118:0.0073988717 119:-0.02771011 120:0.31501099 121:0.70321393 122:0.56846225 123:0.35906595 124:0.69728637 125:0.56638432 126:1.0380574 127:0.60420328 128:-0.31941944 129:1.4679981 130:-0.29494837 131:0.82055706 132:-0.20720702 133:0.57440263 134:1.0728458 135:0.15668163 136:-0.018809006 137:0.20488477 138:1.8490984 139:1.0717697 140:-0.63465589 141:0.44721261 142:1.9065109 143:0.62472999 144:-0.16409825 145:0.69309032 146:0.83438975 147:0.08178585 148:-0.029020986 149:0.42216623 150:0.71286458 151:0.5387522 152:0.84012824 153:0.64247179 154:1.2203373 155:0.8448438 156:1.5615841 157:-0.3829264 158:-0.29590732 159:-0.003786575 160:0.34997883 161:0.54611903 162:0.73375112 163:-0.61702269 164:0.22157891 165:1.5774659 166:-0.36149558 167:-0.86598486 168:0.35744733 169:0.45773572 170:0.34725827 171:0.54500324 172:0.022122107 173:0.0027238338 174:-0.18662187 175:0.23160593 176:0.5923391 177:-0.37510279 178:0.70379108 179:0.50457597 180:-0.36606079 181:0.36718202 182:0.66727781 183:0.77549976 184:-0.5666362 185:0.15078865 186:0.64060724 187:-0.18420434 188:-0.32728168 189:1.2217599 190:0.67260069 191:0.34579447 192:1.7319168 193:0.72591043 194:-0.428693 195:0.39417422 196:1.6634793 197:0.05519199 198:1.0843148 199:0.68319303 
0.2602168329997756 0:-0.61144251 1:-0.29289496 2:-0.80694455 3:-0.79424274 4:-1.3513005 5:0.26557934 6:1.1794846 7:-1.0476679 8:-0.16587597 9:0.49207994 10:-1.0455846 11:-0.21773203 12:0.23936714 13:0.91433495 14:1.9849144 15:0.020154331 16:-0.81934971 17:0.30381125 18:0.51221114 19:-0.7468369 20:-0.58031619 21:0.643067 22:0.17613599 23:-0.50117874 24:5.934494 25:4.6176562 26:0.0056360951 27:0.72914189 28:0.49135903 29:0.20615934 30:1.3702048 31:-0.88345838 32:0.39442065 33:0.85910529 34:-0.78370523 35:-0.29972306 36:-0.17922847 37:0.43590185 38:-0.64822328 39:0.14305088 40:1.0316042 41:-0.12386095 42:-0.37845507 43:0.12725967 44:-0.067755595 45:-0.89683533 46:-0.21177588 47:0.26511386 48:0.79424012 49:0.82125586 50:1.1501722 51:-0.14551504 52:-0.052896831 53:-1.2768971 54:-0.27448779 55:0.37722975 56:-0.72095549 57:0.52763444 58:-0.57859796 59:-0.92541504 60:1.1336467 61:1.4026635 62:0.099191338 63:1.4373677 64:1.2654052 65:0.8148641 66:-0.24314779 67:1.8763804 68:0.72237331 69:0.17398316 70:1.0385035 71:0.30549407 72:-0.1488359 73:1.2468358 74:-0.31229284 75:-0.024041301 76:0.14208576 77:0.59929061 78:0.3742339 79:-0.46856967 80:-0.85994881 81:0.15855701 82:-0.50816864 83:-0.85718679 84:0.10279498 85:-0.88226682 86:-0.1716865 87:0.34056312 88:0.21144323 89:1.0486892 90:0.33696347 91:0.33405039 92:-0.67785192 93:0.0054617943 94:-0.14986703 95:-0.6365431 96:-0.22550395 97:-0.27082336 98:-0.6112057 99:0.24182147 100:-0.63687241 101:1.5162566 102:-0.88037777 103:0.081693523 104:0.76300967 105:1.1335366 106:-0.02884868 107:-0.13762429 108:1.6490008 109:-0.68425184 110:-0.28416482 111:-0.26563251 112:1.7758965 113:-0.11265945 114:1.5321717 115:1.7405432 116:1.3862605 117:-0.028604837 118:-0.76236629 119:-0.38877031 120:0.20100062 121:0.5370611 122:0.10690918 123:0.21461664 124:0.018479127 125:0.19338687 126:-0.21785462 127:-0.16793972 128:-0.86341667 129:1.0964944 130:-0.44542822 131:-0.12604129 132:0.92812902 133:0.37766948 134:-0.99874073 135:1.2912869 136:-0.4939802 137:-0.70248759 138:0.20056108 139:-0.69851285 140:-1.1405532 141:-1.0770575 142:-0.70087516 143:-0.10879535 144:-0.25315547 145:-0.40579632 146:-0.067477576 147:-0.83675444 148:-0.011159053 149:0.69300783 150:-0.24969776 151:-0.51196176 152:0.65771627 153:-0.58195943 154:-0.0036131379 155:-0.55245835 156:-0.58711958 157:-0.12417385 158:-0.79345798 159:-0.79628539 160:1.1903547 161:-0.10673188 162:-0.080855638 163:-0.14889364 164:-1.0262897 165:-0.82349032 166:-0.1871683 167:0.31440073 168:-1.220764 169:-0.084160306 170:0.59965122 171:0.047286708 172:0.99078286 173:-0.5755589 174:0.87313724 175:0.28489533 176:0.10496055 177:-1.3997898 178:-0.34792671 179:0.28010768 180:0.80719799 181:0.079450235 182:-1.4282662 183:-0.76980811 184:0.14914681 185:0.10543698 186:-0.50702679 187:-0.77723765 188:-1.117381 189:-0.51321822 190:1.0127096 191:-0.89283794 192:-0.012282207 193:2.4723616 194:1.2877612 195:0.17399448 196:0.29661104 197:-0.42685947 198:-0.86775655 199:-0.5609566 
1 0:-0.93083245 1:-0.44785562 2:-0.94398242 3:-0.20259953 4:-1.7283221 5:-1.3485019 6:0.89936948 7:-1.6367157 8:-1.0331836 9:-0.48383716 10:0.18818794 11:-0.2093187 12:-0.56570971 13:-1.0702976 14:-0.06908416 15:-0.8297295 16:-0.85028404 17:-0.47202712 18:-0.044963554 19:-1.1237353 20:-0.69366246 21:0.87577802 22:-0.78592741 23:-0.87166381 24:-0.13895564 25:-0.65535933 26:3.6901169 27:5.5873265 28:-1.0939906 29:-0.57282156 30:0.039737634 31:-1.0574113 32:-0.52483308 33:-0.0088218693 34:-1.3271971 35:0.5566957 36:0.44093975 37:1.664413 38:-0.47742441 39:-1.6523116 40:-0.3374843 41:-1.3569298 42:0.80694234 43:-0.12005735 44:-0.24127656 45:-0.89317632 46:-1.3873442 47:0.546947 48:-0.094937786 49:-1.3407164 50:-1.5396147 51:0.49061424 52:0.63439703 53:0.30046865 54:-1.4902815 55:-0.75917691 56:-1.1833837 57:-0.68832362 58:0.10827633 59:-0.41201973 60:-0.21403782 61:-1.3192191 62:0.44815883 63:0.35621083 64:-1.1361655 65:-0.057917997 66:0.53899729 67:-1.6819938 68:-1.2859923 69:2.2414081 70:-1.2346504 71:-0.86873347 72:-0.66637117 73:-1.1367148 74:-1.512817 75:-1.6224024 76:-1.643474 77:-0.26757184 78:-0.57612878 79:-0.38318095 80:1.385299 81:-0.38805535 82:-1.1427178 83:-1.1863769 84:-2.080868 85:-0.33984768 86:0.26275396 87:-0.23277174 88:1.0456167 89:0.20314506 90:0.74455565 91:-0.22730589 92:-0.22587514 93:-0.17418349 94:0.35393345 95:-0.22183655 96:0.33271754 97:-1.7435302 98:1.3239515 99:-1.7305582 100:-0.16273431 101:-0.040121529 102:-0.57542521 103:-1.3519833 104:-1.361022 105:-0.92183584 106:-1.1855543 107:-2.1352806 108:0.35482475 109:-1.5006162 110:-0.77350837 111:0.027067227 112:-1.2651418 113:-0.012294186 114:-1.0924554 115:-0.33734465 116:0.12814599 117:0.022429222 118:0.87464762 119:-1.1515491 120:0.48633161 121:0.47772714 122:0.3898471 123:0.2502172 124:0.29772797 125:0.49360177 126:-0.042748652 127:-0.38230217 128:-0.86695689 129:-1.3289821 130:-1.2664124 131:-1.5239015 132:-1.1875553 133:0.33506495 134:-0.12556297 135:-0.28467065 136:-1.2518729 137:1.2302275 138:2.8238575 139:-1.8623053 140:-0.99486703 141:1.1507344 142:-2.1560688 143:0.41280979 144:-1.0262975 145:-0.36560255 146:0.16633324 147:-0.94987798 148:-0.57701862 149:1.0529269 150:0.84821808 151:-0.55069214 152:-1.0228121 153:-1.0545233 154:-0.97726774 155:-0.92893475 156:-2.4994197 157:-0.83650529 158:0.22152901 159:-0.18300128 160:-1.1474543 161:-0.12805696 162:-1.7190225 163:-0.8701514 164:-0.61143273 165:0.16603495 166:-0.47083122 167:1.3205919 168:0.050752457 169:0.10598574 170:-0.10438937 171:0.34615657 172:-1.734852 173:-0.46019334 174:-0.59778243 175:-0.63803071 176:0.53328079 177:-1.8787233 178:-0.049020275 179:-0.83855802 180:0.93909049 181:0.21200521 182:0.21546698 183:-0.83953983 184:-1.4192306 185:-0.34474719 186:-0.084171027 187:-0.31833598 188:-0.58638144 189:-1.6343826 190:-1.1664089 191:-0.8222546 192:-1.9147809 193:-1.6911689 194:0.25115281 195:-0.2849929 196:-0.48067626 197:-0.51477557 198:-1.2040093 199:-0.077654682 
0.8701343983727038 0:-0.29471207 1:1.3528976 2:0.29518628 3:0.18369117 4:-0.89356488 5:-0.34957141 6:0.9393248 7:0.045744501 8:-0.81781697 9:0.60541052 10:-0.90442026 11:0.050776917 12:-0.028933788 13:0.20197627 14:1.8813616 15:0.41911376 16:-0.33527341 17:-0.12389491 18:-0.14235415 19:0.3378498 20:0.2570942 21:1.5423789 22:0.2107226 23:0.24049757 24:-0.10582361 25:0.41121289 26:0.8374759 27:1.2291435 28:0.66677058 29:3.3503659 30:1.4012415 31:0.50182903 32:-1.173538 33:0.96869272 34:0.89741135 35:0.15382081 36:-0.38942781 37:1.4020252 38:0.41817668 39:-0.65178531 40:-0.29927254 41:0.39403927 42:-1.38333 43:0.65013963 44:1.5602612 45:1.4454086 46:-0.93793118 47:2.1219039 48:-0.66530031 49:0.32763073 50:0.076107472 51:0.83000994 52:0.7114976 53:-0.78741193 54:-0.031131076 55:-0.091118194 56:-0.52153027 57:1.6272048 58:1.2494822 59:-0.038862936 60:0.88374048 61:0.24944746 62:0.28242445 63:0.65818661 64:-0.4468697 65:1.6534694 66:-0.26295322 67:-0.33867437 68:-0.16659653 69:0.081126049 70:-0.58809394 71:-0.37895074 72:0.33674613 73:-1.0513171 74:0.89510661 75:-0.94829392 76:-0.89212072 77:0.53406638 78:0.77111715 79:-0.31941012 80:0.23138936 81:-0.32757458 82:-0.24531431 83:0.37968937 84:-0.15630248 85:0.46226305 86:0.48538837 87:0.8742786 88:-0.0070324922 89:-0.2847853 90:-0.19470537 91:0.25828126 92:0.012911338 93:0.26492614 94:0.5726648 95:-0.27433202 96:-0.2540713 97:-0.52540267 98:0.51480335 99:-0.95936263 100:-0.027209375 101:0.22420914 102:-0.61783481 103:-0.95817322 104:-0.0021755926 105:-1.0569334 106:0.02953217 107:0.64710069 108:1.6460456 109:-0.70313299 110:2.2695045 111:0.12380614 112:0.61510623 113:0.14994437 114:-0.30285096 115:0.61149186 116:0.39713094 117:0.25784767 118:0.24330929 119:0.91229576 120:1.3557173 121:1.6643001 122:0.4143734 123:-0.64272308 124:0.37733036 125:0.42536819 126:0.28564671 127:0.58468819 128:-0.43449762 129:0.5007326 130:1.5591388 131:0.66952944 132:0.52058375 133:0.53756946 134:0.73679394 135:-0.049490966 136:1.1099721 137:0.91471565 138:-0.10754649 139:-0.10975192 140:-0.26348633 141:-0.03886085 142:-0.29053625 143:1.098981 144:-0.40657637 145:1.0807093 146:0.51974547 147:2.8847334 148:0.2583836 149:0.15492389 150:0.16640726 151:0.16947426 152:0.047780443 153:0.025024185 154:0.67959678 155:-0.71698052 156:1.1723157 157:-0.21999367 158:-0.94315934 159:-0.15930015 160:-0.56244576 161:0.48485932 162:0.55517966 163:0.69279546 164:0.90727657 165:0.87019688 166:1.277216 167:2.099638 168:1.0031644 169:0.32049653 170:-0.35864726 171:0.34882402 172:-0.4008325 173:-0.76324385 174:-1.3412242 175:0.71589202 176:0.39014155 177:-0.039788708 178:0.61633408 179:0.21806182 180:-0.19994023 181:0.63804781 182:0.3834016 183:-0.9610607 184:-0.68468249 185:-0.28785139 186:0.44986483 187:0.79155475 188:0.39018437 189:0.95066315 190:0.35103744 191:-0.083369486 192:0.32329255 193:0.12954603 194:0.42689312 195:0.21167397 196:-0.012563963 197:-0.072679467 198:-0.27619308 199:2.4612458 
1 0:2.1268306 1:2.4513667 2:0.5869019 3:-1.4879994 4:-1.6532779 5:-0.25038907 6:1.8871614 7:-0.22800586 8:-0.73290849 9:-0.4955723 10:0.56890589 11:0.044306077 12:-0.86917716 13:0.66313076 14:0.62010151 15:-1.224146 16:-0.82812655 17:0.47661215 18:-0.13759685 19:-0.15799549 20:-0.80332279 21:1.6031044 22:1.2927402 23:0.3413938 24:0.51784247 25:-1.2065392 26:0.52828825 27:-1.0121611 28:0.86737812 29:-0.71020377 30:0.36094156 31:-0.25158545 32:3.9080858 33:3.0017371 34:0.29714727 35:-0.40942949 36:-1.3893925 37:0.098118566 38:-1.032202 39:-0.7328347 40:-0.35970265 41:-2.1113915 42:-0.99201131 43:-0.71853244 44:-0.73716503 45:1.1461109 46:0.48855573 47:1.7316056 48:-0.97001195 49:-0.62468046 50:-0.81380808 51:0.24994311 52:-1.2743266 53:-0.06260886 54:0.66454035 55:-0.3773782 56:-0.4723554 57:-0.13170461 58:-0.92034549 59:-0.42785534 60:1.3581076 61:0.35542056 62:-0.61648208 63:1.0537483 64:-0.16798985 65:2.0143516 66:-1.3506678 67:-1.2359946 68:-1.1168067 69:-0.32400352 70:-1.1694829 71:-0.8316642 72:0.18814586 73:-0.14036413 74:-0.032643639 75:-0.14040323 76:-0.50850642 77:-0.70436466 78:-0.26607072 79:1.0572207 80:1.0010476 81:-0.28708667 82:-0.41472462 83:0.071716651 84:-0.30615997 85:0.51365513 86:-0.071500421 87:-0.15586555 88:-0.81642932 89:-0.28413352 90:-0.74787879 91:0.047342785 92:-0.96417987 93:-1.3111217 94:-0.45979169 95:-1.8290691 96:0.21566442 97:-0.5769313 98:-0.1219611 99:-1.0154322 100:-0.92308593 101:-1.010534 102:1.3837607 103:-1.5468575 104:-0.2590813 105:-0.68430889 106:0.74952418 107:-0.34297267 108:0.79050541 109:-0.40836689 110:-0.40630314 111:-1.4149081 112:1.2184666 113:-0.77128506 114:-1.1021411 115:-1.0973018 116:-0.79113376 117:-1.2672889 118:-0.39224839 119:-0.54933786 120:0.79915601 121:2.0759902 122:-1.277457 123:-1.1039872 124:-1.4350301 125:-0.87235337 126:0.48745856 127:-1.0627345 128:-0.38875657 129:-1.1793655 130:0.47514105 131:1.0664849 132:-0.28014773 133:-2.01157 134:0.39084828 135:-0.64985627 136:0.78997636 137:0.27715176 138:-0.54803914 139:-0.66873693 140:0.027856277 141:1.4296972 142:-0.77229935 143:-0.80292654 144:-1.1272585 145:-0.77714783 146:-1.148205 147:-0.64732832 148:-0.25519353 149:-0.73520803 150:0.49870044 151:-1.0051593 152:-0.64845932 153:-0.9734714 154:-0.22859119 155:-0.56012106 156:-0.23835096 157:-0.99700522 158:-0.83768505 159:-0.55816382 160:-1.0799961 161:-2.2576096 162:0.053093977 163:1.9150478 164:-0.89483291 165:0.33635437 166:1.6115711 167:-0.21432275 168:0.61474949 169:-0.55880177 170:0.74923342 171:-0.72512668 172:-0.94312334 173:-0.81056809 174:-1.8804504 175:0.41725075 176:-1.5740104 177:0.97064811 178:-2.0819674 179:-0.043292943 180:-0.38477799 181:-0.1850391 182:0.18897805 183:0.010541809 184:-0.9595868 185:0.39448568 186:1.1990322 187:-0.55751789 188:-0.58066976 189:-0.75909567 190:-0.25402394 191:-1.1247486 192:0.26824418 193:-1.6800634 194:0.34866962 195:0.44923308 196:-1.5441689 197:-0.86224371 198:0.040818226 199:-1.0196205 
1 0:-1.0302862 1:-0.72450787 2:0.26066241 3:-0.52060938 4:-0.13594878 5:-0.16850607 6:-0.20159422 7:-0.55873543 8:-0.79522043 9:0.043098316 10:-0.80552346 11:-0.56045145 12:0.063224018 13:-0.99523467 14:-0.4030017 15:0.089838222 16:-0.51959997 17:0.1533877 18:0.33929572 19:-1.4181036 20:-0.23627828 21:0.50932926 22:-0.37387493 23:-0.3234154 24:0.023809915 25:-0.28760478 26:0.30049434 27:0.98639119 28:-1.1187758 29:-0.67105168 30:0.32382059 31:-0.62338156 32:-0.75283623 33:0.034953445 34:2.5880284 35:4.7632866 36:0.39419377 37:0.021238601 38:-1.0464005 39:-0.61621016 40:0.48269832 41:-0.95680714 42:-0.55325401 43:-0.39783171 44:0.79005986 45:-0.78442985 46:1.1446619 47:0.4844918 48:0.1414378 49:0.94859403 50:0.235201 51:0.5810948 52:0.2976318 53:-0.32055447 54:-0.90129107 55:-1.0512499 56:0.14333485 57:-0.60709947 58:0.81143045 59:0.091813497 60:1.6044163 61:-1.3898653 62:0.22641657 63:0.91246682 64:0.22165379 65:1.458163 66:-0.35668564 67:0.62359023 68:-1.3718418 69:0.74256647 70:-0.71648347 71:-1.4286815 72:0.31711078 73:-0.3587687 74:0.57419479 75:0.22177407 76:-1.189858 77:0.77161795 78:-0.29379255 79:0.16441274 80:-0.28518763 81:-0.36737192 82:-0.20545857 83:-1.3216558 84:0.00082506496 85:-1.4425993 86:-0.40378383 87:-0.19882855 88:-0.11783465 89:-1.2462187 90:0.080403522 91:-0.4679268 92:-1.6580211 93:-0.55586857 94:-0.27575362 95:-0.67679733 96:1.6808389 97:0.43308148 98:0.59032983 99:0.23845777 100:-0.47498971 101:-0.063187614 102:-0.18453255 103:-0.70423776 104:0.16106577 105:-0.103662 106:-0.44272736 107:-0.025060227 108:1.6569316 109:-0.23782104 110:-0.25635159 111:0.47292668 112:-0.50950617 113:0.59204328 114:-0.46269122 115:-0.16880073 116:1.4775714 117:-0.73311734 118:-0.39012671 119:0.10355445 120:1.33521 121:0.28103125 122:0.0594492 123:-0.038731124 124:-0.018947745 125:0.07135693 126:-0.57761037 127:-0.24723585 128:0.73532927 129:0.18776636 130:0.46908027 131:-0.83395386 132:-0.55346245 133:0.32730925 134:0.091159053 135:-0.64744896 136:-0.29711941 137:1.779479 138:-0.97836024 139:-0.57231289 140:-0.20236883 141:0.2731812 142:-1.1398079 143:0.26890811 144:0.22161107 145:-1.1520131 146:0.35188052 147:0.37064466 148:-0.63462615 149:0.40502957 150:1.6724231 151:-0.15801942 152:0.16769752 153:0.089291379 154:-0.12160789 155:-0.60808182 156:-0.30760494 157:-1.2054552 158:-0.25609666 159:0.66213882 160:-1.0563283 161:0.05709317 162:-1.0743241 163:1.2551287 164:-0.92643154 165:0.36107242 166:1.3486065 167:-0.63513881 168:-0.48953417 169:0.13196608 170:-0.50286865 171:-0.01365635 172:-1.0234501 173:0.0077196653 174:-1.1332421 175:0.35810202 176:0.12191667 177:0.53224581 178:-1.1940572 179:0.14751752 180:-0.9045527 181:0.036117062 182:-0.96594089 183:0.50684828 184:-0.51772016 185:1.0129592 186:-0.35087931 187:1.6775689 188:-0.92421639 189:-0.59241486 190:-0.61831677 191:-1.0679889 192:-0.64593029 193:-0.11133808 194:0.75070852 195:-0.46261039 196:0.9581461 197:-0.31771806 198:0.59187901 199:0.51478177 
1 0:-1.4517628 1:-1.4161745 2:-0.09414278 3:-1.8406706 4:-1.1601859 5:-0.81489152 6:-0.88555336 7:-0.44569394 8:-0.13868737 9:-2.4611447 10:0.80320746 11:-0.09875764 12:-0.59713316 13:-0.99683696 14:-0.43544453 15:-0.95046151 16:-1.8536302 17:-0.88374496 18:0.17054966 19:0.11675229 20:-0.73074561 21:-1.0353562 22:-1.6202558 23:0.11054263 24:-1.066759 25:-0.81393892 26:-0.36118707 27:-0.4293302 28:-1.6041747 29:-0.60996616 30:-0.022608288 31:-0.54315311 32:-0.36274198 33:-0.83505803 34:-0.86225498 35:1.0116756 36:1.9648647 37:6.1137743 38:-0.82247645 39:-0.79998171 40:-0.57354891 41:-0.095117606 42:-1.1900979 43:-0.034015238 44:-1.4640698 45:-1.8890399 46:-0.74386996 47:-0.75764942 48:-0.57036722 49:-0.15818782 50:1.4804385 51:-1.6567925 52:0.23819949 53:1.6753075 54:-0.08156503 55:-0.58368373 56:-0.67527652 57:-1.2041394 58:-1.2517736 59:-1.55863 60:-1.4388535 61:-0.55559111 62:0.027170949 63:-0.66459018 64:2.3944056 65:-0.9804104 66:1.1193839 67:0.16091536 68:-0.79606891 69:-1.9636929 70:-0.0016310021 71:1.3724601 72:-0.74632633 73:0.43655857 74:-0.28495789 75:-0.71060658 76:-0.63962686 77:-0.71959233 78:-0.86790359 79:-0.70050341 80:1.4478441 81:1.4413213 82:-1.5618871 83:-0.60735363 84:0.24205513 85:1.9060796 86:-0.014936487 87:-1.0016881 88:0.18998687 89:-0.72599834 90:-1.3767706 91:-0.59205419 92:-0.2067946 93:-0.75624305 94:-0.087664723 95:0.10356066 96:-0.74684763 97:-0.60980242 98:-0.90310329 99:-0.18584614 100:-0.94471884 101:-0.5585525 102:-0.19008546 103:-0.84539396 104:-0.73086727 105:2.2409413 106:-0.37292466 107:-0.86558753 108:-0.32058033 109:-0.57809395 110:0.12023129 111:0.18709822 112:-1.0857929 113:0.19745208 114:-0.41342485 115:-0.16353576 116:-0.943748 117:-0.84100747 118:-1.5116658 119:-0.80116391 120:-0.87203193 121:-1.1876307 122:-0.15055962 123:-0.50803143 124:-0.25564617 125:-0.088334337 126:-1.0086849 127:-0.70544124 128:-1.5131078 129:-0.35986018 130:-1.344745 131:-1.1025468 132:-0.75189042 133:-0.21263364 134:-2.684206 135:-0.8482973 136:-0.57257551 137:-0.64183247 138:0.47916758 139:-0.39955249 140:0.38580054 141:0.16347829 142:-2.1686385 143:0.047619842 144:0.14628717 145:-0.48637581 146:-0.73386234 147:0.21152163 148:-0.019910036 149:-0.96288317 150:-0.1517989 151:-0.2614437 152:-1.3715702 153:-0.2921803 154:-0.45478222 155:0.93317121 156:-0.52975196 157:1.6112498 158:-0.25512835 159:0.2348887 160:0.0035579943 161:-0.31067789 162:-1.0262264 163:-0.35373396 164:0.86246502 165:-0.2177781 166:-1.3764737 167:-0.020784078 168:0.65892136 169:-0.23135856 170:-2.0073414 171:0.1807871 172:-0.25189003 173:-0.64400727 174:0.37164646 175:-0.31289926 176:0.024693372 177:-0.7812047 178:0.14295731 179:-1.2104268 180:-1.3320011 181:0.030738443 182:-1.7727816 183:-0.34280479 184:0.00033684546 185:-0.20308475 186:0.22459897 187:0.85216862 188:-0.47781146 189:-0.33706406 190:-0.3110199 191:-0.38941744 192:-1.1435151 193:0.026269937 194:-1.3675537 195:0.0042584506 196:-0.97185302 197:-0.58383936 198:-0.96082091 199:-0.59455884 
1 0:0.57508391 1:-0.31399271 2:0.27070564 3:-0.68912524 4:0.37458682 5:0.80649757 6:0.43110195 7:-0.12863833 8:0.65501267 9:-0.51887125 10:0.17334932 11:0.36091948 12:0.67344069 13:0.047965169 14:0.026371183 15:-0.93133491 16:0.067062579 17:1.3909515 18:1.0680866 19:0.248456 20:0.024537869 21:-0.30450439 22:-0.38537169 23:0.43559834 24:-0.7067709 25:1.1200612 26:-0.05318483 27:-1.1300782 28:1.263095 29:0.46724975 30:-0.5965445 31:-0.23855136 32:0.65525377 33:0.20766667 34:-0.88795012 35:-0.59104943 36:-1.0906522 37:-0.78319961 38:0.27975324 39:3.1783011 40:0.12955044 41:0.2753458 42:0.41898394 43:-0.9047057 44:-0.76002342 45:-1.0046778 46:0.92566645 47:-0.77118039 48:-0.47779277 49:-0.12532763 50:0.54287404 51:-0.81915122 52:0.42483529 53:-0.740376 54:0.27413428 55:-1.0712209 56:0.66428185 57:0.41929942 58:-0.23328288 59:0.016283171 60:-0.9305954 61:0.98516273 62:0.49050334 63:-1.1246673 64:0.086040415 65:-0.70206255 66:-0.86349219 67:1.1660216 68:2.5540595 69:-0.18604466 70:-0.23781554 71:-0.60717595 72:0.66025805 73:0.23518789 74:-0.11216857 75:-0.40213007 76:-0.16612586 77:1.2482163 78:-1.2511097 79:-0.75804758 80:-0.30889511 81:-0.44364813 82:0.41561455 83:-0.98986739 84:0.64219815 85:-0.29399213 86:0.5468322 87:-0.81766903 88:1.8049616 89:-0.26865682 90:-0.47374272 91:-0.45764789 92:0.47977149 93:0.48831236 94:0.61458462 95:-0.078575701 96:0.44846922 97:1.243588 98:0.40732872 99:1.1182166 100:0.21003824 101:-0.055306084 102:-0.49573341 103:-0.26598975 104:0.79555368 105:1.0475715 106:0.39315423 107:0.28429183 108:-0.80797106 109:0.45331347 110:0.45162243 111:0.51848125 112:1.0456126 113:1.1293216 114:0.11609957 115:-0.35617974 116:-1.4448354 117:0.68551838 118:0.12395965 119:-0.30294871 120:-0.96123511 121:0.94357425 122:0.57139266 123:-1.1129645 124:0.55173397 125:0.56573629 126:-0.09778893 127:0.76064968 128:-0.035114627 129:-0.70442581 130:-1.3068964 131:0.88023359 132:2.5752597 133:0.52543008 134:-0.46278137 135:0.26953274 136:-0.85331714 137:1.2065501 138:-0.89539796 139:-0.52100873 140:0.30429074 141:-1.2793213 142:0.99637169 143:-1.30907 144:-0.39870936 145:-1.0660849 146:-0.28230172 147:-0.25862819 148:0.32633093 149:-0.1883097 150:0.090138294 151:0.20537123 152:1.8315759 153:0.96123004 154:0.055246599 155:-0.21423382 156:-0.57740605 157:2.1244347 158:-0.0941144 159:0.19757955 160:0.10251603 161:0.51627457 162:1.2387475 163:1.3885388 164:-0.40523401 165:-0.2611157 166:-1.2598341 167:-0.039433144 168:-0.51864874 169:0.50613987 170:0.67447799 171:0.54741544 172:1.703189 173:0.018605387 174:0.41060719 175:-0.78935397 176:0.6074158 177:0.42506221 178:0.27688375 179:0.40570056 180:0.26146802 181:0.30450043 182:0.56846929 183:-0.47900683 184:-0.48886901 185:0.36058834 186:0.047099095 187:0.50586635 188:-0.17331859 189:0.3667933 190:-0.23202792 191:1.5813144 192:0.2446851 193:0.69784003 194:-1.1583258 195:-0.098981105 196:-1.3787591 197:0.22241791 198:-0.36251685 199:-0.56978744 
0.161092458832369 0:0.29553378 1:1.4164283 2:0.72131819 3:1.1242326 4:-0.69514591 5:1.7083285 6:3.1141369 7:-0.5819037 8:0.055804849 9:1.061124 10:-0.09334708 11:0.119593 12:-0.51273286 13:0.62074596 14:-0.37104037 15:0.76448572 16:1.0702921 17:1.1877319 18:1.1794735 19:-0.81807917 20:0.30344102 21:-0.033683341 22:-0.0074839564 23:0.11891806 24:0.44314015 25:1.2218124 26:0.96178025 27:0.20159245 28:0.57265317 29:1.5509241 30:0.039454009 31:0.10362378 32:0.0034509171 33:-0.33248609 34:1.8012184 35:1.0030558 36:1.0946289 37:-0.21149321 38:0.15079947 39:1.8946908 40:3.7776706 41:1.709471 42:0.21123613 43:-0.55957413 44:1.0757761 45:0.82456493 46:0.064114466 47:0.027890688 48:1.4969503 49:0.98044342 50:0.62002021 51:1.7611436 52:-0.5938006 53:0.69494098 54:-9.5958858e-05 55:0.32266203 56:0.96986055 57:1.0696481 58:0.36583278 59:-0.19656979 60:1.6461544 61:1.017465 62:0.58013028 63:-0.21387342 64:-0.037344348 65:1.5638521 66:0.3746399 67:-1.5368079 68:0.51937145 69:0.51417381 70:0.15839608 71:-0.89310449 72:0.5283609 73:0.17930038 74:0.38307148 75:0.35335472 76:-0.22198001 77:0.92235273 78:-0.38605788 79:0.93475008 80:-0.27448574 81:-0.090055205 82:0.81743437 83:-0.071557544 84:-0.9828282 85:0.069107741 86:0.52163726 87:-0.239447 88:0.78796512 89:1.2617801 90:-0.49397177 91:0.74623299 92:0.23466924 93:0.47606117 94:0.62174064 95:-0.040073868 96:-0.54488617 97:1.8023967 98:1.09403 99:1.5534188 100:0.35254064 101:-0.29010257 102:0.0099433148 103:-0.77589893 104:0.28194001 105:0.68052423 106:1.4362848 107:-0.1673253 108:0.43146136 109:-0.11981241 110:-1.0628756 111:0.48276037 112:0.34168968 113:0.21467884 114:1.7508148 115:0.17820524 116:0.56502718 117:0.7794534 118:0.34268618 119:-0.27163127 120:-0.93627471 121:0.18030919 122:0.57583928 123:-0.44676089 124:0.45588619 125:0.58542234 126:0.77201706 127:0.38605464 128:-0.33686101 129:-0.97301728 130:0.61030996 131:0.5497064 132:2.1444459 133:0.63166261 134:1.3199497 135:0.7217505 136:0.48728114 137:-0.59833401 138:-0.049414866 139:-0.041890521 140:0.7088502 141:0.037051376 142:-0.95920211 143:-0.12809148 144:-0.010301389 145:-0.30789518 146:-0.52511907 147:-1.0402163 148:-0.18347271 149:1.4128706 150:-0.14089324 151:0.53170729 152:0.36104 153:0.38237801 154:-0.10652734 155:0.23121405 156:0.81333065 157:0.57844245 158:0.26568523 159:1.1874464 160:0.77228218 161:0.21285143 162:-0.5611766 163:1.253613 164:-0.028309138 165:-0.31461093 166:0.484698 167:1.3905213 168:1.9464808 169:-0.46730399 170:0.71582061 171:0.59553176 172:1.2463083 173:1.5008965 174:0.4471592 175:0.24162877 176:0.62715679 177:0.64773208 178:0.39607558 179:0.56401694 180:1.3125607 181:0.52632588 182:0.048053734 183:0.90918267 184:-0.34682083 185:-0.71587855 186:1.2085472 187:1.7895224 188:0.20603833 189:1.8965131 190:0.76011395 191:-0.6293264 192:-0.75360632 193:1.0072871 194:0.073447019 195:0.37608138 196:-0.49382532 197:0.39493999 198:-0.11957666 199:-0.17371102 
0.7634277639035602 0:-3.9215746 1:-1.3829113 2:-1.6079011 3:0.27188039 4:-2.7096364 5:-1.4905819 6:-0.31747514 7:-1.4865738 8:-1.1224912 9:1.1209793 10:-1.4220463 11:-5.1329598 12:0.39304858 13:0.28903571 14:-2.7551749 15:-0.37600592 16:-0.68964887 17:0.2021106 18:-1.1031554 19:-1.0437496 20:-0.84967113 21:0.16257605 22:-0.18997636 23:-7.1150627 24:1.4455286 25:-0.86110324 26:0.14208518 27:-1.2563344 28:-0.18352455 29:-4.215704 30:0.19650504 31:-4.1801486 32:-0.044063646 33:-0.49258256 34:-3.8711171 35:-0.9548738 36:-0.44634023 37:-0.85172236 38:-4.0481319 39:0.84943771 40:0.39243025 41:-3.9250827 42:2.6843305 43:6.0216694 44:-1.0657455 45:-1.2254802 46:-0.092644297 47:0.36025456 48:-1.096763 49:-1.0727127 50:-1.6155769 51:0.13668747 52:-0.9935407 53:-0.52197212 54:-1.9882677 55:-0.19379598 56:-1.9211895 57:-0.53851062 58:-1.018064 59:-0.61459029 60:-0.8852216 61:0.2193334 62:-6.3335876 63:-0.66824102 64:-0.010222354 65:-0.20635158 66:-1.2735275 67:-1.3524834 68:-4.5515137 69:-0.18840289 70:-1.0748596 71:-2.3122718 72:-4.6525683 73:-0.74106026 74:-1.4035326 75:-0.76192808 76:-3.3323915 77:-0.85381669 78:-0.26924616 79:-0.31295636 80:-1.2407665 81:-0.97307938 82:0.72949183 83:-1.5848819 84:-1.858283 85:-1.3769457 86:-5.0105147 87:-0.080489956 88:0.84273744 89:-0.83836734 90:0.63520449 91:-0.75620484 92:-3.8569059 93:-5.6977458 94:-4.4323969 95:-4.8957767 96:-0.80942732 97:-2.0047543 98:-0.53819156 99:-1.4921356 100:-2.3707592 101:-1.3449081 102:-2.2463691 103:-0.96848506 104:-3.0551913 105:-0.87269366 106:0.073388822 107:-0.50339323 108:-0.36057204 109:-2.5036373 110:-1.6530075 111:-6.6024737 112:-0.38686752 113:-4.0298104 114:0.59553993 115:1.2401307 116:-0.63519865 117:-5.6524291 118:-1.4267141 119:-1.0681483 120:-0.37884578 121:-0.53004599 122:-5.7928953 123:-1.398454 124:-5.0938191 125:-5.9056478 126:-0.64402568 127:-3.6115804 128:-4.0991006 129:-0.60696453 130:0.29220098 131:-0.62666607 132:0.062765367 133:-6.0784945 134:-2.241617 135:-5.0860209 136:-1.5527329 137:-0.48429057 138:-0.8954258 139:-0.99810487 140:-4.7517719 141:-1.4576674 142:-2.595211 143:-0.31076682 144:0.62079871 145:-1.0162607 146:-0.12177838 147:0.66800666 148:-4.2047534 149:-1.3533074 150:0.42025837 151:-4.6421309 152:0.37348098 153:-3.1350737 154:-4.7325826 155:-2.630295 156:-2.6284356 157:-0.81451929 158:-2.2673423 159:-0.66738647 160:-1.4826066 161:-5.4138012 162:-3.2253942 163:-0.084512413 164:-1.1259162 165:-0.83254939 166:-1.0306306 167:-0.95424026 168:-1.3993089 169:-0.64584357 170:0.32607782 171:-5.7327828 172:-0.37414634 173:2.0461311 174:-0.3621068 175:-1.1760705 176:-5.4129791 177:-4.1491547 178:-4.3569107 179:0.47699618 180:-0.11155049 181:-5.5695968 182:-0.71798915 183:-0.91254848 184:-0.23154508 185:0.78136176 186:-4.5624194 187:-2.3094769 188:-2.6972156 189:-1.2133249 190:-4.0167694 191:-2.662468 192:-2.4083312 193:-0.52535552 194:-1.6152112 195:-6.563621 196:0.13942742 197:-3.0638835 198:-2.4929707 199:-0.016473269 
0.5274475849029102 0:0.71719599 1:-0.18194929 2:-0.07418292 3:0.89064705 4:0.040694967 5:0.46225148 6:2.3360374 7:-0.2184715 8:-0.21559748 9:-0.30238998 10:-0.53789991 11:0.14779003 12:-0.19710608 13:0.88505268 14:1.5301275 15:-0.13077623 16:-0.046302762 17:0.53695446 18:0.47014976 19:0.099370159 20:0.068718918 21:1.1595639 22:1.5850936 23:0.16160993 24:0.18734893 25:0.24185729 26:0.19597323 27:0.32849044 28:1.5233519 29:-0.19761309 30:1.9515646 31:0.35837701 32:-0.12494995 33:1.3161554 34:0.41977596 35:-0.99061769 36:1.2730608 37:-0.038840562 38:1.5000496 39:0.94896865 40:1.0752943 41:0.2248697 42:0.69739127 43:0.26514167 44:-0.92213398 45:-0.48096541 46:5.4419641 47:4.0277662 48:-0.28697717 49:-0.34179264 50:1.5931616 51:-0.44286171 52:-0.072820924 53:-0.81766742 54:0.56749058 55:0.038498513 56:0.11344642 57:0.41455901 58:-0.065027162 59:-0.37029278 60:0.5377866 61:1.3834987 62:0.15648165 63:0.496418 64:1.5650437 65:1.3216419 66:-0.21655706 67:1.0869519 68:-0.58612865 69:0.058880597 70:1.0879583 71:-0.3978827 72:0.243007 73:-0.4453617 74:0.54584128 75:0.56066626 76:0.15879744 77:-0.13147436 78:1.0898827 79:0.55313712 80:-0.77396876 81:-0.70646089 82:0.1517695 83:0.064401895 84:-0.37464038 85:2.0387402 86:0.57178962 87:0.91847074 88:1.9258125 89:1.882925 90:-0.65428466 91:-0.31554428 92:-0.20468935 93:0.0076511703 94:0.37284678 95:0.34981522 96:-0.48129103 97:0.63010746 98:0.4140096 99:0.47253272 100:-0.62718916 101:0.15425391 102:-0.46700364 103:1.590063 104:-0.11317277 105:1.5517215 106:-0.066276513 107:-0.057445366 108:1.5502274 109:0.53317201 110:0.71451521 111:0.15701942 112:1.2013911 113:0.097146422 114:2.4922862 115:1.6656215 116:0.6411761 117:-0.13748002 118:-0.64926153 119:-0.36229664 120:-0.24497984 121:0.68926501 122:-0.0016945442 123:1.1183801 124:-0.22927865 125:-0.036274619 126:-0.75212318 127:0.40654716 128:-0.20287886 129:1.0317168 130:-0.37345797 131:0.47733638 132:1.414686 133:0.094560035 134:0.023578694 135:1.6350887 136:-0.25239578 137:0.059724431 138:1.1185519 139:-0.023184281 140:-0.39567992 141:-0.2921041 142:-0.19519663 143:0.62556529 144:-0.11467577 145:0.25720888 146:0.18998162 147:-0.11247438 148:0.41916582 149:0.12517834 150:-0.93455821 151:0.35033721 152:0.70442057 153:0.92159861 154:0.16295251 155:0.26126763 156:-0.027957499 157:1.5026565 158:0.26733056 159:-0.83059138 160:1.6816044 161:0.030084068 162:-0.86884665 163:-0.39618796 164:1.8301567 165:1.2898434 166:0.47325262 167:1.1242691 168:-1.4120368 169:0.56728172 170:0.006293308 171:-0.07115341 172:2.0735486 173:-0.44401696 174:0.24366215 175:0.27788204 176:0.074189864 177:0.81811941 178:-0.69140136 179:0.07225538 180:1.3577764 181:0.43552211 182:-1.2894564 183:0.24954347 184:1.0848278 185:-1.0938413 186:1.2324958 187:-0.38208544 188:0.49609104 189:0.25295231 190:-0.26944038 191:0.75604552 192:0.38987574 193:2.3133659 194:0.053713556 195:0.3897374 196:1.4057032 197:0.9560976 198:0.62367606 199:-0.24873601 
0.1083839355643029 0:1.3331447 1:1.1078352 2:1.0053068 3:-0.074601568 4:1.3456446 5:0.99883568 6:0.26623285 7:0.63377297 8:1.5239097 9:0.46754357 10:0.07720641 11:-0.063285559 12:0.64057809 13:-0.09587767 14:0.63109392 15:0.69094604 16:1.1128757 17:0.93679625 18:0.56784797 19:0.87434375 20:0.21579635 21:-0.20076309 22:1.7113106 23:0.86092025 24:0.53493893 25:1.3444847 26:0.14924665 27:0.58565092 28:0.85500425 29:-0.17239882 30:0.31049025 31:0.66248381 32:-0.45788279 33:-0.24127415 34:0.74466538 35:-1.3231747 36:0.33945113 37:-0.60252225 38:0.43657991 39:1.4238065 40:0.12361101 41:1.4479655 42:0.30226502 43:0.62941164 44:0.70829827 45:1.0231439 46:1.7837358 47:-0.25037703 48:2.342958 49:1.3011066 50:0.59564376 51:0.25221461 52:0.46173877 53:-0.64229488 54:-0.40670395 55:1.7265466 56:0.021722484 57:0.57019991 58:-0.087503143 59:2.2476289 60:0.021835607 61:0.38515744 62:0.52904844 63:-0.37524536 64:-1.5312854 65:-0.1630702 66:0.55349153 67:0.98371422 68:0.46293235 69:0.33425754 70:-0.17420647 71:-0.50290519 72:0.81138474 73:0.074682556 74:0.57360804 75:0.78121805 76:1.0540369 77:0.40197062 78:-0.076876335 79:0.94021362 80:-0.59163445 81:-0.60254896 82:0.25263676 83:0.80447978 84:0.2167892 85:-0.2909458 86:0.46138075 87:1.0268466 88:1.0165389 89:0.097017519 90:1.0412 91:1.3310666 92:0.35012513 93:0.32911676 94:0.66941923 95:-0.35347471 96:1.0116163 97:1.4210931 98:0.44023705 99:1.0785002 100:0.064665191 101:0.12965953 102:-0.51003599 103:0.28427634 104:0.85518765 105:-0.82931852 106:-0.93302178 107:0.012116206 108:-0.021194987 109:0.26320931 110:0.52401936 111:0.39921087 112:0.38415372 113:0.41371053 114:0.049183156 115:0.61733937 116:1.9464996 117:1.2127061 118:1.4092656 119:-1.0789298 120:0.2128467 121:0.18122187 122:0.44818786 123:-0.59057403 124:0.12349618 125:0.43081132 126:0.55008692 127:0.87141484 128:-0.1634222 129:-0.0089002866 130:-0.41586316 131:0.43812871 132:1.0810838 133:0.42260852 134:0.33508557 135:0.59777367 136:1.6134197 137:-0.52128404 138:1.7046062 139:1.6586149 140:0.43519741 141:-1.27125 142:1.4158499 143:0.60606551 144:1.3399045 145:-0.19760145 146:0.027816361 147:1.8852073 148:0.24469234 149:0.017236732 150:-0.46701655 151:0.51686782 152:0.21323006 153:0.58370149 154:-0.037120689 155:-0.57846773 156:1.3939598 157:0.0090574622 158:-0.05669694 159:0.77414256 160:0.58061421 161:0.21101443 162:0.21986254 163:0.20832108 164:0.047896955 165:0.67924672 166:-0.17824475 167:0.61845863 168:-0.57255477 169:0.4592036 170:0.48634604 171:0.45478198 172:0.47157028 173:-0.43701509 174:0.14680088 175:-0.16678745 176:0.41055474 177:0.60253072 178:0.35877961 179:0.70788586 180:0.79816556 181:0.72869337 182:0.16705118 183:-0.20878217 184:-0.10615718 185:0.48505601 186:0.71964556 187:1.4671676 188:0.3200669 189:0.4474307 190:0.48663491 191:0.33669552 192:0.03618522 193:0.12158656 194:0.35756886 195:0.44370377 196:-1.0776731 197:0.19457239 198:0.39736444 199:-0.65967947 
0.7839756849144837 0:1.2810675 1:0.1499286 2:1.1622673 3:0.72358739 4:0.59222901 5:1.5838695 6:-0.577564 7:0.56832319 8:-0.48130202 9:1.0503043 10:0.30354112 11:0.30838564 12:1.0635934 13:0.50069648 14:-0.34269032 15:1.8257192 16:0.63425887 17:0.84184033 18:1.0247744 19:-0.25609785 20:0.57549942 21:-0.088566802 22:0.063811533 23:0.062766835 24:1.1177152 25:1.1905575 26:-0.34951156 27:-0.46028939 28:1.7246867 29:0.85702127 30:-0.070690662 31:1.3647299 32:-0.15113445 33:0.15934224 34:0.76062512 35:-0.17188506 36:0.75878704 37:-0.29607844 38:1.2236674 39:-0.35605267 40:0.33998623 41:0.23673113 42:0.81011873 43:-0.83690435 44:1.1115005 45:0.70987576 46:0.57981634 47:-0.28587368 48:0.44780347 49:1.6656693 50:1.0509884 51:3.6669505 52:0.839912 53:0.64264733 54:0.21071051 55:0.61758077 56:0.47518414 57:0.82586372 58:1.3246589 59:1.476563 60:-0.090860561 61:1.2396231 62:0.3037585 63:1.3139675 64:0.38567206 65:-0.20890991 66:1.375922 67:0.19648542 68:1.0094078 69:0.91433156 70:-0.32983178 71:0.86979657 72:0.74421877 73:-0.40147963 74:0.43072221 75:0.82457656 76:0.73769665 77:1.1844302 78:-0.62444377 79:-0.40313452 80:0.72435445 81:0.15764371 82:-0.095238827 83:0.55458111 84:-0.13502662 85:-0.079927452 86:0.3114222 87:-0.24686228 88:1.0561998 89:0.52645457 90:0.6582008 91:1.4942416 92:1.2316538 93:0.94271266 94:0.50412512 95:-0.034855243 96:0.90481126 97:1.9649588 98:-0.1319727 99:1.952598 100:0.42213675 101:-0.12051639 102:0.13968386 103:0.78855085 104:2.677705 105:2.45941 106:0.76929218 107:1.6021863 108:-0.20183337 109:-0.10725987 110:1.0549295 111:0.15277864 112:0.062701091 113:0.18712497 114:0.080899879 115:0.47987062 116:0.43336043 117:1.1542462 118:0.45448667 119:0.12308475 120:0.51422113 121:0.19190161 122:0.51264423 123:-0.80186307 124:0.68685186 125:0.47236058 126:1.1499306 127:1.0711269 128:0.50970697 129:0.17016137 130:0.99493575 131:-0.17598751 132:0.61938345 133:0.5307216 134:1.4632457 135:0.33176515 136:0.34658223 137:0.4306725 138:-0.27931005 139:-0.5986439 140:0.33594829 141:0.38646153 142:0.79838085 143:-0.041970059 144:1.0459622 145:2.6950061 146:0.028475428 147:-0.13131526 148:0.89677083 149:-0.0044277092 150:-0.034286659 151:0.11866065 152:0.3843357 153:0.8095783 154:1.1281248 155:-0.69478196 156:1.299062 157:1.5655614 158:0.25904879 159:-0.20373738 160:1.0908079 161:0.76763624 162:0.93446928 163:0.65125984 164:1.1142777 165:0.26014388 166:0.10914274 167:0.14984164 168:-0.21582785 169:0.38298288 170:1.0157371 171:0.49943954 172:0.42083594 173:-0.33462137 174:-0.029895399 175:0.024591317 176:0.53053707 177:0.97743392 178:0.61444873 179:0.46200582 180:0.91874331 181:0.307859 182:0.46819806 183:-0.31494763 184:0.24195904 185:0.049997922 186:0.19691113 187:0.54048473 188:1.180426 189:0.085903928 190:0.97275633 191:1.1852235 192:1.3876711 193:0.98148328 194:0.30731127 195:-0.37954831 196:-0.15988818 197:0.046147794 198:0.76852798 199:0.66869992 
0.9184951654859406 0:-0.41365716 1:1.2958701 2:1.2358172 3:0.51837629 4:0.082293496 5:0.82727677 6:0.31518176 7:0.20021731 8:0.73603112 9:0.069105297 10:1.1373339 11:-0.19761427 12:-0.35770217 13:-0.56480807 14:-0.18775742 15:-1.2309788 16:1.2172937 17:0.13116342 18:0.36975941 19:-0.13820015 20:0.82071185 21:-0.15643004 22:-0.2589803 23:-0.99640447 24:-1.1451205 25:0.018868199 26:-0.11909612 27:1.508284 28:-0.15270075 29:-1.1501228 30:-0.064576209 31:0.51707393 32:0.10973861 33:-0.7598955 34:-1.4777198 35:0.13441919 36:-0.4385379 37:0.42099923 38:0.58226937 39:-0.78677326 40:0.47175118 41:1.0451969 42:0.02282545 43:0.42660826 44:1.0845854 45:0.82900411 46:-0.47708166 47:-0.6938445 48:-0.84933454 49:0.83464259 50:-1.153172 51:-0.90335017 52:7.1270304 53:4.6267295 54:-1.1440518 55:0.29187649 56:1.6930958 57:-0.082076952 58:-0.9647944 59:-0.50459582 60:-0.60663134 61:-0.15191115 62:0.42513484 63:-0.86651587 64:-0.27242094 65:-0.85216975 66:0.14154069 67:0.73491114 68:-0.28331578 69:0.93640178 70:-0.5793649 71:-0.32883954 72:0.33016175 73:-0.090656064 74:-1.3305563 75:-0.66192377 76:-1.0314151 77:0.45681861 78:0.93792421 79:-0.45957583 80:0.19723436 81:0.17593695 82:-1.0200326 83:-0.46188316 84:-0.61896104 85:-0.50120413 86:0.25487015 87:-0.9478364 88:-0.30960771 89:0.53990233 90:0.34583646 91:0.48504695 92:-0.047048438 93:0.66129637 94:0.32872507 95:-0.17752336 96:-0.45668051 97:1.0369201 98:-0.1322836 99:0.88434792 100:0.21084861 101:0.28706238 102:-1.130476 103:-0.39179561 104:0.35290149 105:0.0046889428 106:1.9590139 107:-0.92243081 108:0.28984827 109:-0.77194107 110:-0.94647658 111:0.044399105 112:0.032278143 113:0.09054482 114:0.043448038 115:-0.32362103 116:-0.57499349 117:0.057538029 118:0.041508213 119:-0.46031308 120:-0.33181688 121:-0.81922263 122:0.53985888 123:0.14999187 124:0.48483109 125:0.50330871 126:0.5262382 127:1.2365837 128:-0.71396351 129:-0.94710481 130:-1.3192852 131:-0.727723 132:-0.39972261 133:0.59030312 134:0.10879628 135:0.29013592 136:0.10877422 137:0.14461842 138:-1.1362517 139:-0.10757046 140:-0.84194458 141:-1.0277889 142:0.96426702 143:-0.18515258 144:0.3939895 145:-0.9605087 146:0.09075854 147:0.027686046 148:0.019053556 149:3.1068721 150:0.68675476 151:0.31760439 152:-0.82877499 153:0.70479685 154:-0.72846019 155:-1.5563519 156:-0.39351749 157:0.30498624 158:-0.39219451 159:0.53191131 160:-1.0429362 161:0.94044662 162:0.70663881 163:0.79801351 164:0.32375321 165:-0.29187596 166:-1.0061419 167:0.1644668 168:1.5077778 169:-0.11721259 170:-0.32478774 171:0.3731119 172:0.22514886 173:-0.65142566 174:-0.76878238 175:-0.37126276 176:0.54863185 177:-1.2009341 178:0.3993552 179:0.040085223 180:1.6594976 181:0.23476091 182:0.81288731 183:-1.4194908 184:4.4566612 185:0.29126376 186:-0.31278324 187:-0.98430467 188:-1.8971959 189:0.51801795 190:0.57807988 191:-0.82264715 192:-0.36896226 193:0.15564938 194:0.82619512 195:-0.17127442 196:0.093999609 197:-0.31604773 198:-0.9352932 199:-0.42056781 
0.7275132170016677 0:0.26695937 1:1.4033568 2:0.9297573 3:0.42316517 4:0.37426955 5:-0.3027668 6:0.89034486 7:0.020399634 8:0.13428809 9:0.82473397 10:0.43167061 11:0.86536044 12:0.75832695 13:0.81678426 14:0.71595615 15:-0.020355262 16:1.0724289 17:0.5056712 18:1.1471118 19:0.095453061 20:1.1741812 21:0.23953356 22:1.0312731 23:0.80944014 24:-0.32469252 25:0.13161039 26:0.42104733 27:-0.78691661 28:1.2281138 29:-0.22840823 30:-0.78943563 31:0.53317684 32:-0.22109859 33:0.42167655 34:0.23024285 35:0.48353878 36:0.32394037 37:-1.7698206 38:0.99070245 39:0.84844089 40:1.3454947 41:0.68624437 42:0.27901629 43:0.65263158 44:1.2494248 45:0.56600183 46:-0.28567484 47:0.66721189 48:0.68837416 49:0.98719954 50:0.68637276 51:-0.26854965 52:-0.99445134 53:-0.37953049 54:8.0357161 55:2.8372796 56:0.93807739 57:0.33188862 58:-0.37467068 59:0.40249225 60:-0.061129011 61:1.678548 62:0.44601345 63:0.27949613 64:-0.46047336 65:0.3883079 66:0.090491444 67:-0.83173221 68:0.23719482 69:0.13474944 70:0.24154648 71:-0.18726861 72:1.0255671 73:0.39178577 74:-0.60913575 75:0.19316824 76:0.015366029 77:0.51763016 78:-0.20071109 79:1.7834028 80:0.42235616 81:0.14661363 82:0.69016254 83:0.56457883 84:0.68115878 85:1.2946084 86:0.54494435 87:-0.75302577 88:0.15689553 89:-0.60929525 90:1.8453156 91:0.73478514 92:1.3169966 93:0.9063434 94:0.65763366 95:0.73595464 96:-0.42459407 97:-0.19008945 98:0.52743131 99:-0.3793799 100:0.56341672 101:-1.3395047 102:1.0654086 103:0.20981717 104:-0.18276176 105:-1.111524 106:0.89596897 107:0.97142243 108:0.96906102 109:0.17172784 110:0.5959689 111:0.44510964 112:-0.27986321 113:0.80505311 114:-0.16519092 115:0.17580818 116:0.671933 117:0.78407562 118:-0.24842419 119:1.0882503 120:0.45850465 121:0.092702791 122:0.46547729 123:0.52236181 124:0.53633207 125:0.56184834 126:0.51333648 127:1.1934978 128:-0.36268175 129:-0.88831306 130:-0.22098251 131:0.5592345 132:0.45489803 133:0.48770204 134:-0.0059501706 135:0.35310566 136:0.16051559 137:1.1776205 138:-0.64010376 139:0.88163733 140:1.15952 141:0.909563 142:0.64366335 143:0.37775439 144:0.93295038 145:-0.70615315 146:-0.21202023 147:-0.93919539 148:0.94760096 149:-0.045192491 150:1.9525273 151:0.64862603 152:0.71217126 153:0.53993857 154:0.36757654 155:-0.11816127 156:0.34200457 157:-0.41463822 158:1.1625234 159:2.4228115 160:0.48250654 161:0.96081322 162:0.165806 163:1.4966284 164:-1.0684184 165:-0.68516213 166:0.039262723 167:-0.28739926 168:-0.17407551 169:-0.20337182 170:0.96987689 171:0.53253382 172:0.52915239 173:-0.36067083 174:-0.50097233 175:0.88050592 176:0.53561294 177:0.71336269 178:0.66880828 179:-0.12960589 180:1.4634385 181:0.66901749 182:-0.1457181 183:0.51924551 184:-0.030857531 185:1.2070276 186:1.0255812 187:-0.28373694 188:0.25152636 189:-0.92859089 190:-0.20226485 191:-0.03941001 192:0.51107079 193:0.52515525 194:-0.68777758 195:0.44620088 196:-0.30437496 197:0.15344575 198:1.5854858 199:0.45957157 
1 0:0.098110713 1:-0.56868833 2:1.0634958 3:1.2257725 4:-0.021926999 5:0.70224833 6:-0.012910352 7:-0.50108856 8:-0.51419932 9:0.016243011 10:-1.372058 11:0.6033842 12:-0.5162555 13:0.76695901 14:-0.35605499 15:-0.3000516 16:0.5686065 17:0.46336734 18:0.36465311 19:0.75088519 20:-0.59026736 21:-1.1226145 22:1.536711 23:-0.25984469 24:-0.85517645 25:0.83207226 26:-0.60674113 27:-0.10569889 28:1.2785623 29:-0.84656501 30:-0.24320166 31:0.4919627 32:0.85804027 33:-1.42207 34:-1.2842983 35:-0.8844499 36:1.366212 37:-0.59999573 38:0.72126454 39:1.1737676 40:0.83359694 41:-0.00047490961 42:0.0066016512 43:0.83146465 44:1.1415448 45:0.46910557 46:0.33214992 47:-1.1368496 48:0.53908867 49:0.79793751 50:0.10206377 51:-0.27503908 52:-0.1488739 53:-0.52367765 54:-0.69649464 55:0.48178488 56:8.1284904 57:1.3786672 58:-0.44959718 59:0.18090513 60:-0.6517486 61:0.53295624 62:0.52594423 63:-1.0980134 64:-0.83748579 65:-1.3178388 66:0.13563734 67:-0.68962491 68:-0.11959063 69:0.036885489 70:1.3904018 71:1.5947739 72:0.77488917 73:0.020029534 74:0.67912829 75:0.41287857 76:0.95413947 77:0.98884511 78:0.18330847 79:0.091066658 80:-0.69795161 81:-0.84261698 82:0.21082561 83:0.78411204 84:-1.4849547 85:-1.3416998 86:0.45456553 87:-0.37324429 88:0.11396089 89:-0.61087495 90:1.5750338 91:0.25633147 92:1.2321868 93:1.0055175 94:0.73365396 95:-0.090121098 96:-0.041634191 97:0.37262225 98:0.6744197 99:0.054066688 100:0.42334545 101:0.38892937 102:0.085981652 103:0.96845382 104:0.61979216 105:-0.14629373 106:0.33533928 107:-1.4577953 108:-0.43702969 109:-0.15950774 110:0.44533476 111:0.83785486 112:-0.033133525 113:0.6563158 114:0.31418347 115:-0.24716042 116:0.0062868739 117:0.62220889 118:0.32756385 119:-0.90605289 120:-0.84587759 121:-0.99190301 122:0.56973636 123:0.11993243 124:0.67330885 125:0.56249636 126:-1.648703 127:1.0786207 128:-0.25857443 129:1.1041129 130:-1.4291867 131:1.3712335 132:-0.33907464 133:0.71802598 134:0.51554072 135:0.98276001 136:0.16311236 137:-1.0288907 138:0.58216292 139:0.49475741 140:0.38834462 141:-0.37558392 142:1.0872343 143:0.0020063021 144:0.087974049 145:0.089838959 146:0.73772949 147:-0.92259479 148:0.4210898 149:-0.15570641 150:-1.2790594 151:0.75418913 152:0.12787294 153:0.52084672 154:-0.64982283 155:0.41104797 156:-1.5171369 157:1.7572331 158:0.045439426 159:-1.0177486 160:0.80738086 161:0.68451905 162:1.8641486 163:0.54495239 164:0.17956051 165:-0.83855778 166:-1.406776 167:-0.61477619 168:-1.0219903 169:-0.87873918 170:0.24079451 171:0.50325567 172:1.1049601 173:0.61316061 174:0.98241425 175:-0.84482592 176:0.57302344 177:-0.86509311 178:0.80347937 179:0.42329726 180:-0.22651495 181:0.65088594 182:0.95949608 183:1.2645727 184:-0.12514827 185:0.8567428 186:0.18383533 187:-0.50908196 188:0.23334695 189:-0.21815503 190:-0.24861586 191:0.050072163 192:1.4282877 193:-0.83849478 194:0.41569716 195:0.12465443 196:-0.19225258 197:0.69956023 198:-0.69829422 199:0.46284726 
0.07864128502480842 0:-0.10725558 1:0.45201555 2:-0.11711524 3:0.77453953 4:-0.42746267 5:1.2020721 6:0.37722093 7:0.11276106 8:1.2949616 9:1.3714234 10:1.2583636 11:-0.036573239 12:-0.039838184 13:0.78676188 14:1.0158689 15:0.25610539 16:1.129003 17:0.45881835 18:0.58832079 19:-0.28415582 20:-0.025086051 21:0.50072652 22:0.10363483 23:1.0311663 24:0.6895259 25:1.1333802 26:0.57389796 27:-0.35812426 28:0.42727536 29:-0.39320722 30:1.4972297 31:0.64270717 32:1.1124651 33:0.36276436 34:1.0152017 35:0.14719345 36:1.5460013 37:-0.89291406 38:-0.34760109 39:1.1208081 40:0.39645416 41:0.094540931 42:1.7269555 43:0.83775294 44:1.3205822 45:-0.1286222 46:0.43854615 47:0.8339861 48:0.77106649 49:1.4851761 50:1.8589929 51:1.8834704 52:-0.84432459 53:0.45398617 54:0.42141092 55:2.2729731 56:-0.22303098 57:0.86006355 58:0.088935956 59:1.9787982 60:2.5243855 61:0.81970888 62:0.56270349 63:0.15072803 64:-1.1349645 65:0.98138952 66:1.7238559 67:-1.3815888 68:-0.97404742 69:2.1737204 70:-0.57046646 71:0.31856281 72:-0.44940063 73:-0.021984128 74:-0.1539128 75:1.7731534 76:0.20402268 77:-0.035690915 78:0.077981919 79:0.33626038 80:-0.59967262 81:2.6438227 82:0.82370007 83:-0.17500094 84:-0.55606675 85:1.4041773 86:0.68978554 87:0.51430333 88:1.5669526 89:0.74936253 90:1.1347355 91:0.58415312 92:0.28348982 93:-0.07314612 94:0.38670716 95:-0.30199718 96:1.6170629 97:1.5503585 98:1.3421699 99:1.9632664 100:0.61967599 101:0.854559 102:-0.67975736 103:0.39591232 104:2.1266448 105:1.4279392 106:0.62018889 107:1.4352436 108:1.9902169 109:0.22816193 110:-0.69459677 111:0.534756 112:0.51019788 113:0.063437998 114:1.1682284 115:0.24415261 116:1.6356705 117:0.50700653 118:0.70077109 119:0.24844904 120:-0.37720218 121:1.0721505 122:0.47107056 123:-0.4733763 124:0.38774928 125:0.56184834 126:1.11439 127:-0.15794064 128:0.04155146 129:0.32668197 130:1.9043596 131:-0.18791404 132:1.6737849 133:0.37392133 134:0.80815679 135:1.3223652 136:-0.35286701 137:0.54827964 138:0.22879416 139:1.3952693 140:1.6100414 141:-0.355755 142:0.4312025 143:0.31509763 144:1.5507954 145:0.44523853 146:0.3818647 147:-0.63107258 148:0.25441152 149:0.85472339 150:1.9942174 151:-0.13344499 152:1.5945895 153:-0.31673366 154:-0.12326822 155:-1.2220411 156:1.1926723 157:-0.72093439 158:0.067033388 159:1.2335085 160:0.26191089 161:0.22644252 162:-0.22124527 163:0.38657758 164:-0.44263119 165:1.3840791 166:0.98139179 167:2.1781259 168:0.37493095 169:0.14780785 170:1.285985 171:0.49651682 172:1.8253524 173:0.42862889 174:-0.16513848 175:0.4812049 176:0.50094622 177:0.96919519 178:-0.080485776 179:0.86296457 180:0.84712583 181:0.56111652 182:0.97022778 183:-0.21018286 184:0.99674946 185:0.30159059 186:1.4084952 187:1.0382859 188:-0.6300447 189:0.054444186 190:-0.0034181539 191:0.55578488 192:0.65790164 193:0.79638433 194:0.59013438 195:0.77973115 196:-0.80383515 197:0.1782358 198:0.87984508 199:0.080783799 
0.2468380427341141 0:-0.57306939 1:3.1160786 2:0.87888193 3:0.54643804 4:-0.49861678 5:-1.1565119 6:0.62722844 7:-0.00014688805 8:0.51786387 9:0.030694429 10:1.4068385 11:-0.33247498 12:-0.68287247 13:0.12549257 14:1.4986007 15:0.38571644 16:-0.56807899 17:-0.18933554 18:0.33324936 19:-0.68678635 20:0.24867977 21:1.7904569 22:-0.4933995 23:1.3742113 24:0.51629233 25:-0.32726026 26:0.52158827 27:0.72525126 28:0.082869105 29:1.0482161 30:1.3432429 31:-0.76785648 32:0.87157094 33:2.4263115 34:1.3920544 35:0.96574336 36:0.1626586 37:0.85100496 38:-0.65090334 39:-0.92593145 40:-0.15918776 41:0.25873527 42:0.66159272 43:0.69052732 44:0.61918151 45:1.2200644 46:2.1954181 47:2.14907 48:1.9158947 49:0.29568884 50:-0.41031793 51:0.57454944 52:1.2944354 53:0.66439325 54:1.8503898 55:0.65326184 56:0.52927685 57:0.41992718 58:3.1048238 59:0.036965121 60:1.2256663 61:-0.25021791 62:0.5777452 63:1.1677479 64:6.6082878 65:3.0665736 66:0.36209857 67:-0.77912635 68:-0.90900356 69:-0.74799889 70:-0.52602375 71:-0.85452646 72:0.21537353 73:1.0341192 74:1.9571016 75:-0.65955716 76:-0.74138814 77:-0.2409243 78:0.63776702 79:1.5658501 80:1.7447277 81:0.46911937 82:-0.75090396 83:0.7445308 84:-1.5304143 85:0.3323091 86:0.41032597 87:0.91605669 88:0.2795628 89:-0.68827683 90:-0.91575211 91:0.058737524 92:-0.88190174 93:-0.27172717 94:0.19012138 95:0.059067074 96:-1.3007213 97:-0.80150896 98:-0.17718548 99:-0.24526176 100:-0.19359724 101:1.0737729 102:-0.90441608 103:-0.89501458 104:0.96003568 105:2.2768245 106:0.2086625 107:0.3334277 108:1.836212 109:1.1350536 110:0.26931795 111:0.20747854 112:-0.61274391 113:-0.0051263031 114:0.4026489 115:-0.24007781 116:-0.1035051 117:-0.11795548 118:-1.4609556 119:0.88854057 120:1.3910252 121:2.5744443 122:0.40256256 123:0.13604957 124:0.066934124 125:0.40115917 126:0.027430087 127:-0.0062466208 128:-0.58426696 129:-0.21255097 130:1.4153975 131:0.75929779 132:-0.6547299 133:0.22212724 134:-0.1420119 135:-0.053687505 136:2.3353143 137:0.95709294 138:0.50191939 139:-0.93405145 140:-0.16367295 141:0.29619813 142:-1.6989701 143:0.19717288 144:-0.84678161 145:0.25486308 146:0.49934191 147:0.28757784 148:0.099277094 149:0.69826889 150:1.0232204 151:-0.13174717 152:0.12096275 153:-0.18477406 154:-0.18081173 155:-0.45668793 156:0.78763855 157:-0.24006552 158:-0.89520073 159:0.13159421 160:0.40987137 161:-0.12291871 162:-1.7171891 163:0.034816593 164:0.66563284 165:0.7826485 166:1.4156981 167:1.6017801 168:0.73629618 169:0.49640706 170:-0.014837012 171:0.35468221 172:-1.9565959 173:-1.6172587 174:0.39140698 175:1.910681 176:0.32305789 177:0.48852137 178:-0.075193994 179:-1.1207367 180:0.90383285 181:0.42988795 182:-1.8088075 183:-1.0508882 184:-0.67287368 185:-1.2580532 186:0.80516231 187:0.69178754 188:-0.91988117 189:1.3228893 190:-0.20100243 191:-0.59970933 192:-1.8248304 193:-0.44870174 194:1.577675 195:0.36568049 196:0.050644852 197:0.26228163 198:1.2814677 199:0.9207406 
1 0:-0.48234525 1:-0.22670652 2:0.32028505 3:1.0637287 4:-0.08981172 5:1.3501312 6:0.74945182 7:0.3897118 8:0.67963159 9:-0.66567755 10:0.5917924 11:0.44098219 12:0.090657651 13:0.3015894 14:0.17143911 15:-0.049675059 16:-1.3907551 17:-0.45515031 18:1.1384435 19:0.90799755 20:0.26023802 21:-0.63791656 22:-0.61740297 23:1.7270113 24:-0.43646881 25:0.46094656 26:0.4599506 27:-0.50958419 28:-1.140036 29:1.0065058 30:0.69362342 31:-0.22593525 32:0.28631306 33:-0.40057665 34:1.6180074 35:0.93028784 36:1.660131 37:0.9612509 38:-0.36639744 39:0.8657136 40:-0.81293726 41:0.50178725 42:-1.0826689 43:1.2154597 44:0.81129253 45:-0.10321409 46:0.012438856 47:0.040924169 48:-0.14618632 49:-0.75802165 50:-0.89433545 51:-1.3484521 52:0.25329694 53:0.51130891 54:-0.25845256 55:-0.93113589 56:0.23582888 57:0.08541251 58:1.1356484 59:-1.1629627 60:-0.095432289 61:-0.27046639 62:0.51210105 63:0.14417934 64:0.86449856 65:-0.34863815 66:4.491044 67:3.7409363 68:0.45593747 69:-0.9692117 70:1.561323 71:-0.50987446 72:0.31595886 73:-0.87503916 74:-0.42404625 75:1.048311 76:1.5302564 77:1.2785866 78:1.631283 79:0.05764775 80:-0.35765877 81:0.49459213 82:0.43227327 83:0.46356574 84:0.12187292 85:1.1611756 86:0.41737866 87:0.39735124 88:-0.39476469 89:0.19569208 90:-0.7506398 91:-1.8825145 92:-0.037814632 93:-0.039606743 94:0.63015288 95:1.0518681 96:-0.16691612 97:1.2326876 98:-0.34829929 99:0.8868103 100:0.0061121513 101:0.34106171 102:0.27236173 103:-0.040141314 104:-0.81904167 105:-0.10017345 106:-1.3475351 107:-0.11670315 108:-0.1400717 109:0.33385196 110:-0.099910252 111:0.24447779 112:1.0986782 113:0.73470056 114:-0.17722347 115:-0.29290399 116:0.57398552 117:0.33475867 118:-0.43155676 119:-0.54489464 120:0.22173102 121:0.57183272 122:0.59467036 123:0.1073527 124:0.27129796 125:0.51871794 126:0.22632532 127:-0.17437734 128:1.4079559 129:-0.15189971 130:0.77751476 131:-0.28256616 132:-0.29046372 133:0.34486982 134:-1.3088765 135:-0.16371924 136:0.36278346 137:1.1329008 138:0.061701007 139:0.5268653 140:1.5127127 141:-0.5116449 142:-1.1283011 143:-0.077618912 144:-1.7588817 145:0.52772784 146:0.45955208 147:0.46674448 148:0.50399446 149:0.41282031 150:1.0604918 151:0.25684634 152:0.8833313 153:-0.13438435 154:0.88865983 155:0.73321921 156:0.32827529 157:2.2128172 158:0.68885756 159:-0.55763298 160:0.4327507 161:0.28537267 162:-0.21652411 163:0.18071948 164:0.62481111 165:-0.16515045 166:1.1613342 167:0.72657526 168:0.97866839 169:0.3715952 170:-1.9908823 171:0.5595147 172:-1.0259128 173:-0.65607542 174:0.51064914 175:0.34136295 176:0.4982025 177:0.59841931 178:0.57697845 179:0.1283657 180:-1.8502704 181:0.49620804 182:-0.7687946 183:1.1753359 184:0.38240099 185:-0.92580795 186:0.053756084 187:1.412259 188:0.48369193 189:0.41986117 190:2.782249 191:-0.32578102 192:-0.42038614 193:0.38866052 194:0.93944031 195:0.8843419 196:-0.0037643067 197:0.00023425277 198:0.25096834 199:-0.099233717 
1 0:0.65383577 1:-0.93831694 2:0.053351674 3:-0.1383386 4:0.51664674 5:-0.17627783 6:1.2470639 7:-0.38221607 8:0.26305115 9:0.38107967 10:-1.0525746 11:0.86107951 12:-0.22299458 13:-0.59414297 14:-0.5589211 15:-0.59975559 16:0.60826737 17:1.4576678 18:1.6216995 19:0.20597121 20:0.086066023 21:-1.1329937 22:0.72791505 23:-0.14354464 24:-0.51908523 25:0.49663702 26:-1.4844635 27:0.4263913 28:0.65983433 29:-0.6663025 30:-1.0828274 31:0.48122746 32:0.8847087 33:-1.1113865 34:-0.96411991 35:-0.042564146 36:0.43704501 37:-0.26831275 38:1.2042516 39:-1.0520866 40:0.0036998428 41:0.67164654 42:0.62905419 43:-0.62838775 44:0.92483854 45:0.10568373 46:-1.5409122 47:-1.0090768 48:-0.53829831 49:0.86496371 50:0.87923449 51:1.9822091 52:0.26504722 53:-0.6871807 54:-0.48696598 55:-0.35076299 56:-0.70321304 57:-0.092985392 58:-0.17753214 59:0.4872216 60:-1.1495806 61:0.21798362 62:0.51270032 63:-0.59858555 64:-0.40603489 65:-1.40279 66:0.49950954 67:-0.50542039 68:0.61258304 69:0.47388366 70:6.9035425 71:4.5970907 72:0.33815989 73:0.2711153 74:0.21139483 75:0.47745296 76:0.04634358 77:0.37390715 78:-0.68272001 79:-0.34172392 80:-0.74425346 81:-0.83176178 82:0.15041405 83:0.15593931 84:4.5301476 85:-0.40243024 86:0.59238964 87:-0.80980313 88:-0.16529781 89:0.89679438 90:1.2631451 91:0.79207617 92:1.0843526 93:0.74564552 94:0.76508683 95:0.4096812 96:-0.11678467 97:-0.078679085 98:1.1659468 99:0.14343165 100:0.84568822 101:0.74196517 102:0.5828464 103:-0.5012877 104:-0.10740715 105:-0.072664127 106:-0.032144085 107:-1.1211315 108:-1.2902051 109:0.072335616 110:0.27204841 111:0.97369498 112:-0.18924592 113:0.93301696 114:-0.64452517 115:-0.31949508 116:0.23958135 117:0.8154462 118:0.32722726 119:-1.6545823 120:-0.88772726 121:-1.4128941 122:0.51328129 123:0.17059502 124:0.50644994 125:0.51858836 126:-0.99881667 127:1.0785083 128:-0.53411049 129:-1.0124013 130:-1.4726839 131:-0.39084956 132:0.20114377 133:0.41769314 134:-0.2813251 135:0.17569076 136:-0.07480076 137:-1.8195944 138:-0.50729334 139:-0.19036557 140:0.32313874 141:-0.64748007 142:0.80920321 143:-0.036908958 144:0.47251269 145:-0.65284127 146:-0.91004026 147:-0.55007505 148:0.36343262 149:-0.86832148 150:-1.0271771 151:0.71957105 152:0.26267749 153:0.48050907 154:-0.47572121 155:-0.51071841 156:-1.4650084 157:-0.4444038 158:0.16509186 159:0.20158151 160:1.0938519 161:1.0392715 162:0.41052723 163:0.435193 164:-0.46026683 165:-0.9019177 166:-1.5865208 167:-0.87724441 168:-1.0459416 169:0.86058062 170:0.80525154 171:0.49841848 172:0.36821339 173:-0.022332232 174:-0.31666616 175:-0.74358547 176:0.52889085 177:-0.90706122 178:1.3394386 179:0.065234087 180:-0.025162753 181:0.40446728 182:0.47942218 183:0.28715321 184:0.13430074 185:0.82397956 186:0.054804053 187:-0.92028475 188:-0.99533063 189:0.53223735 190:-0.84100497 191:-0.19893573 192:0.53400153 193:-0.83276182 194:-1.2154343 195:0.05984126 196:-1.205461 197:0.22025871 198:-0.90735877 199:-1.1066608 
0.6052420247372651 0:1.6794567 1:1.2729632 2:1.9766223 3:1.6179516 4:1.5793854 5:1.7583336 6:1.6555237 7:1.5449151 8:1.9834008 9:2.4380543 10:2.2212188 11:0.96731019 12:1.5087919 13:1.99958 14:1.6956711 15:1.8157189 16:1.8138527 17:1.5957246 18:1.0484251 19:1.1661065 20:2.401479 21:1.2346482 22:2.0180538 23:1.5719409 24:1.287689 25:1.8776158 26:1.5976145 27:1.5288011 28:1.2993594 29:1.2771003 30:1.6432968 31:2.2704506 32:1.2644999 33:2.443218 34:1.7916934 35:1.3450441 36:1.9228359 37:1.1181421 38:1.6257635 39:1.4228903 40:2.3597512 41:1.6781609 42:0.93242198 43:2.5630229 44:1.5239947 45:1.496444 46:0.90590924 47:1.8815221 48:1.6217667 49:1.9694619 50:2.0413735 51:1.5520496 52:1.4197096 53:0.64821774 54:2.3321691 55:1.4809254 56:1.6189122 57:1.4194787 58:1.0121115 59:2.0041478 60:2.0923626 61:1.4642744 62:0.57033819 63:2.1868172 64:1.5261163 65:1.9738377 66:0.62321031 67:2.2746007 68:2.0424361 69:2.2340381 70:1.4074831 71:1.6286269 72:1.7996577 73:6.3542247 74:1.8124443 75:1.9909106 76:1.5408853 77:1.3669556 78:1.4658436 79:1.3095514 80:2.4329317 81:0.91753739 82:0.99317133 83:1.1825874 84:1.5144609 85:2.6997249 86:0.8379156 87:1.6542377 88:1.6522027 89:1.9307433 90:2.5300827 91:1.4497356 92:1.1750784 93:0.95591879 94:0.96326751 95:1.2929814 96:1.5173953 97:1.7334567 98:1.2160871 99:2.0017221 100:1.2250124 101:2.052861 102:1.4475619 103:1.5460413 104:1.8249626 105:2.1526914 106:1.3504221 107:1.5912116 108:1.525746 109:1.6937801 110:2.1835399 111:0.74893373 112:2.1544943 113:1.4577626 114:1.9521292 115:2.5292704 116:1.3379875 117:1.0820332 118:2.1543398 119:2.8209133 120:1.5721468 121:1.6060232 122:0.58780301 123:2.1644421 124:0.84744686 125:0.59747499 126:1.0169368 127:1.0643073 128:1.5951718 129:1.3573885 130:1.7739594 131:0.91199499 132:1.4286665 133:0.7140184 134:1.9202946 135:1.3022826 136:1.7564292 137:2.6486189 138:2.3322132 139:1.6277792 140:1.1217349 141:2.2169116 142:1.4517634 143:1.7626183 144:1.5528967 145:2.1114221 146:3.2699275 147:2.20403 148:1.4206629 149:2.1333404 150:1.3678496 151:1.2815416 152:0.58711565 153:1.6187564 154:1.1229976 155:2.0007493 156:2.1851232 157:1.6696795 158:1.595363 159:0.9734624 160:1.5521195 161:0.87564605 162:1.782147 163:1.1803937 164:2.1855223 165:1.3681525 166:1.8709577 167:2.5210264 168:2.0504127 169:1.4983182 170:1.3759305 171:0.68479574 172:1.8248056 173:1.8242092 174:1.3990573 175:0.98583227 176:0.61509818 177:2.0860653 178:1.4993645 179:0.85448259 180:2.4768546 181:0.84870231 182:2.2695904 183:1.7021545 184:0.61379683 185:1.3995893 186:1.1388097 187:2.8423433 188:2.7344866 189:2.5855985 190:1.9348677 191:1.691539 192:2.4009764 193:0.80774772 194:1.8344716 195:1.1206079 196:1.6270016 197:1.5821636 198:1.408841 199:1.7746981 
0.1440420488013903 0:-0.094108172 1:0.10356732 2:0.95291966 3:-0.049501974 4:-1.0387493 5:0.64316916 6:0.93359649 7:-0.42757776 8:-0.45359692 9:0.82238817 10:-0.48990142 11:-0.27986693 12:-0.36415398 13:0.27951199 14:-0.75503439 15:-0.79226047 16:0.18310834 17:1.4946078 18:0.45654857 19:-0.17264964 20:-0.60507721 21:-0.4672232 22:-0.43898848 23:-0.57970786 24:0.55050194 25:0.67448658 26:0.20997685 27:-1.0967246 28:1.2928632 29:0.0073073194 30:0.43157449 31:-0.52383846 32:-0.53464121 33:-0.29602855 34:-0.95820415 35:-0.35874879 36:0.41174448 37:-0.20186359 38:0.21052366 39:1.1411239 40:2.053648 41:-0.37339202 42:0.37417957 43:-0.45775986 44:0.59880912 45:1.395007 46:-0.076148577 47:0.16334088 48:0.73268855 49:0.22662123 50:1.8324773 51:0.41873363 52:-0.10003274 53:-0.0061604856 54:-0.35407305 55:0.85431701 56:0.49864885 57:1.529382 58:-1.3841997 59:0.20044608 60:-0.70790887 61:1.6146348 62:0.53179312 63:-0.32586762 64:-0.55077881 65:-0.36472723 66:0.98992902 67:-0.34969217 68:-0.47419193 69:-0.26042148 70:0.19745918 71:-0.84772897 72:0.2285423 73:-0.35277742 74:2.3927395 75:3.5835884 76:-0.14034912 77:0.97624642 78:-0.13336387 79:0.17044315 80:0.057622898 81:-0.26345849 82:1.4951439 83:0.38110885 84:0.011949916 85:-1.6723405 86:0.40691838 87:0.39900631 88:-0.14967674 89:0.96236873 90:0.33363107 91:1.4269462 92:0.10872706 93:-0.30326352 94:0.58570653 95:0.3377544 96:0.16312853 97:1.0852875 98:0.68532169 99:1.7019519 100:0.01487519 101:-0.46576914 102:-0.79288077 103:1.7658284 104:0.39534652 105:0.99253684 106:0.98023593 107:-1.5870285 108:-1.1954451 109:0.51904345 110:-1.3378301 111:0.037368018 112:1.2587594 113:0.38383195 114:0.70108163 115:0.15086348 116:0.40616816 117:0.21173893 118:0.51697135 119:-0.31915772 120:0.59394169 121:-0.054824796 122:0.41411859 123:-1.3542204 124:0.54053402 125:0.50395668 126:-0.44014591 127:0.53138971 128:-0.35969484 129:-0.76008934 130:-1.3098987 131:0.6529966 132:1.1145327 133:0.15143095 134:1.3702455 135:-0.71456105 136:1.4912679 137:-1.6040206 138:-0.30387437 139:1.1037477 140:-0.48775214 141:-0.0036682731 142:0.16383278 143:-0.177191 144:-0.10475033 145:-0.38273224 146:-0.75052273 147:0.54414254 148:-0.35443339 149:-1.2145096 150:-0.98952955 151:-0.57031637 152:0.77177382 153:0.22187483 154:-0.37906116 155:-0.33501801 156:-0.63128501 157:0.68445325 158:-0.65410095 159:0.16438578 160:0.31786463 161:0.066704102 162:0.050297949 163:1.5143553 164:0.56260383 165:-0.8309353 166:-0.080691859 167:-0.62238717 168:-0.32681921 169:-0.53282326 170:0.078137733 171:0.48061419 172:0.51170444 173:0.44805464 174:0.13664508 175:-0.63083678 176:0.52039909 177:-1.0716128 178:0.66552866 179:0.11871405 180:0.6851927 181:0.39631417 182:0.27940103 183:0.59487265 184:0.66256374 185:0.32957786 186:-0.07833574 187:-1.3579357 188:-0.57152992 189:0.2427841 190:-0.17921504 191:-0.81012034 192:0.8248722 193:0.50480407 194:-0.96694857 195:0.11599261 196:-0.90766293 197:-0.34704039 198:-0.0037868677 199:-0.91441917 
1 0:0.42714915 1:-0.52488738 2:1.3119254 3:1.1093541 4:-0.43835375 5:0.50003999 6:-0.67787516 7:-1.0507926 8:-1.3243363 9:1.4500182 10:-1.8544953 11:0.33024794 12:0.4171018 13:0.86084211 14:-0.10734028 15:-1.084985 16:1.3984195 17:0.64861465 18:0.67938626 19:0.57205385 20:-0.23633669 21:0.17261502 22:-0.032834101 23:-0.5677042 24:0.65632796 25:1.0719858 26:-0.15618059 27:-0.55790377 28:0.86367011 29:-1.0239998 30:0.18240829 31:-0.039938215 32:-1.5130459 33:0.21441701 34:-1.4840027 35:-1.5114145 36:0.13023077 37:-0.52094787 38:0.33003163 39:0.66711217 40:0.75920081 41:-0.22553684 42:0.99497801 43:0.11387192 44:1.2132719 45:0.5115853 46:0.35846779 47:0.69745791 48:0.78967708 49:0.50495726 50:-0.56415987 51:0.71828759 52:-1.2130226 53:-1.4264793 54:-0.68417156 55:0.58929741 56:-0.79035079 57:0.85807127 58:-1.1379622 59:1.008721 60:-1.2719898 61:-0.009939637 62:0.56999063 63:0.28081101 64:-0.80944252 65:-1.3805916 66:1.0004399 67:-1.1033249 68:-0.32466364 69:0.53369051 70:0.065467104 71:1.5946772 72:0.48067319 73:0.71433604 74:-0.74519056 75:2.4317894 76:5.283977 77:1.0000191 78:0.94078004 79:-0.15364739 80:-1.7689749 81:-1.127939 82:0.40135306 83:-0.58830655 84:0.20208006 85:-1.1833897 86:0.52151853 87:0.3844974 88:0.14650431 89:-1.0027452 90:1.9902049 91:-0.048970815 92:0.64172953 93:0.86905414 94:0.70265871 95:0.3225624 96:-0.12968811 97:0.41959748 98:1.3216987 99:-0.1883969 100:0.16508302 101:-1.5795714 102:0.045834735 103:0.70218164 104:-0.09650521 105:-1.0620021 106:-0.054566167 107:-1.6513473 108:0.35961902 109:-0.6866343 110:0.41267031 111:0.59101701 112:0.13341515 113:0.42619845 114:-0.32543856 115:1.4811752 116:0.31347162 117:0.45785418 118:1.4264916 119:-0.067043409 120:-0.98357648 121:-0.8607924 122:0.57368606 123:-1.1950619 124:0.61788708 125:0.54967904 126:0.5935607 127:0.70517159 128:-0.03926469 129:0.49789622 130:-0.65248942 131:0.97992086 132:-0.62084877 133:0.72863495 134:1.1640832 135:0.41769117 136:-0.73607635 137:0.68421566 138:0.59825695 139:0.42933133 140:-0.34812427 141:-1.0842953 142:1.4176618 143:2.4043074 144:1.1515613 145:-0.94949555 146:-0.91705579 147:-0.34128928 148:0.25429979 149:-1.1240803 150:0.44419697 151:0.53704333 152:0.48234472 153:0.04984827 154:-0.72763431 155:0.80282235 156:-2.109906 157:-0.057461951 158:-0.15614094 159:-0.73962021 160:-0.0065354491 161:0.71755826 162:0.086944252 163:0.85116029 164:-1.1815529 165:-0.55461699 166:-0.51532322 167:-0.20830224 168:-1.0600013 169:0.0683522 170:1.4719567 171:0.54741544 172:-0.18582983 173:1.1521721 174:0.0092931958 175:0.11976343 176:0.58480763 177:-1.1744455 178:0.68942088 179:-0.36055708 180:1.3854897 181:0.51912194 182:0.83702278 183:0.52230823 184:-0.26859695 185:0.68696338 186:-0.088017546 187:-0.3415437 188:-0.55778599 189:-0.79034883 190:-0.98545003 191:-0.45838147 192:-0.16667953 193:-0.40053484 194:0.34298229 195:0.14282531 196:-0.83444422 197:0.20076481 198:-1.3826737 199:-1.0717254 
0.4763532438298577 0:0.75566632 1:0.73805308 2:-0.30136043 3:0.97129446 4:0.21928379 5:0.093614481 6:1.7053266 7:0.26093104 8:0.69434434 9:1.421169 10:-0.97063982 11:0.92540437 12:-0.11712069 13:1.1170139 14:1.0427275 15:-0.13345185 16:0.45483926 17:0.72283059 18:0.83464128 19:0.96007401 20:-0.074576668 21:0.20989212 22:0.16685526 23:0.34302324 24:0.70413285 25:0.69042063 26:1.424099 27:0.45165864 28:0.76489478 29:0.16303238 30:1.1319909 31:0.81960785 32:0.082806848 33:0.35758609 34:1.1247993 35:-0.1597838 36:0.0097713601 37:-0.67286986 38:1.09762 39:1.1582447 40:0.53678972 41:1.3306402 42:0.82247734 43:0.80707586 44:-0.26918435 45:1.1383984 46:0.8396675 47:0.54468334 48:0.096510753 49:0.31604531 50:0.003708042 51:0.023654867 52:0.68181938 53:-0.53101951 54:0.20007423 55:1.2707394 56:0.024852384 57:0.58801818 58:0.68606436 59:0.54612106 60:0.75498676 61:0.84932369 62:0.52177328 63:0.92840695 64:0.94083184 65:0.41029048 66:-0.92553204 67:0.66718107 68:0.66792065 69:0.1598388 70:-0.72785676 71:1.2723827 72:0.87934923 73:-0.11648519 74:-0.43666196 75:0.71557736 76:-0.28889951 77:0.61318851 78:6.1722746 79:6.234148 80:1.0620301 81:-0.72413826 82:0.70485473 83:-0.13247052 84:0.85202837 85:0.83572537 86:0.3783277 87:0.67016065 88:-0.45239168 89:0.36440763 90:0.73210627 91:0.96711677 92:0.58107686 93:0.30405539 94:0.23113792 95:0.26520911 96:-0.0021593287 97:-0.078265689 98:0.39097688 99:-0.24611005 100:0.48376647 101:-0.64538264 102:0.95944685 103:-0.086265177 104:1.1672324 105:-0.23238748 106:0.91762543 107:-0.46968484 108:0.53979653 109:0.33712092 110:0.44803706 111:0.45604959 112:0.50013232 113:0.35912433 114:0.047131825 115:3.3808527 116:0.347985 117:0.18495269 118:1.4729525 119:-0.23052993 120:0.82119912 121:0.57533962 122:0.47360602 123:1.0921761 124:0.11960667 125:0.43287194 126:0.66509545 127:0.64681733 128:0.62067461 129:1.0682057 130:0.040059086 131:1.1304239 132:-0.22877239 133:0.24999852 134:0.12530616 135:0.4329375 136:0.35279679 137:0.57744676 138:-0.78366202 139:-0.44982937 140:1.1411471 141:1.048272 142:1.1570882 143:0.20316315 144:1.0384209 145:0.45667133 146:-0.49454471 147:0.50393647 148:0.13933301 149:0.47806135 150:-0.23369923 151:0.28594095 152:1.067444 153:0.30074927 154:0.49149856 155:0.81176907 156:0.27759528 157:0.98023766 158:-0.00050383282 159:-0.49370533 160:0.2070505 161:0.083436698 162:1.1819866 163:1.0180223 164:-0.24054082 165:0.72145754 166:0.43066117 167:0.76683593 168:-0.85747319 169:-0.03325237 170:1.1782757 171:0.59936064 172:0.020416174 173:0.036384009 174:0.43244168 175:0.0092868684 176:0.42314836 177:1.3951675 178:0.12175851 179:0.25028896 180:0.28373417 181:0.45483404 182:0.81443691 183:-0.4115591 184:2.0764601 185:0.21286283 186:1.1405722 187:0.46470359 188:0.67435664 189:0.061304372 190:1.3189367 191:0.83816022 192:1.4838057 193:1.3379456 194:1.2027391 195:0.25746903 196:1.6810474 197:0.19643623 198:1.2839501 199:1.5110222 
1 0:0.50258768 1:0.744124 2:0.3593483 3:1.719348 4:0.56205267 5:0.38412783 6:-0.16524547 7:-0.35336369 8:0.94953173 9:0.64978957 10:0.40855324 11:0.14364523 12:-0.57893109 13:-0.078824773 14:0.48808122 15:0.11097296 16:0.093583323 17:-0.14335765 18:-0.76731145 19:1.1617609 20:-0.4811672 21:0.47675073 22:-1.3234364 23:0.29159746 24:-0.26354256 25:-0.20602585 26:-0.43897942 27:-0.85780257 28:-0.1403468 29:-0.31298155 30:1.0690298 31:1.8906142 32:0.54139 33:-0.2576322 34:0.75820595 35:0.67621452 36:1.3328282 37:-0.53125304 38:0.50648844 39:0.18038999 40:-0.44212157 41:0.55082732 42:1.3018861 43:-0.72532564 44:0.17235439 45:0.60792267 46:-0.040065072 47:-0.69059336 48:0.40419063 49:0.22396545 50:-0.070906773 51:0.54080862 52:-0.58235282 53:-0.66660821 54:-0.077544861 55:0.50565755 56:0.49068874 57:0.091708191 58:-0.26669329 59:-0.064873368 60:-0.13624503 61:-0.10875168 62:0.39138392 63:-0.066728242 64:0.35624358 65:-0.078862123 66:0.69424427 67:-1.1423723 68:0.26733959 69:0.026646474 70:-0.2570796 71:0.012220407 72:0.57697803 73:0.17097731 74:-0.32815245 75:-0.099239051 76:1.2188261 77:-0.12136129 78:0.4540635 79:0.27298376 80:4.0681353 81:6.137578 82:0.72647345 83:0.39214545 84:1.0955713 85:1.58996 86:0.39491457 87:0.35071471 88:-0.75076443 89:-0.8883177 90:1.1933595 91:0.66775835 92:0.061278891 93:0.89337021 94:-0.012307784 95:0.03012627 96:-0.51609123 97:0.51058728 98:-0.82715625 99:0.32548404 100:-0.20788182 101:-0.80044478 102:1.2136656 103:0.64317983 104:0.46024871 105:-0.21828203 106:-0.088123836 107:-1.0587946 108:0.20061187 109:0.077020504 110:0.24693251 111:0.55990565 112:-1.3231969 113:0.007212589 114:-0.0987565 115:0.073203295 116:0.48714462 117:1.4079894 118:0.24746251 119:-0.59017456 120:0.25007927 121:0.1987603 122:0.3183195 123:-0.20617642 124:-0.25922328 125:0.33748743 126:-0.95531368 127:0.11007984 128:0.32918763 129:-0.26137435 130:-0.1244695 131:0.2911281 132:-0.2195816 133:0.49713081 134:0.11791088 135:0.66643643 136:1.7434573 137:-0.4597238 138:-1.220466 139:-0.64290184 140:0.57602304 141:0.92163217 142:0.98428512 143:0.4813709 144:1.0594294 145:-0.083582468 146:0.50502092 147:0.1025627 148:0.48104331 149:-1.021408 150:-0.16052763 151:0.35086641 152:0.6709953 153:0.35262206 154:-0.70822662 155:0.51203674 156:-0.60709381 157:-0.49922442 158:0.16554058 159:1.4857166 160:1.3261261 161:0.24160434 162:0.79160446 163:0.2807532 164:-0.074435912 165:0.0057238862 166:-0.11608191 167:0.18527548 168:1.4823788 169:0.11852527 170:1.4969617 171:0.38061652 172:0.06498713 173:-0.22466181 174:0.018370163 175:0.66275638 176:0.10933676 177:0.17850633 178:0.056767821 179:0.28958988 180:-0.76162404 181:0.2540485 182:0.76825869 183:-0.4655591 184:0.24997777 185:0.013120588 186:0.59167421 187:0.2112018 188:0.76454157 189:-0.68573165 190:1.8966154 191:-0.32217789 192:0.039591432 193:1.6385072 194:-0.55686033 195:0.49433696 196:-0.9743607 197:0.46392232 198:0.093455687 199:-0.67850685 
1 0:-1.3876516 1:-1.1741092 2:-0.57306778 3:-0.99066699 4:-0.80229777 5:-1.0203055 6:-0.81606948 7:-0.48820692 8:0.029874735 9:-0.96702415 10:0.19631121 11:-1.1380761 12:-0.49856994 13:-0.40698111 14:-0.18905513 15:-0.50873142 16:0.6952914 17:0.66270292 18:0.52380341 19:-0.75012445 20:-0.70596212 21:-0.22578043 22:0.25338948 23:-1.357015 24:-0.84603822 25:-0.5757224 26:0.12262256 27:-0.37961823 28:-0.26686811 29:-0.50064892 30:-1.2265136 31:-1.4567274 32:0.26414889 33:-1.2286897 34:-0.71032679 35:-0.9669019 36:-0.025008602 37:0.25135747 38:-0.85428011 39:-0.08534345 40:0.43337736 41:-1.6134036 42:-0.67341667 43:-0.79144627 44:0.51226133 45:-0.94047672 46:1.2224624 47:1.0384504 48:0.42784283 49:0.10562517 50:-0.15054797 51:-0.87443012 52:-0.2955009 53:-1.0568564 54:-0.50213754 55:-0.057061434 56:-0.96611685 57:0.40037757 58:0.14365159 59:-0.58931363 60:-0.61240023 61:-0.018017218 62:-0.95031202 63:0.45036054 64:0.70481694 65:-0.4552846 66:-0.24440192 67:-0.93650198 68:-0.61147213 69:-0.54895145 70:-1.1041051 71:0.1830806 72:-0.30779055 73:1.0796007 74:-0.85109282 75:0.25644597 76:-0.32855114 77:0.50160867 78:-0.42449948 79:-0.28516814 80:0.87390804 81:-1.1109866 82:6.4480906 83:7.4305558 84:0.97083098 85:-0.63514978 86:-0.56128186 87:-1.1842067 88:0.062256869 89:-0.69405806 90:-1.066772 91:0.83317399 92:-0.97493267 93:-1.1780239 94:-1.5809292 95:-1.0732967 96:-0.62351495 97:-1.258993 98:-0.20807865 99:-1.2352688 100:-1.036456 101:-0.59513944 102:-0.67633224 103:-0.21235499 104:-0.69656122 105:1.688486 106:-0.41356358 107:-1.4371501 108:-0.58872801 109:-0.9795289 110:1.2557126 111:-0.59066051 112:-0.39168364 113:-1.0838554 114:-0.054978523 115:0.87051332 116:0.5426572 117:-1.1713839 118:0.5329051 119:-0.44181785 120:-0.82777709 121:-0.51690447 122:-1.0183191 123:0.22303484 124:-1.0497175 125:-1.1294249 126:-0.63263839 127:-1.1753534 128:0.072329693 129:-0.53039753 130:-0.67515379 131:-0.50079083 132:0.12863268 133:-0.87053341 134:0.58721262 135:0.1342025 136:-0.39511096 137:-0.37279567 138:-0.33006045 139:-1.5256078 140:-1.6432234 141:-0.22832599 142:0.097312458 143:-0.55052233 144:-0.51520348 145:0.29261348 146:-0.62621832 147:-0.28736335 148:-1.2729512 149:-0.45292559 150:-0.29976144 151:-1.407589 152:-0.14544998 153:-1.2612025 154:-0.5481388 155:-0.30959913 156:-1.4337192 157:-1.3179944 158:-1.5277157 159:-0.23063797 160:-1.3386679 161:-1.3293031 162:-0.60191 163:-1.1440415 164:0.27899405 165:-0.57265902 166:-0.9168458 167:-0.71642005 168:-0.64012194 169:-0.29840931 170:-0.53597951 171:-1.2234175 172:0.15589345 173:0.04958339 174:-0.66482735 175:-0.71242869 176:-1.03944 177:-1.5970569 178:-1.5227972 179:-0.63537556 180:0.67957777 181:-0.72061324 182:-0.8931796 183:-0.59464788 184:0.043084569 185:0.094331875 186:0.79544473 187:-0.54940289 188:0.20330641 189:-0.64331496 190:-0.39596024 191:-0.45719677 192:-0.48031563 193:1.9274509 194:-0.64015663 195:-1.7188755 196:0.61303771 197:-0.6875217 198:-1.5554854 199:0.3331975 
